333 50
25 -0.03391474 -0.0090045305 0.051557846 -0.041089714 -0.0335749 -0.038559325 -0.016491696 -0.0053298064 0.04892522 -0.00065867946 0.0054311287 0.027681636 -0.0013352897 -0.053108912 -0.012553037 0.0395834 0.0095744245 0.02548224 0.017232858 -0.028081344 -0.010305194 0.023239916 -0.029270204 -0.03378778 -0.023477064 0.008161663 0.017627923 -0.0014391931 0.04565923 0.007223587 0.008046253 0.015796218 0.02511644 -0.00046986813 -0.018326422 -0.02303033 0.02351834 0.02232468 0.0036388743 -0.026908629 -0.067066275 0.037861858 -0.022936873 -0.055665974 -0.007867396 -0.011643441 -0.047702838 0.05588549 -0.07177025 -0.021383032
119 -0.040240727 -0.00035103314 0.05125757 -0.042286 -0.042914897 -0.030440845 -0.013710949 -0.0159523 0.0654959 0.002737679 -0.0006657634 0.023359545 0.007981118 -0.052427404 -0.013104005 0.04404437 0.0026952021 0.027143387 0.021293754 -0.041675963 -0.022396462 0.033515118 -0.039561093 -0.03620326 -0.0069619794 0.018995732 0.0315692 -0.0033418383 0.055120625 0.004670449 -0.0037530998 0.015198821 0.007894334 -0.000107633554 -0.02019236 -0.02916954 0.006218686 0.02566004 0.007693891 -0.02234816 -0.056831814 0.03987641 -0.019250715 -0.043682016 -0.01692488 -0.024172597 -0.058471907 0.058111705 -0.071150966 -0.013077593
56 -0.03946491 0.002311944 0.060087264 -0.04513447 -0.025482474 -0.04599877 -0.011253738 -0.0055038603 0.058453053 -0.011496357 0.013956778 0.02782319 0.016794745 -0.053129096 -0.022376891 0.048508495 -0.0033352757 0.03629981 0.03208107 -0.031906646 -0.010726781 0.03989315 -0.042492144 -0.032218393 -0.0056927656 0.015720876 0.0152863525 0.0051554553 0.06298989 -0.003265655 -0.0021811742 0.010643639 0.006249068 0.015565302 -0.016737139 -0.017681375 0.0077171535 0.02478504 0.011748325 -0.027529456 -0.070656225 0.04632546 -0.022009084 -0.04963328 -0.018264147 -0.01801329 -0.05764812 0.06320741 -0.07365467 -0.0128849475
277 -0.036864363 0.0019770265 0.045482606 -0.05323615 -0.025064066 -0.046710793 -0.009372369 -0.014536341 0.063102424 0.0048330333 0.013053087 0.020585135 0.0081524905 -0.050129622 -0.008884673 0.04307858 0.0013664349 0.016551455 0.015084348 -0.041393757 -0.0043228273 0.031041566 -0.027005024 -0.030589458 -0.021805152 0.0071805594 0.025742624 -0.002426216 0.051471464 -0.0016856513 0.0065355874 0.015893215 0.019947356 0.0012381207 -0.012554474 -0.012370152 0.011225945 0.03448502 0.0018044288 -0.017811337 -0.06623763 0.03824038 -0.0143441 -0.047565855 -0.006064789 -0.012744952 -0.045416534 0.06607024 -0.061463594 -0.012911479
322 -0.031209672 0.006320532 0.056673516 -0.043728985 -0.024029497 -0.044962015 -0.006307632 -0.011396093 0.06267524 -0.0077494094 0.0156976 0.019332886 0.015076415 -0.049720187 -0.019101804 0.046672214 0.0067208423 0.03021663 0.023578273 -0.03376605 -0.004629295 0.021918006 -0.024177266 -0.026387637 -0.0046036416 0.0036706354 0.022675745 -0.005132226 0.056459967 0.0119087845 -0.0019318732 0.012969863 0.010569714 0.012600468 -0.020318279 -0.018526535 0.008674263 0.020287434 0.005288127 -0.012103384 -0.052077994 0.049467847 -0.010146554 -0.04442385 -0.01685258 -0.02173439 -0.042888638 0.069137685 -0.053741388 -0.015462515
21 -0.038257174 -0.0018217415 0.050792452 -0.04921907 -0.038518317 -0.039467834 -0.0007128356 -0.0068919663 0.056678593 0.0018320513 0.0014298032 0.030302381 0.015860839 -0.060706038 -0.02347461 0.038301323 0.0022577688 0.029311687 0.029946338 -0.032981504 -0.002893133 0.03979588 -0.02646503 -0.031652723 -0.017207965 0.014760605 0.019176776 -0.004625074 0.049205944 0.010265926 0.008234084 0.014789973 0.022181427 0.010658064 -0.019224526 -0.027335478 0.020096272 0.016290924 0.0014187347 -0.018827094 -0.05639467 0.03487947 -0.011947303 -0.044605047 -0.010872763 -0.008503712 -0.049546566 0.058356024 -0.06171701 -0.019615974
312 -0.025596006 0.004155812 0.045449305 -0.053225227 -0.02026705 -0.042693447 -0.01863674 -0.004633223 0.043520734 0.0037577762 0.0025860195 0.028959628 0.01396523 -0.050496344 -0.010500055 0.04462287 0.004997758 0.029903954 0.018845808 -0.022717051 -0.011891937 0.037188847 -0.04002079 -0.03861148 -0.013401141 0.010149938 0.031614825 -0.0017828199 0.062371667 -0.0002302837 0.0058333557 0.014784395 0.0071890065 0.015214254 -0.028508179 -0.026768334 0.007978548 0.029553374 -0.0060454025 -0.026881233 -0.051858563 0.052052934 -0.016211648 -0.050869983 0.0015775723 -0.027321173 -0.04888257 0.055104174 -0.06154811 -0.024337132
252 -0.030804796 0.008694817 0.041445855 -0.036744792 -0.02899192 -0.03517854 0.0006062555 -0.002726798 0.056834884 -0.009575291 0.011408455 0.030476982 0.012404921 -0.04066646 -0.010953465 0.030509172 0.012646226 0.025410406 0.015574443 -0.023044335 -0.015149136 0.031886287 -0.027534805 -0.022205567 -0.0041090404 -0.0015739143 0.028587008 -0.0010798248 0.059246045 -0.0067540756 0.0032362451 0.017543685 0.019344227 0.0138065005 -0.008029454 -0.009891781 0.018686254 0.018192006 -0.006333076 -0.01905509 -0.06406512 0.045222975 -0.015255369 -0.049458038 -0.008305542 -0.010263054 -0.038033806 0.059478804 -0.0665672 -0.0041972958
271 -0.03733054 -0.002987039 0.04313169 -0.05049933 -0.026585776 -0.040391315 -0.009934743 -0.015516074 0.059963614 -0.001363514 -0.00022985986 0.033157315 0.002013683 -0.056068618 -0.015979094 0.042617485 -0.005610035 0.018518448 0.030320164 -0.04029982 -0.015571578 0.03833737 -0.028455222 -0.032172006 -0.020079382 0.009147586 0.016199416 0.009466569 0.057708275 0.008581737 0.0041004336 0.019127436 0.00681523 0.004626365 -0.019075785 -0.023121241 0.013774595 0.032240566 0.0030245532 -0.0096530365 -0.07082166 0.051726926 -0.007406748 -0.053031813 -0.0096607 -0.027898347 -0.057313845 0.07129823 -0.063645735 -0.01744092
203 -0.014346465 -0.011136692 0.036128186 -0.037426997 -0.01832594 -0.020675682 0.0010263728 -0.018114517 0.045000967 0.0031885365 -0.0036533063 0.02800998 0.0007553906 -0.032514993 -0.021042975 0.038882405 0.004128619 0.027761837 0.017706089 -0.03053996 -0.015317304 0.029964423 -0.022563599 -0.023571292 -0.02078068 -0.00013172819 0.007693332 0.003895853 0.044996955 0.009114904 0.0010482146 0.011724096 0.0021919415 0.013661616 -0.018146185 -0.006720163 0.013971835 0.017914886 -0.007036705 -0.011027194 -0.05636383 0.035348736 -0.015155228 -0.04431174 -0.012450033 -0.011513933 -0.030620117 0.05075723 -0.052590348 -0.014775061
122 -0.024497764 -0.0029076324 0.0358302 -0.032576166 -0.022179767 -0.025282884 -0.007237348 -0.007484944 0.05463814 -0.005917005 -0.0020940532 0.03400174 -0.0001201368 -0.058942612 -0.015845273 0.047854442 -0.0012419655 0.018722752 0.03015848 -0.035435133 -0.0043883645 0.036465175 -0.027174192 -0.030392885 -0.019300284 0.010821724 0.017985988 0.012835357 0.053372398 -0.0022188525 0.0046546715 0.0060090153 0.013104794 0.0070027765 -0.0139314355 -0.010162052 0.010402338 0.026430123 0.009097638 -0.00814189 -0.06552764 0.029395325 -0.019296816 -0.044515327 -0.0021162133 -0.0075190472 -0.042638786 0.0589695 -0.05369621 -0.019698516
19 -0.029639456 0.0016111853 0.03885601 -0.040375385 -0.033310898 -0.034891155 -0.0020306015 -0.013988184 0.048782513 -0.016473582 0.009582783 0.016069038 0.008844196 -0.046685744 -0.017151818 0.030604139 0.013235939 0.024959477 0.028087262 -0.023410924 -0.006410868 0.02137225 -0.035029843 -0.025112515 -0.009436343 0.008247305 0.011489465 0.0016203322 0.051111616 0.009517454 0.0056047034 0.011628653 0.022128867 0.013194275 -0.014927148 -0.030364187 0.002439251 0.032580733 -0.002255871 -0.01031747 -0.051030446 0.027523426 -0.018417725 -0.036441833 -0.0026694364 -0.017578986 -0.04982408 0.057843357 -0.04778315 -0.01801208
213 -0.023857975 0.0007641078 0.04313076 -0.040202886 -0.0307232 -0.030644646 -0.007930665 -0.010488128 0.040513117 0.004828303 0.0032110764 0.020102242 0.000454802 -0.043058567 -0.0082330275 0.038063668 0.0131228585 0.021539273 0.023242237 -0.03291514 -0.011475696 0.036205776 -0.029756147 -0.023217263 -0.010547464 -0.0029431323 0.025509352 0.011712737 0.054554157 -0.005777034 0.008724529 0.016000545 0.020904131 0.01312108 -0.00796099 -0.023888677 0.006491778 0.03160614 -0.0058195465 -0.009208621 -0.058193333 0.044404358 -0.011188052 -0.037710704 -0.0016203114 -0.02361774 -0.03314602 0.05210163 -0.05408792 -0.020220311
9 -0.018482389 -0.008026567 0.037225105 -0.034003157 -0.019962193 -0.029994164 -0.0048078294 -0.008865635 0.054451264 -0.00020640547 0.0096791955 0.02664619 -0.0024922828 -0.04826809 -0.014575139 0.034420952 0.0038865919 0.02920814 0.031161556 -0.025407959 -0.011599888 0.021903925 -0.032616746 -0.020787872 -0.0023884792 0.0046698735 0.01816694 0.0090571325 0.045788888 0.011308894 -0.0008812821 0.0022985362 0.020207735 0.011454215 -0.005893447 -0.009441257 0.010236272 0.030836279 -0.0034072027 -0.02163567 -0.055839244 0.035411462 -0.0015071803 -0.050189592 -0.010338202 -0.015104292 -0.043133024 0.061158523 -0.04673973 -0.013851068
26 -0.016794663 0.0013628671 0.03210171 -0.042195022 -0.02199091 -0.029265456 -0.017802114 -0.00706241 0.03663188 -0.000108587854 0.0047370703 0.016812535 0.009177556 -0.043720223 -0.006582609 0.04251886 0.00629919 0.01542392 0.01298785 -0.028071055 -0.013955864 0.02533525 -0.026630145 -0.02374968 -0.010657503 -0.00013541256 0.009318989 0.005368424 0.049427647 0.009454358 -0.0035454873 0.017466981 0.020427566 0.014163461 -0.011158112 -0.01033323 0.019146675 0.015741598 -0.0027250014 -0.01981255 -0.044150483 0.04239296 -0.013599922 -0.049417153 -0.01178627 -0.008067509 -0.047348134 0.056016613 -0.050723128 -0.0051282565
23 -0.041293647 0.0015637777 0.06048153 -0.054860737 -0.026640138 -0.05154805 -0.021576231 -0.01879009 0.07093441 -0.005896763 -0.001152459 0.027222699 0.014043428 -0.058261108 -0.02864615 0.050958537 -0.0013166924 0.030231798 0.03728459 -0.028403385 -0.018887822 0.029569145 -0.045338683 -0.037557054 -0.014378831 0.017222833 0.02971974 -0.0060963607 0.063254125 -0.0052934624 0.006353632 0.004087529 0.018870989 -0.00020139637 -0.029967614 -0.033456873 0.016302112 0.03712004 0.005629354 -0.02742985 -0.06728732 0.047880508 -0.0077339686 -0.06721386 -0.015428123 -0.02340074 -0.06132023 0.06813063 -0.06662473 -0.00528848
67 -0.025370361 -0.006184624 0.054808743 -0.037715953 -0.033238366 -0.029173343 -0.0055020084 -0.009518125 0.04247905 -0.010261241 0.014089209 0.02237332 0.010838187 -0.056586113 -0.015128943 0.042855468 0.005591496 0.0217469 0.014078875 -0.023541236 -0.01041562 0.028276788 -0.03641436 -0.028794324 -0.0065877205 0.014090642 0.027801465 0.0065637715 0.05614735 -0.00481265 0.006764814 0.011903365 0.020856336 0.0027996486 -0.01589735 -0.020118905 0.009472156 0.033897314 0.0050907894 -0.015008861 -0.05320031 0.03164023 -0.015955675 -0.041217566 -0.0025421432 -0.024188586 -0.050708447 0.053547826 -0.052120965 -0.011691611
115 -0.036445968 -0.00021631779 0.04573019 -0.05566773 -0.035211127 -0.04055826 -0.013226532 -0.014186517 0.04315855 0.0008611622 0.0063897823 0.029523678 0.0071114507 -0.043620527 -0.01815738 0.03631467 0.00908869 0.020334113 0.014896422 -0.03422322 -0.018312134 0.034842122 -0.038603913 -0.024741441 -0.0077660363 0.014324603 0.026990443 0.0028417807 0.059499692 -0.0014697629 0.012583108 0.0023712432 0.0035899486 0.015820036 -0.012002196 -0.022905987 0.015116108 0.018429358 -0.006943678 -0.020927908 -0.060083225 0.04048245 -0.021709269 -0.05357612 -0.00628778 -0.01910632 -0.04476343 0.06181431 -0.07065152 -0.01456842
40 -0.035819624 -0.010209596 0.044421144 -0.033736814 -0.034998927 -0.035495915 -0.009581402 -0.011549413 0.03628961 -2.0032294e-06 0.012164507 0.014631661 0.014768165 -0.05126667 -0.005872332 0.03495036 -0.0044014435 0.027095875 0.02059486 -0.029145466 -0.012897161 0.030146118 -0.02376367 -0.026757842 -0.003438773 0.011048946 0.021529472 0.004326901 0.048624158 0.00041603236 0.011739175 0.016127972 0.0063734483 0.009246062 -0.008803451 -0.013847691 0.010508392 0.018697834 -0.0077777077 -0.008666136 -0.047330715 0.045451388 -0.0035813127 -0.04757205 -0.012791178 -0.022449628 -0.047150187 0.06324943 -0.058781307 -0.018151952
315 -0.030890087 -0.0023850736 0.04645533 -0.035957422 -0.017223136 -0.039654132 -0.009333431 -0.012912636 0.035741553 -0.00556443 -6.446556e-05 0.024386462 0.012421816 -0.048827287 -0.017849382 0.041843496 -0.0038906792 0.029373782 0.012810685 -0.032386634 -0.008881467 0.017184602 -0.01942159 -0.0278882 -0.016605554 0.013568047 0.0201603 -0.0065967403 0.0449716 0.0067082564 -0.0040519726 0.015572527 0.013378881 0.0040834034 -0.017705226 -0.022296675 0.007617283 0.016118912 -0.0020003165 -0.024670776 -0.052830312 0.033245027 -0.013619351 -0.032286096 -0.016341316 -0.0035203174 -0.035890438 0.059457514 -0.056518894 -0.018272154
170 -0.027418092 0.001381127 0.038950622 -0.03969443 -0.03712811 -0.0249464 -0.018782616 -0.017607236 0.039845876 0.00031089288 0.015534816 0.026391795 0.0008585303 -0.049506523 -0.019585941 0.028384408 0.011811144 0.014342514 0.022242075 -0.026030697 -0.004746296 0.030768896 -0.029669667 -0.029362518 -0.011063224 0.0055786967 0.028119229 0.008984488 0.049844455 0.008350622 0.008155701 0.010628908 0.0203487 0.0103573445 -0.024410842 -0.02394581 0.010342056 0.013972441 0.0035706367 -0.022047313 -0.055232942 0.045082737 -0.011152359 -0.049426243 -0.0035791083 -0.019154547 -0.034492478 0.057254013 -0.053551257 -0.0077043483
332 -0.029055858 0.00087645196 0.04456452 -0.030341728 -0.014312923 -0.021232033 -0.0073738117 -0.0073659467 0.030189399 0.005175819 0.0024031706 0.01602601 0.0007384361 -0.04763401 -0.013855915 0.020883478 -0.002916532 0.02088159 0.017531807 -0.014494812 -0.0040545156 0.0137388585 -0.02892833 -0.032617357 -0.008801614 -0.0029046442 0.012923776 0.00011824965 0.044825565 0.010077701 -0.0016827137 0.0023728828 0.013765038 0.0026377635 -0.0109388 -0.023415985 0.006279834 0.026342526 0.007897717 -0.014462329 -0.035666868 0.026169522 -0.013722182 -0.03907837 -0.0031529139 -0.021152386 -0.036110744 0.055857018 -0.056478757 -0.0057482882
304 -0.035539955 -0.0011583855 0.0412446 -0.040818557 -0.019320173 -0.03210996 -0.0007206505 -0.011473353 0.04905575 -0.0032494916 0.010172952 0.02336584 0.002833049 -0.054249357 -0.005881779 0.032099314 -0.0052108285 0.03195452 0.023656804 -0.032300245 -0.008542808 0.035218593 -0.029884644 -0.03221224 -0.010168803 0.00070653897 0.024453772 0.00955096 0.03997419 0.011474067 0.00021510974 0.011023019 0.017602574 0.012372221 -0.020476626 -0.017638406 0.0047187796 0.026558083 0.00903462 -0.024442693 -0.055321794 0.036930818 -0.003123198 -0.038341373 -0.015046298 -0.0221005 -0.040356778 0.06349196 -0.06318864 -0.019307043
239 -0.03380224 -0.005285866 0.035796784 -0.03220333 -0.029458487 -0.035453267 -0.017624287 -0.0014050301 0.052550755 -0.011376901 0.012920785 0.026605092 -0.0021414817 -0.044868413 -0.0222976 0.028758436 -0.0040691756 0.0296199 0.02898126 -0.025600035 -0.018701544 0.02916617 -0.029195426 -0.024445355 -0.0050730165 0.008073715 0.013982946 -0.005105475 0.05167751 -0.0042231027 -0.0017125335 0.014179397 0.01712064 0.0089637805 -0.010174238 -0.0065233973 0.01363453 0.026395293 -0.0016439497 -0.010673865 -0.05168673 0.035945725 -0.0074178777 -0.036662884 -0.012131134 -0.022183385 -0.030342774 0.054519475 -0.0449706 -0.01833527
324 -0.031200165 0.008788413 0.045563098 -0.030154882 -0.03571587 -0.023890289 -0.0140816085 -0.01677277 0.043161713 -0.0012486716 -0.0032861417 0.031446632 0.0061588218 -0.03475668 -0.011780073 0.033599727 0.0023501508 0.020176835 0.02683473 -0.01961829 -0.019213686 0.025864732 -0.018561408 -0.032457475 -0.020022532 0.011306848 0.009000272 -0.0062126014 0.04243129 0.006064714 -0.005789516 0.009643813 0.0023735787 0.012935208 -0.008205267 -0.018807117 0.007443662 0.01268298 -0.0055847024 -0.01206374 -0.054495297 0.04321401 -0.014805157 -0.04001399 -0.014623343 -0.012408018 -0.047663394 0.05072845 -0.058474064 -0.017988726
230 -0.035170373 -0.0096898675 0.05066394 -0.058385644 -0.020714682 -0.041552022 -0.00452314 -0.01822325 0.062870696 -0.01422704 0.0041246926 0.037094273 0.014318269 -0.06337531 -0.022023318 0.05029412 0.0034868827 0.036675088 0.017442184 -0.017628845 -0.01904911 0.03957613 -0.036194805 -0.031164277 -0.02063494 0.00673818 0.034043644 -0.0028408645 0.04666398 -0.01030857 0.012480269 0.0064257365 0.005867905 0.015008248 -0.012611793 -0.03381204 0.00628074 0.02268408 -0.010864669 -0.030997058 -0.06744798 0.039093453 -0.012081527 -0.04292061 -0.011924674 -0.023203256 -0.035937816 0.07426703 -0.076484814 -0.014221234
175 -0.0143635245 0.003291708 0.03165308 -0.034445845 -0.02284885 -0.020673633 -0.0019667745 -0.017324382 0.05009696 -0.01331874 -0.0026421514 0.015517834 0.0008381489 -0.04422689 -0.008131825 0.04255333 0.009886524 0.011771383 0.024306342 -0.015367898 -0.010395629 0.030369414 -0.023300776 -0.03013525 -0.009954836 0.012557848 0.02734402 -0.0053174305 0.041580267 0.009018317 0.010273995 0.017090736 0.009246149 0.007836214 -0.020348923 -0.024204444 0.009018751 0.028805727 0.011143871 -0.009841671 -0.05772736 0.043506484 -0.012723038 -0.051605407 -0.015667614 -0.008629657 -0.035716176 0.05861698 -0.05667609 -0.009150928
41 -0.036105946 -0.001951106 0.03736118 -0.030015286 -0.028480014 -0.040898465 -0.013443795 -0.013269372 0.03389088 -0.01221751 0.0026884254 0.026497709 -0.002331041 -0.038213804 -0.023884416 0.028981727 -0.0012614137 0.027803838 0.017177256 -0.020768313 -0.011357209 0.022856425 -0.021981316 -0.023753438 -0.0008358521 0.0049735517 0.007942039 0.00044875726 0.051882476 -0.008151502 -0.0017994535 0.008640265 0.009477503 0.0091818785 -0.015823655 -0.014620203 0.0100701675 0.023599297 -0.0064885514 -0.02322717 -0.041147437 0.035641074 -0.013215626 -0.043977857 0.0030496556 -0.007926736 -0.050082587 0.061307665 -0.045920797 -0.015044974
186 -0.0335235 0.005052556 0.048309706 -0.030451477 -0.026907755 -0.029982409 -0.015697941 0.0009966611 0.053359337 0.0042110207 0.014278896 0.017878719 -0.0012769076 -0.052644543 -0.004162641 0.04283397 0.008005964 0.020410711 0.011344482 -0.017093016 -0.020741722 0.017500203 -0.023307862 -0.031277385 -0.012026469 0.0045877774 0.025895286 0.011636491 0.05477407 0.009919189 0.008889838 0.014767373 0.003689819 0.015518129 -0.019490277 -0.019222021 0.007533607 0.03185841 0.010463435 -0.0072020753 -0.058698088 0.035635337 -0.005565095 -0.038089693 -0.0043062423 -0.010728957 -0.03511551 0.057475757 -0.049615916 -0.011072985
169 -0.03114011 0.0042092428 0.046712145 -0.030806638 -0.035443585 -0.032409046 -0.0021327354 -0.0033455074 0.037069056 -0.011172571 -0.0013511751 0.021755384 0.0127593065 -0.049661156 -0.02004922 0.033617947 0.00078191527 0.021784734 0.02111322 -0.02933973 -0.012676002 0.024988685 -0.023036575 -0.0342532 -0.018394843 0.0062771263 0.018469539 -0.0060700355 0.04097714 -0.00760856 0.00198909 0.00065320835 0.019411437 0.0019545716 -0.004433097 -0.0071331793 0.0023768547 0.01418213 -0.005090803 -0.008273632 -0.04275471 0.04019602 -0.0030179613 -0.047405314 -0.0019721878 -0.012679944 -0.042113602 0.061531246 -0.05114965 -0.013315284
53 -0.019047488 -0.008619793 0.046004944 -0.035294227 -0.028194819 -0.04114844 -0.012779539 -0.010647095 0.039037257 -0.008797711 0.00816758 0.0274335 0.0027721412 -0.049777713 -0.014120415 0.04298395 -0.0040155207 0.012784882 0.027015261 -0.01700618 -0.004415701 0.029101677 -0.01991331 -0.029436631 -0.010340532 0.015261918 0.008747694 0.009228968 0.052826352 -0.0043386687 0.01194318 0.00625101 0.016217537 -0.00024075761 -0.006349516 -0.022665165 0.0156333 0.028108384 0.0074644536 -0.01621964 -0.05638854 0.042525582 -0.008628781 -0.039798766 -0.0037078466 -0.007301376 -0.042786933 0.053433955 -0.056690853 -0.018434554
346 -0.03208296 -0.0011775788 0.048876166 -0.03493521 -0.021349356 -0.03896402 -0.012855358 -0.01320177 0.04784715 -0.014673309 -0.0008828829 0.015032736 0.0119023165 -0.0470493 -0.0068423604 0.0435562 -0.0018400159 0.016620902 0.014567347 -0.023067413 -0.017881408 0.027721997 -0.028464636 -0.03242389 -0.021491019 0.0068799253 0.024490586 -0.0062914304 0.047887586 0.0011643756 -0.0041991402 0.006937711 0.013927909 0.0039036649 -0.017952358 -0.008548495 0.01898616 0.02913524 -0.00092724065 -0.023931462 -0.06069102 0.047935534 -0.020174213 -0.04882465 0.0027715228 -0.009527053 -0.044347815 0.04807321 -0.052174 -0.015431623
99 -0.031429697 0.006209336 0.041296605 -0.037781794 -0.03455116 -0.042671178 -0.008902702 -0.014117412 0.058755003 -0.014002158 -0.0036747688 0.020064859 0.0001459953 -0.054631848 -0.006387876 0.04642293 0.0001697669 0.020938698 0.026319282 -0.026176048 -0.012603351 0.03695307 -0.03837546 -0.030550981 -0.014629923 4.2319625e-05 0.029390002 -0.006796842 0.042224117 0.0027764034 -0.00091445964 0.0043186764 0.023447173 0.008427796 -0.009144244 -0.028578326 0.01663964 0.016452666 -0.0020748603 -0.024199395 -0.04750556 0.047052756 -0.012810086 -0.05161591 -0.0001544329 -0.006499617 -0.046007134 0.058804385 -0.048371915 -0.016121358
142 -0.032507207 0.0030442239 0.03846455 -0.027661202 -0.018936409 -0.024483502 0.001162056 -0.01318607 0.04977871 0.0049778377 0.0154447565 0.026618617 0.0018793077 -0.0488504 -0.011467087 0.041506637 0.004051608 0.024763724 0.02174456 -0.021987502 -0.0055706096 0.03350472 -0.022684831 -0.02405605 -0.002642471 -0.0004965369 0.010151457 -0.0044717975 0.04621577 -0.0023600261 -0.001502606 -0.0018618259 0.0015582758 0.008313969 -0.010297897 -0.013332324 0.006502395 0.024602776 -0.006658116 -0.011698394 -0.05148232 0.037527714 -0.014437598 -0.033082187 -0.014507126 -0.011036651 -0.033808216 0.044471774 -0.05494843 -0.0034331519
98 -0.022209737 -0.010454834 0.024749564 -0.035217766 -0.024355568 -0.020479841 0.0019259149 -0.008110441 0.038957622 0.002975354 0.008644114 0.00956471 -0.0036553654 -0.042470686 -0.020819446 0.03165792 0.00042906136 0.02271436 0.022651726 -0.021799602 -0.010777412 0.031482127 -0.027219236 -0.028156575 -0.008878292 0.007294235 0.01760035 0.011695805 0.044072926 0.010926487 0.009069092 -0.002271832 0.015154843 0.009440105 -0.0032831638 -0.021151744 0.010021754 0.02582766 -0.00768963 -0.021605117 -0.052464217 0.02818812 -0.016712131 -0.031024 -0.0022759833 -0.008407379 -0.028171146 0.04366807 -0.03616067 -0.014216495
285 -0.024736136 -0.008518225 0.02962807 -0.022664893 -0.01380154 -0.037395824 -0.008637816 -0.0067851814 0.03471896 -0.00957321 0.0032765628 0.014298323 -0.0016598931 -0.03958904 -0.006641755 0.029300937 0.0027741457 0.017146049 0.023995632 -0.023249948 -0.007954168 0.03041361 -0.015318334 -0.019739093 -0.012261835 0.009765166 0.0056546205 -0.006304154 0.030572666 0.004046273 0.0014642985 0.014741504 0.01916873 0.013474406 -0.0046936916 -0.016113406 0.009798576 0.021730475 -0.004927838 -0.013632558 -0.047936033 0.038923323 -0.003616883 -0.04479784 -0.015316016 -0.019563269 -0.043104924 0.049345143 -0.050620172 -0.008246661
188 -0.02426627 -0.010943892 0.028400468 -0.033781048 -0.015387348 -0.032946765 -0.012676525 0.00059979345 0.042777926 0.0038322671 0.0027241847 0.011678639 0.009603397 -0.031595893 -0.010688324 0.038225826 0.0059100627 0.011979156 0.026897747 -0.014604536 -0.010844745 0.031534955 -0.028772045 -0.03193082 -0.005809151 0.0017866828 0.015777554 -0.0013567752 0.030719874 0.001890101 -0.0027105543 0.008956239 0.012978746 0.013138347 -0.021839596 -0.012627766 0.016428089 0.009721925 0.003704496 -0.018362159 -0.050547972 0.022607917 -0.008209577 -0.041244566 -9.1589034e-05 -0.011079548 -0.03826095 0.050962158 -0.043628506 -0.006015732
323 -0.02663949 0.008110921 0.038472623 -0.030797936 -0.020810425 -0.039031647 0.001301188 -0.017359678 0.051448815 -0.010448968 0.007507337 0.02916438 0.011032162 -0.035602324 -0.012198867 0.033718653 -0.0022148453 0.015547396 0.02813433 -0.031109238 -0.011677851 0.027611649 -0.017874746 -0.022108342 -0.015026204 -0.002758755 0.009578072 0.004566114 0.04545119 0.004363007 0.014007884 -0.0001834486 0.004595213 -0.00057896535 -0.011546545 -0.02028818 0.00059530383 0.021132916 0.0011759673 -0.011817298 -0.055042505 0.02876848 -0.002910237 -0.04631546 -0.013670347 -0.010667824 -0.042096376 0.048415426 -0.059489857 -0.012267274
118 -0.018404558 0.0010061923 0.036277447 -0.04725934 -0.017165827 -0.027741984 -0.0044873445 -0.0076805884 0.047218025 -0.011415985 -0.0024412922 0.026860489 0.012300974 -0.04048703 -0.0052617267 0.026039364 0.011269061 0.021320432 0.019093096 -0.018847069 -0.021572916 0.031132668 -0.018402817 -0.017208867 -0.015329401 0.008027985 0.008168187 0.0053892084 0.04405625 0.001336076 0.011393801 -0.0006373199 0.019794933 -0.0024815476 -0.021160625 -0.011194128 0.021617189 0.031324 -0.00616454 -0.023721494 -0.0479497 0.031319045 -0.012681833 -0.042394824 -0.0058319746 -0.018798355 -0.038505588 0.062663704 -0.05354516 -0.0060837697
329 -0.016327843 -0.008345816 0.04211967 -0.045596875 -0.028969686 -0.025649216 -0.0022943928 -0.00097205484 0.053981803 -0.005925976 -0.002114351 0.026611676 0.011519783 -0.041470118 -0.010408655 0.030196747 0.01179986 0.017049942 0.014440517 -0.03090034 -0.0070882626 0.020543996 -0.021352144 -0.025331957 -0.017670752 0.0028614406 0.022542473 0.003916098 0.045949787 0.010444963 -0.0026232551 -0.00019159439 0.015834717 7.552571e-05 -0.011188796 -0.0076765884 0.0060933977 0.024585336 0.0014046143 -0.014667969 -0.049083486 0.028984988 -0.012914522 -0.03467811 -0.012010073 -0.0057489015 -0.039260004 0.045253 -0.060523067 -0.011836783
227 -0.015096517 -0.008846449 0.03830349 -0.03127706 -0.031857245 -0.026121758 -0.0013677618 -0.009845673 0.05184081 -0.008732259 -0.0023821744 0.021973694 0.007366135 -0.048096873 -0.012536109 0.02565114 0.013608109 0.018961022 0.028826455 -0.024796767 -0.009631152 0.030300725 -0.03285377 -0.020934757 -0.023376808 -0.004247523 0.014586119 -0.005030965 0.038172826 0.012960226 0.014830376 0.0079819355 0.0091483705 0.0005136697 -0.022153322 -0.007026552 0.0056131766 0.02146889 0.010091307 -0.017087976 -0.049816683 0.037731525 -0.018146833 -0.040609054 -0.014141014 -0.003617124 -0.032930657 0.05265829 -0.050092634 -0.01882405
319 -0.032275636 0.0010921505 0.034768034 -0.037065182 -0.026140762 -0.029139008 -0.012964915 -0.011914707 0.03839031 -0.018026218 0.011531477 0.028136615 0.004804705 -0.048491232 -0.007361676 0.040592723 -0.00058548135 0.025003625 0.01978524 -0.033766292 -0.017976735 0.03604586 -0.02520595 -0.034972902 -0.0039626514 -0.0015338578 0.026031751 0.007466973 0.05512949 0.010472169 0.009849211 -0.0019664299 0.020740427 0.010788905 -0.009518235 -0.020785993 0.016818313 0.015008829 0.0074883224 -0.009068428 -0.056633346 0.02353073 -0.010827484 -0.03844954 -0.0070630712 -0.003344033 -0.05207227 0.063825265 -0.057941724 -0.011723299
325 -0.017679522 -0.009102939 0.03556904 -0.034330152 -0.025636686 -0.03740737 -0.013706081 0.0013458742 0.043629266 -0.007771439 -0.0009157328 0.027339144 0.0130335055 -0.03831354 -0.013035697 0.03633382 -0.0011368891 0.027880287 0.025500905 -0.023843678 -0.019783838 0.026475172 -0.018161811 -0.021153871 -0.0046526734 0.001958118 0.02090836 -0.007312609 0.047576338 0.010898345 0.008925806 0.012474798 0.0019785669 0.00807992 -0.02029081 -0.019485842 0.019345691 0.0129037835 -0.006053058 -0.008602042 -0.044895828 0.031962454 -2.0433034e-05 -0.043589395 -0.0022922594 -0.01602644 -0.032791805 0.04239837 -0.05262447 -0.015003259
200 -0.024259873 -0.0057516657 0.041883994 -0.025121285 -0.02283707 -0.01963347 -0.0055527273 -0.013673111 0.03383366 4.493394e-05 0.013269119 0.01822666 0.012455371 -0.041530043 -0.0070374296 0.027745474 0.009587353 0.018579222 0.022788614 -0.01942039 -0.0012177861 0.026673643 -0.034978297 -0.017200489 -0.010660983 0.01517195 0.010091903 0.002822724 0.037852082 0.003318837 0.0029706887 0.0074554523 0.004124303 0.0008091078 -0.011330079 -0.010625939 0.006735595 0.030707788 0.0002604941 -0.017319342 -0.036849782 0.032179665 -0.017120583 -0.038337678 -0.009884547 -0.017398847 -0.039596852 0.045555677 -0.059072603 -0.009869594
280 -0.027595386 -0.009594161 0.02980529 -0.032174774 -0.02030622 -0.024898428 -0.009726172 -0.0002989159 0.044734042 -0.0035513637 0.014573487 0.015677636 -0.001217151 -0.04390399 -0.0012254827 0.025071 -0.0054649236 0.009797665 0.013283674 -0.025570042 -0.01335925 0.019313475 -0.024636952 -0.0204806 -0.0081042 0.010527558 0.016571837 -0.003612148 0.028924797 -0.0026076597 -0.0055479393 0.0009197297 0.020430613 0.003156619 -0.005245271 -0.013752328 0.0072610066 0.0120652355 0.0048085325 -0.00828141 -0.04983844 0.038329653 -0.015840031 -0.0401111 -0.011861066 -0.0061594313 -0.03340215 0.03999983 -0.054666128 -0.016873596
214 -0.030343832 0.0040327753 0.047659766 -0.04567651 -0.026435113 -0.038009543 -0.016943486 -0.006372699 0.04062195 -0.0047310926 -0.0016619093 0.015575176 0.008624453 -0.054432333 -0.015224761 0.043578833 0.009302532 0.021187373 0.0246289 -0.017242525 -0.00455344 0.028208196 -0.03310893 -0.019062545 -0.0021364891 -0.00013977409 0.024140507 -0.006317666 0.047184322 0.009775584 0.015686452 0.006582694 0.016369158 0.010791818 -0.027074413 -0.028418606 0.008955568 0.0133013595 -0.007132514 -0.028045796 -0.055487495 0.032595444 -0.022183027 -0.048606157 0.0028688838 -0.017596966 -0.0464088 0.06356391 -0.06498471 -0.0072155525
136 -0.02436843 0.0009713866 0.034644745 -0.04354383 -0.030232444 -0.03681432 -0.0071824687 -0.016405195 0.05002743 -0.0020032267 0.014472012 0.016300071 6.0972234e-05 -0.05023128 -0.00785817 0.035975244 -0.0023351004 0.023918673 0.017319962 -0.024753734 -0.009424541 0.017834052 -0.035833947 -0.017003682 -0.0050648046 0.0027621412 0.0076812436 -0.0024311084 0.050993465 0.010759186 0.009537727 -0.00028338665 0.00595018 -0.0031536222 -0.013980825 -0.01023257 0.018772928 0.012629052 0.00021692875 -0.010601497 -0.041645605 0.030470554 -0.02017669 -0.041375566 -0.00847913 -0.01622134 -0.042933118 0.0426464 -0.05830429 -0.0031569537
49 -0.0380148 0.0077159177 0.047128513 -0.05871417 -0.029485371 -0.036371015 -0.021015832 -0.016496157 0.059940975 -0.00980468 0.013718934 0.017919078 -0.008221099 -0.052507948 -0.025846854 0.03498479 0.003101605 0.017625831 0.01638061 -0.025817618 0.0008428344 0.01957698 -0.0297262 -0.024794329 -0.00381061 0.005605682 0.020742998 0.00769706 0.057807975 0.010633218 0.008718784 0.0001861055 0.027288605 0.001469736 -0.009949844 -0.011922436 0.0003975983 0.015379908 -0.006510922 -0.027019558 -0.043132182 0.05014538 -0.0004908556 -0.042596687 -0.021781467 -0.0028164156 -0.046491038 0.06808579 -0.049087152 -0.024150351
339 -0.020488176 -0.007591067 0.053442832 -0.03832192 -0.030208277 -0.02442863 -0.0032362149 -0.016576316 0.05130994 -0.01115705 0.00838945 0.024393432 0.0018161435 -0.053270057 -0.016578905 0.042259455 -0.0016503352 0.028994702 0.028863668 -0.03507397 -0.022076646 0.037076335 -0.032423813 -0.030736985 -0.02132252 0.0032781416 0.01958754 0.009247786 0.05261501 0.009045191 0.004752018 -0.00071762135 0.023121705 0.008004157 -0.02332233 -0.016745666 0.015403631 0.0335591 0.0027015756 -0.014738964 -0.060329616 0.028872544 -0.021627037 -0.051088534 -0.016218236 -0.0078094336 -0.047825933 0.059225164 -0.057410553 -0.013864408
211 -0.019720702 0.0034893749 0.04311323 -0.04696267 -0.03541493 -0.03393151 -0.016867628 -0.012072068 0.038880095 -0.00060098374 0.014482183 0.023425613 0.010638979 -0.051616456 -0.009895613 0.03725857 0.012370825 0.02646393 0.027577065 -0.018541684 -0.017506534 0.015743947 -0.027880155 -0.03228453 -0.008595431 -0.00031593922 0.018749401 0.009870996 0.04305727 0.0039761253 -0.0023854799 -0.0010233141 0.002288551 0.015938574 -0.013874895 -0.006705852 0.019291451 0.026465062 -0.0036056307 -0.009916156 -0.0433168 0.044484463 -0.011032534 -0.044241313 -0.0011136169 -0.022098152 -0.038541462 0.043354902 -0.061009612 -0.007688973
8 -0.032597024 -0.005298759 0.05214959 -0.0544566 -0.044304676 -0.03695084 -0.00017836681 -0.0048023504 0.053357556 -0.01413301 0.0015859687 0.03576056 0.009052517 -0.06360054 -0.028435428 0.046598494 -0.0028772398 0.021948284 0.028073797 -0.029707525 -0.019580139 0.036698475 -0.029836958 -0.03322795 -0.023004089 0.016988212 0.015059027 -0.0062240483 0.06555569 0.007759904 0.014160596 0.011460839 0.02425099 0.016079457 -0.0133675765 -0.031899333 0.021686228 0.018865649 0.009051461 -0.01767955 -0.050694536 0.03406634 -0.023917817 -0.047607005 -0.0038761883 -0.011042754 -0.058590576 0.07041027 -0.05721586 -0.004954686
192 -0.026728183 0.0031589204 0.049729172 -0.043559097 -0.037892155 -0.04168692 -0.014364069 -0.011687007 0.052652232 -0.015433846 0.007657466 0.019795835 -0.0053383177 -0.043808784 -0.024293259 0.025052225 0.004808373 0.020922612 0.026733415 -0.014939222 -0.014557142 0.02336432 -0.022384092 -0.03488589 -0.014691684 0.008557265 0.00541822 -0.005060422 0.04698745 0.013019753 0.013879107 0.014972003 0.014525171 0.016091099 -0.015094124 -0.012117053 0.0040852097 0.030251551 0.0066028675 -0.004886093 -0.035191365 0.040770523 -0.0022671155 -0.0362019 -0.003511511 -0.002455891 -0.042203967 0.04557358 -0.05758887 -0.020401424
161 -0.021804506 -0.00729933 0.023956427 -0.034847483 -0.025659142 -0.03358188 -0.005552903 -0.008616899 0.029331446 -0.0054068887 0.007654689 0.019007841 0.0027629812 -0.039672494 -0.0021340598 0.0315175 0.0025534418 0.0100566605 0.025148565 -0.011820069 -0.016483266 0.029986564 -0.024516921 -0.013088686 -0.004944206 0.0061331694 0.017715238 0.009412619 0.03709744 -0.0051468113 0.0025663413 0.0035790408 0.017636834 0.005142793 -0.015110705 -0.015264274 0.0071074283 0.0245163 -0.008542523 -0.002877219 -0.04578694 0.022532623 -0.014886465 -0.025430718 0.0013023169 -0.0032863691 -0.024562096 0.041228827 -0.035734724 0.0005120014
137 -0.015737128 -0.008434925 0.040363397 -0.034380835 -0.034494806 -0.022369795 -0.014533397 -0.005304597 0.044881206 0.0027220622 0.00688663 0.02260514 0.0082023 -0.035731666 -0.0226886 0.030328667 -0.0058910423 0.011867641 0.012968927 -0.023443595 -0.017972305 0.024640929 -0.01882928 -0.022917697 -0.0009717306 0.013748574 0.01947892 -0.0065932847 0.042754304 0.0055771237 0.01572736 0.012522185 0.013795279 0.0012415681 -0.015478871 -0.016640546 0.0022283355 0.013518661 -0.0032485297 -0.024514869 -0.05296398 0.041564837 -0.015481791 -0.03370372 -0.010866373 -0.01770611 -0.04963484 0.043827474 -0.060313877 -0.0071619656
14 -0.019248124 0.005966806 0.032449726 -0.036015112 -0.018863102 -0.038685795 -0.003962671 -0.009578947 0.04217416 -0.0084317345 -0.005925025 0.016672123 0.0009940456 -0.04083753 -0.01618402 0.04301372 0.0061173774 0.028730707 0.015423554 -0.017078405 -0.017885007 0.027288899 -0.028627804 -0.0233794 -0.0016706747 -0.000572779 0.012604056 0.0071778544 0.056127407 0.00968889 0.016075978 0.01466561 0.014803013 0.008114995 -0.026592242 -0.020240327 0.016497966 0.027237462 0.0021986663 -0.009694364 -0.058617305 0.04452739 -0.018472422 -0.041072067 -0.006471989 -0.016618337 -0.0358732 0.042815305 -0.06230944 -0.019595407
261 -0.032008804 -0.010824413 0.04112609 -0.044743877 -0.027008934 -0.036933117 -0.01601664 -0.011811883 0.031812314 0.0015689777 0.010653539 0.0105121955 0.013531282 -0.036158334 -0.008202874 0.030387962 0.004055331 0.02805612 0.018029563 -0.029866211 -0.0037677053 0.02363998 -0.030838745 -0.015339564 -0.009710787 0.013900974 0.013875755 0.009974765 0.042521715 0.010601476 0.0004495685 0.011629969 0.006740135 0.010543736 -0.0144518055 -0.016770173 0.017802529 0.010396179 0.005482302 -0.023687162 -0.04461507 0.029919282 -0.0077808583 -0.04737653 -0.003941223 -0.021173941 -0.032891292 0.038005203 -0.048413962 -0.0072396426
199 -0.029471073 -0.00043275257 0.027618224 -0.04085375 -0.012541392 -0.03682165 -0.016668867 -0.008118509 0.03181434 0.0031848748 0.0050962092 0.008814587 0.006440441 -0.046151377 -0.013173373 0.03957039 0.0023544116 0.014445816 0.0102102505 -0.024562886 -0.016505271 0.022705829 -0.020093247 -0.029553458 -0.00060235086 -0.0015637347 0.019265462 -0.0026890377 0.04943203 -0.0012942391 -0.005387823 0.005166115 0.012039248 -0.0016369306 -0.007124604 -0.01378641 0.003976615 0.016791718 0.006793002 -0.018247258 -0.04762674 0.03327398 -0.012009803 -0.03784127 0.0013892232 -0.00629277 -0.031284694 0.03724359 -0.03914132 -0.009810522
272 -0.031266805 -0.0020275135 0.03915461 -0.032589175 -0.01738671 -0.023722816 -0.0013651127 -0.003444083 0.038325712 0.0038985494 0.009548275 0.021076303 0.010636394 -0.04032876 -0.006944293 0.037557635 -0.0017319067 0.028992955 0.026007317 -0.032708257 -0.016760828 0.022063833 -0.017289152 -0.028009078 -0.00625092 0.009316868 0.013327738 0.011502896 0.03306709 0.0015936119 0.007942755 0.008970609 0.018418545 0.014587955 -0.009946764 -0.023183625 0.00646242 0.023438836 -0.0049207355 -0.023702934 -0.038532563 0.036499906 -0.012128005 -0.031960424 -0.007927602 -0.011491873 -0.044491142 0.055842448 -0.05172036 -0.015366853
249 -0.014383821 0.0044105086 0.049313135 -0.027224397 -0.024808396 -0.03895386 -0.0040289317 -0.01731121 0.037081227 0.0036881666 0.008478615 0.020497672 0.0009769346 -0.03654502 -0.0030838735 0.036477666 0.010482153 0.0235278 0.01239495 -0.029022401 -0.01610297 0.01702513 -0.038911633 -0.02466733 -0.0144380415 0.003790759 0.022484535 0.010358571 0.04526419 0.0097860405 -0.0061493437 0.0009669198 0.011058659 0.0012384093 -0.02313005 -0.020891633 0.0039490256 0.03208478 0.012724686 -0.023597574 -0.043200403 0.028895801 -0.008947319 -0.04649522 0.004613716 -0.017265014 -0.034152843 0.053878263 -0.050033823 -0.019603362
80 -0.017086081 -0.005127717 0.039194737 -0.031063994 -0.022244858 -0.041459274 -0.0021417635 -0.01468172 0.043649778 -0.0056754355 0.0042647966 0.02523316 0.004986681 -0.051926054 -0.016607169 0.03471248 0.010022325 0.021025237 0.024377175 -0.018134188 -0.0036324193 0.018663315 -0.037513137 -0.034265257 -0.017709952 0.0071629784 0.025010046 -0.0032139246 0.053067036 -0.008420473 -0.005239321 0.018085903 0.010839921 0.008542094 -0.024049751 -0.023117747 0.014187326 0.02544612 1.1357538e-05 -0.024069235 -0.049545016 0.028259048 -0.0075226184 -0.03758809 8.984088e-05 -0.0061628865 -0.040954784 0.05120129 -0.06284658 -0.00694831
144 -0.029353755 -0.0032283694 0.040417608 -0.047557313 -0.020426074 -0.041116446 -0.0025060123 -0.00075573893 0.034237873 -0.0052069025 0.0064281602 0.01907893 -0.0025123353 -0.044767153 -0.008976571 0.04351812 0.012519656 0.017541526 0.026086101 -0.026417812 -0.0058154017 0.033831686 -0.020752307 -0.027588852 -0.018942436 -0.0021965448 0.023256587 0.004709387 0.055004746 0.0006205811 0.010378915 -0.00038084 0.01789578 0.0015672721 -0.024345323 -0.01290102 0.018247815 0.025784522 -0.005718223 -0.026023544 -0.055758975 0.04348913 -0.01684058 -0.034586187 0.0033449528 -0.011713401 -0.031015538 0.048271466 -0.0507977 -0.011230614
259 -0.037375107 0.0031299244 0.040961046 -0.036034483 -0.045345422 -0.032714035 -0.0056332136 -0.008141636 0.062012758 -0.014720024 0.0035428614 0.023173882 0.013635244 -0.059439026 -0.01902146 0.03609288 0.0053929673 0.032607663 0.018685041 -0.021164069 -0.008356274 0.039500732 -0.035444796 -0.030244775 -0.026193762 0.002582982 0.014665451 -0.0017037976 0.065061145 0.001319678 0.018640287 0.010007584 0.011951427 0.009268177 -0.013060366 -0.03158911 0.024488596 0.03225222 -0.007150222 -0.028934335 -0.06601901 0.046926145 -0.010894092 -0.053661194 -0.0098482175 -0.017978543 -0.054649733 0.074100114 -0.0568689 -0.019506209
109 -0.01662236 -0.00793609 0.035823863 -0.022053037 -0.025131084 -0.02682276 -0.007550415 0.0019526357 0.029684933 -0.005978339 0.0074261716 0.021357123 -0.0046927123 -0.03125306 -0.020072 0.01878626 -0.0070750974 0.006107604 0.018097568 -0.014858475 -0.008537446 0.031320598 -0.02371508 -0.017943004 0.00097314053 0.008341048 0.020174652 0.0011400582 0.036819335 -0.0052157217 -0.0065738736 0.0007355167 0.017868642 -0.002282636 -0.01686728 -0.021144789 0.011356484 0.027592205 -0.0025479738 -0.022625491 -0.04794133 0.029488167 -0.0101042595 -0.033711873 -0.013295984 -0.01915528 -0.039984677 0.04936426 -0.045099087 -0.012802402
179 -0.020448154 -0.001166541 0.04207269 -0.04369401 -0.018693961 -0.027848426 -0.010070884 -0.010357991 0.035679024 0.00029127457 0.010601079 0.024908785 -0.00910436 -0.02972101 -0.020067038 0.03389046 0.0042584566 0.022310587 0.027307054 -0.034653936 0.00022847783 0.0304924 -0.018508326 -0.029113399 -0.021819975 0.011368582 0.0027238252 0.009059801 0.043096546 0.0059955115 -9.320096e-05 -0.0003460348 0.019834986 0.0043123793 -0.0056367866 -0.023412848 0.013607767 0.02799672 -0.0130839 -0.012235958 -0.05483148 0.03596997 -0.005311361 -0.056720328 -0.020523004 -0.012219608 -0.054368433 0.059853803 -0.040197864 -0.018608259
113 -0.021013606 0.0048905117 0.025854042 -0.026783204 -0.025880054 -0.021357851 -0.015888453 -0.0075452584 0.036265764 0.0020051582 0.014695137 0.026248023 -1.9449066e-05 -0.032036748 -0.020699644 0.036305353 -0.0030635782 0.016713046 0.022619471 -0.015039103 -0.0137635 0.017923446 -0.02826152 -0.028144585 -0.0016060969 -0.0010793919 0.007729835 0.011377976 0.04023074 0.0044605066 0.0024904031 0.0038254797 0.016041836 0.0010646395 -0.010629578 -0.02275621 0.018624753 0.014936901 -0.0059782653 -0.022923363 -0.048937257 0.021377165 -0.005561862 -0.039596405 -0.0130957365 -0.0112744635 -0.033494685 0.050024036 -0.050661527 -0.012051006
313 -0.012364599 0.0041572344 0.027200526 -0.02693635 -0.01973394 -0.014311351 -0.00026482352 -0.0047316747 0.031345237 0.005256782 -8.589799e-05 0.02477876 0.013327236 -0.026035031 -0.0010288452 0.025569903 -0.0016151783 0.018912192 0.020179022 -0.027775168 0.0015603037 0.026077557 -0.011147946 -0.024168205 -0.009698815 -0.0025629732 0.0042242566 0.0006999905 0.03767858 0.0037396785 0.012830352 0.0045957253 0.015504325 0.009022515 -0.01378766 -0.0064680954 0.011714346 0.018098203 0.0012795384 -0.020355808 -0.032713696 0.034556936 -0.012465018 -0.037054714 -0.005193325 -0.0079610245 -0.021751136 0.0464182 -0.04987572 -0.0027426677
291 -0.020664718 0.0041113375 0.04209406 -0.042968363 -0.021869475 -0.038637854 0.0011572917 -0.014484727 0.03296039 0.0045403237 0.014153913 0.02113767 0.0019207298 -0.044046417 -0.0154675795 0.02771334 -0.0005934336 0.010708859 0.01657016 -0.01541717 -0.015854102 0.028831562 -0.03322776 -0.018864376 -0.015258275 0.008339908 0.023323474 0.007245897 0.048338216 0.00040604782 0.00073437794 -0.001295798 0.011385103 0.005570685 -0.00713626 -0.010606936 0.013973212 0.0153549975 -0.005485147 -0.00481565 -0.052838113 0.031091526 -0.016799007 -0.032643348 -0.0017780962 -0.011970072 -0.042333107 0.057593476 -0.038961314 -0.018203722
143 -0.020976445 0.0038678192 0.03506443 -0.03416341 -0.020904154 -0.026939338 -0.015153241 -0.015939977 0.053232662 -0.008333438 0.0006776392 0.023551075 0.0077267843 -0.054857135 -0.017062105 0.035990965 0.011842549 0.028824758 0.020327201 -0.019657781 -0.0123267155 0.018747369 -0.0307028 -0.03454238 -0.016366728 -0.004888143 0.02680842 -0.005604951 0.053836405 0.00582005 0.0074756294 0.0053893356 0.018473685 0.0077911783 -0.01706706 -0.024322707 -1.9124736e-06 0.02462445 -0.00028575675 -0.010999691 -0.051020496 0.04045019 -0.019025061 -0.0508986 -0.009358106 -0.016994098 -0.036836583 0.056067165 -0.05970141 -0.015271106
17 -0.01984448 0.009604713 0.036433745 -0.039282892 -0.014292859 -0.026331713 -0.0035827707 -0.0051730536 0.038215183 0.004707444 0.012009234 0.022064447 0.00892613 -0.04795409 -0.021628864 0.02724535 0.011205485 0.020504646 0.014169018 -0.012407602 -0.00876854 0.031572107 -0.022865124 -0.035305303 -0.00035308345 0.0045385743 0.025904141 0.0077342875 0.04720171 0.008571179 0.007640019 0.00938735 0.0066806334 0.0120245 -0.013527084 -0.018520975 0.010174712 0.021374527 -0.00583445 -0.026446538 -0.039089415 0.044068035 -0.016467862 -0.029045835 -0.004054338 -0.013469476 -0.04708158 0.05107962 -0.05842642 -0.01515584
88 -0.033118483 0.005889427 0.0468759 -0.025300173 -0.03309712 -0.02492471 -8.500349e-05 -0.0057970434 0.03485913 -0.0037339258 0.014773014 0.025776042 0.011671297 -0.032553967 -0.019474493 0.03751616 -0.0025085434 0.024964796 0.010031682 -0.014367164 -0.019547902 0.02408229 -0.016052939 -0.027436577 -0.015559762 0.0023567383 0.023947226 -0.006784415 0.039361507 0.0073139844 0.008840545 0.013525727 0.0017250667 0.014783067 -0.010782339 -0.016359339 0.021365471 0.017727913 0.00958055 -0.007884228 -0.038578857 0.029663824 -0.0075729135 -0.033301298 -0.007905165 -0.011619839 -0.036951814 0.053299572 -0.051734593 -0.017582621
28 -0.033123285 -0.0077844057 0.03801074 -0.043727655 -0.013544117 -0.03662129 -0.013480002 0.0004343246 0.031355575 -0.0053669764 -0.0018144632 0.025529813 0.009853919 -0.045160893 -0.013631231 0.02502118 -0.0010113991 0.025855593 0.024911651 -0.01705667 -0.017117059 0.034452125 -0.030265382 -0.029825067 -0.01657555 -0.0010568213 0.018086208 0.0058554714 0.042873096 -0.005431654 0.008502721 0.015644444 0.0015101642 0.005040433 -0.01551026 -0.018992051 0.012427077 0.016245948 0.0075853667 -0.016655214 -0.04960964 0.042597946 -0.0067485096 -0.042214204 0.0045075254 -0.015658526 -0.04826606 0.05778754 -0.059283208 -0.013473968
82 -0.027443347 0.004496033 0.042806156 -0.03454715 -0.03126077 -0.03507128 -0.010510854 -0.012066317 0.031378247 -0.0049279802 0.0053820824 0.023226384 0.0025146804 -0.04096716 -0.010745519 0.038326032 0.010796602 0.0218397 0.021142602 -0.031100249 -0.0057218503 0.026080577 -0.020361265 -0.027581044 -0.017900227 0.0015474876 0.010772519 0.003302881 0.048244018 0.011636742 0.0074127913 0.007865898 0.009846776 0.013423554 -0.0034161368 -0.013574622 0.015039347 0.021190789 0.0015118266 -0.008448439 -0.03708289 0.0270923 -0.0044058515 -0.030370431 -0.0001695108 -0.0042075696 -0.027305827 0.046742737 -0.052518945 -0.0011808038
172 -0.020354543 0.0020561484 0.024263222 -0.027422013 -0.017870383 -0.03731502 -0.009598703 -0.012672995 0.028571073 -0.00434992 0.008881427 0.027405052 0.00901239 -0.04295106 -0.01635542 0.032362293 0.010063247 0.027738132 0.023864092 -0.026726743 -0.016140653 0.015510032 -0.022023188 -0.01285327 -0.01740398 0.0029595254 0.022260444 -0.0014444595 0.031423915 -0.0012886832 0.0048619984 0.015745617 0.0053107045 0.0006968341 -0.020479027 -0.013298554 0.0060724616 0.019474098 -0.008396221 -0.0048459363 -0.04037343 0.02338395 -0.015563085 -0.04110722 -0.010424801 -0.01447054 -0.034011215 0.054961998 -0.04518105 -0.016981777
78 -0.023226349 -0.010014931 0.041461747 -0.032222215 -0.022969203 -0.03935345 -0.012816748 -0.016966516 0.053499207 -0.005576861 0.0040140594 0.031402927 0.008049061 -0.036010567 -0.012041776 0.0387898 0.0027414793 0.024023863 0.025791869 -0.035492808 -0.012467886 0.01992196 -0.030313123 -0.022897596 -0.021133054 -0.0046859346 0.027856141 -0.007838267 0.05610982 -0.0052620275 -0.0030679205 0.010660949 0.008044809 0.015330976 -0.018588087 -0.016822033 0.011094138 0.016166447 0.0017595096 -0.010403877 -0.04673891 0.02849075 -0.010506635 -0.044055127 0.0029884244 -0.0054374165 -0.03823817 0.04553872 -0.05034295 -0.01667208
89 -0.028908653 -0.004697792 0.03386278 -0.032731153 -0.0337282 -0.02964069 -0.018547459 -0.0117029855 0.04585388 -0.018579612 0.007994418 0.028528498 -0.0018311162 -0.049430635 -0.009156409 0.030669132 0.008580447 0.021525048 0.016975747 -0.029051954 -0.011681414 0.023859618 -0.01613156 -0.01950104 -0.010026346 0.009678932 0.008037118 -0.002378417 0.054043807 0.015916988 0.015438685 0.013035004 0.011512342 0.01638672 -0.012592679 -0.027387995 0.020160107 0.03058023 0.011037395 -0.0068893963 -0.054400273 0.036791395 -0.0032240173 -0.043069337 -0.001097365 -0.009095101 -0.04724976 0.04690095 -0.054892786 -0.0008085633
265 -0.020768095 0.008224 0.04081754 -0.026126994 -0.023776425 -0.020260897 -0.0050640083 -0.0064595565 0.042635158 -0.011571559 0.0074782926 0.010454373 0.0015243372 -0.04182006 -0.020708371 0.0347732 0.00808876 0.009648296 0.0164923 -0.023320962 -0.016630542 0.016295867 -0.02527173 -0.027070649 -0.01836919 0.0025492038 0.023798542 -0.0005525992 0.038662083 0.011980963 0.008472983 0.0033847243 0.016311591 0.0069069043 -0.0020518363 -0.004136061 0.018430354 0.021251278 0.0021350177 -0.005845339 -0.034111265 0.030754028 -0.009836494 -0.03104661 0.0024157048 -0.005696632 -0.036310967 0.05313126 -0.034605067 -0.0023778088
7 -0.017661054 -0.01024076 0.03634374 -0.0446825 -0.019703392 -0.029032195 -0.001923475 -0.004367523 0.05182082 -0.0042170575 0.011313764 0.023502074 0.015660023 -0.04157871 -0.019297702 0.03066196 -0.005179831 0.021584727 0.020019872 -0.016232979 -0.0021745749 0.014818526 -0.03727284 -0.031441286 -0.005162114 0.015673324 0.017229456 0.0061691045 0.034365714 0.006496335 0.0005967005 0.0016026016 0.016795527 -0.0005317133 -0.014986918 -0.015180471 0.011989598 0.024870602 -0.0010064767 -0.017401174 -0.04950522 0.029640038 -0.01516707 -0.032392293 -0.0052256393 -0.02310822 -0.028737517 0.042701144 -0.04302098 -0.005448475
92 -0.022390585 0.009955546 0.03596503 -0.026640115 -0.015985794 -0.017638361 -0.010791395 -0.013863556 0.045316935 0.0037092494 -0.0045351987 0.009187277 -0.002506461 -0.0290957 -0.005602241 0.02554101 -0.0045026755 0.021376805 0.0142258145 -0.031275153 -0.00355387 0.022257602 -0.031274755 -0.016633667 -0.008640237 0.00068732473 0.010144576 0.0014523414 0.029198075 0.006501004 -0.00395143 0.012068479 0.020476442 0.013343149 -0.024058145 -0.02185722 0.0030396883 0.013826678 0.0038797136 -0.009423151 -0.03968897 0.022306897 -1.2244183e-05 -0.041083824 -0.0018993716 -0.0056552645 -0.03449747 0.041950695 -0.0499517 -0.0039402656
177 -0.01905104 -0.004354685 0.03453849 -0.044475395 -0.018724723 -0.024134845 -0.010886808 -0.01126529 0.0478697 -0.0055350694 0.011401472 0.0123764025 0.007976763 -0.053777885 -0.00240833 0.024593754 -0.0053363275 0.008181976 0.018444022 -0.028842418 -0.019851616 0.018722583 -0.023681277 -0.0361457 -0.0033530279 0.004754678 0.008973416 0.0037847261 0.0500415 -0.0014560291 0.01258231 0.0067544393 0.018038968 0.009415242 -0.015557258 -0.013171212 -0.00020841828 0.027866496 0.012473921 -0.020445017 -0.042101603 0.042867597 -0.017709069 -0.030931482 -0.008254112 -0.01502875 -0.039881118 0.039569594 -0.040730033 -0.01828672
111 -0.015982699 -0.010188058 0.03425016 -0.036922123 -0.02807751 -0.02964885 -0.012097358 0.0025235547 0.048411824 -0.006416393 0.004104077 0.026632892 0.013375167 -0.04857981 -0.0067192265 0.03293201 -0.0064426167 0.028059617 0.027854793 -0.019516697 -0.0058005434 0.02170315 -0.020025382 -0.034183063 -0.015277967 -0.0033892377 0.008388565 0.012221013 0.045774825 0.010554584 0.014818533 0.0029189747 0.0035521935 0.0020950497 -0.012294041 -0.025127899 0.0033658405 0.028998883 0.0066329893 -0.027653506 -0.054159082 0.045285247 -0.02050162 -0.050188363 0.0049752234 -0.024295535 -0.033473372 0.04512444 -0.04196893 -0.00050886365
204 -0.021869292 0.009529809 0.043728754 -0.040561885 -0.02857519 -0.038196497 0.00019508407 -0.007295112 0.043395247 -0.0025641616 0.0100509515 0.022513056 0.0073577636 -0.03770316 -0.010894271 0.038341306 -0.008124691 0.025274377 0.018577805 -0.028167525 -0.016505497 0.032385428 -0.030423135 -0.03219946 -0.01978287 0.012375672 0.023544628 0.010333885 0.0323822 -0.0051975506 -0.005621361 0.011197573 0.02182562 0.016491955 -0.0058454406 -0.0076051676 0.019446734 0.013947054 0.012247662 -0.019599753 -0.04321676 0.040223416 -0.014155969 -0.033183884 -0.01365402 -0.014928845 -0.039119255 0.048290778 -0.054080643 -0.005415693
342 -0.02557954 0.0010775035 0.0388302 -0.03287883 -0.01511675 -0.02920226 -0.0013340904 -0.00014148693 0.04654632 -0.0010959719 0.0004185518 0.012586988 0.00069202355 -0.027460754 -0.017529892 0.03868559 -0.0002906902 0.027843984 0.011378042 -0.019065788 -0.0034229243 0.028281922 -0.021370145 -0.026064372 -0.009935814 0.013306849 0.0051628994 0.009306538 0.038186666 0.0038481993 0.0041650883 0.011454761 0.014113252 0.0033173366 -0.009169461 -0.017549172 0.008994261 0.02214533 0.0059129684 -0.008914356 -0.048980918 0.020021813 -0.00016341524 -0.034629226 0.0019657311 -0.010162761 -0.028796734 0.034885187 -0.04972167 -0.014508528
236 -0.022831911 0.0052677067 0.036732677 -0.0388019 -0.015949825 -0.028356247 -0.004000987 -0.016819142 0.039591655 -0.005614418 0.007273601 0.014559323 0.014843294 -0.030284096 -0.011558776 0.02828971 0.010209964 0.02457578 0.024834003 -0.016202552 0.00064409827 0.022419197 -0.020984227 -0.032043487 -0.0013835843 -0.003260372 0.01821051 0.008325936 0.049076147 0.009004081 0.0034025356 0.007921339 0.009471648 -0.0025460292 -0.012315137 -0.0049740137 0.0036224467 0.028009756 0.007297091 -0.01748269 -0.04824288 0.0228626 0.0007981519 -0.027370114 -0.013118978 -0.018189583 -0.024379492 0.0472847 -0.04520127 -0.0023876159
101 -0.031884383 0.008438394 0.044001963 -0.03742342 -0.020568999 -0.029178998 -0.015920028 -0.011765208 0.037394952 -0.013329463 0.0052486486 0.023359133 0.0042780493 -0.030976795 -0.007829051 0.025641061 0.011416354 0.02123081 0.019157754 -0.016390035 -0.017895682 0.019056544 -0.031208275 -0.020892117 -0.010600246 0.0067966585 0.007820659 0.0073460364 0.041860085 -0.001686643 0.0112954015 0.0062897434 0.017217312 0.0035908779 -0.015350234 -0.01596286 0.008686564 0.02121789 0.011770561 -0.019055769 -0.052837797 0.030841282 -0.0054942355 -0.028989669 -0.0056759235 -0.018380696 -0.028959911 0.043853074 -0.045158014 -0.0119384965
5 -0.029799767 0.0007523806 0.03525267 -0.031877328 -0.031599607 -0.03426691 -0.0058454415 -0.008474948 0.0398713 -0.0013470679 0.0029064715 0.01796099 0.004489065 -0.031894978 -0.010488627 0.035423987 0.010941338 0.009178108 0.022644456 -0.01543413 -0.016357724 0.021176558 -0.031475175 -0.013662928 -0.0077961995 0.0012112347 0.007829314 0.0062056268 0.04563546 0.0015225334 0.0101161385 0.01710378 0.009459041 0.0074560605 -0.0077658365 -0.014107874 0.0033356918 0.023237906 0.010225402 -0.023895817 -0.044085935 0.035787348 -0.015287574 -0.031693026 0.0027466859 -0.014188357 -0.03979035 0.045451026 -0.040132135 -0.012772025
278 -0.010803026 -0.0088250395 0.03399967 -0.04314084 -0.03146393 -0.028672833 -0.0017497955 -0.0060804137 0.033394232 -0.001261975 0.0064670374 0.029326614 0.0014461587 -0.040590327 -0.0121462885 0.028996224 0.0006696086 0.011326471 0.023140796 -0.017058393 -0.019136544 0.02442065 -0.014760455 -0.029265426 -0.019040106 0.006284294 0.010853945 0.008468829 0.03979386 -0.0037508728 -0.003707241 0.00067460025 0.014818127 0.0077382773 -0.023938192 -0.014534661 0.007245699 0.029707717 0.0007875082 -0.00870485 -0.04323497 0.04123345 -0.016769465 -0.04745516 -0.00041684962 -0.010298917 -0.045745917 0.04696327 -0.050290618 -0.008229202
343 -0.014889151 -0.0005068223 0.044449158 -0.03994633 -0.032130975 -0.030079203 -0.016001709 0.0009414454 0.043528877 0.001110148 -0.0047426345 0.018695064 0.014199886 -0.050189544 -0.023759617 0.03993554 0.0077857394 0.027306572 0.008884058 -0.020022608 -0.014214444 0.018083973 -0.027334483 -0.019150978 -0.0045896606 0.015751015 0.01702689 -0.0021186736 0.052856382 0.009248975 0.011764783 0.007941188 0.014537228 -0.0010092435 -0.01681294 -0.015436958 0.014895993 0.021836052 -0.004509618 -0.007897058 -0.05532108 0.044083323 -0.008077499 -0.04273446 -0.010164302 -0.023736797 -0.043994512 0.0433529 -0.056166455 -0.017236538
104 -0.01984382 0.0014764634 0.033077884 -0.028083922 -0.02957082 -0.027281292 -0.012605182 -0.014674965 0.038349673 -0.003735731 0.012203286 0.01738848 0.0073890258 -0.030096615 -0.014242963 0.025073709 0.0059900293 0.0177614 0.017880911 -0.014729326 -0.007985541 0.030291812 -0.019961378 -0.01261091 -0.0022116217 -0.002948426 0.00587822 -0.0056357924 0.03254882 -0.0065793837 0.0025377807 0.013800557 0.013488482 0.0032066097 -0.012130682 -0.010394064 0.013300288 0.0129171265 0.008906808 -0.008066838 -0.03466719 0.033689823 -0.016660457 -0.04261317 -0.006511445 -0.00580273 -0.030501725 0.04842253 -0.036907792 -0.00068528746
48 -0.030281628 -0.0037765864 0.036037654 -0.02601399 -0.01516934 -0.020935133 -0.0069369427 -0.015576303 0.03434609 0.0015025298 0.0061825933 0.013616133 0.014052029 -0.029989284 -0.010337429 0.025214357 -0.0015353292 0.0243173 0.010761241 -0.026334776 -0.008931861 0.024934692 -0.031078499 -0.0331697 -0.018700726 0.014746311 0.022902451 -0.002984065 0.04940436 -0.008414677 0.0015698451 0.008559547 0.0058705737 -0.0022411905 -0.008130381 -0.013722623 0.0002225176 0.024219938 0.0015633472 -0.021625198 -0.034644574 0.029770937 -0.013095253 -0.04595234 -0.0029261187 -0.0027985838 -0.027494267 0.05479681 -0.04022559 -0.004850293
72 -0.020558964 -0.0015755773 0.038139634 -0.026018577 -0.0300072 -0.028734393 -0.0032918444 -0.0016429299 0.03815694 -0.010105016 0.013894871 0.013282997 0.014277381 -0.045515068 -0.010309147 0.035141714 -0.0069680773 0.0189179 0.02491725 -0.02027906 -0.015715262 0.021118563 -0.018553127 -0.02614503 -0.019056763 0.00953962 0.02190651 0.006670877 0.03128581 0.00898449 -0.0018247472 0.004092465 0.0072045485 -0.0020025542 -0.019646453 -0.00388435 0.0043224012 0.015173775 0.0014306176 -0.004463011 -0.045848727 0.023193797 -0.009239527 -0.03896909 -0.0042698216 -0.018746734 -0.027251223 0.041163716 -0.038567867 -0.017183999
310 -0.024542468 0.0065496806 0.036328163 -0.046889506 -0.03487377 -0.03625206 -0.014645735 -0.0073063653 0.046572626 -0.0111149205 0.0040588416 0.018213429 0.017765187 -0.049105335 -0.024208698 0.042708635 -0.0026059435 0.0144020505 0.019389912 -0.028261352 -0.0073390305 0.025596296 -0.03219408 -0.025094572 -0.0027542408 0.01538891 0.016704515 0.008785114 0.04239625 0.0013665177 0.011788309 0.0141989095 0.00038572168 0.002865385 -0.01386082 -0.024024483 0.009520484 0.014113571 0.0059385626 -0.015490543 -0.051646274 0.037102044 -0.0063406276 -0.035546415 -0.0021092044 -0.018122746 -0.0490605 0.041032072 -0.047167376 -0.00830251
281 -0.03265871 -0.006846805 0.028993664 -0.03467975 -0.01675839 -0.036228552 -0.015011247 -0.013830761 0.0459848 -0.004069313 8.834443e-05 0.030410923 -0.00054327835 -0.049733836 -0.0036704317 0.0392259 0.0077597215 0.01731793 0.017456649 -0.02867029 -0.00836002 0.015223603 -0.03324198 -0.025394725 -0.0049378276 0.012631578 0.007994164 0.0059078177 0.040425207 -0.0018265701 0.013488058 0.0030025875 0.019408854 -0.002386271 -0.012595479 -0.02496209 0.0023891865 0.018319095 0.000824919 -0.008652941 -0.044149123 0.041802075 -0.013200711 -0.04349154 -0.011427907 -0.008189929 -0.03989904 0.044127036 -0.050790753 -0.0141925
194 -0.026882052 -0.0040525603 0.03385051 -0.03680433 -0.014620448 -0.032970753 -0.0041779527 -0.0007638527 0.03859298 -0.009459221 0.0020515965 0.008972885 0.00045616686 -0.041793827 -0.006058785 0.028270382 -0.003491783 0.0149578275 0.01989654 -0.021716671 -0.0033454236 0.026988786 -0.03637705 -0.032796144 -0.01413092 -0.0037665113 0.006223496 0.009432594 0.041274197 -0.00152424 0.012095931 0.007744228 0.0020616748 0.0040959227 -0.0054549226 -0.011916034 0.015358989 0.016500976 0.0065442584 -0.005509186 -0.03375298 0.03379905 -0.0070518753 -0.047241837 -0.006035682 -0.022167254 -0.041312322 0.04670452 -0.045939274 -0.0072392835
128 -0.029827733 -0.0049125478 0.0262563 -0.039500766 -0.024986513 -0.030994968 -0.007253241 -0.0066428315 0.0430131 -0.0061657527 0.00636166 0.019106176 -0.0015704646 -0.041533336 -0.012354719 0.021091059 0.0021512858 0.007708196 0.015934823 -0.02457161 -0.001069133 0.0268108 -0.020469237 -0.030378977 -0.0084215 0.009997985 0.021526534 0.0021513999 0.038295254 -0.0031236282 -0.0005553971 -0.0022812495 0.015500911 -0.00023364792 -0.006483723 -0.0069995043 0.008904353 0.028409403 0.007373008 -0.008280689 -0.04672905 0.028180405 -0.0059687346 -0.041447945 -0.0012797771 -0.015199723 -0.034995425 0.03746703 -0.05402451 -0.018289814
320 -0.030535247 0.002686005 0.041145205 -0.033063307 -0.017575499 -0.040433273 0.000973036 -0.01502282 0.049391866 -0.009596253 0.013555505 0.014267122 0.002174469 -0.047635674 -0.0068861907 0.026080105 -0.00173197 0.024604956 0.019114424 -0.029401153 -0.017202582 0.018870084 -0.027140157 -0.030152507 -0.009304992 0.00019928734 0.020998165 0.008422959 0.0447145 -0.006202969 -0.0011797955 0.015968414 0.008522715 0.009861774 -0.024274465 -0.013662131 0.012757177 0.014461291 0.008873794 -0.008351925 -0.04304227 0.027286932 -0.010976453 -0.04099593 -0.0072655473 -0.020439392 -0.043828323 0.057663377 -0.059520844 -0.017168326
330 -0.015825342 0.008719909 0.049561605 -0.04535837 -0.021112341 -0.023529194 -0.0036681707 -0.001207645 0.03989118 -0.0051444145 -0.00028059716 0.021878112 -0.004833785 -0.04398242 -0.018518664 0.04488714 0.010688311 0.012200956 0.022057027 -0.021518303 -0.005005782 0.02247751 -0.03690463 -0.030503333 -0.0031815642 0.015032921 0.008723415 -0.0016889467 0.05525879 0.010457922 0.003652912 0.0027253497 0.014920008 0.016593624 -0.026515927 -0.021030085 0.005262415 0.03170037 0.008083457 -0.025423683 -0.055201333 0.03812809 -0.0038216668 -0.0523978 -0.0018922348 -0.022834089 -0.04028862 0.056025565 -0.0430619 -0.012629749
326 -0.022280222 0.0023664546 0.040128518 -0.043279827 -0.012998472 -0.0337968 -0.00886929 -0.00798538 0.030840937 -0.013552925 0.00083622924 0.02981236 0.007498058 -0.035002097 -0.013237372 0.03894485 0.01074823 0.018427944 0.018404195 -0.030645957 -0.008547347 0.02577531 -0.036657218 -0.028323898 -0.0029351853 0.00038136268 0.010262025 -0.0073761772 0.04945047 -0.004584122 0.006320848 0.012678389 0.009912574 0.014433401 -0.02137935 -0.01058447 0.005209577 0.01853125 -0.00066686014 -0.01909086 -0.048231155 0.03710413 -0.01397496 -0.038409296 -0.0012528592 -0.019250559 -0.04800413 0.043247875 -0.057499424 -0.019280814
242 -0.019992689 -0.008825379 0.032011636 -0.032182395 -0.020635856 -0.023087202 -0.006811278 -0.0038454744 0.043622456 -0.004090752 0.011667321 0.026188059 0.0043085827 -0.040359832 -0.0042090802 0.038150806 -0.0050824624 0.015054379 0.0076197204 -0.015436626 -0.001210785 0.021611003 -0.020401638 -0.030358262 -0.0036045846 0.010785057 0.023185186 -0.0016260246 0.03324693 -0.0021278332 0.0018769141 0.01034231 0.012893451 0.0078655435 -0.020497164 -0.024287755 0.007989501 0.020786213 0.004750628 -0.011540533 -0.049106997 0.040770184 -0.01931642 -0.033231836 -0.008785194 -0.010889793 -0.045006424 0.052849393 -0.04331277 -0.011573398
13 -0.020951226 0.0036532604 0.038371436 -0.028919121 -0.021526583 -0.022736091 -0.008700786 -0.0016924357 0.03867091 -0.012598793 0.010566963 0.009010992 0.0014722039 -0.035568625 -0.014001269 0.029401079 0.008777371 0.022310654 0.019757448 -0.023922227 -0.008485511 0.013833034 -0.012790346 -0.019075388 -0.0178703 0.0148896305 0.0047361776 -0.0031083818 0.036805276 0.010045478 -0.0020271817 0.01366737 0.014497128 0.00081449276 -0.00069733354 -0.008159421 0.009436365 0.018785834 0.0061860587 -0.01230529 -0.0364419 0.029350784 -0.012687798 -0.026058821 -0.0033006696 -0.018701559 -0.029562732 0.040101122 -0.038761616 -0.009096275
223 -0.022078581 0.00342287 0.033422142 -0.027304888 -0.029559055 -0.018362368 -0.008560834 -0.00055714714 0.031778745 -0.005463038 0.0011909144 0.009975834 0.011927805 -0.040342256 -0.017408535 0.017657606 0.008495957 0.008130067 0.019811204 -0.026756836 -0.0058383197 0.018419243 -0.029093724 -0.016728928 -0.0037344226 4.2391133e-05 0.01617453 -0.0011330452 0.044188708 0.011687419 0.008156993 0.0032900702 0.012126411 0.0009793362 -0.02137848 -0.012786947 0.008029644 0.02601082 -0.0010010626 -0.0047052405 -0.04264622 0.024925169 -0.0070213517 -0.033898972 -0.014373571 -0.003013375 -0.02429929 0.04567875 -0.042521875 -0.017799914
197 -0.024668636 -0.012236325 0.0420507 -0.046008058 -0.025006073 -0.045347057 -0.009123474 0.0006996299 0.04957137 0.00091773435 0.011124423 0.03323329 0.009177046 -0.051827036 -0.009123261 0.043868903 0.004251895 0.019922027 0.015882593 -0.035833616 -0.017049968 0.03664193 -0.03931621 -0.030494554 -0.019844357 0.0074425093 0.018191976 0.0058721495 0.040323835 -0.008639293 0.0024070821 0.008640199 0.008851259 0.00022594038 -0.01031358 -0.023650616 0.01690464 0.022512091 0.0030658129 -0.025887424 -0.049567137 0.03514547 -0.011685221 -0.049233038 0.0014839207 -0.006675035 -0.033291996 0.0504633 -0.052562907 -0.013627298
116 -0.026827483 -0.0009852987 0.031756636 -0.038330756 -0.013871282 -0.031376667 -0.003368899 -0.0150705185 0.024611313 0.002416706 0.006011343 0.025658924 0.014608523 -0.03614653 -0.009341363 0.035642635 0.0025159921 0.010782237 0.013923225 -0.015798965 -0.0023335107 0.029566696 -0.031241924 -0.032075886 0.0009528114 0.009229809 0.016465703 0.008001916 0.04506142 -0.0083941175 0.010692468 0.0016027878 0.0073321075 0.0051365104 -0.02108797 -0.022780102 0.011328414 0.013157246 0.0042979834 -0.017316248 -0.044440184 0.035061102 -0.01997864 -0.03595471 0.0043126717 -0.01260446 -0.036745813 0.051472373 -0.039658368 -0.0145330895
225 -0.017167054 0.0046984386 0.028575253 -0.0352585 -0.030989684 -0.02195576 -0.015353616 -0.0014061761 0.0380644 -0.009766353 0.0007599536 0.025380408 0.014718286 -0.051111188 -0.007842184 0.02817661 0.0022607 0.02141753 0.009190317 -0.016176466 -0.014994518 0.029153481 -0.014318524 -0.026150074 -0.022361413 0.0015969649 0.021452125 -0.007888608 0.038018752 -0.001832945 0.012522072 0.011505963 0.00918689 0.004073998 -0.012144043 -0.023505045 0.004219591 0.012344877 0.009395209 -0.020077303 -0.046734598 0.043092642 -0.02248111 -0.03417666 -0.001203435 -0.012128634 -0.042918175 0.05055376 -0.053204183 -0.019856779
171 -0.021039478 0.008118162 0.04194635 -0.04947652 -0.036954768 -0.042197634 -0.017064137 -0.019670697 0.04169063 -0.007609637 0.005276022 0.031357884 0.01118338 -0.0521581 -0.021782186 0.031849246 0.0017148154 0.028106594 0.019565903 -0.034640223 -0.021635996 0.031668812 -0.040572457 -0.034385808 -0.020285707 0.012128878 0.018411499 0.007264013 0.056908954 0.011985382 0.012468916 0.012871585 0.0045109186 0.0015640525 -0.013245918 -0.01224489 0.002712395 0.017601548 -0.0020111767 -0.012494437 -0.0521847 0.046602346 -0.012127485 -0.055667438 -0.0088727875 -0.016732607 -0.03659246 0.06657544 -0.06012694 -0.021146655
62 -0.03160074 0.0023174633 0.030927697 -0.022250535 -0.0112936245 -0.01630241 -0.011492007 -0.016879108 0.045455113 0.0014310188 0.014818182 0.027703108 0.015214965 -0.029988017 -0.004906352 0.029432563 0.0019652694 0.025389658 0.015380916 -0.020613471 -0.0018114158 0.029126778 -0.020256128 -0.02852804 -0.0068499506 0.004799832 0.011262972 -0.0028608995 0.044207048 -0.0061860066 -0.0034073743 0.010964489 0.003320471 0.012539248 -0.013327146 -0.014964779 0.012151298 0.025228577 0.0065519055 -0.007181883 -0.043588217 0.026152795 -0.0016949491 -0.0355301 -0.004643378 -0.008628991 -0.03769867 0.035092253 -0.046135064 -0.00015564721
133 -0.031189956 0.002535857 0.03841773 -0.02280733 -0.013058483 -0.030167496 -0.0010449706 -0.008907265 0.038085166 -0.0051289536 0.0077072512 0.012873212 0.015154315 -0.030329458 -0.0037923874 0.025603108 0.010438902 0.018955722 0.019684939 -0.026853831 -0.009947092 0.016427066 -0.028874552 -0.022986103 -0.019540256 0.013304132 0.0113480445 -0.0012431197 0.03669962 0.0034620506 0.013376129 0.006034178 0.001175641 0.015269193 -0.017860418 -0.004414306 0.0014406292 0.02492325 0.0045880186 -0.0043209796 -0.038225375 0.02070238 -0.01202096 -0.026081799 -0.009328773 -0.0073088557 -0.032780312 0.045640767 -0.05491364 -0.00399273
31 -0.019089922 -0.0051439884 0.028069494 -0.035775796 -0.030615186 -0.03225095 -0.017319338 -0.003407602 0.031517703 -0.0083708 0.009166652 0.015554931 0.008066685 -0.030386928 -0.0066376864 0.023130061 0.010339827 0.024302118 0.012113887 -0.022399986 -0.013665063 0.032019395 -0.02121554 -0.032048736 -0.008989998 0.0010948956 0.013011957 0.008782879 0.03912018 -0.002514169 -0.00092092325 0.00285489 0.012836197 0.008431841 -0.01151129 -0.0049921377 0.004708015 0.008730275 -0.004401497 -0.012055495 -0.045638483 0.024906987 -0.00010644185 -0.031111883 -0.011091731 -0.018620426 -0.0302484 0.049542803 -0.052375905 -0.0010246692
4 -0.01757601 -0.0038495641 0.046036582 -0.049700927 -0.017456982 -0.043741386 -0.0074090827 -0.008599832 0.058468238 0.000110879395 0.008613512 0.016281292 0.0021676854 -0.038162686 -0.015349295 0.04719618 0.0047282414 0.017405625 0.015494771 -0.028192576 -0.011147032 0.031517662 -0.03229226 -0.026363399 -0.015358142 0.0062969797 0.0114591485 -0.004321089 0.04978267 0.00307745 -0.0025325674 0.019165684 0.023817165 0.0039140247 -0.02567968 -0.022898331 0.011052824 0.017969217 -0.0057250927 -0.021635573 -0.056529276 0.04767105 -0.002412445 -0.04942346 0.0003648213 -0.0076792985 -0.04435787 0.04659806 -0.06303848 -0.012613337
132 -0.016773092 -0.008878701 0.035502326 -0.023111504 -0.010293494 -0.020184232 -0.0060740868 0.0026229986 0.02862753 -0.007085063 -0.004844896 0.013598812 0.0049841125 -0.039788324 -0.017923184 0.032980695 0.0065365727 0.014601531 0.008829552 -0.027060766 -0.014709558 0.027194185 -0.018040966 -0.01622886 -0.0020978814 0.009635841 0.01629715 0.010431873 0.039590914 -0.0012165372 0.0016607536 0.009226344 0.005903827 0.0034410357 -0.0051947837 -0.0115047945 0.009671568 0.025667831 0.009537262 -0.010415974 -0.0295376 0.023798369 0.0020012811 -0.043214545 0.00033867516 -0.010663377 -0.033111222 0.048245274 -0.04165852 -0.0020279377
20 -0.03007782 -0.0015573484 0.03441391 -0.03575303 -0.019211864 -0.020967424 -0.00070651114 -0.010815966 0.028882453 -0.007348349 -0.0026162844 0.0110701695 -0.0006767111 -0.032381766 -0.011097656 0.021617461 0.0105578 0.024970625 0.013615619 -0.026636219 0.0008147577 0.026092637 -0.029929927 -0.019348886 -0.010940621 -0.0016260943 0.019166458 0.009444556 0.041052625 -0.0006715149 0.010148067 0.012344544 -0.00034222112 0.009880819 -0.012791836 -0.025239266 -0.0003407338 0.021834036 -0.009290431 -0.016461935 -0.035677087 0.036498133 -0.019743515 -0.038857017 0.0055490127 -0.0066033364 -0.042278003 0.03805439 -0.041679163 -0.002928686
158 -0.013303259 -0.0053755073 0.03569195 -0.021179393 -0.019958945 -0.03075349 -0.0021605298 -0.0075028655 0.044566058 0.0067914394 0.012766689 0.026809528 0.014467703 -0.033853833 -0.013371224 0.033751085 -0.008214419 0.017770993 0.0149020115 -0.020745698 -0.0065587373 0.019689687 -0.026962714 -0.012586608 -0.014028892 0.014747274 0.022242323 -0.0049215434 0.032801878 -0.006202143 0.012975623 0.008795298 0.005551516 0.008814126 -0.0058998903 -0.01823117 0.009396391 0.017992185 0.004130063 -0.009664434 -0.038783554 0.027503746 -0.00126425 -0.03162844 -0.010014567 -0.01524757 -0.027337922 0.035216145 -0.041862465 -0.011331074
308 -0.024489328 -0.010211773 0.02557605 -0.03504495 -0.030262433 -0.026974447 -0.0076810336 -0.008846068 0.037320025 0.0045970916 -0.0025670452 0.026556123 0.00011937424 -0.043641742 -0.0061996044 0.027759789 0.00746896 0.018790351 0.023373462 -0.026690844 -0.005153165 0.015652893 -0.02646507 -0.025286002 -0.0048185727 0.006567206 0.008786579 0.0061354367 0.03924425 0.011825836 0.0057360465 0.012612635 0.01497188 -0.0023764286 -0.013425883 -0.018716842 0.010123832 0.017943183 -0.00011738596 -0.0029155985 -0.048672225 0.021626912 -0.0015860886 -0.035885297 -0.013092849 -0.013847275 -0.030382028 0.049187146 -0.035358716 -0.019070648
299 -0.01734608 -0.007909454 0.039434887 -0.034618054 -0.030185161 -0.036179844 -0.008207485 -0.0056118136 0.03378062 -0.010336965 0.0019224271 0.018013889 0.0108716395 -0.047202893 -0.01459978 0.03647134 -0.001001427 0.024678169 0.020712245 -0.031425547 -0.0055710995 0.018076805 -0.026891941 -0.031607922 -0.0062969034 -0.0014590261 0.0078847455 -0.00649323 0.041582543 0.008305029 0.00941125 0.01514579 0.005072809 0.0109350765 -0.026308576 -0.007478275 0.011753466 0.031168126 0.013108467 -0.010597007 -0.049752712 0.03666534 -0.005017773 -0.05100658 0.0038582203 -0.01234762 -0.035314992 0.05352398 -0.05117227 -0.0057531623
275 -0.025929842 -0.00046553664 0.047625158 -0.049839333 -0.031288173 -0.04156512 -0.006967564 -0.014456439 0.05809502 -0.009785465 -0.00034058327 0.019906655 0.014243164 -0.03198151 -0.02001171 0.044043843 -0.0046894103 0.012311988 0.026738262 -0.033403423 -0.013150305 0.025846269 -0.033771347 -0.015742125 -0.017189158 0.0123825725 0.023678357 -0.0106891235 0.05763088 0.0028144694 0.0025829128 0.016677132 0.013987328 0.0055849985 -0.019473836 -0.024043716 0.012818861 0.011355632 0.004372072 -0.015631996 -0.053262096 0.04450791 -0.010342933 -0.036660302 -0.012496028 -0.024168503 -0.041304916 0.048840955 -0.058397107 -0.015492018
219 -0.030755728 0.0014975176 0.027897839 -0.041353613 -0.026837597 -0.019291745 -0.019106401 -0.012508974 0.047360484 -0.012526903 0.016583597 0.030189423 -0.0035408963 -0.0479435 -0.0077783796 0.029050412 -0.004446744 0.027538307 0.010053047 -0.019247765 -0.020300897 0.015114512 -0.030079 -0.015503164 -0.012952043 0.00893034 0.009815137 -0.00070064084 0.045532186 0.011201548 0.0075076995 0.007570176 0.015177461 0.015458345 -0.020421378 -0.025036147 0.0060620764 0.017895805 -0.002693083 -0.011117938 -0.043719217 0.027059486 -0.012074827 -0.038868085 -0.010786392 -0.01028524 -0.038028143 0.054405883 -0.049598344 0.0024331291
1 -0.030292315 0.002790003 0.04125119 -0.02341078 -0.016897079 -0.023007052 -0.0017041108 0.0007223459 0.047310293 -0.010932927 0.012734261 0.014347632 -0.0010980115 -0.03673253 -0.014478664 0.038196057 0.010435546 0.025617098 0.011521687 -0.02099875 -0.010140723 0.028660621 -0.03073195 -0.01748346 -0.013913526 0.0104902685 0.009734189 0.010242664 0.04465762 0.0047953976 0.0007170098 0.016671838 0.014724644 0.009127182 -0.020886462 -0.020089597 0.017886557 0.029241815 0.0055245147 -0.018571211 -0.037512504 0.03074628 -0.0060441224 -0.044591516 -0.011154999 -0.006361393 -0.040600196 0.04609617 -0.054387573 -0.017207336
334 -0.015792027 0.0004211158 0.033178806 -0.039627984 -0.026122566 -0.015839396 -0.005765431 -0.0041101975 0.046701156 -0.010554452 -0.0049150586 0.025147283 -0.0023646243 -0.04162065 -0.019747576 0.03484703 0.008557134 0.012215901 0.024390008 -0.015606099 -0.0033690103 0.02063457 -0.026090812 -0.021575404 -0.010892313 0.0057222894 0.022443283 0.012401798 0.03204206 -0.002512526 0.0030028347 0.0005432044 0.0015948842 0.0067630596 -0.004316408 -0.014114165 0.019497562 0.019980438 0.007192801 -0.0065517304 -0.0331814 0.024058275 -0.0061604893 -0.03976385 -0.01592656 -0.013200988 -0.026045874 0.04326304 -0.04318061 -0.019625088
185 -0.026263122 -0.0102548 0.026679162 -0.03326399 -0.020602113 -0.017216947 -0.0020061927 -0.008493984 0.030889692 -0.008757114 0.0102201225 0.013724792 -0.002291883 -0.036899026 -0.016791983 0.019900491 -0.003653731 0.011417089 0.01635616 -0.016428966 -0.0009673564 0.01578984 -0.025735017 -0.028900161 -0.008414706 0.00037735986 0.024470657 0.0021297697 0.0404023 0.0014840681 -0.0017747844 0.003552081 0.00236799 0.013483263 -0.0046553253 -0.0063958117 0.01102041 0.025024699 -0.0014383883 -0.011706735 -0.0371712 0.031910583 -0.017139364 -0.039740887 0.0028896313 -0.020904528 -0.027843526 0.049542654 -0.0469754 -0.0057832273
87 -0.020260207 0.006696906 0.041862987 -0.027331598 -0.022513207 -0.0329676 -0.015689718 -0.013153518 0.03197059 0.0024627757 0.0030432837 0.021098329 0.001066956 -0.032147408 -0.0118705155 0.027334271 0.009770805 0.008349222 0.0230581 -0.027064836 -0.019821469 0.030113062 -0.0253533 -0.016775826 -0.0030653558 0.0067261504 0.008430322 0.009468787 0.0453796 0.0119052455 0.008193508 0.007374353 0.0068796715 -0.004200545 -0.007839099 -0.022201998 0.013643897 0.017267235 -0.0031129662 -0.01921029 -0.051764727 0.03432985 -0.012975108 -0.039990462 -0.0028780373 -0.018171476 -0.026722169 0.05437089 -0.0446814 -0.019821633
269 -0.016161691 -0.00061361643 0.037502892 -0.03848147 -0.015328975 -0.0402086 -0.014902128 -0.008521083 0.05270143 -0.009676978 0.005024216 0.027193548 -0.00044464675 -0.04912166 -0.017864166 0.026036654 0.009420436 0.026439684 0.016076535 -0.025398618 -0.0019910652 0.027150974 -0.034372713 -0.027073909 -0.0148227215 0.012350631 0.015632143 -0.00311429 0.036190342 -0.0024675515 -0.0002979764 0.009521199 0.009943037 0.009598805 -0.010117586 -0.016939921 0.012544905 0.029515222 0.0031038392 -0.01833031 -0.050076004 0.027796827 -0.004866135 -0.038628817 0.000882634 -0.0168474 -0.039542772 0.058565762 -0.045976378 -0.011244563
159 -0.017695801 -0.0097209085 0.027043657 -0.040355183 -0.020405041 -0.03565939 -0.00798251 -0.004472343 0.04780588 -0.0033535266 -0.00529541 0.026852375 0.0028028435 -0.028366873 -0.019213887 0.023525387 0.00797694 0.01785567 0.007645428 -0.029964712 -0.0011501336 0.017340058 -0.023408294 -0.021817219 -0.0015928905 0.007875638 0.017323641 0.0051193195 0.0342164 -0.008725304 0.0026429477 0.007288063 0.011060151 0.012756141 -0.015565622 -0.020857718 0.019492367 0.023334151 0.008790366 -0.0064882915 -0.04704286 0.023703469 0.00031264327 -0.0450312 -0.0057003736 -0.0064289914 -0.037017904 0.048147667 -0.055704128 -0.012134038
254 -0.025348607 0.004999839 0.048047453 -0.041901745 -0.021267585 -0.024451846 -0.009729642 -0.0069257026 0.034926064 -0.006593756 0.005267863 0.022777455 0.0024070153 -0.043668598 -0.00396104 0.026340408 0.0049246773 0.018363945 0.01137869 -0.017512104 -0.0052201883 0.017964851 -0.033847153 -0.015414246 -0.01885837 0.0046634143 0.019034104 -0.0014233445 0.04079493 0.0019137174 0.012341302 -0.00037429004 0.020353341 0.0013383863 -0.016686056 -0.005671938 0.010014202 0.019517567 0.010543455 -0.009925452 -0.055190872 0.029121568 -0.006454559 -0.038196094 -0.010416102 -0.0049521104 -0.032989904 0.04303955 -0.05115879 -0.007832881
24 -0.026915269 -0.003183588 0.039042946 -0.03843992 -0.018154617 -0.024415797 -0.005342142 -0.008348172 0.041242603 -0.0015597692 0.004133232 0.012211174 -0.00086333783 -0.033653826 -0.0025928237 0.040149815 -0.0076533295 0.024295636 0.006179388 -0.018573275 -0.0050641135 0.02585593 -0.032553732 -0.017830433 -0.010571715 -0.0033080026 0.012470932 -0.0018384728 0.04023009 -0.0040704985 -0.00015569499 0.0046723993 0.008547036 0.0034757867 -0.019311279 -0.008510429 0.008217813 0.024269598 -0.0005065907 -0.01471441 -0.03161692 0.026490182 -0.009035657 -0.04543443 0.0032680212 -0.020814521 -0.042907584 0.046770126 -0.05418287 -0.016485028
276 -0.031226473 -0.0005274727 0.037414804 -0.03557924 -0.0113794925 -0.02623581 -0.008131502 -0.009877257 0.036702935 -0.012017244 -0.0036624633 0.014299764 -0.002097994 -0.035026416 -0.010693124 0.018242123 0.0017450388 0.01202922 0.019076016 -0.029197317 -0.008796802 0.021025626 -0.015254316 -0.02302997 -0.005454065 0.00090815674 0.018487766 0.006903933 0.04314716 -0.00075540785 0.011312088 -0.0023035565 0.017807059 0.0016116766 -0.01455488 -0.0058061644 0.0018754806 0.025337968 -0.00084067945 -0.020987645 -0.036942672 0.020389676 -0.0031164852 -0.040383644 -0.013930522 -0.021629432 -0.032633074 0.037168585 -0.04693444 -0.009815007
273 -0.025172424 -0.007052184 0.045900423 -0.042721268 -0.03402464 -0.027269118 -0.0022700133 -0.009674142 0.049777243 -0.015395558 0.005519313 0.016509619 0.017077385 -0.037069768 -0.00615969 0.030624418 0.010753145 0.01695769 0.024400486 -0.034038037 -0.00022890436 0.026222944 -0.021150127 -0.03138434 -0.020647854 0.007603717 0.028263956 -0.0013731546 0.055281248 0.004662796 0.0079325745 0.006089491 0.0086845 0.01595934 -0.0061315023 -0.029520037 0.013847385 0.013954043 -0.001995719 -0.014548152 -0.052273523 0.037305925 -0.010100864 -0.04501255 -0.016084643 -0.016469484 -0.038408674 0.04476128 -0.059113942 -0.012086906
306 -0.030419959 -0.0016738274 0.047447357 -0.04645779 -0.027792519 -0.022857422 -0.007780003 -0.002960421 0.05517433 -0.01594283 0.015203783 0.023904257 -0.0007186672 -0.029668553 -0.014638334 0.028979981 0.00906615 0.0140545415 0.016969983 -0.031272393 -0.0054954616 0.03090245 -0.027486088 -0.023080992 -0.017015481 0.0006801473 0.010241907 -0.009256264 0.04837916 0.010950743 -0.0041914624 0.0011540626 0.020867227 -0.0015189684 -0.02105179 -0.018278647 0.0034216554 0.019596126 -0.0003550062 -0.0113251 -0.05303715 0.028513558 -0.01801959 -0.03997611 -0.005345257 -0.015597911 -0.040457845 0.04600529 -0.052629706 -0.0045115086
224 -0.02329648 0.007713465 0.040999558 -0.03987133 -0.020797307 -0.028478304 -0.011388531 -0.001018629 0.033904456 -0.00028931687 0.0010041331 0.02613377 0.006805257 -0.03764982 -0.017821876 0.036265865 -0.0065839435 0.013224213 0.023506349 -0.027097106 -0.014156215 0.012604546 -0.027447565 -0.017994307 -0.018871846 0.008524352 0.020125503 -0.0014851482 0.030318331 -0.008470846 0.004999416 0.0067086965 0.016174989 0.007559602 -0.009278648 -0.0075051174 -0.00035398762 0.017494194 0.010834452 -0.02286066 -0.04644294 0.037829846 -0.015401262 -0.023734802 -0.0010287815 -0.0122693125 -0.030200543 0.03767678 -0.032704357 -0.017087553
244 -0.03726912 -0.008766062 0.039693743 -0.040362366 -0.041752383 -0.034687493 -0.006774537 -0.0018792889 0.044857092 -0.018055215 -3.312768e-05 0.014944553 0.014974324 -0.037518386 -0.026563363 0.038205374 0.011281767 0.0125606 0.016399428 -0.021630542 -0.012442353 0.021140892 -0.026106946 -0.037936825 -0.022079889 -0.013554979 0.026308414 0.017993443 0.054136544 -0.01027116 0.005601504 -0.012355579 0.014249724 0.0056509576 -0.031383827 -0.015920103 0.025582623 0.027141994 0.008548895 -0.021074895 -0.067429945 0.05015924 0.0052354424 -0.033334255 -0.00670844 -0.008830175 -0.030083617 0.06734691 -0.063274674 0.0027486356
282 -0.032658543 -0.012672845 0.032665145 -0.040358864 -0.033778146 -0.044880297 -0.017785346 -0.00081112987 0.034564774 -0.01558928 0.004577232 0.030099161 0.01974038 -0.04955472 -0.027435133 0.038752582 0.013092615 0.0046997415 0.018320695 -0.019948987 -0.0050730556 0.01981218 -0.020497534 -0.028865563 -0.0064596003 -0.010556735 0.030684887 0.020635983 0.041727304 -0.005958699 0.014656623 -0.01035487 0.0062793507 0.018415762 -0.028717317 -0.010943334 0.023439165 0.023990877 0.009819204 -0.020657474 -0.06343423 0.040805355 0.008379186 -0.032692656 0.005657342 -0.017842012 -0.03130078 0.063971356 -0.061717514 -0.010365847
256 -0.014286604 0.002096643 0.053882908 -0.051817447 -0.019275896 -0.013181288 -0.012604221 -0.007039205 0.058523677 -0.0044336948 -0.0068201222 0.02550704 0.003195584 -0.03773787 0.0036070715 0.027170151 -0.011891068 0.029075658 0.031561624 -0.028786061 -0.022393746 0.034926154 -0.027323898 -0.023629671 -0.028715357 0.002594838 0.02260898 0.0072951363 0.04123014 0.0051911077 0.0066743083 0.02137731 0.025076985 0.007636316 -0.017111784 -0.0289909 0.022194315 0.030358285 0.0031139771 -0.029591028 -0.05182491 0.03393088 0.0044785175 -0.041201472 -0.01120105 -0.020621808 -0.04734597 0.06671954 -0.04958617 -0.012422512
233 -0.034427125 -0.008177282 0.045598317 -0.049567897 -0.03175229 -0.017245883 -0.022542367 0.004918407 0.058889367 0.007868148 -0.0012467332 0.009968283 0.009415048 -0.04767309 -0.00087483507 0.029751174 -0.013015272 0.012163853 0.025503388 -0.02585515 -0.014080717 0.028206598 -0.028014107 -0.037861258 -0.026930569 0.014053198 0.026864368 0.007369792 0.031765766 0.008562165 0.01899572 0.02261324 0.022639455 0.014761457 -0.01093297 -0.03308607 0.025264077 0.019788552 -0.007321513 -0.027859347 -0.05526653 0.02279479 0.0016762149 -0.049993813 0.0012298551 -0.012134312 -0.050741017 0.062013667 -0.062008765 -0.015723905
130 -0.016081508 0.0076032076 0.02887153 -0.03268252 -0.02382095 -0.036855284 -0.0052374606 -0.00046988178 0.028267162 0.000774398 0.010208954 0.018086063 0.003769218 -0.04375595 -0.009635536 0.02064722 -0.006654965 0.019115578 0.026308697 -0.025130833 -0.0072452836 0.026078027 -0.016226653 -0.017844724 -0.00510187 0.013914213 0.023477599 0.00077944 0.032391667 0.0022460085 0.0010141723 0.009415525 0.012772842 0.0018843774 -0.017624136 -0.009455369 0.0036943424 0.015417046 0.0106971515 -0.003818354 -0.041757878 0.034810163 -0.017304279 -0.04289284 -0.011750037 -0.014461039 -0.041050505 0.04998541 -0.04428785 -0.0076794093
140 -0.02239877 -0.006872885 0.032959934 -0.037148472 -0.010553581 -0.030557778 -0.009721308 0.00055738556 0.039933868 -0.013414394 -0.0061493716 0.017286925 0.0011937714 -0.046224426 -0.008306292 0.035965323 0.010290793 0.011353513 0.0066021774 -0.023913085 -0.002279297 0.017307132 -0.034069728 -0.027397603 -0.005538619 -0.0033530756 0.00897245 0.006108114 0.04376043 -0.007890951 0.013471698 0.01635956 -0.0012558606 -0.0018171673 -0.0051130773 -0.025949402 0.010544704 0.017995203 0.008407084 -0.021921191 -0.03912067 0.03176401 -0.017620299 -0.04094817 0.006022877 -0.020295758 -0.036273714 0.052267678 -0.051192295 -0.015557625
33 -0.024314692 -0.010031987 0.033245128 -0.047762696 -0.032555353 -0.03916531 -0.025072437 -0.024283126 0.06316937 0.012680017 -0.010316971 0.013942742 0.01952698 -0.033579886 -0.023500953 0.031025928 -0.01047961 0.009207141 0.008857285 -0.04364377 0.00078754924 0.03460597 -0.024561727 -0.034360234 -0.014952085 0.006606428 0.023677459 0.01713597 0.05809294 0.004844395 0.012270284 -0.005951366 0.00074387307 0.014695631 -0.024492312 -0.027336864 0.021854455 0.009640984 -0.008398313 -0.0077746697 -0.037261873 0.03990897 -0.01619524 -0.04901392 -0.021362273 -0.023366364 -0.04078631 0.05043896 -0.05284368 -0.022528099
42 -0.019981658 -0.016511073 0.049628314 -0.05033854 -0.017796384 -0.023345154 -0.017058872 -0.010374243 0.054128278 0.00957156 -0.0012531382 0.024820387 0.011264548 -0.038740475 -0.0019500948 0.04558157 -0.005020238 0.012415718 0.017690836 -0.033159107 -0.0076681217 0.026616653 -0.028005624 -0.038406227 -0.020591069 -0.0039084144 0.028893458 0.016298253 0.055465363 0.0029916926 0.017981108 -0.0010527167 0.0023818908 0.006486361 -0.0127652865 -0.008776279 0.024260128 0.014989495 -0.0115858605 -0.004422776 -0.037690222 0.047759734 -0.0040504043 -0.029278116 -0.0131610725 -0.016700108 -0.035111003 0.049541723 -0.040901426 -0.013363794
302 -0.0147583345 0.00019155594 0.045440923 -0.044151347 -0.031518333 -0.03424075 -0.009331437 0.00088762236 0.038743265 -0.014079941 0.0018450897 0.019405976 0.0015332359 -0.050435375 -0.0065158857 0.028514424 0.0004102439 0.014707808 0.011298509 -0.020189112 -0.00868139 0.03175879 -0.0307209 -0.02357685 -0.008929614 0.0005820042 0.017646013 -0.0031896515 0.04865136 0.01028301 0.011211337 -0.0020836422 0.017821785 -0.0008544895 -0.02494887 -0.010247765 0.0033758811 0.02135277 0.0019510435 -0.020049201 -0.046116326 0.039366085 -0.0099963425 -0.038492367 -0.0059524053 -0.0041152136 -0.03965048 0.04958217 -0.0465351 -0.009804939
180 -0.024391623 0.0064233807 0.041368067 -0.02730431 -0.013213644 -0.018368753 -0.0018516512 -0.008653297 0.04440266 0.0028823172 0.012121774 0.009665197 -0.0015763604 -0.030862857 -0.012702807 0.032358717 0.010023676 0.016031167 0.010724458 -0.02831262 -0.016815785 0.021484392 -0.03550657 -0.013131944 -0.0021299787 0.014542432 0.0064745327 0.012743743 0.04421826 -0.0051188543 -0.00021150068 0.0154091725 0.003089183 0.014663159 -0.017416928 -0.013204195 0.019640908 0.017708011 0.0104935225 -0.0105906855 -0.03767379 0.03356585 -0.007827558 -0.044351034 -0.010107198 -0.01867261 -0.039267216 0.04211955 -0.043413695 -0.008999802
217 -0.012916638 0.009386497 0.029800748 -0.040871833 -0.020245563 -0.029053606 -0.005694855 -0.009506489 0.035164684 -0.009649932 0.008736885 0.012297791 0.01412927 -0.034094512 -0.018989228 0.026343403 0.011385375 0.01224473 0.015310989 -0.030527268 -0.016055966 0.028950687 -0.031989314 -0.01696357 -0.013149462 0.01442 0.026264466 0.0016950951 0.0477776 -0.003441479 0.0003688357 0.009339361 0.011865304 0.011426783 -0.01931995 -0.016756687 0.0011519083 0.024268549 0.0017031886 -0.017771795 -0.04986652 0.036326382 -0.013736893 -0.039626453 -0.015655372 -0.018131683 -0.042155795 0.03842463 -0.05796712 -0.004314773
57 -0.020933414 0.0051670326 0.02789504 -0.02186542 -0.017156433 -0.020404479 -0.0019909635 0.0014925711 0.038463812 0.0028357445 0.007378245 0.025157545 -0.0007502725 -0.043414958 -0.0109364195 0.023767596 -0.0011701062 0.015984748 0.022193843 -0.019437024 -0.0070430976 0.015518333 -0.02786583 -0.011860903 -0.006847394 0.0047018384 0.0077247936 0.010840912 0.045031626 0.006585837 0.00595086 0.012834255 0.0016140533 0.0115647605 -0.020119568 -0.018472055 0.013644597 0.027422402 0.012326234 -0.018321615 -0.030632772 0.029516174 -0.0055269343 -0.037857156 -0.003199886 -0.005888263 -0.036559355 0.04172795 -0.04154338 -0.0041711116
83 -0.024904089 0.004310389 0.03654529 -0.027840702 -0.020128198 -0.028783834 -0.011766724 -0.0067210644 0.042602513 0.0039617964 -0.00042113187 0.027386168 0.00596429 -0.047371704 -0.019920971 0.021348212 -0.0046677147 0.0073810355 0.013773794 -0.021179637 -0.016380005 0.025758354 -0.02546621 -0.022174157 -0.011101223 -0.00082632276 0.0138411345 0.0048369253 0.038604587 0.008664387 -0.00053910323 0.017444076 0.0028956968 -0.00054434413 -0.0118413735 -0.0142835155 4.54395e-05 0.01184716 0.011705213 -0.004404569 -0.042919144 0.034405947 -0.0015611572 -0.043587133 0.00016288167 -0.021556694 -0.041378833 0.040417343 -0.043393183 -0.020052057
258 -0.021362215 -0.00684347 0.024719087 -0.038905356 -0.013512019 -0.033471324 -0.013696461 -0.00083226024 0.046868686 -0.0070008216 0.008535775 0.016344486 0.004108019 -0.03829307 -0.013963618 0.026461395 0.0057252785 0.008752736 0.009493276 -0.026276352 -0.0082626175 0.022462502 -0.02290118 -0.013319087 -0.019360688 0.014417338 0.011240306 0.008457886 0.039546568 0.0020502135 0.008296244 0.012296801 0.011675376 -0.00024995513 -0.013200958 -0.012902496 0.006229763 0.018017162 -0.0014047014 -0.012945059 -0.036752928 0.019560019 6.596611e-05 -0.03798925 -0.011400266 -0.021651665 -0.02485836 0.036691636 -0.042890694 -0.003820397
226 -0.024410019 0.0048214137 0.02369996 -0.03463068 -0.017020987 -0.023161147 -0.006100935 -0.015278982 0.033324055 0.000699805 0.009334205 0.026261102 0.0023952648 -0.045102157 -0.020920064 0.023398068 0.009486529 0.017764067 0.019309277 -0.010008748 -0.0067783985 0.023562385 -0.027925262 -0.026293349 -0.015597613 0.00025895226 0.0056969137 -0.008019792 0.037102584 -0.0030397316 0.0042559276 0.015329614 0.012629678 -0.0032917205 -0.017431138 -0.010916954 0.0017221482 0.009501741 -0.008569211 -0.022303212 -0.037622537 0.03091063 -0.014001433 -0.036815908 -0.010361285 -0.020342847 -0.032868445 0.047371868 -0.043125533 -0.0063553066
91 -0.015431698 -0.0006521442 0.035781063 -0.031285226 -0.0364547 -0.03853716 -0.012575901 -0.014592348 0.042428207 0.004250235 0.0077605243 0.020265907 -0.0050844997 -0.04300386 -0.0101039205 0.03821967 0.00032433693 0.02688723 0.028777959 -0.0305682 -0.013148908 0.021001982 -0.026279368 -0.03565532 -0.014029927 0.007985459 0.027378885 0.0018888059 0.03818245 -0.0018745188 0.004602932 0.0023886804 0.009107102 0.017369416 -0.007269849 -0.026078342 0.012611135 0.012786743 0.0048059556 -0.025882417 -0.045969713 0.03717242 -0.010288909 -0.05032522 0.00036646033 -0.016347889 -0.03727533 0.047287468 -0.04026909 -0.0077119386
181 -0.03166449 -0.008504252 0.045498952 -0.040965524 -0.022234803 -0.030816935 -0.011598865 -0.017366033 0.049087185 -0.0040239356 0.008136331 0.013408957 0.016571768 -0.03802381 -0.009694104 0.039217006 0.007938106 0.009505129 0.021319924 -0.03381297 0.0011765824 0.022073213 -0.031488493 -0.026460722 -0.020038707 0.009722226 0.023750849 -0.0069039464 0.047940157 0.0030741063 0.0038259872 0.013859111 0.007511582 0.004450687 -0.008416571 -0.018107992 0.0033253348 0.02051069 2.3825165e-05 -0.021737473 -0.04309067 0.045318544 -0.0070635374 -0.048790745 0.0022954508 -0.02195487 -0.04798532 0.043180563 -0.04378875 -0.0033526511
301 -0.01407505 -0.011913076 0.036742475 -0.03380815 -0.03011683 -0.03706761 -0.021420117 -0.0016745849 0.046586838 -0.0011216429 0.017471112 0.028129544 -0.001775916 -0.03831166 -0.021689076 0.033161577 0.0048364727 0.020916956 0.030448627 -0.0175825 -0.01371774 0.018097416 -0.032654386 -0.014290865 -0.0115843415 -0.007295445 0.008383673 -0.0030980415 0.037439834 -0.010387686 0.003358038 0.005960389 0.0015502167 -0.0056593926 -0.013074791 -0.011386238 0.015352322 0.009157073 -0.0036261822 -0.009525447 -0.054078866 0.024422266 -0.021567361 -0.03401285 -0.01774329 -0.014656371 -0.028172042 0.04048111 -0.047299955 0.0011590901
149 -0.02860939 0.0075584166 0.033533864 -0.036582198 -0.025192168 -0.026838288 -0.014061451 -0.009265268 0.04232383 0.00054147333 -0.005649791 0.026333105 0.014739327 -0.029102841 -0.013658164 0.033325903 0.009404509 0.013300738 0.020654848 -0.023232896 -0.013531668 0.023887794 -0.032041904 -0.029322509 -0.007856044 0.00869537 0.019126285 -0.0035038458 0.044464678 0.0108252205 -0.0030123764 0.0076341396 0.0007394637 0.011440862 -0.014021403 -0.025356647 0.018529342 0.027665563 0.0024163066 -0.018441504 -0.040523667 0.028632427 -0.018624052 -0.04411868 -0.006600461 -0.020298745 -0.045824036 0.04793873 -0.05249555 -0.015642876
238 -0.025954777 -0.0062125865 0.033873476 -0.029247645 -0.02572322 -0.018932719 -0.014489631 -0.0037524044 0.027903413 0.004482199 0.012475578 0.014104871 0.0050423136 -0.023296798 -0.008135603 0.01926473 0.005220747 0.016118748 0.011830636 -0.024619216 -0.017086497 0.019325405 -0.015621609 -0.025767675 -0.006445526 0.0072599165 0.018129608 -0.00269777 0.035235982 0.0032349057 -0.0023581411 0.010233278 0.018092683 -0.0043653366 -0.01653999 -0.011838636 0.01282302 0.02440965 0.007915558 -0.006820112 -0.023969337 0.023736898 -0.015702063 -0.02512261 -0.013093594 -0.0061860173 -0.02267064 0.044109862 -0.042274185 -0.0023695065
231 -0.020754917 -0.007287424 0.029311448 -0.025876382 -0.025654696 -0.020735258 -0.0087072095 -0.0118799545 0.031634808 -0.006766156 0.007676826 0.01715631 0.01537124 -0.04092237 -0.004869351 0.033161316 0.0058500804 0.01198985 0.012786585 -0.020881673 -0.017637502 0.022772353 -0.0128962435 -0.029616008 -0.018782036 -0.0019824647 0.0095481 0.007859364 0.04675231 0.0053835684 0.0008582335 0.014625255 0.0060316036 0.01299933 -0.009474037 -0.022972384 0.017010152 0.011138311 -0.0069574723 -0.009984185 -0.049206834 0.02880025 -0.009234405 -0.039334215 -0.00015209589 -0.009235368 -0.039691165 0.036603834 -0.051920325 -0.0011504559
166 -0.035614718 -0.014214628 0.029734595 -0.028045453 -0.030604573 -0.032652564 -0.018457208 -0.014086046 0.05398659 0.007248535 0.006238245 0.021365494 0.0035520536 -0.036682762 -0.023365427 0.04100568 0.012530342 0.01267401 0.014178746 -0.033190176 -0.0013707321 0.02846535 -0.038608875 -0.03415033 -0.024529979 0.010977018 0.021558195 -0.008984799 0.051507164 0.012901359 0.009595892 0.018643374 0.0025186164 0.018589843 -0.007981765 -0.015445489 0.008318542 0.029915709 0.0056862403 -0.028712135 -0.053620093 0.028774321 -0.009833374 -0.03683381 -0.0017964378 -0.014172188 -0.04304181 0.06032506 -0.048269548 0.000489853
173 -0.019556556 -0.011740777 0.032416612 -0.033140358 -0.02854089 -0.039533287 -0.010846422 -0.018326104 0.05330276 -0.0052216495 0.0032184974 0.026005859 0.013788754 -0.03826212 -0.007904331 0.044962015 -0.0038630515 0.026585001 0.01341102 -0.017780408 -0.004562203 0.03666289 -0.030949237 -0.028563997 -0.009349785 0.014255162 0.026406663 0.0051889936 0.058281273 0.009293936 -0.0034633882 0.0137089435 0.015596319 0.006808127 -0.026834754 -0.010740242 0.022582222 0.019859906 0.0014854704 -0.015046145 -0.03925428 0.039809585 -0.008745677 -0.034814402 -0.014706527 -0.021014083 -0.05198885 0.06127235 -0.047416415 -0.0023256382
123 -0.023168908 0.009171481 0.039204925 -0.022079743 -0.011477839 -0.013490964 -0.016443938 -0.00639306 0.024365878 -0.0047215084 -0.0021416324 0.015406882 0.01343638 -0.024294501 -0.013348531 0.01677488 0.011030438 0.0065580327 0.00756891 -0.009007706 -0.0047935797 0.028693777 -0.02448154 -0.028680813 -0.0071272254 0.009135017 0.009411585 -0.00040128175 0.031094937 -0.002183982 0.007983766 0.008312209 0.006981589 0.008642724 -0.003120483 -0.015070468 -0.00033719954 0.021087881 -0.00013097729 -0.018736003 -0.046613827 0.01758277 -0.0022908046 -0.030639177 -0.009216595 -0.009723818 -0.021236401 0.041062713 -0.043458443 -0.0074782213
266 -0.014196106 0.0029927173 0.034825355 -0.020067127 -0.011631729 -0.030275127 0.0005962821 -0.0076600364 0.044875603 -0.013833048 0.007016536 0.025721038 0.009751222 -0.034486692 -0.01894412 0.038572162 0.0018239486 0.012272086 0.0050951527 -0.024825735 -0.0008013226 0.021063726 -0.027775392 -0.024735356 -0.013118059 -0.003952515 0.01418926 0.0013092343 0.030640831 -0.0014251331 -0.0061723585 0.009738414 0.0034026455 0.013155133 -0.019142978 -0.021763092 0.011795678 0.02405784 -0.003654707 -0.013768958 -0.030123884 0.034412537 -0.011261722 -0.04136002 0.003000974 -0.010782911 -0.03733335 0.04268407 -0.043341562 -0.018643178
95 -0.016209934 -0.0076669566 0.038453553 -0.04211772 -0.031899784 -0.028486421 -0.011043085 0.00026250712 0.034603816 -0.017128142 0.008650006 0.019001894 0.0015930262 -0.037763145 -0.005078408 0.021977792 0.009152411 0.017118687 0.010410467 -0.013705211 -0.017632857 0.019115172 -0.02755165 -0.030836612 -0.00484617 -0.0026213177 0.017762728 0.0072899307 0.037284333 0.0154239405 0.0037497603 -0.0031184512 0.0020745024 0.014232762 -0.013199808 -0.02419035 0.020244759 0.012373605 0.009995299 -0.003276713 -0.040953618 0.021452602 -0.016686091 -0.042233743 -0.009500222 -0.017922804 -0.036134344 0.035166353 -0.043937404 -0.005467765
331 -0.025378523 -0.0021413157 0.04078979 -0.029790366 -0.019691488 -0.023206675 -0.0023606191 -0.0026418357 0.040533572 -0.006126527 0.0042692786 0.008002571 0.006702052 -0.041326102 -0.001996123 0.03312439 -0.005908787 0.015232416 0.012483687 -0.02370035 -0.010026803 0.02419822 -0.031143004 -0.021970177 -0.0035802873 -0.0051948885 0.010451705 0.006370785 0.028546888 -0.0044045523 -0.0050642644 0.0134652285 0.003665671 0.013814881 -0.009309074 -0.012449548 0.011607155 0.016052507 0.007024098 -0.007130415 -0.03246197 0.023286691 -0.009794552 -0.029841272 0.002058453 -0.012436086 -0.023078062 0.048152633 -0.048179902 -0.0046777227
187 -0.026487663 -0.0020079059 0.03943128 -0.042066745 -0.0141550675 -0.026537154 0.0009698237 -0.0037248938 0.03539719 -0.0062735057 0.011494817 0.017160269 0.008805368 -0.039201144 -0.015958542 0.032334574 0.0035497213 0.027393995 0.00943384 -0.02717873 -0.0179408 0.027538294 -0.025227929 -0.031676475 -0.009701629 0.0021244683 0.005531239 0.007724335 0.036368597 0.00039543796 0.0055582216 0.0019759405 0.019338802 0.015445446 -0.010058802 -0.009504989 0.019610692 0.028249111 0.0076839286 -0.01250692 -0.039132107 0.03719752 -0.008709999 -0.040174734 -0.009363516 -0.017832993 -0.04568072 0.045862734 -0.043731157 -0.0015179602
59 -0.014254697 0.0023181876 0.02611808 -0.023566348 -0.028030908 -0.025062665 -0.004950972 -0.009278548 0.038344387 -0.0042052544 0.0015012122 0.022382049 0.0073274015 -0.022654558 -0.0031146267 0.028121328 -0.000167845 0.016282149 0.012125665 -0.026741438 0.00096474955 0.027098566 -0.013629487 -0.017560018 -0.0011929385 0.013294543 0.014468408 -0.0003106746 0.035199992 -0.004558449 -0.0026702906 0.013283373 0.013837276 0.009823496 -0.007160876 -0.003324949 -0.00062347524 0.021626055 -0.0077001397 -0.0034055014 -0.03894005 0.021051468 -0.0052843173 -0.037833013 0.00417596 -0.01873241 -0.036491 0.037829697 -0.045084387 -0.011840911
243 -0.024346597 -0.008504209 0.0410443 -0.025973845 -0.014976343 -0.02740229 -0.0077835494 -0.0033274153 0.040315334 -0.0038741215 0.006899253 0.027390273 0.011097434 -0.037746977 -0.014744481 0.035245102 -0.0061845565 0.013558007 0.022191934 -0.024887193 -0.011548777 0.032630403 -0.01926955 -0.027716393 -0.010526806 -0.0005347182 0.0107175885 -0.0065249447 0.03642084 -0.0014130127 0.011964001 0.012059667 0.0035273677 -0.0047773668 -0.003913081 -0.02172794 0.015237581 0.009633558 0.0077902535 -0.012949151 -0.0511711 0.041114293 -0.0015000923 -0.027638713 -0.0105913635 -0.0089312615 -0.04370271 0.047450714 -0.047243506 -0.00033552034
284 -0.027016731 -0.009168454 0.04159432 -0.0340205 -0.031810835 -0.0325899 -0.01647473 -0.004944557 0.046045054 -0.008048644 -0.0034185206 0.017083768 -0.003944613 -0.04906549 -0.017815426 0.022587659 0.003063349 0.013493045 0.022916704 -0.018740293 -0.00780541 0.01648389 -0.02395966 -0.026497709 -0.013128899 0.009035715 0.021355202 0.004982154 0.041218173 0.0012206044 0.0080182385 0.014593049 0.015427892 0.006543796 -0.015064391 -0.014838724 0.0077987807 0.022147937 0.0002369969 -0.018583944 -0.049962427 0.037547965 -0.0044957423 -0.048362326 -0.009342735 -0.022850072 -0.0272024 0.044260096 -0.04004065 -0.005209237
