333 50
25 0.026875662 -0.00016172987 -0.031357743 -0.00517824 -0.02418102 -0.03756083 -5.4972366e-05 -0.03553446 0.012318642 -0.023980973 0.003094941 -0.013502044 -0.0072318027 0.021587558 0.007058914 -0.007782917 0.04581023 -0.019057438 -0.02274138 0.038584184 -0.042069368 0.024306905 -0.0027106602 -0.014348472 -0.017759698 -0.03847083 0.012907592 0.008786107 -0.00093163736 -0.024026554 -0.039568137 0.013955958 -0.0054879393 -0.0061715227 -0.009985184 -0.034467213 0.0025139716 -0.052217983 0.037071344 0.016803622 0.040912326 0.012736854 0.0012774267 -0.023794133 0.007812754 0.012871348 0.03922903 -0.018395131 0.027661508 0.036233168
322 0.029989928 -0.00798922 -0.019726535 0.0013047828 -0.023337794 -0.025678392 0.0037952526 -0.039679218 0.0067381687 -0.008657627 0.013651112 -0.025233382 -0.00010243937 0.021366222 0.0033379912 -0.0031043005 0.045459025 -0.021199988 -0.016206713 0.0350097 -0.036411405 0.015858509 0.005494076 0.0006515546 -0.02447751 -0.036985308 0.007108982 0.0089801345 0.01192044 -0.013504928 -0.040584132 0.01687735 -0.010227776 -0.0021792261 -0.0042148177 -0.030732349 0.0016729353 -0.05449587 0.035126716 0.026850097 0.037682936 -0.00058501307 0.007386033 -0.022238929 0.0043511237 0.019495612 0.039766815 -0.023986796 0.018131547 0.035000432
119 0.015508294 -0.0005389088 -0.031001227 0.005765335 -0.025376882 -0.031853285 -0.0033500346 -0.03500174 0.006862125 -0.013187909 -0.0011365284 -0.01902037 -0.008810902 0.010501808 0.0038311242 0.0003438119 0.040255796 -0.021803176 -0.013607297 0.026179135 -0.036664322 0.02475 -0.009742912 -0.0029145768 -0.0048080236 -0.033842638 0.00690764 0.007338606 0.00528588 -0.024868915 -0.034200378 0.012805876 -0.0027791432 -0.0012060273 0.00423308 -0.019637698 0.0060438556 -0.047884874 0.02381372 0.012876594 0.041192446 0.002541106 0.0013780019 -0.020159138 0.0073568407 0.019454677 0.020360298 -0.010460737 0.032920633 0.03051539
21 0.011962052 -0.006830367 -0.031011596 0.011445693 -0.009552001 -0.026627533 0.0069289664 -0.035952758 0.0057486705 -0.019821476 0.0046383967 -0.008159957 -0.0022973157 0.02164345 0.007080622 0.00335317 0.043494374 -0.028833045 -0.028851507 0.026059473 -0.025284598 0.014740698 -0.001197613 -0.005133675 -0.012363679 -0.04501824 0.0030239357 -0.007991971 0.014815825 -0.015267931 -0.034299597 0.0022855918 -0.010981286 -0.005547164 0.0016534888 -0.013385748 0.0044081355 -0.053878043 0.036543526 0.02131319 0.033402584 0.0077520236 0.011423047 -0.013847054 0.00028806535 0.021580368 0.025113136 -0.013244084 0.025559084 0.02967487
56 0.019048288 -0.010210546 -0.03267318 -0.0032836418 -0.022528622 -0.038223587 0.006458916 -0.039302617 -0.00048057013 -0.006548193 0.0050718402 -0.024867896 -0.0011533201 0.017726233 -0.004248227 -0.009777595 0.045580313 -0.020396743 -0.023240613 0.038147796 -0.025013344 0.011355151 0.004260098 -0.009100038 -0.0061528487 -0.037801553 0.003222384 0.004683718 0.005857183 -0.024119403 -0.02604438 0.010918528 0.005833157 0.0006309394 -0.0068210275 -0.030639233 0.0095930295 -0.050003644 0.033311836 0.027817572 0.04597093 0.01009613 -0.004246042 -0.016325483 -0.003383673 0.024029013 0.024385825 -0.019568967 0.03255728 0.019229675
277 0.014142258 -0.014044264 -0.022561274 0.00070743327 -0.008826028 -0.016702343 0.0109341135 -0.03684317 0.0032472278 -0.025013998 0.0072983033 -0.01925016 -0.011949421 0.011087871 0.0046447483 -0.004567863 0.03879584 -0.029295115 -0.031326476 0.029992424 -0.031337474 0.023832168 0.0010936048 0.0029843503 -0.019437624 -0.04446587 0.009259285 0.00019241543 0.016893808 -0.010167278 -0.035834085 0.005743802 -0.009983261 -0.007718143 -0.0023188288 -0.03328374 0.007308034 -0.044959527 0.03109466 0.015078456 0.03705906 0.01792272 0.0114692375 -0.025861306 0.0075574433 0.004884007 0.029910032 -0.01578051 0.0164417 0.020860622
67 0.010976156 -0.015441907 -0.018878726 -0.0023731794 -0.01083356 -0.030861076 0.0131348595 -0.032304842 0.0045844936 -0.00862752 -0.0032780175 -0.010639158 -0.0006110191 0.010787101 0.012587225 -0.00028630582 0.031136896 -0.020942163 -0.029327065 0.033156544 -0.039235048 0.020199962 0.003700856 -0.012661834 -0.0063122413 -0.025138069 0.010526819 0.0027936103 -0.0008985829 -0.009056042 -0.024815131 0.008480383 0.0065779197 -0.013678437 -0.0035349827 -0.02867134 -0.0019522067 -0.052574474 0.031689215 0.016005183 0.033686064 0.014974854 0.002085232 -0.021278977 0.010942746 0.018200127 0.02104571 -0.015637951 0.031674445 0.031376656
23 0.020937657 -0.011613772 -0.025747232 -0.0039156224 -0.02650479 -0.025488159 0.0018934584 -0.035371367 0.012579896 -0.018448155 0.0023346168 -0.031787783 -0.0036028791 0.014552602 0.0051332465 -0.008643544 0.051060434 -0.021010442 -0.02201185 0.041870464 -0.047243666 0.018343227 0.0034008806 -0.014416908 -0.0262545 -0.042606734 -0.00028469687 0.0025559487 0.0013124287 -0.012498711 -0.03979657 0.01318397 0.0007612773 -0.0024321598 -0.011475792 -0.026979707 0.014244492 -0.047663752 0.025481986 0.026996644 0.05072354 0.016279625 0.002581933 -0.01187327 0.004565968 0.022789868 0.039341696 -0.019475134 0.03671381 0.02447981
26 0.015028544 -0.00620804 -0.028868515 -0.00572245 -0.004674987 -0.030810388 -0.002665948 -0.032277863 -0.007686516 -0.0056777466 -0.0003513022 -0.017657196 -0.0022075346 0.013355744 0.008187163 -0.010009911 0.041500483 -0.015780317 -0.010633161 0.020340215 -0.032642428 0.005486833 0.011260521 -0.0030359882 -0.004568506 -0.027065191 0.009598619 -0.00022378098 0.010622098 -0.0116897775 -0.020245306 0.014500754 -0.009782448 -0.008006586 -0.013778822 -0.023047553 0.014178809 -0.04147084 0.021532807 0.023551257 0.044524875 -0.0006899898 0.010220075 -0.012730968 -0.004014486 0.010914064 0.030055763 -0.0026419132 0.013185086 0.027223857
271 0.011012553 -0.0047632176 -0.0177835 0.0023497234 -0.021131828 -0.014374651 -0.004569624 -0.03783549 -0.004433316 -0.010897221 0.0042661084 -0.025163632 -0.006790127 0.01094313 0.0043668277 -0.011505351 0.029917147 -0.016958563 -0.012084753 0.03467158 -0.02482785 0.024049645 -0.0016069993 -0.012810113 -0.018496722 -0.024388658 -0.004925691 0.004668382 -0.0011252485 -0.01500119 -0.029280458 0.0064038066 -0.0024352486 -0.0040419167 -0.0015593328 -0.017037747 -0.003989432 -0.04882594 0.034971766 0.020049665 0.032591607 0.0055189747 -0.00040150806 -0.025066797 -0.0061784745 0.015544139 0.033368222 -0.01678304 0.022080421 0.03105053
98 0.013594464 -0.0132709285 -0.016786924 0.0070315395 -0.016425557 -0.019216556 -0.0052591865 -0.026107235 -0.0033149444 -0.006269327 0.0012234579 -0.014822223 0.004548138 0.010951866 0.0042286464 -0.012198484 0.028778294 -0.012642508 -0.022770854 0.03056258 -0.019940639 0.019552385 0.0011598704 -0.001419353 -0.022005683 -0.03911091 0.0027724835 0.012275408 0.007303883 -0.011894171 -0.028552135 0.00025401596 -0.009442622 0.00065518386 -0.012994557 -0.020099955 0.0018909249 -0.037285827 0.024206707 0.019584758 0.027831346 0.014073799 0.008045758 -0.013266602 0.0059842956 0.015758526 0.025302857 -0.007083685 0.023438435 0.01461323
41 0.02284636 -0.0016653577 -0.02462232 -0.0022060187 -0.018495498 -0.01623312 0.00869619 -0.034465972 -0.0005651647 -0.0048390375 -0.0022729377 -0.02187991 -0.01053527 0.0031861986 -0.0021288912 0.003807203 0.032714926 -0.02966889 -0.02639073 0.02822788 -0.034085076 0.0043998086 0.008320339 -0.0012781991 -0.012104437 -0.039956927 0.0070113507 -0.008300196 0.005723503 -0.007957067 -0.032614116 0.010608478 -0.011008585 -0.007359096 0.0013168325 -0.019497428 0.005092202 -0.048008375 0.017998222 0.021386493 0.03936566 0.016752634 0.007959817 -0.017566564 0.009449589 0.016637249 0.03028853 -0.009349937 0.013988675 0.016591832
188 0.01784067 -0.015498184 -0.029116465 -0.0077324794 -0.018027049 -0.013703947 0.0042051985 -0.02356514 0.0024343706 -0.016781982 0.008074411 -0.018855363 0.0042901766 0.00267744 -0.0014151845 -0.0021256148 0.03687608 -0.012925417 -0.025781905 0.033473868 -0.025949957 0.0049331915 0.00942009 -0.0061307093 -0.0060431394 -0.036220986 0.007766022 0.0012030769 0.011982316 -0.01794749 -0.02199822 0.004008083 -0.005901283 -0.006986707 -0.008901619 -0.025755715 0.006091672 -0.031620886 0.028832765 0.02151394 0.036955886 0.010214935 -0.006156972 -0.019108728 0.0049512503 0.004662456 0.020153254 -0.009162595 0.015826426 0.028276525
272 0.027185218 -0.002029461 -0.02700255 0.0020860157 -0.019126419 -0.024218732 -0.006072686 -0.041653544 0.010345576 -0.0041724863 0.0017457602 -0.0059441165 0.0022208914 0.019722603 0.0047076866 0.006412032 0.03696248 -0.023442548 -0.018924778 0.031058965 -0.03076587 0.011200092 0.001554408 -0.01070677 -0.014410778 -0.032596644 0.006574435 -0.006851565 0.006431285 -0.018762697 -0.02414851 0.0039526224 -0.0048053884 -0.014239668 -0.0024853994 -0.021808831 0.011888156 -0.03537395 0.03420901 0.015325479 0.044603404 0.014481658 -0.00074918586 -0.02500386 -0.0054831817 0.018920667 0.020084422 -0.009763921 0.03018936 0.031686354
239 0.022126636 -0.014304119 -0.030371223 0.005936508 -0.019140422 -0.01515353 0.002071131 -0.031932164 -0.0023205264 -0.007875227 0.0015968494 -0.0127524445 0.0018152377 0.017960638 0.0058651823 0.0037768914 0.036671143 -0.016040921 -0.014091247 0.018664971 -0.0286038 0.013554628 -0.002693625 -0.006423713 -0.005766419 -0.03845958 0.013637407 0.00033935832 0.0047692186 -0.013890813 -0.020434069 0.0032725772 -0.008096403 -0.0008053741 -0.013508669 -0.008943966 0.0026821957 -0.04138238 0.030364193 0.010718423 0.033804707 0.014827679 0.0042240922 -0.014237045 -0.00542613 0.020854864 0.030883737 -0.009017357 0.018578546 0.013457952
252 0.021414712 -0.01309829 -0.026604969 -0.0028181088 -0.021266425 -0.029452758 -0.0044134245 -0.03617635 0.0036388766 -0.004415308 0.008749321 -0.012356064 0.0008135488 0.0081779715 0.0041927295 -0.008559755 0.032920703 -0.021246094 -0.027239073 0.031793382 -0.021295043 0.016088102 0.0057286276 -0.0060519353 -0.011141492 -0.03989271 0.0026124099 0.0035897011 0.012535638 -0.017906504 -0.019312095 0.014223647 -0.003282898 -0.004651361 -0.009944555 -0.028648902 -0.00057878974 -0.048175983 0.029641915 0.022076366 0.039500535 0.018800784 0.008402406 -0.015328664 0.0043714102 0.020810926 0.031177374 -0.02008065 0.0199295 0.014327098
122 0.010975736 -0.008846614 -0.02105804 0.0048087058 -0.011880325 -0.017477484 0.0043784296 -0.028494764 0.008248606 -0.01066272 -0.0047396906 -0.022386145 0.0015123291 0.0137641225 0.010768313 -0.008315717 0.030799102 -0.024152558 -0.023964657 0.018247452 -0.030655898 0.0038550324 -0.003678281 -0.013211495 -0.021724535 -0.023843309 0.0018693368 0.008103264 -0.00040920704 -0.012297228 -0.017256895 0.013668946 0.00073287386 -0.008439975 -0.011240641 -0.023435047 0.0064693503 -0.03883805 0.029185474 0.022563215 0.03877402 0.010231431 -0.000262408 -0.0074659274 0.010210447 0.01123091 0.016344938 -0.0038711063 0.023798456 0.024725538
175 0.023471653 0.0015007982 -0.026917996 -0.009915351 -0.0062698433 -0.028140932 0.014296593 -0.02343724 0.00604915 -0.02149284 -0.0076158834 -0.017886769 0.0055204285 0.009415065 0.0047584604 -0.009670159 0.04113381 -0.02809069 -0.021566447 0.018966028 -0.036691252 0.01751039 -0.0053748656 -0.017131923 -0.0111307725 -0.040231902 0.0049059917 0.011439841 0.0031010644 -0.02069976 -0.032410823 0.009851317 -0.013505758 0.006116033 -0.011132459 -0.026629832 0.002044185 -0.0417948 0.029286847 0.025230223 0.046503354 -0.0017498997 0.0015341401 -0.01747096 0.0075907004 0.014920241 0.027707048 -0.022225738 0.013463406 0.033958733
170 0.00630559 -0.013838812 -0.022685008 0.007310488 -0.007832122 -0.0113086635 0.011355048 -0.030101568 0.0063865352 -0.017840315 -0.0071263756 -0.016803192 -0.00017707935 0.014814018 0.0059013437 0.004031096 0.030621968 -0.029328937 -0.009931917 0.02784425 -0.022962343 0.01982337 0.0023930552 -0.0035764736 -0.0077439407 -0.03305784 -0.0035129886 0.0043676 0.004228563 -0.0052557425 -0.017104754 0.007780136 0.0037798365 -0.00941827 -0.012430101 -0.024230784 0.006749619 -0.037340276 0.029006809 0.011774967 0.034331992 0.008230867 0.0072466363 -0.011656865 0.0066974075 0.015310319 0.021537215 -0.015491549 0.01131669 0.026631653
200 0.021964254 -0.0016738725 -0.010605655 -0.005500061 -0.014348268 -0.029971456 -0.0046608835 -0.029839523 -0.0049999156 -0.0048870984 0.0047256267 -0.015665883 -0.010220092 0.0013794268 -2.3301549e-05 -0.004390525 0.027537707 -0.01874277 -0.020269284 0.029244084 -0.030262131 0.006062664 0.0063635367 -0.0073383017 -0.008539755 -0.034310773 -0.00033219415 0.008042452 -0.003117287 -0.020105887 -0.024516026 -0.0008166682 0.0070277965 -0.0067244866 -0.008469242 -0.008882829 -0.0016695303 -0.046781916 0.016335273 0.006681638 0.036047146 0.007422617 0.0003254713 -0.013084918 0.012383604 0.0048940945 0.012456772 -0.0023482777 0.009754455 0.022950588
227 0.026188122 -0.009084787 -0.018312601 0.0015890131 -0.02073841 -0.0307318 0.009485441 -0.025469521 -0.0007814772 -0.022930618 -0.0068947803 -0.026547879 0.00081866514 0.020310627 0.011432053 -0.0018408955 0.027119724 -0.015564837 -0.012542824 0.027962508 -0.01943638 0.020969398 -0.008606797 0.0010136819 -0.003276841 -0.030876964 0.014583065 0.011365957 0.013237571 -0.02163977 -0.02019978 0.011598891 -0.013467138 0.002226291 -0.014301989 -0.023285583 0.0112800775 -0.04380663 0.032022547 0.02494415 0.043437302 -0.004434144 -0.009040466 -0.01239404 0.004769821 0.00667692 0.03549079 -0.009676661 0.030243222 0.033421528
115 0.028052293 -0.004658492 -0.010941086 0.008853935 -0.02050265 -0.024597323 0.0026965567 -0.024482774 0.01128965 -0.0032329482 0.011576483 -0.021317359 0.0010886665 0.019113155 -0.001314155 0.0079783965 0.023374856 -0.024223922 -0.021243911 0.032069534 -0.021924097 0.014110807 0.009849498 0.0016102792 -0.012117073 -0.022400355 -4.0895888e-05 0.009867698 0.0032965497 -0.01730101 -0.017076293 0.013954988 -0.0044792034 -0.00080638897 0.004807973 -0.01989021 -0.004719914 -0.033377025 0.028140726 0.019564576 0.031106373 0.0072864452 -0.008660227 -0.018515613 -9.808924e-05 0.016515786 0.025842827 -0.01001882 0.027648404 0.014162089
315 0.028374825 -0.014958393 -0.027933383 0.0053337174 -0.017940966 -0.021362716 0.007743039 -0.037461057 0.0076906467 -0.015471038 -0.0025893995 -0.009644246 -0.00019953145 0.015461896 0.006079614 0.0069647143 0.04159508 -0.026990429 -0.027539887 0.039006002 -0.03267137 0.007404099 0.009081006 -0.013705483 -0.019340232 -0.035516348 0.0118041 -0.0027663407 -0.00053610496 -0.011699409 -0.030971332 0.019680016 0.0077674203 0.0044167484 0.0008769808 -0.021065626 0.014195376 -0.05066866 0.021666916 0.018709837 0.041410483 0.0018881143 -0.00409631 -0.017885214 -0.0054059178 0.022556407 0.033999875 -0.019206354 0.017808579 0.026560334
19 0.00956727 -0.003883637 -0.023746276 -0.0038672152 -0.01011539 -0.02237349 0.0142987585 -0.033192184 0.012817847 -0.01969748 -0.0024891067 -0.007242775 0.004504125 0.01762434 -0.0048370557 0.0027354946 0.034012843 -0.010472377 -0.0131076025 0.031548165 -0.033864517 0.010182509 0.0038642779 -0.0112678325 -0.01756248 -0.03251885 0.0072599556 0.0011896022 0.006854544 -0.022526763 -0.0196408 0.018005522 0.006598433 0.00634362 0.00031898924 -0.0072600776 -0.003569234 -0.045447033 0.026683917 0.023443956 0.038360268 0.014718109 -0.0037764076 -0.011513456 -0.0059167435 0.005351292 0.019214336 -0.009188191 0.02757895 0.021018708
329 0.012189624 -0.013010045 -0.019769398 -0.0017319667 -0.014557446 -0.015157947 0.0068355324 -0.03880063 -0.0070017413 -0.012571294 0.007943821 -0.015219337 -0.00055256573 0.010152907 0.0013215445 0.0013710681 0.02817313 -0.014867952 -0.016562063 0.034804653 -0.02945248 0.0058139595 -0.007897746 -0.00031278867 -0.0032850043 -0.036429014 0.009860566 0.0030876426 -0.00042866016 -0.009144505 -0.015995769 0.0054118815 0.0010594737 -0.0008105535 -0.004879737 -0.025397995 -0.00011025384 -0.03792183 0.024654107 0.020977737 0.04360081 0.011137599 0.008708052 -0.01470111 0.0047550104 0.020042514 0.029530825 -0.016875463 0.018223757 0.01446678
312 0.012107237 -0.004869636 -0.0316782 -0.0025101313 -0.025566915 -0.017062405 0.00023750457 -0.024003252 -0.0008686444 -0.0049996385 0.002531519 -0.0067657456 -0.0037623951 0.0017236517 -0.005071219 0.0064467965 0.0411611 -0.02577673 -0.018293913 0.033342812 -0.027322214 0.017864954 0.006641344 -0.014353163 -0.005855964 -0.023294428 0.009777103 -0.006111393 0.017030332 -0.0032994593 -0.029759489 0.0026633628 -0.004079084 0.0036337948 0.0046560424 -0.019474857 -0.0010407759 -0.044561498 0.027251061 0.016412692 0.04374893 0.01354388 -0.007852851 -0.02055547 0.0038663037 0.021185111 0.03330806 -0.01363418 0.015048219 0.029796783
143 0.030981977 -0.013454442 -0.012176504 0.0077452627 -0.017769169 -0.024322089 0.0010187012 -0.030623347 0.0062360326 -0.024443472 -0.0017053717 -0.008632862 -0.011076355 0.02129533 -0.00012247448 -0.013541827 0.04032813 -0.029936478 -0.015124999 0.020979758 -0.028970385 0.021003723 -0.0077167414 0.0029158215 -0.0013188967 -0.03980405 0.0027474253 0.012619123 0.01068757 -0.022299904 -0.03250165 0.0055192667 -0.0092638675 0.0034119159 -0.0076124966 -0.010510095 0.009905188 -0.04345547 0.031522688 0.019380165 0.026650386 -0.0014353099 0.0077858698 -0.0059471265 0.013025346 0.012652132 0.023484685 -0.0018735914 0.012389067 0.034151126
203 0.0068082204 0.00073086756 -0.028043507 0.007681304 -0.019105133 -0.012318706 0.00399399 -0.029915936 0.0058750208 -0.015866525 0.004640388 -0.018562583 -0.007185453 0.015676627 -0.0059018526 -0.0086806035 0.03242342 -0.014168867 -0.017162215 0.0165937 -0.024566617 0.021961436 0.00865091 -0.015027786 -0.017927317 -0.03954349 0.006281722 0.011708571 0.011092278 -0.016151432 -0.019360058 0.012976726 0.0017567478 -0.010490157 0.00518853 -0.016630659 0.010727609 -0.04644763 0.03428112 0.02027966 0.032538444 0.011540948 0.010819229 -0.009473522 -0.0018718906 0.00895851 0.031793516 -0.013050675 0.024031918 0.018429734
169 0.019967584 -0.0069892835 -0.009505731 0.0005406351 -0.014115839 -0.027073562 0.0047523635 -0.026114732 0.009446802 -0.006459805 0.0036404964 -0.01830494 -0.008822605 0.010315392 -0.004505918 -0.0030530866 0.027149787 -0.013576856 -0.017740067 0.023459485 -0.025933143 0.008986186 -0.0023413391 -0.011501769 -0.0070289895 -0.03203385 0.012445475 0.0028807498 0.0017741281 -0.011230787 -0.010224167 0.006598418 -0.006965653 0.006763759 -0.0025886637 -0.024621272 0.0019992779 -0.035892647 0.032009076 0.0069397925 0.029707143 0.003194512 0.0077598207 -0.0063414467 0.0038404597 0.0012578344 0.016390154 -0.000117640724 0.010855603 0.009512065
9 0.019881234 -0.016813697 -0.016982298 0.009824061 -0.023071438 -0.023559729 -0.0019885104 -0.03580267 0.0047809444 -0.02064949 -0.006983573 -0.007812175 0.0036067104 0.013818285 0.0025191826 0.0053409785 0.023997322 -0.023992086 -0.009859396 0.018016355 -0.034569133 0.021950549 0.00086034153 -0.0027728218 -0.0066835075 -0.022210494 0.012064115 0.0027194682 0.012442199 -0.019321313 -0.020152524 0.0068656583 -0.009451276 -0.0011951728 -0.012075218 -0.012311119 0.0071132006 -0.04141704 0.02861818 0.024565276 0.02904619 0.011881926 0.0042407196 -0.015741803 0.00032708622 0.005921359 0.030212874 -0.005281077 0.015754007 0.01634259
113 0.019556303 -0.006466772 -0.02030186 0.0081666475 -0.0058275764 -0.022357417 0.007860804 -0.024722172 0.0077250996 -0.02073833 0.009071917 -0.018095896 -0.0010546645 0.0023307486 0.011761638 -0.00074884965 0.026286658 -0.026500288 -0.010914358 0.02482136 -0.029773993 0.02438612 0.00051857403 0.0028679827 -0.0099383015 -0.042385735 -0.005589335 0.010020006 0.016520837 -0.018459808 -0.027646516 0.0010171813 0.0011145629 -0.004897761 0.0010762864 -0.023203008 0.004148953 -0.042473882 0.028523952 0.011395156 0.040237986 0.010526818 -0.008016775 -0.0088843 0.0030091624 0.016762784 0.022958439 -0.012544045 0.0150377955 0.02064521
339 0.01855785 -0.007239197 -0.034135763 0.009897416 -0.013731842 -0.02993575 0.0015931254 -0.029087635 0.0067299725 -0.02149868 0.0045924303 -0.01708922 -0.0017034219 0.003952781 0.008855933 -0.009891667 0.03522464 -0.02802237 -0.015969772 0.03791024 -0.023118049 0.007293775 0.005135816 0.0007567289 -0.0065902523 -0.033535294 0.0070374664 0.0029564872 0.013293261 -0.015489083 -0.03637578 0.016027596 -0.0017921276 -0.008609316 -0.011517229 -0.027666729 0.007727089 -0.04519652 0.037372377 0.025502747 0.040779848 0.012948615 -0.00020759716 -0.019578164 -0.004788147 0.011512959 0.019512389 -0.0059172916 0.027642243 0.028699191
186 0.017258432 -0.013540538 -0.01581538 0.0038701266 -0.009243392 -0.011406649 0.008216913 -0.034530375 -0.0014210469 -0.01084668 -0.006965066 -0.0044781375 -0.011207133 0.00830946 0.008642478 0.005698116 0.0317266 -0.017461592 -0.0063272426 0.031264726 -0.016885081 0.0057437173 -0.00020934126 -0.012040508 -0.020426594 -0.017774666 0.009584354 0.007115623 -0.0043483316 -0.016194876 -0.019649815 0.0013880733 -0.010897521 0.0048391544 0.0060362164 -0.024783183 0.0010678594 -0.025037756 0.028166063 0.011760764 0.025407631 0.009094912 0.009809845 -0.004197207 0.0029880595 0.0021286302 0.0137459515 -0.0049100947 0.026985692 0.0126494765
304 0.009341269 -0.012061458 -0.016177423 0.008594001 -0.01732011 -0.025244951 -0.0052142506 -0.017885346 0.0046399646 -0.017661126 0.009303246 -0.010067401 -0.0013362971 0.010930156 -0.00041879615 -0.00672936 0.01747838 -0.0123313 -0.020513648 0.024767563 -0.015454983 0.006244956 -0.0034415433 0.0027886902 -0.0085710175 -0.028374767 0.0017990697 0.006277614 0.0063920235 -0.015713798 -0.013953332 -0.001441227 0.0015692585 -0.010768946 -0.008148327 -0.018678498 0.008079809 -0.03843081 0.025126984 0.020234963 0.0333834 0.008042048 0.0059098527 -0.019188706 0.01096382 0.015252141 0.026470188 -0.0151261985 0.016320962 0.023648132
109 0.021025136 -0.008188428 -0.024267873 0.0062701856 -0.021418408 -0.03311051 -0.0043346994 -0.031675793 0.00015753317 -0.017393779 -0.006972256 -0.02297806 -0.011089121 0.0033767428 -0.0046426784 -0.0011257015 0.030554967 -0.017150568 -0.021612097 0.018673973 -0.02668533 0.008601495 -0.008170607 -0.0012841381 -0.011728315 -0.034172542 0.0020647633 0.0026292843 0.009961489 -0.01679441 -0.026103025 0.012299162 0.0053287125 -0.011823501 -0.0018689643 -0.026771098 0.008977511 -0.051688537 0.023519436 0.026444763 0.045091916 0.015786491 0.008819828 -0.020746866 0.0066322726 0.02034407 0.03439819 -0.020863948 0.013736571 0.02633839
13 0.021190437 -0.005255365 -0.017631613 -0.001434454 -0.018271908 -0.023077378 0.012784277 -0.029009854 0.0055480865 -0.021075318 0.012220199 -0.00562694 0.00042473894 0.020761233 -0.0058256458 -0.0043441807 0.034678422 -0.030568289 -0.021088688 0.024723658 -0.03384495 0.018883808 0.0032312458 -0.00260129 -0.01929894 -0.034085874 0.013152217 0.0070913373 0.011538451 -0.022909136 -0.030639047 0.0152491955 -0.0064229574 -0.010755929 0.000638594 -0.027602112 0.014541719 -0.033574607 0.019070508 0.023603762 0.03627007 0.016766265 0.0023247309 -0.026476594 -0.0060898326 0.020104347 0.025429899 -0.021755574 0.032524463 0.03191855
324 0.011646349 -0.014319017 -0.033965338 0.01070754 -0.014944242 -0.02903096 -0.0035800873 -0.030355625 0.0026324932 -0.018744301 -0.0052962196 -0.010037747 -0.0113299675 0.0022656287 0.00045548097 -0.0075057764 0.026812753 -0.024892991 -0.029922951 0.027633987 -0.04042625 0.02439145 -0.0022041842 -0.0056261676 -0.0077884127 -0.04742014 0.0044513373 -0.005499838 0.014059543 -0.014543242 -0.022767166 -0.00011766369 -0.0032755458 -0.0075941286 -0.014009008 -0.027170846 0.007412271 -0.054268993 0.03707625 0.020798821 0.037062038 0.0038751757 -0.0065964935 -0.01881719 -0.0011354202 0.009019279 0.03001152 -0.007991673 0.027246086 0.02921094
323 0.008566296 -0.0063115857 -0.020347906 -0.0060596284 -0.023829903 -0.021584807 -0.0036823552 -0.029738503 0.00408956 -0.01811016 -0.00093066454 -0.007911875 -0.0008441567 0.012268015 0.0005021684 0.004884743 0.027492145 -0.01815889 -0.01842877 0.031809766 -0.023220379 0.0042416607 0.00088559755 -0.0020970209 -0.01752975 -0.022236349 -0.0035052816 -0.0010765581 0.0030350639 -0.016831813 -0.028764632 0.007011244 -0.0004654785 0.0026501776 -0.011222871 -0.011387649 -0.001050917 -0.036299273 0.025240026 0.012148898 0.038518604 0.01149533 0.00034677284 -0.019944217 0.0058542546 0.017667213 0.03480604 -0.0022608968 0.025518361 0.023318859
31 0.013264837 -0.017448101 -0.0320865 0.0039399825 -0.020833476 -0.019246416 0.013533239 -0.025401289 -0.0039324146 -0.006609571 0.011044568 -0.015412288 -0.002646229 0.004859766 0.0047366326 -0.0011635321 0.0380916 -0.024043195 -0.022264048 0.025909858 -0.035431128 0.021703353 0.007482829 0.00014789958 -0.009590494 -0.031291835 -0.0034758248 -0.004939889 0.013727784 -0.019782072 -0.037273332 0.0023000464 -0.011329639 -0.0019074405 -0.012776238 -0.022022644 0.0143078435 -0.051285468 0.03713243 0.021212365 0.04063073 0.016068846 -0.002412581 -0.014579545 0.0014613132 0.020101408 0.027206272 -0.0035522068 0.027008537 0.028520558
285 0.016503323 -0.01704649 -0.025481436 -0.0036102782 -0.022916984 -0.017100403 -0.0014117059 -0.041551504 -0.0038620196 -0.0050370465 0.011146281 -0.02620739 0.00038393453 0.013395392 -0.0051256884 0.0007512658 0.034313023 -0.029126497 -0.02127377 0.023310944 -0.028803198 0.010143726 -0.0056783212 -0.014643443 -0.016674375 -0.04457523 0.009944732 -0.0017427143 0.009251181 -0.015769567 -0.031214831 0.007598801 -0.0016058396 0.00034132967 0.0011610874 -0.017829508 0.007813182 -0.03489168 0.02443715 0.016434781 0.03804756 0.0005995411 0.004408417 -0.017134989 -0.006739045 0.0105511295 0.03313733 -0.01974176 0.027613008 0.019418176
142 0.022523241 -0.0001806869 -0.028126575 0.010579491 -0.018896291 -0.023319613 -0.002386261 -0.03420616 0.009422991 -0.014611879 0.000479371 -0.017360749 0.005781246 0.005503595 0.011910253 -0.009237605 0.039226256 -0.022468451 -0.023857633 0.02675887 -0.02889575 0.022498792 -0.0026958752 0.0014709266 -0.01589964 -0.027163502 0.0109274015 -0.002013085 0.0047315564 -0.011971956 -0.031001015 0.008407205 -0.0049849064 -0.003174391 0.0030283728 -0.026115134 0.01459705 -0.039891362 0.021681545 0.020572565 0.034531966 0.0065373075 -0.0031762982 -0.019095851 0.005538602 0.020030271 0.018902423 -0.0054693213 0.02905799 0.026348626
213 0.009285942 -0.006497816 -0.01639301 -0.0013834806 -0.0042363834 -0.025047097 7.383434e-05 -0.027410472 0.0046717543 -0.0142611405 -0.0013355698 -0.007940296 -0.0008455131 0.005764605 0.006636991 -0.0004996111 0.040325537 -0.01980312 -0.013061461 0.022887144 -0.027129652 0.006451907 0.00086301524 -0.009376868 -0.018380713 -0.031356066 0.00604796 -0.0042333226 0.0012379411 -0.0064399634 -0.018936684 0.008212328 -0.008313449 -0.0063453964 0.005015479 -0.023729786 0.0059665143 -0.036062814 0.02686435 0.02155963 0.023575252 -0.0009304888 -0.0020641633 -0.018114882 0.006923593 0.016904093 0.030977776 -0.011304569 0.01360545 0.0120793525
82 0.010044098 -0.0012307252 -0.016131084 -0.0025379194 -0.012404692 -0.014461959 0.006452368 -0.032711152 -0.0063399873 -0.015604589 0.0070108273 -0.0103989765 8.226579e-05 0.0011129415 0.0113331815 -0.0019638964 0.034333114 -0.010604284 -0.019916184 0.026642207 -0.024096092 0.016839124 -0.0014370645 -0.0070965295 -0.011146646 -0.03145125 0.0009162904 -0.001295725 0.003656122 -0.009505211 -0.027086036 0.0087897405 0.0042539723 -0.008072419 -0.0015438411 -0.014190632 0.0038005207 -0.037353225 0.034089386 0.020523623 0.040946044 0.011302808 0.0016788219 -0.012094759 0.007718848 0.017816924 0.028668255 -0.011119594 0.0144457575 0.027232803
177 0.02597092 -0.015334397 -0.010539546 -0.007960146 -0.015922692 -0.01889466 0.010582436 -0.021356069 0.0025353571 -0.023861231 0.006776082 -0.01929415 -0.0120490845 0.013832901 0.01373218 0.002202182 0.03616972 -0.017980395 -0.019120816 0.030531611 -0.023337629 0.007682896 -0.0019021435 0.0013898453 -0.0006575117 -0.029617717 -0.0020177502 0.002724835 -0.0032163942 -0.010192402 -0.028952278 0.004261252 -0.003584728 0.004472099 -0.0033897026 -0.027774971 -0.00049897877 -0.04480274 0.016868098 0.0060055135 0.027340086 0.0014104814 -0.0026259595 -0.016350716 0.0059118127 0.0074406513 0.032780584 -0.011664462 0.018370343 0.02765861
8 0.006642025 -0.0015547072 -0.020547505 0.0026207778 -0.017966578 -0.024267817 -0.0032946772 -0.03917863 -0.0036973916 -0.025711332 0.0075910604 -0.02737021 -0.010927238 0.0028821828 0.004181036 0.004302087 0.030207261 -0.02907933 -0.009318873 0.035855263 -0.03562526 0.005935246 0.009117529 0.0051917857 -0.00437141 -0.03397934 0.00876323 -0.00020423695 0.0006136471 -0.010551314 -0.035907205 0.0054947655 -0.008642169 0.00154042 -0.007008837 -0.03310345 -0.0018902771 -0.04589295 0.027186057 0.010994187 0.04139521 -0.0014739924 0.00058645266 -0.022632608 -0.0071551036 0.0045609027 0.027134271 -0.013846554 0.032319684 0.031272627
40 0.013147737 -0.0063333926 -0.015019883 0.005538958 -0.019444503 -0.022152573 0.0040003834 -0.027051605 0.00051381317 -0.011268517 0.010355261 -0.011230965 -0.0035098433 0.0018248371 0.007935718 0.0045427005 0.034907743 -0.02359372 -0.0216118 0.028177796 -0.034515362 0.020208757 0.0054871235 -0.01115762 -0.004259927 -0.022554526 0.0025884847 0.0029206155 0.00019561184 -0.015690865 -0.023345817 0.0065754326 -0.0019768924 -0.0021989841 -0.0073812846 -0.012623797 0.012733593 -0.048384428 0.023231437 0.012374493 0.028594052 0.0047054924 -0.0014269481 -0.019010672 0.009379139 0.01597603 0.031206498 -0.006645701 0.011749846 0.027499251
88 0.016573796 -0.0024910623 -0.023777941 -0.008162084 -0.0028613883 -0.02913606 0.0073527507 -0.040380035 0.0032565403 -0.008266852 -0.0038530033 -0.009012954 -0.005197091 0.01250838 0.00015642143 -0.0008153695 0.031340025 -0.018626017 -0.027764812 0.03496535 -0.029862145 0.009267007 -0.0055140676 -0.0006674755 -0.011369715 -0.03268875 0.00010506102 0.01210231 0.0053515243 -0.017360657 -0.025120016 0.009297332 -0.0046550645 -0.000501434 -5.9369817e-05 -0.018288344 0.008630618 -0.043004107 0.027210467 0.008999082 0.027216228 -0.0009844889 -0.007433893 -0.01115025 -0.0010255437 0.020362409 0.021262774 -0.008763123 0.026908902 0.021644548
249 0.027215764 -0.015021976 -0.026222052 -0.008098343 -0.0027710593 -0.02151477 -0.0027756593 -0.036491636 0.005423741 -0.0036598877 0.004691583 -0.008693943 -0.00013520598 0.011521002 0.0025476129 0.0056792195 0.030058874 -0.03336057 -0.023911258 0.03668461 -0.03552398 0.018686924 -0.0091154035 0.0036982482 -0.020847617 -0.036574624 0.014474933 -0.0072671683 0.0013153338 -0.020977382 -0.02697848 0.016543904 -0.01222266 -0.0048374142 -0.007170142 -0.027607262 0.0036353492 -0.04973109 0.02511451 0.02694736 0.032262217 0.006332792 0.0009907155 -0.025443064 -0.0009523897 0.0054839733 0.016320597 -0.0060599362 0.031882226 0.028164655
53 0.018015258 -0.010690986 -0.025793944 0.001237012 -0.017932313 -0.028008621 -0.0016305944 -0.029819272 -0.0061799143 -0.005039723 0.007556263 -0.02369797 0.0075990483 0.012529913 0.010948526 0.0010932835 0.029240351 -0.024448939 -0.026060272 0.017115634 -0.018485384 0.0075467043 -0.0062886076 -0.0073047774 -0.0054805987 -0.02459976 0.011517354 -0.0010070314 0.004947127 -0.013992693 -0.017374607 0.009165905 0.0027921272 -0.008138787 -0.0042691804 -0.012894581 0.0060990783 -0.03658478 0.025494345 0.017547753 0.040755834 0.014813742 -0.005237728 -0.023423998 -0.0062149563 0.004012232 0.027031768 -0.011033002 0.025351882 0.020915221
214 0.02300485 0.00173384 -0.026380932 -0.0012159735 -0.012867888 -0.029168013 0.0032589855 -0.028843423 0.012384055 -0.014700102 0.012264237 -0.02161492 -0.0013601127 0.00010385535 0.00073301396 0.0035659012 0.026079023 -0.015263878 -0.01768808 0.027627291 -0.022472257 0.015181631 0.0054088146 0.0053283963 -0.021798663 -0.027006593 -0.0015282716 0.001066057 0.00854528 -0.0068113892 -0.028799163 0.0028300467 0.0020997624 -0.0048043374 -0.0064957845 -0.011475075 0.0061234324 -0.035446208 0.03572863 0.026542502 0.023321183 0.0071558477 -0.0026742888 -0.02345205 0.009910532 0.015714006 0.029922813 -0.0035400665 0.014067714 0.020954076
325 0.022623403 -0.0032778485 -0.023996122 0.0043531526 -0.017489519 -0.016157605 0.0081790695 -0.031923078 0.0060436744 -0.008645267 0.012808213 -0.008541746 0.0040072906 0.0013650107 -0.00153924 0.00674183 0.025802866 -0.010470816 -0.02322386 0.022682343 -0.03501888 0.0085307155 0.010700731 -0.0032736685 -0.0028418282 -0.020131886 0.00039807882 -0.003168918 0.015411486 -0.018636493 -0.022536073 0.0055463123 -0.011123277 0.003645955 0.005612545 -0.022132624 0.006145689 -0.034097403 0.032568846 0.025834981 0.039604176 0.008729794 -0.0007526198 -0.011506248 -0.00176172 0.019271668 0.011735023 -0.015314153 0.015614856 0.011633075
346 0.01668802 -0.0074068024 -0.0139872935 0.005466908 -0.016548464 -0.028512174 0.012015987 -0.024983253 0.003229895 -0.003892662 0.008756716 -0.0072368663 -0.005927556 0.0124772005 0.003796916 0.006663796 0.03779944 -0.01850649 -0.024941467 0.020521123 -0.026679633 0.017811395 0.0016605248 0.0038338534 -0.016191619 -0.0375594 0.01080964 0.0091010155 9.8460274e-05 -0.004117882 -0.013599907 0.016876267 -0.002660316 0.005066721 0.0057097813 -0.01604244 0.011337971 -0.028936958 0.034364067 0.018920405 0.034204863 -0.0024209376 0.003896063 -0.016978133 0.01086682 0.014999728 0.017635062 -0.017404875 0.018435929 0.024609594
118 0.009790939 -0.0076398626 -0.0095168315 0.0063453633 -0.007014121 -0.024386842 0.003172351 -0.018139703 0.011687844 -0.012238642 0.0046378314 -0.008135598 -0.003728801 0.012340931 0.008729606 -0.008925898 0.020235883 -0.019684037 -0.010568888 0.030110614 -0.026816651 0.019308569 -0.0036131556 -0.0030007733 -0.016210869 -0.028092867 0.013029429 0.004731446 0.008072024 -0.022537513 -0.023192355 0.016871803 0.006596125 -0.01074406 -0.004530876 -0.026816245 0.003329752 -0.031619582 0.025013803 0.018289018 0.026771326 0.012119182 -0.0025095039 -0.009942404 -0.007310384 0.006782646 0.018715506 -0.00039287758 0.027070196 0.026589844
199 0.022888029 -0.0046525067 -0.025975866 0.0031792873 -0.02276762 -0.024196956 0.0038477066 -0.033522822 0.00034974932 -0.00557036 0.003765056 -0.013490673 -0.002426567 0.00084296457 -0.0015105656 -0.0071846107 0.022184981 -0.019794866 -0.019235289 0.027285982 -0.018517746 0.009725896 -0.0076450743 -0.014880693 -0.012278736 -0.036195524 0.011441492 -0.00094290695 0.00846978 -0.01613452 -0.015468385 0.0030944715 -0.00025330693 0.0007888636 0.0018135576 -0.027000984 0.005579339 -0.045402005 0.024108985 0.020317966 0.039707016 -0.0020806633 0.010952102 -0.008143721 -0.0039825886 0.018399924 0.024635954 -0.006770671 0.01869697 0.012809457
230 0.029734476 -0.0031479932 -0.017908614 0.009710261 -0.027310375 -0.023826007 -0.0013455272 -0.028924601 0.0035250229 -0.020180043 -0.0010324632 -0.014433771 -0.001365216 0.01865878 0.0014317642 0.0044850945 0.03920253 -0.031312227 -0.019651005 0.033966344 -0.041304987 0.022562487 -0.0049662795 -0.0016724251 -0.0054459013 -0.035877027 0.009824996 0.007929576 0.0073338076 -0.0077722007 -0.026279332 0.0050607054 -0.0019117682 0.0020926986 -0.010352376 -0.013145669 -0.0035002043 -0.049091287 0.03995018 0.019316427 0.030030265 0.013291223 -0.0026927846 -0.010686314 0.0024775711 0.0143892495 0.021910006 -0.011965329 0.030276153 0.032607872
99 0.016474776 -0.0070917727 -0.014340841 -0.009403381 -0.017336661 -0.021119932 0.014349374 -0.027757185 0.0048863143 -0.02533656 -0.0066686845 -0.007368365 -0.003677044 0.012124867 0.005919592 -0.001285415 0.03255402 -0.010916641 -0.0140905585 0.031131629 -0.034228016 0.012489095 -0.010819892 -0.0105045 -0.019644251 -0.030608745 0.005569052 0.0075004273 0.004880598 -0.023167372 -0.021513134 0.004897435 -0.004321604 0.0029037632 -0.0077796723 -0.021146033 0.008628953 -0.044911053 0.032543506 0.0057771127 0.031352453 0.008930594 0.008268954 -0.005893214 0.0011015788 0.01681841 0.029897101 -0.0045412984 0.024029648 0.0304935
128 0.01765246 -0.0057838014 -0.01438417 0.0076442687 -0.01763794 -0.0071776304 0.0035155113 -0.031725112 -0.0027073466 -0.020730704 0.0069228713 -0.007930441 -0.009760036 0.002626021 -0.00045375366 -0.009935699 0.024028255 -0.021564454 -0.009384389 0.019313062 -0.025253281 0.019724548 -0.005663327 -0.007753767 -0.0013901303 -0.03143492 0.002724853 0.011573202 0.006756778 -0.0113995895 -0.014488649 0.008016284 0.0068333037 -0.008990003 2.1855349e-05 -0.021369727 0.0009550551 -0.03631459 0.023977272 0.018669475 0.029876804 -0.0018163876 -0.00076269574 -0.020119423 0.010322038 0.0020553023 0.01455326 -0.019159544 0.02492438 0.012236291
326 0.012953426 -0.009630929 -0.021021917 -0.0062443777 -0.00559719 -0.02598436 0.012713023 -0.033126444 0.0010551008 -0.005003556 -0.00065403857 -0.016600354 0.0050459793 0.009900579 -0.0009551606 -0.008917644 0.02164508 -0.020231793 -0.016528502 0.022180805 -0.02089323 0.014666355 0.008416452 0.0022221378 -0.0044423393 -0.020065267 0.0036709998 -0.0015538841 0.015714828 -0.02005454 -0.02965252 0.007050111 0.0041200705 -0.005693009 0.005033204 -0.011302976 0.0054547847 -0.04008673 0.030831859 0.006591 0.031221751 0.009251765 -0.0016734208 -0.02014608 0.0076042037 0.018563855 0.019842532 -0.0032383406 0.026848994 0.021367364
320 0.02541565 -0.011077208 -0.013964642 -0.006540383 -0.0029710184 -0.013453045 0.0014696597 -0.020675786 -0.0013736374 -0.007980142 -0.00078332674 -0.0070808083 -0.0063684527 0.01183245 0.010781601 0.00871674 0.030797081 -0.01110021 -0.01906065 0.024571333 -0.02910066 0.011993191 0.0020965273 0.0014475599 -0.003923985 -0.031090276 0.0028091671 -0.008146954 -0.0030192742 -0.008847453 -0.025850968 0.018775638 0.0033184804 -0.00850766 -0.004541069 -0.00930705 0.0077260993 -0.026920348 0.020878753 0.014973655 0.03494796 0.010549023 -0.0029351695 -0.0055155875 0.0042141094 0.015230583 0.026852868 -0.0063318256 0.01630614 0.0221718
332 0.02517064 -0.016554918 -0.027421009 0.005535783 -0.02192951 -0.01371947 -0.000108303866 -0.028025191 0.00027665464 -0.0036506373 -0.002297193 -0.014591674 -0.0006691179 0.014390054 0.0059061707 0.00077272125 0.024565693 -0.018132642 -0.027677437 0.025736881 -0.01793235 0.014237745 0.0007598475 -0.011979003 -0.008106592 -0.038414165 -0.0020783448 -0.004952795 0.013279951 -0.0075569935 -0.023169745 0.016074015 -0.012032727 -0.0038811471 0.00090297585 -0.010522673 -0.0034452868 -0.041107222 0.031744137 0.008488302 0.028076673 0.0072890976 -0.005964028 -0.014165103 0.007221842 0.016864099 0.026259815 -0.009982645 0.018812945 0.018232945
20 0.021065084 -0.0056046234 -0.015367724 0.0046444777 -0.01864065 -0.017751904 0.007473996 -0.036448244 -0.0013389188 -0.018629437 0.001724751 -0.015499653 0.005447965 0.0017920069 -0.0058819843 0.0025961825 0.037295483 -0.027336238 -0.017285313 0.022980979 -0.023011552 0.0134196 -0.00015246023 0.005138541 -0.0039258837 -0.036417767 -0.0050886786 -0.002052648 0.014563643 -0.0020516815 -0.017506396 0.0119281495 -0.0006800446 0.0015986402 -0.011589208 -0.0073850397 0.0009837615 -0.028584462 0.016610406 0.008958671 0.021888245 0.01239443 -0.0031727892 -0.023147495 0.0074303597 0.01179864 0.011776758 -0.007319599 0.024072707 0.022794774
310 0.023785954 -0.0033781305 -0.021345902 -0.0018055349 -0.015540043 -0.013119992 -0.004700322 -0.030808082 0.00086341804 -0.013295669 0.0080624875 -0.012902111 0.0045365896 0.0139014665 -0.0026696902 -0.0087249465 0.039567687 -0.01267978 -0.019879464 0.021450125 -0.04003637 0.02379981 0.010332927 0.004334694 -0.0022928964 -0.031151569 0.0044127395 0.0075692367 0.0015488975 -0.0026714965 -0.03210078 -0.0011749272 -0.00884419 0.0035461655 0.005765399 -0.023408273 0.009459995 -0.051264398 0.023236306 0.022680178 0.02822795 0.017873993 0.0025632565 -0.016777154 0.00057569315 0.0019558123 0.017334428 -0.01819741 0.021831073 0.021557834
259 0.006053169 -0.011907309 -0.010561893 -0.0058540534 -0.016101865 -0.027999569 0.010910948 -0.027035473 -0.0054738405 -0.019329831 0.0072320304 -0.009264342 -0.015905472 0.003254839 0.01224825 -0.00587711 0.025094394 -0.032255556 -0.021361446 0.035134852 -0.028296985 0.008138369 -0.005196821 -0.012926163 -0.017227191 -0.02014842 0.0023818938 0.0106351925 -0.0020596813 -0.022325488 -0.029481087 -0.0010016769 -0.004894862 -0.007982846 0.0022532095 -0.017532645 0.0037716604 -0.04276669 0.016924959 0.008685033 0.025683368 0.005313827 -0.0060756 -0.024204988 -0.0008825467 0.007832135 0.02176651 -0.022197928 0.019808255 0.0177084
226 0.014509111 -0.0019738416 -0.016597642 0.0013917667 -0.018067341 -0.01967677 0.010462904 -0.021069178 0.0014750662 -0.011840299 0.01192742 -0.009391738 -0.008615253 0.0032756906 0.008301024 0.0012489348 0.024067938 -0.016566833 -0.011605669 0.026308676 -0.018447582 0.011493609 0.007837303 0.004543054 -0.017629357 -0.030873356 0.011478619 -0.0069896895 0.01181391 -0.0018063537 -0.011326487 0.011673398 -0.0005463108 -0.0021285703 -0.00486799 -0.023999708 -0.0042701415 -0.042479962 0.028227499 0.022578679 0.03396315 0.011879439 -0.00047503915 -0.006568168 -0.006490559 0.012257768 0.021228999 -0.01464011 0.007900455 0.019077295
179 0.024154758 0.002637416 -0.030774493 -0.0011445513 -0.015666522 -0.016593942 -0.00045908598 -0.03861225 -0.009244205 -0.011262276 0.008786002 -0.01740934 -0.0049955896 0.0075836508 -0.0008121006 0.00090731296 0.036498737 -0.021474894 -0.027851231 0.034535434 -0.020634562 0.025107034 -0.009498589 0.0045049354 -0.017725777 -0.035001002 -0.002480267 0.0055090073 -0.0020761343 -0.006433427 -0.041180234 0.0052168355 0.0034650061 -0.0021680363 0.007995831 -0.025372056 0.0061779474 -0.045104492 0.02086613 0.017566912 0.028877353 0.018399019 0.012604601 -0.022126522 0.00246439 0.026410714 0.02377839 -0.018452326 0.018320324 0.015382161
91 0.015885942 -0.014935245 -0.015713243 0.0040175864 -0.01759761 -0.027130809 0.011029223 -0.026183804 0.007310609 -0.02516765 0.004507652 -0.016425753 -0.013879564 0.01768394 -0.00027844234 -0.0114856055 0.02580259 -0.020723755 -0.020859601 0.03782668 -0.037718613 0.0031609193 -0.002051005 -0.011593751 -0.0043214597 -0.028308922 0.008679464 0.0077328742 0.014038401 -0.005055237 -0.031169774 0.002008252 -0.0014061569 -0.006311971 -0.001033617 -0.030829228 -0.0027073773 -0.038194377 0.025929041 0.010610113 0.044204276 0.012747584 -0.0015315796 -0.01939579 -0.00022218244 0.012098401 0.020835795 -0.02448239 0.028023565 0.026418632
280 0.024741787 -0.009365004 -0.011953435 -0.005798385 -0.016220637 -0.027827209 0.011760108 -0.022367043 -0.0012570537 -0.021160373 -0.0030059693 -0.005554728 0.0063595762 0.014035361 -0.0058434894 -0.010245306 0.029065415 -0.019152787 -0.02534199 0.018154785 -0.026346615 0.015219918 0.008562005 -0.009617856 -0.015040444 -0.035362482 0.002550368 0.0003706614 0.006344933 -0.011256445 -0.028163783 0.0038909581 -0.0014565641 -0.00055509026 -0.0099264085 -0.017857922 -0.002759046 -0.031432908 0.02979897 0.012015442 0.02946181 0.005487871 0.0026162914 -0.020460906 0.0063064527 0.018763054 0.013085664 -0.01937903 0.023729766 0.017303525
184 0.018909756 -0.006224992 -0.02884964 -0.0037346834 -0.009863677 -0.027214171 0.013304848 -0.036347948 0.008466696 -0.0026232866 0.0025992247 -0.014501413 -0.0003259434 0.021330925 0.0034876373 0.0020198415 0.032424774 -0.012961573 -0.018187517 0.024020534 -0.031118808 0.017931465 0.0062571787 -0.008856029 -0.004980866 -0.035919793 0.007860914 0.001111783 0.011806221 -0.010252702 -0.032470573 0.015734963 -0.0008619359 -0.011191992 -0.0021220495 -0.024696004 -0.002994753 -0.037463788 0.033371173 0.009234562 0.04351411 0.009067034 0.011686414 -0.011142475 0.010759403 0.0049341 0.02370404 -0.016737886 0.023381855 0.027551122
92 0.025421616 -0.0015478065 -0.01730712 0.00526932 -0.0043337285 -0.031526703 0.00092065264 -0.034576472 0.004447737 -0.005316082 0.00463454 -0.020907898 0.0027384039 0.015306739 0.00703221 -0.010242157 0.040059533 -0.030767227 -0.007911254 0.015578641 -0.03484351 0.001935825 -0.0089057665 -0.0072197667 -0.014213611 -0.029255796 0.010669774 -0.0057565984 0.012852928 -0.0060331426 -0.015539104 0.011938733 -0.0052968618 -0.014144139 -5.5604767e-05 -0.021579117 0.008210715 -0.039114956 0.018840196 0.017571734 0.03259312 -0.000722576 0.010459765 -0.010233284 0.011058515 0.010317548 0.020099444 -0.015588207 0.028498238 0.027183365
171 0.012606536 -0.004945107 -0.029017199 -0.0073924633 -0.009589143 -0.022552598 0.010124211 -0.029593209 0.009588932 -0.010985867 -0.004437125 -0.017117962 -0.009128237 0.011762661 -0.0059811454 -0.009692509 0.042803306 -0.032672264 -0.014611886 0.0329739 -0.03825205 0.025051456 -0.012730387 -0.017346922 -0.012933033 -0.041190166 0.013343802 0.010351871 0.01699647 -0.015680296 -0.030415997 0.010715001 0.0008093122 -0.0114359865 -0.012553003 -0.029540144 0.0050663496 -0.039467756 0.021685017 0.025784394 0.038931213 0.013007511 0.01199352 -0.01689704 0.00020713419 0.0035552122 0.016983142 -0.0037381381 0.018036475 0.031715974
48 0.012140699 -0.008937967 -0.029489396 0.010226546 -0.008406182 -0.028030094 -0.0019242314 -0.02792986 0.0060071475 -0.012502118 -0.0052822013 -0.0077370703 -0.0010110158 0.014552826 0.0133005995 0.0036159765 0.03923737 -0.02775213 -0.023385653 0.034961108 -0.021652317 0.014419637 -0.0065712314 -0.0014090048 -0.02027665 -0.035861507 -0.003827287 -0.004279977 0.012797534 -0.013268735 -0.024744846 0.0028264874 -0.0034786738 -0.013469198 0.0028572143 -0.011610604 -0.0021172035 -0.031699676 0.022522012 0.008512491 0.023463178 -0.003278704 -0.009048565 -0.01763943 0.00046186234 0.009084743 0.028455772 -0.021067876 0.022180136 0.031772926
141 0.013710738 -0.0070002098 -0.024642646 0.0021849973 -0.0074353605 -0.024392555 -0.004430515 -0.03505398 0.0014387986 -0.018573744 0.0055521466 -0.022602307 -0.009034549 0.012458262 0.0006765694 -0.008804884 0.026996017 -0.008869008 -0.013816581 0.030189075 -0.028803652 0.0066323495 0.008562615 -0.0147091 -0.01735336 -0.037330054 -0.003400536 -0.0067582554 -0.0025060305 -0.01122931 -0.013704137 0.007792335 0.0012510677 -0.011039295 -0.010915083 -0.009045124 0.007455644 -0.0347675 0.016015274 0.017904526 0.030197958 0.0038800307 -0.0067739254 -0.007594996 0.0025469528 0.008668817 0.012877497 -0.0135777425 0.014818347 0.026937429
343 0.016818447 -0.011944513 -0.028588623 -0.0075400034 -0.00474681 -0.028031876 0.00032569558 -0.033005875 0.0017907848 -0.004788045 0.009482691 -0.017169356 0.007720368 0.0061090793 -0.0069517926 0.0023018103 0.028345237 -0.019237345 -0.022413805 0.023810064 -0.036900062 0.0037441538 -0.002280225 -0.0058329008 -0.0118524395 -0.036834233 0.008288983 0.0032953653 0.012096774 -0.009958193 -0.025603136 0.015775958 0.00692827 -0.004171667 -0.00011946358 -0.016919842 0.0076374523 -0.047769412 0.028010717 0.026742997 0.041602526 0.009803942 0.0054316698 -0.022777721 0.008289359 0.0015598104 0.01681042 -0.015363418 0.015861481 0.02075059
333 0.008168891 -0.0031251886 -0.02123168 -0.0052464018 -0.012065154 -0.017048826 0.0018395529 -0.035392866 0.006775322 -0.007420878 -0.0041343747 -0.004657 -0.002469235 0.005958853 0.0020857365 0.0051454315 0.03466725 -0.02611572 -0.0118649155 0.02180031 -0.03137841 0.009981459 0.0059198434 -0.010177011 -0.014949669 -0.03438417 0.0057908134 0.0021513621 0.008315923 -0.016633434 -0.016620593 0.012619839 0.00084718893 -0.00478698 0.0033551059 -0.026029663 0.011602553 -0.041207217 0.034148216 0.0094396435 0.03789848 0.0065978914 -0.0071679056 -0.019161465 0.011773044 0.0050051394 0.011305214 -0.016046636 0.022552632 0.014519072
291 0.01964841 -0.011119388 -0.01702471 0.00091447565 -0.004086187 -0.022544747 0.00015136114 -0.021609897 0.0074992315 -0.0077295946 0.0046222587 -0.009997614 0.0067243134 0.004899057 0.0021630365 -0.0108787855 0.02909223 -0.024682386 -0.006423227 0.014419179 -0.0190472 0.0071144234 -0.005119622 -0.009431454 -0.01075641 -0.020430744 -0.005135885 -0.0050105955 0.0056560757 -0.0024655587 -0.019971753 0.0058828383 -0.004354728 -0.012777675 0.0043665655 -0.014135519 0.0028422417 -0.030633058 0.012842699 0.0058147884 0.019138154 0.009079935 -0.0010458749 -0.02109263 0.0053662057 0.0013827652 0.019064667 -0.016692035 0.013182699 0.013485235
224 0.023836512 -0.0046852124 -0.012749591 -0.0047129607 -0.020442432 -0.011336047 0.008719353 -0.016549047 0.002516392 -0.01895193 0.00537665 -0.0028221703 -0.007535909 0.0039151614 -0.0046876827 -0.0068242466 0.024202412 -0.009827619 -0.01357634 0.015424929 -0.012799974 0.010919327 0.0014516264 0.005801893 -0.008758777 -0.033090383 0.0049546403 0.008431992 0.011026821 -0.019260854 -0.022975385 0.0010063217 -0.007057098 -0.0046715154 -0.013334552 -0.01390309 -0.0003727589 -0.03233345 0.01976372 0.0040979683 0.016120624 0.0065247244 -0.0069869813 -0.0087682875 -0.0011650283 0.00065277814 0.021450527 -0.017209208 0.02323928 0.026424605
28 0.016375601 -0.006284411 -0.016338222 -0.0026455515 -0.019242652 -0.025305862 0.011328997 -0.032088775 0.00038729096 -0.022690274 0.0024271843 -0.020180408 -0.0027517336 0.016575662 0.01132891 -0.010695836 0.029547665 -0.019259589 -0.017746016 0.03417195 -0.020050049 0.014405695 -0.007418759 -0.008844 -0.010635378 -0.03679623 0.0002216965 0.010031381 0.0014434259 -0.019089013 -0.029775603 0.013762876 -0.010973209 0.0038846673 0.0022763258 -0.027271628 0.013256027 -0.050420355 0.03053037 0.0255529 0.03634129 0.011260874 -0.009674006 -0.015266298 0.0021618602 0.01798025 0.028929595 -0.0014515654 0.014253649 0.028798195
89 0.012418659 -0.007461877 -0.01566215 0.0074780136 -0.016962325 -0.03238598 0.008755438 -0.040291395 -0.00093602604 -0.006711815 -0.0031109063 -0.0034431699 -0.008780732 0.0023585302 0.010398269 0.0057699624 0.029767646 -0.032762785 -0.01577606 0.03555631 -0.038529545 0.006887089 0.0019377061 -0.014335533 -0.0110639185 -0.034920454 0.0015736987 -0.0032896434 0.006133893 -0.0049361396 -0.012279268 0.0017381256 0.003546605 -0.0006437965 -0.014503385 -0.010387687 0.007808203 -0.03371289 0.017677058 0.01899109 0.037147522 0.013614725 0.007826749 -0.013680366 0.004997481 0.008256854 0.01567385 -0.019920396 0.014150889 0.013561219
78 0.015661592 -0.016142825 -0.033295568 0.0028618663 -0.019693315 -0.01631874 0.0062383213 -0.03314361 0.0031089243 -0.0055071046 -0.0046120533 -0.025641894 -0.0061901137 0.0026941455 0.011270931 0.0026596305 0.02897082 -0.02961571 -0.014529327 0.036148243 -0.025025921 0.021600654 0.009749918 -0.013287621 -0.024147192 -0.0336109 0.0063510686 -0.00058966584 0.0071038846 -0.006485681 -0.036445674 0.0032531118 0.009629983 -0.004737204 -0.008570633 -0.013220227 0.010339751 -0.052197475 0.03863873 0.020929439 0.028307574 0.015084792 0.008657862 -0.012295489 -3.878394e-06 0.006827683 0.022702653 -0.008440622 0.016966736 0.014952149
243 0.009203204 -0.002398286 -0.011318973 0.009720983 -0.012062538 -0.025157424 0.009547827 -0.035273585 -0.0029584519 -0.0029990077 0.012098136 -0.017834296 -0.010347857 0.007593958 -0.0053272783 -0.011067904 0.025313767 -0.016249256 -0.015968269 0.019896546 -0.031049633 0.007723913 -0.0041215573 0.0039490685 -0.012032815 -0.021267798 0.0014435584 0.0053189322 -0.001342369 -0.0033513291 -0.026176335 0.0044490746 -0.0036257925 -0.0117632635 0.005110906 -0.02442094 -0.004853656 -0.041743465 0.033768516 0.015430757 0.03201394 0.0144898435 0.0027604448 -0.023517072 -0.0070960727 0.011856773 0.030068817 -0.014529827 0.028343169 0.009896278
313 0.018507708 -0.0025418766 -0.02323357 -0.005336216 -0.017979696 -0.024841852 0.012931798 -0.019400612 0.006115349 -0.0113264 0.010938367 -0.019791042 -0.0043428666 0.007445135 -0.004084504 0.00499009 0.016693426 -0.0122983735 -0.009940551 0.02308989 -0.020739479 0.006099293 0.0034678804 0.0050199437 -0.014642568 -0.035949577 0.0016546478 0.007113788 0.0047544264 -0.013140963 -0.020513816 0.008597501 -0.00026164312 -0.0019294883 -0.0059975116 -0.025853084 0.011345993 -0.04223587 0.031879634 0.024413839 0.025763761 0.0050673033 0.010158142 -0.019642832 0.0100963125 0.0034830477 0.019392759 -0.0045300582 0.027511211 0.015718872
172 0.01852379 -0.0009830919 -0.02092629 0.0005744973 -0.018974368 -0.016273348 0.008004875 -0.028976673 0.011293953 -0.0025352712 -0.0009972911 -0.009641644 0.0032977818 0.01798895 0.0018735628 0.004396844 0.017474728 -0.025038885 -0.022272747 0.022435138 -0.0137571255 0.019531675 -0.0073412606 -0.009527225 -0.006990674 -0.035801012 0.0036619264 0.0059777545 0.011900832 -0.009318408 -0.021675749 0.007883171 -0.009773918 -0.001482296 0.0031445483 -0.006612548 -0.0053547355 -0.042537786 0.018239465 0.020018468 0.019629527 0.0044301595 0.009559749 -0.010289578 0.008476197 0.008317849 0.016103504 -0.018040795 0.014083468 0.008234778
137 0.0101341335 -0.0144657325 -0.02604571 0.0008481222 -0.011373356 -0.020303924 0.013249735 -0.030654315 -0.00037814112 -0.008227257 0.0013490772 -0.006265049 -0.008087743 0.006937865 0.002532662 -0.01249998 0.02804813 -0.02100421 -0.019834187 0.02988025 -0.031114545 0.020261096 0.00083071465 -0.010105044 -0.014043405 -0.03469286 0.006233481 0.006723038 0.012336813 -0.0071936287 -0.027853856 0.0065335976 -0.0019552016 0.006451294 -0.001642162 -0.022346873 -0.003388964 -0.041981224 0.014683822 0.017937394 0.022225479 0.0015250422 0.008544247 -0.007672667 -0.005662719 0.0063838623 0.028728304 -0.012291205 0.021358525 0.023774207
111 0.02237089 0.0026638573 -0.0121278735 -0.004367063 -0.020461915 -0.016583962 0.006984772 -0.028452445 0.011616375 -0.017742654 0.0018867664 -0.023799261 0.0053091464 0.010966621 0.0040679746 -0.0033587131 0.033123083 -0.028802799 -0.014885359 0.029626986 -0.03594088 0.02233985 -0.005052436 -0.003008537 -0.017489005 -0.041310847 -0.00032511662 -0.0075495383 0.010829267 -0.006960322 -0.026522202 -0.0014247388 -0.0030106122 -0.009295692 -0.007916535 -0.021772947 -0.000604999 -0.05169278 0.034049284 0.023884049 0.03602289 0.011192671 0.0031241586 -0.024716122 -0.004097081 0.0090660965 0.027454555 -0.016709791 0.021858368 0.029324915
17 0.023063818 -0.008913426 -0.008855109 -0.0021442384 -0.008545767 -0.016791033 -0.005152682 -0.029251918 0.0034434448 -0.01446925 0.003947546 -0.018781275 -0.00093163067 -0.00066656986 -0.000102315986 -0.0097209755 0.026463449 -0.013562262 -0.013603801 0.030431164 -0.027288584 0.020332092 -0.00929503 -0.0013849924 -0.0047842665 -0.035483997 0.00032648144 -0.0081624575 -0.0008242687 -0.010288763 -0.02526909 0.008956242 0.0074033053 -0.0076892017 -0.010173508 -0.02025283 0.008371891 -0.02567247 0.015703151 0.020037964 0.021426106 0.01352649 -0.0031053186 -0.003919188 -0.008552325 0.016097084 0.0270335 -0.007458796 0.022803495 0.009087231
194 0.021568984 -0.0011232072 -0.020610265 -0.005033286 -0.0032461747 -0.011138953 -0.0029671509 -0.031333454 0.006518753 -0.008369379 0.0011215508 -0.014357383 -0.00039243358 0.012492438 0.0054314737 -0.0008351283 0.034090605 -0.02960806 -0.022474194 0.014242124 -0.030399289 0.007122393 -0.010257482 -0.011271676 -0.0039644684 -0.022091549 0.008108406 -0.0062902346 0.0031085657 -0.007118784 -0.015224372 0.015679028 0.007310158 -0.0051637115 -0.0028513414 -0.01151371 -0.001973482 -0.034359545 0.029566122 0.022200454 0.03139014 0.0039582597 0.0033626647 -0.0071735973 -0.004472366 0.0012460677 0.02529635 -0.020089395 0.01555131 0.02914399
72 0.013349494 -0.01413879 -0.027845202 0.00605033 -0.010832848 -0.02010425 0.0024399103 -0.032454293 0.0059408424 -0.0073973155 -0.006680387 -0.014680988 0.005141027 0.014183483 0.009524408 -0.009583121 0.0247296 -0.01850691 -0.01513057 0.012790581 -0.022990653 0.009326162 0.00045545274 -0.004840791 -0.016922358 -0.02380152 0.0018798078 -0.0066610533 0.014482994 -0.013393991 -0.024047138 0.016225109 -0.007954481 0.0028620006 -0.00999088 -0.018949922 0.013028203 -0.029533224 0.029082425 0.019319948 0.028950613 0.006981998 -0.0061876574 -0.011876676 0.008282078 0.007253637 0.016173288 -0.0024497386 0.0195764 0.016125835
14 0.024248894 -0.014025833 -0.015761567 0.009276044 -0.011119242 -0.00806969 0.01093582 -0.029721696 0.0051134657 -0.006859317 0.0060013677 -0.021882132 0.00043304183 0.01648827 -0.0009506227 -0.00968077 0.027029617 -0.018933648 -0.008775105 0.029904073 -0.032553945 0.0083718095 -0.007400122 -0.0053225067 -0.01710684 -0.022360671 -0.0048488295 -0.0040326035 0.008586622 -0.009255824 -0.014598268 0.002622799 0.0022921145 -0.010252942 0.005773804 -0.008079306 0.010131521 -0.042407982 0.029720636 0.011186914 0.029534636 -0.00086581253 -0.006826016 -0.018488709 -0.0021585762 7.961638e-06 0.018120537 -0.018549465 0.025787214 0.013406995
80 0.010831409 -0.00063002016 -0.028885536 0.0034017786 -0.021314418 -0.017482212 -0.004041757 -0.04254172 0.0019722928 -0.013498937 0.0054647494 -0.022636155 -0.010498326 0.0025389413 -6.532112e-05 0.0022618913 0.04144727 -0.023636699 -0.016312825 0.020504322 -0.027617607 0.01747427 -0.009235373 0.0005877564 -0.01277946 -0.037199844 0.009430568 0.0033922337 0.01364751 -0.00529682 -0.029135019 -5.2031843e-05 -0.005729502 -0.0137017 -0.012239995 -0.025432141 0.0056550023 -0.0450319 0.031381477 0.02863457 0.027919369 0.012740846 0.007951556 -0.008901996 -0.0038860291 0.014577825 0.017193664 -0.008712963 0.024693536 0.027850863
302 0.011958887 -0.013174707 -0.011921044 0.0058001126 -0.0076302956 -0.031193009 0.0027743147 -0.02485936 -0.0055713644 -0.0029758401 0.008289991 -0.022527466 -0.009243167 0.018064046 0.013114094 0.0021136242 0.02110297 -0.03008538 -0.020189235 0.032599915 -0.018416842 0.007857461 0.0011123667 -0.013814097 -0.018744202 -0.02811305 0.007476953 0.0095773265 0.008072145 -0.008495618 -0.033021387 0.015508427 0.0007075722 -0.0029159766 -0.012544645 -0.02377227 0.003394309 -0.04746641 0.025296684 0.012621384 0.029430253 0.01547502 -0.006697479 -0.013666663 -0.0071765897 0.0011609733 0.022590857 -0.016637519 0.017166134 0.021132987
101 0.02862922 -0.0056331027 -0.018818876 0.006946609 -0.0061783358 -0.015245545 -0.0038692968 -0.043619536 0.0047821435 -0.015453019 -0.0022432772 -0.021415472 -0.0018446461 0.01838403 0.011567293 0.0015581863 0.03992124 -0.031426292 -0.01441991 0.029601788 -0.03556134 0.0068987263 0.0077438354 -0.0055420673 -0.010183285 -0.030013114 0.0029675458 -0.0047813063 -0.0009499967 -0.023406416 -0.02620383 0.0009973102 -0.01070714 -0.010363412 0.0017134291 -0.02912834 0.006219951 -0.03716761 0.031348515 0.0141153075 0.036305856 0.001777504 -0.007901385 -0.016660027 -0.0077228327 0.0076277414 0.020201119 -0.00646178 0.01481344 0.020401537
236 0.014432695 -0.012056336 -0.012263779 0.0042036925 -0.005984083 -0.022947725 0.00283974 -0.03364942 0.011031729 -0.005112346 0.009773881 -0.0021869882 -0.010757572 0.010661321 0.010097625 -0.0026712234 0.027653592 -0.023574654 -0.010132565 0.015279181 -0.02950274 0.008302091 0.009580571 -0.008589637 -0.016444128 -0.029857999 0.006681328 0.001006892 0.006930263 -0.0122166285 -0.022396313 0.0070044165 0.0020444463 0.006660934 -0.008194771 -0.024996934 0.001975345 -0.032027323 0.020469513 0.01655565 0.022229822 -0.00015078763 0.0012018238 -0.013065754 0.0013866267 0.01888133 0.026508681 -0.017811691 0.016647683 0.0135431625
116 0.024822673 -0.0023884724 -0.0199399 -0.00021804048 -0.0132874735 -0.0148661835 -0.006283109 -0.032124456 0.012105924 -0.0190086 -0.0035561488 -0.022819718 -0.0062886775 0.0010400157 -0.00751667 -0.0045997123 0.027430061 -0.0076489677 -0.014507665 0.015503311 -0.025623232 0.0012758478 7.5442884e-05 0.00016221643 -0.014967689 -0.031603765 -0.0028946542 -0.0027952401 -0.0010618446 -0.001036105 -0.0134790465 0.013342244 -0.011906309 0.0036820013 -0.0010832165 -0.008572417 0.013616315 -0.03603306 0.025048632 0.0067183943 0.023950415 -0.00352112 -0.008585099 -0.013932958 -0.0031529656 0.0022679346 0.022060856 -0.009926238 0.016552687 0.026377669
337 0.0062621627 0.0026249294 -0.022348328 0.00362909 -0.0173207 -0.021109752 0.014329737 -0.022998828 0.009647735 -0.02000354 1.8985234e-05 -0.010530163 -0.0037476493 0.0041033244 -0.008222351 0.0054380563 0.020466072 -0.030073062 -0.01719429 0.032817617 -0.03331572 0.016354047 -0.0033497314 -0.008768644 -0.012745357 -0.019725082 -5.3602762e-05 0.005951216 0.006088988 -0.0043941126 -0.029356545 0.008656011 5.1956864e-05 0.0072842985 0.0077632777 -0.020870388 -0.0064827213 -0.04944066 0.028012408 0.0060473983 0.027085518 0.01051687 -0.0022626056 -0.00449709 0.00696107 0.014120868 0.034353543 -0.00032767846 0.011902549 0.009688922
24 0.009651318 0.003453721 -0.027599888 -0.008479842 -0.0017301423 -0.01617324 0.0025192867 -0.02844187 -0.00025781704 -0.011439294 0.008078233 -0.021314733 -0.00041198314 0.017017798 -0.006356946 -0.004492282 0.027855832 -0.018535232 -0.008982803 0.027041147 -0.02688957 0.002247994 -0.0032087006 0.0038226284 -0.016077783 -0.020932054 0.002108184 -0.0039671967 0.015730351 -0.014493273 -0.026780618 0.010557885 -0.0047174064 0.003218779 -0.007888999 -0.014972994 0.0020210352 -0.036276065 0.016081244 0.023615975 0.024950812 0.0067629805 0.006885441 -0.01745146 0.0057084514 0.01977845 0.021877684 -0.017675117 0.018068878 0.015229578
319 0.019195508 -0.01920383 -0.01858516 -0.0032848523 -0.0127013875 -0.029734239 -0.0025140964 -0.040477134 0.0042462307 -0.01733289 -0.0011176975 -0.008043407 -0.014434958 0.012568308 -0.008429855 -0.009037176 0.028702036 -0.034262054 -0.023771409 0.034564562 -0.036388066 0.0017247325 -0.0023340231 -0.01263783 -0.01040127 -0.04098899 -0.0013055345 -0.0005817276 0.009019975 -0.01320153 -0.016840583 0.009454984 -0.010936095 0.005805851 -0.013136436 -0.017610958 0.010598615 -0.04234071 0.031265218 0.016772637 0.0432431 0.015387049 -0.0032982451 -0.009001514 0.0017798808 0.008189953 0.02111719 -0.0121704675 0.011615101 0.016982174
299 0.018940369 -0.006030766 -0.015877368 0.005007675 -0.010185585 -0.0165435 -0.0060542324 -0.039408077 0.01044557 -0.008474478 0.0051724557 -0.01405422 -0.0028597165 0.0017051519 -0.0015343801 0.003726167 0.032166712 -0.017273562 -0.009270038 0.029102646 -0.026977006 0.007369823 0.00022085878 0.00479384 -0.012912472 -0.038603913 0.0038659165 0.010889805 0.0019110586 -0.010510282 -0.01909926 0.014842813 0.005882174 -0.008935866 0.0038640837 -0.012055004 0.0099260425 -0.03131821 0.03326987 0.01881068 0.04224202 0.012767351 -0.003001231 -0.021686649 -0.0017891612 0.006106869 0.015044597 -0.011141718 0.02712701 0.027250834
342 0.008993343 -0.014654134 -0.011902027 0.002583541 -0.010577088 -0.0230665 0.0008829451 -0.016470235 0.002749601 -0.016477617 -0.0028306132 -0.018730327 -0.0018467099 0.012719355 -0.000669709 0.00048537418 0.017824156 -0.011825815 -0.023638297 0.028950555 -0.015968543 0.005334415 -0.009186315 -0.006364141 -0.01002671 -0.027123002 0.009906058 -0.0005060016 0.008418768 -0.006703066 -0.027018324 0.007556832 -0.006649764 -0.00078230747 0.0057333014 -0.024120491 -0.0009967806 -0.026819529 0.016484028 0.020533392 0.025265882 0.015313294 -0.0015909857 -0.0092005525 -0.0065526497 0.0038608972 0.02829431 -0.012595326 0.019594014 0.02654385
187 0.012772532 -0.011951251 -0.018460277 -0.0065045874 -0.002405719 -0.025333814 -0.0037774385 -0.038249668 0.0023220852 -0.0041054683 0.011155313 -0.01859754 -0.0073553 0.0019336016 0.008420019 -0.005783752 0.036586266 -0.022550711 -0.007756867 0.032538645 -0.0266161 0.011971841 -0.0015365138 -0.008277068 -0.012724289 -0.032585796 0.007083434 -0.005837276 0.009010305 -0.023587167 -0.026043298 0.014498743 -0.00855313 0.0018727591 0.003749936 -0.02694764 0.012761329 -0.03758372 0.016410144 0.0134672765 0.024572486 0.008218181 -0.0074034696 -0.023079447 0.011294031 0.0013373431 0.02823325 -0.008935677 0.029307019 0.03145359
62 0.01934114 -0.007360386 -0.010747781 -0.004961801 -0.015592706 -0.021900795 0.002573368 -0.019978456 -6.148313e-05 -0.010867603 6.408634e-05 -0.0141994795 -0.007392558 0.0025347148 -0.0041024517 0.0053752516 0.030226963 -0.016350212 -0.01378333 0.02089478 -0.01589615 0.0160635 0.009086513 -0.013617422 -0.018482167 -0.022323953 0.0017897126 -0.0042658118 0.003748803 -0.009799061 -0.015395314 0.009771027 -0.009745677 -0.009352662 0.004526262 -0.015247571 0.00092466275 -0.036472216 0.025866674 0.0048842863 0.022714082 0.005131253 0.0067491797 -0.0064388146 0.002273557 0.020554159 0.013015449 -0.018591532 0.016908664 0.02108518
211 0.016462207 -0.010928785 -0.027376812 0.0010196022 -0.018897882 -0.023201177 0.00023857763 -0.032281198 -0.003911743 -0.0050852858 -0.00062335335 -0.018300314 -0.0037124157 0.018865561 0.008198229 -0.012334131 0.022315627 -0.020186396 -0.008244848 0.030486232 -0.018267518 0.008529122 0.0067052357 -0.011268996 -0.010174214 -0.023779094 0.006921981 0.0030633463 -0.002463429 -0.01825905 -0.014104557 0.010394631 0.0029363153 0.0030444136 -0.012837944 -0.017087698 0.00017341891 -0.037944593 0.014366742 0.016615653 0.021840163 0.0017849373 0.004538577 -0.012751789 -0.0021531193 0.010371471 0.023879804 -0.0068872436 0.018267002 0.011688992
166 0.030173145 -0.016543426 -0.028970184 0.005650484 -0.024908416 -0.018175738 0.0019213519 -0.02969296 -0.0027370346 -0.0058819847 0.011059743 -0.026110252 0.0014978405 0.014967918 0.008366604 -0.015161737 0.026387313 -0.030911667 -0.008640308 0.031743392 -0.032990433 0.025575794 0.004293853 -0.010806376 -7.1382594e-05 -0.04451792 0.012039799 0.011645303 -0.0017858665 -0.0071342085 -0.032498438 0.020805664 -0.014404546 0.006844064 0.0058972477 -0.03267598 -0.00368229 -0.058760088 0.03360364 0.019936617 0.042022415 -0.0019440331 0.0019605404 -0.020966768 0.007551534 0.025888665 0.039251234 -0.011652599 0.02318794 0.026638836
284 0.01129222 -0.016619323 -0.028576257 0.0022543166 -0.019129895 -0.02836624 0.009170853 -0.03114811 -0.0034758577 -0.022651386 -0.0035657338 -0.017479504 -0.012632267 0.022268001 0.0121350195 -0.010484152 0.038198635 -0.029438516 -0.013576809 0.02355483 -0.01749388 0.011350867 0.0062946645 -0.0019917109 -0.016886415 -0.03387115 0.008457747 -0.0048369947 0.014704647 -0.020956548 -0.014609479 0.015452616 -0.00441672 -0.0099488655 -0.0075203697 -0.02378077 0.013375436 -0.034309406 0.025359614 0.0075003663 0.032071676 0.0047566076 0.004294415 -0.009597357 0.0009389862 0.018276388 0.025886875 -0.005964742 0.014348162 0.03236522
127 0.022966081 -0.012796822 -0.026939625 -0.006635869 -0.022182874 -0.015601181 0.0081489105 -0.03169086 -0.0037404585 -0.0035804815 -0.0025444485 -0.0053773476 -0.005175447 0.022258276 0.0046405373 -0.00075422 0.028873723 -0.023928503 -0.007940382 0.026736973 -0.031212168 0.002454766 0.0013837203 0.0012455059 -0.011690298 -0.031244192 0.00023627051 0.0037705442 0.0070456383 -0.01978619 -0.024637211 0.008189049 -0.005124378 -0.008192828 -0.0051940135 -0.023318242 0.0022444804 -0.040116873 0.03534406 0.018364724 0.034145426 0.007844964 -0.0069560413 -0.010021761 0.0045124856 0.020738082 0.032618232 -0.012970023 0.013241829 0.012300155
242 0.012384495 0.0013732113 -0.01882058 0.0049519516 -0.01127263 -0.027090803 -0.0075934413 -0.02451834 0.0008327506 -0.012174777 -6.961635e-05 -0.01802787 -0.00043882226 0.002365113 0.011086539 0.0067531294 0.028503962 -0.029825361 -0.01574476 0.01645016 -0.019283386 0.020160096 0.0013037852 0.0031941864 -0.021731555 -0.021411326 -0.003902361 0.010300497 0.01574167 -0.013889845 -0.027977813 0.0018300753 -0.010570077 -0.0002748614 0.0008470054 -0.015669106 0.008296421 -0.027946731 0.022826085 0.017809473 0.031490386 0.014991102 0.004757843 -0.012712603 0.0032945941 0.0115068965 0.024252962 -0.002492963 0.01141305 0.011364431
144 0.010036269 0.0038087312 -0.025893562 -0.006475488 -0.021259822 -0.016237132 -0.0054772533 -0.031486973 -0.005630239 -0.01845702 -0.0038235628 -0.016567249 -0.005236376 0.008151306 0.010358134 -0.010286107 0.02622251 -0.027287744 -0.019219393 0.030959476 -0.02078156 0.01584861 0.0042285696 -0.0011935721 -0.011252414 -0.02037418 0.008810755 -0.0062029697 -0.001314813 -0.012583512 -0.025948497 0.0068624406 0.0004756645 -0.008912323 -0.006997877 -0.011402365 0.013905495 -0.027892528 0.023564888 0.024861924 0.040035196 0.0036362733 -0.0048591197 -0.01399419 -0.007488999 0.011494318 0.03248031 -0.020666735 0.019601675 0.014344283
157 0.01991083 -0.0048388345 -0.02203248 -0.0061399397 -0.016423427 -0.0135319475 -0.005821146 -0.047073554 0.0077583054 -0.00534418 -0.01059523 -0.01035963 -0.008442946 0.019680277 -0.0052682515 -0.014800102 0.039291967 -0.01588499 -0.022346588 0.030094562 -0.03777179 0.007364163 -0.003163021 -0.0045766463 -0.024765693 -0.03517936 0.009512572 -0.004578161 0.009331009 -0.014040752 -0.03339625 0.0044948147 0.0011823091 0.003723595 -0.005236295 -0.020604365 0.008352208 -0.031159284 0.021255797 0.026917674 0.024470685 0.018562214 -0.0026984569 -0.018567517 0.008826444 0.014449999 0.039517477 -0.020155467 0.032539137 0.013840725
219 0.016656404 -0.00939882 -0.016017837 0.008371348 -0.006490292 -0.017256325 0.007664655 -0.04278812 -0.0013181651 -0.0071310713 0.0046664644 -0.025076458 -0.015399664 0.010991661 -0.0051815626 0.0060208323 0.03998049 -0.021294609 -0.026149042 0.017995924 -0.033086672 0.015876304 -0.009573246 -0.01307416 -0.021384586 -0.023793353 -0.0032906057 0.0023518314 0.017359057 -0.007953556 -0.026354687 0.006518845 -0.0030307344 -0.012014007 -0.011890477 -0.022595564 0.014553515 -0.031653848 0.025546048 0.018552806 0.042045027 -0.00071322307 -0.0014167676 -0.007392175 0.0054211933 0.010509453 0.015491014 -0.004137392 0.02819922 0.014721822
158 0.024195813 -6.36696e-05 -0.028281232 0.010657205 -0.01856881 -0.027665917 0.013010957 -0.030752841 -0.0072640562 -0.01795808 0.00573712 -0.012203195 -0.009803526 0.007272561 0.008316038 0.0047747563 0.022904418 -0.014479298 -0.025059788 0.027124563 -0.034533396 0.017352933 0.00610243 0.004351822 -0.004374252 -0.028332407 -0.004829978 -0.0011684797 0.008907191 -0.0110234395 -0.016079053 0.0129466625 0.0057965335 -0.011402079 0.0043959594 -0.017478662 -0.0032697716 -0.035569698 0.02054209 0.007422546 0.038996637 0.012985434 -0.00835817 -0.009439322 0.0031179807 0.009044126 0.02650209 -0.018167611 0.021546207 0.017257761
181 0.02335193 -0.018065333 -0.034376327 0.0077930577 -0.012119799 -0.0127342595 -0.003921535 -0.042522557 -0.004922268 -0.014679068 -0.008814264 -0.014996677 0.0092797335 0.0013635636 0.006551794 0.0047743623 0.038597167 -0.026385205 -0.026681352 0.039585177 -0.034727376 0.010316508 0.0019317954 -0.0003009483 -0.012900467 -0.022666339 0.0025959122 0.000758048 0.0027892576 -0.016999893 -0.036900222 0.0016405209 -0.0062668924 -0.007878153 -0.0022435437 -0.027816229 0.0076587438 -0.042170297 0.030127332 0.027246213 0.025264714 0.012213561 -0.0008024734 -0.0071935644 0.011339358 0.017945949 0.017307205 -0.004286058 0.022589607 0.02224804
248 0.019165112 -0.00022030482 -0.009435979 -0.0049661878 -0.018527307 -0.008275528 -0.0032336265 -0.024472171 0.0041818847 -0.016047122 0.0036756916 -0.013101742 -0.010268006 -1.2668943e-07 0.009148883 0.0010794365 0.03351337 -0.023307694 -0.00692081 0.02942433 -0.020636624 0.017114352 -0.006337067 -0.012008853 -0.0064438167 -0.024668118 0.0121356705 0.0100364 0.011024605 -0.012998408 -0.027405892 0.008148272 -0.010257615 0.00406542 0.00049427553 -0.014342841 0.0013466467 -0.033612307 0.019916601 0.021123488 0.020027166 0.0075151115 -0.0024013412 -0.020327713 0.009164506 0.013046211 0.022118 -0.01590333 0.014244322 0.02501158
269 0.008921042 -0.007896868 -0.014429674 -0.008145967 -0.004828706 -0.008159881 0.0038692215 -0.031092132 -0.005112218 -0.0025709278 0.003041047 -0.022814786 0.0055148834 0.021099351 0.009299266 -0.009564429 0.026107453 -0.025587738 -0.018076466 0.019285891 -0.03643573 0.016125023 -0.007035068 0.0035346989 -0.005243366 -0.034297608 -0.00072146236 0.0078104143 0.0005762126 -0.009660025 -0.013556888 0.013418602 0.0005929344 -0.012220531 -0.012709674 -0.016413426 0.001449281 -0.045139514 0.023610316 0.025224593 0.028563267 -0.0034246347 0.0072286115 -0.021376822 0.007944878 0.016906938 0.02071491 -0.0061672186 0.020800231 0.025832675
94 0.010166045 -0.01167598 -0.017579323 -0.00033508832 -0.020847686 -0.0154814925 0.0038683093 -0.024214035 -0.0049029496 -0.014392608 -5.159497e-05 -0.017938083 0.004482546 0.0049167713 -0.004260793 -0.006291884 0.027537582 -0.029315043 -0.021777557 0.036247108 -0.032398593 0.0034084916 0.00724074 0.0028691066 -0.007160073 -0.037947107 0.007860443 -0.0051307604 0.014539281 -0.012870887 -0.024034493 0.010399168 0.0019633882 -0.010243985 -0.0057839327 -0.024439514 0.011482902 -0.041364823 0.025623089 0.023004271 0.032189015 0.007852128 0.009232894 -0.0051616337 -0.0049466994 0.006354037 0.031273246 -0.016225167 0.018529417 0.026619863
225 0.013251315 -0.0021173335 -0.021556674 0.003028592 -0.00058934063 -0.02689601 0.0012986317 -0.027917875 0.0025837957 -0.01795305 0.0036226118 -0.020774893 0.0025901138 0.017438082 -0.0016963388 0.0056391205 0.020346206 -0.015079697 -0.016444912 0.017685186 -0.029052783 0.020653807 0.0062805396 -0.007912935 0.0018130084 -0.022089722 0.0053524096 -0.004901971 0.01268882 -0.011943859 -0.018989826 0.0026268682 -0.005429581 0.008214801 -0.0066654757 -0.0116730295 0.014364648 -0.02330182 0.031291567 0.003146386 0.026876096 0.005703163 0.005600895 -0.0043936265 0.0014869792 0.016167032 0.030614104 -0.012189 0.01138651 0.018164543
159 0.0101639405 -0.0022174667 -0.02702148 0.009080376 -0.008531698 -0.022188619 0.011393163 -0.03493597 0.008320374 -0.0059277136 0.006291677 -0.016786326 -0.0014375176 0.014057176 0.006144779 -0.001018397 0.033971187 -0.023985762 -0.017667418 0.016421158 -0.015709769 0.0040312763 0.009584918 0.0037128415 -0.018151408 -0.02519792 -0.0008527527 -0.00061978225 0.01405748 -0.022089306 -0.019364174 0.008724738 -0.0024916844 -0.0076662167 -0.008517308 -0.008826457 0.011246985 -0.030216616 0.028249297 0.01102443 0.032301847 -0.0024248336 0.010460426 -0.00248464 0.0034015717 0.015889367 0.029244509 -0.010151833 0.00821414 0.02304272
281 0.02422131 0.0029165691 -0.014256237 0.002516112 -0.014864004 -0.021653552 -0.00090351695 -0.034733433 -0.002112966 -0.007864489 0.006030023 -0.017575633 -0.001039811 0.013629258 -0.0009349306 0.0048102476 0.042088423 -0.020964216 -0.018784365 0.015918795 -0.023598218 0.0047480958 -0.0035619002 -0.0021305953 -0.019654265 -0.041912574 0.012069147 -0.007864478 0.0019590943 -0.006920519 -0.02597548 0.0057914997 -0.0031293493 0.0029396296 0.0016915796 -0.013950055 0.013358667 -0.040318012 0.020893393 0.021030141 0.03524633 0.010716052 0.0018566555 -0.022892732 0.0023489713 0.0022314622 0.016969472 -0.0043478305 0.02118275 0.029303813
297 0.018108154 -0.006654647 -0.013233984 0.0028806846 -0.010030549 -0.009106477 0.010892771 -0.031753093 0.001501722 -0.016047155 -0.0019588908 -0.019097934 -0.008902032 0.0019647703 0.0033644468 -0.007148823 0.017873941 -0.022146132 -0.014530272 0.025048437 -0.020480255 0.006233682 -0.0007837427 -0.00092255196 -0.007927387 -0.033373266 0.0048130997 -0.0009018028 0.002062603 -0.019605588 -0.021348234 0.007114789 -0.0035123883 0.00018188007 -0.011202764 -0.01268859 0.0044572 -0.02474037 0.010703266 0.02113666 0.033891495 0.008585513 0.0024541877 -0.016939027 0.009217106 0.003096369 0.018621365 -0.0032735094 0.011717859 0.017227443
180 0.017279401 0.0030425994 -0.011750243 0.009560656 -0.00851969 -0.02600396 0.0074392976 -0.03226165 0.0060542934 -0.002401815 -0.004149478 -0.00525063 -0.0010517222 0.01801632 -0.0036561948 -0.0057560233 0.030225314 -0.026712988 -0.016754335 0.015023105 -0.025014307 0.011342764 -0.007164774 -0.004115213 -0.011094046 -0.032518134 0.0016895832 -0.00075578346 0.007738506 -0.017795308 -0.017319797 0.008980073 0.00095113914 -0.004109075 -0.008047404 -0.012366343 0.011878047 -0.034260705 0.021245 0.02502807 0.035975132 0.013486201 -0.00044168546 -0.010777881 -0.0023532894 0.001855772 0.025435023 -0.009473291 0.023139914 0.029609477
328 0.00949098 -0.010199498 -0.02963881 0.0081369 -0.0142830415 -0.02523894 0.0014509823 -0.028411616 0.0014961641 -0.0063036312 0.0015447609 -0.018914757 -0.002298136 0.005730259 0.011967968 0.00019968904 0.03982032 -0.02281424 -0.008271551 0.027983855 -0.033483967 0.022183273 -0.0026189312 -0.000969142 -0.02139046 -0.03309429 0.0011749242 0.0018993154 0.0018748165 -0.020508684 -0.0387842 -0.0006853734 0.0039095995 -0.0059538633 -0.013279591 -0.015885906 0.014527753 -0.051890943 0.03739499 0.026274744 0.04416899 0.010716538 -0.0033901609 -0.010293861 -0.0074424706 0.018278126 0.027822621 -0.0067178644 0.028999412 0.028733645
306 0.0046951785 -0.006507095 -0.023034189 0.0044623343 -0.010735779 -0.023007069 0.011795636 -0.023411456 -0.004206828 -0.0075336974 0.0063283043 -0.020494504 0.009368486 0.0140937725 0.010795148 -0.0011029635 0.039895672 -0.019147672 -0.021432342 0.036624152 -0.034602232 0.013075452 -0.0057239416 -0.013914413 -0.022041637 -0.039777547 -0.002916509 -0.0015629769 0.0012402092 -0.018002814 -0.029559305 0.0036676535 -0.0018812789 0.0009817765 -0.003050105 -0.014462566 0.0014548015 -0.0461476 0.03178293 0.007861209 0.029840333 -0.0036587443 0.013553865 -0.02437993 0.0015979335 0.018796064 0.02431038 -0.016740507 0.024571534 0.025332302
167 0.01035556 -0.014745746 -0.026811006 -0.00802612 -0.022133553 -0.029400809 -0.0024596173 -0.03437476 -0.0005973354 -0.004988405 0.012688721 -0.008030685 -0.013398235 0.01725643 0.00090181414 -0.009135402 0.023846222 -0.026254296 -0.014433551 0.023398042 -0.037337117 0.013102059 0.008439277 -0.008877808 -0.0031899672 -0.03730201 0.010378635 -0.0004154095 0.0026302482 -0.012537817 -0.02365542 0.0011062545 0.0075929617 0.0067448867 0.00026567988 -0.0134348115 -0.0035831542 -0.043436453 0.022787405 0.00953277 0.036279585 -0.0012298413 0.006631143 -0.0054634353 0.011289429 0.006771806 0.018098844 0.00066819246 0.020629644 0.012379481
162 0.011043226 0.0039268974 -0.022426462 0.006334996 -0.0063268244 -0.010235666 0.012569002 -0.022818131 -0.004533805 -0.016582645 -0.0018134442 -0.004976113 -0.006696547 0.0062698703 0.011295913 0.0059201783 0.022668222 -0.025513945 -0.021399476 0.023793362 -0.012799378 0.010764859 -0.0043381755 -0.0024296227 -0.0059975265 -0.025552956 0.011829488 -0.0033091397 -0.003710837 -0.011318308 -0.026496222 0.00087580143 -0.010686473 0.00242871 0.008042445 -0.009980302 -0.0015313972 -0.030288469 0.026943235 0.010582797 0.034540832 0.0146575235 -0.009912011 -0.00870697 -0.0047969134 0.00781264 0.012208803 -0.018554414 0.013422677 0.009225554
104 0.020696223 -0.013610556 -0.014123206 0.005601227 -0.016424429 -0.018373882 0.0019808381 -0.02509961 0.0021425218 -0.011855243 0.0061988877 -0.018786993 0.0031758428 0.008773138 0.0009424625 0.0067264396 0.016114725 -0.021207215 -0.016020583 0.01895315 -0.012702027 0.003983407 0.0051908614 0.0011741832 -0.016028361 -0.025258936 -0.003623388 0.004735436 0.004390295 -0.0069691893 -0.012928564 0.013742026 0.0037366867 -0.0031568317 -0.0075265155 -0.022430472 0.008476603 -0.036807 0.028306201 0.02018426 0.026398262 0.0149566475 0.0029783864 -0.019902462 -0.004299942 -0.0016905909 0.012061677 -0.01573591 0.024513157 0.011525978
185 0.010330701 -0.0029481242 -0.02656349 -0.004314802 -0.009265151 -0.01606288 0.006672406 -0.019981125 0.00517922 -0.0066539934 -0.0037795487 -0.0030862093 0.0014317391 0.016078714 0.0066799237 0.0067999284 0.02522263 -0.023284322 -0.011865853 0.025432758 -0.029342366 0.0048815077 -0.008860483 0.0022629704 -0.018649602 -0.018578826 -0.0010892787 0.0015629259 0.014040745 -0.017395156 -0.028075583 0.0012214661 0.0072013545 0.004367664 -0.003772774 -0.011642411 0.006898999 -0.04125807 0.030266782 0.0047772676 0.02928899 0.0115888845 -0.0076751364 -0.017371194 0.0030827387 0.0034355456 0.023333427 -0.002760555 0.021658083 0.013119089
161 0.0112816 0.0029676305 -0.022021927 0.0073026232 -0.003941132 -0.008871873 0.0076074954 -0.027284304 -0.008711557 -0.016845584 0.007990479 -0.0153994905 -0.0047643273 0.0068625743 0.0029598617 0.0030893541 0.029338306 -0.012416856 -0.008751214 0.010020888 -0.013121973 0.015408133 -0.008953098 0.0018755229 -0.01191173 -0.026889946 0.0014161989 0.008004158 -0.0056558163 -0.020430401 -0.010346054 -0.0019008799 -0.0069546257 -0.009508195 -0.0077124625 -0.020031953 0.002821937 -0.03809824 0.02411263 0.019923685 0.033584226 0.014819748 0.010202146 -0.020403543 0.007912819 0.0039970325 0.022330726 -0.017727248 0.019780047 0.010031676
261 0.008330858 -0.006208834 -0.0139212115 -0.003892222 -0.019323139 -0.008462801 0.012205997 -0.023210572 0.0014959889 -0.015547452 -0.0034923558 -0.01485147 -0.009878417 0.0069249836 -0.0002654847 -0.007879027 0.026167426 -0.011298728 -0.019361258 0.019674897 -0.016758667 0.019939786 -0.007850453 0.00060203846 -0.00017266574 -0.03300633 -0.00074564724 0.0113448575 0.010645839 -0.0034012755 -0.014794013 0.0041478747 -0.008472767 0.0058736173 -0.0052173645 -0.016476173 0.0015612124 -0.029993247 0.030130178 0.014119314 0.033900376 0.014835964 0.0049863993 -0.010440276 0.011181494 0.019224908 0.014700628 0.0009435307 0.014383762 0.0153028015
121 0.015506743 0.0019119565 -0.008705313 0.004442023 -0.013222221 -0.020559814 0.0049591786 -0.035945516 0.007236121 -0.012803245 0.011391644 -0.013922231 -0.00952055 0.0014351755 -0.0019393861 0.004657083 0.023695178 -0.017286317 -0.009878632 0.028150557 -0.02860627 0.0042996746 0.0009789717 -0.006752715 -0.0008386644 -0.03364936 0.004689001 0.0031742223 -0.00020870475 -0.019031823 -0.012939559 0.008763011 0.0070946314 0.0032922272 -0.0123322755 -0.023473542 -0.00079543114 -0.034850456 0.024920244 0.009473854 0.023712616 0.007497682 0.002620757 -0.015886327 0.0070817154 -0.0008449168 0.020205788 -0.0134727545 0.025827246 0.008624898
273 0.0056404993 -0.014263455 -0.01783113 0.0065767854 -0.0028342938 -0.027300868 -0.0010134747 -0.039567288 -0.0005037632 -0.01671714 -0.0065735783 -0.023989297 0.0020725483 0.006651814 0.006105451 0.007831512 0.023246352 -0.020417245 -0.015509201 0.036773294 -0.0319561 0.019079085 0.00337726 0.0031206158 -0.015467552 -0.024882806 0.010475792 0.0007331664 -0.0014469743 -0.009710505 -0.03754969 0.012367701 0.0058955806 -0.01553073 -0.010315181 -0.0076936153 0.005259614 -0.03952897 0.032310124 0.0069205193 0.03577942 -0.0012044652 0.011565027 -0.008922304 0.0054784277 0.018157413 0.033508904 -0.0036040081 0.030102659 0.026590383
149 0.025165303 0.0017024697 -0.026165385 -0.008523975 -0.019882986 -0.011683151 0.0070839403 -0.02811377 0.009052703 -0.007557009 0.012616718 -0.017296104 0.0025498313 0.008351741 -0.006118515 -0.01147895 0.03236991 -0.02338606 -0.022955265 0.017209077 -0.021250658 0.015392117 0.0008506575 -0.008211563 -0.012516144 -0.021960165 -0.00011016168 0.0043177838 0.0068874354 -0.0066451533 -0.022177683 0.007256741 0.0048686257 -0.010836819 0.0016912278 -0.006817455 0.005509529 -0.04492807 0.019834043 0.018546103 0.032448873 0.0018921099 0.007825181 -0.00481965 0.0035757427 0.004197065 0.018860066 -0.0057322155 0.020784367 0.022368148
49 -0.001644242 0.0028353762 -0.0152795715 -0.013309008 -0.016656762 -0.009719352 -0.005415606 -0.022810517 -0.00014939319 -0.013668675 0.01690772 -0.019315543 -0.005526728 0.022827057 -0.008811782 0.008062956 0.036254525 -0.031449545 -0.025406955 0.018204268 -0.016575556 0.022827856 0.00079950836 -0.0057127248 0.0033982564 -0.013321258 -0.010745596 -0.0006893908 0.0044525326 -0.02799543 -0.0015713966 0.0058627706 -0.005603345 -0.0020983177 -0.00793469 -0.025643101 0.016779449 -0.023620898 0.01145351 0.010581658 0.036553822 0.0077506145 0.0058581512 -0.0063823634 0.011167993 0.0043388554 0.027639555 -0.0117585845 0.02999441 0.03341646
241 0.0062293555 -0.015495956 -0.020747015 -0.010389018 -0.0059809764 -0.0048154467 0.0059766597 -0.033444587 -0.0030700583 0.001731959 0.020523328 -0.0239628 0.0006408964 0.01899414 0.009078038 -0.008127246 0.030856669 -0.027548771 -0.030233605 0.01284041 -0.029980432 0.023442354 -0.0012099938 -0.0056532724 -0.0022126306 -0.0145088965 -0.007934791 -0.012084945 0.00925758 -0.021706332 -0.0021934703 -0.0024994083 -0.00021369463 -0.016392611 -0.016533783 -0.025777873 0.007948273 -0.028141635 0.024493512 0.019880526 0.019123182 0.008933806 -0.006075155 -0.022708066 0.004295899 0.008961227 0.029995527 -0.013590766 0.034097493 0.02925828
256 0.036722198 -0.005693923 -0.024835784 -0.01443932 -0.0037909125 -0.017811364 -0.000120255216 -0.029792663 -0.008658743 -0.010304636 -0.0025945073 -0.0038832927 -0.0082688425 0.0030916543 -0.0076358165 0.0073078517 0.014473159 -0.035071976 -0.020344807 0.014783687 -0.022755947 -0.00019532842 -0.006984254 -0.004872532 -0.021477839 -0.031740054 0.0063684 -0.01281246 -0.010655415 -0.015322786 -0.028686775 0.007682734 -0.010086038 0.0025090498 0.00039173668 -0.005436426 -0.0032812064 -0.033687837 0.038855962 0.031008534 0.039797734 -0.003726212 -0.009461415 -0.013076776 -0.011758243 0.022246558 0.041105907 -0.0011758237 0.02134824 0.037805315
233 0.03677576 0.006936312 -0.009746274 -0.009753254 0.0013781013 -0.021369098 0.0091074295 -0.023814475 -0.00061923586 -0.01930009 0.0037657868 -0.0066179177 0.0075729196 0.019358404 0.004875287 0.010044892 0.01211616 -0.030531358 -0.016188767 0.030869447 -0.037425183 0.01092914 0.0046404265 -0.0054770657 -0.01442838 -0.03942598 0.0021649776 -0.014664857 -0.0075611686 -0.004234565 -0.02658818 0.0023353351 -0.008038583 -0.012057401 0.0059532085 -0.008933831 0.002816024 -0.040080942 0.030279385 0.02260614 0.04709919 -0.001926078 -0.007029803 -0.024891308 -0.011719614 0.027199853 0.042245552 0.0038193166 0.02994984 0.03899612
254 0.024262322 0.0018399317 -0.02243192 -0.0038255416 -0.014602461 -0.019595655 -0.004584349 -0.038329426 0.0025372177 -0.012502493 0.0036202131 -0.02012618 -0.00479954 3.687399e-05 0.001210859 0.0015197259 0.032214954 -0.02024787 -0.007564637 0.018207831 -0.025369016 0.016653093 -0.0017443877 0.0024261314 -0.017141063 -0.029108629 -0.0049940604 0.0047255205 0.0072247656 -0.0059525315 -0.019693268 0.0029731176 -0.008866536 -0.0064678323 0.0011349096 -0.008220145 0.003159937 -0.0440183 0.017366633 0.009752326 0.039261047 0.0019910152 0.0051362617 -0.007452406 0.0077382545 0.004615702 0.020018807 -0.019396577 0.027732924 0.024552058
231 0.00933936 0.0035916476 -0.020034213 0.0004877268 -0.0023842966 -0.019462701 0.009255793 -0.027996555 0.005340618 -0.0145721 0.0054999613 -0.02302513 -0.0029873268 0.01554904 -0.004005371 -0.0014476611 0.032722294 -0.0099606635 -0.025109604 0.033235703 -0.018410435 0.011336081 -0.008457074 -0.011338402 -0.008414519 -0.03584997 -0.00013164894 0.0069083413 0.006648099 -0.014828175 -0.017562166 -0.0017617269 -0.0021379322 -0.009773883 -0.0077117276 -0.008203807 -0.0001969886 -0.041613575 0.023021668 0.019392982 0.038691312 0.01621038 -0.0061816634 -0.024856081 0.0037271292 0.0063605933 0.025450727 -0.020459551 0.018396474 0.0111154625
217 0.022150293 -0.013642661 -0.02849922 -0.0025526336 -0.016794087 -0.013168117 0.0017706692 -0.039357528 0.007785551 -0.013392131 0.0040768785 -0.02397985 -0.004815038 0.0014410976 0.005374782 -0.001688797 0.029940726 -0.025227128 -0.018152328 0.025163867 -0.018846923 0.015406005 -0.011716967 -0.014209504 -0.0056486623 -0.028604569 0.0010036982 0.012598189 0.009779864 -0.015183545 -0.028342381 0.0012360984 -0.002090271 -0.013907246 0.0047640707 -0.01776711 0.007358392 -0.034294944 0.018036129 0.019841995 0.023226878 0.0052621504 -0.004998596 -0.009244759 0.010189128 0.015975751 0.02890663 -0.0010260192 0.019520234 0.018642562
68 0.022693297 0.00404152 -0.025318172 0.0060549467 -0.010703804 -0.017140703 0.014048795 -0.014613751 0.011710744 -0.0066850535 0.0074542435 -0.01369535 0.007554017 0.012676948 0.0071553946 -0.0122472765 0.03113169 -0.014661866 -0.020430658 0.019961676 -0.018776862 0.007601563 -0.0038018336 -0.010613913 -0.008893291 -0.021155668 0.008556516 0.0023205641 0.0024147104 -0.008030287 -0.027961887 0.01440466 -0.0077696834 0.0090893125 -0.013812455 -0.003800342 0.0065789497 -0.036583476 0.02581322 0.01389179 0.019353647 -0.003953823 -0.009186981 -0.014159509 -1.9163452e-05 0.0073583 0.020375378 -0.015608339 0.014382483 0.021547271
73 0.020291563 -0.0038478512 -0.018756725 -0.0033875073 -0.00030518888 -0.027108042 -0.007378941 -0.02812045 -0.007838868 -0.008680082 0.0031146156 -0.01634433 -0.0073312297 0.0033013008 -0.0065035666 -0.002152868 0.017175555 -0.022588199 -0.021184532 0.021452859 -0.018565197 0.005014714 -0.007315106 0.00415143 -0.007289689 -0.021838492 -0.004663676 0.0009572486 0.015165721 -0.0051569915 -0.01911466 0.014708552 0.0040182034 -0.005602574 -0.008578833 -0.017004086 0.01342446 -0.023122188 0.026028289 0.019812092 0.030653128 0.0074770595 -0.007546058 -0.0143930465 0.0071593183 0.00091632945 0.026222847 -0.0023435564 0.011643133 0.018867567
155 0.020547826 -0.00988979 -0.021652421 -0.008599671 -0.0003331364 -0.022744061 0.0049333093 -0.039155986 0.013743564 -0.0056701903 -0.0069211056 -0.016530551 -0.00058426807 0.003205632 0.011184472 -0.0062898546 0.03209398 -0.0073770853 -0.024743097 0.033545565 -0.026457615 0.005214896 0.005631922 -0.011800523 -0.022828188 -0.03445629 -0.0018963229 0.009213308 0.011776506 -0.013610928 -0.03139687 0.006376803 0.0062638214 0.00586378 0.006541992 -0.0118695935 -0.0024285403 -0.029897764 0.025446866 0.027171738 0.035850942 0.008036922 0.009689855 -0.019732106 0.00590838 0.01598954 0.03408692 -0.0050205877 0.024394296 0.016557788
6 0.0060030837 -0.015754117 -0.025888834 -0.0037594293 -0.010636491 -0.0143377585 -0.005626528 -0.02534893 -0.005699609 -0.0046800757 0.010991326 -0.0077333124 -0.014011555 0.012232081 -0.0025507167 0.005605608 0.036020663 -0.020702338 -0.02438184 0.030308235 -0.022626951 0.00046371837 0.0040578614 -0.0014070518 -0.009116027 -0.028798245 0.006770436 0.004254176 0.0069200555 -0.007922555 -0.014975766 0.010526019 -0.0017904713 -0.0039273826 0.002930982 -0.004998616 0.004525247 -0.03950134 0.023991559 0.008792032 0.03272695 0.0127804885 0.00486043 -0.0042070765 -0.005796079 0.009111197 0.031137483 -0.017634537 0.023678394 0.012310663
251 0.020512538 -0.009008943 -0.020522969 0.0062992526 -0.005742884 -0.025830952 0.00445077 -0.021449376 0.010708021 -0.006573759 0.0018287713 -0.020032173 0.008126966 0.021082083 0.003144618 -0.0013083201 0.033660874 -0.016739242 -0.008051311 0.017276311 -0.019881709 0.016586982 0.00892121 0.0038966127 -0.0050028884 -0.02574377 -0.0013678513 0.00010357476 0.0015780211 -0.011819756 -0.019610565 0.014552965 -0.0020405732 0.0036090082 -0.005108495 -0.018940074 0.005375935 -0.038345266 0.01952889 0.016803432 0.033534158 -0.002861273 0.006234013 -0.011594606 0.012779406 0.008505791 0.026797239 -0.008624115 0.013343655 0.023955569
5 0.012657319 -0.009957684 -0.010775463 0.00053122535 -0.018997528 -0.022487404 -0.0056033377 -0.024952983 0.0021516294 -0.009446492 0.0006992848 -0.0052786865 0.00410362 0.0070561734 0.010347034 -0.0020515765 0.032907464 -0.021812368 -0.01257724 0.02061446 -0.018927492 0.010651278 -0.006246252 -0.004135168 -0.01214363 -0.020519465 -0.0020863432 0.007004133 -0.0012623973 -0.015950253 -0.023939747 0.017691838 -0.0055441787 -6.3025743e-07 -0.0064768298 -0.008610506 -0.0047594206 -0.036056638 0.014364236 0.012518489 0.03262759 0.0065419073 0.0041222293 -0.009305232 -0.0058325324 0.0018869148 0.016436463 -0.007884176 0.008857725 0.011648569
258 0.0049585477 -0.014716051 -0.02509907 -0.006935926 -0.00046361377 -0.024514358 0.007805772 -0.020142803 -0.0046643186 -0.004279327 0.011463665 -0.009416478 0.0033244824 0.013287085 -0.0005739419 0.0066642556 0.02714345 -0.01808633 -0.007255121 0.0120337 -0.029100837 -0.0002593842 0.0028310674 0.0021906265 -0.009186968 -0.021457365 0.00225088 -0.0055866684 0.009879261 -0.01562725 -0.012224172 0.008910284 -0.0075437077 0.0069033904 -0.010443601 -0.023559771 -0.00541577 -0.030136555 0.026612377 0.0036650542 0.032471575 0.016427642 -0.0021500555 -0.018594522 0.0011490999 0.0074991547 0.023360955 -0.0005943407 0.014747299 0.015767792
278 0.018284066 -0.0030028159 -0.008422591 -0.0008446483 -0.00010741999 -0.023603646 0.011971 -0.016417542 -6.723749e-05 -0.022254739 0.0020147609 -0.021266432 0.0009963217 0.015761226 0.0027811876 -0.00527606 0.028730042 -0.012450836 -0.006058924 0.019412408 -0.023353672 0.017773626 0.008770554 -0.009884306 -0.015207496 -0.03297988 0.013907521 -0.0013093663 0.014204876 -0.004865633 -0.020628588 0.007079154 -0.005163407 0.0011373798 -0.0056271604 -0.010271457 -0.0004069395 -0.024837933 0.02401808 0.010154009 0.028393326 0.0018788578 0.0008947767 -0.010819191 0.009555189 0.010386123 0.028781423 -0.009264273 0.013344001 0.0102261
257 0.022562193 -0.0050308513 -0.026795637 0.010826366 -0.012668462 -0.026307229 -0.00084066606 -0.01997092 0.007437965 -0.009566016 0.008077126 -0.009155959 0.0014782958 0.00696086 0.007132282 -0.003282644 0.024022035 -0.02083277 -0.018019943 0.011349176 -0.026618738 0.010876177 0.010993851 -0.011242659 -0.00033929868 -0.01894666 -0.0044961707 0.010138395 0.010815863 -0.019516278 -0.022750147 0.011405211 -0.0033223757 0.001358645 -0.0018481248 -0.0116949165 0.013339181 -0.037784047 0.020315852 0.012031714 0.021353697 0.01172941 0.0107292645 -0.01515699 9.6098476e-05 0.0034359882 0.0121662365 -0.0036202131 0.020857649 0.026999502
238 0.0064554885 -0.011074741 -0.010642699 0.00376844 0.00011390707 -0.011504123 0.004204788 -0.020019958 -0.0036768874 -0.018998388 -0.0016311557 -0.004248429 -0.010490016 0.001921268 0.0021836136 0.0043337834 0.019304104 -0.01102469 -0.02183785 0.009426027 -0.011215581 0.0015874323 -0.0044857915 -0.0017072328 -0.0046183136 -0.024167508 0.012020581 0.0048260856 -0.00036073683 -0.0059346957 -0.022431586 0.0061213844 0.0011932498 0.0076229866 -0.002139733 -0.01608014 0.0017399741 -0.022327311 0.027933016 0.020717312 0.019855741 0.0018621084 0.00631643 -0.010726018 -0.0035721674 0.00094232376 0.018113896 -0.002620231 0.0051833484 0.005171092
130 0.024012541 -0.008994754 -0.0143948905 0.004849429 -0.0010804436 -0.022643033 0.004822047 -0.02447878 0.0027195287 -0.008672937 -0.0016235458 -0.018763559 0.0067871814 0.010265356 -0.0007253837 -0.010785137 0.030345978 -0.02803103 -0.024796965 0.021317597 -0.027976267 0.005624055 0.00626937 -0.0009262673 -0.004494261 -0.029181162 0.006089944 0.0014283251 0.0018857514 -0.013119836 -0.024195783 0.009509595 -0.0005854523 -0.008985216 0.00557649 -0.016752213 0.0079180645 -0.026059195 0.015612519 0.008808772 0.020892462 -0.001968353 0.0015282433 -0.017553492 -0.0075666113 0.017396089 0.02675782 -0.010481606 0.023945617 0.017161928
57 0.0033708583 -0.009987399 -0.012486988 0.00775814 -0.017784242 -0.014117652 0.010692603 -0.020638613 0.0017796013 -0.0059786914 0.0011287837 -0.0037666368 -0.009238529 0.0067514805 -0.0020644085 0.0061003435 0.03482284 -0.011496838 -0.01947321 0.020696998 -0.019313855 0.005500894 -0.004943508 -0.0104466425 -0.019033168 -0.026638793 0.011755008 0.0057498165 0.011676248 -0.010230068 -0.009871489 0.00023869466 0.004455291 0.004869671 -0.010444695 -0.0135700945 0.0019352877 -0.02940094 0.02598742 0.010358454 0.024128227 0.0025633103 0.0023022594 -0.01715734 0.0037321916 0.0019440597 0.013330526 -0.008248125 0.017740147 0.010827355
147 0.0056173448 -0.008483615 -0.010972967 0.008910073 -0.0028449574 -0.025494302 0.009914426 -0.026799485 0.0056953197 -0.011988002 -0.00031232595 -0.01380565 -0.015574459 0.0003546461 -0.0001900133 -0.010884071 0.037655864 -0.022058278 -0.010983732 0.01947891 -0.023949875 0.0026419451 -0.010351734 -0.013191132 -0.02236623 -0.023353966 0.012102885 0.010190689 0.00016453887 -0.006822435 -0.01838589 0.015311655 -0.004435519 0.00010085152 -0.016273836 -0.007683841 0.0054775365 -0.03023849 0.034372598 0.021484904 0.023341088 0.0004288857 0.007974357 -0.0048042866 -0.002792374 0.010609909 0.01619543 -0.02233857 0.016202752 0.013092767
212 0.0169485 -0.009493329 -0.020147316 0.0032197086 -0.009204632 -0.014981983 -0.0062888805 -0.025077663 0.010541658 -0.013365095 0.001974167 -0.021339765 0.0063890843 0.005547063 0.0016579016 0.0005990749 0.018587854 -0.019712988 -0.014460393 0.016910473 -0.021572055 0.019855553 -0.008409931 -0.0022378487 -0.011884204 -0.022079349 0.0074261925 0.0077586723 0.013334448 -0.005546867 -0.023715677 0.008085025 -0.0045098215 -0.009164698 0.0012950316 -0.0061280318 -0.005952042 -0.034154106 0.021387 0.021921134 0.019412437 -0.002477482 0.009640221 -0.007936048 -0.0012601987 -0.0005533553 0.019126372 -0.004675667 0.01309956 0.022283373
3 0.010841511 -0.012226196 -0.02590662 -0.002918488 -0.006661427 -0.012495243 0.006983948 -0.013814752 -0.004639562 -0.01973223 0.0019094171 -0.019548358 -0.012217893 0.014686688 0.0058479714 -0.009015252 0.03108407 -0.024869708 -0.015865568 0.011680474 -0.01341935 0.0048942347 0.0015981281 -0.007849448 -0.0143270455 -0.021614939 -0.0031172005 0.0010551588 0.0022717 -0.013202527 -0.024735678 0.0015911978 -0.008569502 0.0023708937 -0.0017011199 -0.0151889445 0.004718321 -0.026001561 0.012525643 0.014148168 0.018343655 0.0054393737 0.0045875544 -0.020738432 0.00031089305 0.013011417 0.011442504 -0.016230948 0.026700001 0.009248705
275 0.021819945 -0.006675685 -0.029290114 0.009448771 -0.0025286595 -0.024693407 -0.004127533 -0.034695428 -0.008097601 -0.013476281 -0.0009477617 -0.02638887 -0.0007908855 0.004582868 -0.0039516287 -0.006051587 0.030720687 -0.019439239 -0.01482471 0.03561921 -0.021531636 0.021527402 0.009507021 0.00045397837 -0.005767651 -0.03882445 0.0048047355 0.009879596 0.0068446584 -0.006417104 -0.03640959 -0.0013743041 -0.0004134263 -0.002623356 0.0050770366 -0.012126042 0.0055498257 -0.048294336 0.025726264 0.020119142 0.04125462 0.0016581861 0.00356295 -0.01718533 0.00068922015 0.010265313 0.032493956 -0.0033624512 0.027164899 0.030387232
308 0.020644663 -0.011638688 -0.02043833 -0.0034969863 -0.009085259 -0.014921148 0.003047658 -0.021745415 -0.002593684 -0.018521242 0.006331483 -0.014046942 -0.0098358495 0.0035400593 -0.0013667305 -0.0057698567 0.013471844 -0.013720679 -0.020644339 0.02847244 -0.021220395 0.019588077 0.0070991977 0.0051660254 -0.007883672 -0.032534953 -0.0010883715 -0.0018435032 0.008540493 -0.01785177 -0.016597848 0.0029170914 0.002636667 0.004447624 -0.0065540485 -0.009174144 0.009699195 -0.025128352 0.009298265 0.013328297 0.029744552 -0.0017945942 0.0026986897 -0.013040704 0.011741655 0.008983956 0.026648168 -0.013659649 0.021263426 0.011457256
7 0.008260707 -0.015296951 -0.016122734 0.007618439 -0.008514283 -0.018703416 -0.0015103933 -0.027132751 -0.008322841 -0.020477256 0.0075072465 -0.013941493 -0.0006341081 0.010195036 0.007578296 0.0067966497 0.03846664 -0.028149942 -0.017552223 0.03558537 -0.037859034 0.004232225 3.6392696e-05 -0.0054017245 -0.007453786 -0.032685947 0.0014077191 -0.0046733175 0.014093169 -0.02250507 -0.031032981 0.009612242 -0.0065794373 -0.0132815195 -0.011792487 -0.02751048 0.01225201 -0.0319999 0.016761482 0.023083908 0.034964427 0.009223721 0.00062585983 -0.016525041 -0.0022149782 0.015212121 0.032195214 -0.0104553765 0.016361056 0.01604585
110 0.022646466 -0.0006030833 -0.0068643703 -0.010199779 -0.004318266 -0.008494269 0.010263835 -0.033998992 0.008967069 -0.02460986 -0.0043588923 -0.01866801 -0.010229244 0.01576647 0.006204221 0.0055424515 0.03463918 -0.026883602 -0.015188778 0.030266037 -0.028604068 0.012993204 -0.0073335646 0.0017159435 -0.01008199 -0.02091148 0.0014276118 0.0051790914 -0.0017211604 -0.015908435 -0.011709816 0.01499259 -0.008718564 0.0054535205 -0.010239134 -0.023654174 0.008538449 -0.028397376 0.0311675 0.01228603 0.02172314 -0.0029537322 -0.0066506118 -0.021356905 0.0064367745 0.0018735656 0.023219857 -0.017540222 0.01529885 0.015062025
150 0.018982697 -0.008805064 -0.013051585 0.0054634423 -0.013438462 -0.023906954 0.005965112 -0.02663014 -0.0017667084 -0.013233974 0.006975313 -0.015189476 0.005890995 0.0067106066 0.0062932624 -0.0087215705 0.02096991 -0.021530584 -0.021793619 0.013881515 -0.023022171 0.010743885 -0.00795968 -0.014187003 -0.012845117 -0.022816926 0.0013431006 0.00039766738 0.004453979 -0.014115723 -0.016929535 0.010155792 -0.0008027132 -0.013769017 -0.004687457 -0.017439898 0.009789287 -0.029440464 0.018142141 0.010154535 0.025307205 0.009079273 0.0054517672 -0.00928112 -0.0056951446 0.012890273 0.026189182 -0.004128884 0.013062487 0.015837522
