333 50
67 -0.006559472 0.081511326 0.00055028667 -0.031668056 -0.0051733856 -0.029356642 -0.0034431962 0.006539725 -0.07963584 0.0012183879 -0.02562029 0.018647514 0.048572358 0.01062605 -0.042937286 0.028255153 0.06384618 -0.0036295624 -0.061661255 0.0088656945 -0.016917465 -0.017567042 -0.022370227 -0.044764306 0.07029001 -0.027128508 0.02955909 -0.009428424 -0.0077968007 -0.07733817 0.014276246 -0.00058761175 0.015945667 0.019852571 -0.06981226 -0.029453967 -0.034435045 0.06844926 -0.01137405 -0.03486873 0.011720047 0.039289217 -0.030025734 0.012691971 -0.027808908 0.026469788 0.0513615 0.03731794 0.029313844 0.009240758
277 -0.0037315772 0.08944157 0.006058963 -0.04002949 0.0143679455 -0.030583061 0.00442729 0.013130549 -0.07722771 0.0038532936 -0.030403862 0.006418618 0.057947285 0.011606384 -0.04690909 0.019477474 0.06929 0.00093305134 -0.07636547 -0.0029848039 -0.008448793 -0.016262533 -0.024019837 -0.040523738 0.08660632 -0.029838443 0.033286568 -0.021031674 -0.010688229 -0.08130332 0.021469688 0.0067131184 0.012236169 0.0077186767 -0.08470321 -0.036414094 -0.045599364 0.060542177 -0.0017654789 -0.023426093 0.021017885 0.036487848 -0.025792213 0.017426848 -0.04095419 0.03162274 0.05072573 0.045522526 0.035905164 0.018423231
25 -0.0008557588 0.057171553 0.010429425 -0.035492957 0.0019580675 -0.034162007 0.004112087 0.014772304 -0.06165691 0.0011615255 -0.012294857 0.014867813 0.049473226 -0.0040022875 -0.04505597 0.027680798 0.058260906 -0.0025602921 -0.060506366 -0.0080457 -0.01893978 -0.019678457 -0.017880498 -0.039013486 0.06077928 -0.029174767 0.013926322 -0.012024214 -0.003238075 -0.070836596 0.009690765 0.009703281 0.016595071 0.012698704 -0.0720402 -0.038076095 -0.026680209 0.058311038 -0.0007812212 -0.029449098 0.013894834 0.036458828 -0.02141016 0.001849738 -0.03814987 0.023099171 0.040596396 0.03785035 0.027531495 0.0017420604
304 -0.0030108565 0.07928445 0.004619743 -0.028946353 0.008287241 -0.042422585 -0.002295826 0.009668689 -0.07435322 0.012144929 -0.023636092 0.004586247 0.04874291 0.0071466947 -0.04633806 0.024061782 0.06685222 -0.005042769 -0.07587435 0.010252274 -0.017747791 -0.02918383 -0.013523202 -0.031397257 0.07530866 -0.030812686 0.028852545 -0.024046684 0.0029800131 -0.070598714 0.020669725 0.001276218 0.01724825 0.0073166247 -0.07137713 -0.022809675 -0.035040203 0.06328996 -0.014446735 -0.034421287 0.012747327 0.027146494 -0.022772428 0.0052796053 -0.030338695 0.011231817 0.044484526 0.029639285 0.01890959 0.0041212738
271 0.00021098905 0.065831706 0.015615477 -0.033878237 0.014254583 -0.035906292 0.0039564497 -0.00012912386 -0.06487106 0.013754338 -0.018390844 0.014175449 0.036492772 0.008596022 -0.04223831 0.021311758 0.07350321 -0.0034786714 -0.07104242 0.0046670265 -0.0042874506 -0.013705161 -0.025345031 -0.03653189 0.0634097 -0.038770165 0.027517362 -0.025049312 -0.0028845875 -0.06339752 0.01900435 0.0120714 0.01691743 0.018299215 -0.064969264 -0.02702741 -0.030569566 0.059557125 -0.012566947 -0.02013291 0.007935795 0.03865334 -0.02737729 0.01066844 -0.036740065 0.025094552 0.039792795 0.025471043 0.014445505 0.016969848
252 0.0040860306 0.07797489 0.00112501 -0.030032497 0.0062836213 -0.029265745 -0.010780781 0.011116556 -0.07078677 0.0062155663 -0.025482042 0.01917642 0.041737195 -0.0040767966 -0.032741226 0.013369508 0.06503028 -0.009632948 -0.073686145 -0.007819514 -0.017318113 -0.013925091 -0.0101878885 -0.036976896 0.06986297 -0.032010037 0.027248764 -0.02502762 0.00052617455 -0.07652544 0.006900527 0.011635872 0.023903867 0.006520907 -0.081310414 -0.034712665 -0.028182978 0.05987862 -0.012943838 -0.025425265 0.021170221 0.029009273 -0.030766547 0.012575709 -0.02688785 0.010393906 0.048078917 0.035235435 0.025416052 0.01451944
26 0.003712216 0.07034412 0.018442871 -0.022117939 -0.0024521684 -0.045306668 -0.007383499 0.018123329 -0.069891505 0.004768016 -0.016677948 -7.878612e-05 0.046198532 0.0002706472 -0.038914815 0.027199112 0.0725494 -0.016164016 -0.08049703 -0.009104086 -0.016420173 -0.023450531 -0.012560079 -0.04686354 0.0762519 -0.03799946 0.029013533 -0.01207914 -0.00070456776 -0.082943246 0.008809271 0.003167204 0.013120741 0.0143015105 -0.07733416 -0.023831772 -0.042395037 0.052896384 -0.0010069278 -0.016082028 0.01030269 0.038037136 -0.03326375 0.017522732 -0.041446876 0.025341634 0.046386182 0.04274547 0.020583156 0.012868401
322 0.0043367324 0.08178044 0.015556633 -0.035051677 0.007950128 -0.037988193 -0.00926517 0.011277209 -0.072629124 -0.0027117964 -0.032787073 0.011982152 0.053408075 0.0038539162 -0.03188866 0.02161427 0.06111202 -0.01606762 -0.06516233 0.00498362 -0.0060784416 -0.02687444 -0.02797834 -0.038564995 0.075694725 -0.03505728 0.017553864 -0.025212605 -0.015366479 -0.079897486 0.015258464 0.0002517965 0.017083606 0.018971814 -0.06750096 -0.032654986 -0.034676984 0.066444956 -0.009072151 -0.02444071 0.016883183 0.039085615 -0.028586052 0.020199345 -0.030841498 0.029218405 0.051492676 0.030331979 0.013440273 0.018125188
119 -0.0076391627 0.08159789 0.014372021 -0.037282225 0.009366833 -0.03462585 0.005640537 0.009330749 -0.0776974 0.013000533 -0.035558924 0.009052733 0.053546105 0.0015936882 -0.04140952 0.02552525 0.085083455 -0.0044464846 -0.087776884 0.003191291 -0.018480048 -0.017500425 -0.019494565 -0.050582808 0.07285568 -0.03948665 0.033363067 -0.0166809 0.0006674714 -0.08241003 0.018137863 0.006430819 0.023800375 0.017084887 -0.08955561 -0.03274745 -0.046514142 0.057138804 0.0009794261 -0.028129876 0.010279621 0.031341806 -0.025230855 0.016796444 -0.041561563 0.019076671 0.046988085 0.04447935 0.020910306 0.015072248
23 -0.0076713744 0.09117605 0.0002872789 -0.03428114 0.014711278 -0.04160498 -0.0036722224 0.0020965645 -0.085431226 0.010335781 -0.03928248 0.0063557015 0.056481577 0.0054530925 -0.050385166 0.01943932 0.07447468 -0.0027021177 -0.09053849 -0.009691392 -0.023681246 -0.017037373 -0.014819668 -0.044276997 0.07989552 -0.03113383 0.020250877 -0.024621656 -0.010938279 -0.099731565 0.0210279 0.013506639 0.0139035415 0.013768864 -0.08224117 -0.034557126 -0.040312514 0.063963994 -0.00184418 -0.038651045 0.029648323 0.028649908 -0.03128687 0.015386196 -0.029546123 0.031764194 0.058054376 0.043483816 0.038900312 0.015896928
56 -0.006015449 0.064944945 0.01227626 -0.016403409 -0.0047525163 -0.03411262 -0.00872137 0.01576765 -0.048921473 0.006547607 -0.013542756 0.016155533 0.042692248 0.014017831 -0.036042448 0.024481889 0.051849175 -0.01182833 -0.0651704 -0.007172947 -0.012853181 -0.021447992 -0.01463931 -0.030821936 0.05911493 -0.018722037 0.022366626 -0.015050769 -0.003908041 -0.049934544 0.0030819185 0.0142809255 0.021790836 0.016120141 -0.057505347 -0.029339574 -0.03022525 0.055800743 -0.0017661441 -0.012915174 0.00926504 0.01711768 -0.026768 0.0026829184 -0.015517027 0.010613886 0.04031049 0.028179381 0.009232346 0.014136628
122 -0.011231164 0.056488384 0.009373447 -0.011925223 0.0051045157 -0.015457193 0.0034218212 0.011276262 -0.046470057 0.0023980818 -0.0062149055 0.004510002 0.03932704 -0.004874331 -0.02594984 0.025595643 0.03882886 -0.0046288925 -0.048362497 0.00031148113 -5.9240712e-05 -0.0033681642 -0.005702123 -0.035856456 0.048255797 -0.015824901 0.013118433 -0.018306678 -0.012302577 -0.05709709 0.0071116695 0.013992295 0.018199544 0.006349206 -0.047834545 -0.019395305 -0.032444723 0.035496265 -0.0006903152 -0.027406009 0.013468923 0.014808195 -0.020683108 0.015475937 -0.0144456895 0.010553337 0.027400654 0.026565338 0.0066342345 -0.00021568451
239 -0.010351677 0.060933836 0.008637618 -0.03293008 0.013721372 -0.032869395 0.0041187173 -0.0006554132 -0.074458234 -0.00063044264 -0.024278786 -0.00015832263 0.049287587 -0.0018075984 -0.0371799 0.016596531 0.07356105 0.0005151075 -0.07341771 -0.0025970004 -0.006414958 -0.010241659 -0.010707147 -0.03313404 0.05847788 -0.038774334 0.018772546 -0.019300539 -0.0068019433 -0.065027975 0.013462171 0.002781246 0.019949904 0.020167544 -0.07721971 -0.03003165 -0.023719398 0.04876349 -0.0013787583 -0.018734269 0.01377018 0.03823225 -0.036693648 0.008903068 -0.03304759 0.027225507 0.044172645 0.032659154 0.027645158 0.013612231
203 0.0070441845 0.059900213 0.010749751 -0.014038529 0.00433351 -0.030887753 -0.008276606 0.007472575 -0.056781992 0.014260015 -0.016772687 0.01490925 0.031100014 0.008387798 -0.02129372 0.01584214 0.05012862 -0.013491613 -0.056361035 -0.005981805 -0.014780232 -0.021894641 -0.011776957 -0.024604872 0.042398136 -0.01868165 0.02709676 -0.016146211 -0.0077788844 -0.045682773 0.007013911 0.0061349096 0.017564349 0.019057047 -0.053644028 -0.013140036 -0.025848769 0.051365122 -0.0025887352 -0.026881792 0.017995464 0.02981346 -0.020702314 0.0005757268 -0.024786228 0.015550312 0.031253513 0.024032677 0.011281652 0.0074352925
19 -0.012693537 0.066830255 0.015517536 -0.031732466 0.0062910398 -0.041535843 0.0015083731 0.00087499403 -0.055436417 0.0073373937 -0.019390592 0.006951337 0.04156576 0.00933245 -0.033573005 0.013416025 0.0693666 0.002376019 -0.07377766 0.00394289 -0.007651594 -0.012349095 -0.021031508 -0.046082307 0.074976325 -0.0349036 0.032015502 -0.009291856 -0.0064527625 -0.079036 0.008634959 0.0057909535 0.016022224 0.016909147 -0.0645858 -0.03677501 -0.03999083 0.049256753 -0.006185689 -0.034032203 0.005898894 0.03545587 -0.034779612 -0.0005071924 -0.03912979 0.011897492 0.049263604 0.038577728 0.031206626 0.020499613
21 -0.009015406 0.079769015 0.0077733877 -0.026942475 0.011839412 -0.034245234 0.0018075164 0.015860345 -0.06608302 0.013347717 -0.026238028 0.011862142 0.04183539 0.0023358886 -0.043595955 0.014134227 0.0698382 -0.016923908 -0.07829875 0.006669075 -0.018976338 -0.027572887 -0.021854034 -0.04630414 0.08156144 -0.03553399 0.028970072 -0.007392649 -0.0090433005 -0.08188872 0.001756391 0.014497601 0.015475212 0.009874736 -0.082424216 -0.029381307 -0.028823545 0.06718458 0.004323201 -0.022119954 0.023852237 0.04232567 -0.02269979 0.0044173934 -0.03907564 0.02077921 0.043673676 0.031927314 0.020844307 -2.524935e-05
9 -0.004203122 0.057557855 0.0040963264 -0.029566288 0.013224707 -0.03878333 -0.00011102518 0.006842248 -0.06645963 0.0020279346 -0.02337561 0.012261181 0.040599234 0.015316256 -0.0378486 0.013752218 0.055076707 -0.0039524445 -0.05926861 0.009291296 -0.006634024 -0.013224923 -0.025499662 -0.038608793 0.061956856 -0.03328284 0.019245777 -0.008125346 -0.014857816 -0.06670876 0.014221123 0.0070886686 0.023315355 0.021510893 -0.06720186 -0.022781406 -0.02388337 0.04749628 -0.0057385764 -0.022163594 0.020822959 0.02445089 -0.018184895 0.014497188 -0.025417365 0.016199699 0.036980376 0.02317543 0.02316993 0.015725754
188 -0.0014765152 0.051611926 0.0019491301 -0.023745159 -0.0010588184 -0.025986087 -0.01100103 0.015220588 -0.04344513 0.0004975711 -0.008291506 0.0076732934 0.026861537 0.008631842 -0.022655388 0.0100931665 0.05802463 -0.0020838806 -0.057642207 0.008841799 -0.010375324 -0.018299565 -0.02058961 -0.038818248 0.052298855 -0.032443486 0.025783747 -0.007088833 -0.0034426502 -0.05190685 0.004530822 0.00170883 0.004323193 0.01935942 -0.057970624 -0.021496853 -0.032476183 0.052566 0.000812376 -0.020717567 0.0046550785 0.020808034 -0.03136332 0.00955996 -0.0154940635 0.014449423 0.030690568 0.03301385 0.014809238 0.005713014
115 -0.007276943 0.07091643 0.004327996 -0.021182569 0.007983868 -0.02063855 -0.0008638165 0.006239196 -0.060823273 0.007920364 -0.018689059 0.008956824 0.052063476 0.010778934 -0.029947374 0.01402039 0.06640317 -0.013658914 -0.062361367 0.005084111 -0.0066073616 -0.021692343 -0.024507916 -0.028430345 0.05901984 -0.033621896 0.022153785 -0.021832032 -0.012874588 -0.06775698 0.010004874 -0.0003285309 0.0031201742 0.01374796 -0.06848131 -0.029404147 -0.026979838 0.04945399 -0.014367367 -0.029068518 0.02293831 0.02648649 -0.035566475 -0.0003062246 -0.03517202 0.022261389 0.038516827 0.02469791 0.025777023 0.012281255
230 0.0047292677 0.06399693 0.014967324 -0.035887025 0.0053910175 -0.0372611 0.0048453994 0.009892682 -0.057189226 -0.0005638822 -0.029942794 6.891834e-05 0.052609146 -0.0045838286 -0.03200457 0.020646846 0.061689124 -0.012503982 -0.06973878 0.00067584746 -0.0025646656 -0.015753817 -0.02244693 -0.049313974 0.07341675 -0.030917902 0.025531303 -0.0087967785 -0.010012292 -0.069831304 0.02079205 0.00042511002 0.0024801001 0.008338267 -0.07473673 -0.036295675 -0.022377754 0.056335073 0.0054637003 -0.017084014 0.013087422 0.024894677 -0.031171491 0.019134985 -0.03235041 0.021861844 0.051997453 0.0261405 0.029944899 0.0077170106
312 -0.013343245 0.07840662 0.009195739 -0.036104698 0.00868498 -0.025921753 0.0009525708 0.0006395487 -0.066235915 0.01693568 -0.016577784 0.010473253 0.04900587 0.010437311 -0.035142336 0.025063017 0.07058562 -0.0021351688 -0.08082807 0.010658516 -0.0015214776 -0.01712436 -0.025081446 -0.03630173 0.07882793 -0.035866812 0.018637648 -0.026843524 -0.008156208 -0.08859016 0.019176139 0.017337434 0.01585543 0.013562845 -0.07506098 -0.026206946 -0.025805475 0.06615356 -0.0053061014 -0.03222137 0.017025962 0.039264083 -0.02746435 0.013262734 -0.026089363 0.021266673 0.050042048 0.036668893 0.02360541 0.020708531
323 -0.010061885 0.07071083 0.0010087973 -0.033923984 0.0077893105 -0.025102798 -0.009987989 0.0063454364 -0.06132382 0.002068718 -0.018775454 0.002841286 0.05284133 -0.0013047034 -0.045801245 0.020402849 0.055516206 -0.013584127 -0.0612057 0.0008334014 -0.017938044 -0.019778375 -0.02616299 -0.045001794 0.062199812 -0.026590612 0.029813092 -0.022005746 0.00085867586 -0.06828936 0.019950014 0.013980636 0.0060851467 0.0054516275 -0.07457209 -0.026979078 -0.023754202 0.05426014 -0.010207641 -0.024483826 0.014112998 0.029170532 -0.027800422 0.005680844 -0.03417787 0.018452354 0.04189725 0.032276947 0.0141493045 -3.9410996e-05
315 0.006652277 0.06103076 -0.00028589123 -0.031008137 -0.0051451083 -0.035829224 -0.008959087 -0.0019740893 -0.07209746 -0.0031011878 -0.031233119 0.01705967 0.050852176 0.009258204 -0.045610398 0.019453678 0.0661902 -0.00772375 -0.06950959 -0.0050817095 -0.018428436 -0.01096285 -0.019339614 -0.038271803 0.059735086 -0.024799855 0.02753369 -0.014166587 -0.00914871 -0.07648106 0.0126828505 -0.00077677786 0.01842284 0.013429038 -0.063509695 -0.026589975 -0.023127165 0.04939854 -0.007143981 -0.014867684 0.025568068 0.026368221 -0.030876081 0.020053843 -0.024293719 0.021263756 0.046925887 0.033581 0.02674408 0.007853921
326 0.0029569818 0.059011374 0.009738169 -0.023411829 0.0059656743 -0.021341918 0.001161792 0.0056857914 -0.06978236 0.014865979 -0.011639697 0.008070369 0.049296603 0.003705361 -0.038851473 0.024616793 0.06096591 0.0013076707 -0.06462326 0.00932048 -0.0073116953 -0.0150522925 -0.008337562 -0.03824754 0.061666433 -0.03646727 0.016699847 -0.02345368 -0.014738676 -0.06766964 0.0101871425 0.0032767276 0.015378016 0.017523646 -0.07229973 -0.017382087 -0.027472086 0.05127498 -0.014582064 -0.017000344 0.0192129 0.016448524 -0.018193094 0.0046723313 -0.036748704 0.015947474 0.035866138 0.037281398 0.017151369 0.008821466
227 -0.015323477 0.09225357 -0.0019171837 -0.043670602 0.00888211 -0.045302738 0.0021102182 0.014814572 -0.07131707 0.0038581598 -0.034575574 0.014238756 0.061987046 0.008941269 -0.048591428 0.025442516 0.08349454 0.0006092172 -0.072425015 0.0048109055 -0.011402098 -0.016623694 -0.027893962 -0.045568172 0.08713439 -0.0351772 0.027650695 -0.020630592 -0.0049226233 -0.09305551 0.019055495 0.016585741 0.017552055 0.021256436 -0.07621045 -0.041915517 -0.035467662 0.07158416 0.0019097683 -0.033791926 0.016555453 0.03721812 -0.044847474 0.0035806147 -0.04136041 0.017980088 0.04197079 0.03920456 0.036283184 0.016051315
285 0.0030091854 0.07581947 0.017206661 -0.03530576 -0.0045840084 -0.025830505 -0.0058737267 0.007482134 -0.056533694 0.0042324583 -0.031564694 0.010528362 0.045384094 0.010537633 -0.048227075 0.026048185 0.06615423 -0.004607188 -0.06444442 -0.0091224285 -0.008362454 -0.01939805 -0.021092558 -0.037099358 0.07327626 -0.031358484 0.022953762 -0.0063882 -0.016338337 -0.06398993 0.011097688 -0.0037342554 0.017901158 0.014084421 -0.06984692 -0.039611988 -0.035907824 0.045555405 -0.0015794194 -0.02934477 0.022319091 0.02016526 -0.033653866 0.017540695 -0.02857146 0.011381999 0.03603027 0.030852463 0.013591152 0.015641004
170 0.007661824 0.059564073 -0.0002564 -0.026770653 0.001905391 -0.03704781 -0.0086727105 0.012477223 -0.06472072 0.0042947545 -0.013266522 0.0035270297 0.03539308 -0.0027080842 -0.027752027 0.011251461 0.046884585 -0.0038185294 -0.05650465 -0.004986826 -0.0067671114 -0.021165451 -0.010193576 -0.027842866 0.063848056 -0.027988948 0.0151620535 -0.014479585 -0.002105395 -0.056927923 0.010366008 0.014926095 0.013302164 0.013535311 -0.06904187 -0.030774955 -0.032407768 0.05010762 -0.004579532 -0.025472326 0.01675327 0.026517954 -0.02433376 0.009944185 -0.018829271 0.016594302 0.046495643 0.035943426 0.009980646 0.0124096805
213 -0.010104165 0.057588845 -0.0019157731 -0.018038617 -0.0065665855 -0.029967314 0.008616641 0.0065335324 -0.06498479 0.0016938399 -0.017366681 0.006792211 0.037819892 0.011386603 -0.029771877 0.011433569 0.049633764 -0.0016883091 -0.053216405 0.009303998 -0.013273577 -0.018387502 -0.017247302 -0.03386096 0.062492266 -0.03159458 0.015074847 -0.0152478125 0.00078024 -0.061971683 0.018600333 0.012548738 0.013962936 0.019463602 -0.055002697 -0.025170524 -0.028246615 0.04548402 -0.0015828091 -0.018551245 0.012941907 0.02264977 -0.020121332 0.01775197 -0.024103321 0.015349786 0.046660006 0.029846983 0.012498821 0.0018466034
142 -0.000640884 0.06479767 0.0073991483 -0.01859045 0.007257427 -0.028118413 0.0043480066 0.013763418 -0.055465784 0.0141616585 -0.011969676 0.0100940475 0.04588507 0.00555653 -0.030297222 0.012166675 0.06577864 -0.012124728 -0.05159961 0.00060427 -0.010819614 -0.017129207 -0.010365087 -0.025590746 0.066723764 -0.02612803 0.02620057 -0.012326349 -0.0028209614 -0.06171539 0.004586178 0.0037202153 0.013664884 0.013199014 -0.05321383 -0.0341481 -0.027499456 0.0396686 0.0048667053 -0.029161304 0.0070966887 0.01642289 -0.02115525 0.00626989 -0.036032517 0.026915466 0.037848067 0.027176775 0.009326943 0.0067832684
118 0.004341132 0.058675554 0.012895552 -0.03335069 -0.004780062 -0.029605778 0.002454216 0.0101336595 -0.06973499 0.007410593 -0.024651395 0.015258791 0.04048984 0.0113675175 -0.03182799 0.010780654 0.06629934 -0.009615442 -0.051121157 0.00022958365 -0.01568935 -0.012769269 -0.019125551 -0.03911635 0.06798671 -0.027392898 0.01739149 -0.010297086 -0.010387219 -0.061965156 0.013628138 0.0013817429 0.009398538 0.015021972 -0.055452283 -0.019274777 -0.030146906 0.04280356 -0.011181451 -0.026726961 0.010214324 0.020722587 -0.032924008 0.0060098907 -0.032246955 0.011671872 0.044658862 0.035054997 0.013040219 0.009613312
280 -0.007996572 0.067099534 0.001652513 -0.031114569 0.011723557 -0.039363146 -0.0016647917 0.010146207 -0.050917514 0.01515624 -0.029319778 0.01139025 0.046266522 0.011503644 -0.030573018 0.02283701 0.05826598 -0.012865832 -0.068346284 -0.0054027718 -0.021030592 -0.018702175 -0.012838619 -0.03803559 0.058481958 -0.020563507 0.022013634 -0.022557426 -0.008390679 -0.0592595 0.018932942 0.012887717 0.016946713 0.009296146 -0.06226352 -0.021392848 -0.031330377 0.056777928 -0.005617081 -0.029283842 0.020763282 0.020693937 -0.033691153 0.0049884864 -0.021131247 0.023944644 0.048595946 0.024796013 0.019817134 0.0002446306
272 -0.00047716376 0.07865592 0.0058694356 -0.03626817 0.0044926074 -0.022707326 0.008206216 -0.002684886 -0.061381914 0.0012994466 -0.026127672 0.0085546635 0.04873272 -0.003209669 -0.049874008 0.028096693 0.0724898 -0.008593075 -0.060311973 0.0054469616 -0.016063498 -0.022618921 -0.009358779 -0.043565817 0.07278272 -0.03554654 0.014411123 -0.024077207 -0.0010345565 -0.07844201 0.011043391 -0.0016826416 0.0050263503 0.01706563 -0.061860327 -0.04027854 -0.03501686 0.06280439 -0.004727546 -0.019947492 0.008052971 0.03352295 -0.026565459 0.009309372 -0.035473954 0.01056922 0.037207257 0.031028787 0.030488297 0.01907011
329 0.0063889823 0.065080024 0.0061056693 -0.026452132 0.0017517852 -0.035133563 0.0003018778 -0.003508588 -0.068944275 0.007531249 -0.012187351 0.001063734 0.047046907 0.0038244962 -0.041857533 0.027145214 0.06730411 -0.0013151461 -0.059686553 0.0056569437 -0.0040414063 -0.0140554635 -0.022917734 -0.039367095 0.058982536 -0.040523753 0.02470742 -0.015848763 0.00057932263 -0.07520663 0.009403032 -0.0019166857 0.016465195 0.020067746 -0.059867993 -0.036007926 -0.020309234 0.05255097 -0.00778678 -0.018417196 0.023353072 0.027319053 -0.022516128 0.011001695 -0.03641314 0.010160651 0.048203114 0.040225644 0.025951955 0.013712447
199 -0.0110202525 0.061654676 0.0044056773 -0.023019979 0.011687018 -0.025664857 -0.0018957802 0.015311827 -0.048482664 0.015955236 -0.010057573 0.016844282 0.03750618 0.004803145 -0.04077947 0.020375181 0.050365094 -0.005606343 -0.058536515 -0.0025743647 -0.016628833 -0.014259458 -0.017846337 -0.042243525 0.060851905 -0.031951897 0.017361335 -0.022885555 -0.0025579997 -0.07155315 0.0025369064 0.008825761 0.014551641 0.007975303 -0.068919376 -0.032152694 -0.023365913 0.03849497 0.0050900895 -0.011649428 0.015425734 0.019590545 -0.031448573 0.00668892 -0.026622549 0.025059419 0.0427782 0.03590219 0.009547481 0.015811518
41 -0.012381284 0.054945283 0.012100353 -0.028312426 -0.0023799855 -0.028156057 -0.007511587 0.011402377 -0.06518281 0.0106533235 -0.025858074 0.011504551 0.038210407 -0.0028503276 -0.032154176 0.01465212 0.067577735 0.0044404482 -0.064704485 -0.007954141 -0.0061181393 -0.02015719 -0.016719325 -0.029711463 0.0681267 -0.024751699 0.014409742 -0.004517522 -0.0077977083 -0.075345986 0.009754384 0.00085954036 0.009901059 0.023143508 -0.071224384 -0.030089889 -0.034120735 0.059551913 -0.0037772076 -0.02054225 0.019521125 0.021233851 -0.022450816 0.0062344475 -0.019961944 0.014843829 0.03133234 0.019529212 0.022803752 0.002124664
98 -0.004849575 0.068169996 0.010064143 -0.024310945 0.010954345 -0.019389328 0.0017570035 0.012721938 -0.06329052 0.013320099 -0.022514591 0.010466111 0.031953298 0.009808915 -0.043750647 0.024444697 0.046268795 -0.012256733 -0.056486845 0.008508403 -0.0030344087 -0.023339003 -0.0057725306 -0.034793437 0.06403106 -0.02324147 0.020467205 -0.019770326 -0.013897335 -0.0667225 0.014221551 0.0061717285 0.006377097 0.015739312 -0.058055837 -0.03483979 -0.03419195 0.053146265 -0.005356877 -0.020679226 0.0234991 0.030921793 -0.021744559 0.004480304 -0.024319712 0.017721724 0.03097565 0.018566927 0.011466495 0.00837325
172 0.0016462791 0.05654251 0.00458004 -0.024659676 0.0058882204 -0.023952648 -0.0078088245 0.007861681 -0.060323033 0.0009926612 -0.011263155 0.0029932456 0.04723549 0.0036098459 -0.046623684 0.024296382 0.058908913 -0.0014732658 -0.06956293 0.009725441 -0.011752708 -0.02710809 -0.025638267 -0.032404292 0.064847656 -0.03132739 0.014940356 -0.0093585225 0.0019780272 -0.06449274 0.013186386 -0.00296068 0.014266256 0.015139162 -0.07031288 -0.031389277 -0.0327965 0.058176953 -0.0065065683 -0.023259977 0.024197575 0.03595702 -0.019836452 0.015064797 -0.02252386 0.00997526 0.046197962 0.023438819 0.023093572 0.0106961755
324 -0.002959393 0.059585348 0.0065892483 -0.024165863 0.0047287326 -0.029240258 -0.0050440114 0.007136446 -0.05248498 -0.00022216249 -0.010441672 0.0011360142 0.048166513 -0.0008255743 -0.032487135 0.02064433 0.065920606 0.0036381232 -0.054196037 -0.004900227 -0.008749134 -0.014331427 -0.0059451167 -0.03619762 0.06470329 -0.02478608 0.024341397 -0.019825155 -0.009342786 -0.062965564 0.0034736348 0.0029179682 0.011231298 0.011134388 -0.06649605 -0.033020306 -0.030531907 0.047805544 0.004363679 -0.017694626 0.021760283 0.028919743 -0.03422204 0.0076355683 -0.032050133 0.01135283 0.035310335 0.037803736 0.01088893 0.007535835
192 -0.010250042 0.06715209 0.0030783624 -0.025731545 0.012910449 -0.02178194 -0.011321239 0.0139613785 -0.068406604 0.010789013 -0.026376208 0.014736969 0.0397327 0.00961334 -0.032788973 0.033069205 0.070924886 0.0040531796 -0.057193834 -0.0026276633 -0.012527759 -0.02035512 -0.0066553825 -0.044114016 0.073772326 -0.032395523 0.03162656 -0.0112973945 -0.0028991618 -0.07800401 0.018657882 0.010441835 0.015121828 0.0050941184 -0.06395546 -0.045321286 -0.020403307 0.047029473 0.0015175276 -0.031570453 0.006367236 0.020001328 -0.028940745 0.006130804 -0.023042409 0.022860838 0.04681152 0.032044668 0.012468948 0.0178732
332 -0.000718004 0.061029546 0.011838468 -0.021579225 -0.0062346854 -0.025208745 -0.0026060592 0.0026281395 -0.060836874 0.0013801324 -0.024147805 0.008682814 0.035721343 0.0130215315 -0.0378704 0.0098200785 0.055202104 -0.0072608786 -0.06050275 -0.0021189728 -0.013496809 -0.0066407854 -0.0053794337 -0.029141715 0.046108954 -0.019456096 0.027019463 -0.005402834 0.0044490006 -0.062985286 0.013341128 0.0050407993 0.003172716 0.02153521 -0.047696847 -0.018560616 -0.03163441 0.036472738 -0.0041939896 -0.012510837 0.0043831123 0.031415995 -0.028240677 0.008072934 -0.015215174 0.014542399 0.04095193 0.021541927 0.0149218235 0.010965755
214 -0.010015817 0.07191656 0.012803639 -0.034369506 0.012253595 -0.021180991 -0.004737629 0.0070507983 -0.05646241 0.00025203326 -0.021000788 0.00828177 0.051219966 0.015860308 -0.044853173 0.028485753 0.053317193 0.003167793 -0.06885925 -0.0058597545 -0.01277995 -0.02422312 -0.012195268 -0.042269465 0.06151958 -0.029654205 0.021454163 -0.0142764365 -0.004702961 -0.07675649 0.008881004 0.015782319 0.0173071 0.013641497 -0.07677829 -0.032661863 -0.031839043 0.04666784 0.0005129218 -0.034230977 0.011843463 0.037513994 -0.027847849 -0.0009293201 -0.038637564 0.017512051 0.04273353 0.022694396 0.0151871415 0.013456467
113 -0.007476556 0.060148504 0.013700865 -0.032840844 0.008650474 -0.03176349 -0.0010545672 -0.0024919284 -0.055254545 0.013233458 -0.010319701 -0.0016369906 0.032916125 0.0036429516 -0.045106992 0.026812587 0.054581027 -0.009897845 -0.06676639 0.0030531108 -0.019822117 -0.025463115 -0.015625332 -0.025536481 0.053101376 -0.025365135 0.02979369 -0.017702127 -0.013746418 -0.07235589 0.005139501 0.00023780757 0.023262797 0.015536405 -0.063577525 -0.024117108 -0.036485024 0.045405693 -0.011743811 -0.017272033 0.016351497 0.02985518 -0.020774161 0.016862806 -0.02947953 0.017030561 0.036939617 0.024618898 0.022868818 0.014097235
116 0.0021781153 0.051526494 0.0008696328 -0.019593041 0.006542432 -0.030627644 -0.0038619565 0.0154466415 -0.063858524 0.012641076 -0.028626045 -0.0008987873 0.04321455 0.0034342674 -0.025140714 0.01457508 0.050972793 -0.0020025966 -0.056641478 0.003597164 -0.007833027 -0.01358065 -0.012191718 -0.036508918 0.04954408 -0.035720006 0.024914721 -0.010129201 -0.010416035 -0.06721161 0.015994392 0.012278715 0.00040545227 0.022187866 -0.051844604 -0.0213217 -0.022316365 0.05722517 0.0016780484 -0.016913692 0.006492316 0.033421595 -0.029418744 0.00571889 -0.023311751 0.025945991 0.0393557 0.024422154 0.012441221 0.013146624
88 0.003006442 0.075123176 0.0069983434 -0.021885764 0.0030246626 -0.03865375 -0.011197097 0.017222425 -0.070877254 0.012922585 -0.028220318 0.015538224 0.052986085 0.010827689 -0.04517121 0.01403829 0.06056625 -0.00021893834 -0.064034306 0.0036145062 -0.0033517752 -0.02112338 -0.006193379 -0.034784127 0.055254184 -0.020609323 0.022716777 -0.011512618 0.0024510534 -0.06472808 0.011019197 0.008000575 0.022478823 0.018785179 -0.05945349 -0.031341456 -0.02467951 0.053005405 -0.014043354 -0.013895137 0.011777507 0.024211735 -0.021868268 0.018163025 -0.025896674 0.0097288545 0.03334708 0.026891187 0.03112374 0.013098635
49 -0.012378334 0.07888478 0.011891754 -0.037071075 0.016961643 -0.020021565 -0.00038787123 0.011026643 -0.07979463 0.012636088 -0.024728639 0.0021454585 0.043041293 0.010610921 -0.039876133 0.02223202 0.07695539 -0.006863058 -0.057598036 0.0043415343 -0.023714047 -0.026627753 -0.02552508 -0.029417137 0.08033743 -0.03905418 0.014316138 -0.009597832 -0.009285852 -0.0807971 0.0016089488 0.007728292 0.00706361 0.0133725 -0.07366807 -0.0435415 -0.0378323 0.058346983 -0.0060701757 -0.03131252 0.011882047 0.02625844 -0.015583318 0.0024186054 -0.017880537 0.018061047 0.047576822 0.040391978 0.027195634 0.004959609
40 0.0001612887 0.06002267 0.0006840104 -0.024495762 0.00869402 -0.02291429 -0.0012917289 0.011706576 -0.05058893 0.00806711 -0.017908264 0.01571507 0.042494796 0.007862332 -0.029071169 0.022162305 0.04195673 -0.010450863 -0.061468534 0.0041688024 -0.0040882193 -0.012962155 -0.01624811 -0.03862421 0.05091366 -0.0329447 0.017402442 -0.005193227 -0.007177732 -0.04895932 0.01568382 0.008782981 0.004242067 0.01897318 -0.061353758 -0.02504251 -0.015079099 0.03963748 -0.0009457421 -0.022170154 0.018854609 0.031233745 -0.012956456 0.016999815 -0.027982982 0.007489815 0.038755182 0.01831179 0.013272293 0.011909821
236 0.007513853 0.061881196 0.015591939 -0.030018711 0.002593614 -0.027747666 -0.004788391 -0.0014458201 -0.061319593 0.007630412 -0.021646615 0.008040452 0.039410904 0.013847799 -0.030841773 0.009131635 0.04442716 -0.008500496 -0.05151136 -0.0032493486 -0.019215047 -0.024691863 -0.016305478 -0.034617778 0.06300086 -0.021719487 0.018542824 -0.013163128 0.0014912916 -0.05407177 0.004090781 0.0140665965 0.011595362 0.017961908 -0.046658248 -0.020067573 -0.01803196 0.03885454 -0.0058027995 -0.0140252365 0.015024312 0.019773666 -0.025066199 0.0042297295 -0.025629407 0.018659027 0.041109752 0.02803922 0.020530175 0.014481025
99 -0.0029833703 0.07459255 0.0049128532 -0.027694 0.0066438024 -0.026623564 -0.0019098048 1.3953654e-06 -0.05357821 0.012940884 -0.012312207 -0.0010658405 0.041999962 0.00973476 -0.045073736 0.0287576 0.06289541 -0.008980292 -0.06702667 -0.007893716 -0.00655436 -0.022963092 -0.0057728 -0.02747168 0.06437764 -0.027717995 0.027240949 -0.017581897 0.0013864897 -0.072388545 0.003838534 0.013549556 0.017877212 0.010136841 -0.050580572 -0.01914746 -0.020759301 0.059222758 -0.00933799 -0.031139418 0.019035669 0.03230939 -0.03196546 0.002840025 -0.022558538 0.0072346455 0.025683232 0.03629033 0.017959578 0.0033101072
200 0.0058268337 0.05800088 0.013439487 -0.022701506 0.0030553173 -0.029869096 -0.0035392465 0.0022380105 -0.055178374 0.01044499 -0.008628603 0.010630755 0.044684622 0.0013571313 -0.025633518 0.017888203 0.055726346 -0.0023557078 -0.046740197 -0.0061589517 -0.0029284593 -0.01917533 -0.022247761 -0.019795993 0.056373734 -0.01978662 0.022215407 -0.010121392 0.0031572434 -0.04745765 0.014781236 0.0076445015 0.021107437 0.014029374 -0.06411225 -0.016696457 -0.018944886 0.05204288 -0.008392678 -0.013812006 0.019811127 0.027156442 -0.01672162 0.008714634 -0.019205797 0.02012794 0.027805863 0.019307058 0.021365426 0.00039935086
186 0.0034108036 0.042437457 -0.0021590553 -0.021650815 0.0011170022 -0.025973778 0.0045324895 -0.0028499453 -0.038835533 0.0013912121 -0.017375607 0.014450217 0.024334976 0.0016996021 -0.034915414 0.021707313 0.053441472 0.00056759664 -0.04956432 0.010324296 -0.0044244784 -0.022246383 -0.020320063 -0.033325545 0.0522545 -0.027462251 0.005206323 -0.008044848 -0.008534497 -0.04376115 0.015901025 0.014150368 0.00092590065 0.007799992 -0.0433279 -0.012884943 -0.012351039 0.03960833 -0.007584511 -0.0076613915 0.008970188 0.0165955 -0.019251842 0.01575018 -0.013178432 0.013375503 0.036961757 0.023539852 0.019197796 0.015365609
137 -0.013204267 0.069094926 0.018024622 -0.035203055 -0.005909952 -0.038963515 0.00041355603 0.00806225 -0.0681324 0.0062411334 -0.024975993 0.018691761 0.050230518 0.004344368 -0.037230983 0.019022021 0.06617588 -0.007540257 -0.06316909 0.002829644 -0.014648545 -0.015820222 -0.023559047 -0.037590303 0.06031524 -0.028243855 0.0154972775 -0.022314655 -0.014131097 -0.07351275 0.011982805 0.0012978913 0.018655747 0.023249757 -0.06888312 -0.026064806 -0.020680401 0.048485674 -0.010368188 -0.022306843 0.013320525 0.030153066 -0.03600957 0.013297806 -0.041051216 0.020729287 0.05195204 0.040451843 0.015057289 0.01473651
313 -0.001029097 0.05179434 0.008589385 -0.02365382 -0.0045793434 -0.03378752 0.0061642006 0.011831559 -0.050222173 0.004139832 -0.023334106 0.0031514522 0.034973558 0.006901278 -0.03931311 0.014058495 0.06181212 -0.010211347 -0.05044063 0.004572175 -0.0033910633 -0.0070050135 -0.008553706 -0.029315976 0.051102567 -0.031123322 0.022922289 -0.01772956 -0.0061418423 -0.06705151 0.0006841343 0.01220824 0.01225856 0.00933584 -0.05625817 -0.019208973 -0.031068899 0.04432516 -0.0052695787 -0.021204138 0.019459073 0.035566047 -0.021280136 0.017280055 -0.019827303 0.012128935 0.045912776 0.022142231 0.013438052 0.012419643
319 -0.014269454 0.0745931 0.00036709252 -0.02627453 -0.005990657 -0.02807052 -0.007952035 0.013994397 -0.059112098 0.0010818349 -0.018494625 0.014470676 0.048326805 -0.00085614325 -0.037181262 0.02612234 0.06583038 -0.0021834597 -0.053442735 -0.0015394604 -0.019344386 -0.0076781274 -0.012641426 -0.04770636 0.060012966 -0.03568986 0.016559955 -0.023185099 0.0035374453 -0.068584576 -0.0025744014 0.007776319 0.013955402 0.0038906266 -0.063580304 -0.021638772 -0.01926666 0.050357588 0.0034450453 -0.03489938 0.01735148 0.016470281 -0.022008773 0.021333637 -0.037138883 0.02677923 0.039855618 0.031623095 0.030132435 0.004866169
325 0.0068496037 0.058454104 0.015086756 -0.030890768 0.0022679407 -0.032022495 0.0081309015 0.0051243627 -0.060004983 0.004863214 -0.024338732 -0.0008609891 0.04180701 0.012713433 -0.02788563 0.017995229 0.051312868 -0.009060895 -0.04457771 0.009299728 -0.008902115 -0.020015312 -0.01957937 -0.033712048 0.060636062 -0.026901938 0.0136235 -0.0051561054 -0.0031848536 -0.06577143 0.015405964 0.007917314 0.016628943 0.003693422 -0.050699074 -0.03185694 -0.031295907 0.05236683 -0.0007480657 -0.023156626 0.0064464523 0.019588035 -0.017558001 -0.0005961337 -0.01828911 0.018770788 0.02378657 0.02843859 0.0140782185 -0.00011259403
261 0.0005392069 0.062470384 0.0033186777 -0.032593194 0.009272466 -0.020068852 -0.006200387 0.00014848224 -0.06537361 -0.0029699744 -0.011937817 0.005261146 0.03999667 -0.0018155009 -0.03134013 0.021357987 0.04780791 0.00040757132 -0.056998853 -0.008580538 -0.0075880517 -0.008806681 -0.012592416 -0.038716882 0.05396956 -0.018648114 0.018717533 -0.019117607 -0.009817116 -0.05987249 0.0170181 -0.0040199235 0.017837686 0.018600719 -0.06644389 -0.023632372 -0.032405466 0.048228804 -0.0075211637 -0.027092885 0.008382914 0.016755326 -0.014463312 0.0038583204 -0.034721565 0.024099413 0.043291606 0.024841037 0.0095221205 0.014984709
80 -0.005448201 0.060056604 -0.0004708919 -0.023521032 0.0049241153 -0.02151559 -0.0010618344 0.00039558017 -0.070643775 0.014177485 -0.027758423 0.000504113 0.03804815 -0.0034577313 -0.033567343 0.014203693 0.056953017 -0.014950595 -0.06510601 -0.009666322 -0.018466145 -0.02172867 -0.010680473 -0.04049408 0.06935744 -0.02696457 0.022596348 -0.009742322 -0.010931119 -0.07346589 0.013837869 0.0135320835 0.0040343883 0.012454006 -0.06381664 -0.035397198 -0.031438734 0.060717974 -0.0046108477 -0.01440158 0.0184747 0.034645773 -0.030233312 0.0024876546 -0.030197589 0.009472167 0.04881736 0.035751693 0.024317728 0.012872517
109 -0.0062413695 0.050641116 0.0022241862 -0.028915541 -0.0058470876 -0.02737994 -0.006196633 0.008920743 -0.064861 0.0055990256 -0.028206548 0.0018986715 0.03469414 0.008373773 -0.03204266 0.013873651 0.063033625 -0.007917608 -0.048346475 -0.0045678145 -0.015318941 -0.017763248 -0.02023483 -0.03717431 0.062307343 -0.024458261 0.017088585 -0.019307414 -0.008661192 -0.0690365 0.0029352126 -0.003514117 0.0151934335 0.0125614 -0.05818333 -0.03408164 -0.035799794 0.053732436 -0.0017807795 -0.016632872 0.007692359 0.01632991 -0.015836112 0.017642224 -0.022953564 0.019592542 0.043670695 0.021192424 0.012171594 0.012607721
259 -0.0064501488 0.072875984 0.009510782 -0.013659874 -0.0062281564 -0.034801386 -0.0017011219 0.01044595 -0.049651165 -0.002896372 -0.014280749 -0.0015168763 0.04478184 0.011330222 -0.043951336 0.013592389 0.05478302 0.0036601503 -0.067660056 0.011573241 -0.013552157 -0.022601102 -0.007410783 -0.036177 0.058185797 -0.028552085 0.027950076 -0.012783792 -0.008209374 -0.06742895 0.00845484 -0.0005463194 0.006393133 0.01623457 -0.070563905 -0.031858984 -0.03480283 0.052171815 -0.0096913865 -0.021611253 0.020566994 0.018421685 -0.03141872 0.011138242 -0.023831304 0.011308505 0.04306148 0.024993936 0.031637043 0.018109
339 0.0014634456 0.072860256 0.01696854 -0.033716705 0.012015849 -0.038012456 0.009317003 0.0034313286 -0.071495116 0.004324978 -0.021918803 0.0025314153 0.03785681 0.010114039 -0.043548442 0.017667422 0.059243217 -0.0029397204 -0.06437774 -0.0002395314 -0.015001207 -0.011928467 -0.024852807 -0.04322356 0.06419588 -0.023449523 0.019964783 -0.013247327 -0.0048283725 -0.061541233 0.017207367 -0.0014707829 0.012812538 0.023505278 -0.07238338 -0.020524602 -0.03291155 0.047103494 -0.012110544 -0.024488447 0.02325998 0.0277448 -0.0341373 0.0067888293 -0.03471859 0.021787992 0.043784488 0.04012474 0.024143802 -0.0014276956
53 -0.010141119 0.05752805 0.01197607 -0.025885934 -0.0027966355 -0.021994783 0.0037933409 0.004028073 -0.06264461 0.009063564 -0.029327696 0.0049691605 0.044232525 0.0017238094 -0.043759543 0.008856224 0.045297675 -0.0038669882 -0.052908033 -0.0045754034 -0.02014873 -0.017459251 -0.013256979 -0.03967542 0.052438132 -0.020242648 0.023595665 -0.0077946982 -0.016479058 -0.06301752 0.007016338 0.0125688 0.003402355 0.0066516013 -0.05414935 -0.03563397 -0.019843675 0.05016385 -0.007789287 -0.018166596 0.02335762 0.032441802 -0.02452288 0.011649863 -0.01779185 0.02318349 0.037931573 0.026713688 0.01007315 -0.00027329824
92 -0.0069122864 0.07928306 0.009756042 -0.031702638 0.012922711 -0.0339941 0.00645887 -0.0020275463 -0.06508149 0.0002845696 -0.030942017 0.009396951 0.055762455 0.0011524357 -0.034607753 0.027757425 0.07123405 -0.008965584 -0.07496343 0.0046080365 -0.023984538 -0.014434823 -0.009608414 -0.040405277 0.077495165 -0.032952078 0.015246669 -0.021813177 -0.019855877 -0.075359754 0.014993738 0.00081626704 0.022934388 0.021863382 -0.07272288 -0.04026252 -0.030641712 0.068922885 0.0025183877 -0.035443045 0.014804295 0.022680292 -0.03307067 0.013850551 -0.036137406 0.015077847 0.04414076 0.038911626 0.021828923 0.014626696
82 -0.011648372 0.06285303 -0.00053908356 -0.027910506 0.007871869 -0.035991237 -0.0011134341 0.014011122 -0.062090114 -7.166808e-05 -0.02052142 0.010966654 0.03042069 0.0040557007 -0.027012028 0.009355654 0.04821522 -0.0049069184 -0.04394224 0.0038390316 -0.019941745 -0.016288197 -0.0058989627 -0.03236884 0.043826193 -0.02419819 0.010539238 -0.0028107923 -0.005662909 -0.056470376 0.008746954 0.004860477 0.015140829 0.0150409695 -0.06349241 -0.015767725 -0.019195152 0.04773293 -0.012463269 -0.024802383 0.010062547 0.029307775 -0.026220763 0.005398341 -0.03163188 0.015215687 0.04018414 0.024149278 0.025549168 0.0060143447
179 0.0013604722 0.075700134 0.0040871813 -0.015025332 0.013795148 -0.03221182 -0.0049537355 -0.0017775001 -0.082158804 -0.008914837 -0.01395244 0.021216098 0.03680193 0.0006297347 -0.047944143 0.03213389 0.07539565 -0.020791568 -0.06995858 0.004347053 -0.0017027941 -0.021528812 -0.019195337 -0.04395487 0.054100532 -0.03565486 0.025950028 -0.020084884 0.0025885333 -0.08284382 0.012175359 -0.0015126251 0.008436055 0.015814217 -0.06374816 -0.02952853 -0.023433052 0.047056045 0.0067150677 -0.037532844 0.025068253 0.022709493 -0.01732003 0.009420017 -0.017528301 0.012543708 0.04952304 0.026592715 0.023461375 0.0020424945
177 -0.006267922 0.06304105 -0.00092628394 -0.02875465 0.0021452226 -0.03629158 0.007294568 0.01445002 -0.050598364 0.015022233 -0.01825749 0.003782341 0.043514393 0.0019409482 -0.03857712 0.010337365 0.05834373 0.003600523 -0.062098537 -0.00088674366 -0.0030730464 -0.014818833 -0.00827845 -0.03708561 0.055662353 -0.03436133 0.011735786 -0.0061619766 0.003543235 -0.06191461 0.0020583828 0.0072962064 0.016259383 0.01929016 -0.056827933 -0.03019672 -0.034231998 0.049745854 -0.00017361852 -0.030318046 0.021201005 0.027731897 -0.029042969 0.018213816 -0.02641556 0.0117668575 0.043282084 0.036858078 0.025193885 0.0050749173
169 -0.0016656846 0.05221031 0.0006801042 -0.026468918 0.012720931 -0.029844113 -0.0059002475 0.013326105 -0.056643944 -0.0033657805 -0.015378509 0.0061344784 0.037268076 0.011047783 -0.038972765 0.024610633 0.06275998 -0.007776643 -0.05881534 -0.0020197143 -0.014054578 -0.017354216 -0.020210775 -0.03706594 0.062275566 -0.024500186 0.022931058 -0.0055620684 -0.00915693 -0.060729366 0.0056218207 0.014729879 0.014722826 0.004774448 -0.06487103 -0.02181116 -0.02451149 0.055925608 0.0011752743 -0.02532296 0.009081561 0.029967813 -0.02044168 0.0133931115 -0.027831128 0.02365609 0.036145043 0.020542111 0.025058946 0.0132665755
291 0.0049841865 0.049272146 -0.0017940265 -0.014327734 0.008373739 -0.034586217 0.0036210835 0.0063419417 -0.054712668 0.012479823 -0.020777667 0.0066136424 0.037631344 -0.0026257017 -0.03819758 0.011263926 0.046815258 -0.008415274 -0.054449707 0.007265444 -0.002606963 -0.014034012 -0.016733391 -0.035421383 0.05032641 -0.031499878 0.023998197 -0.016457437 -0.0128341485 -0.054047883 0.010636475 0.0057721883 0.015819764 0.0029089898 -0.06497463 -0.03205283 -0.029047726 0.043313112 -0.012225402 -0.009977977 0.023114841 0.029101249 -0.017117254 0.008120015 -0.030350365 0.020840937 0.04390599 0.015665302 0.009095356 0.0002869552
20 -0.0069690756 0.06378146 0.015318707 -0.02411241 -0.0012670186 -0.019017845 -0.010748088 -0.0043259803 -0.07030756 0.015495674 -0.027929157 -0.0021682556 0.05178898 0.004101959 -0.027590808 0.019201461 0.05372188 0.0022099533 -0.0645295 0.0012870844 -0.0062010367 -0.0187922 -0.003615906 -0.04434061 0.0621306 -0.040840074 0.017635811 -0.013876859 -0.001849092 -0.0731866 0.014499215 0.0014815006 0.017227361 0.007830942 -0.05625645 -0.023051443 -0.017778786 0.060318477 -0.012146938 -0.029497057 0.019967519 0.018185515 -0.02607093 0.012030798 -0.025818806 0.023608115 0.034531794 0.03537018 0.028202362 0.014950251
147 0.004596607 0.064830765 0.0010767195 -0.034088153 0.0004536936 -0.042653367 -0.00095530815 0.012455086 -0.05966958 0.00033455694 -0.007195997 0.015075425 0.035320185 0.0087724095 -0.049932692 0.013190309 0.0621576 -0.015235189 -0.059077647 0.007513393 -0.019791031 -0.023202581 -0.009709374 -0.038074493 0.06747004 -0.018632941 0.019788146 -0.007356135 -0.0090368055 -0.05928904 -0.00039407224 0.0068709054 0.0073077492 0.015631601 -0.06794728 -0.017050253 -0.034849014 0.05205334 0.003805811 -0.020040859 0.010714229 0.025374966 -0.026496422 0.021398986 -0.018310405 0.018535491 0.047368474 0.024645612 0.02151172 0.012366658
143 -0.0027493862 0.06944496 0.0026592945 -0.0345857 0.008669126 -0.032322634 -0.008702784 -0.0011802322 -0.06522417 0.008086784 -0.027906718 0.0021846618 0.048393 0.0045376075 -0.03835683 0.020741304 0.06594727 -0.010524608 -0.066489585 -0.0018185879 -0.020759355 -0.012229429 -0.020948628 -0.039361186 0.06445574 -0.024955738 0.028667508 -0.019173954 -0.015329896 -0.07836893 0.010927944 -0.0017524656 0.008229561 0.015854998 -0.0731503 -0.02591024 -0.025117232 0.05697525 0.0028242 -0.03482922 0.009165242 0.028821101 -0.03815026 0.017560938 -0.038097646 0.028436044 0.03330887 0.043354474 0.029204195 -0.002345448
343 -0.0043912632 0.059806112 0.0028327487 -0.01891377 0.0039365324 -0.036042254 -0.0010750034 -0.0003704789 -0.05339881 0.016772036 -0.020037336 -0.00033274334 0.036002263 0.012763686 -0.027719578 0.016847556 0.06426887 0.001064779 -0.06416081 -0.0014558992 -0.012112774 -0.006732348 -0.018304965 -0.03691899 0.054646257 -0.02971064 0.018946772 -0.01442284 -0.008653419 -0.060223974 0.004323067 0.005480009 0.014342936 0.01236712 -0.06782375 -0.022599485 -0.016584182 0.053466473 -0.0029082063 -0.015576969 0.007561358 0.029036654 -0.020558894 0.0005350523 -0.019036902 0.008390886 0.04557485 0.021944193 0.027038295 0.0043565407
141 -0.012251947 0.046337966 0.007423822 -0.013627781 0.009274708 -0.016264684 -0.0039894073 -0.0015915337 -0.042711496 0.009612716 -0.020833172 0.0013313259 0.025491903 0.009044882 -0.034687437 0.018874224 0.050866116 -0.0067080567 -0.050286785 0.00046939877 -0.013010278 -0.00899826 -0.014075163 -0.03691172 0.051129058 -0.019066636 0.011374538 -0.02130403 -0.0035974283 -0.06488116 0.01854837 0.004777434 0.020243794 0.0038599 -0.05303822 -0.03290258 -0.022851117 0.042453 -0.0034023952 -0.020473963 0.017664421 0.021125263 -0.031132633 0.006659474 -0.018599559 0.019935599 0.030525628 0.022588657 0.015291254 0.0012922877
342 0.005083627 0.03776216 0.012417669 -0.010601965 0.00533806 -0.016547818 -0.0019170205 0.0055240574 -0.04488585 -0.000388296 -0.014969801 -0.0030762197 0.027718775 0.0070932866 -0.019523676 0.007940112 0.04983272 -0.0083531365 -0.055620555 0.00057409226 -0.016416308 -0.022008624 -0.0046794806 -0.02892355 0.03786051 -0.012058117 0.0067468174 -0.012138099 -0.0034762325 -0.05015914 0.010327111 -0.0014102145 0.011316049 0.0040780636 -0.04781625 -0.02383976 -0.03107137 0.035835534 0.004043453 -0.014926881 0.020831445 0.024627684 -0.018984502 0.011636816 -0.020448131 0.008040823 0.028399793 0.030178417 0.008930225 0.0014275251
175 -0.0028364246 0.070051044 0.010689097 -0.016331121 0.008881387 -0.029882617 -0.0095553985 0.0010610817 -0.04651566 0.00031083167 -0.027006777 0.0061078025 0.02983907 0.009514404 -0.036420852 0.016488565 0.05637661 -0.012436067 -0.049253613 -0.0045156823 -0.016662523 -0.021929558 -0.020570504 -0.035492003 0.068083346 -0.021045025 0.015693182 -0.01742504 -0.005664096 -0.05879168 0.006435599 0.007970866 0.010022755 0.0036219896 -0.051310185 -0.025352808 -0.016785601 0.046358366 -0.002611172 -0.0128198005 0.019114971 0.022480642 -0.017273596 0.01818334 -0.03162799 0.020240637 0.031295635 0.032379165 0.025258832 0.0038194512
275 -0.0023343684 0.052358985 0.0048093228 -0.021988334 -0.005287269 -0.03408725 -0.0028939727 0.008446909 -0.067460574 0.008860735 -0.03353615 -0.0014662045 0.03967151 0.003014221 -0.039121293 0.025734367 0.049801636 -0.015301051 -0.056249455 -0.008468183 -0.010773168 -0.008301377 -0.021780675 -0.02833031 0.066799216 -0.030225107 0.012876213 -0.01897004 -0.0070863175 -0.06926172 0.016274406 0.00092179 0.0023164004 0.023296535 -0.06567473 -0.030332398 -0.023638466 0.05895305 -0.013970167 -0.031825166 0.026779689 0.03073958 -0.020407138 0.016988277 -0.028153695 0.026938431 0.039444946 0.02643387 0.01575314 0.0025466168
273 -0.003590496 0.0655912 -0.0012154017 -0.038645662 -0.0026633535 -0.023163887 0.0032947285 -0.0048225075 -0.06214591 0.008588795 -0.027233673 0.004440082 0.035874445 -2.943254e-06 -0.045460656 0.028740857 0.05737059 -0.00043239142 -0.06629125 0.0034410919 -0.01279904 -0.0127616385 -0.009085254 -0.03368566 0.06659869 -0.022501986 0.029933386 -0.011951939 -0.013408935 -0.071979605 0.007285314 0.0023884478 0.010823368 0.020887533 -0.07082781 -0.023110457 -0.03912404 0.06514476 0.0021736652 -0.034144543 0.014875608 0.032357898 -0.038257092 0.017912649 -0.030974433 0.026396006 0.036199983 0.027707903 0.029842267 0.01584456
249 -0.0037579609 0.06525882 0.010366193 -0.019419042 0.008606924 -0.02862417 0.002444862 0.010017088 -0.06963068 -0.00012385049 -0.013591291 0.0030971433 0.041380804 -0.0035488827 -0.041279543 0.013009285 0.0647216 -0.011580827 -0.06446207 -0.009838575 -0.005427355 -0.01716371 -0.011231548 -0.044890206 0.06026077 -0.034992058 0.018112315 -0.024515172 -0.009954632 -0.061393604 0.015453507 -0.0005994555 0.01110039 0.010748059 -0.0624261 -0.040709537 -0.03480329 0.05524691 0.0031904462 -0.03292475 0.02367703 0.019720575 -0.035395376 0.0027334213 -0.019955581 0.015197831 0.040618617 0.03162231 0.027180402 -0.0017353008
8 0.002892469 0.070493944 0.019152962 -0.023751562 0.004605409 -0.025243098 0.004889339 0.0014188974 -0.057500854 0.014265545 -0.013535183 -1.7495136e-05 0.050948318 -0.0032583778 -0.047509525 0.013776833 0.05454893 0.004541316 -0.05965745 0.015455395 -0.0137256915 -0.017720785 -0.024755364 -0.03507175 0.06964952 -0.033174943 0.027228754 -0.0048539224 -0.016623452 -0.0635469 0.005914403 0.014314048 0.0095964 0.008791297 -0.059264906 -0.021018216 -0.028888848 0.04636644 -0.016514508 -0.009045036 0.016286878 0.018392872 -0.028983353 0.02026677 -0.03657518 0.01666042 0.04542098 0.036840983 0.032144446 0.010760857
31 -0.011855736 0.068086915 -0.0005519632 -0.018396994 -0.004657401 -0.026759014 0.006657086 0.0026621667 -0.05425409 0.0053525236 -0.026220072 0.0027673806 0.036838543 0.0060566464 -0.04059891 0.014438811 0.061456904 0.000931854 -0.05688668 -0.00976284 -0.0014715969 -0.0065864995 -0.010217879 -0.026787873 0.061790917 -0.038388755 0.02419563 -0.023662897 -0.002376337 -0.06697 0.010821564 0.0059396336 0.0045475955 0.015535496 -0.06144167 -0.02428436 -0.02011883 0.047614224 -0.0072914697 -0.030270977 0.023830105 0.022742402 -0.03363637 0.01878393 -0.03619446 0.012734194 0.04757135 0.03524153 0.025903955 0.0016477101
184 0.005591876 0.071577415 0.008933239 -0.015421024 -0.0032893051 -0.03575875 -0.0021428748 0.00874495 -0.06972187 0.003328603 -0.010306666 0.005423714 0.037803393 -0.004219703 -0.032919567 0.009917808 0.06836087 0.0036927206 -0.05891301 0.010449746 -0.015198905 -0.025243744 -0.015194368 -0.027794743 0.0590929 -0.039254222 0.017143363 -0.02090878 0.0027282308 -0.065840125 0.0038780172 0.016297245 0.016635599 0.017737573 -0.060066964 -0.027608857 -0.033881307 0.055231635 -0.00848464 -0.026617667 0.018548688 0.032468878 -0.029296663 0.0043190205 -0.02972077 0.013964196 0.049280953 0.029467983 0.012019478 0.0054675313
173 0.003789012 0.068578005 0.015931765 -0.022301191 0.0129363425 -0.030276528 -0.0069976393 0.016662857 -0.060639862 0.001802399 -0.014977828 0.005881401 0.034412574 0.010412935 -0.045693103 0.025074875 0.067161515 -0.011647881 -0.06746512 0.0006516903 -0.020862086 -0.016959684 -0.008034985 -0.03299806 0.06827515 -0.03664918 0.025188312 -0.022421265 -0.015687522 -0.05424263 0.0103647 0.0064604236 0.018886138 0.021913284 -0.0622644 -0.03286267 -0.020795245 0.05432705 -0.00024010475 -0.031284664 0.024905834 0.026033059 -0.033323903 0.0036329192 -0.021379216 0.011454438 0.042146515 0.027628759 0.017900426 0.018679593
136 -0.0025795307 0.056856766 0.0004133991 -0.018403562 0.003146213 -0.029380856 -0.00081131235 -0.0032535875 -0.049623325 0.0060098534 -0.018043583 0.015325806 0.032746382 7.639659e-05 -0.03256444 0.023355056 0.055271145 -0.014153531 -0.052024756 -0.00029960976 -0.018435245 -0.008688352 -0.0018151758 -0.03007344 0.055613127 -0.020696828 0.010165092 -0.015746538 -0.010809987 -0.04608933 0.004056094 -0.0008105606 0.0033100029 0.012142027 -0.041978236 -0.019597294 -0.022473438 0.041306324 -0.0023325267 -0.027908007 0.011969259 0.029532945 -0.021285476 0.0026904996 -0.029372722 0.013624114 0.036628533 0.020120503 0.009373935 0.0060050357
242 -0.0038740681 0.050787937 0.014860166 -0.02470545 0.011647331 -0.018464563 0.0043764655 -0.0034653032 -0.06463666 0.0042155683 -0.021120952 0.0072401827 0.045313746 -0.0048364424 -0.04057598 0.007942388 0.046505746 -0.0022284368 -0.051774394 -0.008524621 -0.013991086 -0.019767176 -0.019565403 -0.022606457 0.06103326 -0.024257548 0.020022955 -0.007809027 0.002659738 -0.052965727 0.00043031923 -0.0026826626 0.0057299044 0.010555351 -0.058268886 -0.03305682 -0.023889488 0.04051052 -0.0056741633 -0.018257663 0.020300211 0.016334299 -0.021495482 0.0065297177 -0.03073466 0.008669474 0.038879294 0.035054278 0.013190464 0.010005168
204 0.00048078483 0.072677 0.012543008 -0.024784505 0.0021785554 -0.021392798 -0.006618133 0.011384121 -0.056913387 -0.00034032087 -0.03170644 0.0039679897 0.041570865 0.01197092 -0.041808907 0.02454564 0.055480465 -0.007258669 -0.06648917 0.0037239587 -0.016691476 -0.013673625 -0.012467092 -0.040095728 0.071054496 -0.035029687 0.024658846 -0.006836275 -0.014717661 -0.07237859 0.0025433248 0.0027559288 0.0035880078 0.018633941 -0.075745575 -0.024093006 -0.02813306 0.046219274 -0.0066103027 -0.031278234 0.017806675 0.035728943 -0.023303417 0.0002154797 -0.02624123 0.022363855 0.042915966 0.028217392 0.030113978 0.0012988235
265 -0.009974535 0.047975197 0.011177082 -0.025875524 -0.0064918795 -0.028531564 -0.00054251583 0.01328469 -0.04938865 -0.0040216423 -0.023140812 -0.0016284838 0.043967582 -0.003029912 -0.040771578 0.010404551 0.060681403 -0.0010681828 -0.05964406 0.0067885453 -0.009269589 -0.013313313 -0.021813404 -0.038196996 0.06274669 -0.024916789 0.020261569 -0.01801334 0.0019544961 -0.06255225 0.013105779 -0.004722428 0.01853126 0.0048455787 -0.06490315 -0.025528168 -0.03081851 0.049418572 0.0014873216 -0.012377692 0.017718932 0.024598636 -0.017083522 3.9477927e-05 -0.01620749 0.021975966 0.02628992 0.035719834 0.016728621 -0.001564055
211 0.002273073 0.05666322 0.011602702 -0.010231877 0.0005033498 -0.020326061 -0.009070693 0.012577329 -0.037871577 0.009232341 -0.012546529 0.015493441 0.028967699 0.010137903 -0.036759134 0.007420468 0.052651834 0.0044161277 -0.041186627 0.0041406252 -0.0032682717 -0.016790926 -0.016058108 -0.023699487 0.046854306 -0.017451182 0.01603963 -0.010523609 0.0004591548 -0.046825886 0.013021573 0.008391343 0.012999779 0.010291936 -0.050807618 -0.013388864 -0.022021845 0.0414989 -0.0010034773 -0.023931144 0.01985354 0.013678512 -0.022033537 0.0034599665 -0.0114256805 0.01926997 0.029034203 0.012658391 0.01827506 0.0002042333
91 -0.009695545 0.04866022 0.004684086 -0.02452658 0.00072358287 -0.026468761 -0.010294653 0.01160392 -0.043353643 0.014304886 -0.020218322 0.009475319 0.0333541 0.0046252036 -0.039723974 0.010811031 0.059421793 -0.0037473263 -0.06341293 0.008267251 -0.0017228486 -0.020099906 -0.01772939 -0.037262734 0.056823432 -0.036331926 0.018934963 -0.018608188 -0.006662195 -0.060610488 0.018790368 0.006377634 0.011078556 0.0062628393 -0.054463483 -0.032864105 -0.034298684 0.035790864 -0.0047778566 -0.0076124184 0.015763056 0.027790044 -0.01698041 0.011749798 -0.02219759 0.025905589 0.03839455 0.018745298 0.026456185 0.0001884716
197 0.0057312874 0.06728556 0.008853056 -0.019326836 0.0023085866 -0.034108516 0.0057431343 0.015325362 -0.054289512 -0.004407938 -0.02476043 0.008726655 0.041973043 -0.0041807247 -0.037536655 0.026702262 0.06287914 -0.008171217 -0.05705063 -0.003037197 -0.015470006 -0.013165332 -0.0069766864 -0.02251811 0.050327085 -0.028324723 0.00886103 -0.015902566 0.0032697269 -0.051424857 0.00617998 -0.0025788036 0.020850655 0.013316142 -0.053330816 -0.026427628 -0.023488455 0.055299718 0.0041917614 -0.031115914 0.009038066 0.02802594 -0.026122466 0.010259468 -0.029818244 0.026029233 0.042890333 0.02539918 0.015900046 0.005681777
14 0.0056964764 0.06854643 0.018000241 -0.020237 -0.0036676186 -0.030251155 0.0038268708 0.004889073 -0.050305877 0.009240608 -0.008710011 0.0036376172 0.039284136 0.012873613 -0.037762195 0.017985987 0.065575205 -0.012475978 -0.06275118 -0.005036811 -0.0028024768 -0.019679824 -0.015269528 -0.042022903 0.057632938 -0.028758178 0.014968757 -0.0048396126 -0.0046273284 -0.06809652 0.013989118 0.001111719 0.009702809 0.015178013 -0.058661975 -0.035543684 -0.02723612 0.056881763 -0.0012156755 -0.019201962 0.024627076 0.014871592 -0.03227519 7.433842e-05 -0.02288987 0.017249461 0.04704683 0.034638807 0.02348944 0.01796153
171 0.0054836655 0.056538433 0.016710434 -0.03181358 0.011300265 -0.02457975 -0.007948149 0.010377855 -0.06441366 0.011307674 -0.022669584 0.0044701723 0.04335479 0.0042058057 -0.042288642 0.027308239 0.05375765 0.0035250974 -0.06268797 -0.004592002 -0.006336949 -0.015548686 -0.010173603 -0.027201537 0.0676795 -0.03140769 0.02528907 -0.023346715 -0.00423955 -0.069661394 0.0056706355 -0.0013858487 0.0022355302 0.017857675 -0.06952639 -0.031750947 -0.019236062 0.04197652 -0.01338514 -0.021058932 0.018040892 0.027923321 -0.03112506 0.013851296 -0.034913678 0.024124444 0.040227875 0.027091928 0.016447626 -0.0021431125
150 -0.0069496115 0.06352915 0.0040820483 -0.035546124 0.009339358 -0.022584623 -0.0071980907 -0.00063213985 -0.063963756 0.011119646 -0.014896324 0.0057560457 0.0364418 -0.0048569352 -0.035678618 0.012099724 0.06164847 -0.010516468 -0.06380535 0.0045906147 -0.020845272 -0.020926917 -0.023587568 -0.029976955 0.054189023 -0.039558634 0.02547182 -0.009119829 -0.0012282205 -0.058361616 0.009248332 0.005865997 0.021011164 0.023027226 -0.07483878 -0.03286297 -0.03609396 0.052968152 -0.010189067 -0.029479872 0.010430294 0.021314854 -0.03435901 0.0017216868 -0.016898276 0.019316662 0.04675956 0.030237013 0.022010257 0.0018888687
308 0.0030932364 0.04126074 0.012597174 -0.010931787 0.0008763604 -0.012250707 -0.0030808337 0.009203868 -0.04507637 0.0070608896 -0.017442504 0.006658839 0.035611328 0.0014442407 -0.02554301 0.0072796564 0.047563884 0.0050959964 -0.05210074 0.010435167 0.0002980788 -0.021887086 -0.015162414 -0.019339722 0.040084053 -0.023136832 0.01903475 -0.018485535 -0.012337208 -0.053824387 0.010936251 0.009917386 0.015041611 0.0019913292 -0.05007997 -0.020692207 -0.022738973 0.043135766 -0.0051074135 -0.026065184 0.005879215 0.01912187 -0.027613182 0.011108561 -0.021076776 0.013011822 0.029641526 0.023655381 0.02365324 0.0127796605
297 -0.0053955796 0.053127293 0.006744935 -0.0273867 -0.0037050988 -0.028964767 -0.005035525 -0.005078048 -0.041975707 0.0036625534 -0.008495527 0.012996351 0.019143088 0.009364887 -0.030280422 0.015932767 0.04107838 -0.009307471 -0.036660314 -0.0021852637 -0.01211079 -0.0035809167 -0.011607458 -0.028284704 0.035969026 -0.022654671 0.01912222 -0.002536941 0.0036851868 -0.046496227 0.012889285 -0.002200897 0.018432789 0.0030525643 -0.0443101 -0.025728537 -0.027951507 0.034336288 0.006107687 -0.019413965 0.011892242 0.028529404 -0.023444396 0.0059018726 -0.011249402 0.020517625 0.022626314 0.0121393725 0.0052346895 0.011706541
187 -0.00663544 0.070049435 -0.0027533139 -0.034020357 -0.0012619732 -0.029020978 -0.0063170013 -0.0039057932 -0.05425496 0.010913904 -0.029370021 0.006709622 0.040834967 0.0009126663 -0.028129997 0.016797714 0.049684588 -0.0009504991 -0.060086444 -0.0045525273 -0.010612067 -0.019688401 -0.012821104 -0.03537866 0.051315848 -0.035960197 0.028600939 -0.014211517 -0.01376288 -0.069711715 0.009881701 0.013570982 0.018043645 0.022369828 -0.06393974 -0.030979974 -0.03877046 0.05108063 0.0034715247 -0.013719969 0.022120375 0.022797588 -0.019519573 0.0063422513 -0.016474605 0.007868471 0.03558511 0.024225865 0.019596811 0.0036322505
346 -0.00406979 0.050082568 -0.0025754499 -0.027717255 0.0036443893 -0.028402245 -0.0076514566 -0.0046779667 -0.051604107 0.013755844 -0.017815266 -0.00083234085 0.03890067 0.00011337279 -0.031833854 0.015433913 0.05855645 -0.005193734 -0.05116458 -0.0022996115 -0.0074075973 -0.007910842 -0.014800082 -0.0345293 0.049037263 -0.021365069 0.013948552 -0.006314838 -0.005905773 -0.059408676 0.0032843992 -6.533652e-05 0.017934654 0.0024426896 -0.06568053 -0.030117951 -0.033334978 0.05479943 -0.008457554 -0.02928329 0.02415179 0.024859553 -0.019349555 -0.0015471303 -0.022404017 0.02156097 0.041287802 0.020113185 0.014806883 0.0150548415
111 -0.0022476814 0.04886207 0.010275372 -0.017202001 0.0041641765 -0.02654468 -0.0037442767 0.0029882395 -0.04335016 0.006620601 -0.017923547 0.01648348 0.024694055 0.010096603 -0.030957032 0.022669192 0.05677194 0.0053187916 -0.05246178 0.008758089 -0.0042492035 -0.014972305 -0.018525323 -0.022222351 0.05777479 -0.027685992 0.023255385 -0.018129662 -0.0065943506 -0.052023593 0.017205551 0.0051144026 0.007411767 0.0023406148 -0.05510524 -0.031992428 -0.026706172 0.045912303 -0.0042500366 -0.017861754 0.01368478 0.021017771 -0.018351711 0.0034134309 -0.032392602 0.02310241 0.03725535 0.03138668 0.020056827 0.00036856503
94 0.005194656 0.07012833 0.00058944715 -0.031046597 0.0021017012 -0.036352158 -0.0052362974 -0.0026050361 -0.0610005 0.005601977 -0.016699078 0.0064803087 0.04085063 0.0016144959 -0.03907973 0.017543036 0.049792476 -0.0024270455 -0.05824124 -0.010258666 -0.019623308 -0.010303912 -0.017194958 -0.03521848 0.058432736 -0.03660083 0.024491992 -0.018950302 -0.017471405 -0.06958772 0.0023350343 0.008263157 0.01466145 0.020902392 -0.06670064 -0.019270776 -0.0356332 0.0466943 0.0025747286 -0.01755165 0.025157953 0.03182056 -0.016063457 -0.00040240277 -0.024829667 0.018649839 0.038221292 0.019922845 0.02737611 0.0014263053
334 -0.004242259 0.054283995 0.001943524 -0.01933808 0.0010886402 -0.018400876 0.0058849305 0.008251084 -0.04546085 0.008698661 -0.015862422 0.015680904 0.031800795 0.0134421615 -0.020532267 0.017664602 0.036434494 -0.00793166 -0.05488459 0.0016114672 -0.005180578 -0.022704925 -0.011827944 -0.024698786 0.037890274 -0.021578392 0.02265487 -0.0073335087 0.004772328 -0.05768247 0.012080625 0.011625602 0.01962711 0.017787453 -0.05016059 -0.018185169 -0.015851604 0.041252296 0.0009793674 -0.02547835 0.011552268 0.025236012 -0.02851461 0.0013172957 -0.018333683 0.011016425 0.023159856 0.016138563 0.025244107 0.013144133
181 -0.003041612 0.068256825 -0.0033216134 -0.037303943 0.0018388365 -0.030716866 -0.0076815747 -0.0036670293 -0.06701403 0.005925798 -0.03217745 0.010968557 0.051205385 -0.0024410344 -0.033087667 0.028827336 0.06740089 -0.0042120568 -0.0708594 0.008971913 -0.01063404 -0.013802379 -0.026400749 -0.03494016 0.07122421 -0.02567225 0.021687414 -0.014138951 0.0004927584 -0.061076723 0.019698301 0.010484832 0.0031680714 0.01832615 -0.06828577 -0.036865152 -0.019756237 0.04553097 -0.0123358285 -0.032961056 0.021339025 0.028400693 -0.027482484 0.013054222 -0.027891288 0.010655317 0.04009137 0.020757455 0.027621893 -0.000242215
13 0.007866034 0.04324767 0.0068529793 -0.018659582 0.00015383525 -0.033534575 -0.010806985 9.6794996e-05 -0.041284535 0.008514143 -0.014560185 0.009715808 0.026504144 0.0109020155 -0.031061422 0.01014343 0.04831476 -0.00070240244 -0.046444837 -0.0032717702 -0.01679758 -0.0095285 -0.0051356643 -0.033510286 0.056456342 -0.031038385 0.009243236 -0.010524294 0.0050210417 -0.053617153 -0.0006083683 0.013388831 0.0030383738 0.006706356 -0.053674653 -0.02836752 -0.013965 0.040026695 0.0007769609 -0.026011027 0.0065133176 0.020418828 -0.024180545 0.003451915 -0.027559306 0.020763615 0.034436643 0.03054143 0.02375179 0.0027628094
320 0.0028684838 0.06341853 -0.00087829476 -0.015806988 -0.004174387 -0.033076607 0.0036687204 0.006289713 -0.05908562 0.0063163694 -0.018404257 0.006960935 0.044236317 0.0019729952 -0.037946016 0.027078008 0.0625663 -0.00081694237 -0.053027652 0.005294387 -0.0090619605 -0.014373606 -0.014915114 -0.039581273 0.053751864 -0.0197523 0.009625783 -0.011577166 -0.008777357 -0.07107987 0.010515604 0.010176794 0.008723503 0.0037330866 -0.07017217 -0.037731532 -0.032519512 0.04993595 -0.0059965006 -0.015040353 0.023336604 0.01901108 -0.027005507 0.017083827 -0.02135661 0.025936594 0.03444086 0.037095044 0.01627666 0.00874166
130 -0.0105129285 0.05814975 0.013180152 -0.031224903 0.004591448 -0.027103404 0.0016727747 0.0015059825 -0.05688455 0.012459676 -0.024395147 0.0036883797 0.03319493 0.0026505145 -0.032037362 0.009755479 0.054562572 -0.0047584763 -0.049363587 0.010107473 -0.013586377 -0.015107115 -0.015691292 -0.031877242 0.049404886 -0.014975335 0.012377332 -0.020533318 0.0036252106 -0.05793278 0.0100263115 0.0067418474 0.019566398 0.018531878 -0.052394003 -0.033564504 -0.021270752 0.044196796 -0.012724658 -0.008131218 0.0092570735 0.03237946 -0.014864681 0.007879986 -0.02073866 0.012513418 0.03268206 0.031616196 0.02321674 0.00770827
225 0.0008967849 0.046656698 0.012785195 -0.025569223 -0.0043134354 -0.026220154 -0.011255607 0.006752548 -0.043238077 0.014784766 -0.014360278 0.013780618 0.0430593 -0.0033065646 -0.022876795 0.024814945 0.03911649 -0.0057780086 -0.039772537 -0.0025951576 -0.00539283 -0.00316373 -0.0114783645 -0.038495347 0.054252885 -0.03450325 0.006781608 -0.0069259307 -0.0057256315 -0.055537615 0.0011697632 -0.00032691535 0.004179775 0.0011488246 -0.052196465 -0.021341173 -0.031013664 0.044490386 -0.0025217098 -0.019792547 0.02263853 0.029400446 -0.030256707 0.019319156 -0.013098935 0.006060569 0.023663685 0.03290033 0.023920111 0.011834763
310 -0.0076540536 0.051683027 0.017894773 -0.017131533 -0.0037493117 -0.028143544 0.00015269053 0.0059091523 -0.060153022 0.002499983 -0.010975542 0.011396057 0.030606933 0.011746739 -0.020952951 0.011844032 0.04298807 -0.012987028 -0.055927582 -0.0050768987 -0.0054901983 -0.024085335 -0.020394148 -0.03619942 0.052397102 -0.023898842 0.009602207 -0.019279119 -0.010013001 -0.053588726 0.0063850144 0.010668784 0.004992214 0.011690062 -0.05511091 -0.017842017 -0.01639942 0.042291638 -0.0071672252 -0.020787165 0.017994618 0.032640096 -0.031037325 0.00612672 -0.033703256 0.014214176 0.03732896 0.018675596 0.01437966 0.0020350858
89 -0.009619387 0.056863766 0.007866735 -0.022258492 0.001468144 -0.02207784 -0.0017666604 0.011085579 -0.057734594 -0.0044700475 -0.02394112 0.00048253563 0.042314205 0.001800348 -0.03403396 0.012965269 0.05294265 -0.010343861 -0.049169056 -0.00320124 -0.011407551 -0.010273477 -0.017956853 -0.042555537 0.062006578 -0.035293534 0.026392635 -0.004290081 -0.012457787 -0.05627942 0.013109943 0.007240111 0.014448443 0.006520027 -0.047931146 -0.028302748 -0.03588605 0.049173035 0.0048284205 -0.020291496 0.003964175 0.027305676 -0.024997182 0.0062294654 -0.02480478 0.01792888 0.034431178 0.024384601 0.018897949 0.0082778325
281 -0.008711913 0.06705643 0.0061113616 -0.021306533 0.010998455 -0.019852987 -0.007341913 0.014402218 -0.060321655 0.012715748 -0.012218288 0.00571124 0.03587757 0.0011347078 -0.034836512 0.009040048 0.04441066 -0.009276667 -0.061956186 0.0014034287 -0.020067656 -0.009286554 -0.014005778 -0.023994867 0.057403605 -0.0224021 0.022269825 -0.006638746 -0.015386923 -0.055558097 0.010041393 0.0053919633 0.0041296687 0.017516732 -0.0526066 -0.017780038 -0.026582005 0.04998996 0.0028020241 -0.02895163 0.018686047 0.0313853 -0.026744697 0.008506937 -0.031451825 0.019308042 0.030168986 0.018511496 0.0122045735 0.011604566
57 0.005178336 0.060412247 -0.00215008 -0.030187605 0.010171923 -0.024311032 0.0062380177 -0.0052588126 -0.05520683 -0.0008855427 -0.011524135 -0.0020517418 0.02619622 -0.0064282003 -0.03761134 0.017198034 0.05365683 -0.0026684084 -0.05839034 0.0048375363 -0.019889327 -0.021471666 -0.0064728567 -0.020457122 0.054174766 -0.017753415 0.0118375635 -0.00681203 -0.015897792 -0.06319173 0.0031762982 -0.0018664242 0.010236448 0.0072784987 -0.054398436 -0.034200553 -0.029623302 0.045725953 -0.013203418 -0.02003667 0.022036143 0.022917751 -0.015573245 0.01629712 -0.027880877 0.013219703 0.038730778 0.019322323 0.019203136 0.0033979851
238 0.005101913 0.03931687 -0.0019045776 -0.028124653 0.005135353 -0.019980434 -0.0034122309 0.014329864 -0.05520197 0.010312244 -0.019785263 0.0074131475 0.031984247 0.013143336 -0.037788063 0.00799932 0.045150124 0.00430206 -0.053640105 -0.00947598 -0.008739023 -0.008025635 -0.017362256 -0.02052101 0.051891785 -0.029739259 0.009750374 -0.0053524626 -0.013598199 -0.05839529 0.0069529056 0.009686584 0.006784445 0.011128875 -0.058820706 -0.02477012 -0.017022781 0.042423066 -0.007814679 -0.021854004 0.019143295 0.028674113 -0.017637217 0.0036818525 -0.022597633 0.0072933296 0.035352256 0.014820762 0.017656593 0.0072593475
337 0.004936686 0.07040582 0.005535258 -0.01763186 0.0047015273 -0.03405707 -0.004141094 0.0073794597 -0.060565766 0.015985087 -0.025643004 0.019038009 0.042973578 0.012923261 -0.03484545 0.01947149 0.061733667 -0.014732015 -0.052992858 0.008464148 -0.0001041556 -0.021685123 -0.0119798565 -0.03314002 0.063485414 -0.023432337 0.024243278 -0.023660239 -0.010007858 -0.07220873 0.004874603 0.011724225 0.004674763 0.013875082 -0.05984137 -0.027985748 -0.025109861 0.04803862 -0.0010075836 -0.023192327 0.009932882 0.02418494 -0.016890232 0.0069850343 -0.026009923 0.027215164 0.034197763 0.023824014 0.025071217 0.006578627
17 0.0063584438 0.06086411 0.006237842 -0.024246253 0.01264036 -0.03203978 -0.0020636402 -0.004088191 -0.04213871 0.013351509 -0.018866805 0.009232491 0.028413547 -0.003734615 -0.03185834 0.023682952 0.054408453 0.005642189 -0.053667072 0.0034192523 0.0007789322 -0.00869824 -0.008670744 -0.02266024 0.055249043 -0.029745894 0.01421378 -0.014261147 -0.008069819 -0.060735054 0.017123222 0.0026971502 0.0046218033 0.011201691 -0.04857683 -0.026826276 -0.0131766135 0.032072086 -0.0032556236 -0.022085037 0.0030281108 0.021546455 -0.0294399 0.01444692 -0.031456146 0.013839374 0.026950978 0.029173736 0.018993814 0.012326419
219 -0.000713854 0.05215927 0.013739338 -0.019122787 0.0011710697 -0.038870793 -0.006150345 0.011887703 -0.05321606 -0.00080476067 -0.0068858676 0.018812643 0.030841066 0.013926254 -0.043445814 0.015484894 0.043938857 -0.00085532543 -0.045730576 0.010958903 -0.010204012 -0.012999843 -0.013730502 -0.033822995 0.05717347 -0.022519313 0.022736095 -0.003035861 -0.0015972015 -0.053572588 -0.0024987045 0.011498724 0.0046349415 0.018612279 -0.051366165 -0.01395528 -0.026976544 0.04115725 -0.004156324 -0.02685458 0.011907848 0.030590752 -0.022487547 0.004173113 -0.018376518 0.023838615 0.03127076 0.022467159 0.029930793 0.014739338
5 0.0031861062 0.052993342 0.014955905 -0.019939173 0.010173241 -0.036146212 0.007989909 -0.0002264355 -0.051262584 -0.00077784434 -0.012775034 0.0034950348 0.027219923 -0.001587099 -0.028238518 0.014375862 0.04491866 -0.010026318 -0.05790951 0.004216331 -0.0045162546 -0.013230998 -0.023595976 -0.02438487 0.06544387 -0.01884086 0.022258574 -0.019652968 -0.003496132 -0.068146296 0.0033475014 0.006829935 0.016494213 0.013924974 -0.048228897 -0.023898868 -0.02391297 0.04723533 0.0011287541 -0.013008505 0.014935063 0.030598395 -0.02654865 0.01694148 -0.026458735 0.023845071 0.041909084 0.023051042 0.018721526 0.0052139973
243 -0.0073884623 0.06834756 0.011542042 -0.018935295 0.008123372 -0.036713462 0.0067705917 0.006273891 -0.06558852 0.0061169816 -0.02000794 0.006050673 0.034992915 0.014027114 -0.022536987 0.014106478 0.05861005 0.0016173839 -0.050639357 -0.0050649024 -0.0060688457 -0.026247948 -0.019585816 -0.02479396 0.06465674 -0.03692274 0.00788392 -0.023301126 -0.014446406 -0.07010569 0.019114407 0.016938034 0.0019671214 0.018452296 -0.0667875 -0.03563674 -0.035572775 0.057399426 -0.011591138 -0.02314067 0.017993793 0.03054496 -0.018776484 0.0076813987 -0.033938732 0.02712391 0.040050153 0.026365234 0.01822266 0.016280262
100 -0.011040072 0.064312406 0.0015910532 -0.01965303 -0.0031374523 -0.034410696 0.008395859 0.006684249 -0.060721457 0.005352904 -0.019759746 0.00714572 0.048547167 0.00018740063 -0.037303407 0.009200713 0.05405569 -0.013677407 -0.06244857 0.007559214 -0.0101813525 -0.0074289925 -0.007216698 -0.026256029 0.053311992 -0.02793981 0.014964653 -0.021964664 -0.015063216 -0.06527515 0.0019559676 -0.0010642031 0.0045385105 0.01190998 -0.059656825 -0.018630719 -0.025087114 0.054677125 -0.013507517 -0.014731915 0.005997077 0.022170566 -0.017878676 0.011644668 -0.018822802 0.007310816 0.029841375 0.024622794 0.019741554 0.0059117023
303 0.005812311 0.055973127 -0.0024745842 -0.016147468 -0.007278543 -0.025304358 0.006472332 0.002618967 -0.053078093 0.0104115205 -0.009633464 0.008659118 0.02541053 0.01098273 -0.031565685 0.020755306 0.0517662 0.0020342474 -0.045456693 -0.0038315987 -0.015562595 -0.011275604 -0.018908398 -0.018504843 0.03506032 -0.022464378 0.0072363773 -0.0059891404 0.00490883 -0.04643945 0.0062396424 0.0053801183 0.00054508564 0.0011123167 -0.05472788 -0.029087562 -0.02771702 0.03473442 -0.00056832266 -0.015577917 0.020740883 0.013618891 -0.016776456 0.01490068 -0.027993519 0.022204233 0.022847768 0.026567616 0.022376617 0.0106184585
28 -0.0014327926 0.05724959 0.014438798 -0.030854078 -0.006014 -0.017605342 0.00129212 0.011354409 -0.04738781 0.0010379902 -0.018610884 0.01283938 0.037099823 0.007041194 -0.019914819 0.007641562 0.054106686 0.006125008 -0.051196177 -0.004136249 -0.0034834202 -0.009685768 -0.0042457166 -0.033080794 0.05865662 -0.03517887 0.0169098 -0.010971732 -0.0030676594 -0.050166618 0.008256116 0.00762632 0.0065855845 0.011972569 -0.049975332 -0.021664994 -0.031181049 0.051739894 -0.0044244854 -0.019177921 0.0084695015 0.027292995 -0.028874028 0.0069052735 -0.03277507 0.0145770935 0.041443575 0.019759491 0.016347272 0.017153015
223 -0.0013434372 0.04498618 0.009277318 -0.015214001 0.004308228 -0.025326245 -0.000973688 -0.0008272715 -0.04109168 0.006322565 -0.008572101 0.0003178605 0.032562193 -0.0014216428 -0.035429966 0.010188207 0.0466205 -0.0060390746 -0.045372147 -0.0011961918 -0.0103682 -0.015974246 -0.020659799 -0.0276065 0.04602344 -0.027212553 0.014776538 -0.004159435 -0.0074891914 -0.043686744 0.0058939443 -0.003876482 0.003266209 0.006288744 -0.057003144 -0.023262136 -0.027967833 0.039158825 -0.0127144735 -0.018767854 0.00913641 0.029693523 -0.022174424 0.002064705 -0.028696848 0.023047375 0.027857 0.031022271 0.021995604 0.0062144124
50 0.0013538481 0.04222977 0.0077729803 -0.013333084 0.008270653 -0.024700787 -0.006791538 -0.0038386153 -0.04479784 0.0011510544 -0.018184144 0.010439232 0.02938187 0.0014028025 -0.025288925 0.016472876 0.048013818 -0.002190878 -0.040020972 0.0061233924 -0.004643082 -0.0056134257 -0.0035128566 -0.037107985 0.04378472 -0.024289588 0.018610833 -0.014904862 -0.0010667597 -0.05959233 0.0032137898 -0.005376227 0.013162329 0.008692366 -0.05120349 -0.012815884 -0.027340984 0.04493518 -0.008934495 -0.022905027 0.012795696 0.014441336 -0.028151905 0.0040957904 -0.013774422 0.0110341655 0.021611623 0.014718508 0.022913193 0.008156974
62 0.0046086498 0.04127396 0.005528421 -0.021492483 -0.0037313483 -0.018005777 -0.0073362775 0.011004514 -0.04270874 0.013880653 -0.012587543 0.014711059 0.037552062 0.0068383575 -0.035760853 0.016792672 0.037557986 0.003088175 -0.036534246 0.008167655 -0.014500779 -0.009047193 -0.020825185 -0.021231605 0.041811723 -0.027397886 0.017506244 -0.0010496533 0.0013743972 -0.04030708 0.0012670009 0.00025510706 0.0029466834 0.011285766 -0.04879787 -0.025243815 -0.022991465 0.03230232 -0.0022715542 -0.008376042 0.0020549926 0.018318474 -0.022584358 -0.0023953975 -0.021507304 0.010898471 0.033678688 0.014320164 0.016778158 0.016266042
263 -0.009657606 0.05994571 0.005937717 -0.021774065 0.008659655 -0.012887416 -0.0029871606 0.0058511915 -0.05634713 0.012834085 -0.022040399 0.0026963346 0.03395404 0.00070153165 -0.025761638 0.006202013 0.041710194 -0.011611139 -0.036191136 -0.0045406558 -0.017260911 -0.009975196 -0.012329554 -0.024354385 0.053476997 -0.029892057 0.026756912 -0.017744353 0.0030705235 -0.059581064 0.000909665 -0.0010723227 0.014855471 -0.00023575629 -0.049286373 -0.025882702 -0.021965003 0.030503947 0.0003068815 -0.027697114 0.011398546 0.02544372 -0.02647795 0.010437181 -0.012782872 0.005216595 0.021100376 0.0327445 0.011384085 0.013929413
24 -0.0028925645 0.06533922 -0.0015499727 -0.02686987 0.0027093547 -0.01789192 -0.0047513726 0.0052343565 -0.060527973 0.0010412172 -0.022709431 0.0053460575 0.035965264 0.012191186 -0.041719634 0.018375162 0.052183043 -0.013186938 -0.055680286 -0.009220636 -0.004070997 -0.02505122 -0.005386546 -0.026343646 0.050313666 -0.018383794 0.025553718 -0.008454637 -0.010335929 -0.070261925 0.0045999745 0.0044205734 0.008868524 0.014574961 -0.05703491 -0.018411314 -0.031061022 0.049376857 -0.011740843 -0.01605572 0.0064796517 0.016746925 -0.02320514 -0.0022509554 -0.03378215 0.005651081 0.033555586 0.017906979 0.016165048 0.00985998
180 0.0036428205 0.054477926 0.009492576 -0.028479561 -0.0066826297 -0.03237896 -0.0057676677 -0.004561494 -0.04874957 0.01363982 -0.010182735 0.009970403 0.034651004 0.005315888 -0.02500548 0.007695872 0.040737003 -0.0045102406 -0.059435762 0.0096344855 -0.0046617826 -0.0056358753 -0.019105025 -0.026347887 0.054328628 -0.027624618 0.008754904 -0.01323511 -0.00146191 -0.063038364 0.0013423664 -0.00084558764 0.014308929 0.019649133 -0.05837962 -0.035595495 -0.028263213 0.053338952 -0.008076665 -0.02959152 0.018136894 0.016529426 -0.030562503 0.008421672 -0.014347229 0.007985398 0.03117377 0.0232121 0.011357834 -0.00063806126
78 0.0068722335 0.06912193 0.0018409321 -0.035567056 -0.0007487213 -0.02601675 -0.0020802626 0.008187722 -0.06615575 0.012226892 -0.01786277 0.004812262 0.043079402 0.009798688 -0.031638417 0.026362402 0.07010922 -0.011614388 -0.061535206 0.0017835224 -0.020667607 -0.017022844 -0.024307769 -0.028070787 0.073772 -0.039056055 0.027911736 -0.012830227 -0.00998697 -0.07760799 0.010680377 -0.0018346051 0.0055046347 0.015372854 -0.06568788 -0.022191055 -0.029197615 0.0610336 0.0041875723 -0.017066117 0.018744772 0.023910852 -0.028128188 0.013916178 -0.03410322 0.02556298 0.033168137 0.01955636 0.02584867 0.006198667
104 -0.008624777 0.05026486 0.00598332 -0.021563197 0.008005702 -0.014490846 -0.0007991961 -0.00013651047 -0.05399875 -0.0020633962 -0.009922716 0.011349756 0.034479767 0.005580838 -0.023694325 0.023107354 0.04929846 0.0056420243 -0.055279113 -0.008930932 -0.008456798 -0.018245885 -0.013871984 -0.020562962 0.053613618 -0.026847778 0.02368406 -0.010704653 -0.009444836 -0.05344966 0.0055477833 0.0007384496 0.0027632911 0.002430877 -0.04303223 -0.01576755 -0.02704958 0.036085095 -0.010378442 -0.013214993 0.013406692 0.017069926 -0.02787088 0.009491628 -0.011510076 0.011614609 0.034764443 0.02276592 0.020905066 0.009650465
42 0.006618525 0.07470702 0.019291412 -0.01754211 0.00698662 -0.02820606 -0.011716842 0.0063861916 -0.049519885 0.023903336 -0.024285892 -0.002620876 0.048204314 0.01383513 -0.04298923 0.020825448 0.07425329 -0.019317675 -0.05915552 -0.0058210534 -0.0018342392 -0.0048441 -0.004769147 -0.04364405 0.07649543 -0.022052243 0.034812227 -0.00058918365 0.0057255034 -0.08027012 0.024296017 -0.0022374454 -0.0044647823 0.028291255 -0.07018913 -0.020511221 -0.0121054845 0.07137154 -0.0032456322 -0.0066398336 0.019412974 0.031427454 -0.04480685 0.015118317 -0.026661715 0.034035567 0.03974698 0.040990427 0.010374817 0.021573465
33 0.0050153993 0.058262188 0.006941544 -0.020945504 0.010794693 -0.040029515 -0.0140454555 0.00021361849 -0.05808333 0.026353551 -0.0182838 -0.0026683172 0.0582099 0.016241377 -0.041666828 0.019930959 0.070127964 -0.015453427 -0.04839623 0.011566701 0.0016430664 -0.011875175 -0.007164013 -0.028097235 0.06268788 -0.017349329 0.031611327 -0.008011467 0.0096411975 -0.07522007 0.027459463 0.011760942 -0.002109223 0.026698388 -0.056302045 -0.03516937 -0.011726389 0.07250085 -0.0022478164 -0.0039522094 0.028024426 0.034302823 -0.045342967 0.017326443 -0.02249968 0.03301685 0.051233783 0.022914909 0.013170889 0.011582218
101 -0.009943134 0.047594734 0.013139396 -0.025921648 -0.0025470557 -0.032610085 -0.006041654 0.013385953 -0.052506458 0.007912106 -0.027805224 0.00985251 0.02959634 0.0049720914 -0.0393454 0.024602544 0.04329712 -0.0083598355 -0.04501618 0.0076624975 -0.006046999 -0.019032413 -0.019989314 -0.02784736 0.043160982 -0.017246101 0.021528097 -0.018968899 0.00095752 -0.060282197 -0.00027843277 -0.0011244692 0.01434101 0.0061762156 -0.05410785 -0.033521127 -0.02437167 0.04323853 -0.013106094 -0.02402403 0.022008026 0.025286585 -0.020318378 0.012683788 -0.018597407 0.008131484 0.028312521 0.03305692 0.007680804 0.01468805
194 -0.0042830436 0.062428087 0.0018681664 -0.025420116 -0.0034776425 -0.030938907 -0.0108077545 -0.0024043457 -0.046434198 -0.0034460325 -0.010774791 0.0025333024 0.028205616 -0.003999668 -0.025777122 0.021775573 0.058309324 0.0030599625 -0.05860188 -0.0014076051 -0.017022943 -0.0054903436 -0.011456935 -0.029911561 0.0523036 -0.02489307 0.008300654 -0.016957795 -0.016584376 -0.06376244 0.013945981 0.0069872355 0.009564911 0.011255563 -0.061691668 -0.032740165 -0.020112325 0.04670891 -0.0017706257 -0.020881789 0.020284133 0.025491264 -0.012563426 0.010262991 -0.024336457 0.004763833 0.04395732 0.022230668 0.022735287 -0.0010819088
158 -0.0012693325 0.03757293 -0.0005770974 -0.02562417 0.00859021 -0.016465865 -0.00798698 -0.0010902 -0.03637037 0.00419171 -0.024236856 0.0049789143 0.02821001 -0.0019169673 -0.020051679 0.019909361 0.04907533 -0.013677846 -0.05181195 -0.0015238486 -0.017962437 -0.0073681856 -0.013654287 -0.025209153 0.048968524 -0.014586147 0.0132440105 -0.012366592 -0.000911387 -0.038504444 0.007078037 -0.00044813668 0.016942557 0.010303104 -0.054288775 -0.021789974 -0.022950944 0.031214224 0.0038480817 -0.006305794 0.0038077345 0.02534891 -0.02398531 0.004187571 -0.029115757 0.008540095 0.031890452 0.025652848 0.0111443475 0.010882162
132 -0.005632921 0.050850343 0.00942826 -0.009807408 0.008836208 -0.031038834 0.001764753 0.0052822465 -0.054415178 -0.0033703207 -0.01881996 0.0042105406 0.039223004 0.010327647 -0.030506287 0.0154898595 0.037042484 -0.0046619587 -0.055049982 0.0042584804 -0.01673911 -0.01394229 -0.0203433 -0.03595311 0.04310763 -0.013538771 0.009043973 -0.021149987 -0.014764519 -0.042579502 0.0045463657 0.011163717 0.0029343108 0.01824721 -0.04829268 -0.017574742 -0.029955374 0.030078594 -0.0054229666 -0.01424664 0.0076696617 0.021471066 -0.027141402 0.013388172 -0.02468601 0.0065799 0.02253786 0.015188165 0.016635265 0.0064927633
256 0.002027981 0.05287877 0.025496308 -0.017509667 -0.0051895534 -0.021940144 -0.013958231 0.015500391 -0.055185027 0.007540891 -0.016563734 0.006205502 0.044414267 -0.0077156797 -0.043072503 0.018078536 0.04865827 -0.015194808 -0.068987615 0.010699157 -0.017262341 -0.029633194 -0.000603766 -0.025596498 0.06263323 -0.030665118 0.007858706 -0.00067718246 -0.02062325 -0.0659395 0.021074481 0.010781041 0.015680877 0.013419928 -0.06953067 -0.020978691 -0.020234106 0.061051305 -0.012259474 -0.039085254 0.032408584 0.02255157 -0.013818629 0.016597942 -0.02330456 0.009087504 0.041416485 0.023782935 0.02481551 -0.009192999
233 -0.009191941 0.06248586 0.02586972 -0.028014582 0.0027436884 -0.032141473 -0.0064973724 0.010040772 -0.06772457 0.001039874 -0.00906758 -0.0061279237 0.054690965 -0.005572722 -0.053554185 0.0330613 0.07093269 -0.019540068 -0.08067056 0.0071551357 -0.00071450253 -0.02588797 0.0041542714 -0.02384644 0.075976804 -0.017929725 0.007657654 -0.005834207 -0.017440924 -0.07390698 0.0055870167 0.006452968 0.02255595 0.0004395159 -0.07808447 -0.03735816 -0.024401644 0.053046763 -0.01244792 -0.0378373 0.027160278 0.028354922 -0.013217937 0.01786435 -0.039761614 0.006401218 0.035674788 0.035524853 0.032386962 -0.009180603
226 -0.0008906485 0.06251682 0.009129541 -0.010708012 0.010756904 -0.02501729 -0.006392863 0.010563741 -0.056656342 0.014799139 -0.009298571 0.002064871 0.02667812 0.0018365094 -0.018336192 0.023377996 0.056021567 -0.0112972595 -0.04945535 -0.0007918951 -0.014368173 -0.017137554 -0.0031296057 -0.019498529 0.043291368 -0.023853308 0.024806231 -0.016749894 -0.0035079098 -0.05936063 0.008658611 0.0072934274 0.008432399 0.016171137 -0.04784325 -0.019088048 -0.021167655 0.041480284 0.0028195481 -0.024269667 0.0026141966 0.026323637 -0.023785295 0.0019866587 -0.015190547 0.007599149 0.022823721 0.03186342 0.0060313335 0.0051162997
7 -0.0013419633 0.055222303 0.011148952 -0.022471668 0.0060827117 -0.034406558 0.000998526 -0.0023558484 -0.054049302 0.009437543 -0.014263414 0.0073916907 0.040592793 0.007037227 -0.030923385 0.024352245 0.04019082 -0.008986145 -0.057933982 -0.00041653228 -0.011534983 -0.017560558 -0.022936603 -0.03721315 0.059869464 -0.0292461 0.011671237 -0.009481245 0.0029881087 -0.05870776 0.0036065679 0.0027964513 0.01910833 0.020091569 -0.05913842 -0.029920086 -0.026692094 0.037273403 0.00032215612 -0.017786749 0.02208057 0.028203571 -0.027597496 -0.00044676664 -0.021781277 0.009864507 0.039367825 0.017733654 0.016130019 0.010221557
97 0.0018163114 0.06114769 0.009624229 -0.014601117 0.016004903 -0.014639593 -0.0038897507 0.01400211 -0.057183858 -0.0042756842 -0.028623672 -0.00090467685 0.03766508 0.006571144 -0.032653 0.0067167124 0.03829651 0.005207764 -0.04700374 0.010925997 -0.017841632 -0.005387029 -0.0038565798 -0.025987811 0.06464931 -0.033824056 0.0172189 -0.004028871 0.004208071 -0.060856808 0.014989895 0.0033733349 0.0057615545 0.0068898066 -0.051623892 -0.016572673 -0.01874222 0.053918567 -0.0115573015 -0.013056979 0.016439684 0.026658889 -0.031529024 0.018986575 -0.020124825 0.011610177 0.040988263 0.033642225 0.030486189 0.003015103
282 -0.017176656 0.063116014 0.01681228 -0.035472825 -0.0030710017 -0.036903843 0.009519408 0.01071876 -0.04324746 0.01738744 -0.028315768 0.022448177 0.034207724 0.013610415 -0.031305533 0.026184319 0.07225054 -0.017057704 -0.053249434 -0.009849932 -0.010824253 -0.008464394 -0.005221956 -0.044802938 0.06711899 -0.028372224 0.018225897 -0.003023672 -0.010356793 -0.0636514 0.014771431 0.005910766 -0.0034333107 0.014165829 -0.056745246 -0.031728435 -0.013833313 0.05704538 -0.0019132842 -0.031639278 -0.0017957404 0.04029208 -0.029248614 -0.00068028935 -0.035887506 0.013597991 0.04214136 0.045183577 0.016357688 0.0077503794
244 -0.012799794 0.06858264 0.016976807 -0.03675892 0.0151037425 -0.031979192 0.0033092953 0.020780746 -0.052365966 0.0027899211 -0.025981544 0.02174036 0.036491394 -0.0033862616 -0.021623697 0.014771598 0.07402561 -0.0127527835 -0.05393817 -0.0031193413 0.00055322784 -0.020986538 -0.014439689 -0.034004796 0.06250552 -0.03977578 0.016930835 -0.011839889 -0.010025453 -0.05998635 0.0125141 0.013014667 0.0028626274 -0.00068144413 -0.054769695 -0.03790072 -0.03446269 0.047779027 -0.00881263 -0.014356876 0.001255228 0.033714764 -0.0221165 0.011121905 -0.017851248 0.028654117 0.03785597 0.045766775 0.010121351 0.00030029332
95 -0.0019295929 0.059448775 0.017050225 -0.021780107 0.0060178833 -0.03700089 -0.013656869 0.0028935028 -0.046680506 0.011640687 -0.00528668 0.016861008 0.045422915 0.014493174 -0.041669864 0.021196187 0.059773903 -0.0041647777 -0.042458322 0.0039378228 -0.01529104 -0.009252823 -0.011380631 -0.031178812 0.049138322 -0.020058079 0.021877725 -0.0034777261 -0.0043119686 -0.050333545 0.00856427 0.013788714 0.0082849385 0.00042261777 -0.048359256 -0.032226577 -0.029228924 0.03619485 -0.001077857 -0.027562445 0.018254502 0.027575225 -0.02259357 0.015401676 -0.031221157 0.015508709 0.02747865 0.035054553 0.03039858 0.00056224363
218 0.0032111094 0.060434297 0.0056522395 -0.02255332 -0.0032071695 -0.02850681 0.008166256 0.0086156 -0.06539072 0.0015878896 -0.03160195 4.185709e-05 0.033778355 0.014836713 -0.043211944 0.030554501 0.053606067 -0.006657272 -0.051126424 -0.009430016 -0.004083607 -0.0039314614 -0.005912783 -0.028780118 0.049423825 -0.02904629 0.025517046 -0.004699102 -0.005118247 -0.0730767 0.004999052 -0.005915518 0.0043742014 0.009285311 -0.06632206 -0.03455096 -0.021612044 0.04324527 0.005911897 -0.014094577 0.007957253 0.028768945 -0.032763246 0.0004996564 -0.016228313 0.021448864 0.02634674 0.029811041 0.019204002 0.011180898
48 -0.009484004 0.046378117 0.011054139 -0.02685863 0.010621148 -0.018776404 -0.0064680413 0.0019552717 -0.06119834 -0.00034953392 -0.02654755 0.008175288 0.0353149 0.00038580617 -0.041049257 0.0245697 0.059757896 -0.01303036 -0.04778914 0.00682351 -0.010060044 -0.006204123 -0.007212036 -0.026320787 0.04983785 -0.019109847 0.01994114 -0.013896938 -0.008243123 -0.06136791 -0.0012424542 -0.00040030244 0.008562354 0.007927589 -0.05216447 -0.032809883 -0.028965292 0.04498687 0.0013371627 -0.02234832 0.011428995 0.030810107 -0.015034434 0.0030650133 -0.03214778 0.012844117 0.032345712 0.025541548 0.020287516 0.005470813
264 0.006674919 0.057190675 0.015078974 -0.016861673 -0.0034219385 -0.027566167 0.0030540854 0.00489336 -0.060372796 -0.00028683484 -0.0075567192 -0.0043800864 0.029396296 -0.0047665415 -0.0430681 0.013164873 0.05661752 -0.008295964 -0.045546785 0.008698968 -0.002758804 -0.019971648 -0.021156352 -0.03391807 0.0638147 -0.02904556 0.025506482 -0.015228901 -0.0034381028 -0.060481288 -0.0003988436 0.0011184034 0.020622553 0.0076872557 -0.04919922 -0.0305354 -0.034539975 0.04153226 -0.00051120727 -0.00811398 0.010880483 0.02283797 -0.019377815 0.0146930395 -0.03518241 0.011893922 0.041212276 0.017033989 0.018276611 0.009272142
68 0.0038265032 0.059605245 0.002307609 -0.01970094 0.0074648894 -0.033255424 0.0034205182 -0.0028065257 -0.041683413 0.015243466 -0.023767948 0.015396836 0.02549735 0.007918882 -0.020570885 0.02278378 0.05371771 -0.0011162527 -0.050288003 0.009432392 -0.007670076 -0.0049215225 -0.01709043 -0.035008997 0.059968445 -0.01725226 0.010655161 -0.0066182767 -0.0017236305 -0.0589366 -0.0021517011 0.0035711897 0.014493066 0.005911218 -0.045554038 -0.016787667 -0.030883353 0.03139304 -0.007972913 -0.02268035 0.014086147 0.028217692 -0.024038395 0.014013309 -0.03159393 0.019579895 0.02499555 0.03352768 0.02776642 0.0028069552
284 0.008637993 0.05818958 0.0062625343 -0.02285888 0.009809897 -0.01820938 -0.010702768 0.011872524 -0.0449975 0.009250839 -0.013030833 0.011235432 0.034032054 0.0016042755 -0.034653727 0.024996223 0.049038064 -0.0024435383 -0.052103173 0.003505939 -0.0079670455 -0.02454419 -0.01069384 -0.025443446 0.05283051 -0.03468232 0.008792667 -0.010465915 -0.0003114823 -0.062899455 0.008529443 0.013507155 0.018111419 0.0023217404 -0.050897628 -0.03301732 -0.01859088 0.053122915 -0.013864765 -0.024137536 0.016428849 0.018610552 -0.025639515 0.0010749968 -0.023154272 0.015901716 0.0340894 0.029919889 0.013571544 0.0012205992
266 -0.0134326285 0.06601407 -0.0032725285 -0.029096568 -0.00654361 -0.033061843 -0.0026262742 -0.005474734 -0.06118218 -0.0012181812 -0.022214074 -0.00038972596 0.032854065 0.009831531 -0.037812054 0.009272656 0.059152227 -0.0105185835 -0.05511203 -0.008952851 -0.018061921 -0.019186903 -0.011008395 -0.0358056 0.052882053 -0.029304188 0.023713006 -0.02094835 -0.010343263 -0.06468247 0.013270096 0.0055236765 0.01586441 0.008688126 -0.057368807 -0.035847615 -0.028348828 0.038418878 -0.013746096 -0.018036133 0.021160007 0.017828286 -0.02599454 -0.0020964264 -0.02098722 0.013840274 0.04712372 0.021582348 0.011724926 0.013627442
248 0.006155987 0.055882506 0.010205875 -0.015660316 -0.0024543237 -0.030333018 -0.010274536 -0.0010825479 -0.036781874 0.0015104093 -0.010165618 0.0009439356 0.021692371 0.003103736 -0.037203193 0.021524781 0.0395769 0.0041545327 -0.043220345 -0.005852819 -0.0035193209 -0.009192983 -0.00825656 -0.01613411 0.05141161 -0.020081144 0.02076902 -0.010904643 -0.0038886613 -0.045108743 0.0057016173 0.0086158 0.0022586002 0.0012942827 -0.056955814 -0.014591542 -0.016788796 0.029152092 -2.4600531e-05 -0.009798493 0.012703886 0.022643285 -0.014976682 -0.0007478157 -0.014936588 0.0036794594 0.028591216 0.01555805 0.020416198 0.00501226
149 0.0055043544 0.059562 0.010401906 -0.02342504 0.0052599246 -0.018961577 0.00023122109 -0.0037316775 -0.04682934 0.013882596 -0.016396089 0.0080031855 0.030533556 0.0066269347 -0.024737725 0.013258358 0.045302864 -0.012818333 -0.050400056 0.0018663278 -0.0098711075 -0.021966211 -0.013799355 -0.027993731 0.05249148 -0.026911207 0.011275877 -0.0089940345 0.003268932 -0.052174333 0.001829294 0.0094898585 -0.0017375565 0.0017331218 -0.05859523 -0.015206789 -0.026547125 0.031021845 -0.0106705595 -0.010222318 0.007850693 0.011080374 -0.02744816 0.0045073824 -0.031915613 0.016101977 0.04004976 0.029403552 0.013857153 0.011207642
278 -0.012035902 0.052389413 0.0023641726 -0.017710846 0.0037550826 -0.029065477 -0.0033671362 -0.003519109 -0.058893714 -0.0012569043 -0.026456147 0.01690223 0.044038724 0.010281164 -0.038255822 0.023246465 0.04863743 -0.0005253801 -0.046981577 -0.006986603 -0.00080990675 -0.01772713 -0.023506662 -0.025189888 0.057980105 -0.030461652 0.023870919 -0.01473407 -0.013788817 -0.06422141 0.0012033515 0.0018355799 0.014308027 0.0002701316 -0.06113749 -0.020914862 -0.019664131 0.03835873 -0.0043211663 -0.0139979115 0.0147471605 0.034943126 -0.01966823 0.010759304 -0.015643748 0.024404556 0.03166216 0.029289374 0.025415218 0.0019250023
72 0.0005717795 0.05306577 0.011223391 -0.022198556 0.0070667327 -0.029010618 -0.010003159 0.0069718445 -0.03108071 -0.0022836404 -0.00516431 0.010282382 0.02426976 0.007918946 -0.031128788 0.0056251325 0.031422857 -0.013592442 -0.03420414 0.00581952 -0.002651308 -0.008941222 -0.0141115505 -0.021820087 0.04036423 -0.023666108 0.012254992 -0.0013827858 -0.010386565 -0.053057052 0.0035846576 -0.0012987336 0.0080399355 0.0045426954 -0.03665255 -0.01049587 -0.01813016 0.035090253 -0.0013832665 -0.019108709 0.0020794545 0.02195738 -0.007525865 0.014710624 -0.028308408 0.016641246 0.029796297 0.018642992 0.015099506 0.00688879
182 -0.005749807 0.056943595 0.018189024 -0.03333822 0.014940693 -0.016044667 -0.012230889 0.016935315 -0.040710855 0.012829506 -0.024414392 -0.0026229133 0.027505238 -0.002179813 -0.031983715 0.024020884 0.041881934 0.00537501 -0.06022344 0.0053889565 0.00048136307 -0.021284547 -0.010436709 -0.031488907 0.06205194 -0.03518294 0.020772519 -0.0112901125 -0.005138706 -0.04886534 0.010877972 -0.0013171502 -0.00090834795 0.003269734 -0.06527241 -0.022548078 -0.028638417 0.045703765 0.00089780206 -0.019332774 0.023556245 0.031372514 -0.02852941 0.018683096 -0.014055033 0.009348905 0.041247103 0.030221604 0.02258265 0.0005821729
251 0.0068039573 0.061067887 0.0051200804 -0.022243718 0.014429792 -0.03456228 0.002240393 0.0024786675 -0.06563561 -0.0032266274 -0.024560668 0.0008523867 0.049518857 0.002960434 -0.03826034 0.020443523 0.05509514 -0.007323886 -0.06360292 -0.0048255846 -0.008757262 -0.017289398 -0.013970091 -0.033010583 0.05781149 -0.026070107 0.02153694 -0.012173017 -0.014390306 -0.06804851 0.0043006805 0.011385607 0.009791292 0.020859214 -0.05758752 -0.033829525 -0.02280822 0.050649974 -0.006684506 -0.032123115 0.011566971 0.034303866 -0.023094604 0.0135658495 -0.029877713 0.020607537 0.040333334 0.032784216 0.011204313 0.013298299
161 -0.0019606478 0.0480316 0.014274288 -0.014476974 0.01112289 -0.029541995 -0.0020064255 -0.00073957216 -0.03897668 -0.0011918157 -0.020494305 0.00075631565 0.03728142 -0.0061597205 -0.034181524 0.022044765 0.04942258 0.0051425914 -0.04482977 -0.0065394184 -0.0032365876 -0.021492342 -0.005123314 -0.015209562 0.05025484 -0.024405884 0.01506243 -0.0019442829 -0.006453498 -0.051725656 0.0062793163 0.01066358 0.0021522974 0.0018793758 -0.042281464 -0.009880607 -0.03037801 0.027753543 0.0041383794 -0.025470553 0.00977917 0.014595075 -0.023552833 -0.00029085824 -0.019195726 0.013445987 0.029955102 0.01931282 0.013854709 0.014662085
1 0.005760965 0.045406543 -0.0023046846 -0.017488101 0.0010922793 -0.026324227 -0.009437497 0.00080295524 -0.05393483 0.0052657155 -0.012595152 0.01508212 0.04121713 0.0027474188 -0.030853873 0.020119328 0.044562735 -0.0019536358 -0.038116805 0.006741694 -0.0094235055 -0.00636851 -0.010408845 -0.017137347 0.043158 -0.02403125 0.0059041954 -0.008300949 -0.0028703618 -0.047151655 0.009868477 0.012057502 0.0005254006 0.0061845486 -0.04289576 -0.028370647 -0.026030472 0.032853507 -0.011598208 -0.027745936 0.0120133925 0.026677648 -0.015186258 0.008683925 -0.029347511 0.020330722 0.031389955 0.027103653 0.0092932265 0.015827272
195 -0.007589279 0.057606902 0.0060945423 -0.02841649 -0.0008455401 -0.021467205 0.009192632 0.0074665477 -0.05647596 0.012651067 -0.028893195 -0.0009825141 0.04320916 0.0022034533 -0.031099627 0.020014036 0.04752233 -0.00094568013 -0.056337375 -0.005647619 -0.013165479 -0.0049510975 -0.017550603 -0.042025585 0.06674821 -0.02074653 0.02319505 -0.012766836 -0.007781767 -0.067124486 0.015538053 0.005776574 0.001207232 0.013127124 -0.067784704 -0.021581113 -0.033535436 0.04033074 -0.009553467 -0.023994906 0.024346016 0.016916955 -0.020117236 0.004004021 -0.027186492 0.013638949 0.03167606 0.01537723 0.021462392 0.006215958
330 -0.010054962 0.05340958 -0.002158114 -0.023180403 0.001376237 -0.029287316 -0.00076084485 0.0040271627 -0.05863241 0.000786447 -0.022032006 0.00053424656 0.034558754 0.006261565 -0.032331385 0.023212757 0.056561545 0.00463112 -0.052822936 -0.0008763272 -0.020657673 -0.017396083 -0.012072397 -0.03910972 0.046228725 -0.020460362 0.024293125 -0.015147732 -0.007574358 -0.056483924 0.00013724132 4.9448427e-05 0.016019821 0.010527315 -0.055606842 -0.027985625 -0.031606242 0.04573941 -0.009924119 -0.02248736 0.01094831 0.03032215 -0.015710035 0.008360765 -0.030593967 0.014957131 0.041862316 0.024206737 0.011017984 0.0025819698
146 0.005703021 0.06299402 0.009232052 -0.030461568 0.0030148106 -0.02849537 0.0050048176 0.014255737 -0.056203526 0.004600777 -0.02639244 -0.0016577743 0.04389509 0.0033351886 -0.028284514 0.011720631 0.045045804 0.0024467837 -0.049101595 0.0040933588 -0.012659695 -0.005188662 -0.015792742 -0.035024036 0.042216446 -0.02617295 0.0073234537 -0.021665903 0.0043808343 -0.06561779 0.016741931 0.0039581656 0.0030345113 0.008474692 -0.060524236 -0.02583889 -0.03460379 0.034039576 -0.0040748534 -0.0146603845 0.02163521 0.024472024 -0.023674939 -0.0013356805 -0.033311944 0.019851986 0.030400408 0.016549574 0.023912186 0.0022015923
127 0.0012017688 0.05901108 -0.0012983255 -0.023849603 0.010604462 -0.017121598 0.00579298 -0.00029026842 -0.049058657 0.009319947 -0.012809658 0.0150376 0.04410695 0.009026989 -0.022433795 0.009995739 0.050789304 -0.008964923 -0.061310943 -0.0036970375 -0.013957622 -0.02369877 -0.013513465 -0.020017456 0.05697078 -0.027984126 0.012170899 -0.0026033306 -0.0107241 -0.048802175 0.008655881 0.0048266207 0.011492778 0.002885047 -0.047289666 -0.030055853 -0.016510466 0.05093563 -0.013345407 -0.023366336 0.006113344 0.017362524 -0.031964038 -0.002141154 -0.031116905 0.025124952 0.04416395 0.0184637 0.017545108 -0.0013180844
2 -0.0015046747 0.055749286 0.011612843 -0.011761306 -0.0039385706 -0.030378133 0.0045384816 0.0063380157 -0.042729143 0.000309696 -0.014356204 0.003821827 0.036731455 0.009980128 -0.016293451 0.019474287 0.056438643 -0.0053940946 -0.05284068 -0.0035864373 -0.016435694 -0.023221007 -0.0064557386 -0.02283248 0.044123594 -0.016391719 0.004420212 -0.0031193052 -0.010792621 -0.05701414 0.009036344 0.0014246951 0.0032613513 0.0051331804 -0.038591687 -0.010603203 -0.022678383 0.031452894 -0.011389766 -0.014897189 0.018229106 0.026064532 -0.024417754 0.0058072424 -0.03127877 0.013347259 0.024850106 0.01704667 0.0103858765 0.012025279
133 -0.003111336 0.05282034 0.01183862 -0.008945138 -0.006339501 -0.023000743 -0.0016182982 0.0035171125 -0.03619824 0.004448618 -0.0060497746 0.0038842312 0.035142694 -0.0040625697 -0.028421741 0.021783566 0.044397585 -0.005985554 -0.043503337 0.004652144 -0.014134297 -0.019707872 -0.015703376 -0.024617579 0.03427348 -0.016787484 0.020920645 -0.017435068 0.0006439797 -0.041373797 0.0054740445 -0.0039297654 0.011354893 0.015797563 -0.054379318 -0.0169865 -0.020489074 0.03254256 -0.010718433 -0.025477331 0.008980891 0.023168493 -0.021929573 0.0083050765 -0.022909587 0.011191116 0.029455323 0.030622648 0.015291691 0.00852658
331 -0.0071287714 0.042013302 -0.0020191942 -0.018184276 0.013299882 -0.025269624 -0.0049487567 -0.00051192887 -0.05124798 -0.005507632 -0.020489156 0.00020299396 0.024394173 0.011399057 -0.025703453 0.005387075 0.036181934 0.0019863881 -0.044680845 0.008956646 -0.0026510858 -0.018947626 -0.020901402 -0.02195124 0.04273544 -0.024833877 0.005064404 -0.018108917 -0.012142805 -0.04007116 0.007031822 -0.0004581674 0.015789049 0.0026325372 -0.041672163 -0.01073162 -0.020649001 0.030619057 0.0019344721 -0.021831794 0.015201672 0.02764399 -0.02551447 0.00097475667 -0.028533828 0.02266062 0.02258003 0.026943805 0.004910157 0.0055332053
134 -0.0041572317 0.052783996 0.008224964 -0.016668264 0.013150497 -0.015263386 -0.008053858 0.011844255 -0.043029863 -0.0024748652 -0.021749727 0.013578427 0.03128759 0.011537778 -0.025063887 0.0051867906 0.032451585 -0.010481147 -0.04969746 -0.0076350933 -0.007190918 -0.014316288 -0.018318316 -0.029611278 0.038807195 -0.010703388 0.012249982 -0.0062209973 -0.0055230255 -0.043091547 0.013938295 -0.0035946064 -6.96654e-05 0.0023933018 -0.048529048 -0.0153786205 -0.010312907 0.03986978 -0.00437639 -0.015313633 0.0107237715 0.02033719 -0.012170122 0.011006821 -0.021223512 0.0051390016 0.028797291 0.022189975 0.009164591 -0.0001327453
