333 50
277 -0.014895984 0.0017695354 -0.016999645 -0.004057734 0.015847 0.017475069 0.03199773 -0.032858197 -0.0132237 0.014702554 0.08103773 -0.031409126 -0.04607198 0.023400873 -0.03596078 0.025403395 -0.022457957 -0.08278008 0.041423548 -0.024677895 0.006401433 -0.007065566 0.044562865 0.023439867 -0.007821089 -0.026309237 0.027800707 -0.0068231733 0.024047865 -0.051727157 -0.029922606 -0.031219248 0.020511992 0.011435515 -0.0079901265 -0.03707708 0.008647681 -0.011786268 -0.004320691 -0.009723824 -0.054601103 -0.074087836 -0.01335787 -0.04788418 -0.01147117 -0.011311195 0.023186605 -0.006382565 0.019414827 0.027743302
25 -0.010991997 0.007227738 -0.012452801 -0.008509286 0.0031283482 0.024478223 0.03423139 -0.026769059 -0.011521627 0.009338059 0.07950884 -0.02835314 -0.03572498 0.016740993 -0.030296143 0.018097019 -0.025619779 -0.08430176 0.043666184 -0.028958827 0.0062042526 0.0038112737 0.06056134 0.037331842 0.0071431305 -0.024485767 0.01369914 -0.0038301446 0.008556268 -0.06574276 -0.01762742 -0.034222294 0.008643257 -0.0011180365 -0.013636186 -0.043135997 0.014718359 -0.019273493 -0.016152317 -0.0094719585 -0.05729022 -0.0560363 -0.00064052944 -0.037736155 -0.009620313 -0.010570074 0.031688012 -0.007374549 0.012009763 0.03341535
322 -0.014150223 0.0032775288 -0.010458691 -0.006387466 -0.0035601875 0.036580466 0.039360978 -0.019368015 -0.0097725745 0.017927185 0.08776016 -0.036382284 -0.037197147 0.021537775 -0.030015657 0.015518135 -0.026210798 -0.08765932 0.027684579 -0.033810824 0.014412978 -0.0024065915 0.05342237 0.030181287 -0.009294166 -0.024681315 0.020388164 0.0067476034 0.018907681 -0.055035993 -0.027092071 -0.03412005 0.019353343 0.0044888672 -0.002856902 -0.05431798 0.01637257 -0.0025223529 -0.014837295 -0.017947093 -0.043941177 -0.068116 -0.0116156945 -0.04912791 -0.01288721 -0.005526955 0.040117897 -0.019500965 0.017591346 0.027872114
119 -0.005113539 0.0162464 -0.004656902 -0.00017306444 0.009807803 0.03143964 0.02927642 -0.015475244 -0.023240387 0.013835564 0.07166116 -0.03080294 -0.0374673 0.027179072 -0.040586624 0.01612886 -0.035329666 -0.080555074 0.043138526 -0.02788811 0.022306861 -0.010651406 0.049241796 0.035537787 -0.012917654 -0.026627671 0.014457906 -0.0065456526 0.008948565 -0.05756483 -0.024486154 -0.032179046 0.016742285 0.0051333243 -0.021121044 -0.04271314 0.008593585 -0.017396366 -0.009475223 -0.01441417 -0.04698825 -0.06591848 0.004663827 -0.03313109 -0.0039626705 -0.0038348841 0.037614677 -0.018213745 0.010225457 0.023403998
23 -0.008873097 0.018595466 -0.018836943 -0.008955628 0.01661179 0.039897002 0.036997367 -0.021580575 -0.018024096 0.012491665 0.0926198 -0.041488737 -0.051217407 0.013497711 -0.037804388 0.022297537 -0.04048958 -0.10596535 0.03665954 -0.036477856 0.020406453 -0.00719372 0.06946074 0.039059747 0.0065302933 -0.028804295 0.033561997 -0.0042876895 0.012614546 -0.07775293 -0.02165979 -0.04330946 0.022404281 0.003032129 -0.0115857525 -0.049140867 0.014343461 -0.021989463 -0.021859013 -0.024935909 -0.06455329 -0.08565479 -0.0011754718 -0.05035848 -0.01599175 -0.002682929 0.04659117 -0.018124115 0.01739776 0.02833672
56 -0.0047698664 0.013427217 -0.01998842 -0.015697513 0.012925641 0.03700273 0.02421773 -0.02795327 -0.011544341 0.016567454 0.08219713 -0.037590276 -0.032764856 0.024369722 -0.031200465 0.029909696 -0.018799813 -0.07374447 0.024480218 -0.023483712 0.026068864 -0.01463657 0.047452677 0.023387065 0.00554027 -0.027872587 0.0087916795 -0.0061592166 0.023941536 -0.06273039 -0.029476697 -0.046718746 0.017419886 0.005745942 -0.0037997935 -0.044597186 0.015771642 -0.012873844 -0.008911343 -0.009869173 -0.052589394 -0.059902627 -0.011640341 -0.037854645 -0.016446978 -0.0076354896 0.022804216 -0.013360882 0.010911703 0.028774308
26 0.0010648257 0.012451371 -0.019408055 -0.006579082 0.0024276206 0.020955782 0.022856513 -0.018424561 -0.014284217 0.018469524 0.06473664 -0.036147695 -0.043467306 0.028250653 -0.041438974 0.027333062 -0.035363585 -0.07856653 0.039912973 -0.027646476 0.019497195 -0.008661215 0.05103259 0.022365905 -0.00063254725 -0.021422284 0.02434276 -0.0047907815 0.013148116 -0.05527941 -0.027930945 -0.045158714 0.019903546 0.0068884706 -0.0074252454 -0.036396753 -0.0015996107 -0.0032381583 -0.0037060957 -0.014481846 -0.039934866 -0.064803615 -0.0024819544 -0.027086765 -0.020593943 -0.017239105 0.024202803 -0.01449458 0.015853574 0.017136365
315 -0.008277215 0.02010927 -0.004909713 -0.0084778415 0.013489987 0.029617725 0.016180456 -0.0294028 -0.011656346 0.022209357 0.07406031 -0.030453471 -0.03641893 0.02152657 -0.030193295 0.024683109 -0.019585125 -0.06749911 0.03431888 -0.019836714 0.003880892 0.0017904257 0.04324924 0.020310832 -0.0071652597 -0.023536855 0.012366178 0.009402823 0.015489189 -0.049322616 -0.01812339 -0.036717616 0.019213853 0.008470743 -0.013909256 -0.041489616 0.014522289 -0.0048553795 -0.010571133 -0.0064369743 -0.03812611 -0.058501095 -0.0038281162 -0.035196718 -0.012836438 -0.016599799 0.034038827 -0.0027793585 0.01670424 0.023075128
239 -0.013883281 0.010559135 -0.012363921 -0.0028089627 0.0069456114 0.029582165 0.02586997 -0.021693287 -0.0218664 0.007891886 0.070834816 -0.02602337 -0.033540465 0.01129472 -0.032115016 0.027506514 -0.027590284 -0.07815856 0.01974255 -0.023692967 0.01280822 -0.0144506665 0.05005195 0.013856063 0.0007607667 -0.022792328 0.009821726 -0.0036283312 0.009003032 -0.057715174 -0.021232506 -0.0451582 0.00758264 0.0063969283 -0.016190697 -0.03756296 0.012315557 0.00045745878 -0.020127082 -0.0174297 -0.03123724 -0.051409617 -0.0063820677 -0.041568756 -0.020787604 -0.0045614094 0.029311817 -0.010386795 0.011650241 0.01967385
67 -0.019427206 0.0068957685 -0.008622214 -0.010451264 0.008915581 0.023429092 0.026781693 -0.028062908 -0.018299589 0.005496239 0.06475522 -0.032385103 -0.0278299 0.014080709 -0.026091712 0.019965205 -0.020906417 -0.06998298 0.038027827 -0.029778535 0.008058231 -0.0015817242 0.04330243 0.034480337 -0.009703945 -0.029283727 0.017006353 0.00019097498 0.015640019 -0.058335055 -0.017325731 -0.035977274 0.004869179 -0.0020413527 -0.007861075 -0.043062177 0.01230296 -0.016163714 -0.012720741 -0.018316878 -0.045777306 -0.054241132 -0.00110777 -0.03016453 -0.015173785 -0.0010730012 0.023568165 0.0006357434 0.018145336 0.028484356
21 -0.0031059184 0.021266317 -0.0074674906 0.0018069363 -0.0022555308 0.021460975 0.024028985 -0.032715827 -0.006743063 0.009493729 0.076509416 -0.036907665 -0.04479848 0.009706266 -0.03468758 0.024936093 -0.019673683 -0.07843939 0.026584998 -0.03554135 0.010825688 -0.0027212212 0.049227856 0.027598143 0.0067315684 -0.027692411 0.024451356 0.009361974 0.0112112 -0.057561174 -0.019271912 -0.047172986 0.013880757 0.014301942 -0.009689828 -0.047642544 0.012457652 -0.0023427608 -0.021966474 -0.019956741 -0.048177347 -0.06395665 -0.0003966462 -0.047633816 -0.013395655 -0.008798307 0.022173831 -0.017263304 0.0023640445 0.013323827
271 -0.015060393 0.014152724 -0.013991476 -0.013775618 0.004964935 0.012851098 0.024158457 -0.018540429 -0.01774562 0.01609911 0.05254995 -0.026992004 -0.035636205 0.017594669 -0.03490665 0.018581407 -0.02169152 -0.059901763 0.026538093 -0.02680335 0.020447372 -0.0023584517 0.04496595 0.016462944 0.005403424 -0.02130096 0.0155528635 -0.0057759383 0.01563828 -0.045545105 -0.013965636 -0.040251907 0.018588688 0.011375041 -0.018724337 -0.039741185 0.011284027 -0.0045084567 -0.019233845 -0.007964269 -0.036059983 -0.06269967 0.004962119 -0.037224874 -0.018170996 -0.013230393 0.016634086 -0.0033301983 0.00054320565 0.021173853
170 0.0022484383 0.014880136 -0.013655721 -0.008037385 -0.0024301123 0.018893642 0.020319689 -0.01086079 -0.018090352 0.008922111 0.0486988 -0.034301385 -0.022839343 0.018029442 -0.02132448 0.015233922 -0.018853255 -0.067817666 0.034698676 -0.021771593 0.008551293 -0.007212727 0.048622306 0.014968026 0.0033625516 -0.0197866 0.019589372 0.0016130767 0.008541672 -0.040315367 -0.024444355 -0.02414033 0.020497603 0.00979673 -0.012414888 -0.034384377 0.006545152 -0.009184309 -0.0029757852 -0.023014056 -0.04418405 -0.04096801 -0.011092439 -0.028941024 -0.009005291 -0.01676913 0.019085981 -0.0020742158 0.01288288 0.024744343
304 -0.013512318 0.011875706 -0.020795014 -0.0036297333 0.010238066 0.01853529 0.020075997 -0.026656238 -0.019796478 0.010146946 0.06481737 -0.0210829 -0.038395844 0.010047804 -0.038545065 0.013638513 -0.03185527 -0.07777586 0.041697454 -0.037170958 0.00940505 -0.011643238 0.05152951 0.033539303 -0.0049770847 -0.03150167 0.011594525 -0.005940071 0.015909016 -0.06602211 -0.029745601 -0.032172736 0.012969293 0.0039460915 -0.009137528 -0.0340641 0.0017499342 -0.002860348 -0.0046541244 -0.018459786 -0.05359868 -0.07263512 -0.0040772688 -0.048566125 -0.018849218 -0.013612651 0.025768269 -0.014332237 0.008502329 0.024479114
19 -0.007721238 0.018822169 -0.009384093 -0.009584962 0.0051774695 0.030117938 0.033453718 -0.026083127 -0.011839625 0.012428391 0.059425894 -0.034363892 -0.03661868 0.024994545 -0.03769612 0.022954378 -0.03135541 -0.07915847 0.017176107 -0.018851241 0.020963192 -0.010258988 0.034781016 0.020411203 -0.0055166166 -0.012944265 0.013042582 0.010742521 0.014585202 -0.05248685 -0.009901469 -0.033050817 0.0035001351 0.00384946 -0.005388267 -0.032032967 0.0034049095 -0.015729494 -0.011817886 -0.006742602 -0.047518868 -0.049972326 -0.0067251124 -0.03488517 -0.019847158 -0.01288273 0.033512577 -0.0074037686 0.006409802 0.018020067
40 -0.0038650138 0.0118113095 -0.001628568 -0.001138828 0.01513725 0.031000901 0.017152146 -0.030445889 -0.021496495 0.020471942 0.057274282 -0.023276376 -0.033257246 0.02349003 -0.03495786 0.01671557 -0.026529232 -0.067374624 0.02400409 -0.026977135 0.011618735 -0.00010589331 0.035863843 0.02623768 0.007998716 -0.012383499 0.018313041 0.003876559 0.019514663 -0.05997893 -0.021297973 -0.027104333 0.00925541 -0.0031290064 -0.017421091 -0.041656498 0.015341631 -0.015209834 -0.010075082 -0.009656348 -0.047567718 -0.0621533 -0.007542284 -0.03540274 -0.012824018 -0.002925459 0.0378209 -0.018851569 0.016494526 0.010454699
122 -0.017622905 0.0007139053 -0.010396232 0.0048437333 0.004542908 0.029371452 0.022591552 -0.028041018 -0.009567551 0.019356843 0.061266474 -0.017441273 -0.032367196 0.009279762 -0.038146462 0.01997247 -0.03229638 -0.06642472 0.036841523 -0.029590676 0.008789117 -0.0063403766 0.03157456 0.0143407285 -0.008854946 -0.016720865 0.0068936385 -0.00420318 0.018819053 -0.04321587 -0.010280528 -0.033045933 0.01723651 0.002756296 -0.008724723 -0.03581687 -0.0019761296 -0.009522426 -0.019921431 -0.022957873 -0.039168518 -0.063079074 0.0019899232 -0.023117566 -0.01905386 -0.01462348 0.019472199 -0.008629633 0.009000334 0.022594893
272 -0.007442753 0.011132002 -0.0138783725 -0.003076294 -0.002110321 0.027055629 0.032124396 -0.019138573 -0.021687096 0.020825258 0.065097265 -0.018815126 -0.04094749 0.0136361 -0.02960935 0.023694787 -0.024708102 -0.072541595 0.02834679 -0.025637249 0.0034598792 -0.008332528 0.051358547 0.014228067 -0.007415868 -0.018975623 0.01303465 0.009224624 0.012158693 -0.055934917 -0.01642606 -0.03440974 0.0109915575 0.0032184143 -0.0046423795 -0.034571014 0.004620684 -0.0027289726 -0.009794883 -0.0132635385 -0.0402202 -0.063998856 -0.009738875 -0.025811099 -0.0066316146 -0.0015207968 0.03211883 -0.009617587 0.004883977 0.02808108
188 -0.0045273122 0.019260822 -0.017168447 -0.003347011 0.011493404 0.01658913 0.034125175 -0.017618569 -0.0148189515 0.023222344 0.073464446 -0.029674707 -0.02716385 0.01516776 -0.027140256 0.018833509 -0.016444225 -0.07707378 0.029574102 -0.019828008 0.017368281 -0.0052713156 0.039649643 0.033611868 -0.0036899566 -0.019321179 0.0103276 0.009729096 0.015227334 -0.043326873 -0.025317768 -0.032830864 0.020936431 0.00669467 -0.007813969 -0.044759497 0.002680854 -0.007097608 -0.01803378 -0.013612235 -0.039624054 -0.05424555 -0.013279882 -0.034332402 -0.01951736 -0.008458177 0.037691265 -0.016156938 0.01842462 0.022266956
41 -0.003386867 0.004172027 -0.019292898 -0.010841857 0.009819779 0.02363539 0.016173543 -0.027815875 -0.022552606 0.015890937 0.061291296 -0.027318511 -0.036994472 0.017959012 -0.03226659 0.01985293 -0.021089224 -0.06611179 0.03170866 -0.016133336 0.008461051 -0.0040001743 0.047025744 0.031401202 -0.0026258563 -0.024934325 0.009652791 -0.007468808 0.012383547 -0.059763156 -0.00916143 -0.046616267 0.017960554 0.0051951758 -0.008460589 -0.036871288 -0.004305471 -0.0019350562 -0.01020894 -0.024420543 -0.03517141 -0.06459999 -0.0051196534 -0.043638974 -0.0021032658 -0.0068047396 0.039037 -0.006882799 0.017864795 0.027560381
252 -0.012718961 0.0072848606 -0.0009255951 0.005274176 0.011521738 0.01763738 0.012891655 -0.028292885 -0.016795175 0.01655755 0.05711767 -0.025833646 -0.024874462 0.019392123 -0.021802615 0.01163782 -0.01813523 -0.06397163 0.029131543 -0.014699977 0.016252112 -0.012828306 0.04644759 0.012014669 0.008196983 -0.02552393 0.011543316 0.0067235017 0.009722092 -0.057225663 -0.0071917353 -0.036591537 0.013459626 0.01214054 -0.010200966 -0.03149723 0.01285233 -0.01250778 -0.017481882 -0.023656063 -0.03497206 -0.060886383 -0.008523895 -0.03607731 -0.010689838 -0.0014600832 0.02641252 0.0023544093 0.0069423006 0.027517203
329 -0.006930618 0.009196511 -0.0050532087 0.002633367 0.0037702466 0.03595451 0.022161555 -0.024528664 -0.021592338 0.0134545015 0.07693041 -0.037475053 -0.029739458 0.020466 -0.035895273 0.018518534 -0.037537165 -0.07633078 0.041698996 -0.034846555 0.017367918 0.0004768022 0.055408973 0.018872695 0.00488484 -0.027778098 0.025772553 0.01033141 0.008652854 -0.062525265 -0.01276534 -0.03770229 0.019820658 0.006221013 -0.0037122902 -0.03329002 -0.0006771482 -0.007838703 -0.020323368 -0.027981963 -0.049036853 -0.057052903 -0.0032973047 -0.035847083 -0.02125482 -0.0075086867 0.04096913 -0.008630364 0.017507385 0.018259065
227 -0.006626858 0.0066382126 -0.007334767 -0.010837582 0.01282593 0.0158071 0.03580684 -0.022409676 -0.009803506 0.0133662755 0.07700973 -0.024715688 -0.028736766 0.023220127 -0.03668615 0.021635663 -0.02031321 -0.06846452 0.039486896 -0.024356367 0.020058392 -0.012988517 0.055788264 0.03299395 -0.0096597625 -0.01887031 0.014105601 -0.001505125 0.023345657 -0.06487686 -0.021396384 -0.042409815 0.02426771 0.003916932 -0.010464965 -0.03885439 0.0017536263 -0.012412508 -0.0077886963 -0.015235827 -0.0403731 -0.06854274 -0.014618562 -0.038254153 -0.022910884 -0.0077278353 0.028196782 -0.0018056214 0.012645231 0.020254984
236 -0.01406282 0.009088622 -0.008409293 -0.0142939165 0.014283737 0.030246515 0.014884501 -0.017305357 -0.005243652 0.011447153 0.07059521 -0.025928639 -0.041685987 0.0089773 -0.030715618 0.028432723 -0.017865617 -0.075165726 0.0362472 -0.026650049 0.020451609 -0.0020031729 0.03397538 0.019768728 -0.006517522 -0.02064707 0.0120309545 -0.0022473733 0.0107614985 -0.0487858 -0.009455892 -0.031700432 0.020513108 0.007641862 -0.00081572414 -0.041428592 0.0028078659 -0.008994603 -0.012881372 -0.020970125 -0.040668733 -0.057617895 0.0030272456 -0.03497834 -0.018535955 -0.014264947 0.035885137 -0.009747313 0.0062908996 0.026502864
203 -0.0021256506 0.018286066 -0.011463979 -0.0031482463 0.007131783 0.03135459 0.014733597 -0.027163712 -0.0068075866 0.015337948 0.06261899 -0.016037539 -0.02028547 0.016901473 -0.02195562 0.025560543 -0.02979917 -0.073301606 0.02220437 -0.019345785 0.02287847 -0.012735422 0.042562906 0.011889522 0.0041945362 -0.020587938 0.021628056 -0.0001657279 0.0027208035 -0.04825308 -0.013029251 -0.039916787 0.0066560367 0.0033506183 -0.017136747 -0.044529486 0.004121215 -0.017316109 -0.013381067 -0.009724013 -0.032687712 -0.051653925 -0.007939312 -0.0342835 -0.009681085 -0.016106151 0.031980667 -0.017114636 0.0057445373 0.011413171
214 -0.01188126 0.014758652 -0.007780352 -0.008115314 0.0022099556 0.023856658 0.024315389 -0.026319442 -0.013041447 0.02020306 0.06578261 -0.03116967 -0.020056589 0.022142371 -0.02785223 0.01840033 -0.025545618 -0.07280036 0.03008691 -0.024729228 0.0040113972 -0.004880656 0.04357676 0.026775112 0.0025480706 -0.014151487 0.015299497 -0.007690756 0.0073561408 -0.038815215 -0.009947338 -0.03177553 0.017666567 0.0043836622 -0.0034648795 -0.033695813 0.0016506992 -0.011406564 -0.0039195945 -0.016030855 -0.039351948 -0.058995105 0.0029720233 -0.028072784 -0.013659723 -0.0013395762 0.022879466 -0.007408045 0.0015092953 0.026148092
312 -0.00781841 0.008520471 -0.0030440437 -0.0073433234 0.0020134093 0.017376853 0.02461683 -0.029570213 -0.018184049 0.009873352 0.069866 -0.03722834 -0.04328922 0.0171362 -0.038348068 0.015468053 -0.031646177 -0.071106195 0.030166108 -0.034546107 0.02180271 -0.009469647 0.041347098 0.033019364 -0.010060351 -0.025239658 0.025081668 -0.0037954282 0.013722939 -0.06134916 -0.015208015 -0.045647822 0.014324688 0.015154398 -0.020251762 -0.044080894 0.0074985223 -0.020831535 -0.0043850755 -0.014606824 -0.040429257 -0.054732677 -0.004487411 -0.02777394 -0.011116406 -0.019241327 0.025792541 -0.004677067 0.002043658 0.02023923
280 -0.0019222836 0.0055388417 -0.0011537304 -0.0070774313 0.012735608 0.01814163 0.024915505 -0.020749496 -0.011990654 0.023731906 0.06216419 -0.01848559 -0.039128788 0.01830073 -0.03925263 0.02348636 -0.029244829 -0.07041886 0.029899482 -0.036266763 0.017339226 -0.00043409987 0.046845548 0.029940626 -0.0021008637 -0.023041498 0.0085446695 0.009940249 0.021896318 -0.04631918 -0.018011399 -0.040144656 0.0044730273 0.015727922 -0.01483875 -0.02897459 0.0026992122 -0.013188492 -0.016449813 -0.0161229 -0.03844268 -0.06297331 -0.013236062 -0.037051037 -0.0193622 -0.017488727 0.034595095 -0.017294008 0.019134773 0.015104697
9 -0.0090878755 0.0069878907 -0.00836079 -0.005289792 0.008635168 0.028921926 0.020115957 -0.02041304 -0.022498125 0.022840966 0.06451027 -0.020140236 -0.02385718 0.026745688 -0.03554409 0.017635172 -0.019335603 -0.07979266 0.034095746 -0.023064774 0.0062544164 -0.008608259 0.044119224 0.015715992 0.0075241574 -0.02530516 0.024337066 -0.0039085164 0.0113765495 -0.04797285 -0.0168053 -0.029904345 0.021514863 0.0033097933 -0.009577058 -0.03433954 0.011320861 -0.014817895 -0.018357735 -0.025709162 -0.035908274 -0.06214035 0.0017776168 -0.04261936 -0.0032931534 -0.009727032 0.027765268 -0.01571777 0.009207207 0.01563797
115 -0.012684667 0.018413167 0.00029618744 0.007010284 -0.0023125086 0.0285148 0.024931772 -0.011003962 -0.010770378 0.011373257 0.053146128 -0.033249922 -0.02370594 0.022071315 -0.0277387 0.026136175 -0.02701841 -0.06198399 0.019912459 -0.027103392 0.0073652053 -0.008128948 0.036708694 0.023284089 -0.0011612665 -0.019331979 0.016933484 0.004887104 0.01918307 -0.05173408 -0.01417557 -0.03693339 0.01809469 0.0052330703 -0.013559937 -0.022016684 -0.0003633354 -0.0018373698 -0.010318407 -0.004192696 -0.039257433 -0.040705353 0.0049670446 -0.018858714 -0.016482033 -0.002897373 0.019750088 -0.010644267 0.005368979 0.025952302
200 -0.009233522 0.0031694518 -0.008176312 -0.011113066 0.013933269 0.013695438 0.017057266 -0.019417608 -0.018999873 0.00980563 0.063281834 -0.03157674 -0.031830885 0.012382449 -0.037405476 0.01979338 -0.024970973 -0.06670839 0.0327295 -0.023477564 0.0046291994 0.004576353 0.032891154 0.026797548 -0.0075214054 -0.015933193 0.012417803 -0.006085576 0.011386477 -0.05562297 -0.0214032 -0.032418407 0.006191985 -0.0012852203 -0.017163403 -0.033121128 0.011497426 -0.014955391 -0.002230411 -0.0060096825 -0.028741593 -0.042725578 -0.006975726 -0.03617227 -0.013958374 -0.009890756 0.02226608 -0.012172783 0.010866716 0.02379802
175 -0.0030376296 0.020956274 -0.0045172903 0.00076954876 0.014319992 0.019338354 0.03389079 -0.02473895 -0.01085072 0.005954578 0.06611551 -0.02393761 -0.032691535 0.017661462 -0.042826388 0.030195458 -0.03538287 -0.07528709 0.037391383 -0.030446267 0.014146777 0.0005564641 0.05210021 0.021838663 -0.0010077147 -0.02065868 0.012657384 0.010615719 0.021770453 -0.05668027 -0.016305678 -0.046834666 0.012682231 0.0054071327 -0.018958054 -0.04296606 0.0071048774 -0.011039986 -0.0063696043 -0.017678516 -0.04065876 -0.062905625 -0.008395672 -0.029303893 -0.01847071 -0.002001045 0.025374733 -0.008080391 0.01579175 0.019240469
137 0.00095496286 0.018799921 -0.002794751 -0.00083272276 -0.0017461135 0.01592298 0.03231078 -0.014298435 -0.014011403 0.018045535 0.064697236 -0.02394075 -0.028524712 0.02192958 -0.034742676 0.014978125 -0.031393085 -0.071476415 0.020067578 -0.02311919 0.01755542 -0.0075190263 0.043573953 0.01544269 0.006082704 -0.01388444 0.020321714 -0.0004660948 0.020657657 -0.05694076 -0.018208118 -0.0321724 0.006402576 0.012431504 -0.014725091 -0.032789167 -0.0018606335 -0.007132616 -0.013948712 -0.024117665 -0.041109364 -0.05139084 -0.00397103 -0.026349008 -0.00926169 -0.010470662 0.04021588 -0.011866876 0.005515287 0.015718445
230 0.002485216 0.013995982 -0.0024283081 -0.0012898117 -0.001564261 0.02085312 0.0405459 -0.036732584 -0.0029829934 0.012127249 0.072381884 -0.03437841 -0.04289154 0.028765315 -0.03374063 0.028311562 -0.03565243 -0.093950294 0.04573282 -0.031707466 0.021431217 -0.0008983332 0.061951347 0.033806227 -0.00021635911 -0.023702681 0.027615964 0.0051460415 0.015689308 -0.06993834 -0.024904503 -0.054062106 0.014266649 0.0005531645 -0.008622351 -0.043433316 0.017308448 -0.006262539 -0.02052936 -0.019688325 -0.058055658 -0.07234244 -0.0077504055 -0.03172728 -0.006658967 -0.011735228 0.050054513 -0.01196771 0.011716962 0.027700989
323 -0.009938334 0.007584997 -0.009329484 0.003304221 -0.00035974156 0.015369291 0.021370908 -0.027183017 -0.015149452 0.019679654 0.055063274 -0.035866037 -0.036705386 0.012291267 -0.035519052 0.016778745 -0.01848215 -0.06868408 0.036223836 -0.035653587 0.0064470405 -0.01232206 0.037722435 0.026316207 0.0073734173 -0.0243471 0.017613614 0.00638204 0.01586752 -0.05372388 -0.020369064 -0.030932171 0.013292456 0.006606914 -0.006272132 -0.03935797 0.013874447 0.00034438496 -0.006085142 -0.019095518 -0.033520244 -0.04994896 0.0020464677 -0.025439586 -0.019154772 -0.008781218 0.033173364 -0.005701915 -0.0009020288 0.023396447
249 -0.01812928 0.011667882 -0.019788258 -0.009886928 0.005246816 0.034359787 0.029899338 -0.0136503335 -0.01466169 0.01385103 0.068209946 -0.022138525 -0.04196187 0.018554652 -0.03459999 0.026658261 -0.037286676 -0.07264106 0.024307646 -0.018881671 0.013872156 -0.0060660876 0.042409398 0.02874868 -0.0011080335 -0.029929722 0.024042347 0.0014213289 0.019866304 -0.050057963 -0.027465882 -0.03652544 0.011550858 0.011190001 -0.0053479807 -0.047814585 0.00851431 -0.004329267 -0.0070989174 -0.020962542 -0.03661742 -0.06301723 -0.007997872 -0.030276816 -0.004897372 -0.0045330296 0.025535513 -0.0009084787 0.009080466 0.023363534
118 0.0014579444 0.008159863 -0.0027236636 -0.0033552276 0.0063752965 0.019990537 0.028500216 -0.025418146 -0.0029221803 0.023989694 0.07218115 -0.027228277 -0.033010524 0.017599106 -0.042614274 0.016001787 -0.016046818 -0.07641653 0.032521106 -0.035643686 0.017988289 -0.004785679 0.039707404 0.02476092 -0.00034690954 -0.014859177 0.023312792 0.0027850291 0.023604248 -0.0521299 -0.013989818 -0.03692403 0.002907133 0.0039738514 -0.0038935933 -0.04241118 -0.0010925916 -0.015508519 -0.010667621 -0.02048228 -0.031462166 -0.06065321 -0.013189633 -0.031946126 -0.015734505 -0.01725299 0.034755304 -0.014742478 0.004515387 0.025954409
142 0.0006505683 0.00075608515 -0.017704885 -0.013241908 0.0043109967 0.026971249 0.02619848 -0.018920088 -0.009890747 0.006298908 0.044053115 -0.026963137 -0.027841575 0.020069007 -0.03015253 0.0071996166 -0.019445188 -0.0523299 0.020128643 -0.018641721 0.016864972 -0.0008331651 0.028695302 0.0175475 -0.0048675374 -0.006706818 0.014723338 0.0049614226 0.0030619912 -0.036253456 -0.020750413 -0.027647443 0.011756534 0.00017432548 -0.0049199862 -0.039126758 0.0072268667 -0.012430402 -0.00055224285 -0.020922732 -0.038240574 -0.036269583 0.0051761344 -0.035966042 -0.0066021048 -0.013072233 0.026970482 -0.011133116 0.010886888 0.015169104
325 -0.0011530628 0.002002809 -0.007237875 -0.010598848 0.013553637 0.0145821115 0.013766887 -0.016467346 -0.010728864 0.021901391 0.06650292 -0.023406196 -0.03366396 0.021663798 -0.036951836 0.019955661 -0.030161861 -0.061560944 0.036765054 -0.02994316 0.022985967 -0.0052469205 0.038747057 0.022623658 0.0014619043 -0.0104173515 0.021593295 -0.0027428616 0.015702374 -0.056872237 -0.008233152 -0.04246486 0.007798136 0.005914806 -0.010572258 -0.033319388 0.012340088 -0.0075763715 -0.0033136674 -0.011581111 -0.04514637 -0.054264866 0.0045552216 -0.03440611 -0.004571465 -0.006224634 0.035685867 -0.01866133 0.00635733 0.014227846
169 -0.006121131 0.01643258 -0.0046522785 0.003837039 0.0023549267 0.022518545 0.028482476 -0.025260901 -0.020353809 0.022190537 0.054877482 -0.035803486 -0.040572114 0.019402854 -0.031971205 0.025278278 -0.028715346 -0.06523366 0.021377712 -0.02485222 0.0029325178 0.0015463786 0.04873006 0.032084525 -0.0069973473 -0.018996987 0.02009262 0.0044596824 0.02331997 -0.054089196 -0.013408471 -0.034711882 0.007011123 0.010865013 -0.00012968418 -0.030133389 0.0068353345 -0.00127192 -0.009284489 -0.016212923 -0.030591073 -0.04943381 -0.00048091772 -0.04248373 -0.0059918365 0.0011497757 0.029805472 -0.008879348 0.012912409 0.020653663
199 -0.0073371897 0.004782189 -0.01508066 -0.0006947267 -0.0020665268 0.030973533 0.01854609 -0.021619266 -0.0026708657 0.007540714 0.066451184 -0.02137745 -0.026871001 0.0115376655 -0.028662978 0.021175329 -0.025701039 -0.076263316 0.03287778 -0.027438214 0.005621916 -0.008762312 0.04253972 0.0141854845 -0.005296659 -0.026963312 0.016410394 -0.0077100857 0.013957549 -0.047745496 -0.011021961 -0.024521071 0.011013247 -0.0008005894 -0.019948302 -0.035353374 0.004062051 -0.013992462 -0.0022809294 -0.015810132 -0.03015783 -0.060830623 -0.004356418 -0.029809026 -0.013053652 -0.0037325423 0.024243137 0.00052644825 0.01741446 0.027665393
49 0.003929351 0.0046880436 -0.008630547 0.0052780644 0.004857385 0.013039178 0.022444746 -0.016020322 -0.020667361 0.0028833733 0.07394113 -0.038233534 -0.036260538 0.007863827 -0.028437937 0.016908882 -0.022873284 -0.081807464 0.03185987 -0.038680553 0.003732415 -0.014813579 0.027988752 0.021416556 -0.007887235 -0.03135832 0.02873 -0.00500012 0.02672629 -0.061317004 -0.0064347233 -0.03142408 0.0016612369 0.012646973 -0.01753352 -0.028252387 -0.0047413055 0.00015402344 -0.015757527 -0.013286241 -0.039629396 -0.06132255 0.0025903077 -0.043384142 -0.02323497 -0.009643177 0.03585762 -0.008719076 0.020521054 0.020177977
177 -0.008561668 0.017295148 -0.006562353 -0.004098729 0.008130387 0.021936724 0.02700561 -0.029276121 -0.0127147315 0.0058183824 0.05816147 -0.022909824 -0.02709154 0.013430099 -0.035726853 0.026450632 -0.03004197 -0.07791136 0.03505027 -0.016661704 0.021462569 -0.012988955 0.05198743 0.025105804 -0.011985826 -0.029354896 0.019024763 -0.0066549466 0.026216201 -0.047412425 -0.0159286 -0.032195173 0.018244158 0.0168636 -0.010213779 -0.048586253 0.0007801172 -0.018522762 -0.023095362 -0.018821362 -0.03969973 -0.05633507 -0.00938514 -0.03528922 -0.0034306152 -0.008030929 0.03734465 -0.004835663 0.0014715776 0.013297709
186 -0.0060328254 0.011232789 -0.016995529 0.0012249593 0.012425813 0.01057385 0.013154748 -0.0153182065 -0.0048694126 0.014874171 0.06476101 -0.03085689 -0.017945409 0.019545032 -0.031874947 0.014382006 -0.018177103 -0.06998994 0.018463938 -0.021638723 0.013332654 0.0023589998 0.047520485 0.027810482 0.003931513 -0.027224576 0.02283146 -0.0026522356 0.01175143 -0.03441567 -0.017761027 -0.033081096 0.015171982 0.010612866 -0.014000401 -0.03597645 0.011146764 8.8804394e-05 -0.011555172 -0.007597764 -0.04108755 -0.043792967 -0.00031031398 -0.038610864 -0.0055157663 -0.008746588 0.023784546 -0.0016831557 0.006775398 0.024299728
53 -0.00080054614 0.011932696 -0.006480363 -0.0048793918 0.002448108 0.032067094 0.03233969 -0.012001753 -0.021362519 0.01704656 0.06336811 -0.03205039 -0.028790101 0.01387889 -0.026583392 0.02779425 -0.02905633 -0.06771597 0.0301885 -0.029517407 0.019184422 -0.0064799595 0.044774275 0.015367651 0.00031604178 -0.024780985 0.014501243 -0.0019391474 0.023520283 -0.04608026 -0.021053936 -0.041381314 0.003533884 -0.0026576014 -0.010964157 -0.044987448 0.0008122584 -0.016175304 -0.018494863 -0.012194168 -0.040505342 -0.042189285 0.001955952 -0.033412937 -0.010408337 -0.010021677 0.024018526 -0.011755378 0.013577936 0.023480918
324 -0.012950948 0.0058431737 -0.0021271885 -0.006839056 -0.005131117 0.02986702 0.031800635 -0.026550371 -0.0024840944 0.014197278 0.06515603 -0.016444981 -0.03219577 0.020327752 -0.020805648 0.027693449 -0.030428527 -0.057380814 0.028507957 -0.03413324 0.012162027 -0.0022552784 0.046081055 0.015449257 0.0032900916 -0.018634602 0.025028301 -0.0017317751 0.020497035 -0.0516446 -0.008606778 -0.03611957 0.0048382045 0.0070870877 -0.012936439 -0.042471122 0.002738748 -0.007971523 -0.0037721605 -0.024882715 -0.03298944 -0.053502373 -0.0041503683 -0.038136013 -0.005398833 -0.00172307 0.032172743 -0.0058538597 0.006766214 0.016872734
261 -0.008298875 0.00017181759 -0.018649263 0.0043217805 0.004610664 0.03131115 0.02005085 -0.016663902 -0.01514372 0.015834218 0.06967221 -0.027737431 -0.030741505 0.016957046 -0.0348387 0.011636505 -0.026033115 -0.06561963 0.021029826 -0.016285209 0.017670367 0.00041646283 0.043317348 0.026855558 -0.0007902716 -0.015754037 0.012791382 0.002391979 0.009297004 -0.039300732 -0.026764201 -0.03781015 0.020811282 0.016612146 -0.011905367 -0.034371868 -0.00013926257 -0.002815289 -0.014293606 -0.008784831 -0.0454436 -0.04813246 -0.010114446 -0.03587038 -0.0062854206 -0.0095055755 0.036801927 -0.008301556 0.01563652 0.015094207
213 -0.017576864 0.0021791223 -0.010296269 0.0008471216 0.004310919 0.03079779 0.01688963 -0.0183204 -0.002930802 0.008066641 0.06332071 -0.034308486 -0.037650455 0.0072702016 -0.034127485 0.02436242 -0.02778431 -0.074398726 0.024117922 -0.029376298 0.01651123 -0.013227424 0.050421573 0.013037522 0.002395221 -0.013255011 0.01666625 0.010830451 0.022696812 -0.05203102 -0.016927527 -0.038257353 0.018363336 0.005302569 -0.00593117 -0.035730597 0.011166453 -0.0028851898 -0.014493627 -0.01763398 -0.032987453 -0.05338328 0.003486076 -0.026274376 -0.018561943 -0.015492704 0.028302548 -0.0025982661 0.008960667 0.017842688
113 -0.013389503 0.011596615 -0.005137513 -0.010156355 0.00030710155 0.011833356 0.010536012 -0.022843223 -0.010478821 0.019174198 0.041990448 -0.026142972 -0.029099831 0.01682261 -0.0203935 0.012217108 -0.027696941 -0.060770836 0.02889391 -0.01751483 0.019466303 0.0011798625 0.033452176 0.027234739 -0.007020591 -0.008437467 0.004163245 0.0030846102 0.005730706 -0.044907723 -0.014328518 -0.018213691 0.014609028 -0.004361614 -0.014039462 -0.03609326 0.013040237 -0.0053610364 -0.010775601 -0.019250816 -0.037617885 -0.045095745 0.0033103353 -0.02783202 -0.0015684813 -0.00038513108 0.017073454 0.002829573 0.004828755 0.014123219
192 -0.0034437021 0.0031555532 -0.018671365 -0.0014950695 -0.0060498286 0.030078663 0.033620294 -0.016464317 -0.01696538 0.004791452 0.0707108 -0.038644303 -0.025695344 0.014002197 -0.034606434 0.017907877 -0.014901726 -0.075082615 0.026634986 -0.036944598 0.017486753 0.0010813974 0.028601795 0.02677897 0.0066391192 -0.031157706 0.02964336 -0.008548663 0.026063189 -0.06140107 -0.0066786637 -0.03713689 0.0034935367 -0.0034454481 -0.01604209 -0.026158972 0.009667896 -0.0030724988 -0.004539574 -0.013629795 -0.029630365 -0.059280682 0.002530048 -0.042196058 -0.023379754 -0.01705796 0.024669657 -0.015131443 0.013830841 0.010047115
313 -0.005540586 0.00015330239 -0.0021429604 -0.007034788 -0.0019696255 0.018777313 0.011341485 -0.011058425 -0.007836118 0.002723411 0.05109098 -0.020535031 -0.018019432 0.024398971 -0.030911522 0.019989742 -0.024456622 -0.06616037 0.02564968 -0.027868526 0.011054763 -0.0052323285 0.045316927 0.02753119 -0.0055920463 -0.02177424 0.0068941517 -0.006011588 0.0037964643 -0.051685072 -0.008313823 -0.020948423 0.01948957 0.0029297625 -0.007526648 -0.03204952 0.0070709377 -0.013585885 -0.010765656 -0.008514031 -0.039733596 -0.058611885 -0.007948292 -0.021684147 -0.01845314 -0.014465039 0.017759824 -0.0009487868 0.009765764 0.020189159
343 -0.004310058 0.008964736 -0.014186095 -0.0032263957 -0.005343156 0.012365672 0.018153967 -0.022642896 -0.015833065 0.021341525 0.06460591 -0.023764381 -0.03231201 0.01822548 -0.022657085 0.019302774 -0.012996686 -0.069142096 0.021904908 -0.022538727 0.021198502 -0.0121499235 0.03797377 0.024258167 -0.012375645 -0.026370991 0.008659239 0.0073304744 0.016223287 -0.053266153 -0.014085261 -0.03169517 0.01822193 0.007343613 -0.020193763 -0.03552923 0.0065273996 -0.0038906133 -0.009444141 -0.002019111 -0.029655524 -0.05711579 -0.014673075 -0.030127646 -0.00013708221 -0.0059829904 0.030328369 -0.007966666 0.003019935 0.013799127
346 -0.016265966 0.006501799 -0.014233476 -0.011306258 0.0148714585 0.027887644 0.021426072 -0.029433023 -0.009115977 0.021516856 0.06930058 -0.03671044 -0.04219718 0.01355953 -0.03496612 0.026190193 -0.028848272 -0.0770128 0.031350594 -0.025165558 0.021388264 -0.011251721 0.03682121 0.022996238 -0.0059038526 -0.025654545 0.016318716 -0.003373242 0.023071917 -0.060489215 -0.009996602 -0.04430989 0.018256774 0.013387384 -0.019151561 -0.04004949 0.006296465 -0.01408075 -0.015888834 -0.01940352 -0.050643474 -0.055867486 -0.004523455 -0.03972391 -0.011089677 -0.016809523 0.038223326 0.00073740043 0.0018547148 0.021788578
143 -0.016351374 0.016010616 -0.005676688 -0.014355423 -0.003868916 0.016664885 0.03202743 -0.018143307 -0.009313985 0.024408212 0.052262783 -0.034861755 -0.028858164 0.02373736 -0.035562668 0.028527325 -0.01645476 -0.06296643 0.019430228 -0.017328668 0.003261894 0.0053865057 0.04929108 0.028216066 0.0067860675 -0.030930875 0.017545607 0.012170034 0.019903233 -0.048085965 -0.021798484 -0.04718222 0.009621545 -0.001514888 -0.020445937 -0.047423556 -0.0025365723 -0.008631685 -0.018146165 -0.027538652 -0.04589074 -0.058392312 -0.005706425 -0.03058482 -0.016947038 -0.008259585 0.021306334 -0.0002765979 -0.001682481 0.02132867
8 0.001152539 0.0004865393 -0.008669076 2.287298e-05 0.015770802 0.027512193 0.017371595 -0.02118161 -0.017085785 0.014177569 0.050605223 -0.022452813 -0.036909554 0.017429829 -0.0346373 0.020698782 -0.030896114 -0.07314193 0.03982963 -0.026968727 0.012118356 0.0032063897 0.04910022 0.015084487 -0.00018399564 -0.011109461 0.007313224 0.0046671694 0.017800082 -0.043232672 -0.01697797 -0.030351939 0.02223482 -0.00075088494 -0.019510455 -0.027098347 0.00095568015 -0.0042775 -0.019104026 -0.012227285 -0.050215583 -0.053456187 0.0062843603 -0.023164991 -0.008701276 -0.014928804 0.015204077 -0.0028272597 0.004420448 0.005260761
91 -0.0041603507 0.0010764614 -0.02095876 -0.008319671 0.0072978055 0.014401276 0.01692729 -0.023527244 -0.020789154 0.003503826 0.050735395 -0.03223857 -0.03698073 0.020235196 -0.033137724 0.0148925865 -0.019606676 -0.0603816 0.032739785 -0.02297434 0.022710916 0.001315058 0.03489834 0.025973018 -0.009463398 -0.00791529 0.017990235 0.010507892 0.021889819 -0.044447627 -0.013295394 -0.041983206 0.0050296797 0.016557995 -0.016182853 -0.041724958 0.000575977 -0.0135986535 -0.0052529797 -0.015905747 -0.03469326 -0.05972456 0.0023441154 -0.025455942 -0.00025648394 -0.016688127 0.02401637 -0.002966611 -0.0021798112 0.017227706
109 -0.011469788 0.011555086 -0.006700119 -0.013211554 -0.0034082928 0.030318223 0.011411194 -0.018145924 -0.0070949043 0.020869628 0.06439345 -0.029010938 -0.018948076 0.009596614 -0.030541524 0.010969794 -0.024302287 -0.053898383 0.031039558 -0.027277272 0.0076528755 0.0042278557 0.04718632 0.013356797 0.0038706344 -0.017488033 0.010760066 0.00696851 0.008881571 -0.05405964 -0.022957213 -0.028211923 -0.00012336501 0.013107043 -0.0017667175 -0.037281267 0.012471708 -0.0028284136 -0.009130726 -0.010907789 -0.041578837 -0.051751696 0.0012532766 -0.02930875 -0.01754185 -0.0036457283 0.03186682 -0.006338395 0.0039070863 0.027002184
291 0.0016174763 0.011778671 -0.017761037 -0.003735041 0.0130349435 0.031595036 0.025823519 -0.014012543 -0.008350344 0.022406776 0.06241976 -0.019632146 -0.025741955 0.0109380195 -0.021241928 0.02477741 -0.02647563 -0.07278083 0.02543387 -0.031649448 0.0055246805 -0.0003028349 0.04618993 0.024555726 0.004168597 -0.025482256 0.0050303154 -0.0071329693 0.017548827 -0.04419646 -0.025858939 -0.033367425 0.0064437026 0.0067834775 -0.005518251 -0.034591347 -0.0030293537 -0.0011480626 -0.0124031715 -0.015026409 -0.028933594 -0.059237897 -0.0008743514 -0.03615178 -0.006589276 -0.0010116299 0.027398031 -0.0049080295 0.008769231 0.011884551
80 -0.016966794 0.003128017 -0.015098139 -0.010321977 0.013784358 0.021255981 0.023220036 -0.018542565 -0.009647858 0.019745713 0.057111304 -0.023705985 -0.032028556 0.01012567 -0.023330398 0.016805919 -0.030680157 -0.06443124 0.03687193 -0.02425579 0.011213982 -0.0052801874 0.03990218 0.024118386 0.0023563912 -0.019171951 0.01834846 0.011008668 0.019071674 -0.049815804 -0.008878525 -0.026432779 0.0059327707 0.013274209 -0.009454402 -0.03516286 0.012038452 -0.015127081 -0.008092847 -0.0051226877 -0.042341527 -0.06089242 -0.0088487305 -0.028895529 -0.00206941 -0.0051544895 0.03696375 -0.014926742 0.008941448 0.02154884
98 -0.013470338 0.008005691 -0.012111683 -0.0011336728 0.007584864 0.010759886 0.009870698 -0.012573933 -0.000669725 0.0101257 0.0555698 -0.025111718 -0.027514813 0.008829304 -0.031005895 0.018041288 -0.017579447 -0.060415123 0.01879511 -0.029733643 0.0110531645 -0.013757099 0.041564684 0.020149149 0.000187978 -0.0128566045 0.007467146 0.009335691 0.0062288656 -0.03429057 -0.015103149 -0.03268211 0.016057631 0.0033367802 -0.006619216 -0.03782217 0.004147283 -0.0057670097 -0.0016613661 -0.0056518693 -0.03615066 -0.049876392 0.0004657349 -0.033052836 -0.0014122865 -0.0061787195 0.012816697 -0.014034939 -0.0014167583 0.021035766
150 -0.0048073027 0.012417623 -0.00426467 -0.012736188 0.006300667 0.023913505 0.03314462 -0.030290682 -0.020576816 0.024107622 0.06521825 -0.021146458 -0.028432826 0.019006686 -0.033819664 0.017215349 -0.034188014 -0.062350113 0.032292616 -0.019939303 0.007526007 -0.0114533715 0.037586555 0.029088376 -0.012600457 -0.021541223 0.010859669 0.008521714 0.0070152623 -0.059799436 -0.022672225 -0.03191684 0.0055625574 0.011603287 -0.020067323 -0.045484647 0.0047427015 -0.010939851 -0.015008296 -0.022349443 -0.035483457 -0.061901614 0.004719147 -0.04269422 -0.012960686 -0.010742392 0.040613294 -0.007344799 0.018226322 0.015226766
82 -0.01176667 0.012044669 0.00044051927 -0.0017633872 0.012212995 0.02644383 0.02522535 -0.009316176 -0.01396496 0.021698453 0.04915975 -0.035213977 -0.0361707 0.024473043 -0.036364984 0.010010841 -0.029966312 -0.071626686 0.018300332 -0.02651901 0.014658525 -0.013894631 0.031689923 0.028046226 -0.0029794413 -0.009138382 0.021166785 0.0022938643 0.005072123 -0.043762114 -0.007045998 -0.04179879 0.01792399 0.009100088 -0.0082073035 -0.030050283 0.01063204 -0.009335767 -0.007278906 -0.0048298184 -0.045062814 -0.046435732 -0.0013737587 -0.04079663 -0.0058280732 -0.016256772 0.020351274 -0.0005225191 0.016420726 0.012548749
94 -0.0059650326 0.0060277204 -0.000937035 0.00036257712 0.002295154 0.020017233 0.01848622 -0.020019993 -0.008134912 0.00729915 0.06822432 -0.027718702 -0.034594435 0.015275438 -0.02204184 0.022720885 -0.02517882 -0.06369529 0.026699536 -0.021851609 0.003810988 -0.0021851845 0.041727055 0.017833978 -0.0015980648 -0.014884261 0.01370872 0.008350134 0.020368896 -0.053722262 -0.015603865 -0.03840845 0.018614465 -0.0021726121 -0.007960447 -0.045276172 0.0043902206 -0.005389915 -0.00070641324 -0.021495618 -0.039948393 -0.046867106 -0.013619693 -0.031484067 -0.0038652048 -0.005361297 0.0307132 -0.000813696 -0.0006660735 0.0118936375
161 -0.010373172 0.019195791 -0.0020170945 0.0021751397 0.0025502706 0.018762821 0.022551859 -0.02465203 -0.0035832184 0.009695133 0.065269 -0.033205528 -0.023059705 0.024394274 -0.035801243 0.01070035 -0.0151939895 -0.057774536 0.017640451 -0.022628143 0.007856299 -0.00029235182 0.034387887 0.020191332 -0.008663943 -0.012638562 0.014342471 0.0024015403 0.002787403 -0.05105895 -0.00912834 -0.026238803 0.0056397226 -0.0034873786 -0.013403289 -0.026351843 -0.002926162 -0.015279279 -0.0063960413 -0.0055624694 -0.04169791 -0.053179562 -0.0009444716 -0.026674777 -0.01230204 -0.004787235 0.020779075 -0.011341301 0.009064119 0.008392665
78 -0.0039009792 0.014677636 -0.013017482 -0.015535227 0.008565103 0.019590724 0.03575604 -0.012195742 -0.006015713 0.02148753 0.072680354 -0.02420188 -0.03741936 0.018624322 -0.03949455 0.023731647 -0.03088858 -0.07125176 0.042515546 -0.024450056 0.019697884 -0.014122703 0.045337725 0.021640996 -0.0135841975 -0.02658904 0.008960127 -0.0063803135 0.0101571195 -0.058365278 -0.004786143 -0.030635402 0.010706395 0.00615451 -0.003260616 -0.041771922 0.011785153 -0.0012759162 -0.004160795 -0.021139732 -0.048082363 -0.0622305 0.0010014271 -0.034139503 -0.0043941154 -0.019711113 0.029703483 -0.004240581 0.007330092 0.01219379
116 -0.011068713 0.00863686 -0.013611917 0.0054185963 -0.0026033735 0.022941628 0.020302638 -0.011032233 -0.008207141 0.012709351 0.056176312 -0.018717233 -0.030734345 0.007089338 -0.022962414 0.009929506 -0.02370382 -0.060537443 0.025009807 -0.010315354 0.0038871358 -0.0108319735 0.028536689 0.029617095 -0.0022411165 -0.02206987 0.013970486 0.0050081345 0.013353846 -0.037917472 -0.007802421 -0.031805273 0.0045786076 0.008342351 -0.013503096 -0.02572607 0.001874227 -0.018161993 0.0016637451 -0.012986553 -0.03863009 -0.05158351 -0.0109574 -0.018490903 -0.006683164 -0.008757195 0.032871295 -0.013336861 -0.002326123 0.010607675
259 -0.01763876 0.0052506 -0.01142969 0.005577247 0.012077759 0.028992785 0.029282084 -0.030987225 -0.010744642 0.016334465 0.058733676 -0.021276232 -0.032278717 0.026839986 -0.04044039 0.022034846 -0.027377909 -0.080102764 0.039160337 -0.031073725 0.014696326 -0.013281086 0.038474254 0.033525456 0.001748845 -0.026676696 0.011084736 0.0137187885 0.009712286 -0.044086657 -0.014337306 -0.04433736 0.020724768 0.010050074 -0.011704248 -0.04766247 -0.00010837778 -0.011453603 -0.009186974 -0.011751871 -0.04650464 -0.061458215 -0.010389217 -0.026749572 -0.0023106846 -0.007994945 0.027913399 -0.0021374775 0.014028652 0.006175297
285 4.3936776e-05 0.013845704 -0.01761209 -0.0023017689 -0.0015018961 0.02494332 0.025801737 -0.0128756035 -0.001448801 0.021955766 0.064856455 -0.016527226 -0.022589024 0.015693173 -0.018307861 0.0127259195 -0.026007682 -0.052354872 0.018158711 -0.01704562 0.0141629465 -0.0057287146 0.042019743 0.025898218 -0.0055298954 -0.021111134 0.006082858 -0.0043006823 0.020644808 -0.042935356 -0.021149917 -0.026293227 0.013751744 0.011068368 -0.005565516 -0.03889894 0.0160638 -0.004825455 -0.00072751153 -0.00840399 -0.04201665 -0.054804098 0.004158278 -0.022694243 -0.0049902606 -0.010188877 0.030148258 -0.010814412 0.005686786 0.013936431
62 -0.016395152 0.010625676 -0.0075916126 -0.0068570306 0.010212184 0.01702871 0.030433698 -0.010061588 -0.013015074 0.017626822 0.067646146 -0.015508525 -0.03857686 0.02280991 -0.039000206 0.018992452 -0.016217967 -0.06522195 0.035712145 -0.023439819 0.013440233 0.0012130706 0.02993804 0.017270029 0.0026367693 -0.028238563 0.02006455 -0.0072466745 0.005640173 -0.047597274 -0.021585662 -0.024750847 0.0041715796 -0.0019812395 -0.014658252 -0.03865181 0.010506814 -0.010455194 -0.007629926 -0.018864833 -0.043170623 -0.048516598 -0.0014783589 -0.036887575 -0.00509871 -0.016565057 0.018900184 -0.005994279 0.006476522 0.027637273
320 -0.018557189 0.009933219 -0.0023187813 -0.008442404 0.008345743 0.034630194 0.026978878 -0.019155871 -0.010187131 0.00933367 0.06835485 -0.029702656 -0.044440854 0.013202505 -0.039636035 0.023181817 -0.019028375 -0.08749191 0.035309196 -0.036267277 0.011817914 -0.0068038185 0.03889768 0.03622065 -0.0011813063 -0.02358746 0.011665872 0.004824658 0.020599058 -0.059923142 -0.027164249 -0.04753058 0.020832969 0.0068013854 -0.004361749 -0.037067614 0.010332792 -0.021235656 -0.010414176 -0.016751893 -0.047315884 -0.059866242 0.00088395044 -0.024346897 -0.015232104 -0.01233782 0.027838232 -0.010627568 0.0016344265 0.023619657
226 -0.011811997 0.02069918 -0.0017485037 0.0013117518 0.011715129 0.02777941 0.019573752 -0.021183588 -0.020373428 0.015367086 0.04631745 -0.018355697 -0.024311176 0.0077409213 -0.03217341 0.013325052 -0.02499576 -0.051123396 0.03361615 -0.023920348 0.021246389 -0.0120432945 0.034531474 0.027584057 -0.0095166955 -0.009614795 0.0055690524 0.010794079 0.0138896825 -0.03880167 -0.023292115 -0.031826623 0.014297629 0.0032320868 -0.01982728 -0.0238657 0.005864634 -0.0059986995 -0.00012222717 -0.010202155 -0.039872333 -0.053860545 -0.012318488 -0.028178876 -0.012822179 -0.0030603786 0.032225665 -0.007417067 0.0025243831 0.016107952
179 -0.0018121243 0.0018135404 -0.019460976 -0.010056917 0.0029329585 0.035882317 0.032564614 -0.017661698 -0.0046509854 0.03001124 0.084037825 -0.04235859 -0.028748391 0.022217536 -0.029983124 0.013517356 -0.016123168 -0.075684756 0.022778234 -0.026694017 0.027931029 -0.013054441 0.052845933 0.014468496 0.0010003911 -0.031021882 0.034905232 0.012880859 0.029507294 -0.040375914 -0.020482996 -0.024325496 0.012063427 0.012921435 -0.00088671176 -0.03793894 0.010678472 -0.009384597 -0.025448384 -0.02981796 -0.05541462 -0.05295444 -0.007401214 -0.031397842 -0.027016671 -0.01883501 0.042689886 -0.016895087 0.01172832 0.032595616
332 -0.0030339838 0.0006207527 -0.004226801 -0.011559305 0.0061454973 0.016303254 0.028352138 -0.023895085 -0.018990144 0.017438592 0.045125525 -0.017324995 -0.031627372 0.009984646 -0.028149594 0.01577379 -0.01275397 -0.057428878 0.018784696 -0.016823761 0.0069986675 0.0027122987 0.03682114 0.009297876 -0.0057648956 -0.011918295 0.014718715 0.011481771 0.015640097 -0.039296784 -0.015526365 -0.033638947 0.0027546892 -0.003990593 0.0013630284 -0.022945164 0.00094237685 -0.01414972 -0.012721992 -0.0048283855 -0.03466378 -0.050912496 -0.005915945 -0.030839795 -0.0018303981 -0.0009974911 0.027513474 -0.011940258 0.0045664827 0.021809533
111 -0.011680725 0.015695544 -0.013177464 -0.007101837 -0.0014168932 0.012910989 0.02198843 -0.01054179 -0.02087116 0.013520643 0.059538785 -0.030896854 -0.03398163 0.009645641 -0.033163723 0.025456004 -0.021674331 -0.054571174 0.03150203 -0.018861128 0.01781191 0.00053257204 0.039662976 0.020312194 -0.008663999 -0.006393998 0.015498686 0.010600194 0.011715127 -0.031803522 -0.018857757 -0.035711136 0.014344125 0.010318814 -0.0060248543 -0.025357941 0.004488356 -0.01484155 -0.0026765435 -0.009819631 -0.03968169 -0.043505307 -0.0046512918 -0.02106032 -0.009042587 -0.007199645 0.015384079 0.0019911218 0.00790156 0.020998795
130 -0.0148404995 0.014004966 -0.018082635 -0.011269971 -0.0024051608 0.014318944 0.020497529 -0.019999785 -0.015727265 0.014243811 0.06174157 -0.019304872 -0.022239264 0.008604962 -0.024176138 0.023659065 -0.018155428 -0.05886163 0.0252059 -0.014972289 0.004275403 -0.0039125946 0.0279081 0.015627345 0.00526583 -0.020595623 0.02278163 0.008052391 0.022284066 -0.043520033 -0.023992773 -0.034878887 0.009265597 -0.003508814 -0.0018727245 -0.03463853 0.008599245 -0.012530521 -0.0064087855 -0.0060917553 -0.042311214 -0.037754387 0.0040563983 -0.03369552 -0.0025198504 -0.0031411152 0.034163263 -0.012809438 0.0056665977 0.010927013
342 -0.013780434 0.013976871 -0.01091613 -0.006756636 0.0021291748 0.011717698 0.026341546 -0.010405555 -0.0069283345 0.013998342 0.048218075 -0.021085078 -0.028853111 0.017883781 -0.023289373 0.011799332 -0.02215653 -0.057786714 0.03160282 -0.011402623 0.017490769 -0.0025698554 0.03351329 0.02340508 0.0035303845 -0.015329135 0.008793595 -0.00806523 0.0066633685 -0.04623373 -0.004379555 -0.02406584 0.011139592 0.0140432175 -0.01694846 -0.023072403 0.0063610817 -0.0006323299 -0.015172871 -0.016103586 -0.0278644 -0.03939899 -0.0057877726 -0.01950298 -0.014472643 -0.0027074357 0.02132395 -0.010705744 0.010818908 0.010727383
144 -0.0046666143 0.012911293 -0.0046446505 -0.0070651225 -0.005926003 0.014735584 0.017457865 -0.017956447 -0.017277535 0.01524999 0.053639553 -0.024640417 -0.016924107 0.006744198 -0.016404511 0.018027041 -0.013251968 -0.055145767 0.016289111 -0.01071663 0.008687646 -0.0116143655 0.041677926 0.0116266515 -0.0030189524 -0.011773952 0.0018770137 0.0062207184 0.00056256965 -0.03856111 -0.016496232 -0.028777862 0.016807819 0.013685434 0.00144175 -0.030012539 0.00885459 0.0014025187 -0.004042959 -0.0046313903 -0.039127976 -0.052358054 -0.009802763 -0.020273278 -0.009952824 -0.00037145938 0.012712866 -0.015056393 -0.00023992655 0.010691098
326 -0.012518119 0.009120953 -0.017450567 -0.010251493 0.011011927 0.015829656 0.009161217 -0.0052599013 -0.017367447 0.011437367 0.039265227 -0.023577752 -0.0254016 0.014409691 -0.033199742 0.02181148 -0.023544963 -0.053223684 0.016582886 -0.027539933 0.014432556 -0.013225144 0.035047192 0.018513823 -3.890841e-05 -0.023637518 0.010216022 -0.007780212 0.015742118 -0.046299458 -0.021754669 -0.026350351 0.006268325 6.750529e-05 0.0013593558 -0.03246765 -0.0006943783 -0.0045890966 -0.014631269 -0.016721986 -0.03012497 -0.04393477 -0.013736874 -0.03260117 0.0020697874 -0.012507818 0.012298202 -0.007799347 0.0095752 0.017820703
88 -0.007078729 0.0087229945 -0.009431972 -0.010263942 0.012924049 0.020707607 0.02957893 -0.019483317 -0.0050984356 0.017936468 0.0677509 -0.028272044 -0.020404464 0.008448865 -0.028191656 0.020598467 -0.031440314 -0.06261083 0.036197398 -0.02447566 0.017450094 -0.003992073 0.04075255 0.025999647 -0.0036754326 -0.017148389 0.0071679647 -0.0077523384 0.006947503 -0.04834028 -0.008513752 -0.03847339 0.01723393 -0.0024229046 -0.010972382 -0.02933579 0.015197904 -0.01562526 -0.018479895 -0.022435213 -0.043988083 -0.05517697 0.005216124 -0.034807447 -0.0063588982 -0.009324642 0.03631438 -0.013820515 0.012691093 0.02675117
310 -0.009317149 0.0019647353 -0.0019332541 -5.751557e-06 0.013127372 0.013982376 0.029607356 -0.031525925 -0.017808255 0.0090984795 0.06068873 -0.024460861 -0.03653852 0.02127684 -0.02443836 0.026321353 -0.0136070475 -0.0683306 0.020927643 -0.014509845 0.021273483 0.005651481 0.047936823 0.014388382 0.0067656743 -0.009568132 0.015032386 0.012132079 0.009162776 -0.05825923 -0.019320609 -0.030260459 0.0045699356 -0.00029263238 -0.008615982 -0.03976979 0.011569187 -0.010454924 -0.008393456 -0.021227458 -0.048253052 -0.04333423 -0.0037381963 -0.022408897 -0.020349994 -0.007699495 0.033207104 -0.0026232225 0.013368223 0.022988841
20 -0.0021234506 0.018770823 -0.0072363117 -0.005612665 0.0007840631 0.022081355 0.023424296 -0.006786972 -0.019367304 0.02200427 0.049858097 -0.012682596 -0.025576534 0.020129485 -0.034564774 0.025761047 -0.009417894 -0.04663854 0.032186206 -0.0231049 0.020573825 -0.00021562693 0.033469617 0.02633694 -0.007620082 -0.012883231 0.0017618119 -0.001034508 0.012432941 -0.035059728 -0.023242332 -0.03132814 0.0020989962 0.010744535 -0.006448008 -0.023145394 0.010944358 -0.014868146 -0.0013866016 -0.0034267986 -0.041614298 -0.044116654 -0.012048481 -0.020595497 -0.00081427506 -0.017847156 0.02171562 -0.009602678 0.004337467 0.010561454
339 -0.014062349 0.00672399 -0.0043183034 -0.006996906 -7.221103e-05 0.022495713 0.015741054 -0.020745939 -0.011748929 0.014763758 0.055773254 -0.014238909 -0.020850452 0.020289788 -0.032334626 0.022616522 -0.0144464625 -0.0555855 0.016390169 -0.030947344 0.008214884 -0.01159583 0.034791376 0.029436424 -0.004532854 -0.010851331 0.011577961 0.007383738 0.0152147515 -0.047502816 -0.019004174 -0.03262221 0.010103959 0.0111028915 -0.0070024943 -0.026418366 0.012382614 -0.016126363 -0.004822749 -0.015543291 -0.031316653 -0.046363223 -0.0093894405 -0.030394804 -0.0039611743 -0.008351354 0.018255673 -0.010378065 0.0060812146 0.010651938
17 -0.0021259994 0.013954575 -0.016617019 0.0029168585 0.0037352308 0.010379425 0.025129283 -0.007710197 -0.013089358 0.020833492 0.054175396 -0.021752449 -0.029015861 0.022614757 -0.02725297 0.02081775 -0.026766805 -0.055855375 0.013962737 -0.017726442 0.0022091214 0.0062459717 0.03111538 0.022767661 -0.008357529 -0.020500628 0.0026067349 0.01143675 0.009416518 -0.044433165 -0.0031733832 -0.02475897 0.0039345166 0.013755291 -0.016492542 -0.029412292 -0.005900625 -0.015244488 -0.0142374085 -0.012959398 -0.021692822 -0.04712534 0.000926471 -0.032777827 -0.0077047325 -0.004783832 0.030679066 -0.012223439 0.011388821 0.008073899
219 -0.0010162417 0.01827484 -0.0069117155 -0.0129775815 -0.005168289 0.03771838 0.019042311 -0.018508017 -0.009945239 0.024668228 0.06905488 -0.032840796 -0.02909042 0.02687851 -0.028153738 0.02745974 -0.01893899 -0.073086485 0.022024805 -0.023777355 0.016647339 -0.0126222465 0.034031667 0.030936541 0.00073033874 -0.029582558 0.015757835 0.0014521674 0.0013654119 -0.047649276 -0.025773145 -0.046248082 0.011551046 0.00635864 -0.0021058621 -0.043848407 0.009811432 -0.0005834716 -0.010006687 -0.025525186 -0.041171852 -0.054043267 -0.0008653761 -0.046222784 -0.012250154 -0.01956526 0.038179737 -0.0030429033 0.005351931 0.027049573
172 -0.011201778 0.014858868 -0.011045708 -0.014216243 0.0047519514 0.027403403 0.014533928 -0.008467327 -0.008534668 0.014719418 0.058389135 -0.017585995 -0.030266838 0.010379849 -0.03143872 0.018303446 -0.020588359 -0.0658771 0.032792155 -0.03165306 0.009941745 0.0021595333 0.042223275 0.020535698 -0.008865147 -0.02537307 0.0045313383 -0.001410381 0.012658827 -0.044308707 -0.02250397 -0.025085399 0.009368158 0.008774195 -0.011153046 -0.024779754 0.008850013 -0.008165515 -6.720069e-05 -0.019160576 -0.027181001 -0.054440156 -0.011187411 -0.036759134 -0.01970886 -0.0062720915 0.024350129 -0.014698102 0.011265967 0.018079884
140 -0.0059311804 0.0103450995 0.0007036767 -0.0071509397 0.009334696 0.026949361 0.024942573 -0.025020108 -0.013572983 0.019100593 0.04579161 -0.026579583 -0.023077425 0.0041079023 -0.02702712 0.022287315 -0.029843202 -0.06416051 0.024020381 -0.012198992 0.02116122 -0.011611768 0.037951235 0.028886447 0.005281482 -0.017061621 0.0038509583 0.0053027906 0.0051926305 -0.04798483 -0.017379677 -0.029934375 0.016108641 -0.0017284951 -0.0073932935 -0.035391286 -0.0029375674 -0.012742192 -0.009660376 -0.005815819 -0.028551128 -0.04526608 -0.014039532 -0.016359495 -0.010544761 -0.014700641 0.03271628 -0.007651147 0.008733669 0.019427571
14 0.0029588793 0.013222273 -0.017587788 0.003038534 0.0054441034 0.008803952 0.013281681 -0.017541839 -0.004073012 0.021613756 0.045591332 -0.014854734 -0.029793553 0.0064545292 -0.022153085 0.016730094 -0.017353803 -0.057308845 0.022364886 -0.01402982 0.014506588 0.004264105 0.027245175 0.023248078 -0.01033423 -0.022455292 0.0062995087 -0.005915215 0.001745407 -0.033202752 -0.007838272 -0.02456886 0.006061239 -0.003502392 -0.01688433 -0.03455176 0.0015128094 -0.019036697 -0.0030681337 -0.017717429 -0.024151688 -0.050953396 -0.011615786 -0.025818532 0.00047254955 -0.003672018 0.031761706 -0.0049184333 0.0049231728 0.005641182
224 -0.006689035 0.0011787695 -0.01753971 0.00485342 0.0020082642 0.0143957045 0.027263703 -0.014534118 -0.011056733 0.018974818 0.048293814 -0.030654939 -0.022138642 0.004886517 -0.025223047 0.024060555 -0.02838029 -0.05847009 0.0131411 -0.02669003 0.016695663 0.0008113885 0.031633273 0.017576449 0.0016600966 -0.011318897 0.0138485 0.007528323 0.00049028354 -0.034514375 -0.019893229 -0.026206007 0.0006129253 0.0026234586 -0.01192034 -0.030457666 0.008993901 -0.010938265 -0.0186571 -0.009496963 -0.027910143 -0.033585317 0.0016918671 -0.033337865 -0.0068261246 -0.008126613 0.022726957 -0.007922117 0.0032189304 0.02272666
334 -0.0013337018 0.0023418358 -0.0093654785 -0.0071123247 -0.0032514215 0.026631046 0.015579302 -0.0151039865 -0.0025962493 0.0026232821 0.061592523 -0.021908607 -0.024152564 0.013470042 -0.022260375 0.011218624 -0.022020902 -0.054185916 0.015001951 -0.0232564 0.0073728175 -0.0074779047 0.038564716 0.020532686 -0.0066634878 -0.015540234 0.012491068 0.0020216624 0.0043591466 -0.044563375 -0.0094465045 -0.018827913 0.011506975 0.004370795 -0.00443797 -0.037292857 0.0051387674 -0.007495947 -0.01591476 -0.018403197 -0.039108317 -0.05399668 -0.0013990909 -0.031303305 -0.014514705 -0.015361389 0.018979363 0.0015523575 0.015052707 0.008796741
89 -0.006657364 0.016374882 -0.01793045 -0.0037472302 -0.008321468 0.028288111 0.031795114 -0.00881381 -0.019750578 0.015130132 0.060777098 -0.013479634 -0.034113873 0.023047902 -0.02584925 0.023427088 -0.023269754 -0.052167453 0.022799216 -0.02932129 0.016281638 -0.01022994 0.037718415 0.014353398 -0.00095007854 -0.020039799 0.019269934 0.011509243 0.0080503775 -0.04903869 -0.024378238 -0.035613995 0.016982032 0.0032848038 8.9240806e-05 -0.028724544 0.009157321 -0.01535523 -0.00832062 -0.0088243745 -0.040844236 -0.045503706 0.0067290096 -0.041306853 -0.01865883 -0.01369643 0.03372929 -0.014461054 0.0036161633 0.020473998
149 -0.015642945 0.011318716 -0.0007235161 -0.0029114555 -0.0014489791 0.019488469 0.024226142 -0.019740984 -0.0049020275 0.023703502 0.06304887 -0.02202101 -0.035245717 0.0047328407 -0.01841509 0.027613748 -0.01567656 -0.06483245 0.032083496 -0.029315686 0.0024702547 -0.014260277 0.04566261 0.019117711 -0.0069410484 -0.010553857 0.006452047 0.0012554349 0.012202764 -0.040922996 -0.012272789 -0.026462445 0.006064403 0.0008436148 -0.009101263 -0.025336685 0.012179527 -0.018696183 -0.0008745726 -0.008481379 -0.03635594 -0.05665944 0.003943781 -0.023994371 -0.016245509 -0.013296712 0.020067908 -0.0073099295 0.015536842 0.015930962
211 -0.0070813615 0.0059755803 -0.013235588 0.00474454 -0.0033312284 0.015491819 0.025829097 -0.01540236 -0.010242112 0.014644502 0.053418756 -0.015620207 -0.030580904 0.020383626 -0.03130073 0.011260447 -0.028883807 -0.057958215 0.032159295 -0.014798337 0.007962461 0.00021494132 0.03318968 0.0128504755 0.008296181 -0.010560513 0.013496802 0.009620836 0.0016017319 -0.034686204 -0.024204584 -0.021853335 0.007038896 0.010135095 -0.01594677 -0.03037106 0.013145342 -0.0040041623 0.0013602226 -0.013326036 -0.026679771 -0.043120127 0.0018830925 -0.035130125 -0.0052348427 -0.017377941 0.013749755 -0.009969027 0.0063646184 0.014752182
308 -0.013820173 0.005000274 -0.016130738 0.0024375864 0.0121840285 0.021984711 0.02255198 -0.025357181 -0.002517917 0.009628339 0.05305239 -0.029207723 -0.037623428 0.008108768 -0.024809657 0.009743075 -0.0176143 -0.054877084 0.019481063 -0.0262973 0.019196386 -0.004315244 0.03675229 0.028486192 0.007020132 -0.012995706 0.0037918289 -0.0046289377 0.006365216 -0.035836533 -0.011156685 -0.034170974 0.006120849 0.010421697 -0.013949971 -0.032468982 0.006064606 -0.0136432685 -0.0058421823 -0.014799357 -0.04215372 -0.054829717 -0.0021075995 -0.027198032 -0.01708672 -0.0008392522 0.03147549 -0.0059292275 -0.0018594044 0.024975076
101 0.00024552364 0.010905444 -4.52031e-05 -0.0006116268 0.0057963445 0.019955877 0.022565661 -0.022030838 -0.013846081 0.016111523 0.061401453 -0.014923656 -0.019859916 0.0035528596 -0.032833643 0.014218527 -0.021688918 -0.05085229 0.023618367 -0.029273901 0.0017113177 0.0061307484 0.037191056 0.0136226695 -0.0112454025 -0.023038205 0.012684598 -0.007152836 0.008708215 -0.035990212 -0.019461904 -0.03283873 0.017730115 0.014347406 -0.0045139277 -0.033036157 0.014990239 -0.009267978 -0.0029893676 -0.003477931 -0.042518966 -0.045514178 -0.011571472 -0.03640633 -0.009095724 0.002622354 0.012705588 -0.0022672876 -0.0007531416 0.014835942
158 -0.009334209 0.016924206 -0.0082422765 0.002276783 0.0020882702 0.022650287 0.015959151 -0.012345186 -0.0015798999 0.015173926 0.05531491 -0.023924092 -0.028014014 0.0049113543 -0.02208866 0.021881474 -0.028162133 -0.05833557 0.021746457 -0.022477625 0.0088315895 -0.012154837 0.026791304 0.017214539 0.003044244 -0.012386975 0.009252104 -0.006528351 0.017640293 -0.049909562 -0.020256406 -0.027175276 0.015403742 0.008165651 -0.0043502664 -0.023410367 0.010012763 -0.015033561 -0.016429026 -0.0046460587 -0.022679815 -0.050008845 -0.008909913 -0.029049726 -0.009168335 -0.014893663 0.027091287 -0.009227285 0.00455692 0.019952396
265 -0.010093218 0.014059279 -0.004839653 -0.0035448591 0.013414025 0.009542291 0.0133498795 -0.024921542 -0.013647321 0.00070349243 0.040767603 -0.016915988 -0.024135059 0.018211981 -0.016722683 0.01030647 -0.012420771 -0.050081287 0.022992812 -0.020034557 0.016982479 -0.0050526187 0.036259696 0.02266976 -0.0038269386 -0.0100705605 0.018522391 0.010766767 0.014178856 -0.037661217 -0.015295067 -0.02577795 0.0075405324 -0.003600352 -0.0074865464 -0.022781769 0.007961317 -0.0157776 -0.004944995 -0.009675831 -0.03797722 -0.04614263 -0.01080729 -0.035340507 -0.012599726 -0.003211818 0.01567471 -0.015869493 0.016310964 0.008171236
319 -0.011363446 0.012015737 -0.009375832 -0.0025709704 -0.0044944864 0.029504502 0.033249043 -0.009413037 -0.016417656 0.007545039 0.058114044 -0.015208737 -0.024371553 0.013632984 -0.0280742 0.012753947 -0.017645542 -0.06307431 0.016397726 -0.0152472565 0.015964502 -0.013323607 0.033264246 0.011175239 -0.004505711 -0.017176948 0.017270975 -0.002372043 0.0075929416 -0.043720167 -0.027169745 -0.03282646 0.01659785 0.011263252 0.0014811185 -0.042787008 0.011655949 -0.0129020745 0.0017990035 -0.014059858 -0.036464315 -0.045929514 0.0034678394 -0.03311627 -0.021716513 -0.0012441538 0.02450205 -0.011966404 0.0082549965 0.01832036
99 -0.0063115903 0.015986776 -9.547719e-06 -0.009023597 0.0008910516 0.02829794 0.03088996 -0.016571712 -0.0015944653 0.013252363 0.044578586 -0.017501954 -0.021494979 0.016931256 -0.01843791 0.008056421 -0.02821061 -0.050333787 0.031128734 -0.012147149 0.013973834 -0.0028879207 0.03203068 0.024417024 -0.009317941 -0.019664317 0.019407429 0.0048414604 0.005434058 -0.040649332 -0.009929344 -0.0387024 0.010856539 0.01314473 -0.0045231148 -0.04015885 -0.0005953276 -0.017416177 -0.007247312 -0.02253087 -0.03884845 -0.035199035 -0.013525419 -0.022686938 -0.01704676 -0.012966505 0.031272966 -0.005032039 0.013448197 0.01900574
92 -0.0052879727 0.0011640711 -0.012037618 -0.00462273 0.009257721 0.031055955 0.027448334 -0.011099327 -0.018633567 0.005216822 0.055797163 -0.018351994 -0.03363879 0.00842127 -0.025981192 0.0077733924 -0.025050687 -0.05105516 0.030748194 -0.011918194 0.013161044 -0.011202378 0.03869978 0.029183563 0.0005148862 -0.019031199 0.020469656 -0.0057095205 0.017757038 -0.045127843 -0.019727629 -0.02298439 0.007989264 0.0007727143 -0.009243101 -0.03575489 0.012350955 -0.0055094673 -0.004701639 -0.021186126 -0.028947745 -0.049429987 0.004751888 -0.024197763 -0.0006759972 0.0017828526 0.0186337 -0.0022722417 -0.0009456145 0.008130259
127 -0.006394399 0.010436433 -0.0060647754 -0.003402124 -0.0018702662 0.022073546 0.029569285 -0.029595515 -0.01696553 0.0026531871 0.059034165 -0.023196738 -0.028667575 0.013468597 -0.030403867 0.019858856 -0.015055401 -0.07982512 0.026985522 -0.03276794 0.022221345 -0.010961645 0.039436586 0.017466169 0.001302719 -0.028825346 0.023231044 -0.0067680925 0.01583555 -0.061626103 -0.022283746 -0.032549627 0.014891391 0.0031184065 -0.008618692 -0.03467624 0.0055228937 -0.0077231433 -0.0055950866 -0.022010855 -0.04168261 -0.058491975 0.0034163648 -0.02194457 -0.012814092 0.0012644085 0.024014276 -0.01356575 0.014479281 0.028338196
275 0.0050404454 0.006025882 -0.010939516 0.003815215 0.010916115 0.01692447 0.032336082 -0.012532571 -0.0051247096 0.016906433 0.06288213 -0.025433159 -0.025424091 0.010773217 -0.028711434 0.025938585 -0.009653082 -0.07447508 0.025487594 -0.029700045 0.02174667 -0.013114507 0.041364204 0.017979423 0.0039611417 -0.021377156 0.021449402 0.0031702123 0.016316205 -0.052246567 -0.0024518508 -0.029757962 0.011633067 0.0042527798 -0.004386993 -0.033608977 0.003489554 -0.0043188054 -0.013141336 -0.02236702 -0.046848614 -0.044762116 -0.003252373 -0.021213105 0.0019245965 -0.0157013 0.019047894 -0.0032497272 0.016723745 0.015745133
180 -0.0061119283 0.0072702393 -0.018552005 -0.0097542405 -0.00039718952 0.029642917 0.033740193 -0.02055119 -0.009327659 0.0026676934 0.06753614 -0.026104046 -0.025672965 0.009623005 -0.025694882 0.018748501 -0.028302876 -0.064261585 0.028164804 -0.024972774 0.017943228 0.0037374126 0.045588464 0.01649853 -0.010343995 -0.0252372 0.016685473 -0.00831455 0.024639081 -0.046637878 -0.012797943 -0.025168432 0.022918621 -7.542084e-05 -0.013914674 -0.039750297 0.010770451 -0.017448546 -0.015472556 -0.008811579 -0.036411576 -0.04634178 -0.011709146 -0.023942001 -0.0034078574 -0.004925058 0.01713797 -0.0054700123 0.004364526 0.020839015
223 -0.0043814727 0.0047152145 -0.016314017 -0.0031511928 0.0035761779 0.016493428 0.020488763 -0.011824197 -0.007332759 0.0041854214 0.05928904 -0.024151735 -0.020322163 0.014112135 -0.029066212 0.015153277 -0.010333182 -0.06384956 0.017137755 -0.012784256 0.012664766 -0.00026611745 0.039715495 0.02867026 -0.008820088 -0.020437486 0.018109601 0.001419132 0.02112083 -0.037275676 -0.0240203 -0.021897292 0.0135627575 0.014479628 -0.0054627126 -0.031011278 0.013175186 -0.009444554 -0.0077257506 -0.015143492 -0.03817666 -0.04269228 -0.000634978 -0.026140714 -0.0010437231 -0.009488645 0.03202344 -0.007467378 0.011691887 0.022380646
181 0.0036430096 0.0008685814 -0.019492457 -0.014346267 0.004975728 0.023495229 0.017037444 -0.0146480305 -0.005168334 0.0056772367 0.06231639 -0.02557307 -0.025274491 0.01768259 -0.039448477 0.025166843 -0.010908729 -0.07226325 0.02540906 -0.015583655 0.021076772 -0.013418751 0.042001843 0.014907687 -0.005827161 -0.022410762 0.017102165 0.009501608 0.019079495 -0.04325627 -0.014099908 -0.040639333 0.006048883 0.0019468258 -0.002447975 -0.040173404 0.008881495 -0.004230944 -0.012115348 -0.01033693 -0.042282276 -0.05825474 0.0043191733 -0.034173872 -0.006254566 -0.016871804 0.021304075 -0.011744158 0.009994639 0.025537852
13 -0.006706259 0.010145257 -0.0054712375 -0.011300811 0.0010937967 0.024174804 0.023763815 -0.00604997 -0.012225613 0.007467955 0.050946668 -0.012693578 -0.02671377 0.016152067 -0.031140646 0.02004639 -0.018968962 -0.04478463 0.023619076 -0.027080549 0.007729615 0.0012634142 0.031403467 0.0254257 -0.009955734 -0.012896648 0.006247533 0.010504927 0.014681167 -0.034405317 -0.017879324 -0.02328348 -0.00036683984 0.010252015 0.00094414665 -0.021456197 0.015047498 -0.0043499838 -0.014593664 -0.0002674182 -0.019101322 -0.041756418 -0.009610248 -0.03119982 -0.0019198776 -0.0091352565 0.010837805 -0.0021467833 -0.0019947237 0.006703372
136 -0.013361796 0.010596705 -0.0034709603 -0.011103728 0.0068545323 0.017752672 0.01998918 -0.007989739 -0.017598592 0.006360629 0.052617256 -0.0201318 -0.020417579 0.02037375 -0.037660513 0.0099740885 -0.030296238 -0.053937357 0.017738199 -0.019112492 0.020751176 -0.00061623077 0.0436754 0.011385397 -0.0040776744 -0.011320887 0.008044067 0.0109876795 0.007335935 -0.054310717 -0.010611162 -0.032989178 0.019818146 0.0119477045 -0.0011873691 -0.034872457 0.0043470124 -0.007908317 -0.014443017 -0.021029174 -0.029503727 -0.0553898 0.0071666357 -0.021195335 -0.008428063 -0.00048298604 0.020920841 -0.009046712 0.004087382 0.01962541
197 -0.015026394 -0.0005950357 -0.009836525 -0.0129744485 0.006358278 0.02412635 0.017916316 -0.017428026 -0.010208063 0.0063552368 0.04773004 -0.03355939 -0.03763971 0.004371807 -0.024614668 0.016015945 -0.018455364 -0.07187868 0.026054656 -0.03216587 0.010790603 0.0027551332 0.04725293 0.023604268 -0.005160986 -0.00964642 0.006190224 -0.0072237095 0.004961714 -0.0484074 -0.020730948 -0.027091227 0.018767742 0.009093325 0.0019809569 -0.040745873 -0.0013750169 -0.0100078955 -0.014846449 -0.01188 -0.03036076 -0.05330277 0.006322485 -0.022295505 -0.010553657 -0.012990792 0.015315276 -0.017843455 0.016282788 0.011618318
104 -0.0139801875 -0.0018422208 -0.016753878 -0.005463064 -0.004073119 0.027713468 0.0223328 -0.01984806 -0.008343906 0.010193865 0.060725015 -0.027481614 -0.03345223 0.023241485 -0.03158043 0.01575072 -0.018140046 -0.060252935 0.030577533 -0.023646593 0.011693062 0.0011099539 0.0427518 0.01729993 -0.004714143 -0.020049397 0.014768545 0.0066557387 0.017645461 -0.04339541 -0.01821297 -0.03376237 0.0019569895 -0.0039248057 -0.011050691 -0.03102704 0.011275752 -0.0113828285 -0.018312184 -0.014856692 -0.02438378 -0.05094792 -0.005377284 -0.01821947 -0.019262023 0.0006114079 0.022400538 -0.0011685928 0.007201669 0.019869115
204 -0.010306787 0.0051127933 -0.008690335 0.0011554636 0.006610737 0.017425852 0.023809941 -0.012399916 -0.01829325 0.01417317 0.06940918 -0.022862222 -0.03956405 0.004917682 -0.033362795 0.013431647 -0.014320156 -0.058054663 0.028275872 -0.028384667 0.022238668 -0.008645401 0.042545885 0.018870227 0.0002174597 -0.02157609 0.005363507 -0.0033777857 0.018765293 -0.03883832 -0.011263381 -0.02417323 0.021360084 0.0030461205 -0.012172157 -0.02672425 0.003122704 -0.018471861 -0.009653905 -0.018963933 -0.04144081 -0.05512026 -0.0020148535 -0.03859062 -0.0010999633 0.0013478406 0.018613704 -0.017032836 0.009044103 0.01859792
173 -0.011889942 0.00041227462 0.0014522739 -0.015604654 0.0056954366 0.021996047 0.013687969 -0.024709677 -0.004431131 0.0022690166 0.060062878 -0.03551691 -0.020988349 0.0042895116 -0.037160445 0.025626697 -0.033890948 -0.06613489 0.026021881 -0.014239147 0.012778548 -0.0074631106 0.038664352 0.02742582 -0.011326172 -0.025776487 0.024049232 0.006260126 0.0038879511 -0.040210422 -0.0069369576 -0.034905467 0.011272065 -0.0028258015 -0.012070047 -0.028295944 -0.0012575698 -0.0029576726 -0.006005015 -0.0060162214 -0.041064657 -0.045923103 -0.010553315 -0.028660446 0.00024045634 -0.014157676 0.037680972 -0.0027883812 0.008945275 0.028949996
225 0.002273097 0.004836276 -0.010094329 -0.008049728 -0.0014316884 0.02707419 0.013507553 -0.020110516 -0.010299127 0.019671908 0.055170394 -0.014506455 -0.028554732 0.011787787 -0.021996554 0.010429842 -0.013689749 -0.048756137 0.015001385 -0.012753604 0.013251145 -0.00016384387 0.03958056 0.02887659 -0.01095098 -0.02132477 0.01563788 0.0112658255 0.003894819 -0.037603047 -0.017681979 -0.025723917 0.010027971 0.01136665 -0.017798215 -0.035613805 -0.005238779 -0.0046350034 -0.014506958 -0.013192379 -0.036484275 -0.033598408 0.0012643894 -0.031079695 -0.01000881 -0.00030412377 0.030424632 -0.010667347 0.007613064 0.0065795523
242 -0.0075580464 -0.0022863287 -0.01123813 0.005731356 0.011974348 0.02803407 0.02693658 -0.022452155 -0.008068873 0.012904695 0.0504029 -0.018261708 -0.036497273 0.012200814 -0.030971106 0.027247326 -0.0152156735 -0.054024387 0.029746339 -0.02513431 0.011388383 -0.010736641 0.03071372 0.020882795 -0.0024919398 -0.012135569 0.02359069 -0.00032230327 0.013127075 -0.03755138 -0.020711381 -0.02520332 0.01862377 0.008965273 -0.008716903 -0.039814956 -0.00033427388 -0.007116329 -0.013655398 -0.016726706 -0.028270435 -0.04672084 -0.0032852928 -0.037848834 -0.00057323504 -0.007533306 0.022579893 -0.0066980496 -0.0011847771 0.025096659
85 -0.012330371 0.0063532954 -0.009165343 -0.0024981836 -0.00066900504 0.026660455 0.023083733 -0.020236962 -0.016060526 0.01719909 0.04368429 -0.028344298 -0.020661535 0.010751927 -0.033890754 0.0092431065 -0.008179852 -0.045222726 0.013942944 -0.022895353 0.0016545309 -0.008001982 0.04062811 0.013928278 0.0031653815 -0.020133575 0.019299576 -0.0048761596 0.013488794 -0.039734647 -0.0049421415 -0.021748263 0.0084850965 0.013172626 0.0013989423 -0.029696371 0.0004717626 -0.0037210302 -0.016761929 -0.0020478896 -0.025974134 -0.034351755 0.004455521 -0.02237399 -0.011359217 -0.008436524 0.020255707 -0.0063025686 0.008640637 0.021537278
257 -0.0021192413 0.0035293438 0.0004356596 0.0032490748 0.0028680768 0.017731242 0.016948717 -0.02465587 -0.0037740124 0.013739409 0.038978428 -0.01955012 -0.029011976 0.0038888867 -0.030797783 0.0059314347 -0.008701252 -0.044248752 0.025067745 -0.022931933 0.0013923986 -0.0084665315 0.030972911 0.022597713 0.004970544 -0.017643286 0.019467736 0.009762557 0.0071481937 -0.045532648 -0.015685612 -0.018101003 0.008008516 0.007628255 -0.004159078 -0.024431562 5.11508e-05 -0.012568214 -0.009128058 -0.009123819 -0.021066707 -0.03768533 -0.0036369732 -0.021014888 -0.0007765838 0.0028385916 0.009777048 -0.012073911 0.004735733 0.007891282
29 -0.005104971 0.0064864517 9.286129e-05 -0.0064328737 0.0028024693 0.017922465 0.02099003 -0.021445358 -0.0124267945 0.009515534 0.040489007 -0.015155049 -0.021523722 0.00932612 -0.018328352 0.021776814 -0.0125211 -0.063003354 0.019613983 -0.030089896 0.0076254113 -0.01037113 0.024509387 0.011510899 0.0074374694 -0.02084187 0.023046724 -0.0002702835 0.014272358 -0.032695547 -0.011509972 -0.03356916 0.0062033376 -0.002188032 -0.013286601 -0.028708704 -0.0020993296 -0.005476059 -0.0016589392 -0.017179973 -0.02897259 -0.045494206 0.0052618035 -0.03668847 -0.018636646 -0.01640632 0.027915232 -0.016631724 0.017139532 0.01636243
7 -0.00021967519 0.0010736933 -0.003842209 -0.00014091867 0.009232353 0.011588546 0.022648882 -0.012408319 -0.010045045 0.01100878 0.05928135 -0.02291718 -0.018204527 0.006276287 -0.020981623 0.01748927 -0.017935382 -0.060674317 0.031003917 -0.01416355 0.00754819 -0.00332285 0.02950379 0.018667065 0.0071049263 -0.014053581 0.0048049795 0.0011532725 0.004433015 -0.045219716 -0.021549826 -0.023628976 0.019213548 0.014414514 -0.0027546692 -0.02884527 0.01477423 -0.015397704 -0.0069752266 -0.01806612 -0.03419299 -0.054072633 -0.001444466 -0.033791035 -0.013450778 -0.005422408 0.023009447 -0.015492588 0.002877726 0.009260339
48 -0.009648152 0.017898448 -0.004620525 -0.0005696218 0.0042771543 0.029207708 0.02716138 -0.018451605 -0.017853273 0.0037801228 0.061506692 -0.024871076 -0.025202662 0.016283337 -0.031982128 0.020417523 -0.010657607 -0.05972477 0.033633545 -0.01384385 0.021594753 0.005477429 0.03686809 0.015725063 0.0044814693 -0.017815208 0.0050185933 -0.001996265 0.0030091044 -0.042595018 -0.008532085 -0.027980257 0.0113509875 -0.004069959 -0.018807855 -0.025599832 0.0014907434 -0.01782572 -0.017232982 -0.008606502 -0.045565467 -0.045499846 0.003273544 -0.03931199 -0.017074794 -0.004290085 0.021846198 -0.016125966 0.0070790937 0.019705929
297 0.0041509164 0.009737132 0.0014451491 -0.010179865 0.0029989292 0.018804079 0.007656635 -0.015120165 -0.004723997 0.007962292 0.048895467 -0.018821467 -0.014008524 0.017564595 -0.024278227 0.012114472 -0.015504673 -0.052502614 0.012433959 -0.025676692 -0.001105783 0.0009903869 0.021742417 0.009456488 -0.007430095 -0.0142857265 0.0032868963 0.0031998756 0.012560439 -0.025036663 -0.016220734 -0.029121771 0.008178153 0.006619747 -0.01441532 -0.031538013 0.005438483 -0.00062412315 -0.016109707 -0.013433291 -0.022162512 -0.029255113 -0.0039843814 -0.0141324075 -0.00886781 -0.0012663641 0.010589588 -0.009950691 0.0047679096 0.016077626
243 -0.010869886 0.017716615 -0.009442208 -0.012267819 0.004229239 0.014498438 0.018756319 -0.022734364 -0.016913403 0.0053559095 0.042015273 -0.017958432 -0.024537005 0.022265041 -0.01627858 0.015119816 -0.010383858 -0.06356071 0.03430756 -0.011756986 0.015892997 -0.009623317 0.045670446 0.013644852 -0.012419335 -0.007267931 0.013344834 0.0030352774 0.010917205 -0.04383327 -0.0098335 -0.03554476 -0.0007274885 0.0061183497 -0.0007588465 -0.038724568 -0.0016139776 -0.008152437 -0.005478044 -0.0042841975 -0.026495114 -0.04826828 -0.011430502 -0.018998982 -0.015062383 -0.0062928107 0.033813372 -0.0015473076 0.0148584135 0.014023553
299 -0.012235816 -0.0031463844 -0.016229726 -0.001218412 0.012771107 0.02877405 0.02778462 -0.007719275 -0.0005290762 0.014730139 0.04589274 -0.03065184 -0.03165581 0.013957044 -0.028230973 0.022283403 -0.010436959 -0.055080373 0.02266416 -0.027539188 0.007353793 0.0051809293 0.036349185 0.026368646 -0.00072237634 -0.012154723 0.018374233 0.010184731 0.0046474133 -0.038013253 -0.018062932 -0.021077847 0.015158372 0.013938834 -0.003048049 -0.040208653 0.00282865 -0.0094615165 -0.00943868 -0.019311827 -0.039561287 -0.034835648 0.0044996687 -0.017529983 -0.017482879 0.00039173482 0.026814168 -0.002592923 0.0079743555 0.0067260014
31 -0.00040207957 0.01909843 -0.0008567661 -0.002600562 0.001355475 0.025892556 0.025533965 -0.020488746 -0.018892273 0.01069632 0.06205744 -0.019471338 -0.037686292 0.0117002735 -0.03511425 0.018180393 -0.02177305 -0.07328002 0.02188965 -0.025187088 0.012899832 -0.0032898856 0.038569015 0.02454735 -0.009127358 -0.019557789 0.012695812 0.0049234205 0.019178214 -0.056920785 -0.021966748 -0.039609447 0.002361523 0.015815916 -0.0103898095 -0.0414733 -0.001199768 -0.013696563 -0.016848473 -0.016533265 -0.03459095 -0.057291653 -0.004029804 -0.039458487 -0.014885255 -0.008991565 0.025865182 -0.00082473794 0.00066527043 0.01607823
57 -0.01753998 0.006624121 -0.004466898 0.0047458075 0.015253681 0.03213385 0.01307418 -0.02741021 -0.01738018 0.006557657 0.05801387 -0.01797344 -0.038552735 0.015930787 -0.032899212 0.023314647 -0.014505581 -0.056141596 0.023310596 -0.02671969 0.018441444 0.0006916443 0.047998063 0.019513672 0.003679175 -0.023188211 0.013313849 -0.0061197304 0.0068402407 -0.054252654 -0.015074652 -0.020724604 0.01830215 0.0070036557 -0.007071594 -0.029293774 -0.0027414993 -0.016473657 -0.014582635 -0.0143638775 -0.042525794 -0.055243872 0.0074783186 -0.028698431 -0.008892324 -0.0043581747 0.024072055 -0.013989882 0.007308167 0.027197648
296 0.0015447619 0.021375429 -0.01595646 -0.01312493 0.0013239668 0.018823557 0.024817418 -0.0136836255 -0.008073734 0.00469991 0.05300828 -0.03434683 -0.026231596 0.0060527474 -0.035488475 0.01681294 -0.021203171 -0.076305725 0.024769004 -0.022232998 0.005817147 -0.005672953 0.04719956 0.02821642 -0.00639627 -0.011198575 0.02192223 0.0053643193 0.018219015 -0.05701262 -0.012891554 -0.041140135 0.005774092 0.009090403 -0.012452301 -0.032912187 -0.0017620174 -0.0048662745 -0.020040223 -0.02461223 -0.035961498 -0.0595384 -0.014854279 -0.037726406 -0.008720367 0.00056079665 0.032381967 -0.014245245 -0.0005315064 0.0075134896
231 -0.0022549839 -0.00069860154 -0.009767898 -0.00033776372 0.0032880697 0.011283235 0.0127849085 -0.01333454 -0.0055822814 0.013183336 0.0397733 -0.021172106 -0.02829037 0.0095718745 -0.026843688 0.01927823 -0.023283936 -0.044241406 0.029730292 -0.01792801 0.01347142 -0.004470411 0.043289542 0.017373906 -0.0020236662 -0.02197451 0.005670271 -0.00792803 0.014438632 -0.043296188 -0.016397214 -0.033331253 0.018613344 0.005033308 -0.008361551 -0.036358044 -0.0038533402 -0.003352639 0.0011402674 -0.0064121378 -0.031090805 -0.03590513 -0.0098887095 -0.022557093 -0.013665967 -0.010310395 0.025470562 -0.0023591572 0.011566456 0.023739986
238 -0.015427822 0.006932791 0.0018447761 0.0035770878 0.0058869794 0.025613774 0.017661436 -0.012422798 0.00012443359 0.003187421 0.050309002 -0.018051257 -0.016836312 0.0086681 -0.030911623 0.021811418 -0.023087777 -0.04493262 0.022769464 -0.019636203 0.016167514 -0.012983428 0.035703227 0.025455676 0.008577787 -0.009446374 0.0065669618 -0.0067179557 0.0016236831 -0.042475894 -0.013871092 -0.02366654 -0.0012041429 0.010512107 -0.012322419 -0.035657294 0.011422399 -0.0049793352 -0.001961047 -0.010240473 -0.027173959 -0.05112512 0.003122469 -0.02938305 -0.016943384 -0.014771254 0.016661279 -0.0018212683 0.00011291126 0.023161467
233 -0.00020053661 0.008446757 -0.008366293 -0.0048372936 0.011418472 0.02968818 0.029206699 -0.009008047 -0.0028757714 0.00459726 0.06704717 -0.025738839 -0.03649496 0.0193775 -0.03721536 0.02929779 -0.01232091 -0.067346476 0.016560955 -0.036549263 0.0027353396 0.0015146476 0.054610018 0.029546829 0.008179896 -0.012861697 0.01984108 0.0025338114 0.029101884 -0.050300233 -0.016355306 -0.048423897 0.017256256 -0.0051737055 -0.002938779 -0.03324907 0.02100357 -0.005117217 -0.01720164 -0.024938548 -0.034743812 -0.06802262 0.012394562 -0.047919072 -0.023770064 0.0029630633 0.021725941 -0.009165179 0.01110399 0.012673418
256 -0.007197085 0.02047228 -0.0035511425 -0.0027115217 0.010386981 0.02442403 0.024660295 -0.01456559 -0.013925614 0.012834248 0.07264684 -0.022660477 -0.032602496 0.028574461 -0.030026283 0.010815256 -0.019652953 -0.07447296 0.028325178 -0.036055703 0.0039853733 -0.010604297 0.055366497 0.03730902 0.002929746 -0.02285655 0.017095303 0.0052540405 0.03052571 -0.043350033 -0.023465877 -0.039941955 0.0025851412 0.002606493 2.0332818e-05 -0.024364121 0.023740487 -0.000817106 -0.017238462 -0.01683579 -0.027162861 -0.06849553 0.013160415 -0.039755218 -0.01297638 0.0012136525 0.024456033 -0.008484842 0.0032596714 0.01891239
24 -0.012413525 0.0022347013 -0.0022963276 -0.0027521981 0.0004068275 0.027964499 0.013334929 -0.020460322 -0.012108572 0.004229824 0.050604276 -0.023273649 -0.030126119 0.013069803 -0.031298146 0.026086088 -0.02306557 -0.052469335 0.029421076 -0.022016494 0.011725409 0.006818581 0.032523785 0.022980155 0.0037788015 -0.01916062 0.02122003 -0.009181344 0.007828744 -0.051117487 -0.012700344 -0.027745057 0.012289641 0.0029595834 -6.611664e-05 -0.039731722 0.0059483224 -0.012511705 -0.009178639 -0.0093231285 -0.040533047 -0.050444577 -0.005492654 -0.022126606 -0.007583504 -0.0017411532 0.0126568815 0.0022940524 -0.0035678651 0.023297857
95 -0.010005224 0.004180583 -0.01757137 0.0071969936 -0.0009805852 0.027667513 0.024338948 -0.020607295 -0.007997187 0.011721932 0.046865694 -0.029118821 -0.019489788 0.009274309 -0.03137858 0.025061717 -0.013822861 -0.06554598 0.01739918 -0.015696567 0.015962154 -0.010066811 0.031910338 0.019374797 0.0030528344 -0.025468832 0.0070095914 0.000819322 0.004764032 -0.039586004 -0.024840806 -0.03563771 0.018525854 0.008413314 -0.016783103 -0.030842496 0.01712944 -0.013419081 -0.0060308077 -0.0026687698 -0.033053007 -0.045330644 -0.009598821 -0.030001858 -0.008063718 -0.008625262 0.019965516 -0.007832594 -0.0033368883 0.01565183
282 -0.0070920554 0.0043553193 -0.006282316 -0.0005356499 0.0004295281 0.025556441 0.014600522 -0.029761815 -0.010287984 0.023738286 0.07326252 -0.03319405 -0.031543225 0.015127149 -0.03675181 0.027813671 -0.0102829775 -0.06643213 0.036576983 -0.037311867 0.01423284 -0.016956404 0.05632752 0.031931214 -0.004337315 -0.003914903 0.017793069 0.01713228 0.0029090561 -0.041622665 -0.026969662 -0.046358936 0.019154385 -0.0065160394 -0.025498545 -0.028421016 -0.006810318 -0.016789034 -0.012198577 -0.02636538 -0.019975096 -0.052235253 -0.005881477 -0.053074867 -0.0019602964 -0.015214623 0.039018504 0.010871695 -0.0024658586 0.022224529
244 -0.0009141975 0.0043891515 -0.016329471 -0.010971039 -0.0055930703 0.029222451 0.019930357 -0.032400843 -0.00266044 0.017956438 0.07893878 -0.039700203 -0.03489751 0.020069195 -0.03498486 0.03454083 -0.025571454 -0.07306451 0.030667594 -0.021771088 0.015542623 -0.021088995 0.049080882 0.021780359 -0.0041110306 -0.0086982185 0.01574725 0.008604007 -0.0003154375 -0.040907722 -0.020788811 -0.02807713 0.008701852 -0.011301182 -0.025969919 -0.031461943 0.0009526669 -0.018751597 -0.011901183 -0.029987758 -0.02591692 -0.06271834 -0.015088064 -0.051594414 -0.010874189 -0.020108163 0.040958453 0.0067458665 0.013120917 0.007647749
148 -0.010002659 0.008971169 -0.0017528009 -0.012328213 0.013006836 0.026557349 0.026482701 -0.01582481 -0.014367997 0.005955974 0.05372709 -0.011878919 -0.031256136 0.014650324 -0.023309994 0.0056100786 -0.025580335 -0.061002653 0.018989507 -0.016106043 0.006334975 0.0006911299 0.034329716 0.020278405 0.0048457757 -0.018022867 0.0061201295 0.007407204 0.0035323463 -0.029667284 -0.017178807 -0.024833594 0.009924737 0.005471267 -0.0066858437 -0.019497944 0.015503545 -0.0073927664 -0.004964377 -0.014746186 -0.026426438 -0.03437828 -0.008449726 -0.029454947 0.00013413814 0.0034155953 0.015931701 0.0020341778 0.003545815 0.015953971
278 -0.012752426 0.013940654 -0.014337441 -0.010581738 -0.0047886507 0.022782603 0.022016246 -0.019151142 0.001928191 0.020159166 0.05334704 -0.012006787 -0.02990587 0.017198827 -0.023457633 0.017033556 -0.019032354 -0.06511304 0.018545097 -0.021761227 0.019103494 -0.005787596 0.036240134 0.030493937 -0.0030868114 -0.022553734 0.010955621 0.008450369 0.019888753 -0.04635208 -0.017131489 -0.030650523 0.016825896 0.0060050637 -0.0108739445 -0.023423733 -0.0038049675 -0.0074205142 -0.008422034 -0.007217129 -0.034563582 -0.052922793 -0.0071614943 -0.02516943 -0.0009649979 -0.0023318604 0.017467147 0.002273937 -0.0018516234 0.0223468
131 -0.001486152 0.020245943 0.0012259017 -0.0076201423 -0.0016652545 0.016601501 0.026504923 -0.0059515117 -0.003909783 0.01900131 0.0534237 -0.01686487 -0.032333035 0.016147636 -0.027503457 0.0077731675 -0.019860858 -0.066759616 0.023127431 -0.015969986 0.0065268697 0.00528577 0.027874948 0.030600071 0.005798152 -0.014024265 0.012595162 -0.0067746355 0.021936342 -0.046969526 -0.014844363 -0.031182071 0.0064738705 -0.0032052973 -0.01152623 -0.024074385 0.0063514337 -0.00206238 -0.014304501 -0.022101864 -0.027450692 -0.043740332 -0.0068176896 -0.0340628 -0.019644136 -0.0055707917 0.023361571 -0.011996599 -0.0035593035 0.005549255
171 -0.00083230203 0.0015838026 -0.00092142227 0.0032084018 0.0028165374 0.02755505 0.017075216 -0.015136385 -0.008329052 0.007846748 0.058575265 -0.028929513 -0.03864285 0.019285923 -0.028142745 0.023925828 -0.023098027 -0.054432064 0.02846662 -0.015509416 0.004498788 -0.003180815 0.027902847 0.029639358 -0.009308562 -0.025179433 0.020732608 0.012111403 0.0006999523 -0.04732191 -0.018633781 -0.021034475 0.0041197613 -0.0039981343 -0.016953103 -0.021714002 0.003277745 -0.014761243 -0.018743994 -0.0069213505 -0.04032699 -0.05751843 -0.0052469834 -0.034148924 0.0010955494 -0.00666922 0.032959346 -0.002131988 0.014135036 0.014887348
2 -0.015633026 0.011736931 -0.009662362 0.0045162896 -0.0069474997 0.008606876 0.027540267 -0.018794363 -0.0022400008 0.010522 0.041683476 -0.025592458 -0.018324777 0.009830792 -0.027131915 0.017590547 -0.02550907 -0.060220428 0.032650698 -0.01579764 0.005194742 -0.00093510846 0.039611742 0.024925074 -0.010127287 -0.01342079 0.012366559 -0.0062793614 0.007239212 -0.033325646 -0.018702604 -0.0243466 0.0009100823 0.006198984 -0.016504908 -0.02954872 -0.0019742313 -0.011118246 -0.0067001847 -0.0018574835 -0.032205265 -0.041829422 -0.014020117 -0.024308847 0.0020247013 -0.006714652 0.01611956 0.0016676049 0.015731461 0.0164653
33 -0.0026083237 0.022615945 -0.0065813395 -0.0028170652 0.0047787954 0.033397987 0.030687597 -0.015381307 -0.005825215 0.028987106 0.081333525 -0.03979451 -0.029744204 -0.0016302255 -0.021738788 0.027058136 -0.014227588 -0.07062482 0.04291756 -0.036067147 0.010666912 -0.0053584063 0.044295702 0.029626735 0.0008794403 -0.016556501 0.012747679 -0.0049118064 0.0052325027 -0.06034332 -0.034137223 -0.0499054 0.020185571 0.015125933 -0.013224942 -0.047791988 -0.005742419 -0.01596956 -0.01802394 -0.0030965963 -0.042592965 -0.054218285 -0.0020939794 -0.024247633 -0.023024695 0.005298086 0.03751175 0.0014207261 0.0028121166 0.0170994
42 0.003450698 0.014080733 -0.021848137 -0.0017352705 0.005375062 0.033593725 0.022224285 -0.032474708 -0.016360585 0.024668118 0.08147937 -0.044111993 -0.022974785 -0.0009282135 -0.036857024 0.023956405 -0.020829467 -0.068653084 0.03988946 -0.024690662 0.009715871 0.007925134 0.034982953 0.017254082 -0.0004699085 -0.02656825 0.010630276 0.0091150375 0.012656263 -0.04525542 -0.028721014 -0.043932773 0.0018514707 0.0011825218 -0.02051704 -0.045472745 -0.0039626965 -0.0035548816 -0.018682003 -0.0010952147 -0.05636798 -0.06405015 -0.012901219 -0.02094854 -0.022309702 0.0072552967 0.044940636 0.007975389 0.010861395 0.020874862
218 -0.0036871266 0.013410474 -0.006604605 0.0012060866 0.00025931638 0.016254254 0.019879935 -0.014658047 -0.016885117 0.0063953544 0.0502086 -0.032267276 -0.01568948 0.013266511 -0.024140641 0.011313497 -0.013951971 -0.06840632 0.035801116 -0.01532088 0.009860933 0.0016438647 0.03196284 0.018425545 -0.0077710436 -0.0062057627 0.015848305 0.002938574 0.0217706 -0.045483213 -7.872404e-05 -0.022960655 0.0054287044 0.008087742 0.001447859 -0.039402235 0.015549766 0.00012721491 -0.013459667 -0.002679162 -0.038900826 -0.04032416 -0.00025651284 -0.035186153 -0.008925854 -0.008494387 0.021411808 -0.019237155 0.002798452 0.026155582
133 0.0018095083 0.01504459 -0.01150097 -0.0105287125 0.00917367 0.015435945 0.011019321 -0.020315984 -0.001530088 0.001705583 0.04368879 -0.014324493 -0.025274433 0.012757702 -0.031701222 0.025470223 -0.012996676 -0.050432023 0.0153993955 -0.019157413 0.017965557 -0.012851346 0.029457767 0.020528266 -0.00034305578 -0.008925704 0.010468049 -0.0056961197 0.00967541 -0.042985022 -0.019677432 -0.029111454 0.012012515 0.010861628 -0.012262806 -0.03154596 0.008967951 -0.013533191 -0.011573537 -0.005895479 -0.04097312 -0.038955897 0.0027111336 -0.024396725 -0.011135609 -0.005482923 0.03187083 0.00047419514 0.014208404 0.021621633
141 -0.01241279 -0.00025598475 -0.015944013 -0.0068798712 -0.0021278195 0.022578299 0.019207595 -0.02152335 -0.015401735 0.01620085 0.050223332 -0.028849905 -0.03264842 0.0028192273 -0.032428887 0.012388616 -0.023978116 -0.047927577 0.011809076 -0.02718934 0.014833765 -0.010956744 0.033701472 0.022517892 -0.0004614135 -0.011051169 0.014130335 -0.002212405 0.016261978 -0.038638942 -0.015235614 -0.023014832 0.0067088674 -0.003948181 -0.008262634 -0.024977934 -0.0007578851 -0.011757285 -0.006921931 -0.0076283994 -0.021328172 -0.035732422 0.0011223048 -0.017823426 -0.01607906 -0.01347579 0.015445453 -0.005402448 0.010535748 0.013902175
100 -0.014272781 0.013080746 -0.008824066 0.0025310905 0.004118145 0.026301673 0.02742106 -0.022858193 -0.018445257 0.014839001 0.053024434 -0.028774494 -0.018799141 0.01535415 -0.033591494 0.017723149 -0.025898375 -0.0462915 0.030912869 -0.015576296 0.0079488065 0.0035711927 0.023429835 0.023677493 -0.0013868816 -0.009265072 0.01426936 0.0052506626 0.0064656455 -0.042863373 -0.012296234 -0.023558898 -0.0010639182 0.00047728157 0.00014684204 -0.025996909 0.012827559 0.0010455082 -0.014253804 -0.016330302 -0.022861982 -0.046255514 0.00028729986 -0.02683955 -0.004656648 -0.011839084 0.032504935 -0.007205223 0.016162358 0.0144823305
4 0.0031605568 0.0039197863 -0.018514937 0.002824221 0.0014457201 0.017897217 0.027563082 -0.027671037 -0.010545927 0.002055921 0.06338333 -0.02193487 -0.028612535 0.017080264 -0.02444717 0.008902681 -0.014359149 -0.077533826 0.03635989 -0.02879809 0.004816699 -0.015528463 0.03292793 0.023085384 0.005049144 -0.02136979 0.023210526 0.01045976 0.02574401 -0.052529328 -0.019998861 -0.0343745 0.009394656 0.012574785 -0.0049237176 -0.038559612 0.005954368 0.0025909212 -0.017778995 -0.020238109 -0.049176447 -0.057081457 -0.012050113 -0.036409207 -0.0057561137 -0.005346307 0.031111943 -0.02048846 0.0037929036 0.023075357
273 0.0035197602 0.014040087 -0.014871419 -0.00877908 -9.931678e-06 0.017030532 0.023040062 -0.014679097 0.00012244738 0.006216438 0.054687433 -0.028934898 -0.02397235 0.01891859 -0.033550195 0.020313058 -0.018107066 -0.060201373 0.037196342 -0.0133119635 0.015495034 -0.01633923 0.0477819 0.02227204 -0.010052762 -0.009650021 0.026073746 -0.0042256094 0.0065308623 -0.054102156 -0.008452042 -0.037508532 0.0071375696 0.015199775 -0.0026741277 -0.04416553 0.0128528895 -0.016527696 -0.00040295854 -0.020627066 -0.0423456 -0.05844292 -0.0031992265 -0.03867637 0.00068903074 -0.020722337 0.02428943 -0.014160781 0.013510554 0.021894718
306 -0.009123887 0.010003537 -0.01648577 -0.01274265 0.010943824 0.017282566 0.026785156 -0.01653629 -0.0005543123 0.008003513 0.06535176 -0.031885955 -0.02197978 0.021170717 -0.030959295 0.025923219 -0.013231598 -0.0737877 0.024608884 -0.02369387 0.009214245 -0.0132509805 0.039866813 0.025113937 -0.0043076454 -0.021969168 0.018184396 -0.0006792632 0.018922046 -0.04953743 -0.0014151356 -0.028139682 0.0010666233 0.015249334 -0.010519785 -0.033909082 0.008009074 -0.004725437 -0.010658506 -0.007456823 -0.04721284 -0.053716037 -0.0027634741 -0.029121595 -0.009888462 -0.020865327 0.014842431 -0.015210276 -0.0011511856 0.019028515
59 -0.0022580277 0.012222427 -0.004446879 -0.013517092 0.014127625 0.024179606 0.007747835 -0.011819617 -0.015784713 0.01866815 0.0374782 -0.016987382 -0.012542238 0.0019636315 -0.024098855 0.009217149 -0.016402801 -0.054271035 0.017795619 -0.018107299 0.009293487 0.0007006128 0.023786394 0.01642269 -0.009112945 -0.003960842 0.019362189 -0.007677155 0.0028504967 -0.044512425 -0.0075399554 -0.017678527 0.00072378165 0.014800619 -0.013935286 -0.022341646 0.002358811 -0.011008664 -0.015699765 -0.013721805 -0.0313021 -0.04207774 0.0061900415 -0.03392939 -0.0070445715 -0.005358031 0.021810615 -0.006490874 0.012059231 0.011387653
245 -0.01314716 0.0056369337 -0.01795057 0.0038122144 0.013760685 0.015283077 0.025847701 -0.011684358 -0.0036033203 0.015179207 0.038605858 -0.0193182 -0.018038152 0.021867616 -0.028643332 0.015273903 -0.012334357 -0.048457034 0.023815565 -0.013355563 0.012511894 -0.013957943 0.027844321 0.015113402 -0.0028352821 -0.016669128 0.010172361 0.012870769 0.0027789664 -0.039311245 -0.0037263238 -0.031472 0.011752649 0.006894832 -0.00509414 -0.02007845 -0.0025541342 -0.007743041 -0.0023494547 -0.017333098 -0.042673275 -0.043818545 0.004521737 -0.024209872 -0.016145434 -0.00025509755 0.0143711 0.0008026276 0.0040298197 0.015317555
269 -0.0027863053 0.013441117 -0.0077626794 0.0015437134 -0.0025254863 0.018687716 0.023831926 -0.011776515 -0.017064266 0.01326825 0.04876793 -0.024779249 -0.027266031 0.008542927 -0.029720755 0.024502024 -0.032177206 -0.05467177 0.02748739 -0.016080916 0.007406643 0.0006755291 0.04090217 0.023155192 -0.013192954 -0.026718512 0.0058075646 0.006008038 0.011129797 -0.052153256 -0.016908512 -0.03771727 -0.0014840055 0.004911796 -0.00011744474 -0.038997784 0.0065436168 -0.002505226 -0.011125989 -0.025570557 -0.032275233 -0.05892767 0.007113926 -0.022860719 -0.010641277 -0.005182309 0.031479105 0.0018409454 -0.0013780593 0.009019147
128 -0.007016492 0.006986753 -0.013660485 -0.009820521 -0.000564476 0.019373873 0.025777897 -0.018995825 -0.0061111753 0.010544813 0.056239825 -0.022104036 -0.030939952 0.014621583 -0.033267494 0.006288061 -0.017366922 -0.04712579 0.031520206 -0.02909208 0.0072290036 -0.0039303075 0.034909174 0.009040976 0.002084421 -0.013859516 0.020059826 -0.00028892912 0.01758078 -0.04650431 -0.020884452 -0.03511872 0.005025261 -0.0006563595 -0.014190322 -0.037097953 0.011227385 -0.012617173 -0.015134596 -0.011074083 -0.03725113 -0.039246317 0.0028236047 -0.020798266 -0.0054935184 -0.008394459 0.022556573 -0.00041777312 0.009398268 0.015797675
185 -0.011282823 -0.0016896349 0.00062474934 -0.004708414 -0.0017762255 0.009387016 0.017493261 -0.020346105 -0.011970338 0.013243973 0.03397925 -0.010525101 -0.02215709 0.01578605 -0.026182268 0.012224519 -0.014635773 -0.051632892 0.01958202 -0.023246579 0.009133714 -0.004673974 0.024469715 0.010829509 0.0005398988 -0.013955852 0.015822744 -0.0009952254 0.016150739 -0.040039 -0.02193424 -0.029015733 -0.0020855293 0.0076375324 -0.0036348272 -0.01965001 0.012174557 -0.0057248557 -0.013851372 -0.005654569 -0.025467815 -0.04370619 0.0009512202 -0.019269207 0.0005508988 -0.015824817 0.021683125 0.0043034423 -0.0018784275 0.021934846
217 -0.014993533 0.0013670326 -0.015461904 0.005797703 0.0032144093 0.022354348 0.011696818 -0.014897848 -0.020175405 0.015447624 0.0519695 -0.023647143 -0.03254339 0.018805705 -0.035566617 0.0075706583 -0.028525451 -0.05456094 0.017933095 -0.024763547 0.0014021286 -0.0025039013 0.033863623 0.02496288 -0.010328371 -0.0061786477 0.016924165 0.000649604 0.009317735 -0.052098386 -0.016527854 -0.026727317 0.009599265 0.011605209 -0.00027820753 -0.026975192 0.009211698 -0.015865944 -0.013792596 -0.019059218 -0.02748085 -0.048319314 0.0012364798 -0.021158665 -0.0056527182 -0.0052513224 0.028618593 -0.010946188 0.010901778 0.008561479
184 -0.012287523 0.010466916 -0.014427809 -0.0045521995 0.0037413426 0.02359293 0.030945357 -0.010785517 -0.0077661145 0.0088091325 0.05021622 -0.030915152 -0.02242856 0.016811118 -0.02498734 0.01928881 -0.022094375 -0.06884833 0.026815087 -0.028815709 0.007151143 0.0018050399 0.028783675 0.02174542 0.00827843 -0.015554564 0.017944045 0.008265407 0.008530436 -0.05570881 -0.012203212 -0.019848686 0.020003587 0.0076445555 -0.0017212777 -0.03758534 0.0016137048 -0.018918738 -0.017286925 -0.013190416 -0.03904779 -0.04654992 -0.011455679 -0.030471435 -0.015406027 -0.0055957125 0.032469373 -0.0051754666 0.00631981 0.015004983
81 -0.01312733 0.018776005 -0.01105808 0.007126 0.006304962 0.017576212 0.021735154 -0.013327396 -0.011476942 0.022562062 0.054249946 -0.021657817 -0.024766983 0.022596994 -0.03983315 0.0163842 -0.024796 -0.06689498 0.039737467 -0.028599884 0.009186851 0.003270942 0.029614493 0.024305353 -0.003313063 -0.028770154 0.02469265 0.008627273 0.016810665 -0.041841123 -0.021622552 -0.04118569 0.019771017 -0.0022453081 -0.008469499 -0.036706097 0.017891148 -0.0044423803 -0.01063008 -0.010967488 -0.034849826 -0.04389926 0.009122323 -0.034063764 -0.008833093 -0.013514531 0.032369222 -0.010614875 0.016057633 0.010988464
6 -0.0055892146 0.017905267 -0.010517387 0.001618937 -0.005958534 0.030794514 0.029666653 -0.00998064 -0.0051369015 0.018034656 0.057629555 -0.026423125 -0.02180544 0.019724274 -0.02474901 0.011489663 -0.015572988 -0.047147408 0.015661836 -0.026658636 0.01583209 -0.008872216 0.022288647 0.015389843 0.0024492461 -0.008476866 0.007122572 0.0013776587 -0.0003083611 -0.039077733 -0.016291087 -0.033836357 0.0023697256 -0.003338841 -0.005974848 -0.020032017 0.01374723 -0.0023554065 0.0030843902 -0.0049181036 -0.02883292 -0.040306542 0.0045953966 -0.036447216 -0.011170234 -0.0014071767 0.012056802 -0.008988597 0.0009760073 0.015061978
22 -0.0061331834 0.018254662 -0.008946438 0.0008933383 -0.0015741271 0.012965406 0.0147474 -0.018165704 -0.0012788908 0.01767377 0.05470276 -0.02917722 -0.036522117 0.015631523 -0.023641141 0.014295987 -0.013262181 -0.053381514 0.014676764 -0.026964579 0.012617253 -0.0092325555 0.044690005 0.019680072 0.006097345 -0.021133527 0.016887512 0.0041784425 0.009822076 -0.044700466 -0.021740237 -0.02526705 0.00051013276 0.013618871 -0.017499765 -0.03875039 0.0050535672 -0.005858913 -0.01738959 -0.020939639 -0.034821447 -0.052114677 -0.0060996073 -0.023788925 -0.011869737 -0.016724825 0.018813465 0.0031007386 0.0100037325 0.018388433
174 -0.010286185 0.011982787 -0.0082318345 -0.015008473 -0.0005404384 0.0089040315 0.014611835 -0.008944185 -0.017125411 0.002974672 0.056822892 -0.016266279 -0.029696673 0.024081608 -0.036470085 0.025997806 -0.011482933 -0.06973697 0.02399037 -0.015976056 0.016393559 0.006397547 0.026024666 0.024542691 -0.010528091 -0.0060614673 0.019780437 0.012481175 0.0032405816 -0.049997043 -0.009543348 -0.028435595 0.01253286 0.011291513 -0.0021360766 -0.041178852 0.012199926 -0.0062578414 0.0019928988 -0.023038885 -0.037219837 -0.043925487 -0.009854814 -0.039774507 -0.014618386 0.0011078618 0.02616755 -0.014970309 0.012077791 0.008240463
266 -0.01617239 -0.002628459 -0.00011209789 0.005945432 -0.0033323476 0.012766974 0.023102548 -0.011274988 -0.008462338 0.0040412922 0.048713457 -0.023772852 -0.02983587 0.0053574257 -0.034181364 0.017456925 -0.023874858 -0.060264565 0.03090647 -0.025137931 0.01970053 -0.0035850795 0.031084452 0.015164032 0.005122877 -0.010095447 0.021510554 -0.0047788806 0.023377758 -0.041775014 -0.023105817 -0.027066154 0.0034278962 0.0080590425 -0.0001934505 -0.038972586 0.0153289335 -0.008707797 -0.0075234314 -0.011196597 -0.040789783 -0.045667138 -0.010137169 -0.023864714 -0.011731362 -0.0017170111 0.01985257 -0.0033923676 0.0057516843 0.0216941
139 -0.017800873 0.013401015 -0.008374191 -0.006439937 0.011254966 0.01923352 0.027112512 -0.026691578 -0.008982309 3.5560355e-05 0.0670046 -0.03458481 -0.033419088 0.01395433 -0.021186715 0.008041164 -0.023670066 -0.07425132 0.022501942 -0.030336617 0.0045275153 -0.007671533 0.049531348 0.018094668 0.0075713387 -0.016274545 0.02160352 0.0008392715 0.022216652 -0.04373687 -0.015673695 -0.03562705 0.003283401 0.016742019 -0.0070851594 -0.033166874 0.012576808 -0.011723325 -0.018964872 -0.014247098 -0.041955214 -0.042640295 -0.0072959573 -0.021640621 -0.008082426 -0.016262395 0.02277416 -0.012410307 0.0047951993 0.018339165
