333 50
322 -0.001090047 -0.012262704 0.055924192 0.02617812 -0.05108902 -0.024395073 -0.04068112 0.040047176 -0.020642783 0.018563388 0.07014373 0.00094077614 -0.03337432 -0.020924294 -0.023932835 -0.02100162 -0.016756471 -0.019975832 -0.003285408 0.030051105 -0.011324869 0.0251053 -0.024081683 0.037965894 0.05820418 -0.0017284992 -0.047289006 0.017322436 0.028979562 -0.015268741 -0.007860928 0.035985194 -0.03872262 0.043143433 -0.008768639 -0.014191221 0.01496264 -0.03144336 0.0037882687 0.034211557 -0.03646348 -0.035620425 -0.045244846 0.0089159245 -0.00016052867 0.012482009 0.0027164363 -0.008027832 -0.039489463 -0.014390465
56 0.0024333324 0.0057336497 0.06552307 0.035211228 -0.07550875 -0.020871462 -0.031608723 0.03439737 -0.03671027 0.020277593 0.08125846 0.004306512 -0.053535923 -0.024933431 -0.02593915 -0.032304734 -0.008712647 -0.0056623938 -0.0010259441 0.036537543 -0.010114419 0.030436622 -0.022295143 0.05364646 0.047860857 -0.0016952374 -0.050730694 0.04027353 0.024422096 -0.012659199 0.0012837324 0.028201293 -0.05973179 0.06522161 -0.0047070673 -0.0058395094 0.009222302 -0.0335737 -0.01246984 0.033605255 -0.037130885 -0.030897561 -0.056551784 0.0043358714 0.0009400721 0.025928346 0.012053176 -0.0043144724 -0.03206743 -0.021607425
25 0.015385398 -0.004721357 0.058700953 0.02834147 -0.055819605 -0.027793847 -0.045709327 0.03389068 -0.019591412 0.012979182 0.06252116 0.005218867 -0.04191723 -0.0075294375 -0.020534169 -0.031965565 -0.012405398 -0.021475194 -0.0024924562 0.030726574 -0.011269068 0.027746838 -0.024845676 0.045361765 0.0404365 -0.0021524034 -0.040223256 0.024173439 0.034459095 -0.010267987 -0.00031406598 0.022021161 -0.050994217 0.045297764 0.0037394348 -0.0031505502 0.004984907 -0.031038733 -0.011087083 0.04723841 -0.04749208 -0.023794763 -0.049755782 0.00602565 0.00052608654 0.022727301 -0.0021155817 -0.012621521 -0.036418915 -0.012956105
67 0.018826436 0.0011330091 0.05657826 0.025469536 -0.06205815 -0.014320161 -0.0317354 0.022601992 -0.024819564 0.0035208685 0.062137596 -0.00062406954 -0.03965369 -0.016615652 -0.034707837 -0.031640038 -0.0108465105 -0.0032126224 0.00859057 0.017955625 -0.010490895 0.015397525 -0.012127784 0.047601167 0.059494838 -0.012759215 -0.049976055 0.03608598 0.026920479 -0.0031804878 -0.015547101 0.038372423 -0.043035187 0.05071884 0.0023020762 -0.008354822 0.01174744 -0.0404957 -0.0025813042 0.03573475 -0.045680605 -0.028598508 -0.049679726 -0.0010542166 -0.0065203854 0.013760469 0.006751932 -0.003262575 -0.04538596 -0.02096128
277 0.009591322 -0.0069634365 0.060862016 0.023267219 -0.058007836 -0.014244594 -0.033546273 0.025693871 -0.030592643 0.004644974 0.060869157 0.009947192 -0.044318147 -0.006558714 -0.026934406 -0.029762719 -0.008086893 -0.014457329 0.012838103 0.020908732 -0.015632672 0.01236818 -0.023562735 0.05044147 0.048791166 -0.008811992 -0.039175805 0.030597078 0.02341349 -0.012671663 -0.0043533025 0.039440963 -0.038852543 0.041910585 -0.00074485334 -0.00070394843 0.006162314 -0.02756436 -0.0021230008 0.033058677 -0.04402712 -0.029467909 -0.048729315 -0.0008551685 0.0013016642 0.011774771 0.011267549 -0.0058788243 -0.03542003 -0.011882378
119 0.00036715905 0.0048268037 0.07041714 0.029377313 -0.07300929 -0.017154705 -0.047373004 0.04158621 -0.022362677 0.0031762817 0.07935343 0.008944903 -0.036172353 -0.019882483 -0.029740421 -0.026306877 -0.005492302 -0.0063672084 0.012121705 0.018968139 -0.013404721 0.028148828 -0.015182081 0.044715088 0.053292196 -0.010780087 -0.047599636 0.021925 0.033011578 -0.012059808 -0.009429133 0.027643219 -0.059691813 0.063009575 -0.010087758 -0.011839502 0.020714745 -0.044996765 -0.002997328 0.038162798 -0.05395514 -0.043066457 -0.051679935 0.0038332818 -0.012219576 0.016084403 -0.0025995146 -0.019499643 -0.04895331 -0.02060877
23 0.00463672 -0.012863904 0.06540128 0.024656711 -0.07581981 -0.024084536 -0.03785017 0.04257506 -0.04061572 0.017569004 0.07271733 0.0051997015 -0.04108901 -0.009281049 -0.020902919 -0.03321422 -0.0103135975 -0.010929459 0.010329016 0.028422117 -0.01839283 0.010169268 -0.01797298 0.048022572 0.04825169 -0.006496675 -0.051008668 0.025483185 0.031032247 -0.010209323 -0.016040096 0.026084777 -0.045239672 0.062022008 -0.00042767584 -0.012074784 0.015151486 -0.041340962 0.005770233 0.050169695 -0.051397465 -0.036776852 -0.057874735 -0.007998841 0.0005393521 0.017855024 0.01338232 -0.011069949 -0.042484324 -0.027550038
271 0.0048807887 -0.0029641835 0.06348815 0.03384183 -0.06318087 -0.015850695 -0.037938546 0.031028923 -0.02193053 0.0025684498 0.06635504 0.010614522 -0.028545603 -0.011462615 -0.03457967 -0.019497724 -0.004267537 -0.010754634 -0.0036996899 0.016439429 -0.023206705 0.013307149 -0.0074921064 0.050903626 0.055820346 -0.017106805 -0.04197067 0.021743009 0.023675092 -0.01088425 -0.011416976 0.020789253 -0.05256684 0.052944213 -0.0062486683 0.0028706663 0.008519399 -0.031207995 0.005101274 0.04419377 -0.036267556 -0.037979223 -0.05453193 0.007746477 -0.00934565 0.024612837 -0.004396594 -0.016821112 -0.030799398 -0.014583906
239 0.0045343298 -0.009481243 0.0560333 0.033277612 -0.0599032 -0.017883394 -0.026100656 0.020788077 -0.0344376 0.010769295 0.06255417 0.002634776 -0.043979477 -0.021117195 -0.026151678 -0.031108152 -0.017037807 -0.011595909 0.0072142356 0.02104049 -0.011105327 0.010997425 -0.008326535 0.04961237 0.050708957 -0.013469648 -0.0344258 0.023436015 0.022550035 -0.0048153982 -0.0024439623 0.03661401 -0.04980332 0.036077447 0.0035469602 -0.0039107567 0.021836188 -0.025402403 -0.0045162993 0.033224937 -0.036886588 -0.029663855 -0.040200807 -0.009431619 0.0012710483 0.023990687 0.006275324 -0.007108674 -0.027063036 -0.010183646
26 0.01370832 -0.010904538 0.04900327 0.031676482 -0.06452387 -0.021764435 -0.04137211 0.02810782 -0.03176304 0.017361043 0.05237498 0.006647712 -0.041703466 -0.0064833164 -0.028966384 -0.029113038 -0.013350175 -0.017889801 0.0042522983 0.03147562 -0.008028829 0.013675169 -0.016200548 0.04437343 0.044941615 -0.00956169 -0.039984565 0.02397865 0.029099895 -0.016224422 -0.015371018 0.022537002 -0.048639663 0.041292913 -0.001938986 0.002639107 0.0047806962 -0.029874474 -0.009414644 0.03828384 -0.032880966 -0.03611682 -0.042265937 -0.003077829 -0.0005561945 0.027832847 0.005693752 -0.014273051 -0.023783414 -0.013228382
312 -0.0028299799 0.0033216262 0.060207464 0.035613365 -0.06140035 -0.03295895 -0.039337628 0.039341014 -0.033386204 -0.00040600196 0.06580022 -0.006900589 -0.049909122 -0.016894834 -0.034763478 -0.03587435 -0.0034509334 -0.008766043 -0.0011812103 0.016827324 -0.021944368 0.010634632 -0.020197786 0.050341498 0.04374102 -0.016772445 -0.034599137 0.036487874 0.036470853 -0.0011211984 -0.0038825686 0.03628867 -0.04837473 0.04749633 -0.00013606662 -0.0054031014 0.011605936 -0.04418551 -0.010175029 0.04004132 -0.03813254 -0.028569458 -0.05510928 -0.008815549 -0.012988641 0.024438554 0.004490429 -0.00681406 -0.027370514 -0.010931429
19 0.017616324 -0.0046198573 0.06124598 0.020050118 -0.065485954 -0.015571311 -0.028324548 0.033293582 -0.022240447 0.013483848 0.071297646 -0.0073824944 -0.03149504 -0.0134064695 -0.03602416 -0.017809073 -0.013386298 -0.016891727 -0.00471526 0.026572226 -0.026540538 0.02246035 -0.001782987 0.040099904 0.049349528 -0.004996345 -0.047731284 0.021109171 0.017384935 -0.009303993 0.0028983252 0.036057282 -0.037771158 0.041917305 0.002569475 -0.010302785 0.014201583 -0.045130134 -0.009466262 0.044790767 -0.03653639 -0.034047425 -0.043668713 0.0020982039 0.005005711 0.014658111 -0.004260074 -0.008659304 -0.036868595 -0.023411706
280 0.014777714 -0.0022586363 0.058102503 0.03155351 -0.05655086 -0.027033031 -0.029450832 0.03330745 -0.017191619 -0.0002758135 0.05853416 0.0022855154 -0.04060834 -0.019151656 -0.03048353 -0.017811937 -0.010250987 -0.002341621 0.011821814 0.019019945 -0.0025861745 0.008653663 -0.014784015 0.0450844 0.040652517 -0.0039653312 -0.04007334 0.02122721 0.012965855 -0.0008709771 -0.009319967 0.026485614 -0.04603801 0.0510795 0.0026442842 -0.008624472 0.012508319 -0.024807695 -0.011459262 0.039916754 -0.03176532 -0.033800226 -0.039159678 0.00523502 -0.002214929 0.011880797 -0.00021008072 -0.0033833575 -0.03213762 -0.009541595
252 0.0006257173 0.0042797504 0.04191527 0.017389096 -0.060405485 -0.015330155 -0.032931056 0.028277883 -0.02261136 0.018823395 0.059004925 0.008895633 -0.036904093 -0.009972187 -0.021540534 -0.033750035 -0.01689052 -0.020872775 0.005573964 0.021562489 -0.0091932425 0.021124685 -0.01733912 0.03606349 0.041745167 0.0013419926 -0.027985604 0.02644422 0.028703133 -0.0077994475 -0.012558335 0.03399362 -0.044918224 0.036973137 -0.0066067846 -0.013095958 0.0083140265 -0.028269658 -0.012278715 0.040931556 -0.031510074 -0.023624929 -0.035757486 -0.001617866 -0.002870297 0.019694058 0.005841292 0.0021541254 -0.04084455 -0.017149512
203 0.013505421 -0.011279567 0.06152532 0.032460358 -0.059287842 -0.0149609 -0.034533575 0.01825304 -0.01790574 0.018551074 0.05416045 0.0011700275 -0.036394197 -0.006060896 -0.03330284 -0.033650726 -0.0021091027 -0.005306378 0.0133504495 0.024953566 -0.017320031 0.008720029 -0.020955 0.045596503 0.04666241 -0.0072452165 -0.03511106 0.031684384 0.032266658 0.0009432433 -0.006849741 0.036133654 -0.03585575 0.053636402 -0.007175576 -0.0015324677 0.017130451 -0.035582654 -0.012060519 0.04183619 -0.046180464 -0.018493287 -0.03575991 -0.0048315176 0.00336582 0.012370432 -0.0038619218 -0.007823634 -0.042364497 -0.010992251
200 0.014577593 0.004609476 0.048206653 0.014600334 -0.051648114 -0.026939949 -0.031081479 0.020960288 -0.023662452 0.0140668275 0.056793492 -0.0047658384 -0.03874584 -0.0061348486 -0.012223166 -0.030806154 -0.015923563 -0.0075763403 0.0033839063 0.025049273 -0.006397434 0.017021835 -0.013209752 0.04407062 0.03884526 -0.0021293368 -0.037155073 0.030748462 0.02359261 -0.0113434605 -0.009938972 0.02427702 -0.03813567 0.030572837 0.0072624534 -0.008033867 0.016163737 -0.027688762 0.00095274916 0.034986205 -0.030479284 -0.021890488 -0.027728897 0.005678814 -0.007592212 0.008029959 -0.0005896218 -0.010763262 -0.017516881 -0.008447559
170 0.017195331 0.0015492333 0.054017745 0.02248926 -0.04506302 -0.0276735 -0.03784292 0.026316846 -0.022209704 0.008832292 0.06057061 2.705674e-05 -0.03828536 -0.015170162 -0.02251213 -0.027709082 -0.0052838605 -0.008354483 0.008199344 0.025276981 -0.00610827 0.024844619 -0.015079136 0.037814442 0.04993426 -0.014872356 -0.036653955 0.033036374 0.029059844 -0.009922876 -0.0025809347 0.029789256 -0.048538305 0.050609995 0.0012588851 -0.014441774 0.008162055 -0.039725866 0.0052620163 0.034748346 -0.028719204 -0.032816738 -0.052190617 0.003403263 -0.0017800392 0.015227294 0.0014187066 -0.0014265166 -0.028417556 -0.012516299
9 0.0046869935 0.0037735112 0.054949548 0.028919825 -0.05460219 -0.021661505 -0.03207919 0.019324103 -0.024383917 0.015341101 0.062908836 0.008525579 -0.02885131 -0.019885812 -0.030364791 -0.015289011 0.0008072319 -0.017175755 0.01008591 0.010503072 -0.017244263 0.024215939 -0.016704636 0.036314793 0.04064085 -0.01364328 -0.041658822 0.017930498 0.025598645 -0.014443337 -0.0006727961 0.027310174 -0.037503716 0.04536475 0.007934565 -0.0036345597 0.017337453 -0.019620875 -0.0027719212 0.037623987 -0.02840307 -0.02811925 -0.04526203 -0.00063521357 -0.010865625 0.020214966 0.011276968 -0.0007266712 -0.03266634 -0.021863824
122 0.015504281 -0.008264662 0.053010188 0.016017623 -0.05011612 -0.023798019 -0.029069724 0.026109548 -0.019061571 0.017709015 0.06337976 -0.0051279357 -0.0284044 -0.01289195 -0.025047429 -0.020833233 -0.014790428 -0.018958226 -0.0033571857 0.012183843 -0.005361327 0.016592497 -0.023077061 0.042387348 0.050628863 -0.014539398 -0.04017115 0.027152134 0.015350086 -0.00028341438 -0.002760705 0.03588694 -0.03567079 0.036915883 -0.002821552 0.0016287237 0.013837277 -0.02363415 -0.005657651 0.035387855 -0.027954904 -0.026552115 -0.04151233 0.007277554 0.005977604 0.025782185 -0.0036712794 0.0014542256 -0.027105128 -0.022974364
315 -0.0017219323 -0.0068214717 0.053382087 0.0278987 -0.041684154 -0.010947503 -0.036599744 0.02384255 -0.021713417 0.007902209 0.04503226 0.002908348 -0.026673531 -0.022029592 -0.025771188 -0.020698937 -0.015152429 -0.01222164 0.0007000873 0.023192879 -0.0062448755 0.025531806 -0.013077003 0.033280008 0.046119303 0.0008247134 -0.027673597 0.016928723 0.028202437 -0.0005701347 -0.0025047087 0.027601615 -0.043161046 0.046748586 0.0068050376 -0.011242047 0.00463707 -0.036551226 -0.004031497 0.037198726 -0.032002833 -0.016058244 -0.029176027 -0.0030181897 0.0059147044 0.01749167 -0.0007754377 -0.013317366 -0.029737962 -0.024967186
21 0.007639029 0.003701679 0.050889116 0.025280466 -0.050233986 -0.025812425 -0.03811296 0.02932112 -0.02821627 0.011973183 0.04982655 -0.0056597176 -0.020502876 -0.021801116 -0.028084056 -0.0218989 -0.015888743 -0.007602786 0.0071475357 0.0268356 -0.004723458 0.011590095 -0.0042924015 0.034706067 0.039061703 0.0030871658 -0.026844418 0.014222022 0.022470951 -0.014813352 -0.014885524 0.022756092 -0.042981993 0.02978563 0.006456492 -0.0021710093 0.001532032 -0.019809032 0.0059123808 0.029675996 -0.0402586 -0.021656638 -0.04389168 -0.009239081 -0.0033116709 0.007991978 -0.0042658434 -0.008040694 -0.020763759 -0.02439678
41 0.0057679373 0.002399471 0.05963195 0.020874888 -0.05687287 -0.024357483 -0.043249935 0.03492914 -0.03685577 0.00013329115 0.064699575 -0.003951167 -0.028806033 -0.021001942 -0.03687273 -0.018312262 -0.01457615 -0.0043593347 0.007771782 0.026026016 -0.02387132 0.019593842 -0.0034449804 0.037574124 0.040856633 -0.01061941 -0.029775126 0.022230323 0.028690599 -0.014466271 -0.0062948014 0.025842903 -0.038495976 0.04147327 0.0007252342 0.002398829 0.021204732 -0.03858216 -0.01129513 0.039829075 -0.04715529 -0.024894044 -0.044293392 -0.0008054638 -0.010994387 0.022127572 0.008596417 0.0013209488 -0.041221723 -0.025303524
236 0.016194524 -0.00481879 0.054271773 0.025655303 -0.061777394 -0.027348656 -0.03482903 0.023557844 -0.022157066 0.012870768 0.05687642 -0.0018187653 -0.023205046 -0.014334171 -0.029419435 -0.032579925 -0.017637262 -0.006071062 0.0069957445 0.023707245 -0.010281033 0.015530368 -0.01836819 0.039277077 0.04501841 -0.0013056289 -0.036412943 0.020820444 0.02331484 -0.007333765 -0.0018907816 0.022649895 -0.034396064 0.04502551 0.0007508438 0.0038759888 0.005241322 -0.020982627 0.0016241547 0.029130314 -0.037503164 -0.021701692 -0.03539392 -0.010925907 -0.00304446 0.012306246 0.013193167 -0.012044285 -0.022895716 -0.020789424
98 -0.0014001841 0.006646497 0.051170126 0.02595368 -0.052013706 -0.020020673 -0.036650114 0.015660243 -0.0156087475 0.016402185 0.055384766 -0.00507947 -0.03672582 -0.0066614253 -0.013909727 -0.021578208 -0.005343422 -0.01833732 0.0058597866 0.025290664 -0.014148029 0.01994161 -0.008128781 0.036977347 0.046527363 -0.0021171256 -0.030221377 0.022743676 0.01955671 -0.013138264 -0.0049224566 0.0231129 -0.028358182 0.049809765 0.009859323 -0.0005696257 0.0047542797 -0.025959771 -0.011805363 0.03261313 -0.031360198 -0.016792115 -0.034544613 -0.007647539 -0.004009798 0.0194742 0.012422972 -0.014299665 -0.021517335 -0.011644041
227 -0.00032029927 -0.014083985 0.057102926 0.030719485 -0.063258424 -0.023283068 -0.047912106 0.037326597 -0.021751946 0.0097523285 0.06029823 0.012653109 -0.036383785 -0.018416237 -0.032585934 -0.018082656 -0.015535434 -0.019343462 -0.0020605768 0.013823374 -0.017837485 0.010290996 -0.01438117 0.037837725 0.04488485 -0.0029501575 -0.040433712 0.016338794 0.021750666 -0.008334832 -0.01437025 0.034655176 -0.040602274 0.050252955 0.0073521603 -0.006751138 0.015983658 -0.029771488 0.0057253884 0.040537145 -0.033124413 -0.039299607 -0.045902092 0.004051901 0.0070473356 0.02440681 -0.0020419094 0.002185593 -0.04465985 -0.006657368
115 0.013051956 -0.0053173024 0.060180493 0.026099006 -0.052217532 -0.016654063 -0.025490174 0.019856175 -0.018943047 0.0051241936 0.053338315 -0.0012221982 -0.04415232 -0.007261789 -0.028924804 -0.0292448 0.0014682937 -0.017754043 0.0075620953 0.025057746 -0.02410714 0.014736543 -0.018071987 0.050605327 0.051229015 -0.01753666 -0.039763305 0.022967141 0.01870183 -0.0037347174 -0.0031193495 0.026175642 -0.043366335 0.049505692 -0.003591466 -0.011579723 0.020845568 -0.023439288 -0.0093489885 0.034861453 -0.041140165 -0.022593437 -0.038473148 -0.007880813 -0.007744762 0.012853525 0.009983342 -0.008779456 -0.040539857 -0.02524295
199 0.0039060696 -0.0037863716 0.041347302 0.026428733 -0.041226275 -0.007353106 -0.018350478 0.02466072 -0.012248826 0.0061227186 0.056891378 -0.006723434 -0.024618853 -0.012984215 -0.025708104 -0.028573275 -0.00269931 -0.005486935 0.005329112 0.024402793 -0.02043894 0.022842636 -0.020222813 0.03641632 0.040439658 0.0031840773 -0.03561317 0.015919954 0.011666355 -0.0145803215 -0.0012443 0.029575424 -0.02900251 0.037091833 0.009568151 -0.01146563 0.017190708 -0.03019869 -0.0052949493 0.026613759 -0.023574518 -0.020779492 -0.04147626 0.0057583754 0.005475868 0.023124533 0.010083342 -0.01363224 -0.01749005 -0.022326194
304 0.008585017 -0.0055081747 0.039267898 0.03170495 -0.06075499 -0.025734983 -0.025916671 0.02626687 -0.015394956 0.013009966 0.04993363 0.009955815 -0.041151427 -0.0077725486 -0.028172437 -0.021220563 -0.014044285 -0.010649079 -0.0016054016 0.015954161 -0.018772988 0.019304793 -0.015080124 0.047721174 0.033183653 0.00147942 -0.02300457 0.027304783 0.02208434 0.0014420842 -0.012994615 0.02512173 -0.027164768 0.036341492 -0.008371968 -0.014373439 0.0045618084 -0.022140533 0.0022904947 0.033888396 -0.039016183 -0.027034044 -0.03482752 -0.009923614 -0.008670188 0.01243662 0.012621379 -0.0075430553 -0.024055809 -0.024091724
175 0.0024306928 -0.010484779 0.041953366 0.031307075 -0.062194996 -0.021490205 -0.037581746 0.034513313 -0.01655849 0.011775841 0.055266716 0.009801441 -0.036677707 -0.025498115 -0.022983514 -0.014278208 -0.0027346832 -0.010100229 -0.0068250624 0.01187967 -0.013911817 0.007976995 -0.010884876 0.045328002 0.03602375 -0.00084306113 -0.04308754 0.013865718 0.03219365 -0.002297413 -0.016499145 0.03167692 -0.04857166 0.037108794 -0.0017618128 -0.011632403 0.021448972 -0.03673542 0.0026025926 0.033583067 -0.039613314 -0.023191929 -0.04624666 0.0019231809 0.0083593 0.022055957 0.004588811 -0.009659287 -0.027450224 -0.016016474
186 0.010497324 0.0024288835 0.04548628 0.011273824 -0.041712735 -0.0126572 -0.030544015 0.018309021 -0.018178351 0.014003806 0.059359934 0.0068254992 -0.038505845 -0.009146971 -0.018531315 -0.028839892 -0.007134261 -0.006935347 -0.0006671026 0.025051866 -0.0068408437 0.018800462 -0.01317785 0.04351617 0.028850965 -0.013281573 -0.03902046 0.028097352 0.01920332 -0.002758481 -0.0064438167 0.0197193 -0.037129525 0.044239484 0.0028495723 -0.01095033 0.012857295 -0.016651565 -0.008363545 0.023115955 -0.035162415 -0.023938505 -0.030465903 -0.009237664 -0.011755889 0.018144177 0.005308359 -0.0071185906 -0.034209255 -0.015790803
188 0.0021762103 -0.01089451 0.058106653 0.015276526 -0.055403285 -0.016843582 -0.035864756 0.022774491 -0.015323438 0.019188657 0.061008383 -0.00051053625 -0.040545862 -0.021302182 -0.014884809 -0.020221462 -0.004511251 -0.007203746 -0.0030379253 0.021412633 -0.007935196 0.019853314 -0.009459537 0.04825607 0.043316357 -0.0035188943 -0.039292905 0.025399204 0.031151 -0.0058850753 -0.003949441 0.029342845 -0.036736738 0.03819437 0.004586992 -0.00231487 0.00460112 -0.036817905 -0.0047250655 0.038001336 -0.046216544 -0.029956255 -0.0371169 -0.0017511153 0.0045941286 0.028443087 0.01465021 -0.0104318345 -0.036575343 -0.021717625
213 0.01106035 -0.008390612 0.03085229 0.009555574 -0.03475036 -0.011158576 -0.021584399 0.023220867 -0.022322884 0.0082664 0.05426873 -0.0049272245 -0.031244457 -0.015916903 -0.010075869 -0.025153683 0.0036899762 -0.0014962388 0.010055006 0.025514578 -0.016069531 0.011227032 -0.01045623 0.039613243 0.041100666 -0.0039024714 -0.030251792 0.017593915 0.02838842 -0.011041273 -0.010303108 0.027177773 -0.035010535 0.036638893 0.0072944667 -0.0072766184 0.009766512 -0.023007613 -0.008060691 0.017768508 -0.03425806 -0.017483234 -0.039451797 0.007552494 -0.007840389 0.012426802 -0.005209716 -0.016395532 -0.018694874 -0.008412636
332 0.00039614417 -0.012060112 0.038743045 0.023954894 -0.04367889 -0.014606121 -0.025912968 0.03254073 -0.014582446 0.0134636685 0.059440613 0.011664408 -0.025896514 -0.00458092 -0.019918902 -0.021027163 -0.0033576156 -0.013156111 0.012558501 0.023148803 -0.010077379 0.022474328 -0.014677834 0.025638193 0.044852402 0.0025437637 -0.03814536 0.013940814 0.029212195 -0.00901844 -0.003798383 0.01621988 -0.04040883 0.03371408 -0.0063188956 -0.0086525045 0.012753725 -0.030928439 -0.004633539 0.030252066 -0.028070478 -0.02851164 -0.032020196 -0.008259028 0.002254591 0.024802912 0.007986534 -0.011241131 -0.026696485 -0.020881776
329 0.015199109 0.003041601 0.05456725 0.020921312 -0.05907786 -0.011318047 -0.030875592 0.02595621 -0.03102177 0.017929625 0.050948296 -0.005583277 -0.02753075 -0.007491077 -0.033442494 -0.026852451 -0.015595471 -0.018561145 0.003863291 0.012614725 -0.021712003 0.010918173 -0.021602686 0.050250717 0.05259235 -0.006769839 -0.026538322 0.018102294 0.02207779 -0.0069132964 0.0038691063 0.03658714 -0.04334384 0.05204031 -0.0016197636 -0.005260512 0.0028975494 -0.028831739 0.0014998233 0.031861976 -0.042355184 -0.018021688 -0.053184386 -0.005962769 -0.0024179607 0.0148075195 0.0076410878 -0.014295788 -0.030180408 -0.014541044
272 0.011857532 0.00020929737 0.055741526 0.027839776 -0.039464597 -0.02627526 -0.02688086 0.01627025 -0.015938526 0.0029884512 0.05205062 0.003687748 -0.027548095 -0.0077565406 -0.028997328 -0.031234177 -0.012053643 -0.004143211 0.010841521 0.023328703 -0.0019695563 0.020766228 -0.013652196 0.02875095 0.032591105 -0.004662049 -0.03325958 0.012146003 0.012469622 -0.00440068 0.003978096 0.031879615 -0.040605627 0.04029481 0.008877641 -0.00888601 0.013061823 -0.023090951 -0.00913122 0.03844817 -0.042262424 -0.031157823 -0.03960554 0.0072063426 -0.0034273425 0.025119126 0.009395831 -0.016211718 -0.020645441 -0.023688478
319 0.013976542 -0.0030848158 0.06075438 0.023596486 -0.06246229 -0.01281112 -0.029885093 0.022808563 -0.021878319 0.014596634 0.04869901 0.008267774 -0.029273426 -0.014750157 -0.021071259 -0.020069074 -0.010247389 -0.0134355705 -0.001506669 0.029574305 -0.021557542 0.021577626 -0.016850691 0.041070603 0.034901347 -0.0087940665 -0.043677755 0.026263917 0.02694834 -0.012332635 0.003781298 0.024415111 -0.045875486 0.056177724 0.009959587 -0.0055694436 0.013905962 -0.042575054 -0.0013264086 0.04473049 -0.04452179 -0.026114898 -0.03707598 -0.002369788 0.00800161 0.018227087 -0.0023620564 -0.015650447 -0.037283964 -0.014621855
339 0.012531174 -0.006810826 0.057985134 0.015561306 -0.055894986 -0.010679494 -0.042478655 0.036378685 -0.030198373 0.0046048355 0.06606016 0.002625807 -0.03685504 -0.006536913 -0.015917268 -0.023519505 -0.00088981405 -0.011158086 0.0033182022 0.028192444 -0.019352952 0.018046057 -0.0037021185 0.030984847 0.03822353 0.0015884291 -0.031004984 0.028269758 0.03060885 -0.0061247204 0.00075421063 0.025974935 -0.032438096 0.048765652 0.004201278 -0.008567941 0.0069513307 -0.030936917 -0.0061736023 0.024779571 -0.033655286 -0.024420192 -0.037977867 -0.00999067 -0.0010818071 0.022277398 -0.0036807784 -0.013290189 -0.021930048 -0.024498783
324 0.011342679 0.0030728788 0.047049947 0.034522895 -0.063586 -0.018841786 -0.0354344 0.03746778 -0.021964334 -0.00020481386 0.061905656 -0.0036279778 -0.044250533 -0.023922844 -0.025131762 -0.030285882 -0.017162738 -0.014491457 0.013070981 0.02429677 -0.0067616384 0.024851445 -0.017156048 0.049578764 0.036618777 0.0007454242 -0.028449802 0.023805013 0.014717901 -0.0137402965 0.00033433115 0.033417284 -0.045597225 0.047108 -0.0075264852 -0.013906717 0.014436716 -0.03379196 -0.013834345 0.036214896 -0.030038036 -0.035618078 -0.043752436 -0.0016171581 -0.004738983 0.015170644 -0.003341573 -0.012541003 -0.031009948 -0.007877114
40 0.014420736 -0.011714644 0.051988237 0.0125067765 -0.03877812 -0.017193431 -0.023629293 0.022333723 -0.020873826 0.009649824 0.050213158 0.011686048 -0.032262675 -0.004984828 -0.024598872 -0.022778532 -0.015061426 -0.013467829 0.006162962 0.014761174 -0.018307392 0.016023654 -0.0020152302 0.04411944 0.04674176 -0.006265568 -0.031099632 0.013914707 0.01749023 -0.0075727627 0.001555064 0.030287633 -0.029068397 0.04947503 -0.0031422223 -0.015073382 0.0025336428 -0.023877742 -0.004654037 0.020116176 -0.033897296 -0.0296528 -0.034018315 -0.009731112 -0.010885482 0.010951103 -0.0024622714 -0.015888816 -0.036769286 -0.016254785
326 0.0026575525 -0.007324904 0.050502665 0.031559408 -0.05165177 -0.025446268 -0.032172874 0.03312062 -0.018329008 0.011990447 0.06017888 -0.0026808123 -0.034229733 -0.0091663245 -0.020146761 -0.02104292 -0.008910818 -0.0050641247 0.012850129 0.031592347 -0.023507155 0.026361544 -0.011554504 0.03849082 0.03647687 -0.01570997 -0.027043464 0.018698266 0.017586146 -0.017853456 0.0029752122 0.019096958 -0.04116964 0.053852774 0.009301305 -0.0053500105 0.017149266 -0.03978098 -0.011501192 0.038749054 -0.04413435 -0.02364869 -0.04212934 -0.012394166 0.0047110924 0.019081157 -0.0018339448 0.0009211862 -0.03767687 -0.010894872
143 0.014311649 -0.0011285475 0.058258444 0.014850261 -0.04887146 -0.028337525 -0.024115624 0.02276447 -0.030623361 0.019257382 0.054460168 0.0066701532 -0.042008955 -0.020079885 -0.0137091605 -0.026404964 -0.016299224 -0.007451665 0.00038126492 0.020506777 -0.013748561 0.016822563 -0.016681654 0.047500588 0.043400872 0.0035374719 -0.026101103 0.01649013 0.026502972 -0.015479935 -0.010290655 0.02297396 -0.038015474 0.0482519 -0.007169469 -0.013284561 0.023235494 -0.034102626 -0.0031283854 0.025214322 -0.027744567 -0.034671236 -0.03136389 0.009643777 -0.008252125 0.025840735 -0.0036390852 -0.0067964373 -0.024433134 -0.004152989
111 -0.004446701 -0.0005949733 0.051405 0.022006612 -0.0494719 -0.029887544 -0.033757858 0.026870027 -0.030974846 0.002101288 0.05378541 0.0029408312 -0.04467608 -0.023893222 -0.026887275 -0.011325152 -0.0034524826 -0.010702986 0.0092630815 0.012990669 -0.0183071 0.02060788 -0.0062762285 0.036010463 0.04918307 0.00077909994 -0.034510516 0.026166234 0.032186456 -0.016957697 -0.009147859 0.034762625 -0.048008285 0.049011696 0.00039739293 0.0027829155 0.004700668 -0.034348924 -0.0018489923 0.029876014 -0.029494857 -0.033702716 -0.040178098 -0.0012428258 -0.0035404202 0.009298568 0.002001658 -0.011186117 -0.02738413 -0.014376192
343 0.0067353486 -0.00053921575 0.051003564 0.020373832 -0.049527906 -0.022484193 -0.025380991 0.028075865 -0.01671097 0.0021903773 0.047563415 -0.0015395854 -0.022381239 -0.01216032 -0.032483213 -0.0109511865 -0.011208085 -0.007263499 0.007408989 0.01659845 -0.022917045 0.019237716 -0.0077092447 0.034193322 0.038295105 -0.008362729 -0.019977912 0.014824873 0.017029254 -0.011697708 -0.0057868394 0.019296614 -0.03159035 0.044355337 0.0012669801 -0.0048557688 0.0011106008 -0.03469152 -0.0002465114 0.027081272 -0.038660552 -0.03143554 -0.03134903 -0.0065400843 0.0012870996 0.02182788 0.012588828 0.003557495 -0.025224064 -0.0044984794
99 0.011693921 -0.008029616 0.035998255 0.012603605 -0.047181353 -0.022911198 -0.032860044 0.03278031 -0.015408141 0.01187541 0.04895416 -0.0009144861 -0.038861826 -0.018217437 -0.014672681 -0.029425206 -0.012571398 -0.007776148 0.002862837 0.0076314947 -0.01951206 0.0088499775 -0.0012768887 0.037166644 0.04169406 0.0037581036 -0.02876169 0.010901006 0.028468365 0.0013587708 0.003384654 0.023327874 -0.039880857 0.048281457 -0.0067288163 0.0041059772 0.0025898798 -0.030204104 0.0038460663 0.021081224 -0.039180506 -0.014369726 -0.02675505 0.0072967727 -0.0028693154 0.017218815 0.011765467 0.0019006153 -0.027820827 -0.0054248325
137 0.00813959 -0.0032137944 0.035712462 0.02113393 -0.031123625 -0.02089861 -0.031112572 0.02771025 -0.024507713 -0.0005628206 0.042844184 -0.009045734 -0.024754094 -0.012357682 -0.01932055 -0.01913632 -0.007881465 -0.014676387 -0.0019096998 0.008552808 -0.022185458 0.01856019 0.0013691708 0.032399423 0.022368152 -0.0047854804 -0.023317102 0.012107894 0.021451078 -0.012712271 -0.01328073 0.0135515295 -0.032494284 0.030694427 -0.0052767936 0.005943771 0.011285686 -0.032012418 -0.011962898 0.025006188 -0.019546358 -0.020536216 -0.031045401 -0.00892268 0.003961114 0.017346127 0.008354733 -0.013035058 -0.023531172 -0.004794687
219 0.009877291 0.005037037 0.06341745 0.027647309 -0.071411006 -0.015928999 -0.030156773 0.03999311 -0.022867473 0.012659414 0.07207676 0.013342993 -0.045042984 -0.021490477 -0.017224532 -0.02639481 -0.0019362234 -0.023325577 -0.0028265084 0.031754095 -0.018914176 0.026315844 -0.0028588825 0.05026089 0.051126815 -0.016389932 -0.028116541 0.030963432 0.014357071 0.00057702285 0.0016523807 0.029146772 -0.036081135 0.060547628 0.0070134993 0.005154377 0.0072257444 -0.04173 0.0029945455 0.047459103 -0.032821495 -0.022868074 -0.058204375 -0.0014518513 0.0036990575 0.022062035 -0.0051678484 0.0014206462 -0.043492287 -0.020151269
113 0.011026994 -0.00018785248 0.043426663 0.029388981 -0.054262478 -0.01485875 -0.037636194 0.031159276 -0.028205955 0.005303916 0.053910736 0.012019762 -0.022940448 -0.012571471 -0.02551583 -0.023819411 0.0027160086 -0.017043646 -0.0019867604 0.024393423 -0.01388782 0.018611917 -0.0086336825 0.036393046 0.034196608 -0.015069095 -0.023650568 0.029173613 0.016412254 -0.00150123 -0.013495059 0.024759166 -0.041443005 0.04318031 -0.0008299571 0.0025984494 0.007979759 -0.034275915 -0.010019349 0.02113281 -0.032235533 -0.01480748 -0.037914924 -0.0053809835 -0.0109474445 0.024896886 0.0013297466 -0.0096883485 -0.03622448 -0.012185405
261 -0.0020534287 -0.0099439295 0.053542916 0.033950698 -0.05115023 -0.025179142 -0.026210142 0.029466711 -0.028578805 0.010465581 0.071763895 0.00068344513 -0.026386583 -0.008588289 -0.02758335 -0.033043925 -0.0012180184 -0.0029697793 0.00042324525 0.028082533 -0.024043629 0.026315222 -0.005421138 0.038324848 0.04897698 -0.014556177 -0.036156718 0.02426259 0.034935385 -0.015871825 -0.0063789086 0.032193482 -0.036969073 0.048089266 0.0008895057 -0.013990756 0.0063250004 -0.03968236 -0.009846678 0.028907621 -0.032448113 -0.03594218 -0.053475402 -0.0060177273 -0.010650986 0.018644147 0.0056902096 -0.01335597 -0.032654908 -0.017926376
325 0.014880336 -0.011767856 0.05766266 0.014908681 -0.060159396 -0.023930246 -0.040726062 0.034365926 -0.014388577 0.01029913 0.06444964 -0.0014115608 -0.027814228 -0.016894272 -0.014306319 -0.017138893 0.002967252 -0.019589234 0.013047113 0.012850652 -0.01819428 0.020535968 -0.011649837 0.03882867 0.04912877 -0.01284755 -0.04062526 0.030243313 0.031094866 -0.00042990607 0.0030197196 0.03333497 -0.037492532 0.045315985 0.006420061 -0.015540284 0.013196675 -0.03392619 -0.0012011504 0.023016725 -0.035780486 -0.029987264 -0.04818357 -0.009011554 -0.0028504527 0.028206147 0.006031146 0.0017084146 -0.034203883 -0.016993865
53 -0.0003567954 -0.0075389864 0.061858468 0.0337981 -0.061815213 -0.015415888 -0.04525525 0.01979625 -0.034608644 0.01261052 0.06824794 0.0048387484 -0.03591829 -0.012632923 -0.016940508 -0.033671685 -0.007997377 -0.0029447707 0.0016794007 0.022217084 -0.01743571 0.009839306 -0.020130124 0.05250763 0.048969395 -0.015103129 -0.044438437 0.03138441 0.025790509 -0.0036791153 -0.004081837 0.019908888 -0.049475543 0.052076597 -0.009584566 -0.002828857 0.011497955 -0.031279877 0.0044794334 0.044778377 -0.044516653 -0.023210302 -0.041986 -0.008820811 -0.0028422764 0.011855298 0.010838094 -0.006996649 -0.03993204 -0.015431861
158 0.01505055 -0.012703112 0.03349583 0.02441329 -0.047178563 -0.023301663 -0.02782902 0.024829287 -0.01699208 0.0066964077 0.054872792 0.010434955 -0.0227028 -0.0049485303 -0.025984209 -0.016194137 0.0013778608 -0.0012739254 0.0073129786 0.024545254 -0.015028361 0.012536595 -0.014457847 0.032412164 0.04419222 -0.014462818 -0.034152456 0.02705671 0.021838397 -0.0074355183 -0.007125315 0.024143856 -0.039178345 0.041173734 0.009661925 -0.0033123665 0.01996129 -0.030581223 0.0033809124 0.02728148 -0.033488415 -0.019457698 -0.04044043 0.004402361 0.0061897924 0.022296047 0.0077296495 -0.013064067 -0.029680464 -0.02361328
82 0.006242911 -0.0026301083 0.04077119 0.025788324 -0.05707603 -0.024969451 -0.019158067 0.025205215 -0.022547927 0.01815876 0.043546543 -0.001392792 -0.03946459 -0.019851109 -0.019225005 -0.031978387 -0.007084581 -0.016735062 0.0048774797 0.016618848 -0.014605467 0.012230621 -0.008863848 0.03901444 0.03313991 0.0002846869 -0.03137046 0.031026 0.012895886 -0.0062111234 -0.008102841 0.024262272 -0.04352233 0.045137998 -0.00126725 0.0011698956 0.017209416 -0.034046162 0.004268776 0.037810087 -0.03287282 -0.025767863 -0.03396656 0.0026383675 -0.0028671825 0.02233995 0.0034914957 -0.008480902 -0.036637094 -0.004283449
285 -0.0026837105 -0.0024456086 0.04063363 0.029918158 -0.047237862 -0.017232573 -0.03455481 0.02981801 -0.021146385 0.01586592 0.05885544 -0.0072284173 -0.039991066 -0.02159539 -0.03182131 -0.028054688 -0.014103876 -0.0016625233 0.011804295 0.014512447 -0.017279522 0.021523949 -0.02125728 0.03822328 0.045694053 -0.0005697901 -0.02661034 0.013555256 0.0116891395 -0.0003957263 -0.0025508201 0.032388106 -0.03810705 0.037905846 0.002401029 -0.013331604 0.00036446512 -0.027704926 0.003734635 0.038233425 -0.041573774 -0.030356068 -0.045410767 0.0047303326 -0.012100898 0.007328211 0.0036992182 -0.0011859944 -0.021211289 -0.022973057
144 0.0011873408 0.0071500787 0.056294575 0.022766836 -0.0590397 -0.027004786 -0.035760347 0.024053141 -0.0279825 0.011204827 0.062257726 -0.00852897 -0.033435434 -0.009829373 -0.03518968 -0.030874487 -0.006287031 -0.020113228 0.001009029 0.02410221 -0.025796302 0.008168872 -0.0049018944 0.044510156 0.04194599 -0.011612006 -0.040767353 0.029761288 0.03203831 -0.013208854 -0.010767841 0.03155348 -0.044998925 0.042633124 0.0023523502 -0.00073331373 0.01920973 -0.025266215 -0.009949162 0.027309496 -0.033485703 -0.0288582 -0.052946668 -0.0048194667 -0.0044060047 0.019066352 0.012017667 0.0007176586 -0.02990804 -0.021360107
323 0.002543811 0.007415953 0.049765058 0.027703417 -0.04190337 -0.024229096 -0.033271346 0.018341826 -0.025824921 0.0014720772 0.04816513 -0.0008977406 -0.036610443 -0.013193659 -0.016138706 -0.02664427 -0.0066240528 -0.01759901 -0.0064414134 0.02428025 -0.014455282 0.010148291 -0.0062100976 0.027601572 0.038524307 -0.007038879 -0.036137506 0.028340617 0.015285212 0.0025067588 0.002735298 0.018846959 -0.036648836 0.03795294 -0.008979962 0.0027908112 0.013186653 -0.034392267 -0.0060745403 0.035259977 -0.035245195 -0.029961001 -0.04560405 -0.010495254 -0.0011086207 0.023080476 0.0038170204 -0.00018761177 -0.029279308 -0.008802858
230 0.0011633581 -0.012807283 0.048736226 0.030963648 -0.047026142 -0.02523385 -0.032124616 0.022380367 -0.032027084 0.016856037 0.055131715 0.004166986 -0.027413119 -0.009584852 -0.03382344 -0.016883064 0.0034995698 0.001194669 0.0096565895 0.023795575 -0.021868533 0.026253058 -0.016545903 0.032509718 0.04177023 -0.013081262 -0.027531927 0.022525344 0.019463886 0.0014772707 -0.004692389 0.023541918 -0.037132435 0.035219073 -0.00016854821 -0.009540915 0.012989381 -0.020117503 -0.000806338 0.0334277 -0.040628336 -0.024671104 -0.031810313 -0.0012735996 -0.0002570602 0.009350708 0.011379463 0.0024240448 -0.035025146 -0.008511114
94 0.005939054 -0.013162061 0.04768006 0.0346668 -0.050035633 -0.02045465 -0.04584196 0.02092306 -0.027323488 0.007621139 0.069125995 0.009933182 -0.032398887 -0.02042127 -0.032736193 -0.017183369 -0.0052704825 -0.004416636 0.008991335 0.010480797 -0.010872338 0.017390644 -0.0036480427 0.04831579 0.038759016 0.0025464152 -0.02680418 0.03297277 0.025270075 -0.003104131 0.005504529 0.021508262 -0.042966735 0.04894434 -0.004927924 0.0009249826 0.015803177 -0.020921461 -0.003021514 0.04138791 -0.04272596 -0.03095422 -0.042917773 0.0044372356 0.0031991166 0.023779808 0.009375701 -0.00948848 -0.025936877 -0.023910899
177 0.0036791076 -0.0005211935 0.038373347 0.023311092 -0.044708673 -0.015971653 -0.027342094 0.028371323 -0.01596922 0.015157723 0.06135147 0.008488198 -0.02290989 -0.010789621 -0.029686857 -0.026316054 -0.01764986 -0.015227148 -0.0021942528 0.014458022 -0.019824898 0.0035556674 -0.019066123 0.042613782 0.02951077 -0.012891405 -0.027765637 0.013030432 0.015995244 -0.005135805 -0.0021336211 0.014037684 -0.036795158 0.04855325 -0.0066713374 -0.0012577691 0.020566799 -0.033541698 -0.0039223772 0.031675477 -0.042008877 -0.027731258 -0.045858875 0.0002927462 0.0066854744 0.01695969 0.004808075 0.0027001558 -0.029908884 -0.00862804
172 0.0029129721 -0.0049413275 0.055007715 0.017710174 -0.047806595 -0.024776122 -0.020614322 0.026668686 -0.026521917 0.015411444 0.049618542 0.0012787617 -0.03965453 -0.0043238415 -0.027456252 -0.020078715 -0.0003824983 -0.01428093 0.003785309 0.013135907 -0.0034656 0.025594432 -0.021227658 0.04568301 0.03485784 -0.0018545013 -0.028790941 0.012438476 0.024750559 -0.015330534 -0.010354567 0.029675795 -0.04298491 0.04373909 -0.00042695535 -0.011397456 0.005405251 -0.019548856 0.0036208748 0.024561623 -0.025256839 -0.02319199 -0.031719197 -0.009849236 0.0031237805 0.025362346 0.009805245 -0.00020456305 -0.023664605 -0.013379917
169 0.011990633 -0.0120741585 0.03921537 0.010588917 -0.056165848 -0.01306876 -0.025677837 0.03105873 -0.03139015 0.009130943 0.045466404 -0.0007382322 -0.02441765 -0.005309201 -0.014108324 -0.017216729 -0.0032591522 -0.00025274808 -0.0010706396 0.008821557 -0.007335363 0.016547335 -0.009694357 0.03724726 0.043632932 -0.014530874 -0.026296152 0.013744316 0.011170078 -0.00054943585 -0.011213154 0.014720429 -0.03052538 0.04660638 0.0032201197 0.0004225187 0.00724767 -0.028012762 -0.009053039 0.030081749 -0.03820592 -0.01780448 -0.03739263 -0.0014136109 -0.0033945541 0.011939626 0.0025257904 -0.0055087856 -0.031492084 -0.017547688
291 0.014761004 -0.008432834 0.032979604 0.024637995 -0.039182052 -0.020398712 -0.026558714 0.01260215 -0.030395048 0.012159293 0.041165944 0.011792296 -0.032182824 -0.003169933 -0.013282668 -0.022523155 -0.012343415 -0.0016785162 0.011348828 0.011532805 -0.020253694 0.019312479 -0.0072948732 0.027492058 0.03357241 -0.014513788 -0.027051639 0.015079419 0.016605938 -0.0048989863 -0.010983969 0.022054464 -0.024307523 0.041074943 -0.0010814043 -0.004114904 0.016068578 -0.022363506 -0.010447344 0.025445336 -0.026853874 -0.02371821 -0.042064168 0.0019870978 -0.0073419963 0.017352322 0.0064910385 0.0005300558 -0.034201574 -0.016676117
204 0.0011554227 0.0061774715 0.06102088 0.021573411 -0.045977913 -0.0293279 -0.04382795 0.02450899 -0.032125402 0.02041353 0.06418671 -0.004213037 -0.028697865 -0.016452452 -0.027255803 -0.020348378 0.00024525254 -0.018937403 0.009871239 0.019727161 -0.006360988 0.02452187 -0.012725283 0.04740734 0.043463793 0.002664397 -0.04224811 0.016965767 0.02570812 -0.01780552 -0.012262019 0.015877945 -0.047121037 0.039581787 -0.003987402 0.0030452406 0.0053772414 -0.029269453 0.0005448229 0.028419869 -0.038138647 -0.034698807 -0.04222339 0.0020379478 0.0035838324 0.023313552 0.004661415 -0.008369862 -0.027060775 -0.016450468
346 0.00080101675 0.00013653663 0.05818334 0.013657176 -0.049601715 -0.026580796 -0.025028436 0.031605475 -0.017918883 0.012654514 0.055770945 1.5003354e-05 -0.035456218 -0.019687071 -0.027104905 -0.015308567 0.0012634372 -0.017720994 0.012522317 0.02290744 -0.011731437 0.019637149 -0.011470635 0.028871749 0.044992767 0.0032511167 -0.025997695 0.02513945 0.016376154 -0.005682532 0.0053459387 0.019287793 -0.02768513 0.04500819 -0.00668614 0.001409225 0.011915327 -0.021306567 -0.003129245 0.030677179 -0.03417124 -0.022092625 -0.046081256 0.0010793805 0.00064245274 0.012619036 0.0004219627 -0.015621216 -0.029322706 -0.0077306614
109 0.002091363 0.0007638761 0.04197983 0.013033305 -0.05295426 -0.026450101 -0.022778109 0.031173576 -0.021577006 0.012566842 0.044006396 0.0072606145 -0.029014902 -0.004830851 -0.0135473 -0.029240951 -0.00743065 -0.0052584563 -0.005126121 0.010541357 -0.017635325 0.018457694 -0.01976798 0.036520973 0.03189461 -0.012271436 -0.03745903 0.020894736 0.017154012 -0.010305845 -0.0008872062 0.017279381 -0.026704082 0.042404793 0.0014897721 0.00090725784 0.014734108 -0.017799407 -0.0012548794 0.023861956 -0.02643539 -0.012640951 -0.03848804 0.0064425385 0.0060864016 0.014286101 -0.002139789 -0.013561666 -0.032685567 -0.019525278
91 0.0102162035 -0.002739899 0.060404997 0.035359338 -0.04916434 -0.013600632 -0.035801597 0.04120209 -0.03956775 0.017391244 0.06776288 0.003160472 -0.03377964 -0.009470963 -0.03132642 -0.017143164 -0.013551498 -0.012917319 0.0096317865 0.01328037 -0.024257597 0.006035726 -0.018194266 0.04563495 0.04910746 -0.008224874 -0.030974532 0.020914115 0.021705095 0.000227546 -0.010886053 0.03307856 -0.053427354 0.05026744 -0.006516899 -0.00430888 0.024730088 -0.030094994 -0.0019181449 0.04384795 -0.03268749 -0.022620702 -0.059473164 0.005569636 -0.006170545 0.031346403 0.00764435 -0.01749534 -0.02960279 -0.014297625
89 0.016919691 -6.84133e-05 0.055967283 0.030058376 -0.03997169 -0.00819537 -0.037322793 0.031627987 -0.02766228 0.011491647 0.056312222 0.0010544437 -0.027793605 -0.016232057 -0.017576318 -0.014323005 -0.0026641488 -0.011986766 -0.0065514613 0.018093003 -0.024635049 0.013595972 0.00042059348 0.04331844 0.03380371 -0.0012812306 -0.0375738 0.027321607 0.010503349 -0.00021090158 -0.0026847033 0.01872729 -0.030299073 0.040558066 0.010723257 -0.010828017 0.012313924 -0.031069253 -0.0017934334 0.032141548 -0.03910084 -0.027019616 -0.04656748 -0.0069801155 -0.004793355 0.010508861 -0.0062319413 -0.01351275 -0.038830295 -0.0077355425
80 0.001135904 0.0020820913 0.050529342 0.02730256 -0.05640484 -0.024172643 -0.045397244 0.034216594 -0.017466152 0.0084769735 0.06771724 0.0050574727 -0.043841448 -0.018827997 -0.029565876 -0.030546945 -0.013251905 -0.008429275 0.0029854851 0.015496198 -0.0070379623 0.01419092 -0.02240516 0.033648834 0.04919271 0.0012449484 -0.030176815 0.03012383 0.025577473 -0.013403588 -0.00053358945 0.016260874 -0.03220619 0.044732027 0.009004808 -0.0006359899 0.006408903 -0.022783447 0.0033367856 0.032289706 -0.029068042 -0.024658993 -0.03408677 -0.006294698 -0.0044714785 0.017169727 0.005864187 -0.0029428431 -0.024168845 -0.015809745
179 0.007854046 -0.0059311576 0.056527533 0.041074846 -0.05608844 -0.026294885 -0.052787673 0.030033857 -0.036862135 0.016762273 0.0714844 -0.013364099 -0.036667276 -0.01790876 -0.032740247 -0.016017444 -0.0038333193 -0.010162627 0.020627595 0.0120683005 -0.010858762 0.035475086 -0.0072374227 0.05342097 0.05489134 -0.017474582 -0.040358387 0.029698309 0.019849379 -0.020443551 -0.0056705405 0.011513094 -0.052842636 0.053655926 -0.01117274 -0.012748754 0.015507239 -0.035957966 -0.0027446575 0.053852275 -0.032336693 -0.024291353 -0.04489263 -0.0005510222 -0.018803934 0.02606426 0.0075277807 -0.012759687 -0.038417112 -0.030685978
214 0.011275497 0.0057664835 0.04714272 0.01212085 -0.033316676 -0.02475072 -0.014766674 0.014033978 -0.015706155 2.4776236e-05 0.044525508 0.004742308 -0.02732409 -0.01194199 -0.030271854 -0.007921343 -0.0050426563 -0.0140945325 0.0015359994 0.01888575 -0.01877264 0.021940898 -0.0035454968 0.037539285 0.029939277 -0.012801002 -0.014555379 0.019186536 0.013892409 -0.007146563 -0.007533085 0.01654844 -0.032890078 0.029828442 0.005614346 -0.003892434 0.0058603506 -0.020259848 -0.0050625983 0.025969505 -0.034790464 -0.02703939 -0.035783377 0.00550691 0.0022900891 0.008094657 0.011622609 -0.011878183 -0.01515927 -0.021584565
192 0.015166829 0.00068912195 0.053581227 0.009568967 -0.03985859 -0.029184 -0.039623603 0.034683023 -0.028979944 0.0092732515 0.048923444 0.008820892 -0.041083157 -0.0062274076 -0.03503173 -0.018723208 -0.0059598065 -0.001267446 0.0060639963 0.023159407 -0.0134033365 0.017231014 -0.0015360377 0.026062552 0.039423775 0.003557772 -0.02534274 0.02569148 0.028075952 0.004141727 0.0020957377 0.015055497 -0.027289553 0.032868985 -0.008914739 -0.0034580443 0.020315968 -0.020569768 -0.0022657835 0.026660567 -0.034692924 -0.0290854 -0.041904803 -0.0048491918 -1.28224565e-05 0.018962655 -0.0040717563 -0.011712403 -0.036800113 -0.025865844
141 0.015759667 -0.011387916 0.052977737 0.019560428 -0.0603002 -0.011368178 -0.033506725 0.021859631 -0.015011272 0.002431907 0.051351428 -0.00021803682 -0.029360864 -0.013234426 -0.019315595 -0.019831743 -0.000536207 -0.0072084265 0.012308666 0.017051999 -0.012649588 0.022389702 -0.0046917167 0.04199639 0.043993555 -0.002881752 -0.03151197 0.021246435 0.014953943 -0.010278671 -0.0089498395 0.018818054 -0.030978357 0.048322037 0.0095604155 -0.0031748284 0.007802178 -0.03805409 0.0013051502 0.037877627 -0.040189303 -0.019124867 -0.05235495 0.0041059796 -0.0008666273 0.019018924 0.012559227 -0.0061170324 -0.032437608 -0.018218316
259 -0.0009252014 -0.005437298 0.041951522 0.021074418 -0.051869914 -0.013281755 -0.03351221 0.026560469 -0.029188056 0.004776867 0.06256304 0.0045073237 -0.036026783 -0.020013418 -0.01979897 -0.017435279 -0.015214349 -0.01570383 0.0073097944 0.021141633 -0.0114938915 0.0060249353 -0.0064283465 0.033533603 0.036775712 -0.012675215 -0.028471325 0.029680254 0.026692465 -0.0078055467 -0.0048895027 0.023434157 -0.037473112 0.043460477 -0.011532899 -0.008296412 0.023236575 -0.028862413 0.0022799869 0.039098047 -0.030661663 -0.013966347 -0.042314228 -0.009483034 0.006119937 0.015734456 -0.0005558827 -0.019226618 -0.026415393 -0.016950505
142 0.006046532 -0.00084344455 0.046364184 0.026930297 -0.04312009 -0.021558117 -0.017322643 0.015265575 -0.024449334 0.014713093 0.04938529 -0.0035910206 -0.0293777 -0.018936437 -0.0232033 -0.013810964 -0.006648879 -0.005972629 -0.0018943294 0.0239825 -0.017164776 0.009908114 -0.019067574 0.030432053 0.031882066 -0.010152727 -0.021833189 0.01572119 0.023176044 0.0036862674 -0.008391968 0.018677214 -0.026416816 0.023440916 -0.0016972873 -0.01418133 0.0068540433 -0.013259024 0.0003437467 0.024096407 -0.026810702 -0.011800552 -0.041333918 -0.007717317 -0.009518004 0.01586161 0.010933256 -0.006045864 -0.02333077 -0.018279366
20 0.015801026 -0.011006819 0.045525692 0.018106548 -0.050222814 -0.010908082 -0.020342056 0.031721562 -0.032009818 0.013571158 0.04060671 0.00016549791 -0.033832368 -0.017697524 -0.033260133 -0.01649333 -0.0040519913 -0.00067861046 0.011093391 0.023678144 -0.011183018 0.020778557 -0.00516916 0.043838654 0.044106938 -0.01057056 -0.024230741 0.02083778 0.01808504 -0.013130431 0.0034918506 0.018895712 -0.037483305 0.047394775 -0.0075291563 -0.0076684696 0.0027145417 -0.028644627 -0.0118771 0.029140037 -0.029939588 -0.012355391 -0.04479252 -0.0040618456 -0.010219807 0.0068553514 0.010974034 -9.045951e-06 -0.01910091 -0.012630035
49 -0.0011521227 0.0069409967 0.038459346 0.013337774 -0.041099392 -0.028830435 -0.03946929 0.03237181 -0.016517939 -0.0022125805 0.051902972 0.0022051905 -0.028419778 -0.009517214 -0.036186695 -0.008001745 -0.010321946 -0.012390884 0.0012104033 0.028235288 -0.023621207 0.026628293 -0.008329304 0.02088672 0.031581532 -0.014034332 -0.031265937 0.027026216 0.013183743 0.0025389062 0.0074219964 0.028413089 -0.025285011 0.03192429 0.0010933877 -0.014572733 0.023836358 -0.013404171 -0.0046599135 0.028806323 -0.037239555 -0.036078647 -0.029614108 -0.0005979809 -0.0060082683 0.028093195 0.0040782215 -0.014179292 -0.034641642 -0.005754738
8 -0.0033455733 -0.0117011815 0.05209179 0.021644175 -0.05645593 -0.024597017 -0.04050214 0.030879224 -0.031821314 0.003871262 0.055841126 0.001142242 -0.04094481 -0.011573753 -0.034633506 -0.020076847 -0.009996644 -0.010175114 0.0048842416 0.027523609 -0.013276802 0.006326178 -0.018916031 0.029194793 0.048961245 -0.016663793 -0.025686352 0.027616967 0.032754596 -0.0042367834 -0.011678553 0.03694355 -0.045240592 0.04920872 -0.00069106737 -0.0015846221 0.012644118 -0.02280031 -0.0029135577 0.026635187 -0.045199554 -0.014088894 -0.04882001 0.007917773 -0.00785746 0.024053745 -0.0013534133 -0.011897463 -0.034066465 -0.018026028
72 0.011877058 0.0044321134 0.048584994 0.022685835 -0.049265277 -0.011882388 -0.0263814 0.030313065 -0.025839997 0.003184094 0.042820264 0.009183166 -0.03754517 -0.019423218 -0.030141583 -0.021323683 -0.011787757 -0.0018492698 0.008352748 0.022270136 -0.013285507 0.012933413 -0.012481674 0.02800346 0.041442677 -0.014497673 -0.025640368 0.025959743 0.018609392 -0.01530432 -0.011388948 0.030584095 -0.025193375 0.03711542 0.0019829285 -0.009814539 0.012311862 -0.019174607 0.0065199807 0.026975 -0.036852807 -0.03262833 -0.04333102 -0.008335678 0.0026424679 0.0099906605 0.013559433 -0.0049881693 -0.019144962 -0.020874124
116 -0.0003424659 7.474312e-05 0.038273048 0.017774727 -0.047706485 -0.02290268 -0.030823823 0.019352362 -0.031671345 0.0039026444 0.052439112 0.0054824837 -0.022366479 -0.01663989 -0.01690714 -0.022975745 -0.0013165916 -0.0075340793 0.010670102 0.024018563 -0.014085499 0.014187388 -0.0012432181 0.03956308 0.044721294 -0.0023181865 -0.031569168 0.024192829 0.027400082 -0.00048490104 0.0007134416 0.023445122 -0.034565102 0.030190459 0.0036465696 -0.0036820434 0.0024749825 -0.02941776 -0.00059102156 0.02972382 -0.024752256 -0.02800276 -0.045811944 -0.011692353 -0.0041128336 0.008672776 0.007018905 -0.014849414 -0.015550362 -0.014965729
299 0.013557255 -0.0052265385 0.043901596 0.03185633 -0.06059144 -0.025448259 -0.038808525 0.024276443 -0.026760163 0.013021289 0.053427868 0.0042607337 -0.030124772 -0.02128532 -0.027137099 -0.012587382 0.0013574732 -0.013937032 0.0066695954 0.011403525 -0.016574461 0.015623475 -0.010611276 0.03780953 0.03916785 -0.0021603834 -0.027198507 0.019534213 0.019424831 -0.0005436758 -0.009996205 0.021013355 -0.033841785 0.036344472 -0.004561368 -0.014181502 0.001667466 -0.030813571 0.0023592187 0.02423241 -0.04133695 -0.031837214 -0.034486845 0.0060494114 -0.002111045 0.011801651 0.009984979 -0.0105240615 -0.032128375 -0.013412436
308 0.01102967 0.002976382 0.044259965 0.018434377 -0.050668478 -0.02491923 -0.038271967 0.029951537 -0.018921962 0.015723016 0.04515996 -0.0024036753 -0.03432003 -0.019359715 -0.022801235 -0.026938586 -0.011055722 -0.008242454 0.009971439 0.02819804 -0.0035736463 0.018402398 -0.01695262 0.044428714 0.04223581 -0.00017484973 -0.021535326 0.023811957 0.013997571 -0.011605768 -0.0019478799 0.03357789 -0.033269018 0.040372822 0.009848179 -0.009589946 0.011271827 -0.032022327 -0.0115386 0.021055669 -0.03490359 -0.015611684 -0.03184849 0.005875592 0.0020081806 0.0225002 -0.0049383617 -0.010245581 -0.023843858 -0.024219481
118 -0.00028516384 -0.0077241566 0.039037436 0.028789269 -0.035876144 -0.010499029 -0.024341468 0.032182712 -0.019258775 -0.0010621698 0.048485395 0.0036996268 -0.022664031 -0.013539147 -0.027408956 -0.027126096 -0.011615094 -0.018347668 0.013791881 0.011531685 -0.007315088 0.020552175 -0.0013468951 0.03340075 0.03793493 -0.008811163 -0.02501745 0.018637242 0.010282701 -0.0014159137 -0.006468208 0.018945077 -0.03676804 0.038628146 0.009988015 -0.012798564 0.017192073 -0.031201694 -0.0068242834 0.03487996 -0.03680658 -0.017049091 -0.04095956 -0.004868955 0.005251323 0.006761857 0.0035269235 -0.004620376 -0.018278256 -0.006423366
104 0.0028030751 -0.009795316 0.04489426 0.020126723 -0.052376222 -0.008971409 -0.03487197 0.01675133 -0.026366917 0.009521909 0.039712705 -0.0026822297 -0.028156612 -0.007786515 -0.018747685 -0.024787176 -0.015829852 -0.010474368 -0.004121446 0.021579951 -0.0035857258 0.021196574 -0.0077971295 0.02943484 0.032210264 -0.010673624 -0.029862877 0.016791854 0.0280601 -0.015978543 -0.014605891 0.024621826 -0.022091227 0.02723776 -0.004346734 0.0018148025 0.0064610816 -0.018507315 -0.003811228 0.027678877 -0.0332848 -0.015977971 -0.039317526 -0.0015011979 0.004238285 0.012537785 0.0018430257 0.0024516743 -0.029580109 -0.021262854
100 0.0046607372 -0.012333994 0.047652535 0.029145075 -0.053118736 -0.024790857 -0.04510252 0.028844653 -0.03220282 0.004581203 0.06823754 0.0039221253 -0.026945831 -0.017027818 -0.013579151 -0.025298107 0.002911551 -0.018397776 0.008367291 0.018992878 -0.017927963 0.021905387 -0.011398838 0.047807362 0.049923945 -0.016307503 -0.041101053 0.025038283 0.029383602 -0.018444676 0.001420323 0.029712074 -0.040827103 0.042897794 -5.390604e-05 0.0031965526 0.006556383 -0.033069756 -0.007833977 0.038349748 -0.03382117 -0.028176788 -0.03918287 0.0042653745 0.003158936 0.01242636 0.007469201 -0.014990601 -0.03664318 -0.028701708
92 -0.0014064737 -0.00092311366 0.048847135 0.015727447 -0.053275663 -0.010998406 -0.03617353 0.022552079 -0.028212063 0.019183937 0.057645258 -0.0069865575 -0.037205283 -0.022394909 -0.021961208 -0.015503981 -0.012543714 -0.008929695 -0.0055887145 0.0114431465 -0.010902069 0.015145836 -0.0068235444 0.029764056 0.02957235 0.004489869 -0.024601268 0.026580483 0.015424143 -0.005450953 -0.011378721 0.027065095 -0.030147677 0.03909012 -0.0006917864 -0.0019796735 0.016371252 -0.030642305 -0.004856235 0.029743064 -0.03486358 -0.015263548 -0.042297974 0.001857847 -0.008740464 0.012713146 0.008015331 -0.015234718 -0.026474262 -0.0154223805
127 -0.0005142768 -0.0067700655 0.052356165 0.035865914 -0.041317202 -0.022064248 -0.02480312 0.031733856 -0.02632971 0.011080082 0.058347903 0.012495795 -0.031198798 -0.02425373 -0.020619117 -0.013325446 -0.010623983 -0.005128122 -0.0015548058 0.025521854 -0.0073375343 0.021606557 -0.016048029 0.038399436 0.043521047 0.0016315943 -0.0377867 0.023407467 0.023865541 -0.003567789 -0.008173947 0.0236876 -0.0457894 0.048838608 -0.00464767 -0.009787799 0.011076277 -0.021941325 -0.005170769 0.042936806 -0.045570694 -0.025751937 -0.04735944 0.0069997963 -0.004839033 0.028123086 0.008266519 -0.017318225 -0.023899715 -0.020369729
342 0.010117861 0.00023468223 0.034298435 0.02531271 -0.04168971 -0.009209058 -0.025062503 0.022944245 -0.023744177 0.010184227 0.03712155 -0.004823881 -0.021545967 -0.010687178 -0.024339363 -0.019421013 -0.0014780121 -0.017721929 0.007021166 0.019018378 -0.0012248347 0.011613725 -0.012581287 0.02827864 0.04112906 -0.0063945595 -0.03629694 0.023797564 0.011146925 -0.007877214 0.00030621374 0.01601575 -0.028886218 0.039020464 -0.0060136486 0.0016557388 0.0045058606 -0.02015076 -0.0020734996 0.03479394 -0.030621344 -0.030391788 -0.041857045 0.008840202 -0.0074260994 0.020505307 0.00024233155 -0.011001195 -0.022360126 -0.0065914826
148 0.010317612 0.00427586 0.04728309 0.0153961005 -0.054278612 -0.015148285 -0.02573028 0.029145652 -0.030259073 0.007315753 0.05419982 0.011365931 -0.025915096 -0.018538332 -0.02363458 -0.018666802 -0.0049407776 -0.013759806 0.008827227 0.016035238 -0.01739565 0.017563367 -0.0037481526 0.027877437 0.039725803 -0.011442987 -0.023302238 0.028694434 0.024370072 -0.0038018716 -0.010315928 0.030117113 -0.04274473 0.04014326 0.0103643425 -0.0032249992 0.0019120298 -0.018163592 -0.008980692 0.026940368 -0.03947546 -0.016698286 -0.03389985 -0.0015210921 -0.00392526 0.01835812 -0.0006189127 -0.008553318 -0.027677773 -0.023097785
330 0.007188133 -0.005914278 0.047446474 0.028515397 -0.056501675 -0.011572275 -0.035947572 0.03245334 -0.028754422 0.01782055 0.047943976 -0.0005020311 -0.032578893 -0.009180108 -0.01783035 -0.024708206 -0.003266342 -0.010311747 -0.0017285228 0.013707867 -0.010333953 0.007006412 -0.010103106 0.041465767 0.03416486 -0.0012613218 -0.034182385 0.02462517 0.019861128 -0.014313748 -0.000911611 0.016497532 -0.028026288 0.03447086 -0.0059724324 -0.0071714534 0.010441566 -0.032065902 -0.009597941 0.02730249 -0.035428863 -0.02005631 -0.039133523 0.0028063043 0.00402109 0.016342718 0.0154329 -0.010266339 -0.022456141 -0.010917651
6 -0.0016200483 0.0027140153 0.051252812 0.014503912 -0.04125497 -0.013101917 -0.036213525 0.029166184 -0.029456947 0.0042245234 0.042617425 0.009685068 -0.027859617 -0.016948173 -0.026322091 -0.009779007 -0.013014804 -0.013350949 0.00026172912 0.011258985 -0.014776336 0.019112447 -0.005796171 0.038670905 0.038636964 -0.000759405 -0.02145258 0.015127734 0.008021941 -0.00938312 -0.009625602 0.015039973 -0.021068025 0.029893016 0.008718048 0.0023694187 0.005816532 -0.022105258 -0.010718859 0.019495504 -0.036570184 -0.022390623 -0.045487903 0.0022592945 -0.0024806543 0.02306266 -0.0028936835 -0.013823984 -0.019352315 -0.02069758
265 -0.0012388143 -0.0040255184 0.04760595 0.024977053 -0.042696614 -0.020889455 -0.030460991 0.018684557 -0.0113258315 0.009684011 0.044434704 -0.0036224711 -0.0297548 -0.015932983 -0.016367957 -0.022669654 -0.015545453 -0.0022554684 0.01367518 0.01795258 -0.011053691 0.005543095 -0.007018961 0.030435566 0.041191094 -0.013055762 -0.026822094 0.026377942 0.011430167 -0.011171927 0.0050799423 0.019827073 -0.025210025 0.03344254 0.010064228 -0.008563814 0.0053002364 -0.016580088 0.0048695626 0.028724678 -0.034334045 -0.025343373 -0.034656435 -0.0050707995 0.00094160537 0.010823986 0.0076402067 -0.013792783 -0.031427696 -0.0059580086
306 0.012803408 -0.015992364 0.05651231 0.026619988 -0.05361867 -0.026425106 -0.024436595 0.036732864 -0.03589855 0.023015704 0.07014856 -0.004692393 -0.042102158 -0.018474868 -0.024750052 -0.023256965 0.0028249987 -0.017945312 0.012541474 0.011647658 -0.006654399 0.01723461 -0.01572732 0.039907318 0.049258295 -0.016917994 -0.03307809 0.02954969 0.024093295 -0.017589226 -0.006284016 0.023103645 -0.046892673 0.05572981 0.0041398434 -0.006522577 0.0019155021 -0.03860316 0.004784291 0.043543812 -0.032060817 -0.029831395 -0.057352617 0.007787576 0.0034510014 0.020497413 0.0024914464 -0.013881225 -0.04130326 -0.022480674
224 0.0060144854 0.00407444 0.04386142 0.011947845 -0.051052142 -0.017943786 -0.03493154 0.019398913 -0.018805966 0.004123236 0.054023985 -0.00592037 -0.030391632 -0.0066894665 -0.022474216 -0.0152317295 -0.004131749 -0.0062479572 0.0026613553 0.010777309 -0.011535854 0.0069354093 -0.019572722 0.03201102 0.027537642 -0.0010312475 -0.03526875 0.014280555 0.014200311 -0.0047901473 -0.014467212 0.023028329 -0.032831028 0.029693386 -0.004532095 0.0054339035 0.015886465 -0.014865309 -0.011505538 0.03124624 -0.03527684 -0.028471075 -0.034593027 -0.0030265904 0.0034026578 0.008852833 0.0032988288 0.0019133746 -0.023036776 -0.006117146
130 0.010333443 0.0019938452 0.042374767 0.02634477 -0.05287306 -0.02565433 -0.038834438 0.030379606 -0.017157163 0.0019397892 0.051704876 3.671251e-05 -0.02935276 -0.01683261 -0.01622154 -0.017941285 -0.010180372 -0.013932843 -0.003838462 0.010316264 -0.013072028 0.006626983 -0.014458397 0.046616387 0.03693335 -0.008395654 -0.035340145 0.021699598 0.033134747 -0.015982527 -0.015533492 0.030441571 -0.04842396 0.03562065 -0.002452646 0.00024213524 0.005384378 -0.031055434 -0.012469061 0.037900165 -0.04218284 -0.025823483 -0.0481798 -0.005835327 -0.010519401 0.021922318 -0.005270647 -0.0063062087 -0.03878407 -0.0068295235
334 0.0025972181 0.0028348325 0.044761654 0.0063003297 -0.037271667 -0.0039998987 -0.013857107 0.018714748 -0.017478528 0.0090921 0.04726305 0.009477636 -0.025947204 -0.011969032 -0.021852264 -0.011895672 -0.014013635 -0.011402129 0.012326678 0.018214073 0.0005451146 0.009863605 -0.0065369345 0.03382407 0.029362906 -0.003897913 -0.017281929 0.012568346 0.025083886 -0.013155371 0.0031607714 0.02355017 -0.031053415 0.03744716 0.008319416 -0.0042080386 -0.00075275125 -0.027966427 -0.012293059 0.019824047 -0.033313364 -0.022472858 -0.037026677 -0.008270384 -0.010580287 0.01591518 0.007801633 -0.00034577615 -0.017843027 -0.002308814
275 0.018853592 -0.013188296 0.059504867 0.02504767 -0.06534936 -0.018220898 -0.04004763 0.03051493 -0.026222443 0.0037498535 0.07479292 0.011290076 -0.045178093 -0.01539127 -0.024512682 -0.030265005 -0.014021271 -0.011588573 -0.0022941008 0.013423679 -0.0005592657 0.011171752 -0.018238604 0.04748586 0.046125043 -0.003823408 -0.048330218 0.039290834 0.02529815 -0.017064717 -0.0069872504 0.033702657 -0.03640056 0.038756333 0.0074570207 0.0035943186 0.018560197 -0.027093206 0.006320572 0.03999699 -0.04338005 -0.03191576 -0.038812704 -0.00052008074 -0.008198993 0.012871295 0.008431135 -0.019220052 -0.026844593 -0.013071393
249 -0.0018038112 0.0068113813 0.043660607 0.02232476 -0.04256626 -0.019447546 -0.0308464 0.02992407 -0.015067181 0.0032166925 0.036454607 0.010178315 -0.020874782 -0.0035988244 -0.008652665 -0.0135480855 -0.008771538 -0.00021069264 -0.0022857573 0.017222617 -0.015007298 0.020008273 -0.007914838 0.039616715 0.02919455 -0.013117512 -0.017945126 0.022116309 0.02791327 -0.00562342 0.0008890755 0.011788542 -0.028446984 0.030887416 -0.0011351656 0.0016926058 0.0035164573 -0.030778404 -0.00899767 0.033076625 -0.03167079 -0.023858704 -0.023136906 0.0034429897 -0.005732597 0.005150915 0.0026160367 0.001298947 -0.033006553 -0.0046395315
225 0.0052166004 -0.011237002 0.039122306 0.010324799 -0.044963483 -0.0069638365 -0.030762764 0.01386653 -0.026732579 0.014586846 0.04203031 -0.0037922787 -0.035318103 -0.008532005 -0.012381786 -0.0138891395 -0.007231472 -0.013662018 -0.004781742 0.016304193 -0.017085908 0.0014549597 9.873787e-05 0.042875882 0.024059435 -0.0015766917 -0.024807738 0.014964101 0.012604793 -0.011444709 -0.006442428 0.013190278 -0.028928313 0.033501767 -0.005403085 -0.0070764916 0.015893154 -0.01755104 -0.010622212 0.020295648 -0.032588057 -0.019156115 -0.033652585 0.0037738392 0.0048217312 0.008983489 0.0051787063 -0.009044844 -0.021338403 -0.0048132776
166 0.01185571 -0.0011822279 0.045466863 0.015184299 -0.050687075 -0.029024106 -0.023854643 0.017755155 -0.02693004 0.0027735827 0.058416992 0.0097824475 -0.026237708 -0.022287946 -0.029382903 -0.011020751 -0.015377173 -0.017657232 0.0036057122 0.019453099 -0.0057650045 0.0045664967 -0.009825165 0.046224467 0.044076078 -0.006138047 -0.040090915 0.013217638 0.023822244 -0.00029067378 0.0072036036 0.03603632 -0.039871037 0.03630967 0.009776671 -0.0019659726 0.013999887 -0.041514292 -0.0015804758 0.024332633 -0.02900317 -0.023100225 -0.044936217 0.00664755 -0.011144474 0.02305251 -0.003057427 0.00030435895 -0.022841401 -0.01695073
232 0.008029686 0.0056073656 0.033422668 0.024452839 -0.035950154 -0.013611799 -0.018041551 0.009887255 -0.013798011 0.013953164 0.047956042 0.006430451 -0.024647111 -0.013445288 -0.020442579 -0.023113063 -0.0076411017 0.0016438089 -0.0036886223 0.011288371 -0.014485136 0.020051014 -0.018750155 0.022337204 0.032336015 -0.0012273362 -0.015856165 0.010091939 0.021174945 -0.015383062 0.004316633 0.027151516 -0.03484013 0.037475128 0.001256269 -0.01101281 0.016988644 -0.011717933 0.002296107 0.01536993 -0.025852269 -0.012784782 -0.032646395 -0.009609175 -0.008376741 0.0064037335 0.0003936332 0.00026353085 -0.029589355 -0.012267498
14 0.005665754 0.007401047 0.043412566 0.01800487 -0.04113746 -0.00991669 -0.031901687 0.017869355 -0.025404545 0.0070476844 0.034861207 -0.007878732 -0.037316784 -0.016902106 -0.02876616 -0.0095227165 -0.0027497928 -0.0028865293 -0.0008171212 0.014220416 -0.021298656 0.01507641 0.00073263224 0.03946059 0.023079677 -0.008981969 -0.022306059 0.016194329 0.022652151 -0.0016655702 -0.009947425 0.021794576 -0.03630029 0.038291022 -0.0034218326 -0.0050983573 0.017993277 -0.030614961 -0.012993497 0.023595093 -0.03802231 -0.016902711 -0.025157668 -0.007512589 0.0022052638 0.022228144 0.00374634 0.0034908694 -0.023541253 -0.0055393884
181 0.0067021092 -0.0043720556 0.061447624 0.025638836 -0.063512705 -0.017947918 -0.02583261 0.03368983 -0.026377242 0.016823195 0.06747829 0.0023845923 -0.041058216 -0.0021395958 -0.019985503 -0.022300588 0.0018094064 -0.0014320735 -0.0028526261 0.009693739 0.00018836306 0.02688576 -0.019988071 0.04040001 0.04645353 -0.004011212 -0.037519816 0.037108645 0.02993309 -0.0011202247 0.0021875938 0.025624778 -0.032619383 0.040973853 0.0007715235 -0.0006872368 0.014684564 -0.022126172 -0.0025534937 0.041852336 -0.039339766 -0.038841195 -0.032989986 -0.0075761825 0.0037719053 0.008517865 0.009111825 -0.014995772 -0.02789428 -0.019428253
310 -0.0042525316 0.008580395 0.037969388 0.025067542 -0.05193583 -0.015919426 -0.040228665 0.018383423 -0.03188941 0.0060224193 0.055420466 0.008943658 -0.031031972 -0.022683917 -0.020465044 -0.030102467 -0.0053092684 -0.0012857029 0.0025078284 0.018522998 -0.019059861 0.009407267 -0.012072302 0.030095832 0.027132766 0.002419115 -0.03290302 0.019183982 0.016314112 0.0023882277 -0.006766455 0.018329 -0.041093253 0.046937265 -0.0036128054 -0.011738387 0.015057128 -0.033850513 0.0023589225 0.03300427 -0.042456284 -0.025727093 -0.038558662 -0.0035368018 -0.0076585175 0.024901314 0.0033627318 -0.013609329 -0.035002492 -0.0071418365
211 0.0007828773 -0.00940572 0.03241275 0.018005311 -0.03578867 -0.010522246 -0.021717349 0.012719981 -0.018832019 0.016291264 0.036985684 -0.0038879807 -0.033635844 -0.018907152 -0.016426267 -0.022979962 0.0037099537 -0.013891032 -0.0063892095 0.018008612 -0.012552229 0.00505547 -0.0036605608 0.02156579 0.026773183 -0.004041227 -0.03582611 0.025135567 0.02400736 -0.010438296 -0.005643133 0.031047216 -0.025428029 0.0278614 -0.0030877471 -0.0047300286 0.010997517 -0.019984148 0.0060130716 0.017719476 -0.028018996 -0.02252804 -0.038034722 -0.0068088514 -0.0014293373 0.023044417 -0.00539787 -0.005817553 -0.0153953815 -0.02182189
17 0.008147026 0.007400052 0.034823228 0.014214146 -0.04653547 -0.013346299 -0.025626788 0.013981905 -0.026318343 0.0024839588 0.054352634 0.004641886 -0.036073014 -0.009118348 -0.018333295 -0.013066838 -0.00849331 -8.842713e-05 -0.005080573 0.028015599 -0.010812517 0.010445364 -0.019432733 0.02852721 0.03292315 0.001644145 -0.021018375 0.029538557 0.026270848 0.0008424952 0.002344921 0.022995383 -0.041036434 0.045804285 0.008734418 -0.013923481 0.0052634883 -0.03486321 0.005280578 0.027642833 -0.037813157 -0.018842462 -0.033394672 -0.00516147 0.0077307243 0.024048083 0.0014252661 -0.0073394817 -0.02492605 -0.017816933
149 0.012386675 -0.00034498508 0.03246367 0.009363381 -0.046467938 -0.009803811 -0.023976898 0.014642503 -0.019938812 0.0014476029 0.055648614 0.009733333 -0.031858113 -0.0108246375 -0.019525325 -0.017208755 -0.0047196634 -0.01842758 0.011742722 0.02666853 -0.021913992 0.014653004 -0.014443356 0.036145423 0.035670724 -0.006997224 -0.024044093 0.02764423 0.014315099 0.00061900035 -0.0074548856 0.019206097 -0.031377807 0.045003314 -0.004827922 0.0036998328 0.01835749 -0.025196608 -0.014083675 0.021494808 -0.021099616 -0.011339097 -0.037094247 0.0033362203 -0.012417867 0.013326536 -0.0044132285 -0.007400101 -0.023732195 -0.013527807
254 -0.0039839298 -1.3804083e-05 0.052794255 0.023727741 -0.04001137 -0.0155015895 -0.042575613 0.030515347 -0.01646972 0.020227863 0.047199126 -0.002942734 -0.041987788 -0.023786418 -0.012931036 -0.02074025 -0.014233024 -0.014329733 -0.004689 0.021114327 -0.0018255567 0.010788007 -0.0135568855 0.0416735 0.04579029 -0.0020920571 -0.03519974 0.015123369 0.0331504 -0.015326249 0.0035466673 0.013042512 -0.03585829 0.050848715 -0.004042836 -0.010867702 0.007731509 -0.035932306 -0.010374008 0.033021763 -0.03896558 -0.016167222 -0.049184356 0.005876659 0.0030036161 0.010769254 0.0070014754 0.0019723638 -0.024784723 -0.013529996
313 0.011741781 0.007433382 0.0394303 0.028533222 -0.041003853 -0.020398969 -0.027366126 0.018816631 -0.028716104 0.0037356229 0.037047084 -0.0029052924 -0.023104867 -0.0034850535 -0.021745073 -0.026774807 -0.000993305 -0.013865643 0.00865727 0.024096344 -0.01503312 0.005322259 -0.014101928 0.032308195 0.028399436 0.0045275823 -0.0338337 0.024022596 0.018487759 -0.0056287814 -0.0075246873 0.02455945 -0.03338583 0.030680431 0.005829245 0.0027318192 0.009261449 -0.018246302 0.0015570945 0.028362218 -0.019167833 -0.012820196 -0.026089221 -0.004439683 -0.004683293 0.014067267 0.0013195454 -0.011336511 -0.02984361 -0.019394245
62 0.012445835 -0.008902749 0.046422485 0.008163141 -0.048578247 -0.010793106 -0.026527978 0.012511714 -0.012936372 0.016019754 0.05113092 0.0034232489 -0.023108084 -0.010503164 -0.012789579 -0.028278304 -0.009596013 -0.017851476 -0.0028720668 0.01271885 -0.0024384835 0.013322893 -0.0056894273 0.024959397 0.027362466 -0.014590678 -0.035586793 0.021791674 0.011419649 -0.0050132307 -0.014588816 0.012941389 -0.033438243 0.039093416 -0.005081386 -0.0102600185 0.015992744 -0.016778149 -0.0026426644 0.030871134 -0.019026771 -0.016251301 -0.02721158 -0.0056436597 -0.0036633136 0.020727338 -0.0034414332 -0.011229035 -0.026543945 -0.016431393
159 0.0013349656 -0.0056617893 0.04754798 0.027800076 -0.041338082 -0.007625166 -0.029439284 0.019545838 -0.019748218 0.0028363978 0.057783924 0.012390517 -0.019255813 -0.024473004 -0.028905481 -0.018281098 -0.002420737 -0.016234098 0.013353236 0.025791997 -0.009366804 0.0082803145 -0.009893407 0.035782717 0.047250673 -0.003014163 -0.034525983 0.020090403 0.025757298 -0.016314412 -0.00015482563 0.026215231 -0.038813714 0.043646596 0.0055304505 -0.008496806 0.018647632 -0.031366356 -0.013555206 0.026815962 -0.040203765 -0.031167228 -0.03781943 -0.008928704 -0.008760943 0.026991729 0.009695112 -0.017039128 -0.034019697 -0.017473646
87 0.0040096836 -0.0037287923 0.037560992 0.010760283 -0.04272779 -0.0134186465 -0.028775778 0.02333449 -0.025119489 0.014500787 0.03962307 -0.0033832025 -0.022015242 -0.005998556 -0.013945094 -0.017646514 -0.012174182 0.002198697 0.00012842909 0.016644586 -0.012842456 0.0015334252 -0.003888844 0.026080668 0.022959936 0.0004571746 -0.014726945 0.019928003 0.024230195 -0.012825936 -0.0011944124 0.013003176 -0.025534198 0.021521276 -0.0018985142 -0.0022678436 0.00053479517 -0.011821816 -0.011894281 0.0219976 -0.036074914 -0.02094071 -0.031264123 0.0077227685 -0.0085962415 0.01668041 0.009657894 -0.0010551291 -0.022162018 -0.0061639985
185 0.012211353 -0.0039281053 0.036943033 0.023124523 -0.041398373 -0.014918051 -0.03332213 0.0127818575 -0.018253924 0.013906842 0.049286254 -0.0020443026 -0.017849717 -0.017167985 -0.022029858 -0.019067341 -0.01638781 -0.012707404 0.0027830151 0.024172569 -0.005146613 0.013683709 -0.015759636 0.037101768 0.026311578 -0.010295116 -0.026356546 0.015155086 0.008619406 -0.0046642227 0.00476564 0.026015598 -0.030876895 0.030489327 -0.0057639945 -0.013551962 0.010834928 -0.015176768 0.0014557856 0.034806583 -0.036165114 -0.01327068 -0.024328286 0.008720379 -0.0006906534 0.022762183 0.00957634 -0.004614064 -0.015378959 -0.0072679
128 -0.003160402 0.00773673 0.03686113 0.017607465 -0.039740577 -0.005557641 -0.020050373 0.011491322 -0.010924166 -0.0013591652 0.04471181 0.0066944696 -0.02194996 -0.013149069 -0.027522985 -0.016964018 -0.008329296 -0.0049687303 0.0044973367 0.01592134 -0.01887752 0.008842403 -0.012112715 0.026903952 0.03458027 0.0028923107 -0.027264757 0.01957587 0.01526945 -0.01261852 0.0017841544 0.016779337 -0.01840522 0.032816235 0.008176035 -0.014234953 0.017939271 -0.02905081 0.006270802 0.019411912 -0.036124274 -0.010055644 -0.024585107 -0.0034442057 0.00087698986 0.022913152 0.01201761 -0.0054775644 -0.024739448 -0.019175075
133 -0.0018025992 0.0068571577 0.0300384 0.013623813 -0.04596529 -0.0253525 -0.034095224 0.029261012 -0.024783742 0.00956338 0.05424448 0.0023634601 -0.016777486 -0.0145034995 -0.02031544 -0.023660306 -0.0060698045 -0.008035494 -0.0057118097 0.022752697 0.00016230927 0.010448658 -0.01359994 0.02360723 0.040113628 -0.0015521514 -0.029607493 0.01502303 0.011925679 -0.013404047 -0.013320945 0.018533256 -0.03576311 0.02805254 -0.00023490445 -0.0047411015 0.019155087 -0.023208749 -0.0028501889 0.02950681 -0.024642648 -0.012209168 -0.04023716 -0.005088879 0.0026764462 0.0064828675 0.0040969695 -0.012248461 -0.03128455 -0.02007739
195 0.0065594427 -0.0121895075 0.06352408 0.03127377 -0.052547004 -0.017365914 -0.033177517 0.02576528 -0.020132065 0.020745443 0.06742028 -0.0069197407 -0.028868783 -0.0016799641 -0.016086856 -0.024841083 -0.001892126 -0.0057980656 0.0026074306 0.015453674 0.0007180266 0.012927239 -0.015629314 0.04617734 0.03259543 -0.012519099 -0.044186935 0.022882791 0.016028395 -0.0057105557 -0.012477067 0.031135704 -0.0330262 0.040665634 0.0011357064 0.009619732 0.004946164 -0.019576555 0.0058528692 0.044868544 -0.044948887 -0.034841374 -0.04331203 0.009580874 -0.0059529333 0.016003594 0.0015232075 -0.017534757 -0.018815845 -0.017152166
88 0.0109019 -0.010900009 0.05049887 0.019592527 -0.052414913 -0.023652764 -0.019886792 0.016098347 -0.01667743 0.011998542 0.050308876 -0.006593337 -0.021997971 -0.0035764482 -0.02743327 -0.0152409775 -0.007665818 -0.005800687 0.010081652 0.016821114 -0.012641054 0.009916324 -0.007630392 0.032292314 0.044253983 -0.0044265497 -0.037289023 0.018963652 0.027578168 -0.0013555818 -0.0037583653 0.028932214 -0.034408182 0.040635265 0.003899995 0.0008442564 0.015327394 -0.029351968 0.001595982 0.038822036 -0.028957095 -0.03181129 -0.045671947 -0.0019406279 0.002370288 0.01903875 0.0026937483 -0.012249788 -0.030056462 -0.016263988
217 0.0089280335 -0.0068173944 0.051030487 0.021845302 -0.05744279 -0.015541453 -0.039442923 0.024227457 -0.02395514 -0.0017121587 0.057646345 0.0053241453 -0.035838477 -0.014152908 -0.014584714 -0.012517115 0.002256969 -0.009823224 0.0007153814 0.021908797 -0.021868352 0.009641301 -0.004274285 0.044958763 0.03283223 -0.011884334 -0.0260718 0.025546214 0.026788397 -0.012774301 -0.010196676 0.033588033 -0.0376443 0.031595603 -0.0069820513 -0.00883195 0.004959937 -0.03164776 -0.002637103 0.019913074 -0.028837623 -0.017012276 -0.04207685 0.00084834825 0.0034267136 0.022118147 -0.0050011654 0.0003154695 -0.028548602 -0.0116080195
331 -0.0033561944 0.004391606 0.037320003 0.025197204 -0.038569666 -0.013214689 -0.027397139 0.01058747 -0.02509982 0.012265598 0.046928495 0.009692828 -0.031047968 -0.01727676 -0.023872234 -0.021551516 -0.011994586 -0.013518701 0.010524165 0.021320993 -0.003210709 0.0031417797 -0.0060707973 0.030673148 0.025851201 0.003461391 -0.031717345 0.009921615 0.007917847 -0.010803984 -0.001951788 0.025791205 -0.02953646 0.027644843 0.0075735115 -0.0077969492 0.008223045 -0.028196607 -0.010542338 0.012196184 -0.013835456 -0.018154195 -0.03690492 -0.0035759513 0.00387178 0.016773727 0.0053139124 -0.01503727 -0.023882655 -0.0021408484
193 -0.003557307 -0.0104703065 0.034689903 0.012911231 -0.04496086 -0.026182534 -0.019508686 0.026514618 -0.033859205 0.014137792 0.04952459 0.008979349 -0.025804793 -0.008039304 -0.027273558 -0.008867415 0.0020309913 -0.01928589 0.0046585076 0.02265104 -0.013976721 0.0031828159 -0.0133124115 0.04333002 0.03875749 -0.017346542 -0.03198626 0.02965838 0.025449961 -0.011202339 -0.003480678 0.03002091 -0.036968596 0.041029148 -0.010394439 0.0039491667 0.008667068 -0.027492963 -0.0067505953 0.032184172 -0.032635856 -0.0166462 -0.04032946 0.0009559493 -0.011418279 0.026650859 0.012866328 -0.0136002675 -0.021757122 -0.018452354
161 0.0032047264 -0.0011854902 0.03656204 0.008308893 -0.0492555 -0.0094033955 -0.01972953 0.02501976 -0.013076815 0.010468074 0.041575797 0.008123572 -0.02006297 -0.015663756 -0.027865743 -0.02257837 -0.011045205 -0.004734297 -0.00011979027 0.024596523 -0.013288068 0.013947016 -0.019706499 0.026639633 0.030423012 0.0045513352 -0.033983402 0.009555092 0.021206265 -0.00703614 -0.012314871 0.025966907 -0.03235091 0.031818505 0.0024437413 -0.0012731567 0.018982373 -0.029295757 -0.0038222172 0.023897624 -0.031061366 -0.024945509 -0.031560022 -0.00538243 -0.0027301393 0.020211332 -0.0004257002 0.00010560132 -0.031393595 -0.013339847
269 0.014516342 -0.0025323362 0.055709112 0.011804855 -0.053649258 -0.020512037 -0.03993142 0.031357564 -0.023653615 0.012933526 0.05099252 -0.0066875704 -0.022302644 -0.004224203 -0.019476032 -0.02274117 -0.011099232 -0.0069409916 0.013231901 0.014928428 -0.013178075 0.013634934 -0.004123675 0.0261446 0.04066514 -0.010473098 -0.041011952 0.019207578 0.029905818 0.0014081373 -0.013752503 0.035237826 -0.02725005 0.040593088 -0.002718395 -0.012706809 0.00025786675 -0.031087372 -0.008763165 0.024448076 -0.035351947 -0.032180436 -0.048960958 -0.009864949 -0.006193949 0.008054825 0.00050098635 -0.007639239 -0.037080888 -0.025764165
4 0.010731185 -0.0066087926 0.06391997 0.029465836 -0.055144954 -0.01849291 -0.037077963 0.029860258 -0.017874366 0.01727753 0.070476905 0.0051010693 -0.032734107 -0.005982431 -0.015170637 -0.029073674 -0.0025175733 -0.018711096 -0.0010925075 0.020979378 -0.0107386215 0.017492626 -0.0134792635 0.050886143 0.05134029 -0.01682528 -0.034562398 0.029589828 0.023805823 -0.0022509466 -0.009974107 0.02446689 -0.047172032 0.04122646 0.0012500399 0.006251006 0.0031994001 -0.03612683 -0.00014506977 0.040273745 -0.040691644 -0.038285684 -0.048987765 0.005628073 0.004382615 0.025926845 0.015046844 -0.008062252 -0.026290474 -0.006861326
28 0.013521927 0.0068643275 0.04034916 0.012120663 -0.030906696 -0.016515048 -0.019268548 0.025446177 -0.018901072 0.0012150009 0.046934683 -0.009223105 -0.022436894 -0.009001787 -0.022720303 -0.005228765 -0.01038744 -0.00842887 -0.0043284683 0.022028184 -0.020625824 0.010244294 -0.016413772 0.025371432 0.02638518 -0.0037917842 -0.015017933 0.011996191 0.022096917 -0.013510933 -0.0141352415 0.024689313 -0.0224629 0.023271952 0.0021454112 -0.0037810258 0.003543037 -0.0152456425 -0.0025419092 0.027170463 -0.022754448 -0.0268553 -0.023242725 -0.007730926 -0.0057022045 0.020947246 -0.0014495977 -0.0058526034 -0.01682979 -0.020670498
226 0.005529707 0.00296602 0.03943751 0.01802977 -0.03707543 -0.020884205 -0.025980499 0.029345442 -0.023709398 0.0060609486 0.040864035 -0.0011117432 -0.03286182 -0.0045539136 -0.027533814 -0.012455328 -0.0066657425 -0.010384603 0.00037885536 0.017348604 -0.021573666 0.017572531 -0.011942123 0.025463432 0.039003957 -0.014936382 -0.032941863 0.0102845635 0.023067813 -0.0007810783 -0.013757039 0.02065606 -0.03445172 0.044314362 0.007876937 -0.00014054726 0.0020961412 -0.026738845 -0.0028640945 0.032298185 -0.024973245 -0.015035215 -0.03634964 -0.0018661771 0.0035296376 0.0066540004 0.010511345 0.0051006605 -0.023007208 -0.0050725946
184 0.011260569 -0.0011739156 0.052587517 0.02852144 -0.04902192 -0.014852442 -0.038590644 0.02015129 -0.03104964 0.016186416 0.042204563 0.008235596 -0.026655814 -0.012925873 -0.025623774 -0.014873408 -0.010792675 -0.0034397126 -0.006275641 0.017580919 -0.0027788004 0.016379768 -0.018568408 0.040878933 0.045095976 -0.009716322 -0.02747761 0.015083326 0.015953736 -0.0041775373 -0.015233497 0.027292522 -0.040893964 0.039493423 0.005866392 -0.007914836 0.019171307 -0.027694544 -0.009159735 0.029759254 -0.03992004 -0.01884476 -0.0349219 0.002079469 0.0009974877 0.026163453 0.0018727722 -0.012146497 -0.019958816 -0.023268256
278 0.0038075664 -0.008674068 0.036785267 0.01951147 -0.040358856 -0.015130832 -0.03448897 0.018657291 -0.019752802 0.006492687 0.056416564 -0.0033558514 -0.028605457 -0.010644791 -0.022083078 -0.016583573 0.0014474636 -0.014014556 -0.00670578 0.024560153 -0.011564309 0.017261384 -0.001018103 0.029894408 0.03825423 -0.01158337 -0.028308515 0.027095344 0.02468821 -0.00048810072 -0.001830115 0.027016087 -0.042307433 0.032471742 -0.008564729 -0.0011312135 0.010814494 -0.02322089 0.0042716577 0.030807868 -0.041260064 -0.029715473 -0.042114004 0.005404487 0.0034577711 0.015310591 0.011620194 0.0038321796 -0.017620198 -0.012845162
136 0.008705872 -0.0065562064 0.04827306 0.020835409 -0.042722892 -0.009936951 -0.034192134 0.017448701 -0.018785864 0.009110462 0.037164144 0.0047500976 -0.026226299 -0.016582884 -0.028822307 -0.013798056 -0.0076762377 -0.011950754 0.008739929 0.01975245 -0.015383499 0.010804256 -0.013011917 0.031900827 0.042484496 -0.011006022 -0.034348108 0.017328676 0.014748127 -0.005380427 -0.014405327 0.028034106 -0.026082166 0.033540547 0.001984443 -0.0029736094 0.018959632 -0.027737616 -0.011571051 0.03315563 -0.030289529 -0.012630778 -0.032608658 0.005361896 -0.009046309 0.019248845 0.0039638993 -0.008358373 -0.019539703 -0.015187495
68 0.00012709234 -0.012101461 0.045718465 0.011669945 -0.049416877 -0.02244375 -0.027671779 0.03218917 -0.025252637 4.8129725e-05 0.044531953 -0.0046792626 -0.03257579 -0.014165386 -0.023802161 -0.023224661 -0.00023784758 -0.014863752 0.0024203372 0.02023933 -0.010121086 0.007909925 -0.013532667 0.04053316 0.042936042 -0.0009582197 -0.029470608 0.009147387 0.008534644 -0.0066276267 -0.007357618 0.026755525 -0.024394201 0.027376495 -0.007099596 -0.0044858316 0.0215237 -0.028136607 0.0039199446 0.03609582 -0.038234428 -0.020878864 -0.031624947 -0.003585888 0.003319724 0.010903257 0.0032310644 -0.0014890865 -0.026592683 -0.018691275
238 0.012995576 0.006460827 0.030294819 0.020956049 -0.04727995 -0.019387921 -0.017687427 0.027172958 -0.012273361 0.013300219 0.053282324 -0.008184266 -0.020818135 -0.012912758 -0.025018988 -0.025512038 0.0009503821 -0.015039306 0.009165062 0.025534686 -0.0028873817 0.0027699934 -0.012809906 0.022371441 0.037655633 -0.0054446054 -0.019712353 0.02107751 0.023042347 -0.0017265211 -0.0048018876 0.025088592 -0.039237034 0.04142903 -0.005288173 -0.008254868 0.0022909816 -0.031705312 0.0029138227 0.028918277 -0.03083892 -0.011731231 -0.023481667 -0.006965075 0.0055991127 0.010938335 0.012960265 -0.004828138 -0.021203345 -0.00733533
101 0.0024064335 -0.009931809 0.051222425 0.03220727 -0.05513243 -0.019288214 -0.04105397 0.01896599 -0.025664492 0.0152677 0.04348076 0.0113446545 -0.023022985 -0.0065966304 -0.02312618 -0.015331946 -0.014953911 -0.003705895 0.012353905 0.00794027 -0.004487666 0.02327769 -0.0038000525 0.029970463 0.04516097 -0.009338657 -0.029055756 0.02664379 0.024216365 -0.01005341 -0.013892951 0.03003333 -0.025233394 0.031319607 -0.009114785 -0.00046345172 0.0018934298 -0.032368343 -0.0050399043 0.033013463 -0.034318637 -0.02636323 -0.04385893 0.0057917247 -0.004236565 0.022003291 0.0010585105 -0.001531097 -0.0297598 -0.010465653
337 0.00043578615 0.009556832 0.043852013 0.017000921 -0.044515915 -0.017241346 -0.022696435 0.018860547 -0.01376018 0.0017924078 0.04246056 0.0032409895 -0.024910498 -0.015893511 -0.011831524 -0.013066828 -0.0151592055 -0.0101590175 0.00018724425 0.025424784 -0.009307982 0.015530264 -0.00231894 0.033589106 0.042313103 -0.012490889 -0.020354286 0.01064635 0.014880578 -0.0014775499 -0.0042105326 0.0152190365 -0.023055188 0.025778912 -0.008637093 0.0024622912 0.010490851 -0.019596584 0.003650688 0.030234948 -0.022334754 -0.01889704 -0.044110693 0.0072522727 0.0076180766 0.006291538 0.008039627 -0.0018883055 -0.017010195 -0.019372886
48 0.003376261 -0.0015448206 0.046175934 0.030614061 -0.03775494 -0.009267892 -0.0318486 0.021588486 -0.018993467 0.0056644403 0.04541755 0.010257388 -0.037664052 -0.017270647 -0.0129677635 -0.018714257 -0.0044661374 -0.013558141 0.0066008815 0.026562762 -0.016080277 0.011836504 -0.017351178 0.043008376 0.040689215 0.004298632 -0.03943665 0.012139083 0.026348958 -0.0032790792 -0.00803431 0.014173559 -0.02316749 0.047772788 -0.0014215733 -0.0024486517 0.011939453 -0.018621681 0.0039868685 0.035744295 -0.03928314 -0.026620587 -0.04011991 -0.0015861762 0.0070249364 0.018926814 0.003939408 -0.011234492 -0.018424006 -0.013869226
173 0.0052818167 -0.0020278625 0.0463444 0.019873222 -0.043210983 -0.03034141 -0.03750731 0.015351406 -0.022575682 0.00013579035 0.049522534 0.002080945 -0.035293918 -0.010407855 -0.026605787 -0.013268189 -0.014582892 0.00043054498 0.0119249765 0.009654057 -0.023600867 0.005391372 -0.005398502 0.045352843 0.050899573 -0.001089787 -0.041818924 0.016473703 0.015977038 -0.0041265176 0.0019464752 0.034287855 -0.039921556 0.0332668 -0.005852185 -0.010469945 0.021913944 -0.03511053 0.0036074882 0.03343381 -0.03522889 -0.016633721 -0.04914951 -0.009960421 -0.0036367762 0.011964875 0.0023733284 -0.017821068 -0.023117326 -0.007363867
244 0.002263156 -0.010693534 0.046157792 0.037230473 -0.058153115 -0.03419106 -0.025150983 0.040504884 -0.034871258 -0.0068458603 0.06883684 0.011456965 -0.03254688 -0.02314794 -0.03799511 -0.013699129 -0.01311422 -0.013207875 0.014645675 0.023250975 -0.0036848965 0.031388987 -0.030520493 0.058064744 0.039827142 -0.007751766 -0.029648911 0.038776755 0.025059864 -0.0015477395 -0.017362377 0.016560117 -0.041055888 0.058838546 0.015574565 -0.01614366 0.026644183 -0.03308564 -0.016618622 0.042146903 -0.057814464 -0.018725447 -0.03205386 0.014492525 -0.0038027102 0.028465768 -0.0034301137 -0.0053008883 -0.018370954 -0.013871534
282 0.01690149 -0.009550188 0.03720096 0.022702388 -0.054863483 -0.028004145 -0.01877064 0.042404443 -0.019067226 -0.0029909147 0.06774263 0.008461443 -0.043103263 -0.028975947 -0.040927302 -0.027784282 -0.009791489 -0.015123125 0.0010970932 0.009002041 -0.015777962 0.028228875 -0.032877415 0.058805466 0.032399613 -0.020753596 -0.038529858 0.030571723 0.010987279 -0.01975614 -0.0028878117 0.01907396 -0.04354924 0.049340338 0.009450482 -0.007082036 0.025436215 -0.037510626 -0.008809436 0.046795312 -0.056060884 -0.024928108 -0.03384021 0.014349309 -0.0065614907 0.026619444 -0.010624341 -0.015581335 -0.013276582 -0.008152171
42 0.006559656 0.010701932 0.041726343 0.029201403 -0.04038903 -0.024514325 -0.02016569 0.024002973 -0.032369874 0.027526753 0.038002793 0.00010391458 -0.01441318 -0.004602714 -0.027541908 -0.03409574 -0.002623185 0.003902972 -0.010496057 0.0062992787 -0.017741382 0.019972838 -0.009034561 0.028512005 0.023712004 -0.017102737 -0.041445076 0.01583553 0.019710911 0.00063396175 -0.010642223 0.037914734 -0.0362937 0.0409001 0.0023187215 0.0038039314 0.015237023 -0.026256269 0.012690553 0.026638586 -0.046199698 -0.029768571 -0.050663378 0.006903069 0.0023620743 0.02752508 0.014738236 -0.010374767 -0.025168024 -0.023745019
33 0.008418787 0.004234976 0.046649214 0.032679956 -0.032633055 -0.025257347 -0.02595924 0.027371015 -0.017048199 0.028374493 0.03743072 0.0015964283 -0.016535996 0.0016554703 -0.03118183 -0.03202152 -0.00774603 0.006088303 -0.009293662 0.017311115 -0.009115589 0.009080088 -0.015798027 0.042393405 0.026159065 -0.011647026 -0.03905496 0.028108753 0.02157928 0.0030070443 -0.0155064445 0.028737083 -0.036666244 0.047097355 -0.005665759 0.00997659 0.0041773277 -0.039185237 0.010875559 0.030663913 -0.03656664 -0.028792666 -0.031051857 0.000513549 0.010257457 0.032477662 0.01010047 -0.010968589 -0.03286339 -0.017188301
131 0.010068047 8.0467995e-05 0.025316905 0.0063376287 -0.042596593 -0.007129977 -0.018099442 0.019710207 -0.013436646 0.0002686761 0.03488332 0.0022848905 -0.021335244 -0.009803938 -0.012781931 -0.02407987 -0.013684477 -0.014412554 0.009756019 0.016946923 -0.007286744 0.018656949 -0.008388327 0.03472754 0.021036724 -0.0078598885 -0.03149224 0.022590073 0.0054818224 -0.009863728 -0.0045552184 0.018571662 -0.031105315 0.035380315 0.005962335 -0.008186486 0.0059138075 -0.018130032 0.001085367 0.02610326 -0.017777894 -0.020767424 -0.03718777 0.002378843 0.005316917 0.021287164 -0.0031179439 -0.0043420517 -0.02534133 -0.0019541343
233 -0.0020590338 -0.010399016 0.06152044 0.008823125 -0.031671595 -0.030434791 -0.033529524 0.010944598 -0.034010638 -0.0072936458 0.054715086 -0.001097838 -0.02940229 -0.012953732 -0.031553645 -0.03455615 -0.019020721 -0.007154106 0.00367285 0.03239309 -0.013716243 0.0170059 0.0026432967 0.022467008 0.026609711 -0.019392053 -0.04062201 0.024155717 0.021381399 -0.004246326 -0.011627642 0.021202585 -0.02275464 0.046773333 0.010980525 -0.014601923 -0.0022393977 -0.028203871 -0.014987079 0.025838735 -0.023705604 -0.022027498 -0.0419536 0.009017195 -0.016214505 0.029189667 -0.012084455 -0.010078596 -0.017212821 -0.029491445
256 0.002841748 -0.012259886 0.046899322 0.020964546 -0.033704 -0.029827869 -0.018157667 0.009494774 -0.02707994 -0.0050157076 0.056544255 -0.011283135 -0.027663723 -0.021150209 -0.019350395 -0.03490053 -0.009327535 -0.008658264 -0.005017744 0.015677955 -0.024998548 0.025696458 0.0062942724 0.028362416 0.023404488 -0.01061151 -0.036722556 0.03395567 0.02132261 0.0066508213 0.0042178226 0.033503983 -0.022915188 0.047602367 -0.0053442605 -0.020229949 0.0056274096 -0.03485121 0.0036441588 0.040169965 -0.031247692 -0.030158486 -0.03098337 0.005661581 -0.011052264 0.01627496 -0.004548885 -0.014999386 -0.01835621 -0.024169285
320 0.00018432498 -0.013217222 0.051536724 0.022291016 -0.052814186 -0.013864516 -0.02897387 0.026531838 -0.02395985 0.012368387 0.04886003 -0.002113149 -0.03767317 -0.019573612 -0.019122211 -0.019482344 -0.0018841933 -0.016196452 -0.0049601807 0.012936292 -0.015476162 0.025359124 -0.015334641 0.050335974 0.037997857 0.00013505906 -0.032641836 0.018738346 0.019468358 -0.0033956473 -0.010610823 0.029301617 -0.040068235 0.04420859 0.0035996502 -0.0005000599 0.01834224 -0.023383567 -0.014266167 0.035240255 -0.036566656 -0.030862872 -0.03854711 -0.012505268 -0.0027764253 0.028603923 -0.0021765057 -0.018325057 -0.022387577 -0.023466256
273 0.013776807 -0.003989811 0.062166013 0.018851334 -0.05440846 -0.026694851 -0.026990496 0.034388088 -0.014131403 0.0125287855 0.05135376 5.3394106e-05 -0.034593824 -0.006461876 -0.028071476 -0.017796045 0.0032979026 -0.009960885 0.0020210287 0.018715363 -0.0013121306 0.012832725 -0.007253791 0.04291769 0.03387227 -0.011489819 -0.036554836 0.03569026 0.016810603 -0.017337622 0.00541279 0.0326046 -0.02713948 0.03731864 0.010726292 0.009505143 0.0005696821 -0.035665926 0.00916911 0.041442655 -0.03654981 -0.03390225 -0.051243424 0.0030653286 -0.009439561 0.008153638 -0.00038117028 -0.00029356036 -0.021354113 -0.007754521
231 0.00041651682 -0.0053668832 0.04831072 0.010651416 -0.040805735 -0.0067960634 -0.024019454 0.021207828 -0.02680816 -0.00021474896 0.04508783 0.003904406 -0.021148825 -0.016111651 -0.025716806 -0.021126123 -0.00050457305 -0.011480757 0.011698717 0.005972449 -0.012274575 0.01640613 -0.016462628 0.030158224 0.03983162 -0.0023364895 -0.03430619 0.026406273 0.020139914 0.0013656012 -0.012502153 0.027273692 -0.032269932 0.036240254 -0.00401139 -0.00060640316 0.008675201 -0.030156447 -0.010791838 0.015209336 -0.036440853 -0.028537937 -0.041190162 0.007654301 -0.011654787 0.0041212067 0.009454694 -0.0049184235 -0.02189482 -0.0120359855
297 0.001566597 0.007652919 0.03131165 0.01988831 -0.041258186 -0.011894349 -0.02767236 0.012386999 -0.023583572 0.006834684 0.0431458 -0.0039645853 -0.030891335 -0.01244084 -0.006857129 -0.022005044 0.0048187384 -0.015574648 0.0061073247 0.019174729 -0.0077777924 0.005561781 -0.017455917 0.034172166 0.021705626 -0.0035312679 -0.029542359 0.008087166 0.019234737 0.00037060952 -0.0015117114 0.024012627 -0.027970506 0.019359503 0.008761105 -0.013101841 0.0005532755 -0.027883062 -0.0056074033 0.01514767 -0.025801344 -0.014140465 -0.024414789 -0.00095114537 0.0015342241 0.004474582 0.007761643 0.00050654926 -0.021725947 -0.010182266
3 -0.0050442936 0.00050082465 0.027407968 0.0190215 -0.045373503 -0.023387901 -0.029933078 0.024359426 -0.026080629 0.014150931 0.03279363 0.009978416 -0.022311516 -0.010680701 -0.010100888 -0.017785482 -0.0025893943 -0.004520152 -0.0064074546 0.009897834 0.00029772997 0.01274515 -0.010772869 0.034735687 0.028438833 -0.0022462562 -0.02022619 0.007121486 0.014665047 -0.0010006248 0.00026541256 0.009584017 -0.030369025 0.0380326 0.00779653 0.0031389892 0.0012072508 -0.024805509 0.0049883146 0.02966843 -0.01861729 -0.018300496 -0.030521665 -0.0054042274 -0.009697655 0.011114329 0.008478553 -0.0071111666 -0.012902903 -0.013727568
242 0.0010657426 -0.00023722823 0.04189186 0.02648243 -0.041341234 -0.021587363 -0.03510048 0.032346908 -0.020891007 0.0023716702 0.05440128 0.0036714973 -0.02125778 -0.010798472 -0.018729499 -0.01048689 0.0010294392 -0.018973466 -0.003617234 0.023086239 -0.0074718297 0.015972797 -0.016601682 0.038960725 0.04479716 -0.007829473 -0.021138936 0.0119788945 0.029904023 -0.014839986 0.0056579355 0.020516811 -0.029920401 0.032438472 -0.0079219015 -0.0013453463 0.010598842 -0.024880169 -0.0010388257 0.019003758 -0.025389215 -0.018301127 -0.03812189 0.001437596 -0.002578718 0.013819159 0.0049051247 -0.0074525364 -0.033428963 -0.015724523
218 0.015167078 -0.010509209 0.052001666 0.03106354 -0.045822676 -0.028681023 -0.02527762 0.03507531 -0.024808489 0.015040342 0.046648588 -0.00621362 -0.03442885 -0.019059198 -0.026734019 -0.01739102 0.00097580283 -0.015435109 0.010103051 0.017665109 -0.010573992 0.021003848 -0.014181988 0.03164332 0.02940248 -0.0012628204 -0.03221525 0.02400706 0.027392413 -0.014081631 0.0010248831 0.018712332 -0.024450155 0.048012443 0.002592603 0.009744051 0.0010918214 -0.027690014 -0.008264616 0.029372877 -0.027419966 -0.023627326 -0.041907363 0.009959714 -0.0044933404 0.014652201 0.0004880022 -0.0031767501 -0.01990475 -0.009025783
266 0.0027799516 -0.013208683 0.0444606 0.027526181 -0.04753781 -0.02556744 -0.037962187 0.020655962 -0.020555573 0.007309851 0.055477038 0.008974814 -0.032219846 -0.007930941 -0.016064776 -0.025286041 -0.0061951904 -0.008424756 -0.003177226 0.012963846 -0.01682925 0.007464671 -0.0056594177 0.03555936 0.041213542 0.004853734 -0.03508133 0.025503833 0.02502652 -0.0111854235 0.0021890998 0.021273026 -0.025599439 0.030584296 0.00036067626 0.004935181 0.01349956 -0.01970461 0.0017437773 0.03646909 -0.023514159 -0.030372346 -0.04043775 -0.0031913212 0.0021612912 0.017580708 0.007865453 -0.0029714203 -0.030518401 -0.014964426
328 0.005905133 -0.008621511 0.05469814 0.025992466 -0.0527945 -0.02414357 -0.022943337 0.017806236 -0.032470074 0.012455731 0.054093882 0.010582818 -0.036437776 -0.0014202072 -0.018105812 -0.016475622 -0.01157419 -0.005284307 0.013154968 0.012170634 -0.0028454596 0.019257553 -0.00535055 0.04348095 0.03930769 -0.0021706377 -0.032821253 0.03485993 0.025187792 -0.0033910922 -0.005673472 0.029962039 -0.027487228 0.03570394 0.00023120253 0.00852798 0.005803302 -0.02602855 -0.0073674866 0.03188837 -0.027279412 -0.022571998 -0.0348812 0.008442974 -0.011429192 0.015696984 0.009833236 -0.015801907 -0.020525385 -0.014382747
171 0.014651619 0.003213729 0.057643827 0.028327895 -0.04303817 -0.016740602 -0.024319725 0.022233112 -0.018361492 0.011158428 0.047307108 0.0014045063 -0.038660493 -0.018170409 -0.016506763 -0.017024506 0.0010804145 -0.010995096 -1.2028558e-05 0.01980124 -0.011364854 0.023411695 -0.0192264 0.035698704 0.028944029 -0.0010464047 -0.033740744 0.020916829 0.014287951 -0.013796398 -0.011978946 0.024091925 -0.04188298 0.03856114 -0.0048376205 -0.01386283 0.0030206735 -0.02651627 -0.0004675533 0.031603258 -0.041188173 -0.03593484 -0.030315425 0.0010589395 0.008150535 0.010035045 0.007842106 -0.007471232 -0.039794236 -0.026946625
162 -0.0024854986 -0.0026781054 0.039954048 0.012970956 -0.04913654 -0.020704694 -0.013896876 0.014043221 -0.0148838265 0.00038701374 0.051123895 -0.006312593 -0.03431061 -0.009066296 -0.02891293 -0.014056871 -8.743033e-05 -0.0034724069 0.0059876223 0.008683254 -0.011117468 0.013746761 0.002214563 0.023188774 0.035339158 -0.001961678 -0.025629465 0.00770712 0.011600409 -0.0052575 0.003983944 0.01088777 -0.02096384 0.034192815 0.00083275355 0.0040691253 0.0040839724 -0.018045248 -0.002355156 0.031759202 -0.030410603 -0.010905172 -0.03839237 0.0037720664 -0.0029926142 0.0227665 0.0029630747 -0.00046919702 -0.024129584 -0.019257385
7 0.0102551365 -0.0071740663 0.041422717 0.012223979 -0.044920262 -0.009924332 -0.034475494 0.02203858 -0.013560626 -0.0014379458 0.040761027 0.009619376 -0.030795671 -0.017393455 -0.019077223 -0.013673493 -0.009939937 -0.011757499 -0.001441901 0.016951399 -0.015790561 0.009533167 -0.012826155 0.02749263 0.027554676 0.0004183751 -0.034272708 0.015200863 0.017333554 -0.00038729707 -0.0031849386 0.010602861 -0.022457236 0.04030338 -0.0032949306 -0.012976624 0.0038452162 -0.027534781 0.00061072415 0.032576054 -0.02445073 -0.022272132 -0.033944774 0.006235173 0.0013744839 0.014610337 0.011578246 -0.0008708167 -0.016977856 -0.023564532
108 0.014084558 -0.011591419 0.05477913 0.028201923 -0.038649987 -0.021830065 -0.030168848 0.015960937 -0.032300957 0.005870349 0.060024567 0.0008380577 -0.02547709 -0.010194352 -0.032312855 -0.027771516 -0.010624258 -0.0034072367 -0.0038489408 0.022286387 -0.019316409 0.01115403 -0.021973988 0.0416949 0.046514425 -0.012468704 -0.02229429 0.019038878 0.0118542835 0.001498032 -0.007837067 0.020757988 -0.032157604 0.033314083 0.005012471 -0.010595734 0.0080444245 -0.021759173 -0.002120037 0.036256827 -0.02880855 -0.02553182 -0.03934105 -0.012196399 -0.00028036145 0.011521099 0.003664817 -0.008332961 -0.035241775 -0.018333383
284 -0.0025875098 0.0010799387 0.059750415 0.023693876 -0.05803488 -0.0245358 -0.022097949 0.031641368 -0.024688609 0.004097144 0.06538641 0.0053486424 -0.03308302 -0.021985838 -0.03175089 -0.023708852 -0.01047114 -0.0015695083 -0.0046020877 0.017708791 -0.02174462 0.020266693 -0.013233322 0.03709197 0.048502997 0.00514371 -0.032795183 0.01761089 0.01476822 -0.018295247 -0.009222026 0.021985048 -0.035082296 0.052121613 -0.0058245882 -0.010934458 0.012150072 -0.021145301 -0.0037565297 0.026653254 -0.029367257 -0.02341726 -0.049161382 -0.0109160915 0.0053213458 0.021726727 0.014759169 -0.0020258757 -0.038536783 -0.013108481
5 0.007509677 0.0039810487 0.0393033 0.031670548 -0.039643887 -0.009703581 -0.02623221 0.02552868 -0.032433398 0.008882781 0.06437324 -0.003188151 -0.0346569 -0.022088295 -0.020449176 -0.026178345 0.0022655057 -0.00954854 0.010674856 0.010528856 -0.0014748318 0.010430918 -0.016779916 0.044444516 0.049889933 0.0031066514 -0.038901687 0.025801899 0.019655908 -0.010829982 -0.009000036 0.028666968 -0.02939143 0.050530147 0.0069846394 -0.002957591 0.0033250595 -0.035176005 -0.006107464 0.029917428 -0.041148905 -0.02350259 -0.046106465 -0.004849929 0.0011297548 0.008065037 0.004808015 -0.017364688 -0.029694092 -0.023418415
140 0.00455551 0.003270815 0.039235078 0.008880658 -0.046610195 -0.020116862 -0.027309014 0.025044115 -0.009186581 -0.001086243 0.03565295 -0.0069865556 -0.033591405 -0.0058873883 -0.029293155 -0.020540824 -0.014574871 -0.001939355 0.0074294303 0.022911025 -0.008556708 0.013488062 -0.010756184 0.028169807 0.028096471 -0.0065547093 -0.015068129 0.017374992 0.018183812 -0.010084372 -0.0012610906 0.018902767 -0.018460637 0.023624709 -0.0082102325 -0.0061197625 0.014553093 -0.012844739 0.0016239592 0.021770526 -0.017092628 -0.026250245 -0.025014617 0.0077412343 -0.0019129361 0.016148906 0.0034541856 0.0010594176 -0.015265503 -0.017119734
30 0.008105334 -0.00721767 0.033783033 0.022972705 -0.047097262 -0.011608444 -0.015668377 0.026247399 -0.012475904 0.0136292735 0.05293785 -0.0069213095 -0.028287176 -0.0064189397 -0.008604808 -0.013806893 -0.0044377805 0.00017038992 -0.001018275 0.013410244 -0.010606942 0.017988773 -0.014883113 0.022037381 0.028454324 2.059392e-05 -0.036629032 0.022356026 0.027459117 -0.008377218 -0.012809463 0.018008597 -0.03410222 0.04221579 0.00635297 -0.000520107 0.018701727 -0.026106916 -0.004584211 0.02581744 -0.028678592 -0.02789291 -0.03641585 0.0044031506 0.0028607307 0.010667836 -0.0031276064 0.0036438452 -0.028582657 -0.016409604
281 0.014519374 -0.00283668 0.04861603 0.025448322 -0.045728292 -0.028125573 -0.026137482 0.014773408 -0.027927589 0.0019086746 0.05307492 0.0043398542 -0.025105981 -0.011803406 -0.014922907 -0.027739387 -0.010186133 -0.0073276544 0.012957405 0.022195501 -0.017521938 0.008502703 -0.012066062 0.02803439 0.043794 0.0024338856 -0.031362537 0.022834357 0.012870046 -0.008571762 -0.002769966 0.031072764 -0.02872498 0.05142394 0.0049323905 0.0044392445 0.00468078 -0.021729162 -0.0031908331 0.032794684 -0.037310723 -0.026017439 -0.0486693 -0.007102431 -0.009088219 0.013821732 0.015841737 -0.014543373 -0.032538556 -0.025863836
31 0.00964799 0.0013330056 0.037084285 0.017037816 -0.051479004 -0.009634198 -0.034141522 0.013684917 -0.024249157 0.0041036345 0.050347928 0.003329369 -0.01985229 -0.017800333 -0.011064719 -0.024224209 -2.4297156e-05 -0.014786464 -0.004093483 0.026264386 -0.00426095 0.022872461 -0.020089682 0.03262216 0.032579318 -0.013666608 -0.02090298 0.025602011 0.026850747 -0.004513927 0.00024418347 0.024880763 -0.03355192 0.03538307 0.010013535 0.002350999 0.01788172 -0.029677726 0.0027219614 0.037390362 -0.02724815 -0.023906842 -0.031207914 0.0077926284 -0.003046098 0.02050668 0.0003310524 -0.015064282 -0.02571262 -0.020652078
