333 50
25 0.046918992 -0.020328553 -0.09245718 0.044153906 -0.06457763 0.01960632 0.047723614 0.042174805 0.006496339 -0.048107572 -0.010840958 -0.06598724 -0.025309995 0.0127227 -0.030510899 0.0014758415 -0.024364034 -0.0035225435 0.015225426 0.0027261642 -0.004444809 0.017190646 -0.040686943 0.0049970457 0.047305617 -0.009673442 -0.0065030046 0.0004183659 -0.008873268 0.018690433 0.018926501 0.0110428715 -0.017114284 -0.012116465 0.01893542 -0.008414431 0.091501266 -0.045888405 -0.01895616 0.027680557 -0.029138409 0.043201882 0.013335282 0.044234242 0.013107042 -0.016146787 -0.02871807 -0.021131815 -0.021501778 0.0017520854
67 0.046892304 -0.006407025 -0.08215796 0.047247242 -0.07195132 0.022496432 0.06117403 0.048515376 0.0053068767 -0.049237546 0.0016141254 -0.061572548 -0.026897132 0.005642302 -0.024552122 0.018489614 -0.025393384 -0.0038100907 0.010697192 -0.012487021 -0.0028864963 0.02653399 -0.03967382 0.009122212 0.059677493 -0.015645353 0.000717626 -0.0019303899 -0.022194497 0.020724392 0.025690787 0.0156194335 -0.020460013 -0.022486992 0.01375849 -0.010542011 0.09854653 -0.048560146 -0.004455463 0.030217987 -0.035037696 0.047849458 0.03261274 0.0474922 0.009827934 -0.016527632 -0.024493571 -0.029255886 -0.011654777 -0.0013039474
322 0.051651772 -0.021435907 -0.093434125 0.042692415 -0.074989595 0.020350032 0.06899701 0.047319148 0.017251333 -0.047860336 -0.0048252633 -0.064387284 -0.020899188 0.009148913 -0.037758615 0.015095939 -0.031483512 -0.017177727 0.011321394 -0.0024485195 -0.0036038628 0.013153663 -0.05448249 0.006370155 0.05585694 -0.0052659656 -0.013403871 0.00091553247 -0.017595746 0.018782832 0.027209044 0.003989956 -0.0120959915 -0.020854278 0.012553966 -0.01646234 0.10632322 -0.05814164 -0.017836161 0.024759233 -0.039625853 0.040364433 0.028670438 0.0381142 0.01535121 -0.013188443 -0.013311424 -0.01973886 -0.015976261 0.004999346
119 0.037224896 -0.021122506 -0.069657825 0.039137285 -0.058096223 0.010148264 0.06256164 0.033986807 0.018078322 -0.051005013 -0.0051758518 -0.06584682 -0.015836723 0.0063838684 -0.03456835 0.0068543367 -0.020960102 -0.018372979 0.0028939047 -0.006362348 -0.0009595449 0.005548614 -0.041690394 0.0077151265 0.043428134 -0.019732585 -0.013324618 -0.008856879 -0.014820024 0.004654588 0.014632907 0.01641256 -0.012560667 -0.028724734 0.007219835 -0.012995297 0.08801168 -0.054700926 -0.0068720714 0.0327579 -0.041409656 0.049857605 0.013303389 0.040064987 0.013416125 -0.029297918 -0.028221888 -0.011873756 -0.010604516 0.015717685
21 0.034043618 -0.0041145976 -0.07108549 0.041445095 -0.051836923 0.016146282 0.039958954 0.0236681 0.009073252 -0.03410232 -0.007434916 -0.04893286 -0.026207348 0.010652096 -0.026457703 0.009480708 -0.013554755 -0.000644442 0.0032193144 -0.009694201 0.0041476716 0.005471208 -0.026853321 0.0097363815 0.046118695 -0.0069286046 -0.012936896 -0.003201641 -0.0068090735 0.0010455741 0.026492763 0.0036748766 -0.018802848 -0.02038065 0.017883161 -0.017129293 0.07596215 -0.039341807 -0.013361443 0.022885604 -0.02968547 0.040242005 0.02220981 0.03492074 0.016167555 -0.008193846 -0.020606404 -0.010321191 -0.012215122 0.014949503
271 0.03322817 -0.016120786 -0.060140334 0.0438326 -0.05546786 0.023085944 0.037492596 0.02511653 0.011105354 -0.028709026 0.0032559864 -0.047969915 -0.011787552 0.018786121 -0.013571707 0.011027849 -0.02833231 -0.010705178 0.0010354292 -0.012046712 -0.0071025565 0.01610195 -0.042815693 0.008002999 0.034296446 0.0012489966 -0.015720557 0.001828271 -0.016503673 0.017491123 0.012573533 0.006349456 -0.012592596 -0.017258827 0.011026808 -0.014650484 0.070408344 -0.03657462 -0.015871491 0.023156924 -0.037283495 0.027770523 0.017124625 0.039917983 0.013849483 -0.01729261 -0.02567787 -0.01747382 -0.018817011 -0.00082336087
239 0.028756617 -0.019771166 -0.07230305 0.039069574 -0.038978465 0.013104966 0.041926954 0.03156135 0.012923019 -0.03767501 0.0046595964 -0.05253188 -0.0128679685 0.012828961 -0.019830156 0.0014420135 -0.017771857 -0.001155255 0.0054745157 -0.0052115032 -0.004905245 0.016821563 -0.036527492 0.007016671 0.05123083 -0.00069447176 -0.0022628366 0.0015465718 -0.014384167 0.018594256 0.012802661 0.014515978 -0.009554307 -0.012282928 0.012821854 -0.01663242 0.07827276 -0.0371514 -0.01872943 0.011583766 -0.03481793 0.024336308 0.027118132 0.029217618 0.013669743 -0.012162785 -0.02096007 -0.010363478 -0.019737976 0.0047227847
200 0.037203114 -0.01828239 -0.064480774 0.024097724 -0.052219298 0.005078687 0.033151686 0.037960205 0.002520789 -0.028805522 -0.0070030657 -0.051573437 -0.023239948 0.015243143 -0.013320425 0.0034387165 -0.026251698 -0.017718788 -0.002318452 0.0013357007 0.0020782647 0.020741044 -0.040868156 0.0067553283 0.028462866 -0.0073332316 -0.0011798909 0.0039441767 0.00045099267 0.0051063476 0.009693681 0.009971077 -0.0047749225 -0.015709136 0.012002672 -0.006302478 0.06308127 -0.029339325 -0.014815832 0.014038857 -0.032452554 0.028223906 0.016906427 0.025185574 0.012799895 -0.014513867 -0.017369924 -0.01442407 -0.011810802 0.015859174
122 0.027115978 -0.0057212063 -0.056337297 0.037447475 -0.038692966 0.0059933085 0.026519379 0.03355529 0.014141327 -0.020007102 -0.0058329734 -0.036370367 -0.025806418 0.015118724 -0.012740413 0.015871122 -0.009225287 -0.0027707112 0.004829236 -0.012155183 0.0046421126 0.0099284565 -0.031325985 -0.002153397 0.037267957 -0.013651543 -0.005646087 -0.009081193 -0.0066881916 0.0013581143 0.0091181155 0.0027135198 -0.013036852 -0.023782074 0.010833922 -0.003715721 0.06763296 -0.024590818 -0.010098513 0.016245207 -0.014613726 0.022031017 0.01983396 0.026858995 0.017192042 -0.017644113 -0.0049470463 -0.011827324 -0.01443086 0.005600824
56 0.044802684 -0.0183073 -0.090674624 0.05088508 -0.064557195 0.016668415 0.05549603 0.03859981 0.02023176 -0.051054314 -0.012344491 -0.061350945 -0.020708352 0.014761109 -0.027198931 0.015867516 -0.022587264 -0.0152355805 0.01276815 -0.001170528 0.0031650865 0.018407704 -0.04430651 0.011475973 0.05141904 -0.007907249 -0.0053180414 -0.0076242755 -0.018566433 0.017446008 0.026902087 0.0032839726 -0.016560579 -0.014532976 0.018203171 -0.017177004 0.099931374 -0.052507468 -0.0076145073 0.03155827 -0.033705316 0.046134837 0.017435735 0.04273391 0.018847333 -0.017114896 -0.022363072 -0.026895639 -0.02242402 0.014040786
312 0.03375583 5.4971082e-05 -0.0792676 0.042415712 -0.04293819 0.017382054 0.05692488 0.03713544 0.00677385 -0.044641137 -0.002770473 -0.05772803 -0.029158227 0.0030428215 -0.022031926 0.016910411 -0.021652203 -0.0012538816 0.01018077 -0.012407816 -0.011280152 0.0052778106 -0.045800727 0.013123275 0.051333163 -0.0016149357 -0.00046142307 -0.018555142 -0.021959761 0.015209593 0.033726692 0.016327966 -0.01735433 -0.025512135 0.011610364 -0.0075852284 0.082287975 -0.044714287 -0.003676426 0.02792127 -0.034826998 0.035495277 0.025546271 0.041999087 0.015503632 -0.009075726 -0.027831217 -0.023234373 -0.01157474 -0.0014505392
304 0.042508204 -0.021227038 -0.07456297 0.039441463 -0.05917445 0.008593993 0.04298049 0.041375507 0.020547476 -0.03197334 0.0026133892 -0.049893253 -0.015545507 0.007047197 -0.029224813 0.0081406 -0.014269129 -0.0116582 0.01257096 0.0044278745 -0.010688785 0.009130798 -0.036871452 0.0102599505 0.046657853 -0.001486445 -0.012969274 -0.00055898563 -0.016441036 0.003329775 0.02746656 0.0103258155 -0.023348246 -0.013776305 0.012201841 -0.01620527 0.09042749 -0.04769373 -0.016067233 0.024249336 -0.03957452 0.040429793 0.01714421 0.036890626 0.0058433525 -0.014430397 -0.02521439 -0.017904138 -0.0086965095 0.012058192
203 0.035732266 -0.011046585 -0.067624226 0.036627673 -0.049410928 0.019227397 0.050447527 0.035889726 0.012304604 -0.03933957 0.0024230443 -0.04793382 -0.023709992 0.012035914 -0.015344142 0.010867782 -0.016504187 -0.00773339 0.005192186 0.0034107035 -0.004146283 0.013028369 -0.031416755 0.0039088125 0.045986652 -0.017373277 -0.008722805 -0.011587005 -0.0119610485 0.0033162683 0.023948984 0.005353115 -0.016360844 -0.013477486 0.01678784 -0.0023091524 0.074945204 -0.046191793 -0.010127832 0.02857542 -0.033113576 0.023261713 0.020144777 0.03906558 0.012843761 -0.015116631 -0.020931782 -0.016013095 -0.0103676235 -0.0021892092
115 0.04563552 0.00015174579 -0.06489242 0.031600684 -0.04949088 0.022312861 0.042688537 0.034403723 0.01461316 -0.047078516 0.0010884722 -0.056779664 -0.023359068 0.011381858 -0.018172294 0.008920882 -0.029712074 -0.017253056 0.008675861 -0.002491882 -0.0132742 0.011721201 -0.035887327 0.014903152 0.046428464 -0.006560956 -0.002384346 -0.0005841364 -0.014802517 0.0044956026 0.016691197 0.010912753 -0.014133608 -0.026892724 0.0024405664 -0.019403478 0.083529435 -0.035874903 -0.009465676 0.017983546 -0.03633672 0.038936656 0.016168417 0.04112326 0.0037675386 -0.021923454 -0.012520524 -0.015033201 -0.020569922 -0.0026122504
19 0.039706916 -0.021504171 -0.08808374 0.040837552 -0.06722727 0.010440743 0.06294923 0.031527728 0.021851953 -0.036475476 -0.0070634023 -0.06366662 -0.013713799 0.01871366 -0.027271139 0.002421384 -0.023329187 -0.010773667 -0.0012820609 0.0049674604 0.004413414 0.006850578 -0.050134107 0.0026682743 0.043289606 -0.0009380749 0.0022464646 -0.008698917 -0.007357535 0.01877348 0.01982704 0.01782827 -0.016610835 -0.022704838 0.0072721443 -0.013471607 0.097587205 -0.056284767 -0.011610003 0.02529793 -0.024229301 0.03766752 0.0189466 0.029572481 0.015954219 -0.020630455 -0.010386479 -0.017496873 -0.02114625 0.015057031
315 0.046453193 -0.02246341 -0.07034369 0.042574197 -0.05825453 0.01019183 0.059388954 0.03545866 0.020062296 -0.04129277 -0.007183618 -0.049958497 -0.02953709 0.0069517638 -0.030332403 0.0004918269 -0.030518385 -0.014787512 0.0050489306 0.0085341595 -0.0057558203 0.020304991 -0.046780344 0.0050448915 0.05482798 -0.014178152 -0.008086491 -0.00018751813 -0.011644752 0.002940549 0.02797393 0.0048693093 -0.02182673 -0.027276853 0.011786824 -0.020097008 0.097415835 -0.042992264 -0.0075758807 0.020452855 -0.03792491 0.03608587 0.0149733955 0.041510113 0.013322156 -0.013919613 -0.016048804 -0.02991808 -0.012411824 -0.0013802084
213 0.038176876 -0.019737087 -0.060082234 0.039514378 -0.04131238 0.014984462 0.049409654 0.028335487 0.008072566 -0.039168205 0.0028431641 -0.042016715 -0.018019112 0.012181538 -0.02311806 -0.0017040154 -0.025213605 -0.005064247 0.0011354871 0.008549173 -0.00067316974 0.005466386 -0.04092073 0.00019964113 0.045523033 -0.016223215 -0.009325242 -0.008736959 -0.008129362 0.016034108 0.010307412 -0.0034576315 -0.011783587 -0.006520088 0.0002029832 -0.0073822695 0.05880908 -0.029559596 -0.009836843 0.013410066 -0.026655484 0.03678174 0.023712872 0.033721562 0.009402865 -0.0057331533 -0.011053142 -0.022919005 -0.005750639 0.012111465
23 0.03993542 -0.019340493 -0.07675198 0.039156597 -0.059217185 0.011482806 0.06502135 0.03505732 0.0040855673 -0.049910255 -0.008312512 -0.060586724 -0.022444071 0.00916143 -0.01769382 0.0023687435 -0.01809956 -0.01842561 0.0031499732 0.008553715 -0.008042958 0.023328962 -0.047622696 0.01211985 0.055252578 -0.001790316 0.002452675 -0.013958662 -0.003192869 0.007946776 0.03146394 0.013702556 -0.018404782 -0.022504348 0.003653532 -0.01864995 0.08836809 -0.040075183 -0.0018475966 0.03000998 -0.04001053 0.034167487 0.016424403 0.028344443 0.01509228 -0.02242009 -0.018370468 -0.016058903 -0.01594056 0.01021431
175 0.038990166 -0.005754098 -0.078357324 0.049970564 -0.06275093 0.016954876 0.05970072 0.042788744 0.02317062 -0.05098354 -0.00077953265 -0.052162778 -0.018635131 -0.0015744918 -0.024700327 0.0076294355 -0.02916718 -0.0026789813 -0.0032656845 0.008393328 -0.000982232 0.016354209 -0.045349613 0.0044843554 0.046233553 -0.01983705 0.0055157677 -0.0009064825 -0.0029365749 0.011659542 0.02261094 0.004106629 -0.004610548 -0.018694282 0.0105444 -0.0077876844 0.098929204 -0.045102566 -0.011291482 0.01572267 -0.022283284 0.032165874 0.024311451 0.034008965 0.009770294 -0.028955543 -0.02586144 -0.024990663 -0.013966522 0.015453017
277 0.032015894 -0.017713076 -0.054898366 0.03758334 -0.039843887 0.011641654 0.032368798 0.027923828 0.0029651516 -0.034028716 -0.0015759807 -0.03773569 -0.014531315 0.01549862 -0.017115427 -0.0016179021 -0.009122173 -0.008315558 0.0076383324 -0.004220101 -0.0043118624 0.0036916642 -0.03864302 0.0034586878 0.031387746 -0.011404441 -0.0015606206 -0.01059677 -0.004517914 0.007844858 0.023901232 0.003694726 -0.012948178 -0.01580872 0.008039686 -0.014217139 0.07982449 -0.04201265 -0.011878657 0.024438366 -0.020360963 0.032232314 0.022932934 0.023418741 0.008081978 -0.011265441 -0.022591345 -0.021270616 -0.01344885 0.011905113
26 0.026504673 -0.019309627 -0.06002924 0.036754835 -0.054989323 0.01424928 0.039930135 0.03388355 0.008161745 -0.03862068 0.0019382813 -0.04387259 -0.013713046 0.017479047 -0.021434162 0.005313186 -0.021672932 -0.019155001 0.0033039858 0.0011943253 -0.0028002048 0.01926938 -0.026700336 0.0137780225 0.030077914 -0.00066275895 -0.006825485 -0.002017022 -0.007867585 -0.0007465817 0.016911937 0.015445795 -0.018632721 -0.009752532 0.0078064753 -0.01610546 0.06694803 -0.035446472 -0.010935691 0.018141588 -0.020541683 0.03947818 0.025668005 0.02489731 0.016118102 -0.024240628 -0.020577641 -0.022319706 -0.008387394 0.002524685
188 0.024639834 -0.0023877635 -0.061940633 0.028350294 -0.042335562 0.003097681 0.040222418 0.034098823 0.016113587 -0.02912701 0.005100334 -0.046988927 -0.025646465 0.01393312 -0.01708377 0.012859351 -0.015361082 -0.000918177 0.012006256 -0.0054006795 0.0045450814 0.014802356 -0.023022458 0.007111163 0.040390674 -0.016404817 -0.009108777 0.003654778 -0.0042991214 0.008814892 0.018302597 0.005977419 -0.019760668 -0.020046744 0.00021977565 -0.009953783 0.06778501 -0.04354136 -0.019336594 0.017693976 -0.02957134 0.020671275 0.015577012 0.024002867 0.010760379 -0.009393689 -0.005929104 -0.014917064 -0.006109597 -0.00090435805
41 0.023846533 -0.0048566223 -0.06686716 0.031031627 -0.040602926 0.015036014 0.042370215 0.032082856 0.01862029 -0.03859567 0.00047427163 -0.04120325 -0.020742524 0.00599464 -0.013065338 0.006851977 -0.023112265 -0.01748724 0.00783577 -0.006787739 -0.011235239 0.015280636 -0.0444836 0.012451186 0.032479603 -0.009214222 0.0021754145 -0.0036290865 -0.01648491 0.010450372 0.017489923 0.01577502 -0.0072645876 -0.0116484845 0.0103899315 -0.007788323 0.08514339 -0.040850002 -0.01639396 0.016681032 -0.032673087 0.029186714 0.0100202 0.036977224 0.019494103 -0.010262416 -0.015127346 -0.01337125 -0.022983057 0.0014394906
118 0.024410687 -0.008625218 -0.061379537 0.04285348 -0.054383807 0.018867195 0.035591356 0.02952141 0.005885998 -0.03787035 -0.0035200217 -0.056872573 -0.02751925 0.012083854 -0.030123504 -0.0010914298 -0.017802091 -0.014141542 0.0061346865 0.006626905 -0.0052443603 0.016126215 -0.047415253 0.016766865 0.04230686 -0.016155595 0.000552628 0.0015389696 -0.003404666 0.017972894 0.026956344 0.016775506 -0.013484541 -0.016693057 0.009905841 -0.017210044 0.088871546 -0.042632014 -0.015213052 0.021949787 -0.029485745 0.029468143 0.023977416 0.039599326 0.0076995906 -0.016266743 -0.023581723 -0.01591963 -0.017887061 0.010418844
9 0.03471766 -0.012461305 -0.07660226 0.033662394 -0.046621095 0.016732201 0.0454626 0.042435084 0.003325667 -0.037271976 0.004602831 -0.06307153 -0.031178284 0.004475059 -0.016541755 0.009165877 -0.0126565825 -0.02071544 0.009699333 0.0060601505 -0.010265153 0.01837263 -0.04897166 0.008259894 0.04942166 -0.0077294605 -0.006508408 -0.016520245 -0.011385703 0.0015337546 0.017893704 0.0029498842 -0.0149027975 -0.016223803 0.008781451 -0.010829187 0.08664854 -0.048731264 -0.01811362 0.016633308 -0.029977765 0.033832382 0.013613682 0.04389204 0.0043803505 -0.012168119 -0.023411993 -0.015342958 -0.019149128 0.008353688
169 0.036034632 -0.013437384 -0.06277501 0.028872972 -0.03946542 0.014503803 0.050708115 0.04141082 0.00979855 -0.029273337 0.0058965785 -0.05240777 -0.010681696 0.010377666 -0.01900895 0.0049904683 -0.015296731 -0.0118024675 0.0035250785 0.0062486962 0.00022304775 0.020797951 -0.02999003 0.003481595 0.043570444 -0.004511685 -0.0042314744 0.0030528342 -0.019886857 0.018438403 0.017840277 0.012305019 -0.013420442 -0.017780792 0.015087262 -0.0114709595 0.079921484 -0.03690624 -0.015597288 0.015008498 -0.016491102 0.029891232 0.009355939 0.040625267 0.001083107 -0.010990073 -0.011186401 -0.023111701 -0.004546748 0.015112504
170 0.027740158 -0.008812635 -0.07074098 0.03469265 -0.04897028 0.016514994 0.0420894 0.03174069 0.01104346 -0.03741706 0.005627621 -0.041330285 -0.022179026 0.017507691 -0.029940167 0.01011216 -0.010185507 -0.014938695 -0.00030935372 -0.005472934 -0.004594055 0.013107736 -0.038508255 0.0059652654 0.045863792 -0.0068217106 -0.0053335964 -0.010228724 -0.016273832 0.006366209 0.019091232 0.0051368843 -0.012155451 -0.018773243 0.012332907 -0.004775882 0.074253105 -0.035958845 -0.016825195 0.021378336 -0.033561703 0.03879956 0.019289559 0.020253176 0.00946068 -0.010972232 -0.023544777 -0.007868564 -0.014795179 0.0012226437
109 0.024009716 -0.0047172946 -0.06119337 0.020490956 -0.037681494 0.017179068 0.03179703 0.026177531 0.019275915 -0.03704211 0.0021443078 -0.04315581 -0.009471485 0.0015368516 -0.012733287 0.014520739 -0.022665143 -0.012412553 0.0039738324 0.004862098 -0.0063535897 0.012056362 -0.027713556 0.0014048786 0.04054596 0.0014285122 -0.0068038814 0.0016757731 -0.004906705 0.01675596 0.020552209 0.011941676 -0.01915955 -0.02381148 0.01458194 -0.009127926 0.07029912 -0.025092514 0.0012581781 0.02089799 -0.02063885 0.026668081 0.009701299 0.018787483 0.0049563046 -0.013168603 -0.010992776 -0.01757759 -0.020990051 0.00094877585
53 0.04660878 -0.02119029 -0.07260986 0.035673667 -0.04711973 0.016300447 0.053554922 0.04276145 0.017195622 -0.042575754 0.0060091824 -0.05721776 -0.027428733 0.0066871853 -0.018436212 0.014933369 -0.01304543 -0.008744101 0.0013370127 0.002596703 -0.008510677 0.0077298717 -0.032842137 0.0129237175 0.044419676 -0.006150189 -0.016020024 0.0018576288 -0.007651153 0.010511091 0.01418358 0.00061229034 -0.022457574 -0.024494503 0.007902293 -0.006433209 0.08917199 -0.048594296 -0.01116717 0.014334044 -0.023581931 0.03577405 0.02494822 0.026116204 0.01117378 -0.025539033 -0.023821397 -0.011317289 -0.015061478 -0.00045602125
252 0.02382264 -0.0008882954 -0.05379728 0.035562012 -0.051964052 0.009757102 0.04519278 0.020476125 0.0035115697 -0.03869189 -0.008791839 -0.05267229 -0.018688437 0.016394835 -0.024559729 0.014764535 -0.018841501 -0.016551515 0.0032775446 -0.0024850299 -0.009074808 0.0031609023 -0.028775081 0.01384487 0.027474722 0.0014908545 -0.0071295467 -0.0061094267 -0.016728893 0.0007960528 0.008440846 0.004547972 -0.018376734 -0.007095904 0.00083169783 -0.0104412595 0.06043656 -0.041232996 -0.006200007 0.019151058 -0.03155513 0.034110367 0.017799497 0.03646343 0.008743093 -0.016776517 -0.022853933 -0.011329843 -0.017773915 0.008151342
272 0.026881967 -0.010497203 -0.06393675 0.039940707 -0.04146934 0.010394488 0.047989048 0.027972646 0.0028478228 -0.037603077 -0.009952161 -0.044867344 -0.018084295 0.009840162 -0.0141066145 0.0026367411 -0.015970426 -0.015154923 0.011137687 -0.0041211667 -0.0032249165 0.0133593455 -0.02633173 0.0019200862 0.036717292 -0.013873645 0.0033560668 -0.010968533 -0.014071766 0.0032906444 0.027919736 0.0025323615 -0.016891735 -0.019489888 0.011449649 -0.0056176996 0.080779836 -0.037363395 -0.01945699 0.021769177 -0.027159292 0.041097693 0.019490607 0.035521403 -0.0010433154 -0.017468104 -0.023472834 -0.0203949 -0.00459362 0.0052165333
199 0.037088893 -0.018056823 -0.06840899 0.022404278 -0.04650257 0.0059770974 0.031894214 0.029449876 0.005437632 -0.0402779 -0.0009884523 -0.040483512 -0.020097615 0.0063991253 -0.011835096 0.015887627 -0.018435322 -0.008268625 0.00015764455 -0.008806695 -0.00073005917 0.019996593 -0.026644697 0.010500188 0.04109812 -0.00804772 -0.010416514 -0.011856288 -0.0060611456 -0.0008094314 0.013232019 0.0067309556 -0.0053651566 -0.023224812 0.016549334 -0.0026295113 0.07598172 -0.036338497 -0.011444539 0.025810145 -0.016878694 0.024824686 0.020774258 0.026333097 0.01193763 -0.007899774 -0.010547553 -0.019027496 -0.018016461 -0.004755862
172 0.037072033 -0.017272722 -0.07622338 0.035984416 -0.045366704 0.01579514 0.041983802 0.033521775 0.019555463 -0.04062951 -0.011689201 -0.055078495 -0.030190986 0.015541937 -0.026523575 0.00028927758 -0.021172298 -0.0076493747 -0.00093276816 -0.009340003 -0.009932913 0.00855992 -0.040545218 0.012189547 0.04797213 -0.014789917 -0.00093678443 -0.01179056 -0.015917083 0.019245077 0.012300778 -0.0011227106 -0.004135927 -0.016554356 0.012913731 -0.01887711 0.07868294 -0.045339197 -0.0191952 0.020323697 -0.02935461 0.03349938 0.023777626 0.035500403 0.0119870575 -0.006504789 -0.025567029 -0.026882445 -0.01331568 0.005689774
40 0.028054956 -0.0043491437 -0.05545107 0.039038274 -0.03707605 0.003029229 0.04257824 0.02288545 0.009277858 -0.030017843 -0.002446686 -0.04071391 -0.020119019 0.013195331 -0.027203385 0.010936843 -0.020679051 -0.010728618 0.00670028 -0.0054851314 -0.0017649602 0.016404081 -0.028112281 0.0026695074 0.029851586 -0.0138974115 0.00037096592 -0.0033294526 -0.010954778 0.010970635 0.022416197 0.01335713 -0.0037914002 -0.020038454 0.016880386 -0.0011800304 0.061066855 -0.029748145 -0.0049653305 0.014780469 -0.026263772 0.02587332 0.0077281487 0.028060894 0.00026947664 -0.01240329 -0.021447513 -0.014383273 -0.0038205471 0.013299587
91 0.043938957 -0.005761226 -0.07903943 0.035844237 -0.059560306 0.002347839 0.05910303 0.045621574 0.004211875 -0.026268024 0.0022987071 -0.039819468 -0.013671609 -0.0021061976 -0.016322847 0.011349465 -0.010632304 -0.016917674 -0.0030666743 -0.009116568 -0.00981411 0.022902327 -0.050366893 0.002798209 0.030992169 -0.0030467098 0.002479677 -0.0044304477 -0.013798791 -0.0020529777 0.011252374 0.0026613243 -0.015398879 -0.019487545 0.012945171 -0.009914358 0.078217775 -0.047478184 -0.0067792553 0.018803991 -0.039978553 0.044479147 0.008772626 0.04095959 0.00819772 -0.032635566 -0.0082827555 -0.026714506 -0.0026805107 -0.001835982
329 0.042361315 -0.008304145 -0.07161194 0.044374295 -0.048590783 0.018088464 0.057457 0.02678288 0.020086389 -0.03402855 0.003927002 -0.058669273 -0.026648453 0.017334748 -0.020588607 -0.00046281933 -0.015519215 -0.012609085 0.009866861 -0.00039675363 -0.0025778743 0.01636745 -0.03238732 0.015278949 0.050485205 -0.0068571167 -0.015711142 0.001016347 -0.013918704 0.014829409 0.02737347 0.011117243 -0.0073782243 -0.008213474 0.019142188 -0.004139365 0.08240308 -0.039699513 -0.013341811 0.016224392 -0.025772355 0.029484196 0.017466871 0.025056126 0.007931223 -0.025726737 -0.02057669 -0.013938519 -0.019481469 0.00374708
261 0.0367127 -0.0003451209 -0.06003576 0.02551992 -0.04343784 0.019015498 0.04365637 0.023383647 0.014789804 -0.040241003 -0.012789027 -0.048631534 -0.01509057 0.008056156 -0.013450202 0.0019353555 -0.015511911 -0.006538333 0.0005240882 -0.012311148 -0.010847354 0.02045142 -0.042053226 0.006707505 0.045296844 -0.017065473 0.0020076134 -0.0068456545 3.4122793e-05 0.014538062 0.024809264 0.007186376 -0.019339446 -0.011790702 0.004453366 -0.015423632 0.06174615 -0.028345162 -0.017112415 0.01417444 -0.019301219 0.020536715 0.021974245 0.018415293 0.016548267 -0.00580178 -0.017069729 -0.01742127 -0.014497238 0.0118237
332 0.023298418 -0.008893943 -0.062207777 0.027483918 -0.03673725 0.011635672 0.034615558 0.027616728 0.0050987634 -0.038097758 -0.011254303 -0.042769924 -0.014279685 0.009960384 -0.024587503 0.010841124 -0.017403519 -0.009720288 0.009860458 -0.0040011634 5.433921e-05 0.013396535 -0.031708203 0.016491946 0.035277143 -0.009528022 -0.012009875 0.00185899 -0.0027627293 -0.0002934667 0.01605833 0.014279923 -0.015529748 -0.017273221 0.005792107 -0.01726909 0.06646182 -0.038024373 -0.0007709099 0.01656376 -0.01644634 0.032661032 0.0074774926 0.018071245 0.007949305 -0.0086825555 -0.016622389 -0.01102088 -0.019982714 0.012112044
227 0.043070626 -0.019750468 -0.066777624 0.043213505 -0.060339406 0.0028356183 0.057227496 0.027618287 0.01723895 -0.03411688 -0.010817349 -0.056025773 -0.026702669 -0.0022405365 -0.02224694 0.005882552 -0.015604102 -0.007940347 -0.00023031297 0.01007079 -0.014507333 0.013419768 -0.040144637 0.017444469 0.049693312 -0.011405199 -0.0062227747 -0.004992028 -0.020343225 0.006388763 0.022191439 0.012619348 -0.013541118 -0.0096837925 0.0061707175 -0.011069381 0.089718856 -0.04382477 -0.01533556 0.017153883 -0.036127847 0.034444474 0.011912502 0.03436796 0.01749904 -0.009552688 -0.012178354 -0.017767323 -0.02015145 0.015428442
230 0.03205045 -0.008268937 -0.081927784 0.04923704 -0.04701423 0.022319378 0.05232076 0.03917201 0.016965585 -0.05139332 -0.008399372 -0.06500198 -0.030846385 0.0015702472 -0.01724697 0.019422892 -0.030939406 -0.0017880087 -0.0028825137 -0.00023337027 -0.010998325 0.017778398 -0.049391363 -0.00055413315 0.055512127 -0.010606892 -0.007660599 -0.01831954 -0.011201214 0.016936764 0.024920454 0.012580201 -0.010826993 -0.016924465 0.0047481493 -0.018291492 0.0981736 -0.047236335 -0.016630175 0.0324224 -0.021531256 0.03305889 0.012769711 0.038456697 0.018069714 -0.013869894 -0.020352155 -0.025027692 -0.021847066 0.0062611937
98 0.036001183 -0.012914707 -0.06993859 0.033266194 -0.046876702 0.019016262 0.042981155 0.039633803 0.00052320154 -0.040785626 0.0033950733 -0.05788921 -0.01992024 0.0046038725 -0.019922411 0.0029620496 -0.02430627 -0.011331201 0.012325654 0.006323435 -0.0023631963 0.004191652 -0.04537034 0.011199902 0.04015398 0.00042890303 -0.0077567943 -0.0040977728 -0.00951005 0.018154768 0.025879422 0.007083551 -0.0194945 -0.017033933 0.012734771 -0.0050751907 0.07819663 -0.028418113 -0.019215167 0.016281446 -0.022680612 0.0225747 0.023835383 0.03073748 0.013857892 -0.01917177 -0.022717174 -0.018358476 -0.019636132 -0.0012736939
142 0.03327596 -0.017531144 -0.06255718 0.02750478 -0.039239205 0.005895945 0.040769823 0.034454435 0.01976 -0.041919224 0.0043706982 -0.042596396 -0.02802552 0.0021199284 -0.012300935 0.004967124 -0.012401054 -0.0033699835 0.002499757 -0.004688451 -0.011868858 0.002207909 -0.039060492 -0.00034343536 0.027469084 -0.009632586 0.0030519224 -0.007843932 -0.00805685 0.016180612 0.010387148 0.01031231 -0.01832746 -0.01683802 0.009597599 -0.00027702737 0.07448977 -0.040572025 -0.019196546 0.009098083 -0.028538715 0.020063201 0.01986558 0.034736305 -0.0010860359 -0.0054031783 -0.022634594 -0.021565277 -0.013178229 -0.003419937
285 0.025828296 -0.0054706703 -0.064528756 0.03656612 -0.05145342 0.013967992 0.047601778 0.021475077 0.009757172 -0.030939888 -0.0028640355 -0.037263338 -0.0193063 0.011755719 -0.030189993 0.010235101 -0.014929741 -0.003698506 0.014309892 0.0042689317 -0.003930829 0.014354385 -0.039437085 0.012749384 0.045570888 0.0011948666 0.002145771 0.0016879692 -0.008088533 0.014160469 0.025994942 0.005254896 -0.00802448 -0.018150318 -0.00043911068 -2.0811023e-05 0.06539886 -0.041190363 -0.0013050243 0.007898655 -0.026412115 0.03742077 0.016445262 0.021710573 0.0036660612 -0.010977653 -0.019608295 -0.01643794 -0.020909915 0.010458002
291 0.022098672 -0.010476504 -0.06876549 0.038458128 -0.040781423 0.015611421 0.044189967 0.03707342 0.0042957603 -0.03241171 -0.0036345248 -0.053974584 -0.02435912 -0.0023312492 -0.0177264 0.009267039 -0.027578872 -0.00027415017 0.005902748 0.004067982 0.004509927 0.019360078 -0.04323204 0.0052175648 0.034590416 -0.003193568 -0.005977366 -0.0064936583 -0.011574608 0.0069581615 0.019053373 0.013315583 -0.008047703 -0.011058131 0.016092332 -0.018708842 0.0715226 -0.043231152 -0.017731126 0.021392807 -0.027855923 0.033555277 0.017983917 0.022571452 0.00025647995 -0.024818301 -0.013678451 -0.0129557485 -0.0108388355 0.007386812
224 0.032315463 -0.00558578 -0.052886143 0.033963844 -0.046281338 0.017822834 0.031369295 0.03133522 0.010500962 -0.032365635 -0.011296524 -0.045023244 -0.02550155 0.016311599 -0.015866658 0.00448163 -0.015322309 -0.016293082 0.0038314266 -0.0038713617 -0.004412882 0.0019177167 -0.03961519 0.011747095 0.028516158 -0.012431051 -0.0141102625 -0.007509661 -0.0033215582 0.0065332074 0.022048965 0.0052007106 -0.01600113 -0.013290507 -0.00017942408 0.00025490357 0.06919636 -0.028074995 -0.016250119 0.011033812 -0.01896123 0.030654388 0.014615155 0.02926332 0.0061901156 -0.0032456948 -0.014494679 -0.0237893 -0.0018700481 0.015012471
313 0.034285415 -0.015612959 -0.060093995 0.024385067 -0.048842784 0.019183192 0.04001647 0.027435197 0.0072996034 -0.03806205 -0.00093711296 -0.0322126 -0.013363567 0.0021705145 -0.02674833 0.010917373 -0.023009643 -0.0046126554 0.00536261 0.007855468 0.0017718051 0.010973247 -0.027717287 0.0043026875 0.023335975 -0.010480075 0.0017747318 0.001001127 0.0005132513 0.01420538 0.01022107 0.010320455 -0.018999958 -0.022761881 0.0029976359 -0.013396431 0.058075175 -0.035084203 0.0011465917 0.010234158 -0.028198868 0.031741645 0.021147158 0.021909546 0.0006047072 -0.0139853 -0.01340159 -0.017984485 -0.0028617696 0.000116667645
143 0.034451675 -0.009818164 -0.054945797 0.029528733 -0.05280737 0.0025284418 0.037674874 0.029501176 0.0077579673 -0.026444633 -0.006576175 -0.045794055 -0.01214217 -0.0032331739 -0.024692884 0.0012105178 -0.013292999 -0.0055085644 -0.0032078328 0.002848608 -0.00096226303 0.021871116 -0.027737206 0.006622981 0.03295353 -0.000716875 0.0023692779 -0.013391985 -0.012008615 0.0019847953 0.017017825 0.0025899978 -0.010195055 -0.025358774 0.011283496 -0.0050801313 0.08376315 -0.041562557 -0.0011381044 0.024877734 -0.022594137 0.03514956 0.004292258 0.039819185 0.008540767 -0.009716737 -0.017235823 -0.021028789 -0.011148256 0.0124604935
186 0.039679408 -0.012515202 -0.06379443 0.027589569 -0.05083737 0.0045152386 0.03460906 0.0352977 0.020407736 -0.042027418 -0.0092101535 -0.044321716 -0.028815767 0.01514485 -0.029595522 -0.0015627457 -0.019891929 -0.01118617 0.007273972 0.0019904042 -0.012076876 0.00697348 -0.041577883 0.014582552 0.039732244 -0.0074618743 -0.0028087313 0.00042985837 -0.011494727 0.01578876 0.021497782 0.0068042004 -0.0042485944 -0.016797323 0.0068926043 -0.0007375381 0.08047613 -0.031144388 -0.019694893 0.024251416 -0.027545528 0.03833784 0.01826729 0.028117133 0.008288238 -0.011000611 -0.018882357 -0.025363697 -0.023003986 0.005133942
31 0.028361784 -0.016728705 -0.06444587 0.041799497 -0.051510837 0.014453941 0.039836492 0.032329887 0.018492812 -0.025212975 0.0046029687 -0.055366624 -0.029285496 0.005157697 -0.023359524 -0.0011334306 -0.02280152 -0.00768271 -0.0012498267 0.004096406 0.0064666807 0.0019520902 -0.035855897 -0.0009478373 0.04550236 0.002588913 -0.003867681 -0.016087253 -0.01293205 0.000114468916 0.012770136 -0.00157212 -0.01596438 -0.023352636 0.012099908 -0.0004921464 0.07823102 -0.033289295 -0.007749683 0.013329688 -0.021919493 0.033729795 0.01193228 0.0356821 0.016865501 -0.013595139 -0.005548983 -0.023204397 -0.020681374 0.0042445287
323 0.02184611 -0.0048049768 -0.052826025 0.017986007 -0.04683419 0.0012110004 0.03417355 0.025696259 0.018297635 -0.039111067 -0.011500852 -0.04122552 -0.014004545 0.0012262176 -0.02194471 0.0028849016 -0.0066754804 -0.005864588 -0.0004896447 -0.0029931357 0.00667808 0.015317068 -0.027714893 -0.0007199518 0.024395064 -0.0062668375 -0.0056213657 -0.0006570619 -0.013989365 0.0038808587 0.018431852 -0.0011312965 -0.012702789 -0.0105189895 0.003329974 -0.009027879 0.058596026 -0.024425495 -0.017078238 0.017450947 -0.02621374 0.024185274 0.024681246 0.03476458 0.013907111 -0.011846162 -0.017800745 -0.007656788 -0.0144095775 0.0052520134
324 0.021577502 -0.0019318806 -0.06523527 0.038900353 -0.051622525 0.0053354856 0.039755218 0.032945223 0.012999858 -0.034425054 0.0038619821 -0.04967337 -0.020120703 0.0009794105 -0.01270131 0.007847661 -0.00793136 -0.010431687 -0.0058253054 0.0015854943 0.00063269766 0.012469906 -0.026265169 0.008921688 0.04330401 -0.003620154 -0.00819477 0.0036892907 -0.008475846 0.006028003 0.017839568 0.003126954 -0.013176915 -0.011219895 -0.001814823 -0.014442837 0.06810804 -0.0402647 -0.012835065 0.023994412 -0.017452408 0.026714366 0.013407849 0.017363679 0.0064623123 -0.009287292 -0.013404597 -0.009915715 -0.01469829 0.008633109
113 0.034523297 -0.016044091 -0.047811072 0.028045097 -0.040684313 0.011579979 0.03325303 0.020906541 0.011608457 -0.04023733 -0.008916178 -0.039022386 -0.021955987 0.013964419 -0.024841923 0.014838271 -0.022324651 -0.0028456266 0.01014683 -0.0009362009 -0.0042406763 0.014843061 -0.036323678 0.007913298 0.037210807 5.533505e-05 0.0010512419 0.0040009217 -0.008639063 0.01162549 0.014559301 0.014121261 -0.015144955 -0.02324448 0.012868598 -0.009859492 0.061718326 -0.038691446 -0.0019881818 0.017254088 -0.01657702 0.024367701 0.012998967 0.032944243 0.006535565 -0.012763225 -0.0044705337 -0.021560963 -0.021446016 -0.0017097084
299 0.04361022 -0.020866774 -0.073820926 0.042751893 -0.057693254 0.0153581165 0.03900729 0.039234698 0.013903759 -0.035211414 -0.009799737 -0.0475219 -0.022034977 0.0025325 -0.028165508 0.014980005 -0.02557472 -0.005157853 0.00971921 -0.009866552 -0.00668793 0.017530056 -0.037101492 0.015092338 0.045951426 -0.009050428 -0.015632166 -0.0046296264 -0.0071704476 0.0032881163 0.021708822 0.004670236 -0.014012635 -0.024825899 0.016184349 -0.00058094173 0.077961214 -0.030468304 -0.009016664 0.017899588 -0.029978372 0.023642078 0.025593767 0.02784709 0.016913556 -0.012525657 -0.00915155 -0.011915521 -0.0065788697 0.0025559014
192 0.040984347 -0.014661795 -0.059973475 0.021384746 -0.057510484 0.018748175 0.039564252 0.038065564 0.004850986 -0.039961718 -0.0078067617 -0.04597058 -0.027082533 0.008290536 -0.027519267 0.017088082 -0.010140779 -0.0065031354 0.014739329 -0.010038555 -0.0138289565 0.0038195865 -0.040846907 0.0028569752 0.04034316 -0.007779647 -0.00057548785 -0.013514459 -0.003936007 0.0013016749 0.01620332 0.0073686554 -0.0007404119 -0.012636231 0.015912393 -0.018644542 0.0703646 -0.04651522 -0.0021739472 0.023829728 -0.016190384 0.04065443 0.019136338 0.021399613 0.0063043456 -0.021785105 -0.02394209 -0.027053822 -0.017794855 0.007216356
149 0.036119793 0.0020095883 -0.06370724 0.0197506 -0.02771865 0.0122155985 0.04002672 0.024975056 -0.000712396 -0.03423301 0.0023451615 -0.03636952 -0.02049729 0.009585481 -0.018485315 0.008372917 -0.015087626 -0.01205329 0.013017372 -0.0028963846 -0.008242848 0.006999387 -0.03489507 0.014897248 0.03832545 -0.0072452477 -0.007851022 -0.014006504 -0.0066584586 0.009712997 0.02586241 0.01683945 -0.0054913876 -0.016265493 0.0076320698 -0.005289636 0.065018445 -0.040419407 -0.0033508684 0.014549123 -0.010773605 0.021690417 0.0041026287 0.033615552 0.0119647 -0.0057815784 -0.0061301496 -0.01895889 -0.011792953 -0.0034879
8 0.040020574 -0.0051454324 -0.081836015 0.036910255 -0.045450587 0.017422548 0.051413443 0.039828368 0.010469165 -0.031477634 0.00205669 -0.050286423 -0.016801625 0.00027480777 -0.017491557 0.020149922 -0.008659708 -0.0130240265 0.009341939 0.0041694185 -0.0019373073 0.025678534 -0.043106966 0.014135921 0.044025652 -0.013513978 -0.004826558 0.002119822 -0.01774131 0.0022844626 0.028677676 -0.0016057481 -0.005789342 -0.027952585 0.0140110245 -0.01901776 0.07502842 -0.031848904 -0.021304362 0.01450622 -0.034081087 0.02656544 0.018240068 0.036706578 0.005973329 -0.032661676 -0.018603994 -0.018700754 -0.020442719 0.011193231
280 0.013024342 -0.0066215745 -0.053460676 0.015673773 -0.025489258 0.00026092774 0.027302459 0.01735695 0.016567634 -0.030767668 -0.008814597 -0.041126583 -0.01512692 0.0025008947 -0.008488202 -0.0014126374 -0.021186015 -0.012812003 0.0047761127 -0.00016289405 -0.000854297 0.0143013345 -0.032939162 -0.0010974875 0.024446875 -0.0070197578 -0.007854071 -0.003297533 0.0009945058 0.015173351 0.0078163855 -0.0038766174 -0.019061895 -0.011615111 0.015250531 -0.010934167 0.045353815 -0.022701234 0.0012802714 0.021211874 -0.024211913 0.012844866 0.009348544 0.024391368 0.0068358066 -0.019542009 -0.008757035 -0.021898072 -0.016000489 0.0042374395
104 0.03842785 -0.003347547 -0.06616202 0.034672182 -0.048361924 0.018857084 0.04592059 0.029887492 0.0030548237 -0.038937196 -0.008656284 -0.05066842 -0.016627021 0.0013712071 -0.017879283 0.0070651746 -0.010480327 -0.0029725325 -0.0058326493 0.00016608817 0.0033693942 0.0054677343 -0.027250424 0.0055726375 0.034323435 -0.01129033 -0.0011058002 -0.01432972 -0.017705334 -0.00022024367 0.027495176 0.0030688837 -0.0044261855 -0.009927375 0.017714735 -0.0068240142 0.07051024 -0.036231678 -0.0076090824 0.016687613 -0.013753932 0.02768815 0.016520752 0.022175165 0.0007650379 -0.016854813 -0.018697051 -0.014655235 -0.021561982 -0.0020044416
326 0.022729281 -0.0033053223 -0.058732215 0.022875642 -0.038992334 0.000112450354 0.038993195 0.020325927 0.015631802 -0.024486369 0.0014608311 -0.03922566 -0.016810399 0.006736251 -0.022630658 -0.0012257221 -0.024374854 -0.00055393914 0.012184294 -0.0082916105 -0.0029852102 0.014128892 -0.034099147 0.009877204 0.039998107 0.0048247296 0.0031094532 0.003076083 -0.013774767 0.014690464 0.01698477 0.0113534955 -0.014818485 -0.025531791 0.0014902778 -0.012303573 0.06549613 -0.034241524 -0.008531243 0.012076949 -0.028596828 0.02993089 0.010462472 0.03369851 0.014663942 -0.008038831 -0.014464326 -0.021774251 -0.008478912 3.4196346e-05
111 0.039430834 -0.017015174 -0.07085898 0.037241846 -0.05693198 0.0013195289 0.053681795 0.037624795 0.015812114 -0.03977384 -0.008171506 -0.04887046 -0.01738928 0.00627803 -0.023849143 0.0014959193 -0.02228819 -0.00686484 0.0118405055 0.005331101 8.138891e-05 0.015239358 -0.041447554 0.01983475 0.045289695 -0.011658815 0.004916352 -0.013702577 -0.017709784 0.014257395 0.023555618 0.0033335034 -0.006797134 -0.0119685335 0.013179226 -0.005437867 0.0827409 -0.04204828 -0.016635537 0.020450376 -0.02279279 0.037029374 0.020247925 0.036334824 0.0046415934 -0.017545713 -0.0068752975 -0.017817501 -0.016877359 0.014328812
342 0.019289894 0.00042290142 -0.047642976 0.033112403 -0.040120307 0.015653985 0.030207112 0.026770856 0.0006931517 -0.032309707 0.0060262247 -0.039782625 -0.01919483 0.013043509 -0.027074624 0.0068222517 -0.013528419 -0.0024862431 -0.005048046 -0.008126504 0.0059473645 0.007602374 -0.027724689 0.002334641 0.038482953 -0.010378989 -0.012044588 -0.007594038 -0.01439841 0.01495028 0.011561646 0.0024739096 -0.001334404 -0.0054417937 0.008157289 -0.005796584 0.0514711 -0.030102251 -0.017548893 0.016772736 -0.013330549 0.031344645 0.014292502 0.026286246 0.0019236954 -0.02200404 -0.015408623 -0.008692205 -0.010648396 -0.004935693
17 0.035139717 -0.01001471 -0.056195926 0.026868746 -0.036394577 0.012254908 0.041377705 0.019456921 0.01395384 -0.038763624 -0.011615001 -0.04785935 -0.008978551 0.0077083595 -0.017856527 -0.00018793094 -0.023196641 -0.011471309 0.013585481 -0.010949566 -0.0062739435 0.006749732 -0.026283616 0.01665882 0.022755312 -0.0004818422 -0.0019120834 -0.00467734 -0.0018578381 0.008679531 0.01803232 0.00040545667 -0.0021185835 -0.017674562 0.01370723 -0.011133307 0.06290593 -0.032932214 -0.013532144 0.010641203 -0.028394422 0.027547449 0.023158146 0.026367035 0.005196067 -0.015084535 -0.003938889 -0.016946131 -0.017040206 -0.0026061533
144 0.021558154 0.0036378796 -0.060850937 0.02486557 -0.030620843 0.003132968 0.03501094 0.032054067 0.0027807823 -0.035593513 -0.0052438285 -0.033057347 -0.025924591 0.013727728 -0.014495514 0.010644842 -0.018111523 -0.0096681155 0.0136974985 0.00020210618 -0.0129368 0.0020131005 -0.030097026 0.011375211 0.036446486 0.001484455 0.0018567131 -0.0028614243 -0.009319831 0.011322561 0.025688551 -0.00012398862 -0.013145251 -0.018637948 0.013082461 -0.01719889 0.06775947 -0.037181366 -0.0019179306 0.013484584 -0.010588354 0.035015352 0.014429075 0.018280124 0.014855843 -0.011171296 -0.012351016 -0.024343757 -0.011064196 -0.0052694567
179 0.042108104 0.002436444 -0.0812976 0.039010007 -0.0570035 0.022118077 0.042024035 0.04467366 0.015078248 -0.039014757 -0.0059703453 -0.06410058 -0.007961031 0.006322978 -0.02294962 0.006344511 -0.023221001 -0.0118967695 -0.00025473256 0.009147998 -0.007258663 0.0059257303 -0.030276947 0.01622303 0.04752081 -0.018425474 -0.015987054 -0.0031722402 -0.017271005 0.010368899 0.017328057 -0.002287926 -0.01709213 -0.014801897 0.026049612 -0.008865509 0.08964297 -0.041574012 -0.00077352644 0.037126366 -0.028747886 0.049073953 0.008759402 0.035523806 0.01789567 -0.012904506 -0.010902659 -0.009981951 -0.022513492 -0.0061450643
20 0.032684144 -0.0001235022 -0.063326254 0.0198755 -0.04145165 0.0020537977 0.03112324 0.031237805 -0.0002745693 -0.02478484 0.006161669 -0.044652376 -0.0075810645 -0.0024765935 -0.011559841 0.013492196 -0.018444402 -0.006785447 0.009818794 -0.011523718 -0.004287202 0.018222798 -0.022796866 0.0023466644 0.037248254 -0.013662175 -0.009234007 -0.0061012856 -0.01026657 0.010048412 0.011985518 0.010250624 -0.014487778 -0.009133203 0.0038469923 0.002365525 0.071694165 -0.03328759 -0.012823846 0.008377174 -0.023127787 0.022245917 0.018476788 0.029859018 0.006651359 -0.019253036 -0.022038328 -0.011941504 -0.010836604 -0.004567341
214 0.027703434 -0.0130785955 -0.05496491 0.017824361 -0.03909297 0.017528808 0.029848523 0.030442214 0.007777996 -0.028579066 0.00091966183 -0.046925012 -0.016584089 0.013722476 -0.012734916 0.0046559535 -0.017429188 -0.012650807 0.01559434 -0.00605855 -0.0066585126 0.0048952033 -0.030829094 0.015109588 0.029229268 0.00048733142 -0.012765776 0.0028351091 -0.0008741885 0.003284245 0.011851537 0.01599913 -0.012044589 -0.017610151 0.0138326315 -0.015981497 0.05374037 -0.02983414 -0.016913392 0.025144352 -0.027685966 0.031897012 0.015663221 0.022646429 0.0019447253 -0.022181686 -0.013299576 -0.0065102777 -0.014796701 0.009462261
99 0.036763802 -0.008905472 -0.060152907 0.0429729 -0.04282482 0.017391156 0.04972885 0.031743493 0.020261915 -0.03216931 -0.0056300256 -0.05372288 -0.026965689 0.003874172 -0.03029634 -0.0016710372 -0.021750845 0.0011510351 0.0029278642 0.0070625497 -0.003953322 0.010849186 -0.027070632 0.015205812 0.03339533 -0.014228642 -0.0029181326 0.00058465736 -0.0016110475 0.008663393 0.014299514 0.017458411 -0.0044022393 -0.013246009 0.014559858 -0.00953753 0.06857259 -0.03225112 -0.0002602436 0.026142055 -0.026675643 0.039776042 0.006750452 0.030903528 0.020106746 -0.02443577 -0.0068394365 -0.028495267 -0.013219917 0.012287262
4 0.035685066 -0.014623878 -0.048923805 0.036143012 -0.037879616 0.003920243 0.038474035 0.038912565 0.0144193685 -0.029817129 0.0032009322 -0.054030288 -0.031151028 0.004375609 -0.023843778 0.0046971915 -0.020016033 -0.0058963 0.015130347 -0.009201226 -0.011248968 0.015747456 -0.024746958 0.008710498 0.046074286 -0.0045557795 -0.011315736 -0.012287307 -9.862992e-05 0.00018169761 0.024495129 -8.709099e-05 -0.00404977 -0.0069417604 0.019503608 -0.0067096762 0.07377463 -0.0332215 0.0036997083 0.020835934 -0.032597296 0.028846143 0.023816582 0.025868697 0.009710495 -0.0114861345 -0.009213173 -0.02681395 -0.014844602 0.0072232056
236 0.027525913 -0.003315986 -0.051509473 0.029758567 -0.043341804 0.0015695048 0.045121938 0.023150923 0.009666843 -0.025579479 -0.0103231035 -0.0498143 -0.013487802 0.017535402 -0.019045714 0.010456326 -0.009302725 -0.008561049 0.010702243 0.0069335615 -0.012798623 0.0027686865 -0.03378778 0.010690288 0.036943875 -0.004094385 -0.0034996804 -0.0058897333 -0.006862092 0.00014763448 0.010160333 0.0046322057 -0.00460147 -0.0153891565 0.009973266 -0.01327423 0.07714871 -0.026717389 -0.016769582 0.01467328 -0.0160808 0.040095467 0.0135645615 0.030095993 0.0015996139 -0.013105185 -0.012202724 -0.009630464 -0.010182829 0.0013155633
184 0.022774167 -0.0032505428 -0.07545363 0.032871597 -0.051591624 0.0035710977 0.0531381 0.04340575 0.0061303144 -0.029556714 -0.0075059384 -0.051483143 -0.025680177 0.010706013 -0.027128376 0.009782468 -0.026919153 -0.01203955 -0.0045765955 -0.003267009 0.0009725977 0.015503277 -0.04082616 0.003955112 0.046653528 -0.017766941 -0.015319385 -0.014040746 -0.017801883 0.013744182 0.010436987 0.0026073332 -0.008831243 -0.016231738 0.0056734006 -0.011879648 0.0892722 -0.036116138 -0.019969106 0.020920202 -0.025669474 0.042225517 0.023542766 0.03199426 0.008030674 -0.026874509 -0.008464054 -0.016132366 -0.02024974 0.006752521
137 0.021906277 -0.0023507392 -0.06628407 0.03684163 -0.040148858 0.015271959 0.037718095 0.031782217 0.007445863 -0.032376148 -0.0006142768 -0.0522037 -0.027005462 0.0047822115 -0.028036844 0.016232762 -0.018242449 -0.012376183 0.01350869 -0.0022772914 0.0038025954 0.0018013071 -0.030786976 0.010795789 0.03010152 -0.014882511 -0.008817276 -0.009271624 -0.012930433 0.015835324 0.021843292 0.0005993497 -0.0019911623 -0.020405946 0.011495393 -0.006343745 0.072341114 -0.04181011 -0.01604751 0.023804327 -0.024553742 0.022522671 0.013202396 0.03379889 0.0007095767 -0.015271434 -0.014652904 -0.025607167 -0.006032582 0.014804349
82 0.037365235 -0.005058693 -0.07182205 0.040196493 -0.050081797 0.009680822 0.044450495 0.021083904 0.008469201 -0.029110868 -0.0062874686 -0.0408448 -0.018585596 0.016380198 -0.02470075 0.015165561 -0.021680942 -0.008113058 0.0073848935 -0.00995281 0.0027179031 0.006655059 -0.035092145 0.0054491083 0.04246118 -0.012675221 -0.006190074 -0.00525908 -0.004778977 0.015527405 0.024720497 0.013136486 -0.020997941 -0.022508666 0.0029840053 -0.011305681 0.06905906 -0.04388306 -0.011775498 0.019766 -0.019564122 0.029678266 0.018028608 0.027884565 0.014746857 -0.020828 -0.020352619 -0.026625432 -0.021845559 0.0063696653
325 0.028728934 -0.0142868515 -0.06471099 0.021611882 -0.040175524 0.010389082 0.04839677 0.019421179 0.0072753443 -0.035241995 -0.011802469 -0.04113375 -0.008210712 0.01340575 -0.010294569 0.010663735 -0.0115643935 -0.009172574 0.0011579175 0.0027853372 0.003478751 0.010621488 -0.024439128 0.0019381488 0.026847063 -0.013358248 -0.009879198 -0.013131897 0.00095952343 0.0045363614 0.024397979 0.012866124 -0.00683199 -0.0049564675 0.010477235 -0.003047337 0.065878846 -0.025939088 -0.010566444 0.007408064 -0.03291052 0.038607102 0.02043635 0.03056595 0.016760264 -0.017964061 -0.019051116 -0.006776235 -0.006830397 -0.0011090089
6 0.03501075 -0.012652349 -0.06636452 0.036821097 -0.047723558 0.015561315 0.046024762 0.01834143 -8.007778e-05 -0.033602983 0.0060745953 -0.05042571 -0.026829282 0.015923498 -0.03184266 0.017453589 -0.011297789 -0.017195467 0.004991063 -0.011812789 -0.008638894 0.0068451795 -0.029299447 -0.0044781175 0.028183449 -0.0010395772 -0.011502323 0.0020085773 -0.015161649 0.0021117753 0.027558882 0.0028056598 -0.0013518058 -0.009121023 0.0011789239 -0.0025859128 0.06414615 -0.046819713 -0.011399324 0.018735422 -0.028161561 0.025985632 0.005945685 0.03198859 0.010063075 -0.016613351 -0.012238664 -0.015651397 -0.011013089 0.0055317143
166 0.029510505 -0.008167788 -0.06888077 0.03790578 -0.038623296 0.00627884 0.04713893 0.019931283 0.013248522 -0.025489854 0.003781688 -0.053015556 -0.020017313 0.0069536013 -0.0144319115 0.016643062 -0.010716562 -0.018566184 0.0054217023 0.004947001 -0.0060267965 0.020683948 -0.030380175 -0.0022162823 0.030627314 -0.018347533 -0.0042990725 0.006073403 0.0022959686 0.018180303 0.011254084 -0.005447631 -0.007983617 -0.0055112857 0.0004432436 -0.0048149237 0.08499916 -0.046662025 -0.0018966363 0.021505116 -0.025719292 0.03520151 0.02610616 0.032035194 0.01654594 -0.013853399 -0.023343926 -0.009647278 -0.01817929 -0.0029749623
49 0.02661781 -0.00029911695 -0.0656156 0.01973349 -0.05542311 0.021867273 0.03220125 0.039748363 0.019911647 -0.032914747 -0.00059501774 -0.039653067 -0.011110056 0.019065168 -0.013890231 0.010632604 -0.026782641 -0.014054482 -0.0017140362 -0.005669652 0.0020125662 0.008666593 -0.021538014 0.01675627 0.045866963 -0.008737643 -0.004979602 -0.0053432724 -0.004421012 0.019306786 0.015737073 -0.0030883537 -0.008091149 -0.004626459 0.012663474 -0.018496994 0.07154829 -0.036525153 -0.013111414 0.0157355 -0.020252464 0.030385867 0.018003 0.03386689 0.006239462 -0.007758973 -0.023028944 -0.008864627 -0.01199348 0.018523702
302 0.038358044 -0.020241179 -0.060445 0.022986317 -0.03698597 0.0001539777 0.05061751 0.024640273 0.0038306839 -0.029687874 -0.0070087477 -0.036089115 -0.027321363 -0.00043617637 -0.027096171 0.0035956122 -0.017575849 -0.010852615 0.007882639 -0.007996997 0.0059387074 0.009418569 -0.02372755 -0.0019836288 0.042118248 -0.016807912 -0.011798413 -0.01325105 -0.008314365 0.0072371922 0.009995037 0.007069577 -0.011222323 -0.020233614 0.012850792 -0.013862119 0.071022324 -0.02930854 0.0009509578 0.020913264 -0.016331827 0.02512473 0.015502118 0.03340405 0.008521536 -0.023853099 -0.0057694847 -0.012685287 -0.016384317 0.01325258
89 0.026745016 -0.012390425 -0.07113732 0.035668503 -0.042071216 0.008391678 0.045560576 0.03708778 0.01672313 -0.029833287 -0.005440326 -0.057790946 -0.010701152 -1.530912e-05 -0.019148627 0.017753378 -0.017986989 -0.0017680658 -0.0056005185 0.0044049546 -0.0038644334 0.011488694 -0.034575347 0.012747512 0.02746624 -0.011241248 -0.0015300937 -0.0057883523 -0.012276476 -0.0019252159 0.013655792 0.00059025764 -0.0048718574 -0.019840483 0.004770079 -0.003605274 0.07514997 -0.044289675 -0.0127943065 0.017372016 -0.017270884 0.024243118 0.0067410683 0.041367985 0.0073329047 -0.028545484 -0.025870368 -0.013800574 -0.0038255583 0.014947485
72 0.018548444 -0.009801766 -0.05689866 0.022697745 -0.040100865 0.011590383 0.03258857 0.014883602 0.015406883 -0.034373764 -0.0072685922 -0.046699475 -0.019581776 0.0013200358 -0.020786704 0.00662696 -0.012180805 -0.0051552327 0.006292613 0.0075324075 -0.010052234 0.018950032 -0.033495277 0.013440657 0.033601753 0.0003072371 -0.00984333 -0.010561258 -0.011961986 0.008787816 0.02327168 0.009443689 -0.019584324 -0.0053964644 0.0040517556 -0.011236439 0.05856045 -0.039510604 -0.016310068 0.006678014 -0.027466862 0.031539466 0.006127928 0.02703795 0.014588582 -0.015164141 -0.011940429 -0.022323411 -0.019420205 0.011811983
136 0.03264611 -0.01575711 -0.06553265 0.038295843 -0.048622083 0.010432593 0.048414256 0.030513998 0.017487891 -0.02490622 -0.011941605 -0.05087709 -0.01949026 -0.0018649714 -0.02834455 0.002347388 -0.01718928 -0.018352583 0.007369778 -0.0115474565 -0.00041361243 0.011628866 -0.03581477 0.0056656743 0.036647435 -0.014241664 -0.014596724 -0.009674334 -0.0059492746 0.015570076 0.020773474 0.013925498 -0.018952286 -0.005489265 0.0036533873 -0.011224712 0.06674685 -0.04223978 -0.016177777 0.018051067 -0.030054117 0.02922651 0.020403434 0.029253703 0.017097995 -0.015461045 -0.011276507 -0.023663182 -0.022515532 0.013110936
319 0.023189373 -0.0058042794 -0.061835535 0.034105673 -0.049527794 0.0040140008 0.043941516 0.025678383 0.0017853059 -0.035024818 0.007679469 -0.036028497 -0.018196616 0.007420416 -0.031673122 0.019438194 -0.02278245 -0.014002624 0.002651771 -0.0075340937 -0.00059193035 0.01680945 -0.023045877 -0.003166631 0.021121854 -0.011921576 -0.0050960486 -0.011358033 -0.0025897298 -0.002498639 0.008928099 0.0066518695 -0.010660387 -0.017870842 0.015853204 -0.017208902 0.058209356 -0.043889526 -0.0044721104 0.021100095 -0.02916577 0.019503344 0.00695945 0.018314226 0.0014919897 -0.02448478 -0.019216884 -0.01891459 -0.012027784 0.0056721484
273 0.035963837 -0.010734241 -0.047382206 0.032179445 -0.043044183 0.016855687 0.033974495 0.0214711 0.003388753 -0.03704239 -0.0058753514 -0.042946976 -0.03187651 0.0010400806 -0.010683332 0.010641588 -0.020965436 -0.019020477 0.016192708 0.005716453 -0.0029102776 0.0048842984 -0.030394828 0.013479163 0.04077722 -0.018644243 0.0023760328 -0.0007128711 -0.0030583192 0.0026190497 0.012616978 0.0035913168 -0.0067361747 -0.010158721 0.016383722 -0.0070825466 0.065706246 -0.036679275 -0.013318156 0.010082235 -0.020620713 0.018075233 0.02402487 0.028761309 0.018064609 -0.015186597 -0.012240515 -0.02120164 -0.01848365 0.011072412
62 0.022530569 -0.003204839 -0.05140803 0.031097207 -0.0460274 0.0077760904 0.025607672 0.022961635 0.014199386 -0.02458304 -0.010646932 -0.047005653 -0.010420749 0.008475136 -0.018546548 0.015414741 -0.01203242 -0.0027937898 0.0001490209 -0.010496565 -0.00587173 0.004962371 -0.02720641 -0.003062494 0.034560103 -0.007905625 -0.00017807279 -0.00066145346 -0.016439427 -0.0020134875 0.013632625 0.010151838 -0.018231291 -0.022895014 0.0075198486 -0.008974353 0.0674602 -0.03548402 -0.012981907 0.007737195 -0.014672098 0.030716114 0.005775422 0.031907797 0.0049337605 -0.014646427 -0.018080918 -0.020066587 -0.012243431 0.001815782
5 0.025384115 -0.020770524 -0.062317543 0.03054251 -0.05291081 0.02052509 0.036474403 0.02169961 0.011258489 -0.03884634 0.0012505819 -0.043150235 -0.02586668 -0.0010617197 -0.030194422 0.017485823 -0.010155339 -0.012451932 0.002346468 -0.007913108 0.0023835292 0.009797676 -0.033020508 0.0023765254 0.045483153 -0.0007726888 -0.005951735 -0.01562703 -0.0055520665 0.0042147236 0.014929764 0.009376376 -0.01612719 -0.022054989 0.012273432 -0.0067218435 0.06929273 -0.031037267 -0.0015246908 0.01257339 -0.03226269 0.037224624 0.01910604 0.018545702 0.016989997 -0.0083957 -0.007847162 -0.00958531 -0.0027683387 0.0068052085
7 0.020840105 -0.0010887175 -0.065791994 0.034736693 -0.043402836 0.011854953 0.044143002 0.029883815 0.020263372 -0.02780649 -0.0024658684 -0.037043657 -0.027149266 -0.0020762868 -0.014924296 0.013997754 -0.020447945 -0.0042128097 0.005599714 -0.00031162947 -0.0047478913 0.01379661 -0.03574046 0.011509541 0.031218551 -0.010703174 -0.010021977 0.0006993584 -0.01689821 0.003541569 0.021283997 0.0045458656 -0.0059402557 -0.016342754 0.01228258 -0.01862776 0.063617386 -0.042172384 -0.014446611 0.014276146 -0.032701075 0.020947265 0.021175766 0.034675177 0.014034964 -0.007014112 -0.02171396 -0.017403172 -0.014037854 0.011563771
116 0.036998674 -0.008405745 -0.059327364 0.029747458 -0.04346395 0.009660364 0.038602307 0.026487188 0.013627117 -0.03228944 -0.0044825384 -0.046711195 -0.00939374 0.014484237 -0.018202292 0.0033452238 -0.012119078 -0.014511305 0.015694939 0.003404837 0.00018099975 0.00403161 -0.021664875 0.013547376 0.031978223 0.0028244117 -0.0042606173 -0.010761368 -0.0034400122 0.00068262557 0.022020796 0.0059946286 -0.008830735 -0.023753846 0.014172374 -0.00446884 0.064523585 -0.026843084 0.00032189421 0.017579658 -0.027722942 0.026152104 0.022840438 0.022547908 0.000737838 -0.013153499 -0.02250847 -0.017603088 -0.0067752535 0.009597316
343 0.029498344 0.00024296032 -0.062323935 0.023009133 -0.030393617 0.0007184246 0.04087278 0.022094963 0.014324922 -0.02396319 0.00195905 -0.038891677 -0.00565868 0.0009338664 -0.0109726265 0.007999036 -0.025215134 -0.008771688 0.012052797 0.004700677 0.0066630365 -0.00012488496 -0.038635094 -0.0019796484 0.042024884 -0.011557931 -0.002569333 -0.0051798867 -0.010527022 -0.0009737024 0.015758075 0.011537147 -0.012398131 -0.013956956 0.012696145 -0.012174617 0.06349529 -0.02200868 0.0017906599 0.02216372 -0.022931496 0.020188643 0.008749928 0.019481782 0.004686723 -0.0042460132 -0.015499583 -0.016735898 -0.014757896 -0.0051205023
130 0.02783287 -0.012171784 -0.06531019 0.035993792 -0.052375104 0.0076065394 0.040937427 0.029654397 0.012746101 -0.02770472 -0.008339423 -0.05409585 -0.028391108 0.011745189 -0.02387388 0.012617907 -0.020782027 -0.018007126 3.8142418e-06 0.006655851 0.0062684277 0.011636404 -0.040322307 0.0091358945 0.03468421 -0.016833622 0.00057167996 -0.0152248535 -0.0048666582 -0.0003550909 0.020935405 0.011516758 -0.016982846 -0.012727912 0.006458348 -0.015451166 0.06152615 -0.043178305 -0.0021888267 0.025501065 -0.023362841 0.035771783 0.020241579 0.021556498 0.007351934 -0.005300149 -0.021390386 -0.024687743 -0.013232258 -0.0021701336
80 0.022116892 -0.016570145 -0.0637179 0.024792846 -0.0455206 0.0070687933 0.037426416 0.032472447 0.013446754 -0.036132134 -0.006650045 -0.036275923 -0.01201332 0.015576961 -0.023290891 0.016785916 -0.020011188 -0.012015944 -0.00097451225 -0.0071993014 0.0005475558 0.0008574791 -0.028004026 0.0043771267 0.038747158 -0.010958389 -0.0006815402 -0.009960657 -0.004886405 0.0031079904 0.017781278 0.012655293 -0.015271198 -0.017621348 0.00014677642 -0.0055275806 0.06839814 -0.039286513 -0.0010147066 0.016588017 -0.022031777 0.03591054 0.025166793 0.023781689 0.010987483 -0.009254905 -0.0075143795 -0.024691511 -0.016117342 -0.0018487341
94 0.034484036 -0.016907884 -0.068766885 0.024722569 -0.034587264 0.002293066 0.0332907 0.033548564 0.011349637 -0.038577892 0.00037601526 -0.04852624 -0.025966415 0.0029224306 -0.012332253 0.0066688866 -0.025183532 -0.011857445 0.0013213332 -0.0005884219 0.0009259881 0.016819136 -0.036472753 -0.0028309599 0.02790422 -0.014468405 0.0036772583 -0.012453675 -0.0020637517 0.006368359 0.013780368 0.0140222 -0.0017822562 -0.013270729 0.01310485 0.0006722237 0.06289541 -0.032259334 -0.0049241586 0.018120946 -0.020412283 0.025546473 0.025224676 0.030709261 0.0069385506 -0.007997246 -0.020029895 -0.017887719 -0.0141996285 0.0059708683
88 0.043489825 -0.012209305 -0.06077447 0.03817335 -0.053565953 0.011909778 0.03991131 0.038656272 0.014974759 -0.04254505 -0.00520365 -0.054756638 -0.01887857 0.005001688 -0.016598687 0.0031757297 -0.013137723 -0.005610732 0.014217074 -0.008752578 -0.01266098 0.013043873 -0.027432613 0.012696603 0.03208543 -0.017361244 0.0024644479 -0.0044813287 -0.017161444 0.0070678615 0.024789264 0.014064174 -0.022382997 -0.022313809 0.010873803 -0.0069787926 0.08559227 -0.036913145 -0.015292745 0.028508775 -0.027661707 0.04042256 0.02922731 0.030682212 0.00445336 -0.009495931 -0.018443488 -0.019255752 -0.018384548 0.015643602
173 0.03956982 -0.007495294 -0.07432842 0.025780948 -0.04492224 0.013774389 0.040778585 0.03199523 0.008275118 -0.02130442 -0.002293798 -0.052379556 -0.018986091 0.010497981 -0.029972177 0.0006618094 -0.01913358 -0.0056585292 0.010203867 -0.00066111225 0.00020975809 0.0030454134 -0.037379343 0.0005911809 0.028142279 -0.0051555308 -0.0031999827 -0.0039971587 -0.009301563 0.017448893 0.020066028 0.00021686874 -0.012274785 -0.021521304 0.008540627 -0.0018322053 0.07399529 -0.049169682 -0.015311551 0.023335284 -0.026707042 0.023799503 0.019337263 0.0333629 -0.0013299817 -0.009335494 -0.024178915 -0.022554113 -0.0028813062 -0.0034629432
278 0.029229855 -0.010137189 -0.059902128 0.040252283 -0.03845237 0.014447964 0.030093612 0.03742454 0.0126632 -0.038902815 0.007247311 -0.05319985 -0.021624304 0.0009903865 -0.014512288 -0.0034696253 -0.016713979 0.0014494539 -0.0048290035 -0.0022121617 -0.0030129927 0.015632072 -0.025702957 0.015958464 0.028468544 -0.011263066 0.004304401 -0.005652204 -0.006668245 0.005068236 0.019850899 0.01428145 -0.017200109 -0.021478359 0.010247608 -0.018916091 0.05896922 -0.027936418 -0.0014365973 0.027088588 -0.020305697 0.027231034 0.006081482 0.033265397 0.016891591 -0.021528069 -0.01674446 -0.027229887 -0.018083591 0.008808588
101 0.031454854 -0.010163298 -0.05941044 0.02913649 -0.052271802 0.006400555 0.0389465 0.035743676 0.009935184 -0.024329858 0.0045346287 -0.048072245 -0.016400585 0.0062003997 -0.022693422 0.014107686 -0.007040478 0.00070946786 -0.0061552813 0.0076794443 -0.010617692 0.0026022347 -0.03509451 -0.0013174576 0.04479473 -0.0013267652 -0.0016074571 -0.00033083803 -0.010220733 0.017111467 0.024568323 0.003130101 -0.019961322 -0.016582176 0.0021726638 -0.0111373225 0.06982998 -0.028542921 0.00021588197 0.014021721 -0.02504535 0.027653694 0.019478025 0.029948097 0.00024772802 -0.021281704 -0.018102929 -0.010349491 -0.015264416 0.009557442
171 0.042620987 -0.02049008 -0.06105488 0.04111305 -0.04795929 0.019130714 0.05216882 0.0222008 0.011408396 -0.038386505 -0.010450906 -0.05866321 -0.019257832 0.008756389 -0.027087236 0.01877921 -0.025313366 -0.0005350167 -0.006619486 -0.012479824 -0.0037258551 0.005370348 -0.028536273 0.0008605806 0.039347105 -0.01593442 -0.005354021 -0.015123828 -0.0050771795 0.0073640957 0.020157708 0.016405627 -0.015339582 -0.01472545 0.0063063973 -0.010367719 0.0681724 -0.043257106 -0.012798812 0.023402423 -0.03044291 0.029481614 0.0251749 0.024431864 0.0050753173 -0.025727987 -0.016063683 -0.015991656 -0.01286296 -0.0052507794
14 0.029514011 0.0019880023 -0.06354501 0.028570091 -0.030882716 0.015029291 0.027831683 0.030397752 0.002440439 -0.039575808 0.005616014 -0.04773532 -0.017734835 0.009094735 -0.010316189 0.0118269 -0.022986105 -0.016730102 -0.0038214186 -0.0025405963 -0.0010736175 0.006101256 -0.035506018 0.0026608189 0.022441775 0.004487086 0.0057388707 -0.0017375383 -0.005949267 0.0011626598 0.011275656 0.008508176 -0.005711994 -0.011729555 0.008216819 -0.00045727455 0.067459546 -0.0411028 -0.015552496 0.00888801 -0.010770016 0.017022086 0.019990137 0.027709628 0.0046421695 -0.01715506 -0.022843717 -0.011459408 -0.0066096764 0.0025044826
204 0.029704202 -0.014567079 -0.06772148 0.02566271 -0.042817984 0.001954904 0.037636567 0.036899805 0.0075518964 -0.030093877 -0.0013218673 -0.046200067 -0.011512195 0.0010825045 -0.013145408 0.0034208426 -0.009206622 -0.018563755 0.01260081 0.00482865 0.0032569964 0.0036402312 -0.026669418 0.0028319003 0.037874334 0.00059850264 0.0035779073 -0.00840426 -0.012689633 0.0097953575 0.02734519 0.016257223 -0.01264533 -0.009190335 0.018063866 -0.016942726 0.06621684 -0.033451773 -0.011887018 0.022793347 -0.025071763 0.022571957 0.01871625 0.036126915 0.007163259 -0.019033458 -0.017153377 -0.01914464 -0.019858444 0.0030969828
219 0.022598788 -0.0029088063 -0.060210846 0.027286746 -0.042512394 0.017342681 0.041019846 0.02169647 0.0041367738 -0.036364727 -0.009266693 -0.04125216 -0.01671704 -0.00015027545 -0.031617086 0.01873362 -0.016401632 -0.01351125 0.004314133 0.00058667874 -0.0044646547 0.006623113 -0.027256845 0.009472432 0.024285236 -0.016579563 -0.011550884 -0.0036706144 -0.00042595353 0.0041142553 0.020643761 0.015162268 0.002704469 -0.024860647 0.011085193 -0.014033358 0.07604291 -0.026944963 -0.017455028 0.022784643 -0.016301172 0.021976396 0.016916515 0.031942327 0.012555798 -0.016502097 -0.009609384 -0.011775307 -0.010709716 -0.0012395164
193 0.024848329 -0.013552808 -0.057992823 0.030847577 -0.039497543 0.0023075142 0.038362823 0.01905853 -0.0037055619 -0.01981583 0.003448228 -0.0322459 -0.009389922 0.0017057249 -0.012273322 0.012377982 -0.007424858 0.0021097509 -0.008370636 -0.011248606 -0.012730269 0.015314462 -0.025568785 0.0007077611 0.02304645 -0.014707382 0.007514758 0.00082968164 -0.014951299 -0.005182062 0.010657711 -0.0058092824 -0.019884836 -0.009122509 0.0037908794 0.0009615215 0.06837616 -0.033560105 -0.017859546 0.024212271 -0.024520738 0.029041728 0.009597687 0.018096998 -0.0022410336 -0.024498064 -0.016814828 -0.017207172 -0.004628073 0.003924111
141 0.034880668 -0.009343355 -0.047814988 0.025446221 -0.043115225 0.009308614 0.03147758 0.025244739 0.002507818 -0.022569768 0.0041060927 -0.03812163 -0.013232672 0.0071269567 -0.009391503 -0.002978644 -0.019089827 -0.01066183 0.0034990432 -0.0062353835 0.00058140646 0.01797769 -0.03448607 0.015787758 0.029293815 -0.005262722 0.004407154 -0.00052466936 -0.011087772 -0.00083055097 0.022219567 0.0018030248 -0.0061833495 -0.012500605 -0.00072086405 -0.017103612 0.067366794 -0.032988973 -0.00636454 0.005196564 -0.016687106 0.027662762 0.014312623 0.021118404 0.013715997 -0.00451878 -0.0049118875 -0.02091012 -0.014321716 0.011732593
225 0.029884955 -0.012720632 -0.05069143 0.022828232 -0.047099132 0.0001084312 0.049917266 0.03127667 0.01635941 -0.036236588 -0.0009730338 -0.051442243 -0.013138136 -0.001262157 -0.012359164 -0.0039820727 -0.012433656 -0.01374286 0.0053510587 0.009560692 -0.011288742 0.011564881 -0.027009863 0.0051031527 0.024728097 -0.010197911 -0.004381406 -0.016296621 -0.008290507 0.016625894 0.012199037 0.00063812535 -0.008581778 -0.019042123 0.01774605 -0.014176149 0.074500784 -0.040296607 -0.004747149 0.018309249 -0.023945674 0.0367297 0.011768086 0.01892086 0.01471861 -0.020523112 -0.003880439 -0.0095065385 -0.0081532765 0.012163327
2 0.022100838 -0.0052873343 -0.06384317 0.022031888 -0.046356138 0.01518027 0.034677193 0.01988155 0.0062396624 -0.034498032 0.0069466024 -0.042992577 -0.013987507 0.0065696323 -0.018934965 0.014572292 -0.01980126 -0.0007607792 0.0014254742 -0.005091834 0.0035570487 0.007215554 -0.029608177 0.015075682 0.032569908 -0.006529109 -0.00041387262 -0.0051574213 -0.016907133 0.001380318 0.016454302 0.008723875 -0.0013039182 -0.02542996 0.015271322 -0.00811404 0.0732847 -0.04004326 0.0018911731 0.023589058 -0.022108158 0.02598169 0.011391049 0.017841099 0.01128528 -0.012288645 -0.020052418 -0.020322056 -0.011392881 -0.006575358
48 0.02491244 -0.0067749848 -0.06560231 0.019210886 -0.046299033 0.015132785 0.032295838 0.02980912 0.013562573 -0.025425466 -0.00489973 -0.049339756 -0.023618983 -0.004234749 -0.016190141 0.00033884737 -0.0099402135 -0.006788222 0.0035099022 -0.009513921 0.00020036314 0.018995108 -0.035128582 0.0062750103 0.042763773 -0.01660448 -0.006289637 0.0031626876 -0.004718541 0.005502264 0.013727168 0.013441019 -0.02062777 -0.014804999 0.0066348827 -0.0010908432 0.06738747 -0.04013583 -0.016875494 0.015472942 -0.030524699 0.022404764 0.011514047 0.030206243 0.0028905252 -0.013358601 -0.004174826 -0.016543468 -0.0055339825 0.0016140983
346 0.026282538 -0.004421957 -0.06431782 0.029274402 -0.042946763 0.016042484 0.044298477 0.0220706 0.012324121 -0.032533724 0.0046086856 -0.033365227 -0.015300003 -0.0028233519 -0.0130039845 0.006390442 -0.017367179 -0.0048705023 -0.0042827213 0.0060113836 0.005570529 0.0051924004 -0.027946986 0.002326556 0.030454146 -0.0110979555 -0.009611879 -0.00019335981 -0.011316604 0.0030715 0.027903046 0.0042872955 -0.01434413 -0.021736214 0.012184217 -0.0027084132 0.07833356 -0.029950142 -0.013700768 0.02061257 -0.026757121 0.021014132 0.02198609 0.030551698 0.0057491506 -0.024172131 -0.018425759 -0.023754112 -0.0033906116 0.0119659975
249 0.030787174 -0.014827031 -0.060705565 0.027424788 -0.046240754 0.018489392 0.028824115 0.021756679 0.01604348 -0.03476331 -0.006832737 -0.04226486 -0.027370002 -0.0008536591 -0.020625943 0.0066719567 -0.014755024 -0.0024960265 0.011751379 0.009528025 0.0034708104 0.012953004 -0.037306715 0.013388052 0.044740666 -0.0143102305 -0.0022115356 -0.0021212378 -0.013852664 0.015811186 0.02181684 0.014868203 -0.019575693 -0.025014587 0.011513315 -0.00019795737 0.07266372 -0.038624126 -0.009482364 0.0103872055 -0.022349974 0.036803246 0.010114921 0.034527283 -0.00037619835 -0.01341609 -0.013035195 -0.01775634 -0.005582784 0.011436981
275 0.033259965 -0.01482929 -0.04698013 0.024961844 -0.036213312 0.005387204 0.043640584 0.023872174 -0.00013921392 -0.030572742 -0.008013109 -0.04423044 -0.025634725 0.004910905 -0.021875508 0.0040265867 -0.016712625 -0.010302243 0.015499594 0.00491257 -0.012408704 0.019215219 -0.036298737 0.003363704 0.034307204 -0.0131617235 -0.012969075 -0.016592782 -0.0013397572 0.012783566 0.021845976 -0.0052749943 -0.00654375 -0.02157665 0.014662047 -0.017937496 0.07124217 -0.04703159 -0.0032452713 0.020902371 -0.034100983 0.02367816 0.008063394 0.032433424 0.009766384 -0.017287893 -0.019377973 -0.022736963 -0.0050460864 0.0028501926
254 0.037462257 -0.0016980515 -0.05836814 0.018881077 -0.045122705 0.009105374 0.04316535 0.034323018 0.0014166986 -0.021814574 0.0012155613 -0.04553444 -0.02506052 0.002863717 -0.009951177 0.009255323 -0.021270433 -0.013533942 -0.0033156667 0.008542803 -0.008462345 0.002100726 -0.025548702 -0.0042348374 0.043601215 -0.0018134983 -0.015429766 0.0027104386 2.835501e-05 -0.0004249263 0.013103502 0.015552674 -0.017799737 -0.022926783 0.007338528 -0.0064283153 0.07495805 -0.04027276 -0.014803212 0.007619313 -0.032579307 0.026021622 0.018771645 0.01811856 0.012712949 -0.023634182 -0.011443129 -0.018453503 -0.0028759753 0.011607201
92 0.029141711 -0.017506184 -0.06675412 0.022676576 -0.048439212 0.005955124 0.0542541 0.031588107 0.012434925 -0.0435092 0.0005709923 -0.050674655 -0.013925209 0.015145453 -0.030378163 0.012609381 -0.018033562 -0.01724944 0.0056102243 -0.0027207837 0.0050845616 0.014621046 -0.032373782 -0.00032492736 0.048960812 -0.017499905 -0.00020159221 0.0011269815 -0.0024102393 0.013192055 0.028852897 0.004906732 -0.023390783 -0.015146846 0.00092668366 0.0001612341 0.07146372 -0.033054598 -0.0073289135 0.012306176 -0.023571968 0.03486963 0.012196877 0.029399192 0.0156248715 -0.014123816 -0.015693028 -0.025773188 -0.0029682354 0.0025371301
95 0.036479674 -0.0034577735 -0.06997532 0.033605587 -0.049019348 0.014003087 0.03932635 0.02493112 0.00819938 -0.025992036 -0.0036465316 -0.03962345 -0.014133353 -0.0021049792 -0.022006454 0.0047485037 -0.012637458 -0.0041274503 0.0018677342 0.0005180831 -0.0027811253 0.017094417 -0.03617795 0.015121028 0.029243816 0.00013384795 -0.008098131 -0.01586515 -0.004904482 -0.0058574234 0.026382955 0.017489646 0.001700035 -0.028189456 0.016534938 0.0013465206 0.07040276 -0.02880923 -0.011643247 0.013787266 -0.014576659 0.032427285 0.00843995 0.030518578 0.0017293957 -0.016044812 -0.011142051 -0.007819469 -0.0035157548 0.01429894
265 0.012746579 -0.004222399 -0.040118996 0.0144114 -0.02531052 0.014416884 0.023698153 0.015323353 -0.0010059673 -0.015507574 0.0040243734 -0.030936202 -0.010050816 0.014913445 -0.019599132 0.0044421796 -0.013217565 0.00077494775 0.006672299 0.0033773126 -0.0025988135 0.011157293 -0.026278993 -0.0035213416 0.02384443 0.0029563732 -0.0048467787 -0.005054824 -0.005003183 0.009720996 0.023358917 0.008348013 -0.006636897 -0.018020095 0.007274844 -0.005504878 0.059541035 -0.025508191 0.00080863864 0.01652726 -0.026835617 0.015262244 0.022385871 0.02844865 0.008195929 -0.010670093 -0.013947335 -0.006533575 -0.016131869 -0.0026505915
259 0.020753087 -0.006716662 -0.052975547 0.029676475 -0.051119298 0.003511379 0.05102204 0.029561717 0.011869924 -0.024578871 0.00015646398 -0.037428338 -0.023279259 0.008769134 -0.016452827 0.019642586 -0.01948609 -0.0003211316 -0.0075367875 -0.009425981 0.006558151 0.0063916715 -0.04047402 0.0022304843 0.027315177 -0.011399725 0.0039463043 -0.0009351192 -0.0069813523 0.011393614 0.022533506 -0.00226746 -0.01722131 -0.025129514 0.0006773509 -0.0037872707 0.07849879 -0.037745528 -0.0056389747 0.026081964 -0.022296896 0.03317427 0.01029567 0.034981877 -0.0006485229 -0.028174601 -0.012489872 -0.010658153 -0.0009990553 0.012626706
194 0.038569294 -0.00936471 -0.06823082 0.033324316 -0.04542809 0.011277548 0.050445363 0.027892673 0.011104477 -0.038232464 -0.00955414 -0.05321218 -0.027089816 0.013091159 -0.025371771 0.015720073 -0.013628056 -0.004403151 0.00027416903 0.0006161436 0.0060223993 0.010621569 -0.029684948 0.0032184473 0.047772974 -0.0038644054 -0.0063483925 -0.00080766104 -0.012110944 0.0074734595 0.025478298 -0.0016214441 -0.009387908 -0.020660108 0.011368298 -0.0170771 0.06508044 -0.02792927 -0.009894328 0.009421431 -0.018646875 0.02823206 0.023494259 0.019780383 0.003915172 -0.0155463675 -0.008813335 -0.00763277 -0.0039158273 0.014971582
181 0.043322526 -0.016541563 -0.053877413 0.043674476 -0.044814464 0.020367397 0.044959407 0.03095506 0.013781029 -0.032664903 -0.0111525515 -0.050290555 -0.024089998 0.00548221 -0.015127085 0.00084117014 -0.015338971 -0.012490305 0.016487066 -0.00787733 -0.0026388445 0.003007418 -0.042975865 0.014218495 0.039759595 -0.008011009 -0.0018068424 -0.020291189 -0.016185926 0.018667905 0.012012968 0.013223761 -0.0022441554 -0.01710492 0.013800648 -0.003770728 0.07060232 -0.04542611 -0.005649397 0.026268136 -0.034686275 0.037128594 0.01891362 0.028712362 0.0024196417 -0.005586934 -0.005205473 -0.009088897 -0.0140388785 0.005274785
133 0.030539617 -0.0011613636 -0.043551274 0.020928485 -0.044795945 0.0031020232 0.024670321 0.014041169 -0.0016855161 -0.026097862 -0.0009947915 -0.03951193 -0.016639123 0.013742572 -0.006163064 0.009266923 -0.0062365243 -0.011733361 9.4970914e-05 -0.0027033002 -0.009033588 0.013091507 -0.035472944 0.014356487 0.027258037 -0.0062070866 -0.0087474305 0.004893916 -0.0032209714 0.004238977 0.024322959 -0.0034362634 -0.008826006 -0.010997825 -0.0025232495 4.1548035e-05 0.06336056 -0.036168892 -0.009146139 0.012390592 -0.02620964 0.032938637 0.020060739 0.032170117 0.009027889 -0.0067071174 -0.01567441 -0.008957212 -0.004720895 0.011081241
177 0.029288923 -0.005265649 -0.048726633 0.030786281 -0.0476089 0.0018716071 0.033835 0.026730051 0.0079868855 -0.03665692 -0.0021563503 -0.051908467 -0.007150684 -0.0035866047 -0.019999232 -0.0025752145 -0.015414867 -0.011479019 -0.0073920176 0.0010859355 -0.013661844 0.013113025 -0.02905423 0.0131425625 0.042465854 -0.0041321004 -0.0058936165 0.00024145895 -0.0122165335 0.009006359 0.021236856 0.001083097 -0.009208455 -0.020385645 0.0042895987 -0.0047529475 0.06433428 -0.04387521 -0.007204507 0.015526775 -0.023647597 0.033672605 0.011351098 0.03579035 0.0058328873 -0.020550605 -0.015310009 -0.018584033 -0.015042516 0.009030845
243 0.0399614 -2.7246846e-05 -0.0682722 0.027641973 -0.044199675 0.01977239 0.05208854 0.030598847 0.011951375 -0.025514713 -0.009340032 -0.044463128 -0.01274836 0.005781487 -0.019616157 0.009905918 -0.018853147 -0.009757859 -0.0008204338 -0.0052915285 -0.0016312373 0.017285904 -0.037264407 0.013920458 0.046487406 -0.008933895 -0.008650815 -0.011719246 -0.0031608564 0.001050293 0.011662308 0.004371189 -0.008209567 -0.018808005 0.01655001 -0.009939763 0.06375235 -0.024311246 -0.0015207375 0.016465953 -0.023982782 0.023905976 0.023257948 0.039821498 0.012501853 -0.024878033 -0.008097172 -0.014969854 -0.011601966 0.013554451
218 0.026736677 -0.007330099 -0.050935104 0.038650393 -0.04270088 0.0037402294 0.039007146 0.030251935 0.008779059 -0.026142724 -0.007425316 -0.03981011 -0.02705719 0.00030982826 -0.030685492 0.001578763 -0.013744856 -0.013456691 0.0030424334 -0.01169636 -6.346231e-05 0.0042084684 -0.02869547 0.010049725 0.046651147 -0.015153744 -0.009526877 -0.0050109015 0.0027465425 0.015046404 0.029109193 0.008335704 -0.011030829 -0.009410711 0.013645944 -0.014519059 0.07526673 -0.049413674 -0.0026877418 0.027350422 -0.022539498 0.034578815 0.01795653 0.01978224 0.0074897287 -0.00757446 -0.018730298 -0.01586551 -0.0073942346 0.0072571356
232 0.026490422 -0.0033252486 -0.05421403 0.028497364 -0.026253687 0.015327019 0.03880781 0.030146332 0.0030257097 -0.01971521 0.0043596565 -0.041269075 -0.018333334 0.0075456793 -0.024444705 0.015070559 -0.011976445 -0.016420214 0.008863522 -0.010427053 0.0076673157 0.0126190875 -0.016914267 0.011027282 0.021014461 -0.0106607685 -0.006829085 0.0021763982 -0.0039324374 -0.0032510506 0.0045483205 -0.0053053517 -0.012178234 -0.009041021 0.0009466914 -0.0150517505 0.057551987 -0.023099821 -0.010286359 0.021070471 -0.014140666 0.020436158 0.0045495974 0.027166419 0.014102404 -0.014874631 -0.010822959 -0.0064812126 -0.014355308 0.0043548886
337 0.022291508 -0.008879222 -0.05559753 0.03912961 -0.03955717 0.003198802 0.046344906 0.038013317 0.015934566 -0.035109267 0.0009371387 -0.05362546 -0.017056035 0.0012693005 -0.011616425 0.015287614 -0.0077600707 -0.0014401514 0.01345634 -0.002678694 -0.0016615825 0.0066110143 -0.034621842 0.017501604 0.04895154 -0.014393278 0.0013333999 -0.01391637 9.886955e-06 0.0052296 0.020144023 0.010578629 -0.006889417 -0.015607062 0.00095136784 -0.0021044007 0.07921916 -0.028368358 -0.015554854 0.02042869 -0.02101615 0.022929056 0.018051747 0.03966873 0.016633295 -0.015890075 -0.0057672616 -0.016034197 -0.017570168 0.006000404
158 0.03101129 -0.0051346347 -0.06399364 0.037496153 -0.049438544 0.018493652 0.04747568 0.026630728 0.00020086786 -0.03274135 -0.010255332 -0.047799587 -0.008211417 0.0025255708 -0.020430049 0.012291907 -0.0166687 -0.007466427 0.011621433 -0.0041811815 0.0063172323 0.0052863504 -0.03245931 0.0012362472 0.030082092 0.00070900697 -0.0076364977 -0.0016052562 -0.007349968 0.010679652 0.013062351 0.011940956 -0.0014948504 -0.016041031 0.00086223305 -0.0049176216 0.07247854 -0.037653886 -0.0064871176 0.02293297 -0.026769292 0.034166794 0.017248925 0.021463502 0.01413337 -0.007424752 -0.004613459 -0.017267656 -0.004242255 0.011858707
211 0.024730485 -0.0185579 -0.062402703 0.023236807 -0.041897353 0.00911378 0.038677156 0.02758243 0.00414576 -0.029687917 -6.6088132e-06 -0.036675777 -0.017577872 -0.00026747302 -0.026936635 0.0035178668 -0.015234814 -0.012910216 0.0036139402 -0.00449464 0.0034704024 0.014229924 -0.027129473 0.006358779 0.02560116 0.0015007152 -0.009179439 -0.011995523 -0.01762705 0.0070084077 0.01733896 -0.0044421405 -0.007681253 -0.014322639 0.0059374706 -0.0014659186 0.059815038 -0.03420933 -0.0038763464 0.0070511447 -0.024992494 0.027945274 0.021924688 0.03477291 0.011394006 -0.016813848 -0.0096677495 -0.008316565 -0.019788824 -0.00020843554
334 0.028288743 -0.012176402 -0.05660795 0.017823229 -0.027703358 0.003261475 0.03732377 0.020094324 0.0023650054 -0.031458713 -0.007885793 -0.025621753 -0.005984169 -0.004092728 -0.025930842 -0.0020638935 -0.010896078 -0.014876956 0.011012165 0.008542117 -0.010055452 0.006830716 -0.02892576 0.0121477265 0.029013716 -0.00948962 0.0020183192 -0.0021342146 -0.014269133 0.0072432505 0.01785859 0.009321518 -0.012620214 -0.005915609 0.0027095245 0.0010904511 0.045494206 -0.023369826 -0.012626584 0.02138713 -0.024527092 0.0150506105 0.0102442475 0.020500988 -0.0007378223 -0.015756011 -0.0046402626 -0.018835358 -0.019103207 -0.0047103916
93 0.0226736 -0.0062372405 -0.051416006 0.02075739 -0.04950111 0.0048324163 0.03645633 0.025652986 -0.0004680801 -0.023605328 -0.0046062656 -0.051952012 -0.014737546 -0.0031154738 -0.01803143 -0.0021536085 -0.010825355 -0.0013895757 0.00760266 -0.009424607 0.0012044915 0.0002828962 -0.034569185 0.011402689 0.03994546 -0.0037921758 -0.011105481 -0.012973589 -0.0020223458 0.007869612 0.027711602 0.01704371 0.00045994425 -0.020802777 0.0033153787 -0.0052599185 0.057525378 -0.029117612 -0.004162476 0.011134484 -0.029366722 0.027442833 0.0152133275 0.02538353 0.0072432333 -0.01952275 -0.012768295 -0.026001055 -0.010883796 -0.0016605022
226 0.037378147 0.00046939508 -0.051883627 0.019634832 -0.042721827 0.01824937 0.046334997 0.031897217 0.0054378724 -0.031394057 0.0070653628 -0.034212787 -0.016016597 -0.0018399899 -0.018056177 0.013471954 -0.018294537 -0.0005408949 2.8736677e-05 0.004400853 0.0047599785 0.003850933 -0.039488774 0.017671043 0.02502983 -0.004785033 -0.0062072105 -0.010580085 -0.010832264 -0.0027673538 0.021683898 0.007448172 -0.014647308 -0.02223293 0.003586311 0.00084081147 0.063044846 -0.04182467 -0.010743391 0.01811941 -0.017437657 0.018672222 0.00462383 0.022759574 0.015409758 -0.012677436 -0.020668318 -0.008537239 -0.0054387148 0.01294326
3 0.028687816 -0.0025952815 -0.057113424 0.02311275 -0.036420688 0.0066051604 0.043787874 0.028641937 0.0129487505 -0.028671239 -0.0020104393 -0.045294713 -0.024089027 0.011430936 -0.009880489 0.012223925 -0.009509312 -0.016427072 0.0015528671 -0.009578538 -0.006280591 0.014532786 -0.03468712 0.0061046937 0.041887958 -0.016270177 0.000421479 -0.012141069 -0.01096291 -0.00085733196 0.024412263 0.0041697663 -0.008629537 -0.011729705 0.008998369 -0.0049554184 0.060940307 -0.0388765 -0.012854984 0.016200876 -0.013974259 0.018016737 0.013397719 0.014201442 0.0024032842 -0.014040628 -0.008740974 -0.009927539 -0.02147016 0.015075201
13 0.01925012 -0.01252328 -0.04212772 0.020614278 -0.02745141 0.004002495 0.037002042 0.013769457 0.011950025 -0.023681825 0.003255346 -0.043118354 -0.014481537 0.01361722 -0.02021742 0.01557817 -0.021427864 -0.0026957619 0.0071934476 -0.010174957 -0.005550204 0.017809149 -0.020705227 0.010744335 0.035641294 -0.0100456495 -0.011154372 0.0041370075 -0.011075089 0.003965562 0.013963755 0.009089858 -0.0091663 -0.017311038 0.0022664408 -0.009458392 0.05534395 -0.035017304 -0.012140325 0.016709434 -0.013637222 0.030021483 0.013582453 0.032613333 0.0040762895 -0.010306261 -0.010925221 -0.020833764 -0.013252414 0.011783733
333 0.02874907 0.0011273468 -0.04570709 0.016778179 -0.045672826 0.009051549 0.030008161 0.017444389 0.014390593 -0.038134895 0.00044578293 -0.04023568 -0.01787024 0.014277366 -0.020888872 -0.00236415 -0.017308462 -0.0007968856 0.013406095 0.0037343327 -0.013134013 0.017061654 -0.031573888 0.017826688 0.03494617 0.0038579276 0.002169251 -0.007302156 -0.014552697 0.0028081343 0.022308992 0.009242788 -0.011011261 -0.022078477 0.01573769 -0.014745819 0.05836605 -0.023162045 -0.0171344 0.01784563 -0.013503598 0.03453038 0.021819402 0.025708035 0.0073279776 -0.00834233 -0.019278169 -0.021049887 -0.0056149433 0.012853612
244 0.02156545 0.0006823973 -0.056291416 0.037180092 -0.04067759 0.0032882264 0.04481617 0.026314331 0.02757072 -0.045352533 -0.0025440413 -0.04580073 -0.028253924 0.0006709498 -0.011242978 0.0137622915 -0.012233277 -0.023187153 -0.0023163685 -0.004843735 0.0011544997 0.026531128 -0.044044677 0.016095249 0.043813936 0.00025034315 -0.014860648 -0.017722735 -0.0210943 0.011523177 0.013754161 0.0029928363 -0.009320453 -0.004674129 0.0130885495 -0.003544859 0.075396754 -0.054068036 -0.008039551 0.02837651 -0.011542838 0.023789838 0.029644387 0.03329271 0.01362219 -0.024222856 -0.01864489 -0.025484305 -0.024460113 0.008504499
282 0.02196716 -0.006285028 -0.06825467 0.040194478 -0.047710143 -0.00039381004 0.039982922 0.026791831 0.026964815 -0.044093728 -0.010858307 -0.038822018 -0.017852271 -0.001413159 -0.016195072 0.014370074 -0.009163957 -0.016527122 0.0012405664 -0.0048447065 0.0028602981 0.023293918 -0.05175391 -0.00082033564 0.037972063 0.0036970293 -0.019446665 -0.014693514 -0.01113189 0.017811937 0.02327035 0.01585973 -0.008314985 -0.0084800385 0.0253565 -0.008903129 0.069401935 -0.057274774 0.003164822 0.011425607 -0.026749805 0.036244296 0.03468266 0.032579966 0.017539421 -0.022930529 -0.028369963 -0.03012506 -0.01843789 0.013151604
238 0.022333862 -0.010661247 -0.050947446 0.026062373 -0.037709784 0.0015861737 0.027749024 0.03103794 0.0036616116 -0.038227342 0.00617424 -0.03193497 -0.016175048 0.0014230207 -0.016268222 0.0010797548 -0.014440995 -0.011073146 0.0092908135 0.0018084918 0.001374008 0.0026335868 -0.035475552 0.015895018 0.03695479 -0.0055576474 -0.013900886 -0.013499137 -0.0064879176 0.0050677764 0.007067406 0.0017030141 -0.0062723057 -0.02138302 0.015311952 -0.007925112 0.069191724 -0.032018505 -0.0058472776 0.008926476 -0.030115774 0.026224928 0.01492151 0.031843953 0.011458476 -0.007871502 -0.008666762 -0.009027218 -0.0077295084 0.004817747
180 0.040494192 -0.013187276 -0.073012985 0.036350925 -0.053953625 0.0055488697 0.040889118 0.032385536 0.012676864 -0.039207924 0.007900845 -0.047314 -0.024664214 0.014231073 -0.019019136 0.0032577706 -0.013393441 -0.005619784 0.008373899 0.009507095 0.0014057546 0.0045100725 -0.042955544 0.012200811 0.044466887 -0.011612082 -0.0075247544 0.0031238967 -0.011453782 0.0028879875 0.018446736 0.014382646 -0.0043531205 -0.009773459 0.01253587 -0.002636659 0.08242835 -0.0409031 -0.0129150245 0.027907472 -0.026826546 0.020201366 0.00941417 0.024801876 0.010890581 -0.019292785 -0.018553333 -0.020782035 -0.006208777 0.0071513546
33 0.030016059 -0.02169463 -0.06362639 0.046450276 -0.03755536 0.011983174 0.05983317 0.04248203 0.00834912 -0.029918363 -0.014210989 -0.04872609 -0.017154124 0.016375309 -0.027559105 0.013503222 -0.03137707 -0.01984926 0.0029752753 -0.008141054 0.0026644596 0.020898225 -0.047080766 0.0033550204 0.055372927 0.010338206 -0.0068438817 0.011969234 -0.007785548 0.023230458 0.0038140933 0.007042134 -0.022514716 -0.026538193 0.00022083563 -0.0042939107 0.085307986 -0.040297516 -0.002715052 0.025409536 -0.02416987 0.019963406 0.0017837133 0.028936608 0.0017135926 -0.0057798033 -0.0051768417 -0.0278021 -0.010723722 0.010256162
42 0.023123408 -0.00456693 -0.0694659 0.050859086 -0.053016596 0.014179956 0.05740723 0.041843314 0.025526319 -0.035467267 -0.01661539 -0.04400757 -0.020111881 0.014099398 -0.031187238 -0.0030550165 -0.037052836 -0.027083585 0.003052237 -0.0043096095 -0.006502234 0.008370432 -0.04770643 0.012798202 0.049565535 0.01038215 -0.007796421 0.009053787 -0.012775252 0.014273863 0.010429714 0.018522618 -0.026424134 -0.032538276 0.006195774 -0.0020553954 0.08851888 -0.027879937 -0.0025011173 0.029420882 -0.03937951 0.019241922 -0.0007584018 0.045555398 0.0014941549 -0.02047736 -0.013286108 -0.024152288 -0.02052335 0.0012085057
281 0.020284105 -0.004254528 -0.070846565 0.02392961 -0.0337515 0.013507256 0.03731302 0.034894086 0.010867186 -0.040754512 -0.011462828 -0.03563591 -0.019628897 -0.0025474392 -0.022523044 -0.0011855792 -0.0269507 -0.01954513 0.007082979 -0.010192439 0.0020173637 0.009872972 -0.025742397 0.006384864 0.038480856 -0.001175687 -0.01701493 0.0016384197 -0.01427189 0.012669093 0.02529132 0.002060949 -0.0035470943 -0.026091864 0.0076844906 -0.015010775 0.076203 -0.035820022 -0.015670193 0.015747476 -0.030684844 0.021198148 0.009656726 0.023989407 0.0046539777 -0.016992323 -0.022849336 -0.008565466 -0.0020834503 0.0034826132
248 0.0229708 -0.008626691 -0.064411655 0.029216232 -0.042335775 0.018078076 0.04443107 0.027548384 0.01140019 -0.023478659 0.0058038803 -0.048952576 -0.016136082 0.0075952057 -0.009567732 0.01556526 -0.010254713 -0.0046785986 -0.0025966784 0.0041284836 -0.013389831 0.020005787 -0.031463925 0.0034274268 0.037049934 -0.0036330863 0.005338716 -0.007060863 -0.010090516 0.0062635806 0.019219762 0.0082913935 -0.0074766874 -0.012945395 0.0038947815 -0.013394818 0.05453501 -0.033450004 -0.0066781747 0.015462008 -0.018497432 0.021731723 0.019810904 0.020267954 0.0023461687 -0.010280419 -0.011885222 -0.012994009 -0.00828309 0.003729191
100 0.03475849 -0.004969901 -0.06886676 0.028873766 -0.047528446 0.0064760814 0.05068728 0.018329784 0.0073877214 -0.03362296 -0.007594223 -0.052117795 -0.025276346 0.005322045 -0.013482541 0.0002485492 -0.010377659 -0.0029760222 -0.0041426932 -0.0042826324 0.0063896226 0.0033105144 -0.026064629 0.0029289285 0.042438544 -0.008199009 -0.008703384 -0.013725212 -0.010674353 0.004934231 0.014255133 0.003135957 -0.004568345 -0.0165998 0.015759097 -0.019482186 0.06650185 -0.029985521 -0.0041523227 0.026685197 -0.024208946 0.040785883 0.01073037 0.027332207 0.0028667394 -0.025860334 -0.008100446 -0.017910589 -0.018448655 -0.0047730347
306 0.028810157 -0.018778715 -0.047839142 0.026721053 -0.051845435 0.018626513 0.03183493 0.027103754 0.009804384 -0.028041126 -0.010782593 -0.041943815 -0.03059286 0.0097986385 -0.017308813 0.005281162 -0.025356814 -0.009934963 0.0032944398 -0.004362235 -0.014241652 0.009570875 -0.03774176 0.013465922 0.04169414 -0.003422456 0.0028085813 -0.017651826 -0.0091303615 0.009643156 0.01096355 -0.0041026967 -0.01353875 -0.0062555163 0.010340388 -0.0020890345 0.06606116 -0.04491412 0.0018037504 0.023267668 -0.023004116 0.021105034 0.022381404 0.017425183 0.014904661 -0.012299451 -0.008012388 -0.013325554 -0.011292526 0.003362764
182 0.02485076 -0.010841533 -0.07819692 0.0387255 -0.051373385 0.022629416 0.05088111 0.021496674 0.008152997 -0.044578757 -0.01224049 -0.040331203 -0.028619563 -0.0033236144 -0.011212551 0.012616997 -0.028515665 -0.009129703 0.0076153 -0.011485324 -0.013850658 0.004002194 -0.048517745 0.006337589 0.049331363 -0.001718492 -0.012220841 -0.009399734 -0.01929584 0.0076985448 0.022877334 0.020246131 -0.0011699066 -0.010516941 -0.0044777426 -0.00807849 0.08831533 -0.049960673 -0.011475067 0.019008564 -0.017321322 0.039451886 0.0038799231 0.042894315 0.02303467 -0.029254712 -0.0054393145 -0.00842073 -0.007717152 0.012889647
161 0.011854899 -0.015076329 -0.051970214 0.029801764 -0.033667676 0.010486874 0.02407438 0.013546261 0.003624791 -0.022457095 -0.0016966386 -0.033291206 -0.01985296 -0.0016691016 -0.024041569 -0.0002685742 -0.008624129 -0.009554699 0.0062452704 -0.008284046 0.0064301468 0.016790723 -0.033677597 -0.000189094 0.029862212 -0.003114925 -0.008294342 -0.0066429 -0.001976305 -0.0037384895 0.0076122717 -0.002149378 0.0011162515 -0.008717408 0.008806321 -0.003061516 0.05427974 -0.016712446 0.0002774917 0.00510146 -0.012373424 0.018069036 0.012217585 0.016836906 0.006423719 -0.001531128 -0.0036603902 -0.016789962 -0.0065676863 0.00042359342
242 0.03590071 -0.012987164 -0.06731547 0.02876586 -0.035770606 0.0036996482 0.03971775 0.03594763 0.013671393 -0.023070151 0.0017197519 -0.05151136 -0.024640217 0.009696635 -0.028348329 0.0076570758 -0.016711647 -0.0014936483 0.0048409244 -0.007132268 -0.007973583 0.00972448 -0.03141591 0.0038949342 0.03331374 -0.009406466 -0.013471082 -0.0065889964 -0.016199935 0.013145057 0.015761768 0.016605916 -0.004260867 -0.018812709 0.014592882 -0.015019821 0.07442543 -0.02569562 -0.0055793696 0.01720335 -0.035162047 0.038077805 0.02420739 0.035355926 0.01583381 -0.021362752 -0.018083677 -0.009891842 -0.019391734 0.0020948197
78 0.028530614 -0.0023317002 -0.05121705 0.032147586 -0.04315759 0.014638266 0.037925597 0.033963848 -0.00017192248 -0.020118324 -0.003031212 -0.029854998 -0.016113512 0.0058013243 -0.022402084 0.008030819 -0.017829727 -0.018576477 0.010654133 -0.009810213 -0.013289578 0.0076744314 -0.022495294 0.0015116321 0.032719467 -0.00829969 0.0010501728 -0.014739897 -0.0058814897 0.016954938 0.021945044 -0.0026911574 -0.016864948 -0.019431978 0.0072199814 0.003028769 0.049885478 -0.040190935 -0.0019923225 0.022188507 -0.013009229 0.028967172 0.021822313 0.015663592 0.014629955 -0.013945384 -0.014772372 -0.019569429 -0.007931333 0.005053882
185 0.025747404 -0.015603536 -0.056336407 0.019976402 -0.034450553 0.015685456 0.024783364 0.026840044 0.013806706 -0.016410813 -0.0063520684 -0.03224621 -0.012592762 0.0072914674 -0.026072823 -0.0036232276 -0.022595832 -0.0025095781 0.007198471 -0.004182284 0.0025988738 0.004409855 -0.017515413 0.008471733 0.022556756 0.0034874203 0.0028007126 0.005228708 0.0010339645 -0.0027184677 0.0054257386 -0.002710279 -0.012088402 -0.02089861 0.009441177 -0.016840722 0.05383413 -0.022517385 -0.011680032 0.007438827 -0.020814188 0.028235199 0.014638569 0.022298364 0.008208412 -0.0057579856 -0.015513591 -0.0134083675 -0.009341152 0.008224361
256 0.025198396 0.0007575243 -0.060137734 0.04672275 -0.054477524 0.031110438 0.052149367 0.034905814 0.001272215 -0.030120837 -0.016321111 -0.050472725 -0.014651609 0.016977845 -0.027486747 -0.0052569 -0.010795876 -0.013865478 0.007986509 -0.016860804 -0.0017630599 0.005812776 -0.041605156 0.022387626 0.030358875 -0.0067418073 -0.018249486 -0.021842608 -0.024058787 0.019364975 0.037415374 0.003816567 -0.018964082 -0.027892765 0.012630405 -0.022827413 0.062332574 -0.056634724 -0.009505406 0.0036800955 -0.027849972 0.020688582 0.02161084 0.03471601 0.015950486 -0.029348195 -0.028938603 -0.032173544 -0.023055233 0.015190662
233 0.022094626 -0.0030289572 -0.063247375 0.04104404 -0.058362417 0.027936496 0.039451964 0.021264618 -0.00016553159 -0.03117243 -0.008450532 -0.057277113 -0.014431693 0.020370463 -0.017400328 0.003416875 -0.027758956 -0.018108323 0.002035093 -0.01012115 -0.017601956 0.0031822722 -0.047963828 0.010755111 0.022750378 0.00064799376 -0.0068148384 -0.01816681 -0.021117585 0.021407427 0.034013327 0.0007993867 -0.011318265 -0.032012023 0.008534879 -0.0051070983 0.070552506 -0.051694423 -0.0012640668 0.0044485684 -0.037248496 0.03160717 0.004332224 0.018701604 0.0011491468 -0.018271662 -0.0125733055 -0.013779378 -0.028151771 0.018714257
296 0.023728548 -0.0036514113 -0.05186411 0.03803052 -0.029781688 0.0020578087 0.03222255 0.028481867 0.01192363 -0.029563602 0.004031136 -0.030400759 -0.005051846 0.005729277 -0.018936694 0.012961734 -0.022412201 -0.0012144555 0.00859429 0.0018388934 0.0016637729 0.019457601 -0.021683129 0.017289544 0.029602043 -0.014784453 0.0016666994 -0.002099341 -0.0039434726 0.012713554 0.01905988 0.0075494046 -0.004106577 -0.014012863 -0.000554642 -0.016034514 0.064774886 -0.02752915 -0.0015901199 0.024220997 -0.012522642 0.025670415 0.011613751 0.027034203 0.016451104 -0.012723175 -0.005172131 -0.016678235 -0.0036703388 0.0014898251
308 0.02143361 -0.014617604 -0.06301126 0.022113802 -0.049301658 0.0037544307 0.031283963 0.02314556 0.00874568 -0.03683757 -0.011191869 -0.04013623 -0.008431378 0.0150796175 -0.025799505 -0.0016689866 -0.018010411 -0.0023779366 0.008752975 0.0047699087 0.006708013 0.017197492 -0.034861412 0.012866291 0.022772554 -0.003505528 -0.00033046489 -0.0072801043 -0.014841677 0.005382474 0.009253725 0.0033678538 -0.012862261 -0.016516479 0.0042547807 -0.009916888 0.059268355 -0.022423977 -0.0010465553 0.0080152415 -0.021144355 0.027170211 0.020024538 0.018514993 0.0065470254 -0.007931365 -0.018421901 -0.010333936 -0.019451737 0.0086201215
320 0.024473364 -0.013782864 -0.058862958 0.027296998 -0.047823306 0.0178762 0.030886576 0.03376065 0.008028406 -0.026479444 -0.00061688805 -0.052497815 -0.021512313 0.0097044045 -0.017209098 0.013891655 -0.028431602 -0.009559786 -0.005184552 -0.0019708972 -0.0058538923 0.018206103 -0.0325687 0.001455996 0.034070663 -0.012204238 -0.012137982 -0.0030089535 -0.011352341 0.001226725 0.02274265 0.0079245875 -0.007444592 -0.015152482 0.0004613523 -0.011912221 0.07212505 -0.040971953 -0.015652677 0.0252468 -0.026085388 0.031927798 0.008616746 0.030196616 0.003940197 -0.021224461 -0.016909186 -0.011073549 -0.010880784 0.00678715
127 0.020574346 -0.018873297 -0.053990036 0.0329466 -0.044339985 0.012337874 0.03344697 0.022384113 0.019708136 -0.03590138 0.005682692 -0.04073676 -0.014995772 0.016059415 -0.022049157 0.018172922 -0.010922111 -0.010799305 -0.0042990283 -0.012537937 -0.009486566 0.016722534 -0.021565747 0.007822723 0.045106295 -0.0074276146 -0.011974447 -0.004177477 -0.014602026 0.0055174185 0.020868985 0.0022425812 -0.009062785 -0.017703017 -0.0029629376 -0.015209486 0.068387456 -0.032543592 -0.0103168525 0.024571845 -0.030164927 0.03162737 0.008505353 0.024246039 0.013442797 -0.011121375 -0.017160429 -0.019731814 -0.0038275165 0.00465234
64 0.04305568 -0.009377516 -0.07092221 0.034066815 -0.057134107 0.01350047 0.043345977 0.031673387 0.009172586 -0.02900962 -0.013128968 -0.039781246 -0.020720134 0.016499817 -0.027733615 0.018611277 -0.013878403 -0.008885691 -0.00792658 -0.0037363854 0.006801892 0.020427244 -0.029260585 0.00097231456 0.048165657 -0.01430092 -0.017495207 0.002042273 0.0006313694 0.020728985 0.018935401 0.0020582716 -0.0137645025 -0.020392368 0.0018826856 -0.011144668 0.07986919 -0.035151724 -0.0017339281 0.03212606 -0.03396373 0.041910216 0.024848968 0.019778756 -0.0007588469 -0.031226572 -0.0106087355 -0.028213438 -0.005923418 0.0014263157
217 0.02722119 -0.009316673 -0.06230197 0.03524251 -0.033808168 0.017669335 0.048455536 0.017958337 0.00097472285 -0.027419692 -0.008724881 -0.036897633 -0.02185155 0.007597874 -0.010988788 0.004515653 -0.014059824 -0.006183406 0.0014191779 -0.013664129 -0.010822508 0.0047688237 -0.03516907 0.009355788 0.038026337 -0.012605207 -0.0035265542 -0.00969246 -0.0057961424 0.019863592 0.008587992 -0.0031435578 -0.0031528706 -0.010383366 0.0013180588 -0.018474301 0.056368865 -0.025387265 -0.011646576 0.023431469 -0.017197791 0.034803867 0.016219163 0.022339435 0.0012280333 -0.016431741 -0.01616071 -0.025284436 -0.013992597 -0.0036459304
196 0.035498433 -0.0058768643 -0.061871067 0.03536663 -0.03783083 0.0012720438 0.045679886 0.023534456 0.017563444 -0.029120123 -0.0068963156 -0.049399596 -0.008488207 0.008428418 -0.021665802 0.004857066 -0.019318113 -0.006959368 0.0022915304 -0.007842841 0.0011780618 0.0007525094 -0.031748224 0.0117575675 0.036210533 -0.016872011 0.0033865846 -0.0033649267 -0.010680571 0.011300665 0.0228529 0.0033757028 -0.01058144 -0.015719173 0.008246206 -0.0060414155 0.07417046 -0.030175319 0.0017952329 0.006746461 -0.030500952 0.029819492 0.010215371 0.024060741 0.017710729 -0.012784339 -0.0042771595 -0.026301693 -0.00065456564 0.0012207633
195 0.039097242 -0.015232926 -0.06203676 0.032282438 -0.0503465 0.021136113 0.04388789 0.028670894 0.005786344 -0.023316534 0.0009940024 -0.048068687 -0.029121792 0.007511295 -0.027932331 0.01667875 -0.012748885 -0.014358681 0.006105652 -0.008334272 -0.011472517 0.013693083 -0.041295044 0.007446572 0.03408133 -0.01443859 0.0034620883 -0.012646627 -0.0007646718 0.014636368 0.028108247 -0.003604918 -0.011945082 -0.010507209 0.0034450458 -0.012284782 0.06800051 -0.034156267 0.0012929102 0.015713021 -0.015910804 0.017564768 0.0142907025 0.035742205 0.00919174 -0.02030804 -0.017387794 -0.016567113 -0.0034271644 0.005010499
231 0.026648443 -0.011316854 -0.0414347 0.023046836 -0.032131504 0.01677453 0.02709275 0.03151653 0.0012487563 -0.023593813 -0.0112147555 -0.035131183 -0.014932499 0.006682437 -0.023026884 0.005456018 -0.015296856 0.0011493342 0.008508782 0.008667868 0.0012497001 0.0157024 -0.036835708 0.00785792 0.02042026 -0.004770744 -0.0019058635 -0.0111350315 -0.00083387265 0.016530948 0.0147032365 0.010102826 -0.0145220645 -0.005128367 0.014158 -0.0158525 0.052261766 -0.023887338 -0.0137570305 0.012075093 -0.013388349 0.02792572 0.01132575 0.026939275 0.00795817 -0.0027968427 -0.008574809 -0.013799592 -0.020181116 0.00706258
310 0.03754637 -0.009933372 -0.049796388 0.021098295 -0.0348536 0.009249794 0.045164324 0.025825286 -0.0002305405 -0.026871555 -0.0063671526 -0.034641135 -0.0139394775 0.013196287 -0.017213438 0.0011330475 -0.025294637 -0.012481415 0.00659725 -8.875629e-06 -0.00968635 0.01326817 -0.024011003 0.0042609964 0.036294445 -0.009765534 -0.0017238946 0.0035519868 -0.017484795 0.0067269793 0.022349507 0.0140548 -0.010960927 -0.016758028 0.0059647188 -0.004299166 0.063426085 -0.024575893 -0.015862728 0.024160938 -0.01752493 0.016136995 0.019215427 0.02742848 0.007848305 -0.015790021 -0.020202126 -0.01029804 -0.015116046 0.008156521
178 0.018769223 -0.015116796 -0.063464805 0.0364714 -0.048324533 0.015102281 0.046132788 0.021127727 0.0074211736 -0.03853206 -0.009441776 -0.030586146 -0.018584454 0.005863202 -0.015899234 0.004676198 -0.021809014 -0.0022098876 0.01137035 0.00039504375 -0.00037909375 0.0030049777 -0.02597924 0.008445742 0.037118472 0.0032374905 -0.0037023295 -0.011205038 -0.012342894 0.016178787 0.020177959 -0.0014288853 -0.016170198 -0.0055155843 -0.0011343654 -0.006776282 0.060469337 -0.021512678 -0.009256856 0.0143615585 -0.019902874 0.03307853 0.0058908886 0.032479905 0.016840689 -0.021364463 -0.018296558 -0.013316911 -0.01979254 0.010085608
328 0.034842152 -0.0006134979 -0.046204615 0.030925 -0.053272944 0.010421271 0.04271633 0.032304082 0.01053519 -0.041546382 0.0056641926 -0.03968347 -0.023245357 0.011903631 -0.029368106 0.011318855 -0.014974496 -0.010187479 0.0023555167 0.0067540943 0.003865556 0.008495809 -0.032527756 0.009873409 0.044245195 -0.01495001 -0.008692214 -0.015944893 -0.0005744928 0.009362339 0.027344173 0.0028750503 -0.015314544 -0.011168475 0.01662844 -0.010263959 0.07242315 -0.030398818 0.004336292 0.012082584 -0.030076552 0.023616238 0.023814876 0.028082447 0.0023450893 -0.007864865 -0.005005767 -0.013339254 -0.012159569 0.0047888495
187 0.033666324 -0.00883593 -0.052969895 0.029552361 -0.032765444 0.00045122494 0.03304311 0.023916777 0.002141803 -0.028567903 0.0009634219 -0.038763203 -0.009053003 0.015232484 -0.013492919 0.015276223 -0.024260858 0.0013849691 0.011826878 0.0027913933 0.004611123 0.013007241 -0.026115863 0.006700926 0.041745394 -0.013436177 -0.011508155 -0.008748195 -0.0159891 0.012965949 0.022726145 -0.0023435636 -0.015444482 -0.013784808 0.005556812 -0.014256992 0.072628215 -0.029190328 -0.003085826 0.018292911 -0.015643531 0.023345357 0.021489745 0.020525841 0.0064270296 -0.0038460894 -0.007729287 -0.023943951 -0.011288859 0.007158445
331 0.026801744 -0.0040613827 -0.05852495 0.034113225 -0.031997874 0.0056724986 0.032128464 0.029609289 0.017679041 -0.022618243 -0.004717035 -0.04298152 -0.022709407 -0.00051902496 -0.02080069 0.004023592 -0.013763051 -0.013285822 0.008333527 -0.005938772 -0.0028581067 0.012494121 -0.036996454 0.0117365755 0.035881106 -0.003301323 0.003538555 -0.012409366 -0.003269447 0.008726719 0.0138671985 -0.003475792 -0.011635847 -0.003169503 0.0008040885 -0.017915383 0.05830343 -0.02133514 -0.012007462 0.025214713 -0.01774994 0.02894271 0.019454716 0.027858198 0.013641408 -0.00930817 -0.019872904 -0.003968566 -0.0054076673 -0.0022571061
