333 50
56 -0.030498656 0.023843301 0.0024529223 0.030540729 -0.017536638 0.030649537 -0.03217053 -0.095060155 -0.017340781 0.081435114 0.014746893 -0.07102681 0.00636864 -0.012066773 -0.028832894 -0.046526298 0.015162827 0.07128157 0.021797443 -0.0048541157 -0.037618868 0.008990199 -0.015074904 0.003648876 -0.024776643 -0.036708083 0.002224864 -0.011888252 0.08572556 -0.010667907 0.02035408 -0.013331601 -0.023083368 -0.0001585242 0.009101413 -0.037024394 -0.0015200151 0.05827253 0.0034405743 -0.0014528291 0.055320505 -0.020559678 0.00033339576 0.1097502 0.04308929 -0.025428811 0.034675512 0.017986989 -0.007855178 -0.009289963
25 -0.03575126 0.011726681 0.0033599786 0.018367078 -0.013525982 0.02388927 -0.022516176 -0.08728695 -0.013506833 0.081467204 0.020379907 -0.06356112 0.0005492681 -0.0059418413 -0.02020647 -0.052841794 0.02151781 0.0501543 0.025070038 0.0024455236 -0.02629421 -0.002377339 -0.011457945 -0.013003124 -0.024348754 -0.045071337 -0.0032615103 -0.011324127 0.07036225 0.001587891 0.01923605 -0.010229599 -0.010123028 0.00754013 0.003982729 -0.040736653 0.00022319608 0.05298367 -0.005547991 0.0060586943 0.052239537 -0.0120460605 0.005591078 0.08888798 0.03274175 -0.014960928 0.02140222 0.02644908 -0.0026632727 -0.016702075
119 -0.04254339 0.015640276 0.0004871737 0.022916198 0.0007121095 0.022378093 -0.026543673 -0.09267965 -0.0023910566 0.088215955 0.02687824 -0.06225178 0.008203377 -0.02106012 -0.03637012 -0.061740242 0.013967533 0.059266757 0.02130625 -0.012002843 -0.038308024 -0.00831439 -0.013039168 -0.00013983328 -0.027330874 -0.04215625 0.008886574 -0.0028396947 0.0674885 -0.0029728967 0.029203238 -0.0074719004 -0.02349988 0.0023778344 -0.0037386373 -0.042047847 0.007789829 0.03917552 -0.0015561717 0.0021540432 0.05316456 -0.01215792 -0.004929695 0.10293198 0.04733475 -0.031060468 0.033422705 0.028780023 -0.016021807 -0.016953615
322 -0.023596548 0.022235775 0.016401125 0.027981663 -0.002475784 0.029811578 -0.023960141 -0.06839596 -0.00036160398 0.06478924 0.013124794 -0.0564953 0.0074984133 -0.010844255 -0.02570207 -0.03785656 0.018831117 0.058315054 0.020655282 -0.010388341 -0.028477073 0.009711366 -0.009727058 0.0030689472 -0.02852033 -0.037656266 0.0018678678 -0.011301144 0.06233824 0.00054264825 0.029865904 -0.015611056 -0.01806895 0.008431201 0.003572341 -0.03142675 -0.0034142572 0.044202406 0.0072065685 0.004675695 0.04913072 -0.019238582 0.002136071 0.08040569 0.030668827 -0.018511157 0.025776003 0.029227104 -0.0055245114 -0.007298126
122 -0.017872024 0.012769442 0.008262173 0.022408577 0.0014786596 0.020828314 -0.03008299 -0.06332568 -0.015651384 0.06706729 0.006279268 -0.03750411 0.0055112657 -0.015281432 -0.031078788 -0.048021477 0.013987955 0.04740839 0.005346377 -0.0058825146 -0.037899956 0.01092561 -0.0057199206 0.007364352 -0.027860247 -0.041427493 0.0051149735 -0.002311812 0.06359917 -0.010224013 0.017242415 -0.017771063 -0.019469973 0.00583434 -0.006914014 -0.023554426 -0.0011415352 0.033434696 -0.008127235 -0.008458483 0.032188375 -0.0019356088 -0.0048960634 0.07382068 0.038423214 -0.028869094 0.018583138 0.008464777 -0.006077458 -0.020873379
277 -0.026854014 0.02123622 0.0025052468 0.027075324 0.00044929542 0.016692804 -0.033127636 -0.08291381 -0.0055939616 0.07827407 0.0068777874 -0.043268565 0.008725033 -0.006373745 -0.025387589 -0.05005582 0.013075599 0.047547564 0.022119619 0.0050894446 -0.03364324 0.008367561 -0.012656984 0.002369574 -0.032588307 -0.0352326 -0.0023840112 -0.0022039998 0.05604189 0.0010616342 0.029885666 -0.017079148 -0.024276495 -0.0025727374 0.009383622 -0.025065036 0.0043124 0.043298498 0.0012685132 0.009580171 0.04957196 -0.014576107 0.0037830626 0.07579806 0.043943215 -0.02220875 0.017057024 0.026667226 -0.013772004 -0.014419694
252 -0.03327804 0.019670313 0.013161024 0.025376853 -0.0002645605 0.022528028 -0.01766555 -0.07741093 -0.0053490005 0.06895384 0.010964267 -0.040675465 0.00039248672 -0.0051548714 -0.022951487 -0.040938877 0.016334817 0.054419562 0.01831523 -0.012983806 -0.024530875 0.009054967 -0.007149506 0.00041479582 -0.031078652 -0.04513703 0.0004509333 -0.0031379585 0.05702007 -0.011167184 0.03005608 -0.018340634 -0.020365044 -0.004618214 0.010727754 -0.024570191 0.010814572 0.038028218 0.0029228705 -0.00020048175 0.050688107 -0.0073988973 -0.0016148904 0.08125911 0.041031454 -0.013630048 0.02640924 0.0235991 -0.012066655 -0.020743037
67 -0.024600485 0.014387807 0.010754664 0.019086014 -0.006347485 0.018695122 -0.032419536 -0.07317936 -0.00808083 0.06492106 0.019229008 -0.044164337 -0.00078584946 -0.02295385 -0.029583693 -0.034087885 0.011690887 0.045149546 0.02243458 -0.009436987 -0.03148544 0.0047818148 -0.008969151 -0.0018309805 -0.022559697 -0.04046884 -0.007198993 -0.019941235 0.061099257 0.0011868647 0.014224479 -0.0039530843 -0.0058735274 0.009911195 0.0053097983 -0.020891571 0.003870847 0.037048582 -0.007984136 0.010096133 0.039171863 -0.015761966 0.007798056 0.07726918 0.030758768 -0.017509202 0.03237214 0.02343422 -0.0029929003 -0.010696544
23 -0.040585432 0.023129705 0.015200612 0.030238446 -0.020719733 0.034626797 -0.03138379 -0.104895905 -0.0011068528 0.09177057 0.030993937 -0.055444673 0.01062062 -0.016079653 -0.025362615 -0.04724222 0.025168454 0.07481515 0.020317318 -0.005821839 -0.03313255 0.0007316736 -0.012251212 -0.0059778728 -0.03297976 -0.046998765 0.0053393566 -0.012354829 0.09187313 -0.016523154 0.021454507 -0.024790833 -0.017396577 0.013411691 0.011093247 -0.045163143 0.005555978 0.045928925 0.0065681897 0.009683811 0.06281129 -0.0064227944 -0.0065988824 0.10813765 0.051643744 -0.016761774 0.02642223 0.023147725 -0.004296725 -0.013974261
285 -0.026078375 0.025242323 0.014569942 0.013849366 -0.0146701075 0.023041017 -0.03090155 -0.07582129 -0.016662154 0.06997137 0.02166597 -0.051240504 -0.0025031539 -0.007862041 -0.016451856 -0.042999513 0.00940471 0.04308106 0.018806323 -0.010868083 -0.028908651 -0.0034262047 -0.017603325 0.006695617 -0.020117141 -0.035030592 -0.00192534 -0.010920633 0.055199042 -0.0021481828 0.028595397 -0.01743688 -0.01782345 -0.0014722805 0.011174115 -0.028839849 0.008800456 0.037431866 -0.009552621 0.0019276452 0.048091155 -0.010477202 0.008588254 0.067697175 0.02289896 -0.011929968 0.020181961 0.015170427 -0.016356835 -0.015177577
21 -0.036897775 0.028081024 0.005115774 0.029689077 -0.00761417 0.031470057 -0.02009036 -0.090112984 -0.011694827 0.07229144 0.026775748 -0.053991564 0.01162224 -0.009621794 -0.03060916 -0.053345047 0.012613898 0.048355322 0.008497526 -0.01074247 -0.041816026 -0.006697786 -0.0045153345 -0.009315095 -0.022937093 -0.041235864 -0.0037822945 -0.01710829 0.077445045 -0.016596666 0.01647496 -0.015678411 -0.0069486857 0.013684756 0.005792522 -0.029021451 -0.0087046195 0.036518455 -0.0011601434 0.0046581407 0.04290978 -0.017298007 -0.0060184 0.09295605 0.037268158 -0.032330643 0.027607597 0.029426174 -0.0015173835 -0.012861039
41 -0.036048517 0.014944819 -0.0027376604 0.0117714275 -0.012889944 0.030119667 -0.014919896 -0.060645986 0.0048809783 0.06758704 0.014864512 -0.035895526 0.0020492445 -0.00632833 -0.021498956 -0.032408893 0.016553529 0.049496733 0.008965185 -0.0015785939 -0.028558822 -0.0050288215 -0.01640758 -0.0008701204 -0.013037607 -0.037878577 0.0040151933 -0.0042385957 0.04918495 -0.004643807 0.01112259 -0.017946636 -0.017177435 0.004102461 0.0076661333 -0.036963325 -0.010161039 0.045516543 0.00886112 -0.008332743 0.035831112 -0.0069288462 0.00800711 0.07837884 0.038432896 -0.020954058 0.03017087 0.027988538 -0.017083481 -0.020089066
332 -0.023474865 0.014573008 0.010439167 0.022443648 -0.011430271 0.017784053 -0.026279299 -0.07416855 -0.001588289 0.06877425 0.02387785 -0.036303226 0.012524658 -0.004694622 -0.021835722 -0.038381293 0.020978287 0.041996438 0.018001547 0.0017738193 -0.034170695 -0.009385156 -0.011094151 0.0015084583 -0.012012546 -0.043353394 -0.0011702697 -0.0146385 0.06452148 -0.011397732 0.016088407 -0.0009468097 -0.011118267 0.005509391 -0.004761151 -0.015815552 0.004907059 0.041713167 0.00042456223 -0.0023519048 0.039891683 -0.015561968 0.00838548 0.078716904 0.02002167 -0.012906457 0.017074151 0.018552551 0.00066914695 -0.010893302
19 -0.033898078 0.018154485 0.008548153 0.019622777 -0.01686845 0.015366954 -0.031459786 -0.076198205 0.0018323007 0.07300075 0.013768447 -0.053290088 0.008790535 -0.024477933 -0.019885847 -0.03784338 0.02593978 0.048073657 0.010808753 0.0064256066 -0.03440985 -0.004855368 -0.011040261 0.00039114687 -0.021725396 -0.055732206 0.013039963 -0.005669816 0.06330073 -0.007786481 0.021351274 -0.013863842 -0.006327817 0.0004044814 -0.008772741 -0.04116974 -0.004635726 0.038540836 0.011995116 -0.005651226 0.052056693 -0.017194726 0.0050638113 0.08500964 0.044136275 -0.019165313 0.028406443 0.028752135 -0.014529291 -0.013047561
312 -0.033524614 0.009215723 0.0068490137 0.024733417 -0.0081162 0.025145538 -0.026066368 -0.059838377 -0.0068832748 0.06982259 0.009503278 -0.049197443 0.018413085 -0.007450182 -0.019734934 -0.046178628 0.026792815 0.05853846 0.010819904 -0.0034832312 -0.0325328 0.00258665 0.00043740903 -0.010465601 -0.019255556 -0.037476312 0.00864588 -0.010799691 0.057432074 -0.0004982537 0.015830511 -0.0021947194 -0.01184748 -0.0009112028 -0.0056929733 -0.029897638 0.002079699 0.035490934 -0.0050119697 -8.3060375e-05 0.046663254 -0.008379286 -0.0076349787 0.07387139 0.04035007 -0.029829128 0.033026423 0.026858192 -0.012639547 -0.024892503
26 -0.030481407 0.02225122 0.0075813867 0.026145032 -0.01507715 0.028955974 -0.019915186 -0.06461315 -0.009159997 0.07009713 0.009307847 -0.040762328 0.005217526 -0.021550281 -0.02094229 -0.045309667 0.020645654 0.045914132 0.018279824 -0.0025258663 -0.033332486 0.004010286 8.42946e-05 -0.000578009 -0.029731851 -0.028747998 -0.0055821543 -0.018533811 0.05256685 -0.0072090784 0.01722243 -0.006297386 -0.013322394 -0.004847839 -0.0060321405 -0.02653982 -0.0036976875 0.030659543 -0.0012614422 -0.0020892152 0.032467913 -0.0026010913 -0.007143724 0.075105496 0.028649297 -0.013277865 0.03211989 0.019140411 -0.00021614663 -0.013957556
200 -0.028682226 0.022396706 0.011282823 0.028618028 -0.012308248 0.02939439 -0.021820765 -0.08128992 -0.013615584 0.07618577 0.023238597 -0.045748763 0.0160901 -0.004858137 -0.023562763 -0.043834955 0.022956293 0.053400267 0.022650337 0.0024234345 -0.037248984 0.001669501 -0.011845877 -0.0032033608 -0.029601386 -0.039184693 -0.0012073603 -0.016012011 0.05604697 -0.016490329 0.025621586 -0.0027706635 -0.011929632 0.0046952125 0.0030486966 -0.02397674 -0.0043285405 0.030038675 0.00024703177 -0.0054251924 0.051947143 -0.012454578 0.0048988503 0.09223582 0.040362995 -0.023993738 0.035158098 0.01391702 -0.0052368967 -0.022318702
230 -0.026963724 0.009401878 0.017337468 0.026655076 -0.0020005966 0.023178639 -0.01476062 -0.06632279 -0.012992428 0.07789784 0.025258243 -0.057584796 0.00063626113 -0.0075749964 -0.030418348 -0.042290073 0.026863892 0.043966427 0.021954857 -0.0076249805 -0.038514696 0.0013507712 -0.0018202204 -0.00243325 -0.022112438 -0.03081209 0.013613368 -0.0015073346 0.0649749 -0.017182533 0.014346186 -0.004799784 -0.005388157 0.013148147 -0.0074567874 -0.031019006 -0.0061852694 0.03191715 0.0023970318 0.00039540316 0.037015233 -0.0068989825 -0.006734964 0.08022113 0.028490482 -0.02491875 0.032008834 0.027821537 0.0027998155 -0.010797842
315 -0.03170598 0.00892357 0.012341696 0.014800182 -0.004437971 0.016193638 -0.023351692 -0.07040966 -0.013949687 0.06744415 0.005615999 -0.045654025 0.010424588 -0.009068648 -0.0267473 -0.034435034 0.006617198 0.04938713 0.018891953 0.002543974 -0.030947393 0.00086862117 0.000611244 -0.011907917 -0.013263758 -0.031761423 -0.0032846425 -0.017580412 0.062253483 0.0036923396 0.017166484 -0.006664002 -0.009034989 0.0051749144 -0.0024300707 -0.02291149 -0.008928409 0.04017773 0.009796466 0.008346849 0.040381882 0.00018111413 -0.0053789774 0.07847047 0.025561014 -0.019419717 0.018680159 0.020716926 -0.012148759 -0.011687733
170 -0.025065852 0.011939384 0.005618113 0.02727638 -0.0058918805 0.027145036 -0.015894076 -0.055593126 -0.002513825 0.06499166 0.014878242 -0.05503079 0.0101549225 -0.0065502473 -0.028561663 -0.034990646 0.026098618 0.048668165 0.01034826 -0.00793141 -0.03175481 -0.0021219798 -0.014305548 0.0033645069 -0.012695163 -0.036585707 -0.005906746 -0.009400256 0.06682575 -0.013701045 0.015198001 -0.01755195 -0.015163841 0.0027461688 0.0046593896 -0.01653419 -0.0070561906 0.03667927 -0.006933684 -0.0044927727 0.046752673 -0.008081648 0.007268511 0.06452603 0.026365666 -0.025800837 0.027762203 0.011466016 -0.0055091153 -0.019083625
203 -0.033624284 0.0077658463 -0.0021804064 0.030468723 -0.012678174 0.020563202 -0.032293923 -0.08256747 -0.0096134385 0.059523605 0.02365613 -0.05736048 0.008044714 -0.020478638 -0.017674545 -0.04962475 0.024029003 0.05575089 0.021177828 -0.002375107 -0.032542814 -0.0074387207 -0.009035387 0.0070802737 -0.028751312 -0.040996578 -0.008367141 -0.019738553 0.053712834 -0.0142478505 0.021707 -0.018629672 -0.017078217 -0.0021525202 0.011074437 -0.034665942 0.003954241 0.037876602 0.0045043393 0.009672999 0.05301681 -0.01594154 -0.002944601 0.08121199 0.024968786 -0.014912496 0.027539173 0.017562822 0.0017702045 -0.016912084
40 -0.02789196 0.020035876 0.0050480827 0.02642373 -0.014711847 0.009077456 -0.012832774 -0.06413921 0.0033833212 0.063684456 0.016515542 -0.0341245 -0.00032524584 -0.0032644286 -0.021863919 -0.0408495 0.011703512 0.043340508 0.014987391 -0.009854386 -0.03201409 -0.006772867 -0.014633076 0.0028412591 -0.023677014 -0.037869908 0.001983968 -0.0035051552 0.06217886 0.0020993582 0.021983575 -0.009313155 -0.011496409 0.010250331 -0.00035505992 -0.020917144 0.0009804636 0.040935278 -0.0020012672 0.008287031 0.038750432 -0.0128666805 -0.005403955 0.07577763 0.023886798 -0.016775439 0.017334647 0.011648186 0.0038637046 -0.011151271
9 -0.028497532 0.01050306 0.0014499527 0.02558382 -0.0133373765 0.015877414 -0.020098848 -0.06672487 -0.014057018 0.05407014 0.01428262 -0.053980257 0.0019057458 -0.009324992 -0.017863534 -0.043230277 0.018112699 0.04318061 0.024867037 -0.0067811986 -0.025366934 -0.0030938052 -0.010088584 -0.0066780383 -0.028581392 -0.034176733 0.0052813687 -0.011582704 0.06015607 -0.012529225 0.025179693 -0.014221339 -0.015931392 0.0035293065 0.0073204525 -0.031343997 0.0018224876 0.03886743 0.0048829983 -0.005865609 0.044382352 -0.012704212 0.00026988203 0.0677125 0.035964258 -0.010464118 0.013460736 0.025616257 -0.009054892 -0.005353876
188 -0.025844486 0.0064746416 0.015934667 0.019513287 -0.0026827098 0.024955584 -0.029620597 -0.070763946 0.003984457 0.055596847 0.0143371485 -0.038655326 0.013284387 -0.0066782273 -0.029491236 -0.030005937 0.015563659 0.04468614 0.022135884 -0.0064833323 -0.025341667 0.005737393 -0.015278063 -0.0067518903 -0.018076234 -0.03245035 0.009078732 -0.018291583 0.050066706 -0.008618749 0.022276571 0.0011068297 -0.022040391 0.013156081 -0.0023850207 -0.018303597 0.010641602 0.03281627 -0.004952942 0.0023864983 0.032247942 -0.0066492343 0.004491429 0.07056052 0.029000916 -0.011601874 0.023315229 0.019479208 0.0034671263 -0.019829143
115 -0.028302874 0.0120508475 0.015567274 0.01258743 -0.015077905 0.024797939 -0.028390171 -0.054820184 -0.011473988 0.06291378 0.018835876 -0.044981085 0.006755285 -0.004601279 -0.02843304 -0.035964172 0.019441599 0.051673755 0.020786779 -0.009078427 -0.023160867 -0.0017398238 -0.01732105 -0.002998425 -0.029593037 -0.045732077 -0.0040003043 -0.0029316896 0.060294144 -0.0053111697 0.02848023 -0.013574708 -0.01124387 -0.0034751843 0.0071562766 -0.023928333 0.0017873533 0.04432192 -7.754494e-05 -0.008109706 0.036635216 -0.010045773 0.002719617 0.064538404 0.04023799 -0.011708433 0.03304661 0.0091977175 -0.008240422 -0.0094468165
271 -0.02885329 0.02222248 0.0022442776 0.013208084 -0.007248919 0.026797604 -0.031525686 -0.05272958 -0.014170714 0.06309951 0.011349441 -0.035792723 0.009611576 -0.009388688 -0.02369987 -0.040439807 0.008678899 0.051137708 0.02170642 -0.0111080175 -0.020248927 0.0065387674 -0.0029631571 -0.0086969705 -0.029198142 -0.030963074 -0.0072654323 -0.009094351 0.060807988 -0.005336104 0.027957823 -0.00727488 -0.0171061 0.005416528 0.0023323658 -0.03016841 0.003554279 0.04345746 0.0003756782 -0.002107077 0.04516519 -0.009291565 -0.0057194745 0.079056896 0.0222045 -0.02125823 0.023480084 0.016138444 -0.0012413576 -0.009305834
272 -0.02922805 0.021173965 0.009476908 0.014150831 0.0035873505 0.023965236 -0.013106894 -0.06256425 -0.0011215117 0.050516974 0.014160792 -0.03749822 0.01561498 -0.009716516 -0.020130236 -0.030148927 0.005585522 0.03530162 0.022329792 -0.01208619 -0.029354222 -0.003881791 -0.0023897178 -0.004250481 -0.02456384 -0.04020549 0.00058176904 -0.0043207263 0.06148692 0.0028511735 0.024508517 -0.016554486 -0.014952397 0.0037944748 0.00056252064 -0.0272136 -0.0047722105 0.031091182 -0.007407751 -0.0020581372 0.03371678 -0.009315543 0.0042924252 0.06920566 0.033649813 -0.028485268 0.030237604 0.02533943 0.0005897309 -0.012291667
186 -0.028757764 0.009877772 0.016791029 0.027803147 -0.0067766313 0.022695288 -0.031018052 -0.075816095 0.00019947818 0.07197506 0.019869506 -0.04881861 0.015383742 -0.019543814 -0.03164457 -0.05049514 0.02617148 0.05505324 0.025157422 -0.008271112 -0.02053501 -0.000621746 -0.017351503 -0.011475295 -0.018926136 -0.03408011 -0.0051053516 -0.018401138 0.051996697 -0.0071090814 0.021833036 -0.009056302 -0.011100039 -0.0008761502 0.005124161 -0.03492967 -0.0048955497 0.030732103 -0.005367266 0.009666552 0.048641562 -0.010201746 0.0030307635 0.07689418 0.023849737 -0.029146528 0.018663323 0.015739685 -0.0121156685 -0.004050591
239 -0.02449632 0.016467614 0.0024716994 0.012214394 -0.00096061814 0.027775142 -0.033313658 -0.07771408 0.0015114753 0.068163164 0.007974541 -0.04955802 0.015067366 -0.023200545 -0.03381773 -0.042202204 0.009137686 0.057263408 0.011214794 -0.011114384 -0.025333786 -0.0019848954 -0.0070579774 -0.0064839153 -0.027384324 -0.038380716 -0.0045434283 -0.004083101 0.06194114 -0.0002427875 0.023640098 -0.009815424 -0.011269216 0.008018515 -0.00065747724 -0.031656586 0.0023457669 0.043226782 0.0071049705 0.0073355567 0.03354772 -0.0051218676 0.00046278036 0.07207467 0.024486132 -0.018254776 0.022293622 0.028064724 0.0007325528 -0.014575107
236 -0.03787407 0.025314001 0.004747065 0.029118827 -0.007884139 0.012047036 -0.024656333 -0.06273715 -0.0032991567 0.0636914 0.013982983 -0.044877082 0.013355659 -0.021863488 -0.0328355 -0.047936555 0.02638989 0.054174453 0.017487573 -0.00072910107 -0.037258565 0.0034614336 0.001099909 -0.008300125 -0.030627681 -0.035456985 0.0024398556 -0.009831937 0.055413917 0.0032099131 0.013172418 -0.0054031927 -0.012193605 0.0069484566 0.00023760185 -0.034583397 0.0044890246 0.045593623 -0.0021756643 -0.0026254812 0.048372764 -0.017930888 -0.010343374 0.08710831 0.042147905 -0.02619509 0.015783612 0.0152540095 0.0020828198 -0.014161333
113 -0.022022158 0.0070939003 0.013731699 0.018176444 -0.0027932052 0.02850029 -0.030898202 -0.062408544 -0.005197735 0.06393267 0.005689549 -0.035596143 0.016771011 -0.01958524 -0.029625947 -0.041135956 0.018996695 0.05276093 0.023435656 -0.008377944 -0.036727667 0.0055903974 -0.0014595315 -0.0059271273 -0.015357495 -0.024359666 0.0045971116 -0.0050336905 0.065000504 -0.00531789 0.020399334 -0.018001664 -0.021224512 0.008281782 -0.008919521 -0.028255252 0.008928397 0.029867565 0.00589252 -0.0069155386 0.04659729 0.0001966503 0.0020373247 0.07673814 0.027934931 -0.014416596 0.02482046 0.023114812 -0.004169168 -0.013962583
169 -0.018196989 0.022547845 0.009304199 0.010050042 -0.0026779894 0.01891039 -0.01682542 -0.06261241 -0.014455148 0.05101963 0.013076352 -0.050882824 0.0029719481 -0.006696643 -0.02806682 -0.035540864 0.0062031895 0.04077606 0.011316264 -0.0073132 -0.03046972 -0.007942504 -0.00097480795 -0.005611828 -0.019609822 -0.025070505 0.003980143 -0.010947244 0.048397526 -0.007454927 0.026630059 -0.00669686 -0.021293549 0.0066280146 -0.0075786053 -0.021954559 0.009024865 0.038344074 0.0061875 0.0055965427 0.04185741 -0.0031691517 0.00048570905 0.07467695 0.02696331 -0.018365415 0.01575195 0.0165791 -0.0013217631 -0.014876869
280 -0.02393774 0.0209404 0.00048823646 0.014963765 0.00084495737 0.009579361 -0.030172784 -0.0630724 -0.0089274105 0.046105046 0.01603018 -0.035802234 0.011359665 -0.011676146 -0.024836492 -0.03514484 0.0048093153 0.04104249 0.0065243267 -0.010570393 -0.018628402 -0.00442854 -0.001792233 -0.009890543 -0.027938532 -0.026008122 0.008952167 -0.016512068 0.046826124 -0.00807422 0.025545597 -0.008962319 -0.0018952365 0.0042216596 -0.0095053585 -0.025749287 -0.0045881714 0.041013815 0.0046973513 0.0076903207 0.030153919 -0.012078107 -0.009894858 0.06738867 0.037136596 -0.025124991 0.023451103 0.018922098 0.0027454544 -0.012223837
326 -0.028245779 0.0097879525 0.016788518 0.018798731 -0.0051319054 0.025000522 -0.025369558 -0.056964524 0.0020068379 0.056975868 0.0072803814 -0.035508588 0.014424677 -0.0030462795 -0.029515946 -0.04938326 0.018758977 0.052892767 0.012259334 0.005951872 -0.037500836 0.008840846 -0.017224895 -0.0062910393 -0.020305192 -0.045319896 0.008001388 -0.001418955 0.06982534 -0.00908651 0.01341822 -0.002506972 -0.009929363 0.010282794 -0.006415155 -0.036850806 -3.8838552e-05 0.040783502 0.008522868 -0.0076303156 0.048445236 -0.0108727 0.0047826045 0.072189845 0.043324675 -0.012891054 0.02511699 0.014914997 -0.011926876 -0.0098309675
98 -0.020228881 0.016870037 0.0012532861 0.019949058 0.00046362705 0.015533252 -0.028552076 -0.06590542 -0.014363501 0.05645432 0.018158313 -0.050988298 -0.0036623352 -0.019480456 -0.014481177 -0.04521985 0.013225895 0.04787582 0.021895587 -0.0017265226 -0.0180181 0.0022476919 -0.0071490086 0.0029041104 -0.028049441 -0.03642976 -0.009358205 -0.011934787 0.051032107 0.0025084505 0.010261944 -0.015764302 -0.021505695 0.0093588205 0.0049801143 -0.015214119 0.0001493363 0.03872646 0.002348944 0.00010922951 0.042711694 -0.016257709 -0.00309066 0.06379609 0.027690323 -0.015609582 0.019665852 0.024982706 -0.014210941 -0.015115156
334 -0.028500685 0.023116 0.017445467 0.013776724 -0.012478752 0.015296102 -0.02775887 -0.068820536 0.00020006916 0.06255614 0.008669528 -0.041340686 0.004492767 -0.01166197 -0.030454956 -0.04962861 0.01591852 0.04902651 0.02311035 -0.010731378 -0.038959384 -0.00801956 -0.00057451724 0.0012020754 -0.031964626 -0.048015606 -0.0010531234 -0.01718304 0.06701074 -0.0040109744 0.026777511 -0.0039375643 -0.014569384 0.015089141 -0.0022520784 -0.027308866 -0.008059549 0.04277243 0.0012093128 0.009178238 0.039299645 -0.0049001435 0.0054257 0.09287335 0.028789567 -0.028304407 0.017347436 0.028579185 -0.005602409 -0.009038956
199 -0.022258077 0.0114608975 -0.0020267137 0.011337562 -0.0060003935 0.01640927 -0.02936264 -0.07615164 -0.008156528 0.06792287 0.013536272 -0.04721872 0.0012849268 -0.006903421 -0.023023399 -0.029902374 0.008044129 0.0373831 0.022892363 -0.0067856484 -0.037251044 -0.002078389 -0.017305337 0.006657857 -0.026718859 -0.042944778 0.008547441 -0.013790658 0.06488584 -0.0038473553 0.0134398695 -0.014968436 -0.008338607 -0.0024045296 -0.0056367298 -0.027557857 0.0013700867 0.033793934 -0.0067470702 0.0075289165 0.03844374 -0.0041117975 -0.0029856353 0.06402852 0.034676738 -0.010827852 0.018614225 0.016098827 -0.0081577115 -0.012562689
175 -0.030349163 0.028237917 0.0058297343 0.02094945 -0.0031695655 0.03229783 -0.034526795 -0.0752705 -0.014625255 0.07202915 0.022473466 -0.05670231 0.009608712 -0.024961611 -0.026338408 -0.032466106 0.0109312665 0.055062365 0.026841188 -0.012122594 -0.031450633 0.010853177 -0.009265382 -0.0025840409 -0.018577373 -0.044771247 -0.0017296162 -0.018385842 0.06721242 -0.01028379 0.03428719 -0.004715418 -0.008738225 0.0071498603 0.009020487 -0.033198383 -0.005110965 0.038972862 -0.0033032214 0.009099034 0.04876769 -0.009780553 0.0053851334 0.087073185 0.045203466 -0.020056989 0.031602297 0.012116433 -0.0048443726 -0.008775385
323 -0.02608597 0.021620017 0.01093291 0.021025466 -0.012674068 0.0140184015 -0.027848218 -0.06978441 -0.0018603319 0.05754138 0.0052646613 -0.051000077 0.0042334334 -0.004397871 -0.020595908 -0.04335271 0.018284563 0.035780903 0.006055241 -0.008581698 -0.023991158 0.00024908734 -0.0016450247 -0.001476013 -0.01838441 -0.025007281 0.002431776 0.0004358386 0.0607816 -0.006162236 0.017215662 -0.0044030896 -0.008033367 -0.0054528443 -0.0036383139 -0.034294717 -0.0052512684 0.026454551 0.0065007065 0.0058187516 0.04497388 0.0014944376 -0.004797647 0.06541056 0.022872651 -0.0144470045 0.027023563 0.02556735 -0.0038097198 -0.020257495
324 -0.030794589 0.015105234 0.007537172 0.027204096 -0.014367656 0.019806014 -0.02799513 -0.07509773 -0.007361104 0.06126748 0.013811639 -0.05543572 0.00853373 -0.017572483 -0.0183852 -0.047112543 0.016331604 0.048422653 0.016190333 0.0018681603 -0.028969416 0.0042197444 -0.008132699 0.0056426614 -0.026522622 -0.042053603 -0.0024081282 -0.0011848741 0.059212472 -0.0016526849 0.013578242 -0.01558286 -0.021309854 -0.0053973515 0.004024492 -0.018414276 -0.0066946927 0.040920563 0.008049483 0.0009805844 0.03432373 -0.008563311 -0.0012530629 0.08117873 0.03389893 -0.02262262 0.03245954 0.02179734 -0.014049734 -0.013313352
346 -0.026486255 0.01339524 0.01594336 0.03075897 -0.005677221 0.021779522 -0.02986746 -0.07055945 -0.015486389 0.058730703 0.015200736 -0.041248877 0.012868825 -0.023654388 -0.035269953 -0.050110042 0.014071509 0.059851754 0.015136556 0.0018606661 -0.038971797 -0.0079145245 -0.017033443 0.0028391439 -0.017835032 -0.045917835 0.004126481 -0.012852673 0.068023674 0.0009730936 0.025301732 -0.01745479 -0.0208686 -0.004954105 0.00026413143 -0.03582416 0.009677665 0.04226586 0.009101595 0.009044359 0.042055104 0.00024070949 0.0012810407 0.08373072 0.03750342 -0.03078963 0.031198092 0.018481286 -0.007360151 -0.022775894
53 -0.016404718 0.021225609 0.0012881167 0.020647112 -0.004095521 0.026248857 -0.03523613 -0.063399404 -0.01081503 0.05806548 0.016577147 -0.042156585 0.0070270365 -0.010584764 -0.017125381 -0.03578732 0.016735034 0.050113488 0.017515114 -0.00017835718 -0.024774684 -0.0045577525 -0.002388056 -0.0027786042 -0.024179306 -0.042524025 0.011327086 -0.0044299094 0.057501063 -0.011533655 0.023777926 -0.0047771684 -0.005769649 0.0011326368 -0.0013881942 -0.022427958 0.00012964195 0.039738484 -0.0062526264 -0.005391955 0.03468838 -0.013420528 0.0073782587 0.077947736 0.03965303 -0.026268624 0.02558019 0.021533366 -0.0045254366 -0.02224024
172 -0.036910266 0.010283016 0.0076680486 0.021405134 -0.014488201 0.017241923 -0.026017025 -0.081499174 -0.014204202 0.0706147 0.01499723 -0.049169615 0.0066431034 -0.010368803 -0.029034672 -0.04598807 0.008358549 0.04592332 0.022854708 -0.011837093 -0.02640924 -0.00027833838 -0.0018189003 -0.0025992852 -0.026571449 -0.04351431 0.006082133 -0.014395346 0.06899134 -0.0077611995 0.024634343 -0.001507279 -0.01402146 -0.002258454 0.0013248656 -0.03189899 -0.0020052353 0.028793596 -0.0004102228 -0.008149773 0.035591666 0.0011452829 0.0039524394 0.08663837 0.028600657 -0.017579017 0.029631061 0.021376912 -0.0034916268 -0.019589137
91 -0.04087315 0.0293739 0.008657187 0.014880979 -0.019280856 0.021437837 -0.029838825 -0.07575268 0.0018364849 0.064752206 0.01732447 -0.05661864 0.0067572924 -0.026096478 -0.035968423 -0.05233718 0.013013366 0.053156983 0.01238987 0.0013037808 -0.020376284 -0.010353234 -0.013122207 -0.005301076 -0.026756542 -0.050174817 0.0014599095 -0.005642869 0.08280723 -0.013802846 0.023742976 -0.0015278007 -0.026753154 0.009369749 -0.01113768 -0.036380474 0.0029318356 0.053475518 -0.013989118 0.0030048627 0.038838197 -0.0016400507 0.008436712 0.08527527 0.034688357 -0.02940076 0.024481086 0.02532882 -0.016029045 -0.013668317
214 -0.023696354 0.02124775 0.011415798 0.02623146 -0.013111555 0.01022317 -0.024313051 -0.052722227 -0.011078858 0.04896462 0.0038506465 -0.04866635 0.006513185 -0.015576578 -0.03009642 -0.029629186 0.0183816 0.046182595 0.0070577892 -0.01005811 -0.027105879 0.0027723366 -0.012888096 -0.007076954 -0.028332455 -0.027605625 0.004457961 -0.006899861 0.04912278 0.0020775185 0.0150941145 -0.0054484764 -0.0038556596 -0.0061129904 -0.0017165687 -0.02411486 0.0037805778 0.030563192 0.0026752981 0.005143632 0.04095909 -0.013961399 0.005492041 0.07347884 0.022096405 -0.011907073 0.024379887 0.01896246 0.00042144855 -0.011201472
310 -0.022518512 0.0064584296 -0.0044551156 0.01909738 -0.00521654 0.028901355 -0.031065987 -0.05531562 -0.00045120745 0.07329596 0.0042840284 -0.04134074 0.0129533205 -0.022303687 -0.020069141 -0.028723883 0.024718318 0.051441073 0.0041243597 -0.0039411914 -0.025090717 -0.0069903983 -0.014430112 0.006874003 -0.020749079 -0.042091414 -0.0065878355 -0.0017698834 0.06607777 -0.011590043 0.012634539 -0.0024984854 -0.020489203 0.016157264 0.0045624943 -0.039727505 0.0037255704 0.045712154 0.009874707 0.009343385 0.034287777 -0.018429706 0.0007788722 0.08431075 0.028119288 -0.02182843 0.019379953 0.01084388 -0.012363908 -0.014595128
137 -0.031082604 0.008466063 -0.0034155895 0.022310667 -0.006066266 0.027182918 -0.019483117 -0.06184028 -0.009654173 0.06285321 0.014592348 -0.041338522 0.007892003 -0.015904589 -0.027620114 -0.04196925 0.027512234 0.040489014 0.023013828 0.0091479495 -0.031801526 -0.000171747 -0.009619618 -0.0019870044 -0.01058447 -0.037983865 0.0076725683 -0.0026264742 0.055855244 0.00029098822 0.0146772405 -0.00274088 -0.013280491 0.012296481 -0.005186421 -0.02443757 0.0065597957 0.04183598 0.0041748355 0.0058896025 0.045450684 -0.01831918 -0.0018535358 0.08284695 0.024302639 -0.024466868 0.017211078 0.010262668 -0.0067963633 -0.01943874
261 -0.027277112 0.023639577 0.0060472707 0.014573375 -0.010615981 0.010663679 -0.033019543 -0.07414638 -0.009242234 0.06262931 0.022954244 -0.053352263 0.015875047 -0.021558296 -0.013985331 -0.04813099 0.023611287 0.0430307 0.022809746 -0.013081769 -0.01978398 0.0097184125 -0.0094078975 -0.010672035 -0.028860927 -0.03874748 0.0050556646 -0.0020079804 0.06392683 -0.0028777958 0.019173546 -0.010909574 -0.00967799 -0.003394328 -0.0016026166 -0.030642245 -0.0034460216 0.036965106 0.003004288 -0.008577246 0.031369105 -0.007287213 0.00015262385 0.0818889 0.035627123 -0.009548658 0.016253963 0.024440382 -0.004811596 -0.023407662
339 -0.037022308 0.022666197 0.013043414 0.021000236 -0.0097654415 0.024554584 -0.022374818 -0.07475424 -0.0040235897 0.06353761 0.019656636 -0.047845975 -0.0016734796 -0.013512359 -0.01713592 -0.043770187 0.005488751 0.04625714 0.020204594 0.0005632442 -0.021068444 0.0047991085 -0.013096007 -0.004913758 -0.018099027 -0.041596834 0.0039875144 -0.008467 0.062206898 -0.0057012313 0.012155255 -0.007012498 -0.008311889 0.0056950175 0.004068329 -0.02135079 0.0021514022 0.02779503 0.00963334 0.010351679 0.04129628 -0.015590074 -0.009664804 0.083065316 0.040406395 -0.021776536 0.026477808 0.026753658 -0.008361753 -0.008020261
13 -0.02421822 0.011737004 0.012999959 0.013588639 -0.0016298151 0.008749078 -0.022931118 -0.06686955 0.00021567542 0.062982164 0.01294829 -0.03368114 0.01185969 -0.0045340597 -0.02120202 -0.040298026 0.0069939946 0.049101125 0.004173059 -0.0006327854 -0.0139802825 -0.0028211349 -0.008939566 -0.009734478 -0.021244885 -0.037683006 0.0066067106 -0.010361596 0.047888663 0.00082927337 0.022949934 -0.00847431 -0.007935134 -0.0027330897 0.011078539 -0.018338878 0.007098331 0.038615916 0.0039264187 -0.0051768073 0.032778047 0.00016758268 -0.0059187305 0.056122217 0.016592337 -0.022866286 0.025778648 0.022096103 -0.009152958 -0.0067549814
291 -0.03469245 0.023711411 0.007976811 0.011308882 -0.0094606895 0.01521462 -0.018189434 -0.061603718 -0.0044870065 0.06719026 0.012143028 -0.049659006 0.012130843 -0.0218058 -0.016369345 -0.046874877 0.012458432 0.051914107 0.018500725 0.006303917 -0.030351168 -0.0022772287 -0.0068912795 0.0025224388 -0.016253794 -0.03336253 -0.005372265 -0.0020572618 0.0523843 -0.0018307772 0.012761122 -0.016277798 -0.004118895 0.0018462057 -0.0011651668 -0.033705898 -0.0037926708 0.038171686 -0.009230397 8.561018e-05 0.046930354 -0.011549121 0.0038900685 0.07891096 0.020321315 -0.015646823 0.029315164 0.023440577 -0.0014296777 -0.017870307
329 -0.028135652 0.01892517 -0.0015436655 0.00789088 -0.002663132 0.020744046 -0.02858361 -0.05836816 -0.013089233 0.05680972 0.014842926 -0.043577794 0.00388223 -0.010167579 -0.030460402 -0.04477934 0.019118011 0.05140542 0.007282575 0.0051970384 -0.028291924 0.0017411764 -0.0089466935 -0.0058900416 -0.02419973 -0.040190615 0.0032748792 -0.018901953 0.05344632 -0.0018154022 0.02637929 -0.018750357 -0.008738166 -0.004525122 0.0006168818 -0.03230787 -0.008180085 0.04236882 -0.0053724013 -0.0027044904 0.04107215 -0.012039713 -0.0021311855 0.06721099 0.022934217 -0.026647111 0.017885031 0.022239476 -0.0028624893 -0.007653391
213 -0.028501151 0.020156942 0.01584477 0.016085874 -0.0057191625 0.015683815 -0.022394117 -0.05922713 -0.004882345 0.061917935 0.012781316 -0.04438745 -0.0005842052 -0.0066789063 -0.032744393 -0.04535442 0.004847874 0.035812784 0.005259012 0.0001923762 -0.033297703 0.005139893 -0.0061521963 -0.00076983136 -0.02560358 -0.032850903 0.006483831 -0.008563141 0.05684857 -0.0050005815 0.028864494 -0.014775381 -0.010170617 0.0012789106 0.0070630447 -0.029201975 -0.0035225605 0.041203246 0.005410012 0.007554921 0.03484237 -0.015189683 0.0036312523 0.06336532 0.03431905 -0.019167818 0.01611833 0.022688026 -0.004183416 -0.019241355
304 -0.03183375 0.009373522 0.0033244665 0.008635355 0.0007045373 0.010566815 -0.025389137 -0.07032403 -0.008439256 0.052680258 0.007502454 -0.03911757 0.009504075 -0.007313904 -0.012074031 -0.03917715 0.015401143 0.050769694 0.01665846 -0.002518924 -0.032246333 -0.0005414637 -0.011343803 -0.0035961813 -0.029167982 -0.031326402 0.0046542855 0.00023589146 0.059938747 0.0016037631 0.01572429 -0.01112397 -0.008304087 0.0044931523 0.009708621 -0.028608862 -0.008396246 0.039983988 -0.0093109645 -0.002393738 0.045993682 -0.0036142545 0.0012196274 0.06438135 0.02384698 -0.024358854 0.012707108 0.025764594 -0.00018730228 -0.015186626
109 -0.023027392 0.017207967 0.0055062072 0.015196428 0.0019052705 0.020965906 -0.011771579 -0.053352855 -0.013668971 0.057563998 0.0075771376 -0.03838502 0.010627443 -0.017586958 -0.02555626 -0.036945008 0.016220277 0.036844593 0.017030384 -0.0037427198 -0.021971958 -0.0007391257 -0.013004427 -0.0022543462 -0.007679995 -0.017872743 0.0007345948 -0.014211494 0.03741341 -0.001961397 0.016181527 -0.014953646 -0.005042648 -0.005453884 0.010438276 -0.013094973 0.0046007233 0.03543217 -0.009260331 0.009349732 0.02165372 -0.0037990815 -0.008380551 0.054988705 0.02196634 -0.008534491 0.01990934 0.013467294 -0.0048883455 -0.005698087
313 -0.01708684 0.025113758 0.011986145 0.014958199 -0.009182377 0.013681033 -0.01482887 -0.05653469 -0.01448584 0.06594379 0.00807529 -0.034559865 -0.0025274754 -0.014514884 -0.027004171 -0.039530825 0.015393981 0.03894081 0.0061167125 -0.010096457 -0.03185597 -0.008522653 -0.0060996898 -0.011518444 -0.02520567 -0.041184917 0.0074702417 -0.0026906508 0.06398057 0.003810601 0.02923085 7.698911e-05 -0.00825549 0.009413977 -0.0018940155 -0.028618991 -0.00029188863 0.041310962 0.0018454335 0.010847244 0.04103443 -0.007317512 0.0028757232 0.067103505 0.02417046 -0.016701052 0.016609054 0.015600396 -0.013223845 -0.01955861
143 -0.024393158 0.01336938 0.01292274 0.028942075 -0.00206797 0.020995442 -0.040136475 -0.07987091 -0.011598656 0.08056264 0.024910068 -0.046710268 -0.0005258238 -0.018337062 -0.019088022 -0.046359137 0.025466584 0.04701958 0.022554794 0.0024642772 -0.027786097 0.008210856 0.0006330952 0.0032705464 -0.014477911 -0.042974174 0.006940785 -0.01927117 0.07429408 -0.014206445 0.030868858 -0.02014968 -0.022872826 0.014373616 0.0022106178 -0.031575993 -0.0013892796 0.03960342 -0.0044786544 -0.0014648163 0.032458168 -0.0036755172 0.0048989207 0.08775729 0.04482807 -0.026285443 0.017332723 0.020368509 0.0013648595 -0.008460537
99 -0.020923227 0.015600665 0.012143294 0.024532532 -0.016653897 0.018533463 -0.026762733 -0.072774895 -0.017002579 0.07093864 0.026874647 -0.049578488 0.0061083995 -0.012169781 -0.023443775 -0.033251893 0.0132554285 0.04345252 0.021813923 -0.0005878721 -0.0351688 0.009665278 -0.010613151 0.003311211 -0.02588665 -0.036760792 0.005491471 -0.0043441486 0.0708364 -0.0075232806 0.01605382 -0.0037745994 -0.02198863 -0.0034313577 -0.0031850997 -0.024865834 0.0028046898 0.04188358 0.004269289 0.008206949 0.036288854 0.0022973153 -0.006019644 0.08275041 0.044202086 -0.017079327 0.017331716 0.021622417 -0.016042486 -0.017745435
325 -0.024859374 0.011148173 0.006677656 0.005800527 0.003425027 0.017422874 -0.017363893 -0.04938873 -0.0132116 0.046644505 0.018746093 -0.028362738 0.0029334186 -0.016135663 -0.009880468 -0.038557358 0.017550167 0.04571339 0.01652398 0.0033683344 -0.012699868 -0.0033998745 -0.010819888 0.004251875 -0.022642588 -0.032280084 0.0005970103 -0.008733423 0.037429836 0.003848955 0.014583605 0.0015120747 -0.00074366835 0.01321972 0.0077738804 -0.028547699 0.010250066 0.023732165 0.0017022397 -0.0019627952 0.025749559 -0.015604811 0.0095213195 0.06620565 0.02425766 -0.023996271 0.022977795 0.00899947 -0.013540503 -0.003356542
49 -0.041291583 0.017057896 0.020037107 0.023312569 -0.0055605927 0.03744789 -0.034421694 -0.09051072 -0.0027154158 0.07860795 0.02023692 -0.065061465 0.012164273 -0.023073269 -0.022285612 -0.055658706 0.030629503 0.05568392 0.010912494 -0.0024992502 -0.034244183 0.004305088 0.0002599724 0.00025448823 -0.03456741 -0.039926432 0.00805806 -0.014122464 0.066413626 -0.017211553 0.014924515 -0.014577806 -0.016357098 -0.006337859 0.005268558 -0.02172858 -0.002304074 0.04758905 -0.009748851 -0.011379509 0.03789006 -0.008562868 -0.0118604135 0.0981173 0.046772387 -0.02673714 0.035690308 0.022384686 -0.0017952132 -0.022472313
265 -0.018186351 0.008957799 0.00366503 0.010448958 0.0029023264 0.026490565 -0.016928243 -0.051817525 -0.014788096 0.057319317 0.020057645 -0.04577268 0.015925255 -0.017772267 -0.020618219 -0.03752343 0.018086374 0.04784362 0.00955612 0.002424422 -0.016445113 7.573723e-05 -0.009525912 0.0021790187 -0.016241726 -0.03414921 0.01067452 -0.018629989 0.0596029 2.3570903e-05 0.026932314 -0.019126644 -0.013918747 -0.0062025827 0.005798026 -0.028690793 -0.00044486695 0.037293497 -0.0007151187 -0.0033531298 0.035778936 -0.008360017 -0.00715822 0.07749787 0.034208957 -0.026023101 0.027434632 0.009862364 -0.010873251 -0.0055559254
319 -0.03710266 0.025892593 0.0036878788 0.018747577 0.0011349679 0.026429951 -0.014624441 -0.06650724 -0.010683535 0.066292584 0.024882173 -0.051198427 0.0020567551 -0.005710573 -0.022879224 -0.03885853 0.012384333 0.05041343 0.023202278 0.007272128 -0.032772265 -0.0060594175 -0.007952949 0.0018226192 -0.02950489 -0.048126377 -0.0064824075 -0.019386128 0.07220983 -0.0113080945 0.02958781 -0.019091068 -0.015336643 0.0041604624 -0.0066173496 -0.02410822 -0.010096474 0.030334933 -0.0017709042 -0.0030110183 0.053942587 -0.021035042 -0.0018235826 0.09001923 0.035957307 -0.019488962 0.0129884435 0.023315111 -0.0068824533 -0.022682026
118 -0.026796687 0.013417708 0.010647427 0.021789664 -0.011099761 0.011498182 -0.026991727 -0.06889407 -0.011649719 0.058346897 0.012896305 -0.039452095 0.0016702795 -0.019555641 -0.012274295 -0.03661859 0.015129463 0.046386424 0.015543732 -0.012859288 -0.027505906 -0.0006455166 -0.0023634841 0.007088444 -0.0156054525 -0.024431583 -0.008814983 -0.011090894 0.04369441 -0.013392725 0.02423986 -0.0055557047 -0.013830579 -0.0062567205 0.0040605958 -0.018189877 -0.0025832464 0.029813515 4.7210483e-06 -0.008638716 0.04385829 0.0003339466 0.0050868266 0.06933158 0.03100416 -0.0069438666 0.02019956 0.009353673 -0.010533636 -0.014097366
142 -0.017636783 0.004470583 0.012510789 0.01775528 -0.009682482 0.010853255 -0.01397961 -0.04914801 -0.013133861 0.047888853 0.016964687 -0.049943518 0.01532634 -0.010119493 -0.02704186 -0.040509243 0.01792026 0.0470811 0.0098806005 -0.012521463 -0.03517819 -0.003611871 -0.0055893576 -0.0035034546 -0.028649574 -0.021400731 -0.0059156334 -0.015707506 0.050952185 0.0022205429 0.013875384 -0.008812926 -0.013325931 0.00776567 -0.009279579 -0.02562045 -0.005097897 0.03586684 0.0022941206 -0.008694333 0.04489153 0.001941451 -0.0026606251 0.06446059 0.037023522 -0.019901581 0.017968226 0.009597004 0.0042905817 -0.017663268
179 -0.02272025 0.021997577 0.020827467 0.010139564 -0.002667934 0.030505221 -0.016927883 -0.09928491 0.0014392579 0.059454985 0.031826884 -0.064692535 0.004286059 -0.023507757 -0.04380505 -0.053294644 0.013746592 0.067185216 0.010437793 0.003707586 -0.023223085 -0.007184524 0.0074988944 -0.0040883753 -0.020449381 -0.04434483 -0.012271617 -0.017020186 0.07031984 -0.012258064 0.036640678 -0.003168098 -0.013774739 0.011380226 0.0052547595 -0.035607878 0.0069104177 0.042654213 -0.0035701261 0.0017960178 0.058648318 -0.0004657358 0.012114265 0.10721786 0.04940184 -0.027557287 0.04022213 0.008335662 -0.006715323 -0.009052684
249 -0.02532842 0.022430474 0.0014671471 0.030163324 -0.013869758 0.025854195 -0.03566631 -0.062185064 -0.006616747 0.059611622 0.023658764 -0.055301342 0.004529554 -0.02067664 -0.02632265 -0.041269306 0.012904523 0.050424352 0.026060956 -0.008152457 -0.02963388 0.009864283 -0.010237757 -0.00864139 -0.029642912 -0.039961252 -0.0015152832 -0.01260544 0.054533064 -0.009722764 0.020748504 -0.013096511 -0.019767933 0.012539891 0.0020206098 -0.033162553 0.0004916379 0.03226279 0.011389445 0.001984602 0.03871268 -0.017402593 -0.008190146 0.081213936 0.04207394 -0.01774459 0.032377347 0.027255127 -0.01566029 -0.009239904
177 -0.03290357 0.02147058 0.015702197 0.014149072 -0.003229206 0.017383594 -0.03653669 -0.08041478 -0.014457928 0.05755754 0.025654642 -0.052624226 0.009338458 -0.009009244 -0.032459505 -0.029846279 0.015597149 0.052250773 0.014467071 0.006144104 -0.028767593 0.011913249 -0.0074072415 -0.0031805453 -0.029261058 -0.042143863 -0.00212714 -0.020329436 0.053455815 -0.006965706 0.029562257 -0.01871562 -0.01857799 0.014680203 0.010431438 -0.021692099 0.00831262 0.027228437 0.009010722 0.008302086 0.028460668 7.478945e-05 -0.011757685 0.06756248 0.030320076 -0.016016025 0.018870344 0.012676025 -0.013124973 -0.009289051
31 -0.018633198 0.01921096 -0.00055192166 0.016438022 0.0020511793 0.011752085 -0.03244335 -0.06447938 -0.00031497562 0.06283002 0.006445658 -0.050220583 0.015488379 -0.0036658423 -0.013424343 -0.04545671 0.0060836067 0.051934477 0.013206651 -0.004720912 -0.0331961 0.0055974056 -0.0059142374 0.0065118624 -0.019200139 -0.030117443 0.010663167 -0.01058448 0.054877214 -0.0062240153 0.019314403 0.0002123504 -0.0077193268 -0.0061888997 0.0026450476 -0.027698167 0.007339737 0.025872055 -0.003989041 0.004514993 0.03152506 -0.010642985 0.007962463 0.07882239 0.038593017 -0.01262734 0.030682037 0.02682674 -0.0030116835 -0.0058127134
204 -0.028255668 0.023158927 0.0056101372 0.010062774 -0.013527524 0.026494969 -0.030148342 -0.07369419 -0.00979782 0.05686624 0.017688138 -0.04568967 0.00936105 -0.0112421 -0.01657958 -0.04979889 0.01706199 0.056229465 0.015813217 -0.0079045 -0.0371445 -0.004211765 -0.004259867 -0.0021997034 -0.018363092 -0.03451879 -0.0080935545 -0.005268333 0.058830816 -0.011026838 0.012208833 -0.012955457 -0.022573937 -0.006824232 -0.009525855 -0.03595243 0.0022067612 0.04391146 0.0029139628 0.008734885 0.048084028 -0.0087049585 0.0074146935 0.08371175 0.04163038 -0.02499947 0.022318343 0.02235335 -0.0044894055 -0.005287838
144 -0.026270393 0.00312386 0.011512616 0.013890436 0.0016127704 0.017337983 -0.023761868 -0.045511205 -0.0055025043 0.04507128 0.015222071 -0.03081248 0.0074609327 -0.014727631 -0.008746606 -0.033068635 0.02218137 0.026420575 0.0012933799 0.004973235 -0.030964784 0.00322233 -0.009688309 -0.0060058073 -0.019092834 -0.023359168 0.0057559647 -0.007154619 0.0538502 -0.0076584863 0.013587369 -0.00464985 -0.0061126472 0.009318501 0.010368498 -0.013182889 6.2317216e-05 0.025455195 0.0031574322 0.001947318 0.025058215 -0.016169231 0.0041133463 0.06681138 0.016593434 -0.02281753 0.014094111 0.009736246 -0.013855529 -0.017876111
136 -0.02781617 0.0065379906 0.012287677 0.015326279 -0.011801749 0.02375218 -0.031248244 -0.06834488 0.004829454 0.05027444 0.016654085 -0.03134601 0.0057900343 -0.020187857 -0.0234404 -0.034055583 0.011194355 0.048268996 0.004832653 -0.00760915 -0.027375443 -0.009257546 -0.009591858 -0.0034782055 -0.026752703 -0.03365427 0.0006104645 -0.0029664105 0.05619544 -0.013314516 0.013299144 -0.00924275 -0.0045752223 0.0013993267 -0.0011410813 -0.016952032 0.009677045 0.0321532 0.004524597 -4.5107572e-05 0.04486521 -0.01064983 -0.0060861264 0.060835913 0.03246603 -0.016657041 0.027279748 0.0061779143 -0.013862021 -0.018761765
133 -0.023947401 0.017139908 0.008616554 0.007521969 -0.012759354 0.023560049 -0.015671711 -0.063516766 0.0026467396 0.045367625 0.011560872 -0.044232134 0.010211031 -0.01102702 -0.022381267 -0.02933956 0.023458187 0.049969617 0.0062488457 0.004761863 -0.017499212 -0.0075463853 -0.011105855 -0.0022009793 -0.027664544 -0.027364254 -0.0021552101 -0.0030273674 0.04842991 -0.0029818912 0.010457095 5.948586e-05 -0.02069608 -0.0034215085 0.009426724 -0.031041298 -0.005703738 0.039670292 -0.0021400128 -0.0012695321 0.037656922 0.002002631 -0.005090931 0.07514611 0.017691474 -0.01760694 0.023449909 0.02464508 -0.007893768 -0.0041553346
278 -0.028208952 0.0056592124 0.01306475 0.022347083 -0.0130138295 0.024702612 -0.032200553 -0.053875424 -0.015358636 0.06678364 0.018921576 -0.04507325 0.015385571 -0.022356851 -0.019334814 -0.03277794 0.0076071 0.05155181 0.007174798 -0.0066244835 -0.02190612 0.012455859 -0.009997837 0.007434759 -0.025741052 -0.025389928 -0.0057613663 -0.0213497 0.06331835 -0.0032578944 0.024954 -0.0018882337 -0.020600708 0.008426323 0.012858944 -0.02063033 0.01122912 0.026164683 0.0036200196 -0.0092777815 0.029908434 -0.008784998 0.0077608665 0.06528831 0.03506873 -0.015213058 0.024312722 0.024933523 -0.006193254 -0.007097032
197 -0.028333232 0.0077406163 0.002032962 0.010273619 0.0023476395 0.028926216 -0.024737328 -0.07071135 0.0064342464 0.07140815 0.0043358095 -0.055774953 0.014700548 -0.025190404 -0.034295272 -0.05033303 0.013804693 0.03881688 0.006900959 -0.009210024 -0.020882148 -0.010176135 -0.0005104794 -0.011435322 -0.018181905 -0.03206106 0.005118794 -0.0023995666 0.06883483 -0.0087222485 0.024643026 -0.015981201 -0.0065487497 0.007410934 0.008162467 -0.031288937 -0.0010763897 0.033573195 -0.0019013339 0.001748417 0.046351887 -0.009969077 -0.0035281938 0.06449777 0.03132865 -0.023935398 0.029892357 0.026592 -0.016483756 -0.011571528
224 -0.020215137 0.008273762 0.0091107115 0.011762223 -0.00023532899 0.008934016 -0.013429928 -0.045121443 -0.009452467 0.042808063 0.015536303 -0.04578951 0.005136956 -0.008304443 -0.012384054 -0.037599213 0.015212594 0.039357714 0.009213832 -0.00544345 -0.024826983 0.008168367 -0.010990453 -0.010906649 -0.013127145 -0.031264313 0.004006619 -0.015846696 0.048173454 0.0014341762 0.018216817 -0.009128201 -0.017346263 -0.0052831825 -0.004215579 -0.029104237 0.007955772 0.038948305 0.006737715 0.007322655 0.032595288 -0.014045687 -0.0010771357 0.057902385 0.02495049 -0.014292873 0.019469628 0.0065917377 -0.013299456 -0.008337076
275 -0.019559791 0.0065718717 0.00020618415 0.009741728 -0.011165771 0.024834197 -0.019032173 -0.080933236 3.851519e-05 0.052906983 0.010427557 -0.05409186 0.013450641 -0.019271463 -0.021278014 -0.030198311 0.0180456 0.05316729 0.0074592712 -0.008014001 -0.02925962 -0.0085607525 -0.0073958677 0.0018999489 -0.020729955 -0.037809536 -0.0058484003 -0.009463624 0.06982755 -0.009272479 0.019967973 -0.017125186 -0.013237075 0.008063081 0.005623785 -0.024816183 -0.00048074994 0.04509471 0.011954561 0.013069571 0.039546285 0.0020956935 -0.0067673903 0.08604075 0.025896635 -0.03035355 0.02660836 0.018545896 -0.014789259 -0.009653323
7 -0.026879327 0.01187691 0.0088365255 0.02281342 -0.009548941 0.025921427 -0.016307257 -0.06382739 -0.0046997196 0.059908394 0.019688604 -0.0407338 0.01166109 -0.003547369 -0.031556677 -0.046071835 0.008803976 0.042346787 0.019441146 -0.0077218567 -0.02855576 -0.0037101433 -0.0108775 -0.01223224 -0.012901568 -0.022447681 -0.00713854 4.3503172e-05 0.04600518 -0.00037292883 0.028303904 -0.00021859413 -0.008162763 -0.0054471362 0.0035633214 -0.02731636 -0.0009846987 0.032094393 -0.006516275 -0.0063385065 0.0397376 -0.0009539753 0.0025322777 0.067963384 0.022840362 -0.012458344 0.016851375 0.023891525 -0.005855707 -0.016897306
116 -0.013927135 0.008666071 0.014879577 0.010136644 -0.0054436433 0.006475991 -0.013211322 -0.047252364 0.0038838037 0.056309152 0.014917145 -0.04252819 0.01469836 -0.003856636 -0.02685898 -0.039008148 0.011463845 0.033702247 0.013634649 -0.009435763 -0.022234919 0.0072018933 0.0010949435 -0.0066442112 -0.006468143 -0.03209265 0.0076703005 -0.0065926015 0.053673066 -0.011785738 0.014765513 -0.0017481223 -0.009810705 0.0072168796 -0.007951364 -0.032143626 -0.0063246125 0.03682367 0.009772461 0.007900928 0.025857355 -0.00867541 -0.0070147286 0.068075076 0.025508469 -0.018497111 0.02563978 0.01302842 -0.0045464425 -0.01968603
184 -0.0150487255 0.009476244 -0.0024336232 0.024749205 0.0034046848 0.028743751 -0.020369109 -0.068966664 -0.00020601373 0.06923873 0.02194612 -0.050557606 0.003514768 -0.008074924 -0.026949886 -0.04338665 0.0049967123 0.03488114 0.01049177 0.005354496 -0.026646007 -0.0038048287 -0.0099144 -0.00875929 -0.020076906 -0.035410386 0.0037326377 -0.0016454725 0.052669927 -0.0129794115 0.018644793 -0.0035336188 -0.022219384 -0.005638297 -0.0065383688 -0.020458179 0.0070480458 0.03463024 -0.0077257827 0.0032364898 0.047103167 -0.009580522 0.0028814725 0.07103771 0.036973197 -0.010003017 0.032564215 0.009211178 -0.0017154787 -0.009368329
30 -0.015842086 0.018633055 0.0033050322 0.022659441 -0.0082030445 0.01958956 -0.015294198 -0.048443776 -0.00092154945 0.047581654 0.013389237 -0.042708144 -0.00043644974 -0.0024455558 -0.015432973 -0.02539388 0.010578262 0.030774247 0.010204473 0.0045267427 -0.024852222 -0.00862993 -0.009646367 -0.008110777 -0.021991037 -0.025867656 0.00014404659 0.0008597135 0.049854636 -0.010147937 0.017288696 -0.0019320053 -0.01101655 0.0031133646 -0.0048727426 -0.028788825 0.0036907555 0.035097484 -0.0007275482 0.008967919 0.03250194 -0.0082142 0.009735829 0.06925666 0.019226769 -0.010511862 0.012194708 0.005393839 -0.002850331 -0.008053693
111 -0.029731087 0.022743136 -0.0009694856 0.020355316 -0.0077767144 0.027848937 -0.017996991 -0.050777726 0.0030913576 0.052714366 0.0077991253 -0.034325015 0.0070900233 -0.020040123 -0.02621478 -0.042483494 0.01942594 0.03195247 0.0044830707 -0.0035998123 -0.016304733 0.009460694 -0.01634692 0.003016349 -0.021005526 -0.030832285 0.008808803 -0.017389111 0.04550534 -0.007631752 0.009819629 -0.014589747 -0.008376006 0.0035675422 0.010026671 -0.015266649 -0.0041147666 0.03488326 0.0026892393 -0.0052223583 0.025598453 -0.004425476 0.0078004906 0.06425257 0.03712953 -0.014108732 0.018550722 0.020285217 -0.0033003662 -0.019045085
342 -0.03067273 0.015533317 0.0071299137 0.022023033 0.00044944574 0.009494232 -0.013961763 -0.055865467 0.000703794 0.060260456 0.0055209314 -0.037630886 0.0030424849 -0.013495123 -0.030148936 -0.03920137 0.019998439 0.044173405 0.008198752 -0.012120237 -0.01435978 0.0023582433 -0.0050815856 0.006166889 -0.00882567 -0.034845807 -0.0001576191 -0.017125389 0.058288436 -0.0035468321 0.021795055 -0.008699528 -0.0047711926 0.0022970932 0.008633438 -0.026475366 -2.868461e-05 0.023161598 -0.0036744215 -0.00022715647 0.030918915 -0.01605138 0.0037146723 0.06235619 0.017334908 -0.0073267645 0.024900569 0.0100008985 -0.011133021 -0.004289179
141 -0.02832451 0.01270973 0.012578459 0.01566154 0.0043027247 0.007195622 -0.01624842 -0.052286427 -0.012142476 0.042712282 0.020798855 -0.03583877 -0.0027149871 -0.016189368 -0.020828785 -0.041350693 0.017638817 0.036822286 0.0089813 8.1054946e-05 -0.023809286 -0.003472544 0.00026658337 -0.00080883177 -0.014839738 -0.023089284 -0.008832562 0.00088381045 0.041718423 0.0051686033 0.025730425 -0.003169283 -0.007749592 0.0016167082 -0.0025913354 -0.014150673 0.0021606395 0.019398773 -0.00849172 0.0010886012 0.040968776 -0.0029560935 -0.0031789762 0.05538118 0.029951597 -0.019254671 0.020229258 0.02434609 -0.007133798 -0.009466438
192 -0.0332075 0.021455256 0.017029818 0.013423408 -0.0062418305 0.017001553 -0.0228798 -0.04782469 0.002606429 0.06053176 0.0066260668 -0.04432397 0.013393895 -0.013604522 -0.011938106 -0.032444302 0.018708099 0.03749725 0.021961024 0.0002817174 -0.033473402 0.008296815 0.00024093944 -0.011582304 -0.011182359 -0.021729598 0.0017490617 0.002145003 0.060192045 0.0045387396 0.024693694 -0.0029227254 -0.019439012 -0.0076219225 -0.0031469448 -0.0151104955 0.010003493 0.025476927 -0.003384572 -0.0005672933 0.037539247 -0.017125027 0.0044006924 0.0557791 0.027297558 -0.012975345 0.021365687 0.020936335 0.00058573677 -0.021350944
195 -0.03299048 0.020222602 0.009802793 0.011589077 -0.005603199 0.024368476 -0.026307397 -0.06543992 -0.0077221445 0.051849928 0.021151453 -0.055096187 0.0009790146 -0.026334275 -0.029128294 -0.0405702 0.009451484 0.035407513 0.011917715 0.008130982 -0.03784878 -0.0072602024 0.0018759724 0.0068060257 -0.0324372 -0.04114298 0.007921858 -0.0017663798 0.055799212 -0.005929113 0.022095002 -0.0065538343 -0.02273265 0.009148896 0.0047418578 -0.028682554 0.0026222458 0.041442867 0.011513229 -0.0061964868 0.035738748 -0.0049474486 -0.007028331 0.07769356 0.032335855 -0.02162625 0.027461575 0.017075622 -0.009653932 -0.0072472477
89 -0.029602183 0.0187993 0.0064815856 0.019975673 -0.0064786044 0.017264219 -0.016424775 -0.07372043 -0.0027991552 0.058805805 0.013839213 -0.040241 -0.0043816413 -0.00437137 -0.021258257 -0.045988694 0.022761723 0.054800108 0.013733044 -0.0064744256 -0.016129272 -0.007946394 -0.012463829 -0.008259713 -0.019988295 -0.044178583 0.003403156 -0.008238147 0.050811592 -0.010803422 0.02519099 -0.01947898 -0.014906293 0.011544391 0.0028105495 -0.032085508 0.0061512208 0.028866854 0.005627511 0.010436142 0.04628207 -0.014144009 -0.0060072783 0.06708204 0.033507574 -0.016347628 0.011331986 0.02722104 -0.0059388834 -0.02480579
232 -0.014629481 0.017497374 -0.001467729 0.0176549 4.599469e-05 0.02115159 -0.013354505 -0.060527015 -0.0050992067 0.061656456 0.012961985 -0.034458656 0.010162702 -0.011399938 -0.025158219 -0.04149465 0.01609574 0.03168101 0.011842725 -0.012331732 -0.018319681 -0.0018058883 0.0012316074 0.0020869204 -0.02437473 -0.022595901 0.0019796283 -0.015291984 0.04854361 -0.00077368063 0.011339925 -0.016025087 -0.012779843 0.013043194 0.0055819056 -0.032693412 -0.0045623793 0.035593618 0.0069487826 -0.0014158329 0.034580454 -0.013469815 0.0021826974 0.06920575 0.022852203 -0.010046884 0.01740637 0.011880959 -0.0036883962 -0.019894188
218 -0.016675014 0.010600532 0.0022158672 0.0082492195 -0.0067986427 0.014900624 -0.017809264 -0.06709429 -0.0003917017 0.05005051 0.015255756 -0.04382353 0.011319166 -0.01719396 -0.0111611495 -0.037304334 0.018635346 0.036462076 0.005355403 -0.011707749 -0.038335316 -0.011685177 -6.3603555e-05 -0.0022370827 -0.021916611 -0.02688213 0.0034962643 0.00095080247 0.053728305 -0.013671646 0.02359458 -0.021400254 -0.0050640884 0.011491032 -0.0067130323 -0.020334147 -0.004976189 0.027092345 -0.00018349757 -0.006659331 0.036241412 -0.004485279 0.0048175207 0.064597 0.037542824 -0.010338337 0.029668862 0.0076784855 0.003663822 -0.011662768
306 -0.029806243 0.026308583 0.0016438218 0.008119948 -0.0054041035 0.023889435 -0.028285906 -0.07846007 0.003387037 0.05815523 0.026635336 -0.03943842 -0.0022769447 -0.024390146 -0.03283701 -0.038217112 0.017142199 0.04128798 0.0028146685 0.0037600016 -0.042531274 -0.005039064 -0.0035637678 -0.009811479 -0.028045464 -0.026914682 0.009317065 -0.0022463712 0.059911028 -0.0113381585 0.032105528 -0.021380283 -0.013051109 -0.0005232247 0.010517287 -0.03334468 -0.009600052 0.045499027 0.0066362177 0.0108092185 0.051264178 -0.0032867948 0.0037459552 0.08396339 0.0398561 -0.028136505 0.03131506 0.015795568 -0.017222282 -0.008139264
308 -0.014373752 0.010360748 0.0014028101 0.0073051252 -0.0078449845 0.023790339 -0.01853367 -0.056065213 0.0016510697 0.053005084 0.018862827 -0.04068127 0.005629785 -0.0073599503 -0.028402973 -0.03895747 0.012171421 0.032233696 0.0027181401 -0.00027154674 -0.035728153 0.00029272115 -0.0007699671 -0.006146484 -0.014724813 -0.0367043 -0.0075245113 0.001143765 0.061642233 -0.01571608 0.015230579 -0.010652229 -0.008615547 0.007668439 0.00096834725 -0.023249019 -0.0062485933 0.02187894 0.0028107672 0.0016605575 0.029612003 -0.009195801 0.0038047112 0.073684916 0.03237562 -0.013180121 0.018670773 0.024486022 -0.008083572 -0.01732418
343 -0.030963624 0.021980505 0.0015627049 0.020284932 0.0031956169 0.010605675 -0.012310683 -0.044530556 -0.0060984287 0.06262344 0.0074263983 -0.026924288 0.017306753 -0.01816623 -0.028802952 -0.033678643 0.008581376 0.031447634 0.0063527306 -0.006477525 -0.014822539 0.011419894 -0.011667201 0.0058382265 -0.008622936 -0.04070727 -0.0033232947 -0.009196176 0.04592187 -0.0022744737 0.02653484 -0.016169172 -0.015105739 -0.006016467 0.0026562538 -0.03392439 0.005237248 0.022974914 -0.0031765802 -0.00044668105 0.04035468 -0.0060750274 -0.0025110156 0.05659289 0.026479518 -0.010216486 0.016183224 0.019321129 -0.0035658514 -0.0033519259
226 -0.03687808 0.009726224 0.001695337 0.021353694 -0.015694803 0.018249255 -0.03186838 -0.06847484 0.0044137 0.07020143 0.012752754 -0.03864262 0.004797997 -0.020531392 -0.02450046 -0.037406813 0.023499567 0.05311101 0.011906137 0.008103388 -0.027491279 0.005739884 -0.012720998 -0.009235129 -0.011983494 -0.027731031 0.006173551 -0.0055221347 0.064815186 0.0016557883 0.0244441 -0.005714056 -0.0065741525 -0.005565684 -0.0050421283 -0.019468477 -0.006679324 0.027517488 0.0082363095 0.002742612 0.03708502 -0.015335856 -0.008657092 0.07405685 0.02781433 -0.019749267 0.0297947 0.0068112686 -0.00659446 -0.019497704
259 -0.018515278 0.008256848 0.006425513 0.00537684 -0.005459995 0.022901198 -0.018877232 -0.055121027 -0.009953524 0.069871634 0.021461623 -0.045636717 0.011903535 -0.024231374 -0.022468437 -0.029785974 0.0049520633 0.048255153 0.006621338 -0.004478644 -0.016416725 -0.010294475 -0.008743654 -0.014884796 -0.030342827 -0.026121207 0.004728532 -0.009916212 0.061947852 0.000661158 0.01649326 -0.008844135 -0.019759586 0.013706189 -0.0045726397 -0.034670807 -0.009299268 0.04084839 -0.013066156 0.0031432337 0.034960642 -0.0061817314 0.005622579 0.07930226 0.02332836 -0.014237116 0.018823685 0.025234163 -0.011949165 -0.016185893
180 -0.015544517 0.022407005 -0.00055932865 0.017912334 -0.0083203055 0.021085331 -0.032100543 -0.053730898 0.0011562052 0.063706405 0.012486151 -0.04983273 0.0026551408 -0.0035248962 -0.025472028 -0.043316964 0.018572409 0.04100274 0.023694916 -0.0043680896 -0.01800735 0.010029571 -0.0071623432 0.006882127 -0.019979615 -0.0335606 -0.0026085537 -0.016756058 0.06428045 -0.004170879 0.014538363 -0.014392726 -0.009962273 0.0011313368 -0.0045670536 -0.031412017 -0.002036136 0.03295295 -0.0037643195 0.0013705738 0.029162746 -0.005902675 -0.009034724 0.05691658 0.03494444 -0.026147686 0.020373324 0.011174423 -0.009140356 -0.009213691
299 -0.024861189 0.008601365 0.0060126353 0.0167479 -0.018725717 0.027334668 -0.036463886 -0.077303454 -0.002726888 0.058324385 0.025452856 -0.046741784 0.009673575 -0.022445176 -0.032236148 -0.052322008 0.0058959415 0.044097595 0.024781702 -0.01187209 -0.0335568 -0.0076817903 -1.8154624e-05 0.0010895537 -0.021137705 -0.032150984 0.007220915 -0.0135349035 0.07539514 -0.014141851 0.013345475 -0.016636165 -0.018806124 -0.0025698834 -0.0039836667 -0.027575262 0.0079299025 0.04742102 -0.0026622487 0.0020341168 0.042605344 -0.011875033 0.0065201125 0.07700244 0.039208654 -0.029495247 0.031395115 0.011279451 -0.009280047 -0.01897815
225 -0.032964993 0.023124687 0.010396586 0.02399474 -0.011877576 0.015788956 -0.034093108 -0.07083204 -0.0038796414 0.07102457 0.025630452 -0.05065074 0.011561975 -0.021844 -0.022949325 -0.029765593 0.019031083 0.051571444 0.020696823 -0.00551697 -0.034445647 0.0025232744 -0.007999638 0.0034699677 -0.018175408 -0.036761705 -0.0030347488 -0.013259038 0.062502295 -0.012635678 0.02535833 -0.021055436 -0.022675335 0.00734804 0.011151039 -0.037054457 -0.0061522555 0.027925968 -0.006272317 -0.0055521415 0.03479518 -0.008458192 -0.009958854 0.062396552 0.037263494 -0.011663 0.030578623 0.022700189 -0.0035299829 -0.01974115
281 -0.013213653 0.009794391 0.0018680695 0.0051689795 -0.001291812 0.025080143 -0.01836373 -0.06489749 -0.011606191 0.050024644 0.01715396 -0.048144408 -0.00048802354 -0.016365336 -0.028908268 -0.036483575 0.016823754 0.03792687 0.020325383 -0.008697892 -0.032411583 -0.008553656 -0.013637098 -0.008014699 -0.023661155 -0.025856048 0.004507652 -0.00038124283 0.048242323 -0.011007191 0.0130780935 -0.013713903 -0.007196862 0.0042939237 -0.007069296 -0.021407206 0.004408573 0.0300401 0.011280499 -0.0041179596 0.028764475 -0.015717432 0.0074429526 0.05211615 0.031219285 -0.025547879 0.02365438 0.015007633 0.0023016944 -0.013867918
17 -0.026876708 0.009909499 0.0054441798 0.018608145 -0.0025676494 0.019882077 -0.013441992 -0.056837875 0.0055877455 0.055915296 0.019010229 -0.028112782 0.010615881 -0.018661376 -0.016058892 -0.022021245 0.017413912 0.040250283 0.0051005036 0.0040853317 -0.030829892 0.00036483348 -0.010037645 -0.0042060963 -0.025474545 -0.03799437 0.004979199 -0.005295852 0.043798607 -0.013855882 0.014277287 -0.00981657 -0.013108323 -0.0013149721 -0.005847712 -0.027681405 -0.006158114 0.034171317 -0.0012623008 0.0013645929 0.027369872 0.0013082959 0.003953606 0.061757952 0.03325917 -0.010239454 0.022541268 0.020115647 -0.010150406 -0.0020959552
80 -0.03234954 0.0079473965 0.013514343 0.02211438 -0.011136783 0.018252797 -0.017341437 -0.07008608 -0.0049739643 0.06415534 0.0053666783 -0.05215973 0.004760331 -0.009280425 -0.034157418 -0.046259813 0.005339834 0.03590415 0.024935722 0.0025452774 -0.023236971 0.009335733 -0.014404806 0.0046848333 -0.022639705 -0.035782352 0.0001890352 -0.017343676 0.06261911 0.00015848497 0.030199893 -0.009352274 -0.023536433 0.011339958 -0.007935019 -0.035310403 0.0036578854 0.04507702 -0.0035607559 0.0109171085 0.043687373 0.0019043772 -0.003419955 0.07707816 0.029155497 -0.01501788 0.030081855 0.024025643 -0.0165159 -0.004649383
148 -0.024210347 0.02256878 0.009738696 0.007730889 0.0006134699 0.0055903974 -0.022709137 -0.04633448 -0.010062002 0.04218092 0.013109313 -0.03455204 0.0037505566 -0.0034366692 -0.01842166 -0.034404878 0.0032239617 0.031792145 0.018200794 0.0024026656 -0.021914218 0.005198057 0.0012974229 0.0015512437 -0.011912225 -0.034352276 0.009723295 -0.004081391 0.053172868 -0.012326421 0.0074983044 -0.003285394 -0.0083137145 0.00974525 -0.002203376 -0.02515788 -6.697007e-05 0.030444106 -0.0022130848 -0.006138207 0.038523354 -0.013131784 -0.006101544 0.060761653 0.018750781 -0.007878792 0.013825115 0.02442464 0.0043682368 -0.010032751
297 -0.023606677 0.0017097776 -0.0046644732 0.022082994 -0.014589842 0.0037434031 -0.01466087 -0.05345972 -0.01310375 0.049938977 0.017687954 -0.031148007 -0.0028668696 -0.015022348 -0.024890691 -0.0188427 0.011046739 0.022235494 0.0060747666 -0.00041107653 -0.015073319 0.008457611 0.0038484305 -0.00705533 -0.017802758 -0.01677683 -0.0047004013 0.0033617432 0.03342101 -0.002491872 0.022004457 -0.01535482 -0.010216945 0.00912118 -0.006112208 -0.013875153 -0.0069302833 0.033611763 -0.009148395 -0.0030224104 0.017718367 -0.009495205 -0.004366246 0.055666313 0.015526636 -0.01242937 0.008087206 0.0022183675 0.0029611955 -0.011208232
82 -0.018099176 0.014937348 0.010924328 0.01810387 -0.006914539 0.013755365 -0.024479978 -0.06487428 0.0030516062 0.054369967 0.0071753506 -0.040279504 0.014755985 -0.016804438 -0.01929823 -0.042850424 0.018802248 0.047356613 0.0067636343 -0.004325395 -0.03150658 0.00091419707 -0.014543317 -0.010957535 -0.021728706 -0.033503674 -0.0068025156 -0.010601582 0.049918298 -0.014123164 0.013857337 -0.01642575 -0.020547135 0.002640228 0.0017152921 -0.028993974 0.0029517105 0.032367766 -0.005714997 -0.0056639756 0.02529467 -0.0021694016 -0.0006179056 0.061450966 0.030265387 -0.014381598 0.027591612 0.015523142 -0.0046678567 -0.015297592
227 -0.016502349 0.009277563 -0.0020207267 0.024153415 -0.004000535 0.010903521 -0.018664446 -0.054959163 -0.0025732294 0.04924669 0.023225801 -0.051657874 0.009346309 -0.017367236 -0.03119039 -0.029596256 0.015627261 0.044500634 0.014891731 -0.008582912 -0.01509625 0.0024687278 -0.016810648 -0.009796875 -0.015384967 -0.040746965 -0.003090962 -0.0027072045 0.044906747 -0.0071933554 0.011997987 -0.015749786 -0.0144537715 0.010670422 0.004536885 -0.018353498 -0.00044973494 0.021224327 -0.0043881135 0.009762145 0.041402247 -0.0007858705 -0.010798267 0.0686475 0.025166176 -0.010790218 0.020017011 0.005347443 -0.006133858 -0.02155028
328 -0.018172398 0.019644404 0.008714122 0.020697633 0.004164974 0.0088708345 -0.032643937 -0.07969243 0.0048822896 0.0692848 0.024091959 -0.038334057 0.008926506 -0.02682378 -0.01881319 -0.039576948 0.012904442 0.04381079 0.008287428 -0.010840842 -0.031259052 -0.006533195 -0.009739284 -0.007877261 -0.030037744 -0.028340684 -8.836681e-05 -0.0029051015 0.049197637 -0.016856026 0.02908556 -0.021431556 -0.022609415 -0.0048375605 0.00897489 -0.02889029 0.008058425 0.029353393 0.004593156 0.005515494 0.049141385 -0.01622909 0.0064445618 0.08043611 0.027651183 -0.028040458 0.03659126 0.019838478 -0.011332191 -0.010182841
320 -0.01491506 0.014601511 0.0025556844 0.026384689 0.00016170599 0.019019399 -0.018871171 -0.07530103 0.0057957596 0.06064763 0.0056873667 -0.04436304 0.010309639 -0.023088383 -0.015418924 -0.03397593 0.023865543 0.04691164 0.014269108 -0.011532454 -0.023401454 -0.002125843 -0.017745802 -0.00396374 -0.025741259 -0.034485076 -0.0015096415 -0.015206593 0.0649615 -0.0029882174 0.025880782 -0.009244907 -0.012888141 -0.002491435 -0.0034961484 -0.03385562 0.0051350594 0.024641933 0.010363239 -0.00028090604 0.033400893 -0.0131576 -0.0008069926 0.06873605 0.028751723 -0.029116588 0.028512765 0.021171551 -0.011978068 -0.020383867
127 -0.030786369 0.014776466 -0.005973986 0.02138944 -0.008111741 0.024774123 -0.026804421 -0.054084554 0.0055913646 0.06511517 0.013535183 -0.042857904 0.013215945 -0.024721907 -0.017141484 -0.03425318 0.0216146 0.034980252 0.016575066 -0.0064270347 -0.027763642 0.007905929 -0.00027747848 0.0031546755 -0.022948442 -0.04144579 0.0049436963 -0.01920609 0.063991405 -0.0131170945 0.023979302 0.00052996667 -0.01972431 -0.0018394575 -0.005565817 -0.03263021 -0.0020247966 0.031121982 -0.008743203 -0.010102423 0.03573596 -0.0017246742 0.0013688039 0.06950877 0.017888721 -0.01343782 0.030389149 0.024014931 -0.012302235 -0.007303543
6 -0.037935033 0.020365193 0.007776218 0.012473007 -0.015209105 0.03237714 -0.023457343 -0.07139428 -0.0045624413 0.05969739 0.026132796 -0.037647035 -0.0035564455 -0.016115993 -0.024896923 -0.030674275 0.024624303 0.045738243 0.011855981 0.0052872235 -0.023152081 0.0046952404 -0.0038418516 -0.0017023138 -0.014195263 -0.045512322 0.005807296 -0.01139169 0.061789174 -0.0013888694 0.031616684 -0.00662996 -0.0194502 -0.0031818165 -0.008948814 -0.03331932 -0.0037386322 0.045373056 0.0012973576 0.010100263 0.048607748 -0.011374054 0.008916397 0.08207344 0.042276073 -0.010581219 0.0138119105 0.030445106 -0.009284367 -0.022022901
101 -0.01951047 0.007364222 0.009767418 0.02742855 -0.017251698 0.024067093 -0.032840922 -0.072291225 -0.013701776 0.069361605 0.018083762 -0.051699746 0.013284673 -0.020143455 -0.031601567 -0.047707587 0.008637406 0.042197343 0.021459509 0.0034000822 -0.038715024 0.006880684 -0.015665436 -0.005894236 -0.031375133 -0.028836122 -0.006787648 -0.016359163 0.059973683 -0.0073405206 0.017959367 -0.016794715 -0.023148507 0.0069291955 -0.002248275 -0.03091353 -0.005617535 0.03209084 0.010809239 -0.0020229735 0.041896872 -0.015234137 -0.0014278048 0.06755144 0.03045455 -0.020064931 0.023468029 0.021400584 -0.016424082 -0.010944304
62 -0.028454648 0.0049254554 -0.0002230181 0.020317279 -0.014488738 0.024389807 -0.021937847 -0.05627416 -0.01389746 0.054696232 0.007313127 -0.04568888 -0.0034519697 -0.007134706 -0.028364353 -0.027984608 0.011178692 0.040398058 0.003068754 0.0006760782 -0.02699385 0.007252532 -0.013055913 -0.006092944 -0.01660857 -0.029242301 0.002481242 -0.005676411 0.041551962 -0.0062832977 0.014409961 0.0015417432 -0.015098812 0.011857821 0.010580522 -0.016830808 0.004685183 0.032418117 -0.003897598 -0.005883069 0.035544883 -0.006432054 -0.006455028 0.06667438 0.018623544 -0.0077835033 0.019420505 0.018082459 -0.011484151 -0.007521776
140 -0.020329027 0.0035951585 0.009141481 0.020199044 -0.0019877206 0.013529336 -0.025795022 -0.052482948 0.0019081621 0.05233974 0.0044094813 -0.026666692 0.004859152 -0.00631146 -0.02565721 -0.034627322 0.009792459 0.04537497 0.009973445 -0.001840655 -0.028926022 -0.0041027786 -0.0037619749 0.0030706124 -0.016737863 -0.029523576 -0.0017312233 -0.013715696 0.05166862 -0.0031399196 0.017288893 -0.0027365505 -0.007920916 -0.0061021503 -0.0026683693 -0.024449572 -0.00742416 0.03427041 0.0016472866 0.009831274 0.040755805 -0.013060293 -0.004589176 0.06300844 0.032238703 -0.014959971 0.028188841 0.02125889 -0.016695576 -0.019935658
185 -0.026995756 0.021380985 0.012844906 0.0217047 -0.01116833 0.025734229 -0.026323156 -0.05210537 0.0035251772 0.060253773 0.013891518 -0.047195625 0.009295257 -0.012181231 -0.013910381 -0.040548984 0.014290977 0.031681273 0.016869415 -0.0027730807 -0.032194883 -0.006677263 0.0028665923 0.0010233165 -0.013591759 -0.02209506 0.00033010394 -0.006130575 0.04460361 -0.0028252867 0.009823583 -0.0012154484 -0.013899048 0.009143522 0.0007283926 -0.03422221 0.008068195 0.022899091 -0.00557641 -0.0047526946 0.025895149 -0.0028679313 0.0061466508 0.060701627 0.022843475 -0.02765217 0.028575063 0.022126555 -0.007877664 -0.0029329602
104 -0.030090256 0.0144407265 -0.0025432007 0.019379433 -0.0015580221 0.005771481 -0.026653916 -0.042973384 0.004026902 0.054622054 0.0054844553 -0.044075865 -0.002864577 -0.018314956 -0.025993608 -0.039551627 0.0053297966 0.028441602 0.0056765466 0.0013190997 -0.023419168 0.003905156 -0.014367062 0.00024375015 -0.009160929 -0.032981552 0.005321031 -0.0023833548 0.03830733 0.0038716404 0.01569907 -0.0031026837 -0.006220185 0.007725034 0.0074156467 -0.019206472 -0.0046966234 0.033790108 0.0073213703 0.0053107836 0.024686396 -0.01644276 -0.00079403183 0.050703295 0.015704928 -0.016854983 0.01806012 0.0044562933 -0.004734824 -0.010992096
187 -0.020720435 0.013596354 0.0111238165 0.02464679 -0.016198507 0.009289686 -0.03350063 -0.07034592 -0.0051552 0.05370641 0.016592646 -0.036632266 0.0032084764 -0.004561895 -0.019421509 -0.039503366 0.019899959 0.037004985 0.023927055 0.006050314 -0.025334999 0.00274485 -0.005757778 0.008308363 -0.010669313 -0.037464056 0.01117087 -0.013377993 0.046443846 -0.012907955 0.021534298 -0.003275079 -0.005734207 -0.0044876733 -0.010676211 -0.025484042 0.0003792059 0.043801397 0.003627016 0.0013896176 0.039349474 -0.012516811 -0.005183746 0.06325899 0.033280488 -0.00857959 0.023124121 0.020184658 -0.0047760312 -0.021601567
20 -0.026655322 0.014807708 0.005702753 0.005890488 -0.014888309 0.02102506 -0.025421113 -0.048016075 -0.011374703 0.041298408 0.006240459 -0.02657888 0.01637033 -0.006355203 -0.025136026 -0.031153003 0.0028960432 0.033308852 0.0054612304 0.0029612484 -0.02577522 0.010157115 -0.0042410525 -0.00086948817 -0.0056553823 -0.030299393 -0.004381022 -0.007276051 0.04078796 -0.006232675 0.016474087 -0.0069306027 0.0004853977 0.012267702 -0.0020889335 -0.015651586 -0.005258281 0.032007195 0.009010501 0.0033757861 0.03861932 -0.0024940914 0.009231401 0.057563122 0.022235684 -0.02274719 0.024319772 0.0062601883 -0.0088066375 -0.0019831439
4 -0.030052742 0.012919344 0.012886953 0.012076702 -0.00782491 0.010152072 -0.020465735 -0.067795545 0.0063253734 0.06804114 0.024211569 -0.036230817 0.009305153 -0.02212853 -0.017070787 -0.04111743 0.016966242 0.036483455 0.0016632072 -0.011060071 -0.040805273 0.0034303712 0.0056440593 -0.0048510176 -0.027947726 -0.03647835 -0.0038805006 -0.013862102 0.065929264 -0.009494029 0.017555468 -0.017769163 -0.015696786 -0.0018083589 0.0019769804 -0.018632486 -0.008305895 0.03842518 0.0073864087 0.011229343 0.045928504 -0.013919353 0.008702872 0.07430318 0.027403027 -0.01988496 0.03076955 0.01456898 -0.0033925085 -0.003055136
68 -0.025363386 0.010310805 -0.004235043 0.02715795 0.003618682 0.02191659 -0.033637237 -0.063527845 -0.004483358 0.06105987 0.012523993 -0.041427754 0.0020513083 -0.023794588 -0.018499715 -0.028726358 0.009425596 0.031427003 0.014769458 -0.006162609 -0.027495947 0.009052094 -0.0019536428 -0.0047621895 -0.008571994 -0.031019822 -0.005365246 -0.0063256924 0.054675233 0.001526312 0.02592695 -0.012181705 -0.017782528 0.01446804 -0.0003118538 -0.03433465 -0.00786947 0.036830273 0.00572954 -0.007396898 0.0357231 0.0032705136 -0.007955295 0.06062076 0.02483217 -0.012693617 0.022555174 0.01243746 -0.0013653712 -0.020270383
251 -0.021270214 0.018772684 -0.005813654 0.010327977 -0.0071870135 0.019114787 -0.030300135 -0.07084657 -0.002300413 0.050551362 0.003819982 -0.055726018 0.0024670518 -0.0072677094 -0.021118147 -0.047191206 0.015460822 0.039899375 0.010218606 0.0058807638 -0.017790392 -0.0110191405 -0.0046000117 0.0006836077 -0.024637986 -0.030510625 -0.0018460123 -0.015242696 0.06670591 0.00015117304 0.016085617 0.0011861955 -0.0158616 0.00905871 -0.010310334 -0.021893969 -0.006489883 0.032614317 0.010074737 -0.009495251 0.033493504 0.0014719829 0.0019046665 0.0678908 0.028736264 -0.023980508 0.02599303 0.012109044 -0.00670835 -0.0063359425
257 -0.023989918 0.008068707 -0.0010103049 0.0069053494 0.003886354 0.010119308 -0.009915097 -0.05244327 -0.0054398784 0.051994134 0.016570425 -0.03733028 0.009356465 -0.0054375925 -0.008449023 -0.021574324 0.009564362 0.030579412 0.019769065 0.002824886 -0.029822674 0.0027494805 0.0011234474 -0.007647183 -0.025369992 -0.023669932 0.0024356379 -0.012738071 0.048582334 -0.0064886175 0.010513623 -0.010455423 -0.018330075 -0.005239021 -0.0059964913 -0.022631194 0.002820185 0.024927912 0.005162163 0.008656405 0.020448493 0.0036299746 -0.0017748954 0.06090337 0.023841059 -0.017936116 0.025759352 0.008518939 -0.008667912 -0.009051531
238 -0.01397626 0.018784005 -0.0019151126 0.012226458 -0.0067129754 0.019167708 -0.027675228 -0.061094865 -0.009805101 0.052910637 0.01907881 -0.030220482 0.012398099 -0.008812204 -0.022502754 -0.02746193 0.01442236 0.043973025 0.006869537 -0.012820917 -0.02674003 0.009810155 0.0012378426 -0.001065836 -0.015099071 -0.03764915 -0.0017161801 -0.0059694718 0.050422978 -0.004128668 0.010209731 -0.009367096 -0.016667962 0.011973611 0.0040323255 -0.022340126 0.006689869 0.021082237 -0.0049540726 0.008765128 0.026553461 -0.013765377 0.007992813 0.056528322 0.018749645 -0.0066030337 0.020121042 0.010327014 -0.012139998 -0.009334899
254 -0.024280058 0.009223176 0.005835284 0.010143524 -0.015037549 0.011923125 -0.032028794 -0.07038237 -0.008273728 0.059216373 0.010986711 -0.049281973 0.01485171 -0.0073930374 -0.017578278 -0.046090048 0.0049010664 0.036308818 0.017956614 -0.0018855394 -0.037104137 0.0032691278 -0.016682616 0.00458564 -0.025289327 -0.037198137 0.0069352235 -0.007908342 0.05195738 -0.016814375 0.02140916 -0.011423034 -0.022321017 0.00035933216 -0.01094426 -0.03118581 0.009262704 0.030781232 0.00497018 0.006372997 0.0453048 -0.00730083 -0.0014164357 0.07593406 0.038393598 -0.008937409 0.029451368 0.014097928 -0.003404961 -0.0018849549
93 -0.027104216 0.006183037 -0.0011987467 0.005187618 -0.017234039 0.017167136 -0.015048086 -0.043921385 0.003814626 0.05297793 0.013373339 -0.04566363 0.009072263 -0.003664612 -0.024156064 -0.031582873 0.017692681 0.036278218 0.0027091298 0.010345459 -0.034412682 -0.008124591 -0.013186423 -0.010180856 -0.020167207 -0.039265014 0.0068359687 -0.009392792 0.04913957 -0.009630967 0.014524701 -0.017408958 -0.0074740597 0.006467295 -0.002147903 -0.034893457 0.010477864 0.04059259 0.008474944 0.002155422 0.0374417 -0.005945918 0.002550746 0.06908773 0.021851506 -0.0073430724 0.024932833 0.01843645 -0.010376897 -0.017655246
88 -0.018626612 0.021610558 -0.0033051206 0.007372733 -0.014188571 0.020114051 -0.022665666 -0.0590508 -0.011511191 0.055470012 0.013598667 -0.031380326 0.002799283 -0.008816183 -0.024464775 -0.04194946 0.023688953 0.03443612 0.02270839 -0.003756184 -0.021727638 0.009919556 -0.0020164354 0.0024266727 -0.014507972 -0.038861796 0.006436348 -0.005366344 0.061271563 -0.01214582 0.008434455 -0.004834737 -0.012431354 0.0058497377 -0.00065685395 -0.017246624 0.0028578558 0.024334665 -0.0032748715 0.011679804 0.03433327 -0.00061790907 -0.0051481593 0.067617096 0.030421503 -0.025298735 0.010695288 0.024525918 -0.010506791 -0.02063281
48 -0.020185448 0.014425294 0.0004430721 0.010396088 -0.00786714 0.021812843 -0.02544705 -0.0630652 -0.00035065936 0.061500926 0.0105060795 -0.042177215 0.0041580643 -0.018150438 -0.032449584 -0.047283676 0.018656801 0.0545918 0.015806504 0.0004422662 -0.038460143 0.0011655283 -0.0058540544 -0.007564915 -0.024035655 -0.035292204 0.0110104745 -0.0072094304 0.061497252 -0.0065498753 0.023874795 -0.015786884 -0.017532444 -0.0024201076 -0.009244955 -0.01733041 0.0041385964 0.037147723 0.0073406496 -0.00046521283 0.042458136 -0.011693172 -0.0044634277 0.08412059 0.035331592 -0.016915388 0.029476788 0.02696842 -0.0144628 -0.004659882
1 -0.025473714 0.0044686627 0.0040281527 0.016138447 -0.0133174835 0.023368763 -0.017329508 -0.06773949 -0.008801256 0.06336067 0.008244921 -0.03230993 0.0024417767 -0.015937103 -0.012226269 -0.025889643 0.004331593 0.037908673 0.018105047 -0.00454811 -0.02101238 0.0011102827 0.00040700793 0.0016164256 -0.016573835 -0.02573221 0.005683707 -0.0005698991 0.056741167 0.00322253 0.014390992 -0.006040181 -0.009701055 -0.005360154 -0.010093021 -0.01858549 -2.9630435e-05 0.02282614 0.0034446826 0.010335469 0.04479989 -0.012890068 -0.009272999 0.075833805 0.020516116 -0.022730015 0.017932065 0.012752631 0.0042629326 -0.012795426
248 -0.02368196 0.012441136 -0.0032929874 0.011352898 -0.012477409 0.01781333 -0.02051051 -0.04317009 -0.006001552 0.03691083 0.010496129 -0.028573427 0.012632057 -0.0041750786 -0.020831276 -0.020936605 0.021257838 0.03865068 0.01213111 -0.003898037 -0.012172747 0.0010631876 0.0027043303 -0.0071582217 -0.02553403 -0.026822435 -0.008827804 -0.0026558957 0.048692156 -0.00036863371 0.020604895 -0.01255717 -0.010241827 0.0006412794 -0.0072071054 -0.025836956 -0.0038322813 0.034506813 -0.008306963 -0.007929862 0.03938553 0.0032346928 -0.0026247122 0.048130993 0.023071898 -0.023247352 0.019018969 0.0065566087 -0.014210737 -0.0021701402
243 -0.026093332 0.009085004 0.007953162 0.010968971 -0.0052208523 0.013599095 -0.012386653 -0.049377963 -0.0134841185 0.060502812 0.009147825 -0.04552135 0.0075540524 -0.005805668 -0.014612866 -0.033734024 0.007874347 0.03222604 0.017577723 -0.0032703523 -0.022926701 -0.0027490691 0.0023370464 0.0016532384 -0.017776597 -0.033861138 0.013261195 0.0024805474 0.05914043 -0.0071100635 0.023765681 -0.015307871 -0.0038437534 0.0009199861 -0.010570566 -0.018780386 -0.003662533 0.024564859 0.002136697 0.0013595602 0.039275017 -0.007671597 -0.00077038805 0.073013015 0.029602347 -0.0072507937 0.011244187 0.02121681 -0.010713306 -0.02211623
174 -0.031094667 0.010373502 -0.00061668985 0.02728337 0.0021620772 0.011706243 -0.027792463 -0.05290787 -0.004618999 0.0506329 0.012023269 -0.043819204 -3.9926636e-05 -0.0025549952 -0.02373591 -0.032386 0.012016827 0.051138517 0.014275424 -0.0029198339 -0.023186699 0.0050390684 -0.0043524476 -0.005436752 -0.0270037 -0.035127476 0.012525475 -0.006212431 0.0549329 -0.010369553 0.02489251 -0.010058196 -0.009100447 -0.0011359794 -0.0047032363 -0.020833595 -0.009990751 0.025658669 -0.008781102 0.00681507 0.032759003 -0.015107673 -0.0010655418 0.06477997 0.028070277 -0.019340536 0.018887702 0.021543197 -0.016380224 -0.013130713
233 -0.034261696 0.030012742 -0.0044114366 0.008216636 0.006766098 0.011486708 -0.039070755 -0.07496879 0.0034642206 0.056969713 0.016310157 -0.052181214 0.010516867 -0.008219412 -0.021871546 -0.025224643 0.0103022065 0.05168543 0.02552665 0.006968353 -0.019592732 -9.5420924e-05 -0.020946998 -0.015248072 -0.03653922 -0.021447973 -0.008470076 -0.012395237 0.07416154 0.0018118282 0.023525195 0.0074999337 -0.025444992 0.011169192 0.010926905 -0.014167389 0.0034837313 0.025450893 -0.010061018 0.015042647 0.056475665 -0.011490855 -0.0009864349 0.08283891 0.018204954 -0.010389923 0.018368613 0.02244027 0.002656449 -0.024826119
256 -0.026427118 0.016231589 0.0048393714 0.016781932 -0.009467637 0.011742793 -0.0244319 -0.07797954 -0.0064485897 0.055554025 0.0034934687 -0.0516868 0.02107193 -0.0017587962 -0.03472404 -0.031590182 0.0017796435 0.054695487 0.01232002 0.004002106 -0.033613484 -0.003366632 -0.0051855184 0.0044842074 -0.033521734 -0.029930223 -0.007819897 -0.021988958 0.06986599 0.0039517744 0.009646939 -6.430562e-05 -0.009260671 -0.0026965083 0.0026974757 -0.022114627 0.013099667 0.038863376 0.0013692324 0.0019167966 0.052826714 -0.01664667 0.012115346 0.062493905 0.019042948 -0.0050149052 0.0256357 0.00538839 0.005443301 -0.02861322
3 -0.01356364 0.006140916 0.0059729936 0.008585293 0.0009979032 0.011781092 -0.02880149 -0.057767477 0.0048275557 0.051531486 0.014290952 -0.043267053 0.012461501 -0.0023844563 -0.02824699 -0.022439495 0.019277237 0.042482134 0.017791817 -0.0003739435 -0.032569 0.0076360204 -0.008063319 -0.011047335 -0.025227752 -0.0351072 -0.0032139914 -0.009494234 0.054477736 0.0038759974 0.019594101 -0.017434647 -0.0012529353 0.002982832 0.006012172 -0.017643994 0.0008464194 0.01833379 -0.0058033434 0.0065902574 0.02850027 0.00016500746 0.0042750705 0.06456884 0.017073335 -0.011272984 0.0214629 0.019853193 0.005410969 -0.021088043
211 -0.023027088 0.014752538 -0.00015208437 0.017493257 -0.006878929 0.011249788 -0.011918729 -0.06079343 0.0041938997 0.043602295 0.013172403 -0.03570117 0.0013225182 -0.0045869113 -0.025039935 -0.027571665 0.00496528 0.039126877 0.009511601 -0.003105572 -0.031061396 -0.0031754 -0.0065345056 -0.000701111 -0.014701353 -0.029225834 -0.00068204873 -0.0013202484 0.051895104 -0.008699849 0.008674378 -0.013452347 -0.019458877 -0.0050239707 -0.008757932 -0.019067625 0.009059906 0.03533208 -6.448887e-05 0.007535312 0.02581898 -0.0009634984 0.004979974 0.051152218 0.026395159 -0.0110946875 0.024741504 0.00830263 -0.0037628424 -0.011057502
8 -0.03329036 0.01146059 0.0012409783 0.0033165736 -0.010142255 0.022648068 -0.0282409 -0.059314907 0.0051032626 0.054626983 0.016238788 -0.04817653 0.005843391 -0.017553525 -0.012072595 -0.024401283 0.016953677 0.028503122 0.011785692 0.010629141 -0.02228303 0.0070950515 -0.0054520774 -0.008490289 -0.024058854 -0.021672912 0.001376163 -0.004488228 0.05239513 -0.014934565 0.008412195 -0.012878103 -0.016001863 0.013555044 -9.586791e-05 -0.016467046 -0.0018764987 0.04173664 -0.011226052 -0.008247952 0.0338716 -0.0024067718 -0.005576153 0.074869014 0.016729774 -0.0067873024 0.01797384 0.012695713 0.0019180912 -0.0043216744
151 -0.029676644 0.004125949 0.01336729 0.015514664 -0.0139842415 0.010968352 -0.018017793 -0.04127571 -0.00030684887 0.045228675 0.014172352 -0.025178973 0.015673157 -0.019167023 -0.017551674 -0.023582306 0.005656887 0.035862338 0.01818981 0.0071262685 -0.030461466 0.006472111 -0.005536441 -0.0056795073 -0.02167394 -0.03607488 0.0017960953 -0.011448523 0.039268762 -0.0060145864 0.023496458 -0.012908849 -0.010071406 0.0050861076 -0.0034476689 -0.027705189 0.008982958 0.03422053 -0.0024662837 -0.0012746056 0.026048757 -0.004261662 0.008520108 0.06789339 0.021377632 -0.022535203 0.025447348 0.011831438 -0.013941213 -0.02232249
176 -0.009710125 0.017603446 -0.0011638652 0.012219221 -0.0108703105 0.0043100654 -0.024739992 -0.046706576 -0.012751093 0.05168715 0.015314784 -0.040908806 -0.004834168 -0.008788139 -0.023060013 -0.029407881 0.011768952 0.035315726 0.011061878 0.0036230332 -0.017240055 0.008398588 -0.014686633 -0.008469525 -0.02453283 -0.021718623 -0.003519578 -0.013326241 0.036616404 -0.008646824 0.01822169 -0.0049995487 -0.00081108464 0.0047864206 0.0008842159 -0.024475107 0.005928493 0.029494077 0.0077905767 -0.0053384406 0.0320961 -0.0148979565 -0.0032318826 0.05074981 0.026036162 -0.019015614 0.023446979 0.015100967 -0.00068707444 -0.0077509163
33 -0.037944186 0.026801523 0.002302943 0.02156145 -0.022297492 0.022707675 -0.011413333 -0.05309104 -0.00633818 0.063956544 0.020595277 -0.060608715 -0.0034014299 -0.0157904 -0.009484865 -0.04516256 0.0052374005 0.042227756 0.023768008 -0.016298398 -0.037152767 -0.0042633195 -0.003812471 0.009326067 -0.027686706 -0.03199426 -0.006996759 -0.0174094 0.07747476 -0.0063185156 0.027149383 -0.011964511 -0.02312337 0.00048698255 0.011518301 -0.038247664 -0.006213026 0.052251957 0.006025709 0.0026414893 0.050372325 0.00028227575 0.0055949683 0.0855532 0.03822977 -0.0014099074 0.023557793 0.010751009 0.008071241 -0.00075020554
42 -0.038606346 0.010926886 0.0064627943 0.025452217 -0.023759427 0.012060733 -0.013179181 -0.06788961 -0.0060478337 0.057622787 0.022678655 -0.05910937 -0.0038365228 -0.01033816 -0.017614461 -0.041196976 0.0047262497 0.04199694 0.0152811725 -0.017546479 -0.04037055 0.0038596347 -0.0047285245 0.014340482 -0.012181918 -0.034241337 -0.0081828125 -0.020919159 0.07902994 -0.011901279 0.0134857 -0.009164872 -0.018959492 0.01862596 0.013979254 -0.037825357 0.007835334 0.051951803 -0.0050018225 -0.010636064 0.050829012 -0.0051623005 0.01578906 0.07531045 0.034396663 -0.0070203915 0.03433905 0.022717897 -0.0021969134 0.0029218087
167 -0.032912888 0.0060461564 -0.004241069 0.013868229 -0.014123274 0.016697854 -0.021226784 -0.05000603 0.0017858391 0.05605038 0.010478233 -0.030987315 0.013457881 -0.0059099775 -0.014732307 -0.02918578 0.012045046 0.044276718 0.007702294 0.007395352 -0.027794253 0.0051822565 -0.017113939 0.007161551 -0.010365198 -0.03593455 0.01131038 -0.005564356 0.055034705 0.001033306 0.020457938 -0.008872002 -0.0009792185 0.009380216 -0.00048998377 -0.032504097 0.010518064 0.03924687 0.0038318671 0.011670556 0.03474795 0.0026286906 -0.007279792 0.05925775 0.028821886 -0.025687343 0.02392677 0.019157475 -0.012442363 -0.0223519
171 -0.03527877 0.014292042 0.011184104 0.009566243 -0.0066963295 0.029534798 -0.03047165 -0.06798812 -0.011274051 0.050429817 0.015577728 -0.053298287 0.005286524 -0.0053292126 -0.021951577 -0.051291708 0.014991959 0.055828728 0.0073084123 -0.00028832053 -0.035803955 -0.0025542325 -0.0073730275 -0.004854206 -0.022262536 -0.042898867 0.0046924106 -0.0061527607 0.06700125 0.00039148793 0.028614312 0.00030741512 -0.021954432 0.01386746 0.0069216024 -0.03012719 -0.006995962 0.026735803 -0.004121394 -0.0051617264 0.03542228 -0.00088706205 -0.0069377013 0.077398024 0.027659656 -0.0180141 0.017680988 0.008198507 -0.00817439 -0.021902002
194 -0.019090274 0.01774318 0.006230106 0.02472341 -0.017456733 0.008736754 -0.017415673 -0.06054597 -0.011309926 0.06142963 0.020737575 -0.050403293 0.015381461 -0.014875476 -0.03225297 -0.038785 0.0046903356 0.03738411 0.007754892 0.004387295 -0.036044475 -0.004858952 -0.0056180838 -0.008907372 -0.014041139 -0.039412536 -0.008442034 -0.0034117852 0.05735827 -0.008584497 0.020075237 -0.0120631065 -0.01065898 0.009110985 -0.00030694884 -0.029870931 -0.0053519993 0.036125768 0.006910607 -0.004224378 0.0417809 -0.015450883 0.006441668 0.06341887 0.04005456 -0.021446234 0.011308893 0.019059395 -0.005883408 -0.018208727
282 -0.02070734 0.026550945 -0.0075623733 0.027291799 -0.02154147 0.027100863 -0.011553781 -0.07276555 -0.011752674 0.06413854 0.006842921 -0.028805984 0.007543579 -0.019880587 -0.01848048 -0.047953423 -0.0021519568 0.043520704 0.009022466 0.001636311 -0.034410577 0.0011201539 0.0047433637 0.014737517 -0.025283663 -0.035399612 -0.01393709 -0.019198945 0.06371762 -0.00982663 0.012851051 -0.0015884212 0.0025429295 0.017710574 -0.0009256003 -0.0201326 0.009023972 0.03316148 -0.0009036088 0.015353762 0.03427853 -0.015151981 0.0053153345 0.05559609 0.029912764 -0.028149566 0.017053235 0.0062885205 -0.0053347405 -0.012128182
244 -0.030285921 0.020251889 0.0012711693 0.013955996 -0.025696667 0.025157593 -0.018160528 -0.07793658 -0.0035534676 0.07458338 0.0037734178 -0.028397698 0.007335667 -0.0025564658 -0.00945945 -0.036566954 -0.0018384812 0.036942482 0.019383034 0.010768377 -0.033350814 0.0017604724 -0.00025599814 0.0078053167 -0.031683933 -0.03289667 -0.013321301 -0.024768641 0.06140531 -0.009804164 0.020203928 0.0029175216 0.0025333667 0.0033663637 0.012217363 -0.028593838 -0.009150414 0.04002388 -0.0076175025 0.009752436 0.050126676 -0.022045733 -0.009422499 0.07606843 0.030944023 -0.031990778 0.023890842 0.010951214 -0.00015331586 -0.02377877
95 -0.027358752 0.012156296 -0.00047013102 0.012758109 -0.004935893 0.025681702 -0.021872923 -0.06269581 -0.00882315 0.05936478 0.027320782 -0.032825887 0.0013941402 -0.019297913 -0.019296996 -0.036227528 0.01239259 0.04938706 0.00591219 0.009212913 -0.0154780615 0.0030201178 0.001950598 0.006435616 -0.009192057 -0.045081023 -0.009224927 -0.013537305 0.064142704 0.0010141558 0.02499953 -0.009889879 -0.021605643 0.0058628116 -0.0024183348 -0.02166013 -0.0014307327 0.042695235 -0.00042426257 0.00736335 0.03458104 -0.014708098 0.0041232384 0.06155801 0.03344788 -0.021750862 0.025984958 0.02661809 -0.013774631 -0.014191092
28 -0.01273888 0.020082375 0.013516656 0.013931413 -0.014802171 0.010789447 -0.019078366 -0.048603345 -0.011867911 0.046615228 0.002820508 -0.04198948 0.011476777 -0.0046136137 -0.016716778 -0.020884214 0.022497922 0.040927593 0.018452846 -0.007901643 -0.021383876 4.6305617e-05 -0.00098877 -0.0007944348 -0.01398494 -0.029057369 0.010594527 -0.007305213 0.042498447 -0.010978386 0.012301483 -0.0060447 -0.0054811384 -0.0034412737 0.004279848 -0.019238701 -0.009663697 0.023875762 -0.0070451824 -0.006513296 0.025264945 -0.012042275 -0.008099608 0.051206835 0.028706292 -0.014720219 0.01800835 0.024391366 -0.016835371 -0.021256836
260 -0.019749178 0.018055473 0.0095339175 0.019822672 -0.017092856 0.018764624 -0.025866203 -0.069534145 -0.010062931 0.06488712 0.015306679 -0.039663345 0.015338189 -0.011146668 -0.03074796 -0.039975084 0.021282513 0.052930333 0.0054620975 -0.0020709988 -0.02858305 -0.010473814 0.002199428 0.005524088 -0.0129663395 -0.024432063 0.010728186 -0.006075864 0.05752942 -0.011934197 0.017607829 -0.009808819 -0.016583614 0.0039087003 -0.0015416299 -0.03442832 0.010640781 0.0369341 -0.0061057797 0.0061796503 0.02942624 -0.012553435 -0.0007647559 0.07634053 0.022783976 -0.009416048 0.025294488 0.027219882 -0.006049787 -0.003950811
130 -0.02323931 0.013697836 0.0011700757 0.017430056 -0.015506584 0.009113866 -0.029838182 -0.055780303 -0.008698824 0.04279286 0.022670142 -0.04582146 -0.0021354086 -0.0034673237 -0.020304827 -0.024598014 0.019327186 0.03423744 0.00691899 0.0019701258 -0.026207563 0.01024623 -0.0142830415 -0.010838223 -0.015676836 -0.018841283 0.0062724366 -0.005796557 0.045452297 -0.010035203 0.017887358 -0.015875408 -0.019814147 0.009642182 -0.007176718 -0.02117589 0.01009537 0.03666594 0.0017685419 -0.00029855123 0.031672653 -0.012902691 0.0018831949 0.071763024 0.034029134 -0.009787905 0.014587558 0.01998323 0.002146473 -0.0014700576
2 -0.013947736 0.009903225 0.0029005606 0.019065231 -0.0032858455 0.0062575326 -0.014024237 -0.04993624 -0.001047496 0.060977027 0.021632876 -0.03537612 0.01195161 -0.018084928 -0.018165847 -0.035980295 0.021821637 0.032941528 0.008180245 -0.0032845386 -0.014484513 0.008106846 -4.860297e-05 -0.0007252627 -0.01622767 -0.029176299 0.0027317961 -0.0026337095 0.045361992 0.006025726 0.015527769 -0.015712839 -0.009237354 0.006031956 -0.0037640778 -0.025714982 0.0062565766 0.037512336 -0.0089520365 0.0079662055 0.04131762 -0.013380224 0.00899527 0.071753554 0.029376818 -0.020019384 0.010794899 0.013950693 0.002368414 -0.016520951
219 -0.03592806 0.024816936 0.016893003 0.012618592 0.0028607014 0.026633779 -0.012898668 -0.064428955 -0.00078447483 0.06727982 0.01621649 -0.039095383 0.0060289595 -0.0019947435 -0.017544674 -0.028428389 0.015764335 0.043073222 0.023271762 0.008800494 -0.023383057 -0.0044990918 0.0002766139 -0.0093753645 -0.01610859 -0.036345035 -0.009424325 -0.010063218 0.056014713 -0.0010797544 0.02179134 -0.0006073497 -0.020961896 -0.0026436944 0.003691081 -0.029782457 -0.0057258056 0.037484683 0.008227429 -0.0067048846 0.04340191 -0.016304554 0.0077768974 0.064333916 0.030573519 -0.025206478 0.023021292 0.025828702 -0.0145541215 -0.012259083
181 -0.019169215 0.012054653 0.0063287555 0.024007631 0.002874047 0.017577134 -0.03248425 -0.075002156 0.001340267 0.04927068 0.008689951 -0.03944218 -0.00234426 -0.017732847 -0.018649798 -0.03628285 0.018693283 0.047556505 0.003027387 0.005167479 -0.03754325 -0.008938813 0.0035282283 -0.005713995 -0.021824433 -0.028146563 0.0037442814 -0.015377443 0.05438661 -0.007304831 0.030493032 -0.018100081 -0.019331789 0.009163637 0.008701015 -0.019746846 0.009853269 0.033658348 0.009207059 0.002069773 0.044098638 -0.010035234 0.002725542 0.07602837 0.04054171 -0.022012588 0.028676417 0.007322584 -0.0072718714 -0.0032230546
284 -0.011957971 0.02167682 -0.0021839947 0.01946472 0.0042603146 0.017855136 -0.026764067 -0.05159323 -0.0041447924 0.062105704 0.0011565816 -0.0432166 0.0024783905 -0.022450484 -0.029499017 -0.033824615 0.00547203 0.047468726 0.0075122095 0.0039684814 -0.02234036 -0.008041479 -0.008298451 0.007189286 -0.021977633 -0.035384078 -0.002302283 -0.0066996776 0.058719087 0.00026847483 0.015406051 -0.0024533847 -0.015621652 0.006812261 -0.008792276 -0.025698738 -0.008661374 0.019644272 0.008470209 -0.0064010955 0.041153055 -0.0044515217 -0.010206326 0.060967825 0.025444295 -0.023773596 0.029983176 0.023733342 -0.013370142 -0.006945733
242 -0.02739179 0.024669984 -0.0002897663 0.016567413 -0.0001556358 0.02130476 -0.026678912 -0.05781278 -0.0031127576 0.047078956 0.021724204 -0.03483642 0.0016393272 -0.009322575 -0.020387482 -0.02802952 0.0042273295 0.044353228 0.01743133 -0.0014414198 -0.03654245 -0.00781192 -0.0064606513 0.0044763535 -0.01588421 -0.040424906 0.007784994 -0.00587215 0.055019688 -0.012885194 0.023592055 -0.008664711 -0.014649344 0.009940467 -0.0077023455 -0.029047042 -0.0026972424 0.024123345 0.0056216912 -0.007447848 0.03649587 -0.006204225 -0.009284116 0.071490906 0.034879662 -0.023441194 0.02117823 0.023662295 -0.013507935 -0.009899297
36 -0.030426368 0.012049654 0.008029687 0.012822112 -0.0103062345 0.025214143 -0.024452984 -0.06720921 0.0072197276 0.07190831 0.0064177057 -0.045058306 0.012610754 -0.025078652 -0.029432982 -0.042805128 0.004897061 0.04941184 0.009285834 0.0046858303 -0.037307978 0.0021420673 -0.012574934 -0.0052881 -0.023649218 -0.02716627 0.0073016877 -0.015263466 0.058669303 -0.015402345 0.03107835 -0.007669832 -0.0069668475 -0.0064137536 -0.010948197 -0.025043359 -0.0060245716 0.031390123 0.0029428867 0.006497575 0.03166561 -0.012359621 -0.011025743 0.07813207 0.032462433 -0.03095563 0.032728408 0.010145734 -0.012126886 -0.019621147
14 -0.020340303 0.014116631 0.011866852 0.014845213 -0.008267469 0.011300147 -0.014953932 -0.059285473 0.007213567 0.058632914 0.021100543 -0.03677584 0.0058809826 -0.0050664884 -0.02041532 -0.024156844 0.023456927 0.039517682 0.001454158 0.00046617753 -0.018377684 -0.00038068494 -0.012394727 0.0072925463 -0.023315685 -0.03223821 0.0054260846 -0.016217183 0.048641667 -0.012274756 0.0089940755 -0.005208451 -0.017157026 0.008943058 -0.0015822191 -0.016079877 -0.008902551 0.033256236 0.010310341 0.00213244 0.027733611 -0.009751253 0.010096108 0.061038986 0.032313425 -0.0053888937 0.012526256 0.008573088 -0.0041646194 -0.01807082
128 -0.020387046 0.00831697 -0.0016670639 0.008608565 -0.009213333 0.019068865 -0.0063960436 -0.054488752 -0.01267242 0.042559534 0.016814364 -0.03032147 0.008577511 -0.0021227286 -0.013346918 -0.021358242 0.01524586 0.026452271 0.013869606 -0.0005355377 -0.01739111 -0.004642746 -0.009006286 -0.009128547 -0.010181802 -0.030899392 -0.0051953797 -0.007927759 0.03954302 0.00069458754 0.010345219 -0.005731997 -0.004623671 -0.00695974 0.0034413084 -0.011598601 -0.009475559 0.029514043 0.0015093996 -0.0031270029 0.030357718 -0.014284209 0.0010774601 0.039380576 0.01982984 -0.014852086 0.023335481 0.005404792 -0.00784002 -0.0073769367
103 -0.023772001 0.019631913 -7.9587146e-05 0.017750222 -0.0045202365 0.008644448 -0.021642428 -0.04870444 0.0041699535 0.041313436 0.002403918 -0.031046186 0.0016822021 -0.008285453 -0.009927639 -0.028060818 0.004782808 0.039069973 0.011240737 -0.0021005266 -0.027614491 -0.007033379 0.0032648847 0.0026087468 -0.017249323 -0.02998526 -0.0049233483 -0.0023118695 0.0327909 -0.012975297 0.02044365 -0.017003322 -0.0061323317 0.007019143 -0.0057068737 -0.027102884 0.01040637 0.034620225 -0.0066224313 -0.0001420862 0.020158391 -0.004175883 0.008722858 0.06179848 0.030911421 -0.022037283 0.019222723 0.0025301538 0.0007532586 -0.019885099
237 -0.019730931 0.024030687 0.0031822557 0.01678652 -0.014891946 0.011839114 -0.027349025 -0.05757399 -0.0071287705 0.05974365 0.021442598 -0.03774638 0.0126617765 -0.008807101 -0.023816897 -0.02796566 0.0059776315 0.030576823 0.004300918 -0.00048398835 -0.0171319 -0.008421602 -0.0010806861 0.004961275 -0.02486008 -0.020633444 0.01157162 -0.0066778697 0.05354713 -0.0094101485 0.018212412 -0.0108263455 -0.0015887653 0.0016179094 0.009184244 -0.021997413 0.0052973717 0.034163762 0.008170942 0.0035533397 0.023840701 -0.017160693 -0.0045610885 0.06561652 0.028130542 -0.011152504 0.026605515 0.008116591 0.003100076 -0.0007637015
303 -0.021231271 0.0037486225 0.0052864696 0.009946357 -0.008421163 0.0073050447 -0.009571117 -0.050996993 -0.011004199 0.038933955 0.01796589 -0.031504877 0.004886804 -0.005561 -0.017969383 -0.03648795 0.01427038 0.043360714 0.020713303 0.00015676496 -0.027029816 0.0041931625 -0.013696651 -0.00060210266 -0.013759681 -0.029998796 0.0011020105 -0.010619933 0.048643358 0.003630692 0.018154353 -0.014664838 -0.0019479861 -0.002548903 -0.0009987467 -0.011275626 0.0022305734 0.023025392 -0.005816524 -0.004289441 0.03655668 -0.004168745 -0.00039887425 0.05683076 0.025165707 -0.024193613 0.01835134 0.009139802 -0.009011118 -0.0120274015
92 -0.016194344 0.012401591 0.0009038043 0.024019163 -0.0024609184 0.014248221 -0.029368987 -0.053628936 0.0039644036 0.05138761 0.00847149 -0.03760659 0.0064580035 -0.019064138 -0.03179949 -0.046878934 0.00820598 0.039242074 0.022876464 -0.0050449343 -0.036948614 -0.008894635 0.0021473784 0.007971415 -0.02748782 -0.026256202 -0.0075139618 -0.013617917 0.062076926 -0.0104889795 0.017452478 -0.014076676 -0.018986506 -0.0024867123 -0.008662638 -0.016034747 -0.0066080154 0.038158417 -0.0031496005 0.007703317 0.038280845 -0.00035385357 -0.0038350748 0.07332734 0.031949565 -0.02289628 0.011230819 0.010177355 -0.015389139 -0.016830318
302 -0.02803049 0.015442228 0.00031032687 0.024882568 0.0014220387 0.021547938 -0.02558625 -0.059124045 -0.011499617 0.062902026 0.01706112 -0.04072681 0.005879316 -0.0069890437 -0.032071427 -0.031448163 0.012248931 0.037160404 0.025358675 -0.008991766 -0.032199375 0.0026544794 -0.0040848814 -0.00023978778 -0.024115404 -0.024498628 0.0062581785 -0.019937063 0.060497273 -0.011564023 0.014063732 -0.0075221313 -0.008920661 -0.005442412 -0.009267076 -0.027450902 0.006700264 0.028647494 1.7247092e-05 0.007368662 0.041037433 -0.0036586295 -0.009959471 0.06763717 0.03990993 -0.018888045 0.012613179 0.017881066 -0.0050203367 -0.008922451
