333 50
119 -0.03975827 0.014288127 0.0308194 -0.034364134 -0.0077278623 0.007647286 -0.02721082 0.005265206 -0.006160074 0.045098968 0.05772656 -0.024073275 0.0035733094 -0.001512893 -0.06777222 -0.0407835 -0.011406528 0.027529262 0.021945309 0.008092138 -0.046567284 -0.017148688 -0.023408657 -0.055504054 -0.085627764 0.029551648 0.029924124 -0.04194544 -0.010842349 -0.016935432 -0.0146390535 0.027688747 -0.081627406 0.010639548 0.007901149 0.014189178 0.00025546015 0.017679522 0.0200231 -0.025908487 -0.020723043 -0.018041328 0.026592992 -0.032915037 0.009460085 -0.051253073 -0.024794187 0.022641972 0.05174776 0.029062694
56 -0.03144069 0.014437597 0.027395781 -0.02078112 -0.0048432024 0.008591789 -0.02608334 0.018715825 -0.004151066 0.04325066 0.06155868 -0.023128308 0.00497924 0.00065943267 -0.08433986 -0.046950523 -0.027084531 0.016214566 0.025465475 0.0057737003 -0.041865434 -0.03603416 -0.028411638 -0.06477029 -0.08755645 0.025471805 0.03877606 -0.036931623 -0.004912012 -0.020912949 -0.017602937 0.028512906 -0.078081705 0.017840542 -0.0036333066 0.022858629 -0.0010314164 0.01276419 0.019167392 -0.010318302 -0.024896126 -0.017290916 0.01836768 -0.050427813 0.0017968701 -0.050871257 -0.01613679 0.016645424 0.055744994 0.037375692
271 -0.021314923 -0.0021970433 0.038266037 -0.025790568 -0.012134806 0.007248006 -0.021790147 0.009230081 -0.0038330283 0.026983697 0.051339775 -0.013096856 0.0016098928 0.008869478 -0.06619428 -0.031484533 -0.011368848 0.017809859 0.02867173 0.015162189 -0.030146057 -0.027197747 -0.031066747 -0.0561764 -0.07550551 0.029637862 0.031664748 -0.028005522 -0.0010472782 -0.0181887 -0.015187162 0.020758267 -0.07046187 0.018297108 0.0012116503 0.018450715 -0.015205394 0.014802746 0.02081689 -0.010099221 -0.02541644 -0.00976724 0.027265517 -0.041857757 0.015151417 -0.040078264 -0.012775603 0.01597691 0.03866181 0.022976749
322 -0.020590894 0.013573039 0.03087684 -0.017034592 -0.0019162863 0.0016330453 -0.022016497 0.008901121 -0.00926094 0.031063464 0.037704375 -0.02162678 0.002824123 -0.00876391 -0.05745615 -0.027267164 -0.0124777425 0.03029537 0.021195538 0.01366011 -0.042118844 -0.029225027 -0.024353566 -0.058284096 -0.078721456 0.023046046 0.037671838 -0.028630141 0.0047278483 -0.021458454 -0.02999251 0.022911515 -0.064617164 0.007925981 0.006838664 0.027949255 -0.0037799538 0.0135741085 0.02249931 -0.022334516 -0.022214334 -0.0082651675 0.020654893 -0.033524316 0.01896952 -0.055166785 -0.0143640125 0.0024235453 0.04984347 0.026514225
25 -0.024049683 0.000503004 0.02931617 -0.028340118 -0.00705436 0.0031160058 -0.011727216 0.0067255483 -0.014761445 0.048802048 0.048041403 -0.013479765 0.006021195 0.0048241406 -0.06619222 -0.039470464 -0.01680491 0.022724291 0.01680631 0.017679548 -0.036782503 -0.024683341 -0.03216666 -0.048072252 -0.08645631 0.028278785 0.045977034 -0.030041477 0.009716258 -0.028052686 -0.023631932 0.020044625 -0.07804693 0.013019042 0.00839276 0.030194031 0.00081049337 0.019994885 0.021141047 -0.026348172 -0.01922831 -0.004385454 0.011234594 -0.03335882 0.0103316 -0.058489595 -0.012232097 0.0036080016 0.053851902 0.0351857
67 -0.017322987 -0.0041660126 0.026827846 -0.031792603 0.0017743726 0.008018736 -0.024270354 0.020631462 -0.01817582 0.032308534 0.04378847 -0.004792783 0.00012685871 0.008104948 -0.06114096 -0.030153409 -0.0098385895 0.014557536 0.016768899 0.015204037 -0.031789713 -0.025119249 -0.018612104 -0.050918054 -0.064823635 0.026756262 0.03455158 -0.029502677 0.009815565 -0.024146793 -0.013236812 0.024437983 -0.06472132 0.00592697 -0.0012090732 0.023258315 -0.015616956 0.0064890557 0.025076028 -0.009211174 -0.033509478 -0.00892082 0.021317277 -0.03837235 0.0137419915 -0.051123973 -0.025134869 0.01063106 0.039379347 0.032460373
312 -0.027060991 0.0087596 0.025533298 -0.027040051 -0.014880757 0.009473948 -0.018342854 0.018691108 -0.020637104 0.032445546 0.049443632 -0.0066404883 -0.00044306234 -0.00947208 -0.06973077 -0.028319353 -0.0078406 0.014710013 0.026880322 0.016225092 -0.041501988 -0.023240902 -0.035138585 -0.0472782 -0.07937019 0.034248803 0.03956637 -0.033362392 -0.0039869607 -0.012065261 -0.0317834 0.009037516 -0.07434468 0.009557418 0.0021868714 0.027222652 -0.016091296 0.011172182 0.019200386 -0.018252553 -0.022506561 -0.015168389 0.028243383 -0.04505112 0.011495296 -0.063563414 -0.020332774 0.016449753 0.035968736 0.03642462
277 -0.024328705 0.010364243 0.026293742 -0.012913532 -0.0010617619 0.0030275004 -0.017412463 0.012729851 -0.003943971 0.018158292 0.028903272 -0.019157352 -0.0037343358 0.003209907 -0.04365711 -0.032518625 -0.004509094 0.008109783 0.01654455 0.0068387818 -0.020287612 -0.012722142 -0.027758887 -0.034712538 -0.062776916 0.012603218 0.029851709 -0.03533571 0.0076823123 -0.017866526 -0.019052451 0.0080513675 -0.05515769 0.011474687 -0.0021323697 0.012528882 -0.002748334 0.0045959144 0.021523679 -0.015709387 -0.017863177 -0.008006931 0.011738903 -0.028977718 0.004311583 -0.04403485 -0.011805937 0.007648873 0.024247134 0.02587159
41 -0.030992532 0.0032559857 0.021456314 -0.015806194 -0.0004111062 0.007424885 -0.021181619 0.019575298 -0.012662195 0.034833983 0.046967328 -0.0021589173 0.009613297 0.0066814297 -0.071843356 -0.031767804 -0.017805193 0.0165033 0.025339486 -0.00061221304 -0.048096083 -0.019049453 -0.018633742 -0.04185721 -0.07767449 0.018133158 0.0331165 -0.03763103 0.0076714987 -0.027390515 -0.027944498 0.009184802 -0.062137414 0.009028344 0.001292247 0.02867989 -0.015258711 0.016380806 0.009407149 -0.025878863 -0.031906568 -0.0079263225 0.0104632955 -0.031840265 0.009167001 -0.052922513 -0.01787951 0.0044419216 0.041706268 0.025649047
239 -0.028137064 0.000527549 0.02109982 -0.02184714 -0.007960828 -0.006156686 -0.010241492 0.0075654266 -0.008398607 0.036064252 0.03516166 -0.013664745 0.006525106 -0.008670779 -0.06847263 -0.038144846 -0.021392101 0.015236653 0.021315694 0.008138475 -0.03992335 -0.02486604 -0.0313823 -0.05000907 -0.07590688 0.03324319 0.029496899 -0.026805619 -0.0021770403 -0.023917874 -0.024237523 0.022671707 -0.072813936 0.021167483 0.005794581 0.01484415 -0.0030293218 0.012462703 0.026304787 -0.0071279 -0.018025087 -0.015969109 0.02136492 -0.030288976 0.009466149 -0.042081457 -0.022206364 0.0033935166 0.031217266 0.015279224
122 -0.016053546 0.010574692 0.027362432 -0.016770424 -0.003103127 0.013558994 -0.014620948 0.0021142468 -0.01269347 0.03097262 0.037175052 -0.011722061 0.0086585935 0.00492417 -0.057535812 -0.03217052 -0.01097293 0.016317185 0.01655656 0.0065651815 -0.030000158 -0.023588153 -0.014739701 -0.047537826 -0.06405075 0.028168907 0.028124478 -0.020943683 -0.0011722259 -0.02546231 -0.019415151 0.022737345 -0.05425824 0.0052190684 0.0013540329 0.02158345 -0.0068642707 0.003164856 0.009323384 -0.01889171 -0.023745505 -0.016047146 0.01439142 -0.030694973 0.017728927 -0.047431584 -0.017766515 0.018083861 0.027017852 0.01048804
115 -0.029469514 0.010592909 0.015039126 -0.025472034 -0.017547613 -0.006288726 -0.0067596016 0.008590695 -0.013708616 0.025008187 0.041685935 -0.00042040786 -0.0041411854 0.0015234529 -0.060588766 -0.016691113 -0.0037799033 0.014153113 0.027953811 0.013954045 -0.021720277 -0.02704193 -0.028648198 -0.047074426 -0.06276003 0.03145556 0.032388955 -0.03150809 0.00054990844 -0.022325065 -0.026644325 0.008190796 -0.05910203 0.021186776 0.006937965 0.009114869 -0.011109346 0.0006904376 0.014008906 -0.021345608 -0.015810857 -0.010006619 0.0060625514 -0.018858237 0.006058321 -0.036455728 -0.015840763 0.01327124 0.03261633 0.014546501
329 -0.03046102 0.002967057 0.024153905 -0.026555182 -0.0032475563 0.010333102 -0.015739053 0.013961907 -0.002885809 0.030340802 0.037298433 -0.016948014 -0.004872706 0.004313984 -0.06957635 -0.038318872 -0.013822844 0.0114060445 0.02875703 0.0034929104 -0.032257482 -0.025118718 -0.036318716 -0.03939141 -0.06740009 0.033804037 0.04052983 -0.035660278 -0.004449738 -0.011838629 -0.027224744 0.023093669 -0.08206416 0.0135945305 0.008287745 0.01042117 -0.012472534 0.010414954 0.024152843 -0.015527161 -0.014922185 -0.013917641 0.011252137 -0.04370441 0.0106222695 -0.0372066 -0.028246723 0.01963075 0.050240126 0.03240813
252 -0.025676083 0.011331679 0.036459483 -0.027795618 0.0016601186 0.008933795 -0.010362504 0.019157227 -0.010664595 0.033679575 0.041875027 -0.0127509525 0.007061392 0.002267223 -0.056836333 -0.03591445 -0.010307591 0.024065658 0.013112323 0.011790472 -0.041194927 -0.025268575 -0.020562124 -0.044771902 -0.06725524 0.021727834 0.021678684 -0.026667628 0.008722346 -0.020029878 -0.012206111 0.009513806 -0.05484199 0.022938358 0.009566874 0.009391485 -0.0012466769 0.00678428 0.014427027 -0.019631805 -0.016226454 -0.00670961 0.017474752 -0.03352938 0.00029688224 -0.05078749 -0.009629708 0.016760359 0.04197778 0.017234994
315 -0.032407984 0.006439188 0.031149287 -0.014862103 -0.018180508 0.0019204878 -0.02742903 0.0129628945 -0.0067593283 0.027524069 0.040253043 -0.015343122 0.0040938295 -0.0046690893 -0.05690597 -0.0214 -0.013979421 0.01554096 0.02341001 0.002824225 -0.024850603 -0.01394856 -0.02330644 -0.05036495 -0.073226675 0.028997663 0.036921326 -0.03471281 0.008691371 -0.015319408 -0.02068228 0.01664262 -0.07686855 0.012797519 -0.0052523967 0.022997906 -0.013526203 0.008551529 0.015525226 -0.02106818 -0.024046991 -0.0033742448 0.010666018 -0.039838944 0.014106241 -0.052572757 -0.022254525 0.0028103944 0.037915137 0.023463085
23 -0.038412068 -0.0040475866 0.031266175 -0.017202718 -0.0015118939 0.0056517613 -0.0232167 0.010481526 -0.015587572 0.027930466 0.04983634 -0.0031971722 0.00262797 -0.0058276225 -0.058726452 -0.037006747 -0.011288622 0.020080576 0.0124173835 0.013608068 -0.029309219 -0.031025646 -0.017029768 -0.05233925 -0.07030389 0.032350134 0.037816927 -0.029905349 0.009290643 -0.013163826 -0.027918193 0.007109705 -0.062234025 0.016032346 -0.0013549579 0.021028278 0.0027907358 0.012427406 0.017814917 -0.0076467916 -0.025927573 -0.018188262 0.013664353 -0.029942755 -0.00024641535 -0.04119385 -0.02396069 0.010869729 0.048307117 0.02887686
19 -0.032661323 -0.0035498799 0.02443002 -0.012482591 -0.010707445 0.009429955 -0.024070252 0.016227521 -0.014467662 0.039513122 0.038640123 -0.021210315 -0.0038666623 -0.0055476143 -0.07060391 -0.029327568 -0.014800025 0.011770532 0.025276542 0.010482561 -0.045434088 -0.025927095 -0.015664728 -0.054733083 -0.06317626 0.028608743 0.035080027 -0.044282563 0.004965553 -0.017612707 -0.02298719 0.009283333 -0.057899695 0.020630853 -0.0022999593 0.019710043 -0.0026582233 0.01334206 0.0089067565 -0.01585059 -0.031250916 -0.0026811622 0.022918783 -0.038505085 0.010031163 -0.039502133 -0.019012075 0.014686612 0.044575892 0.024358507
170 -0.03306584 -0.0003188744 0.029852277 -0.015650565 0.0015448701 -0.0028055317 -0.011979915 0.0021345243 -0.01181235 0.03418287 0.03190103 -0.0035519758 0.0080537135 0.0028755728 -0.049442712 -0.037988517 -0.013356621 0.020819705 0.023351086 0.01430696 -0.033558737 -0.022190483 -0.02222134 -0.04438504 -0.055448465 0.018187782 0.02440345 -0.021653216 -0.0040585124 -0.012816658 -0.013814604 0.010978141 -0.05805702 0.012673373 -0.0036624104 0.020188127 -0.0071417494 0.0008430664 0.010958751 -0.014486957 -0.022996528 0.001813266 0.023256266 -0.022069858 0.006110505 -0.040963657 -0.023674805 0.007171872 0.026148556 0.011539539
21 -0.019754669 -0.00017525772 0.031462498 -0.027830021 -0.0075585097 0.0011382776 -0.020334842 0.017115943 -0.013613382 0.02297691 0.03497608 -0.005098949 0.012900366 0.0033884097 -0.05983233 -0.023523923 -0.019143127 0.016537387 0.03041528 0.009787898 -0.040838297 -0.023202633 -0.028703725 -0.04798697 -0.074069284 0.031086296 0.03359752 -0.03501392 0.0041645286 -0.013273372 -0.014505688 0.015470412 -0.0687646 0.019114517 1.3605875e-06 0.016767936 -0.0028420282 0.0051301657 0.018230937 -0.008726122 -0.030337824 -0.016831772 0.012085669 -0.023645556 0.0052031795 -0.051105317 -0.010016153 0.0034873183 0.035393894 0.02714792
304 -0.025612913 -0.0005302318 0.013342095 -0.010931526 -0.0006843457 0.012157418 -0.02167434 0.0062960926 -0.0067827827 0.018107079 0.033436388 -0.010920165 0.010918074 0.00940786 -0.053283352 -0.02576035 -0.01512448 0.019807907 0.022703126 0.012063664 -0.033692323 -0.015382548 -0.02868486 -0.04083235 -0.054083295 0.02223125 0.034163117 -0.027295385 -0.0017019296 -0.022999924 -0.015638469 0.0020985447 -0.04608392 0.0077339523 0.00091462256 0.006952199 -0.0059604603 -0.00041245762 0.003777453 -0.015623759 -0.011486911 -0.012699067 0.01249077 -0.018873794 0.003932544 -0.042021774 -0.014431543 0.0068254946 0.025070747 0.02840217
203 -0.019125782 0.005389576 0.025766179 -0.02574061 -0.0015521831 0.012369897 -0.008048578 0.008050317 -0.017945873 0.037718367 0.042473797 -0.020355187 0.005359103 0.0035604578 -0.061420105 -0.033385433 -0.011998781 0.01943104 0.025614966 0.01576198 -0.026847651 -0.015096711 -0.028464988 -0.039202273 -0.06884035 0.026216678 0.02081216 -0.032200363 -0.004557609 -0.021986362 -0.022782076 0.0073121493 -0.06251857 0.018798457 -0.00637745 0.024402464 -0.007901187 0.0059494204 0.012852908 -0.018307889 -0.029625254 -0.0065449816 0.020466981 -0.02037569 0.013679434 -0.0434137 -0.01020633 0.0046568154 0.0442176 0.020796923
9 -0.033363853 0.0024168075 0.032806005 -0.026179146 -0.0059813894 0.00634121 -0.0156107 0.012165457 -0.017502587 0.033706073 0.036690053 -0.020874746 0.007308476 0.0015767467 -0.0570246 -0.03564115 -0.020805236 0.024777217 0.0130681535 -0.0011601935 -0.039702386 -0.016273689 -0.018972224 -0.04223809 -0.05680627 0.01702011 0.027543211 -0.03376505 -0.004753573 -0.014016165 -0.024918223 0.008705079 -0.054732405 0.014829796 0.0025947522 0.011084241 -0.013160782 0.0023060932 0.016180376 -0.007643303 -0.02225436 -0.0047118533 0.0101723345 -0.031596478 0.015363064 -0.037978955 -0.027297745 0.011705074 0.034585588 0.014126335
26 -0.029874722 -0.0030461992 0.021666111 -0.023001142 -0.013782581 -0.004684988 -0.009177778 0.01817036 -0.010884989 0.032881718 0.030008335 -0.015721926 0.0075432877 0.0045339647 -0.061564777 -0.035989847 -0.021359744 0.011040421 0.016102418 0.011973378 -0.03534904 -0.0107843075 -0.01531027 -0.03908146 -0.070717834 0.031171057 0.024067206 -0.03832376 0.0007133278 -0.012577499 -0.01940637 0.021221964 -0.06031352 0.014772422 -0.0003871298 0.006575722 -0.008027324 0.002036576 0.009342603 -0.012722775 -0.0217078 -0.0062411665 0.024673238 -0.023973607 -0.001976293 -0.031923585 -0.011248654 0.01821307 0.030938748 0.020943804
213 -0.020968864 0.0035937678 0.031311415 -0.009726647 -0.0041540987 0.00035363057 -0.014159528 0.0167984 -0.0036352403 0.019988656 0.045586072 -0.014844715 0.005594092 -0.0046089906 -0.05115068 -0.023451058 -0.016197491 0.016316101 0.022472564 0.015042885 -0.032099906 -0.012785439 -0.013441964 -0.044962768 -0.060318395 0.023266146 0.035482507 -0.03676573 -0.008080588 -0.015520519 -0.0066833585 0.0071431496 -0.06407525 0.00399236 0.010080181 0.020051714 0.0047049746 0.014620936 0.022718713 -0.01890512 -0.023744632 -0.010673988 0.019582182 -0.026208036 0.007525648 -0.04352936 -0.02475898 0.017811235 0.029126972 0.018998364
285 -0.03262797 0.007341308 0.026978321 -0.020511147 -0.002544446 -0.0040376806 -0.00879014 0.0015075376 -0.0014824248 0.020214949 0.034251366 -0.008221621 0.009161314 0.0013709016 -0.047691356 -0.034440394 -0.00398257 0.024990518 0.02966413 0.00416077 -0.03805603 -0.019544896 -0.032539204 -0.051300623 -0.06706658 0.01981206 0.032527022 -0.024607375 -0.0012213433 -0.026735147 -0.013606235 0.003678427 -0.06815446 0.0075773452 0.011131896 0.011236534 -0.0026157827 0.0052529257 0.020905454 -0.012231603 -0.028287707 0.0010590068 0.02011066 -0.029118216 0.015990539 -0.0500959 -0.025222171 0.019669443 0.041765194 0.01293751
332 -0.025995288 -0.0019866982 0.026364302 -0.023621166 -0.014964275 0.01252343 -0.017272511 0.004145985 -0.0027905114 0.020863859 0.031270754 -0.002495218 0.0018663949 0.0005482376 -0.04079078 -0.032036442 -0.01348501 0.0075754384 0.0148007665 0.0054205186 -0.025739687 -0.02137067 -0.013745606 -0.04000748 -0.059408072 0.028239451 0.015291288 -0.022017749 -0.0044702897 -0.016611125 -0.011254337 0.018588446 -0.06148926 0.0027931153 -0.0009982134 0.012906349 -0.0059530307 0.013785848 0.021685474 -0.014343461 -0.017218344 -0.009008189 0.006235524 -0.018985631 0.0036744361 -0.028456759 -0.012970659 0.0046865665 0.036472254 0.01540117
280 -0.033544898 0.0088556055 0.026121244 -0.02909307 -0.015696775 -0.0038283463 -0.010615788 0.0011503078 -0.01018328 0.03521111 0.030198416 -0.014114115 0.0061271307 0.00778452 -0.044950828 -0.03660088 -0.022794819 0.022284612 0.01155061 0.008218604 -0.03413752 -0.009872351 -0.020170758 -0.039443284 -0.066698946 0.012696897 0.039323203 -0.024663864 -0.0047795246 -0.01868766 -0.021632833 0.02170294 -0.056140818 0.015569264 0.008842654 0.020079942 -0.015487683 0.0039053569 0.0063907546 -0.012239344 -0.021026367 -0.004396902 0.011010866 -0.03371935 0.0038931477 -0.034932483 -0.01796396 0.013699689 0.036814008 0.027629869
200 -0.030913362 -0.0040783235 0.026521245 -0.021176118 -0.0036534378 0.008473639 -0.027074661 0.018617647 -0.0037732068 0.0340564 0.050506424 -0.016761983 -0.005290732 -0.00909155 -0.059904613 -0.02733727 -0.020017257 0.010875454 0.014042802 0.0031761215 -0.027661894 -0.018176671 -0.01658588 -0.04930817 -0.05750717 0.031966064 0.0314985 -0.03850176 0.0006345184 -0.013170021 -0.02176578 0.009483187 -0.06363621 0.008077729 0.0033991504 0.020908928 -0.00888749 0.0063677924 0.014761905 -0.005051825 -0.030880978 -0.0021839475 0.018777082 -0.043289762 0.0071493885 -0.047789052 -0.017435314 0.0017021785 0.04649861 0.032533526
40 -0.017657708 0.011635571 0.01977675 -0.026416922 0.0024757597 0.01361548 -0.011479138 0.020391017 -0.013628449 0.042290255 0.038007475 -0.015348084 -0.0006101906 -0.00040179724 -0.058916442 -0.030024601 -0.019110933 0.025073037 0.018571425 0.0049230526 -0.024943119 -0.020938884 -0.034978528 -0.036596168 -0.0756636 0.029216038 0.03687305 -0.033572294 -0.0012083881 -0.027488094 -0.019431952 0.005728342 -0.06566247 0.0050892434 0.0024650719 0.01693669 -0.00356779 0.007024304 0.013007563 -0.006720628 -0.022441959 0.0010541946 0.008176679 -0.036910236 0.002322395 -0.038832795 -0.02418166 0.017560516 0.033644166 0.019833762
175 -0.041892663 0.0067316405 0.030001488 -0.021212129 -0.013956447 0.004692974 -0.015802523 0.004623523 -0.005103513 0.048075322 0.04952596 -0.0065505328 -0.008613781 0.010086623 -0.077196866 -0.037674315 -0.022790397 0.029716853 0.025737334 0.013834885 -0.047843903 -0.022763997 -0.038720075 -0.06622659 -0.0765478 0.021372309 0.038901877 -0.0480791 0.008895713 -0.0109142065 -0.0150393965 0.02289027 -0.07865564 0.016010838 0.008293149 0.012517569 -0.004103313 0.01444609 0.010077945 -0.007448908 -0.030260665 -0.0042429087 0.019799795 -0.031424858 0.019003883 -0.049443636 -0.01687727 0.017853616 0.03760831 0.028034747
291 -0.029052865 -0.002211291 0.028270982 -0.012744181 0.0032508718 0.0063578165 -0.009166519 0.007864406 -0.00652116 0.033945564 0.02935189 -0.008498311 0.009395923 -0.0017884508 -0.052408036 -0.020105269 -0.0062392317 0.025510358 0.022661606 0.006984386 -0.03518007 -0.016022494 -0.017515088 -0.031574804 -0.06595645 0.016271362 0.027303029 -0.03746668 0.0077556763 -0.023874551 -0.01717844 0.018211026 -0.055562668 0.009930881 -0.005775495 0.013244634 0.0017322187 -0.0008937773 0.018781032 -0.01919517 -0.028135888 -0.0072073652 0.007237922 -0.03440884 -0.0018952179 -0.03889473 -0.02268409 0.0031035985 0.02381221 0.026304461
192 -0.022626689 0.018441556 0.023655325 -0.017339267 -0.01785764 0.0050035934 -0.008053653 0.00876223 -0.022466008 0.026581177 0.03681449 -0.009949961 0.011320601 0.0006176335 -0.07041327 -0.044019118 -0.026882876 0.013063446 0.032636464 0.004525673 -0.036243837 -0.03494819 -0.030106727 -0.052375484 -0.06943611 0.03360437 0.039753225 -0.04433988 -0.010245108 -0.011714195 -0.019141251 0.018690543 -0.07075267 0.02238341 0.008191185 0.014179912 -0.0068327016 0.0070976773 0.02705754 -0.013659135 -0.019144991 -0.006177402 0.017397076 -0.022543045 0.012405917 -0.03238719 -0.016269058 0.0025183454 0.02656378 0.02784476
98 -0.0153326355 0.009406843 0.027508456 -0.027822953 -0.011246661 0.012345858 -0.022126041 0.017325524 -0.017263548 0.037156053 0.041869666 -0.010911904 0.0016068292 0.008898333 -0.045849293 -0.019753363 -0.0043336535 0.024516622 0.025351195 0.005784858 -0.03213312 -0.012608613 -0.022017071 -0.046651848 -0.05975807 0.024416517 0.026080843 -0.032260947 0.0063613257 -0.011516378 -0.019720646 0.008458589 -0.06641913 0.0073016365 0.009756296 0.014635016 0.002612055 0.009244101 0.02129854 -0.005102322 -0.02620354 -0.01030034 0.013194294 -0.029447414 0.0061177486 -0.04256566 -0.0100210365 0.014678814 0.044140868 0.026278784
188 -0.016085947 0.009088105 0.027916396 -0.02533326 -0.004554338 0.008114101 -0.013820513 0.004836898 2.9333089e-05 0.01786559 0.024610447 -0.0049279397 0.0044237617 -0.0060895295 -0.04466496 -0.01721169 -0.011702413 0.0049805464 0.021654824 0.006300377 -0.015756272 -0.02022123 -0.026298322 -0.03088523 -0.053592846 0.025947485 0.016360255 -0.016150625 -0.0005332144 -0.02228874 -0.01950141 0.017358996 -0.040678374 0.018254915 0.0031631817 0.022001285 0.0031284853 0.0076908437 0.0055135656 -0.010708851 -0.027114134 -0.007610606 0.018192042 -0.026112156 0.010726848 -0.03418112 -0.014294792 0.009166354 0.026354643 0.0074615376
31 -0.035337653 0.005003431 0.027857635 -0.011411478 -0.005412055 0.0058949874 -0.009812916 0.005179441 -0.013024934 0.027555311 0.040673684 -0.019701699 0.0024539325 0.0055532455 -0.06422986 -0.022118386 -0.009383659 0.011294173 0.02272846 0.010759612 -0.032061018 -0.022606349 -0.015083501 -0.04826045 -0.070489146 0.014144348 0.03168341 -0.028185504 0.0038357778 -0.02001015 -0.024805112 0.013547477 -0.051718637 0.0043003005 -0.0068777925 0.024913687 -0.013507451 0.013440359 0.024461655 -0.0057282066 -0.025559966 -0.0023110656 0.014417587 -0.030011768 0.013047102 -0.043809712 -0.01966839 0.00092602585 0.027475616 0.018512612
236 -0.015727902 0.011285125 0.021286821 -0.026217582 -0.0052399673 0.0050688 -0.023164598 0.014544208 -0.006033526 0.03581026 0.037183713 -0.004048541 -0.00031387823 -0.0017302926 -0.04372084 -0.027036373 -0.01532514 0.01926834 0.01911444 0.008656617 -0.025595285 -0.020840634 -0.023972567 -0.038850494 -0.06001698 0.022583384 0.026494168 -0.021737734 0.009555802 -0.008319995 -0.019268842 0.019918809 -0.06780693 0.007896824 0.0030066357 0.015016646 -0.014049359 0.0078378515 0.0061193598 -0.005621943 -0.019818464 0.0022491645 0.023658665 -0.031852327 0.01522903 -0.046321414 -0.018395135 0.0012662887 0.034035135 0.017055059
172 -0.020572703 0.014571875 0.018901536 -0.022083448 -0.014866042 0.006537352 -0.01836885 0.0026887164 -0.011463831 0.039990045 0.03844361 -0.013138363 -0.0049094656 -0.005096538 -0.064229146 -0.03227492 -0.017405815 0.02589944 0.015525849 0.010987868 -0.03429054 -0.025212543 -0.021038705 -0.03233549 -0.060135256 0.019836526 0.029805124 -0.023882147 -0.0032488063 -0.023623336 -0.022697335 0.014990652 -0.06320973 0.020985477 0.005602132 0.019421954 -0.015545926 0.015796505 0.01304691 -0.01291282 -0.026235433 -0.000515344 0.014235243 -0.026559245 0.0018888272 -0.045649372 -0.018382624 0.013788314 0.045446206 0.022601191
186 -0.014655529 0.0005206066 0.0228113 -0.023444401 -0.01650803 0.006589014 -0.020718487 0.012207672 -0.0137728965 0.03969383 0.045937777 -0.010558031 0.010850046 0.0025990703 -0.061249997 -0.020203358 -0.011451369 0.023265058 0.028067691 0.001983629 -0.02663966 -0.018107295 -0.032211028 -0.03674769 -0.06482915 0.028565764 0.034595776 -0.035356145 -0.00082386396 -0.015496548 -0.016289761 0.012280421 -0.06274594 0.01554486 -0.007031433 0.00841171 -0.0011446599 0.017966798 0.006853429 -0.0053807236 -0.018541714 0.0005280272 0.021079216 -0.03911725 0.0049954504 -0.03078096 -0.01794767 0.009748586 0.03521744 0.02378953
214 -0.023949927 0.0036848322 0.014099408 -0.026116831 -0.009349042 0.0045432453 -0.013672132 0.012188855 -0.0049376977 0.036581084 0.028309885 -0.012562571 0.010256745 -0.010181908 -0.051012263 -0.02805034 -0.009749945 0.006220592 0.018449089 0.009060524 -0.036655113 -0.010892181 -0.018890612 -0.044726077 -0.052623384 0.029600106 0.032169003 -0.036918104 -0.0015920149 -0.013348639 -0.0065436205 0.0011685025 -0.061047267 0.01797844 0.01090384 0.024412112 -0.0009990819 -0.00040390762 0.010633063 -0.018255785 -0.027521305 -0.015996791 0.0207331 -0.030758588 0.016421504 -0.03527467 -0.00959627 0.017176034 0.023976319 0.021790715
118 -0.026912803 0.009835738 0.027990742 -0.0071768425 -0.006127457 0.011834829 -0.010045735 0.010301146 -0.0038100486 0.022085575 0.04072244 -0.013574315 0.0090887705 -0.005013972 -0.03532435 -0.02646796 -0.01866459 0.022525156 0.0075975447 0.012988441 -0.019939 -0.02168921 -0.013982859 -0.037653834 -0.056344356 0.02313137 0.030989224 -0.031338498 0.0049651633 -0.022425534 -0.01606455 0.0032542471 -0.05768475 0.0076345964 -0.0023850698 0.012788385 -0.006699427 0.0041146004 0.013239997 -0.009353242 -0.009507735 0.002379463 0.0026995013 -0.01846441 0.014181058 -0.039946344 -0.01895325 0.009815611 0.027812567 0.021315478
137 -0.026870135 0.009520321 0.03022883 -0.009203128 -0.015734889 0.00010873552 -0.02148042 0.020172508 -0.016873967 0.030800138 0.04812215 0.00059048797 -0.00015077746 -0.008655585 -0.0514466 -0.027229393 -0.005103181 0.023586031 0.020118384 -0.00029561901 -0.039146118 -0.024590204 -0.030122519 -0.049922764 -0.06938175 0.01654221 0.02954426 -0.04059525 -0.0060563087 -0.021042459 -0.026424035 0.01677456 -0.06437283 0.013387514 0.0013484831 0.018319733 -0.010771523 0.010321583 0.025604486 -0.0063474085 -0.020322545 -0.015061492 0.022504723 -0.019819556 0.015393958 -0.043134004 -0.012881557 0.011728226 0.029028153 0.014077681
8 -0.019290563 0.018050436 0.017601958 -0.031070547 -0.020841325 0.00034666827 -0.02166627 0.0040080952 -0.022668865 0.031129183 0.037915945 -0.0137275485 0.011889232 0.0012889538 -0.06371688 -0.036569174 -0.024083579 0.017764833 0.01020427 0.00951888 -0.024848653 -0.02350468 -0.016709033 -0.055332996 -0.07555946 0.023434525 0.030723866 -0.048644144 -0.00063245493 -0.029698549 -0.031332757 0.019583067 -0.06641531 0.026469821 0.008703534 0.02836321 -0.0008252132 0.02465526 0.009902793 -0.019670011 -0.023954278 -0.014886905 0.022448314 -0.029386846 0.014565724 -0.05686011 -0.0078096455 -0.0011993317 0.031932183 0.024035648
48 -0.015723804 0.007985929 0.015882438 -0.0217254 -0.009372032 -0.0010131692 -0.025327155 0.0022533112 -0.012985633 0.037367303 0.04949783 -0.0062296195 0.0068411226 -0.0021951296 -0.05154872 -0.03598502 -0.009611454 0.010905271 0.029241316 0.016135791 -0.026992552 -0.01971597 -0.02880744 -0.047945227 -0.058317512 0.01340983 0.025745468 -0.023776751 0.0022219222 -0.012292477 -0.023318829 0.011122923 -0.055350505 0.008986317 -0.0065442123 0.013389008 -0.0140006915 0.00983321 0.023119807 -0.013264559 -0.015044171 0.0010487145 0.015171246 -0.034208585 0.0071772467 -0.040661335 -0.016892264 0.013866012 0.029520137 0.03005083
109 -0.019595632 0.006457748 0.031697866 -0.019970829 0.0035274238 -0.0029386594 -0.007603535 0.00915933 -0.012191681 0.028549401 0.03356085 -0.013003596 0.0075700656 -0.0014494722 -0.05712132 -0.014542689 -0.0036621564 0.018916268 0.014540046 0.007945919 -0.022494135 -0.017693754 -0.011711473 -0.036057968 -0.055259496 0.0143548455 0.015665732 -0.030181741 -0.0009099231 -0.005978918 -0.012418465 0.013604886 -0.060803972 0.012632569 0.010267526 0.017733585 -0.009301002 0.010446 0.020252066 -0.015057448 -0.024940567 -0.0123924045 0.011525586 -0.02461721 -0.00018145186 -0.034733832 -0.011852131 0.012437757 0.03398306 0.021174643
272 -0.03068038 -0.004702932 0.020344147 -0.019316562 -0.00020798235 0.013273821 -0.020196188 0.0041101514 -0.0027190018 0.035957735 0.03894768 -0.003527659 -0.0026309818 -0.0065538688 -0.05238273 -0.031644717 -0.016321717 0.01301619 0.01891166 0.007503774 -0.03164869 -0.009303728 -0.017123573 -0.03463422 -0.061314903 0.011667679 0.029069496 -0.032829273 -0.010418589 -0.0092068305 -0.019862292 0.015108147 -0.046008125 0.0029816593 0.010056614 0.023637835 -0.006931645 0.01841433 0.0128687555 -0.0076346616 -0.014102833 -0.0024161187 0.019359298 -0.030562926 0.017248347 -0.043179452 -0.019896308 0.0070149 0.025059784 0.010437311
230 -0.032160204 0.011784291 0.027032502 -0.01418208 -0.011381751 -0.007124257 -0.0156968 0.01231682 -0.010802863 0.038557474 0.036043704 -0.017015288 0.015174785 -0.003450937 -0.04870334 -0.020190379 -0.015406596 0.024391377 0.021899126 0.009229507 -0.040853176 -0.026680643 -0.017924445 -0.037096824 -0.071677946 0.03200536 0.028015422 -0.03292116 0.004988412 -0.016152726 -0.01876895 0.017072301 -0.06634237 0.012951229 0.005649081 0.025216086 -0.010975704 0.0046875346 0.013248058 -0.022176733 -0.026926538 -0.0134993745 0.0073299953 -0.040832598 -0.0006220407 -0.040133033 -0.017510502 0.02229257 0.03789305 0.018015211
142 -0.012527965 0.008296196 0.018492889 -0.010998965 -0.011019195 0.006346989 -0.019078346 0.010042079 -0.0010358177 0.024074463 0.039087955 -0.015641121 0.009797592 -0.004971021 -0.04269791 -0.024289597 -0.0068072956 0.014387347 0.0243316 0.00561029 -0.023889337 -0.011668888 -0.0143125355 -0.030461235 -0.04587702 0.018448079 0.01572227 -0.025405288 0.009244615 -0.014873215 -0.00692822 0.010396554 -0.0456154 0.00608372 -0.0043160757 0.015022735 -0.0025804914 -0.0009240676 0.021616861 -0.010513335 -0.010822681 0.0028326227 0.008680437 -0.018022187 -0.0031171206 -0.037773363 -0.0067547243 0.010541693 0.02459655 0.008273443
261 -0.031911973 0.00052810146 0.025942596 -0.02597947 -0.0033520889 -0.005125035 -0.011469531 0.0033223745 -0.0045612156 0.02440276 0.030163093 -0.012776684 -0.0027821925 -0.0034806477 -0.042802278 -0.020015998 -0.011052856 0.02054989 0.007177707 -0.001431117 -0.028992798 -0.017593117 -0.023371112 -0.039801247 -0.061435033 0.012986518 0.032813385 -0.033439577 -0.004329256 -0.014988826 -0.015001808 0.008481535 -0.04720244 0.009563746 0.0099894395 0.007082585 -0.0028836254 0.006166041 0.022722641 -0.009159518 -0.014870252 -0.007122654 0.0140180355 -0.021249285 0.0056334827 -0.04582395 -0.024316892 0.008063212 0.025811452 0.018394418
113 -0.017067157 0.008258209 0.03293103 -0.015258578 -0.00016378572 0.012756075 -0.022008114 -0.00025291293 -0.016910074 0.026350839 0.04135416 -0.005762333 0.004503741 0.004784115 -0.051345453 -0.023389768 -0.01276387 0.022300366 0.008335197 0.0038868922 -0.036047325 -0.016912699 -0.025918733 -0.03316493 -0.060390614 0.02726302 0.01742504 -0.02119962 0.001431447 -0.010740694 -0.02025696 0.007853709 -0.046478212 0.01606031 0.0076021063 0.019702822 -0.0082709035 0.011712749 0.014158426 -0.020689473 -0.012909417 -0.00871342 0.014372099 -0.03044207 0.010372812 -0.04342733 -0.025079545 0.003171884 0.040203657 0.024642933
343 -0.02182869 -0.0049384306 0.029605685 -0.020435596 -0.0049107387 0.0045580845 -0.013054422 0.01412397 -0.015072984 0.035962615 0.03522331 -0.012593733 0.014481818 -0.0005044163 -0.063433066 -0.027513372 -0.02297425 0.016286606 0.026456743 -0.0004340109 -0.037526727 -0.019845553 -0.021480786 -0.04066528 -0.078151144 0.022742558 0.03784842 -0.02863939 -0.008769937 -0.017749773 -0.02485132 0.017594114 -0.0655885 0.0126882 0.004478397 0.009046964 -0.01479105 -0.00035977666 0.012896589 -0.01544126 -0.03338375 0.0008995648 0.023488099 -0.04159568 -0.00041092024 -0.041180044 -0.009877045 0.019536613 0.045208883 0.019385844
227 -0.031394076 0.014787714 0.033426642 -0.02171215 -0.005658045 0.007918404 -0.02758543 0.02114917 -0.017297849 0.041546382 0.045614406 -0.0061717588 -0.0031035515 0.0045375023 -0.057894193 -0.03421731 -0.014185929 0.011336954 0.022490807 0.013383127 -0.042448435 -0.026728418 -0.02590705 -0.055786915 -0.071043104 0.011744456 0.03885709 -0.028941952 -0.001450499 -0.022003178 -0.013060617 0.02144336 -0.0634172 0.023998601 0.004920759 0.024535306 0.0026151952 0.019909939 0.0055797477 -0.0063281907 -0.025783164 -0.0009634064 0.020743739 -0.033993844 0.016310466 -0.03348856 -0.01825775 0.0016073592 0.028291017 0.02127567
323 -0.029782979 0.0068829563 0.0242137 -0.012028371 -0.013282973 0.00050079083 -0.019679338 0.01214516 -0.017469795 0.029521063 0.039806474 -0.0047646784 -0.0016830278 0.003435099 -0.050089557 -0.0170842 -0.016859656 0.012585394 0.009309668 0.0031297198 -0.02896606 -0.006462386 -0.009096143 -0.043131705 -0.050592866 0.012537283 0.016228145 -0.031642728 0.005818966 -0.020709842 -0.021023985 0.0017425756 -0.05922607 0.015253807 0.0053212354 0.0057773665 -0.010867218 0.013944606 0.009464774 -0.018105503 -0.014686939 -0.0068405475 0.019007865 -0.02502893 0.0026878903 -0.038142916 -0.016312292 0.018284474 0.03880021 0.022731626
141 -0.029414417 0.013245082 0.024366146 -0.024386054 -0.0007836413 -0.0067467014 -0.017978903 0.011637669 -0.012323323 0.034127034 0.03552798 -0.012253036 0.0046992437 -0.005229428 -0.050179973 -0.018405812 -0.01676756 0.010115247 0.026586968 0.00096396904 -0.03066046 -0.023879958 -0.015566909 -0.037145536 -0.056361366 0.026116196 0.019283988 -0.039667714 -0.0077634165 -0.01659853 -0.008288729 0.016147269 -0.06791756 0.012321271 0.008000109 0.009796755 -0.014451741 0.01524523 0.015185922 -0.017584745 -0.012894008 -0.007353632 0.011194878 -0.030247372 0.0031144535 -0.04692718 -0.01070504 0.01634908 0.02729033 0.022959039
143 -0.01876026 0.009947845 0.034179773 -0.011277536 -0.0069030207 0.011395664 -0.02522573 0.013510469 -0.008914883 0.038952462 0.03976495 -0.014279652 -0.005763036 -0.0055431034 -0.05600259 -0.031817522 -0.008671836 0.017739821 0.0128446 0.0014287878 -0.025468204 -0.0094068665 -0.029641218 -0.036994286 -0.06932703 0.011802137 0.042728897 -0.03753782 0.000714382 -0.010543076 -0.016478494 0.011782453 -0.073780924 0.019578291 0.001958341 0.006716696 -0.006447997 0.002407575 0.015676528 -0.015547987 -0.020420145 -0.00031150237 0.008592183 -0.028090904 0.017347027 -0.050463002 -0.026924139 0.013354934 0.038931057 0.018128466
111 -0.0176006 0.0027876582 0.03350273 -0.024206685 -0.018406598 -0.0002733841 -0.021188868 0.010420883 -0.0039716116 0.0385345 0.05007455 -0.009486172 0.007775004 -0.006180143 -0.060153134 -0.03366463 -0.014980404 0.017400471 0.01698169 0.013892364 -0.029211875 -0.02642181 -0.015773835 -0.03865956 -0.06952984 0.018337473 0.04052369 -0.04376489 0.0068457304 -0.015942423 -0.017941419 0.0064000436 -0.07790928 0.023240076 0.0025265638 0.02042923 0.00097378704 0.0011183011 0.015906343 -0.024843834 -0.026520193 -0.014605614 0.02844092 -0.03589137 0.018826928 -0.041956995 -0.025827989 0.022546103 0.034241978 0.026076268
231 -0.032349806 0.0119111715 0.02476758 -0.025415897 -0.010977744 0.007751569 -0.02024961 0.015180155 -0.009011346 0.024008093 0.03408266 -0.01552904 0.005791477 0.0071800994 -0.05039436 -0.017038567 -0.010398549 0.015092709 0.024962055 0.003255396 -0.028340118 -0.0075355563 -0.023229716 -0.037032127 -0.05730511 0.010800828 0.03549433 -0.029490637 -0.007800386 -0.009606968 -0.008845361 0.022048024 -0.06463819 0.016643854 -0.0010724207 0.008768333 -0.00825255 0.017603908 0.021882467 -0.008149893 -0.010532751 -0.004701616 0.007866508 -0.036488976 0.003047193 -0.04691075 -0.015750695 0.006605362 0.039458998 0.017411452
82 -0.016795445 0.0038387065 0.02730096 -0.011414378 -0.012359733 -0.0067913276 -0.01634048 0.0082849795 -0.009715945 0.026226634 0.04068393 -0.0005192236 0.007708023 -0.0016229417 -0.05660284 -0.023237355 -0.01363933 0.013412638 0.0116989035 0.015803505 -0.025997564 -0.025354046 -0.012324055 -0.039430644 -0.06270619 0.012223519 0.028012984 -0.028171683 -0.009816362 -0.010196605 -0.021507608 0.009386272 -0.046932265 0.0015292295 0.0029822204 0.009827454 -0.006096336 0.014083765 0.021001123 -0.0076564015 -0.02851219 -0.007955157 0.022379844 -0.023853788 0.0020652872 -0.0317854 -0.010266285 -0.0003624331 0.0358311 0.009287258
346 -0.034502197 -0.00037786717 0.016577901 -0.01561319 -0.015332439 0.0070660347 -0.011247609 0.004964923 -0.0026743729 0.023429869 0.046237357 -0.010736798 0.003271006 -0.0010241667 -0.048973765 -0.02426035 -0.014464466 0.024372313 0.024759147 0.0141654825 -0.034748834 -0.021449747 -0.028692815 -0.033854354 -0.07054058 0.013272564 0.026992746 -0.025006277 -0.0030988227 -0.009645021 -0.0065086572 0.0070769726 -0.07118759 0.013305978 -0.003473231 0.021973092 -0.015501896 0.01598402 0.021077313 -0.011474656 -0.015129003 -0.0061809877 0.015393608 -0.04197992 0.018453984 -0.048157364 -0.011816113 0.013194439 0.03626486 0.015243733
199 -0.028085569 0.009017975 0.013473952 -0.0152926715 -0.01596947 -0.0039893677 -0.022909012 0.01032013 -0.012114205 0.030266441 0.03390865 -0.012635552 -0.00087366754 -0.0040877117 -0.047745824 -0.032868993 -0.016103312 0.015635323 0.025798028 0.010471661 -0.021201903 -0.017142463 -0.024331378 -0.04317489 -0.04884565 0.019747786 0.034065552 -0.027500402 0.006908612 -0.0076315897 -0.021980455 0.008482807 -0.0627222 0.008380609 0.0011276879 0.0066226767 -0.008836438 0.0033330189 0.008442274 -0.015436943 -0.027960107 -0.00919905 0.018435968 -0.031673394 0.012494562 -0.030021513 -0.01295256 0.007432788 0.039655436 0.009852524
49 -0.035885707 0.013745132 0.036147784 -0.018617267 -0.019916063 0.012734309 -0.019583834 0.009757547 -0.018163279 0.035981752 0.02831052 -0.0069848476 0.00010221342 0.0017247002 -0.0667519 -0.040585183 -0.024892643 0.025857503 0.023725426 0.012354288 -0.024927944 -0.033346187 -0.021510363 -0.042212855 -0.057494268 0.021483134 0.026727041 -0.038742155 -0.015015176 -0.013547076 -0.014323829 0.0048516938 -0.066883385 0.0026499995 -0.0004602994 0.01396245 -0.014651646 0.0009333698 0.013835099 -0.015127503 -0.013867168 -0.0009900935 0.010223088 -0.031403802 0.0025096186 -0.045398597 -0.020777244 0.0069407187 0.025758568 0.019558435
319 -0.03543349 -0.001855549 0.026081199 -0.009263193 0.00142444 0.009354246 -0.015094612 0.019830381 -0.01768727 0.043851852 0.05643197 -0.0078013167 0.00401894 -0.0018123968 -0.06316494 -0.023615634 -0.0040507214 0.018697508 0.016782146 0.009200204 -0.026898904 -0.030717704 -0.027190397 -0.03815733 -0.057213563 0.02581652 0.03686748 -0.03449031 -0.005558579 -0.005168129 -0.0043777726 0.0047370694 -0.057923827 0.009404104 0.0025545186 0.0067996043 0.0077347355 0.012248112 0.020306235 -0.02453994 -0.02734291 -0.0023197143 0.009357949 -0.03803071 0.006310123 -0.053605564 -0.020460254 0.016107842 0.041919127 0.021286191
325 -0.025127877 0.006332937 0.015573773 -0.021398889 0.0019854098 -0.006382023 -0.011406042 0.004035557 -5.309583e-05 0.029989386 0.03793343 -0.0028145544 0.010038558 -0.006512473 -0.04756563 -0.019189935 -0.01915162 0.00440399 0.008151099 -0.0025083013 -0.03039738 -0.026115986 -0.024912417 -0.039097514 -0.044781584 0.015357397 0.033334684 -0.028748188 0.0010196465 -0.010127877 -0.017681088 0.02120596 -0.05109594 0.015957816 0.00652735 0.010901471 0.0010329025 0.0149125755 0.014855075 -0.011192252 -0.020050362 -0.0038622196 0.016738947 -0.023677755 0.015946612 -0.039547727 -0.024006858 -0.00047119192 0.030683931 0.026605492
179 -0.034387268 -0.004014459 0.033200983 -0.013174144 -0.021186236 0.009216057 -0.013943712 0.017597679 -0.0009463603 0.021495339 0.031219488 -0.021916058 -0.012865929 0.0066652107 -0.053204548 -0.019045271 -0.015958246 0.0073273405 0.03310647 -0.0012637179 -0.024605816 -0.008925712 -0.024350423 -0.05290003 -0.0640241 0.034785364 0.02128151 -0.024432603 -0.0032223358 -0.023696337 -0.01779176 0.011835213 -0.07190526 0.008150275 0.0055883876 0.022672754 -0.022759112 -0.004159238 0.01463271 -0.013203898 -0.02881164 -0.015723659 0.016692355 -0.036215074 0.008516878 -0.047106285 -0.015441459 0.0031153 0.04091592 0.03460318
224 -0.021180682 0.00094103464 0.024583576 -0.019860236 -0.010165317 -0.0040023625 -0.008816658 0.018766828 -0.007694552 0.017566258 0.033093296 -0.012916175 -0.006783591 -0.0003425073 -0.046545208 -0.01767189 -0.0026197715 0.022128342 0.026384069 0.009632444 -0.029169315 -0.0113619575 -0.028701346 -0.044974055 -0.050040603 0.024597006 0.023318468 -0.018387973 -0.0014941815 -0.018453654 -0.022529678 0.016367333 -0.060653746 0.004500074 0.0103000775 0.022980848 -0.0009835667 0.0038687955 0.0110554425 -0.006230757 -0.015077376 0.0017105732 0.012486113 -0.023452383 0.011287602 -0.031624436 -0.01725654 0.0028164198 0.038283892 0.015684012
89 -0.02512621 0.013172241 0.017806053 -0.02247715 -0.015181689 -0.008548946 -0.01783642 0.020516349 -0.016289394 0.022119688 0.046714652 -0.011750527 0.012282179 -0.009463163 -0.06277291 -0.03105091 -0.009670525 0.022990825 0.01687009 0.012257055 -0.038104877 -0.008954201 -0.021727426 -0.031993017 -0.048843157 0.018123401 0.01676992 -0.0244353 -0.0074070054 -0.0064183474 -0.0053448053 0.012484499 -0.06346349 0.013675395 -0.0034625065 0.014594022 0.00047050833 0.012377773 0.014889505 -0.015204434 -0.02227305 -0.004726039 0.009903724 -0.03690327 -0.0009504571 -0.036851328 -0.0074260943 0.010649081 0.04440573 0.017616337
169 -0.014102337 0.0029794618 0.026418997 -0.01786191 0.0032173248 -0.005112015 -0.02137008 0.0110322395 -0.015923545 0.017952528 0.04252885 -0.0057401266 0.009142124 -0.0036758676 -0.057483613 -0.03176797 -0.008706528 0.01855878 0.021005131 0.0020243884 -0.01755607 -0.019593934 -0.027142389 -0.03462114 -0.04738381 0.026025726 0.026869826 -0.03317608 -0.001313854 -0.02229325 -0.022363788 0.01316798 -0.057523206 0.00398283 -0.00032044543 0.023631653 0.001298149 0.00888131 0.018418 -0.0032748436 -0.012353499 -0.0033256176 0.023431152 -0.024528136 0.013413885 -0.04122244 -0.02153874 0.01932134 0.028252786 0.027797095
17 -0.011955292 -0.0024293703 0.026134098 -0.02413423 -0.0033907027 -0.0050665434 -0.01308005 0.0037788367 -0.015606713 0.026952244 0.029910952 -0.006485337 0.003962993 -0.008060041 -0.05339317 -0.029937688 -0.015824705 0.004710368 0.01767313 0.015332027 -0.028717669 -0.007925932 -0.015664184 -0.04553734 -0.06000563 0.022407016 0.03159987 -0.031765454 0.0016135472 -0.024833968 -0.021171667 0.017690066 -0.059224732 0.018414553 0.0056348685 0.0121372845 -0.0052532344 0.0014025012 0.009320169 -0.02125334 -0.022147374 0.002072728 0.0038286725 -0.018914258 0.017414954 -0.04130668 -0.02143245 0.014089049 0.03310944 0.025568807
20 -0.0205729 0.0015226882 0.017401116 -0.011227693 -0.014989136 0.010512545 -0.016585995 0.012268282 -0.0036209826 0.029046897 0.030512327 -0.011561186 -0.0056338245 -0.010138053 -0.06231406 -0.030332271 -0.015639372 0.008509077 0.028414194 0.014799929 -0.026679382 -0.014496006 -0.01933866 -0.03009061 -0.06674859 0.014305833 0.02094479 -0.039552316 -0.00025700487 -0.016934544 -0.022941992 0.016910976 -0.05259542 0.0028749418 0.009138508 0.009726341 0.00043557008 0.008318691 0.01265697 -0.021516051 -0.024857873 -0.012220077 0.0069415397 -0.033874515 0.008860881 -0.032630846 -0.0058785453 0.021357512 0.040242653 0.023076829
326 -0.01661198 0.013412813 0.027342683 -0.010912583 -0.0065992703 0.00070784293 -0.005150245 0.0087885 -0.0058813742 0.021443054 0.040848058 -2.7080246e-06 0.013244436 -0.009792926 -0.05651619 -0.028365888 -0.011745673 0.020804152 0.012881926 0.0077051357 -0.020150546 -0.0126091475 -0.018086117 -0.03873173 -0.06578248 0.020139117 0.03679493 -0.032549463 0.00033130648 -0.022964502 -0.011019019 0.006341301 -0.056209065 0.010393195 0.008363407 0.005756393 -0.0045261094 0.017366307 0.003968331 -0.021098016 -0.021380395 -0.007257088 0.0177347 -0.02156988 -0.0019660399 -0.030604118 -0.014594237 0.018172974 0.03489786 0.017424269
53 -0.03420423 -0.0047939788 0.023934681 -0.019976262 -0.0033487442 0.010374603 -0.009050584 0.016007328 -0.0077212127 0.028725034 0.045889035 -0.0028682968 -0.002479825 -0.0020828056 -0.05241363 -0.031671613 -0.010276275 0.018478515 0.021684969 -0.001872345 -0.032542486 -0.023897229 -0.015149753 -0.03957136 -0.05678059 0.024636725 0.02716263 -0.03739748 -0.0011353333 -0.007120886 -0.02353273 0.007148219 -0.0585298 0.0028169411 0.0013403613 0.01366318 -0.0061242175 0.017796518 0.010301461 -0.011451463 -0.027177617 -0.00891802 0.0077388026 -0.040100694 0.009501483 -0.03882148 -0.010473187 0.00931601 0.038065463 0.020709772
254 -0.012642403 0.012908421 0.021891886 -0.014068334 -0.008881721 0.009687887 -0.010210384 0.017611174 -0.011663888 0.025755454 0.045830816 -0.0065510212 0.0136569915 0.00035284177 -0.04766916 -0.031388912 -0.015149143 0.011839967 0.013282451 -0.0010510981 -0.03577941 -0.01782076 -0.013918861 -0.04103838 -0.05292895 0.009290769 0.018672524 -0.03731117 0.0029688359 -0.01936793 -0.014489045 0.015245138 -0.06413672 0.0018136305 0.005072484 0.015027125 -0.009595149 0.002105325 0.008539522 -0.009396949 -0.020527476 -0.0047883666 0.016165813 -0.022922607 0.017351145 -0.030609379 -0.025408706 0.0007369467 0.037553485 0.021240488
204 -0.023707232 -0.0016001614 0.024220567 -0.018395651 -0.01023282 0.0117346365 -0.013224455 0.0027711624 -0.00030934688 0.023060106 0.04035755 -0.006469039 -0.0015743314 0.0044733053 -0.05234982 -0.025624061 -0.007117864 0.008377737 0.023679553 -0.00047745893 -0.03072564 -0.028047943 -0.016658595 -0.044154417 -0.045173205 0.018135186 0.016622853 -0.030861573 0.0075891204 -0.007563461 -0.019385906 0.0062462054 -0.061582036 0.020806178 -0.0057299244 0.0043994347 0.0013280561 0.014632619 0.013083717 -0.0049087745 -0.01680735 0.0017383024 0.011288167 -0.026754552 0.016293451 -0.028952517 -0.014582378 0.006030918 0.032624908 0.01363821
7 -0.029746337 0.0077647627 0.02462193 -0.023348387 -0.0028508566 -0.0039237854 -0.01572292 0.0025932977 -0.0032836248 0.028710352 0.024526708 -0.009954977 -0.003456163 -0.005701372 -0.040755164 -0.025929272 -0.010742386 0.011172644 0.024938822 0.013239791 -0.024750857 -0.024373785 -0.018899426 -0.032510117 -0.044547796 0.024097454 0.028634494 -0.026964638 -0.008662846 -0.011829517 -0.007305662 0.020083915 -0.058407027 0.016438957 -0.0022968838 0.016734403 -0.014640601 0.0094828345 0.018081322 -0.0018133067 -0.025039263 -0.010480713 0.02123985 -0.028462324 0.015750105 -0.043278493 -0.0056693507 0.008766149 0.040703874 0.007955131
99 -0.031492136 0.009388356 0.015770528 -0.024305359 -0.0035331969 -0.0033670992 -0.01970227 0.013027553 -0.006498775 0.035729263 0.042327385 -0.013664212 -0.0035192943 0.00085473654 -0.051184487 -0.02707686 -0.020587796 0.013542192 0.02790928 0.015718838 -0.020986304 -0.010505046 -0.031815235 -0.050686423 -0.061931923 0.010101718 0.027550008 -0.040264234 -0.0022812164 -0.022401601 -0.01790377 0.017778622 -0.056821447 0.014193997 0.0075207967 0.007849011 -0.002893774 0.018563647 0.01505464 -0.016472569 -0.03212221 -0.012242645 0.005445719 -0.037479922 -0.0020624662 -0.030437311 -0.016248481 0.005996237 0.038243774 0.008955647
4 -0.01684442 0.011284238 0.03608145 -0.007799147 -0.0060212794 -0.0075201374 -0.026536193 0.022829982 -0.0010442361 0.022361496 0.047968533 -0.017899105 0.0102756815 0.00918425 -0.06353891 -0.019912886 -0.021559695 0.026508398 0.024802819 0.01563367 -0.02778781 -0.027967535 -0.031826492 -0.038297996 -0.055103045 0.02505836 0.027837133 -0.030259602 0.0032772433 -0.009550896 -0.0076696086 0.018172776 -0.052426435 0.0045691095 -0.0020007712 0.009827937 -0.005379069 0.021252189 0.02838499 -0.024387745 -0.024473883 -0.013775108 0.021746982 -0.024745826 0.010515878 -0.02952442 -0.026850553 0.013907151 0.04013096 0.026743134
88 -0.02639652 0.013596315 0.015829641 -0.026027724 0.002837623 0.004089999 -0.0075260415 0.015056949 -0.0054771747 0.020711003 0.045381024 -0.0030368902 0.0069681806 -0.0066371984 -0.049155887 -0.024324782 -0.009800093 0.007200028 0.016343825 0.01232458 -0.036593758 -0.026505904 -0.030012175 -0.03604447 -0.060298268 0.024860732 0.034722622 -0.034827065 -0.0050627287 -0.0221951 -0.010202431 0.012417877 -0.064201124 0.00542619 -0.004424055 0.0062055066 -0.0088762 0.009742512 0.014925623 -0.0029623793 -0.013819361 -0.012708888 0.02218115 -0.035958443 0.0029988138 -0.03388027 -0.02119202 0.010470853 0.032531835 0.0252327
80 -0.021294875 0.009269702 0.0334084 -0.017196674 -0.013575264 -0.006058663 -0.014503883 0.014719922 -0.00091285113 0.02506785 0.045253992 -0.016392615 0.011352428 0.003725893 -0.061307106 -0.021152845 -0.014035959 0.02671587 0.022677043 0.016442591 -0.034802888 -0.0255023 -0.031068783 -0.041329086 -0.061370134 0.03257432 0.02240982 -0.03947359 -0.007845723 -0.026095122 -0.015684899 0.009355075 -0.06352287 0.012523014 0.006926882 0.022276917 -0.014927444 0.018020308 0.015884865 -0.005294498 -0.01735623 -0.0023702374 0.021939121 -0.0395873 0.005197751 -0.040675774 -0.018322153 0.0076311817 0.02855894 0.016020877
242 -0.014535651 0.0099455835 0.03184613 -0.023492817 -0.014515255 0.008046906 -0.019871347 0.016019776 -0.00688499 0.029823067 0.030850904 0.00067024486 -0.0040782476 0.002954401 -0.059667565 -0.034958415 -0.01000151 0.012446786 0.021982966 0.004014076 -0.03229391 -0.027681684 -0.015437919 -0.03294354 -0.06471992 0.030564802 0.020653076 -0.024888247 -0.0038434821 -0.022375101 -0.014144584 0.0018930492 -0.064408354 0.005122763 0.006367395 0.0086544035 -0.011412949 0.014074326 0.018994577 -0.019131599 -0.02909682 0.000104545645 0.019459847 -0.03753979 0.01952828 -0.03229783 -0.020283561 0.0023177897 0.036961287 0.029470172
14 -0.018989068 -0.0028905822 0.026771491 -0.004510593 -0.0065051867 0.0036407078 -0.012371213 -0.00071337447 -0.0053792945 0.01333618 0.02934262 -0.008518467 -0.0049427296 -0.008442764 -0.03605658 -0.020822123 -0.01353436 0.0119034285 0.007837499 0.0028805987 -0.033711124 -0.025015593 -0.00657433 -0.023218146 -0.051009707 0.012132553 0.023083081 -0.031099245 0.009620452 -0.012862269 -0.013047837 0.011382094 -0.049993884 0.018486002 0.0064235316 0.0067601562 -0.0068031535 0.011784298 0.011734611 -0.00944647 -0.020640612 0.00016366086 0.007754866 -0.03296356 0.016297773 -0.039486986 -0.014024024 0.005600698 0.020999374 0.00998546
144 -0.0129147945 -0.0042912415 0.011829426 -0.020607185 0.00039347913 6.848496e-05 -0.0035870417 0.014853523 -0.009606885 0.031309493 0.04260974 -0.009790677 -0.0024978719 -0.009900329 -0.056329545 -0.024303898 -0.021600109 0.02434617 0.026657877 -0.0024151972 -0.027930012 -0.009870348 -0.012426616 -0.029211767 -0.059785105 0.0101016825 0.02364922 -0.032129332 0.0065650414 -0.020917054 -0.019540265 0.0035528722 -0.04590956 0.016839242 -0.004667645 0.00813702 -0.008123815 0.0048117214 0.016882725 -0.009147507 -0.029081704 -0.010313655 0.017039819 -0.032549515 0.0111579755 -0.039203066 -0.008882629 0.018143233 0.034407604 0.011722831
173 -0.03635712 -0.003551366 0.021548772 -0.030154293 -0.006304077 0.004869866 -0.01049568 0.016973985 -0.015888875 0.019336652 0.030903006 -0.017563129 0.012653942 0.005639398 -0.06703657 -0.0333043 -0.008221018 0.018027004 0.031934027 0.017877465 -0.035206232 -0.012904215 -0.017713675 -0.035178464 -0.06715621 0.01479852 0.040517036 -0.024816606 -0.0072918693 -0.023616452 -0.013967682 0.010492784 -0.059814796 0.02242656 0.0013962714 0.023114804 -0.003864063 0.011051445 0.023204578 -0.022968715 -0.013603552 -0.0056871944 0.005743513 -0.03851712 0.0021261517 -0.048340924 -0.024361217 0.0040223487 0.03770463 0.022490958
259 -0.02253744 0.012255975 0.017798413 -0.012038572 -0.012029328 0.00834717 -0.009606811 -0.0025511333 -0.009007366 0.021483343 0.03852845 -0.015993629 0.0071926718 0.000616715 -0.05344866 -0.016154379 -0.018335603 0.018373711 0.010172266 0.00296135 -0.027321676 -0.01944546 -0.011956893 -0.04723953 -0.046069514 0.028752608 0.032940775 -0.0411913 -0.010085553 -0.023052 -0.014822149 0.013263535 -0.06581954 0.0075835106 0.0038678031 0.022478975 -0.0016045364 0.018204188 0.019691639 -0.021986207 -0.017452434 0.0008436595 0.023937328 -0.03134156 0.018483985 -0.034988813 -0.007810871 0.004328357 0.029010898 0.0149910115
320 -0.022523656 0.00542561 0.026829375 -0.027151443 -0.016192745 0.0019013358 -0.027210595 0.0070422543 -0.01999094 0.03431975 0.048527908 -0.013359273 0.011182799 0.001477788 -0.055590153 -0.03723867 -0.021672 0.022725109 0.030373326 0.017452313 -0.028032348 -0.012574146 -0.028778994 -0.048732176 -0.063616745 0.02866414 0.03051101 -0.0407011 -0.0036452643 -0.016156025 -0.014260127 0.016061649 -0.06592731 0.0133476965 0.0051972223 0.021935228 -0.0072029787 0.018779943 0.015045882 -0.013715488 -0.029419055 -0.009594545 0.023241322 -0.04253744 0.017480062 -0.047157586 -0.018035369 0.01190367 0.035664637 0.023318082
266 -0.032710142 -0.005712295 0.02814495 -0.017987428 -0.006602825 0.0049987915 -0.011298542 0.012090817 -0.0123852985 0.035731543 0.04107847 -0.0042580687 0.004656955 -0.0076896716 -0.050018933 -0.037020195 -0.0073316908 0.020266153 0.027492795 0.010399188 -0.033890996 -0.026783345 -0.03188856 -0.032306615 -0.061900117 0.026044874 0.031341292 -0.033598136 -0.008918632 -0.021164939 -0.01692837 0.014606978 -0.0665805 0.022131152 0.008610559 0.020643651 -0.009718896 0.016518524 0.02163397 -0.008627893 -0.017573455 -0.0026917479 0.02410488 -0.037861563 0.0142063415 -0.038479455 -0.014891784 0.0061449166 0.037877887 0.015202733
181 -0.03301221 0.0140104825 0.040857505 -0.022511013 0.0010476185 -0.00033889062 -0.016499188 0.02289386 -0.005106101 0.021945318 0.03452803 -0.004133857 0.012438752 0.00076623727 -0.055379704 -0.027938252 -0.021699138 0.02331532 0.028931627 0.0033534225 -0.026636148 -0.026816992 -0.027818331 -0.038040914 -0.06404629 0.02711 0.03809527 -0.043200012 0.0013432127 -0.018656628 -0.016073437 0.02447111 -0.06695176 0.010633476 -0.0041916743 0.013672776 -0.014096703 0.014168547 0.02258647 -0.01773206 -0.024929564 -0.016225738 0.024174463 -0.03529931 0.0022161843 -0.030092452 -0.015774468 0.021358531 0.046008714 0.028746193
116 -0.019008739 -0.00035344635 0.031000517 -0.008153428 -0.013866023 0.004223406 -0.021209214 0.014014398 -0.014649241 0.031967975 0.044418573 -0.009576003 0.011674078 0.0076480047 -0.04628441 -0.01487393 -0.008882742 0.010104501 0.01864984 0.005069657 -0.028384298 -0.021308335 -0.019558938 -0.039248418 -0.06095254 0.019948455 0.019719783 -0.023507163 -0.006458881 -0.023673818 -0.017487317 0.015976755 -0.05747267 0.007256621 0.009091428 0.017575428 -0.001142553 0.015044537 0.011542565 -0.0039994908 -0.024189584 -0.008561292 0.023018578 -0.02267852 0.011096252 -0.0346847 -0.01998674 0.017122306 0.030328685 0.023932783
57 -0.02319283 -0.002331168 0.019713627 -0.016388258 -0.017404344 0.0041812155 -0.012849715 0.016086448 -0.0034545015 0.035210498 0.03885097 -0.01366628 0.005421877 0.0058939955 -0.039563384 -0.030320993 -0.007486511 0.0143534085 0.020330662 -0.0036181428 -0.018317929 -0.021629494 -0.02523709 -0.04247746 -0.0566435 0.0100190565 0.03214433 -0.022549206 0.00043092633 -0.011215742 -0.010746034 0.019089356 -0.05173699 0.015093901 -0.00037137035 0.013610879 -0.004188262 -0.0008543145 0.01709881 -0.0056877625 -0.010622323 0.0032311878 0.018262686 -0.019111114 0.011181781 -0.046012007 -0.008740721 0.010393005 0.03730009 0.016850125
127 -0.020986676 -0.0055704615 0.020901037 -0.01785631 -0.014949756 0.010250486 -0.020034626 0.016658584 -0.0011267135 0.025261857 0.030073404 -0.015968017 0.008920142 0.0055426783 -0.0562469 -0.035104755 -0.0032169512 0.006092263 0.024350338 0.015011924 -0.03261738 -0.0091152815 -0.031991955 -0.038548544 -0.066036664 0.021411026 0.025297066 -0.035098825 -0.002896911 -0.011062201 -0.017259238 0.006721299 -0.063263945 0.0144640105 0.0013010805 0.016203392 -0.010835442 0.014290767 0.01305732 -0.004667334 -0.02428173 -0.015642464 0.0063351044 -0.0390062 0.0108566545 -0.03482108 -0.022163149 0.010323725 0.03328749 0.024282698
310 -0.017664278 0.008481104 0.019830173 -0.008469187 -0.0088940235 -0.0049040425 -0.020708682 0.0004075021 -0.015390078 0.03270191 0.04285428 -0.007595692 -0.0039709033 -0.00056135777 -0.05526238 -0.02002042 -0.004529234 0.011601568 0.026740814 0.003933054 -0.03254661 -0.022446904 -0.0179495 -0.030565793 -0.049956646 0.02437494 0.020649703 -0.039401017 -0.009538349 -0.020087445 -0.027290301 0.009683333 -0.058499515 0.0018413607 -0.0046460335 0.020308435 -0.012239901 0.013650804 0.01627949 -0.008172855 -0.010356216 0.00034488473 0.019384447 -0.023318676 0.009871841 -0.03150794 -0.021073716 0.002597184 0.033665687 0.016238127
331 -0.013001251 0.011546738 0.010660646 -0.022923796 -0.0027594317 -0.0033095127 -0.015885385 0.0015708072 -0.00749093 0.01709584 0.030680878 -0.013032303 0.0014344297 0.0011544324 -0.037244104 -0.030320708 -0.008041713 0.018932438 0.0142827835 0.014865329 -0.032977294 -0.016929753 -0.027986659 -0.026159352 -0.04601245 0.009367438 0.01861408 -0.027480157 0.0058200327 -0.010617637 -0.010079803 0.005849275 -0.05189659 0.017290063 -0.0030491184 0.0032274378 -0.0029166269 -0.0024587156 0.02177441 -0.01965398 -0.016298149 -0.012546078 0.008194536 -0.023563333 0.0013508671 -0.037544493 -0.0045250366 0.014823096 0.024636446 0.009103516
225 -0.017794764 0.013004699 0.017266965 -0.0069138724 -0.016355757 0.011924256 -0.017074067 0.0026520751 -0.007651795 0.027321246 0.027215803 -0.015384818 -0.006271073 0.0047418945 -0.048437484 -0.016991882 -0.016421584 0.014834093 0.008875692 0.005098341 -0.02455145 -0.016816981 -0.023039155 -0.04344135 -0.0655107 0.017153824 0.029284684 -0.033958763 0.004014202 -0.01798565 -0.008685134 0.008165049 -0.053006425 0.022503713 0.0102600735 0.0075680353 -0.0019482294 0.0036409653 0.02209778 -0.012538138 -0.027474167 -0.0016403259 0.016044104 -0.027158579 0.007299118 -0.035733923 -0.023647515 0.010879873 0.03845514 0.012153171
104 -0.012884923 0.0007872017 0.01976305 -0.024089275 0.0044416403 -0.0073420317 -0.012357072 0.0071455883 -0.006179709 0.022481203 0.033757184 -0.011443504 0.007985597 0.004166413 -0.047034483 -0.0128170205 -0.012695399 0.016663171 0.006710366 0.0043727974 -0.03130859 -0.008764907 -0.010470588 -0.03226134 -0.055348426 0.014475692 0.017136414 -0.030935794 0.00013068902 -0.016100815 -0.0131118335 0.011568647 -0.03768511 0.0020228291 0.0065971958 0.019434825 -0.011463703 0.003577767 0.021277966 -0.008320206 -0.025864478 0.0032936563 0.005163985 -0.025619766 0.012166797 -0.03263465 -0.018616596 -0.00032752618 0.03544169 0.021264115
136 -0.031783395 -0.0063088303 0.033096086 -0.0072146757 -0.0014787868 0.003704713 -0.02448363 0.009913092 -0.0047710617 0.030254913 0.04159679 -0.0050002737 0.0008871514 0.0051590265 -0.05879939 -0.021539029 -0.008239933 0.022111751 0.010864982 0.0011516387 -0.022882225 -0.010635452 -0.0191217 -0.032368008 -0.061195277 0.011225702 0.028468031 -0.03554162 0.0011694422 -0.019297363 -0.009107541 0.010615345 -0.051742066 0.010671533 0.006454762 0.0160338 -0.0141342785 -0.00060495926 0.024553891 -0.0039291074 -0.01997416 -0.009033701 0.007924446 -0.026153736 -0.0018865188 -0.041992575 -0.011458703 0.004373745 0.04001462 0.021408744
91 -0.017954815 -0.0011589532 0.02267222 -0.020927643 -0.014579119 0.0056870175 -0.02593039 0.0146187125 -0.007086393 0.036550608 0.03613544 -0.015986798 0.008247817 0.0082656015 -0.06531067 -0.028347116 -0.018311882 0.0069729676 0.014142755 0.017561676 -0.032529097 -0.023154352 -0.012566214 -0.04772595 -0.05706623 0.020103395 0.029098673 -0.029577564 -0.0029101223 -0.025224604 -0.026408864 0.011820835 -0.06639085 0.011775322 0.012787948 0.014202799 -0.00889399 0.015490208 0.017504629 -0.017151408 -0.022499867 -0.012017645 0.010437867 -0.02185558 0.016673906 -0.04502583 -0.017171549 -0.004763673 0.03764272 0.024626289
193 -0.0131789455 0.015183524 0.015104068 -0.008018309 -0.014724911 0.008740726 -0.022378804 -0.0004074012 -0.0040103206 0.017636746 0.044337805 -0.014584511 -0.004225496 0.008971924 -0.04844271 -0.030958045 -0.013414983 0.007830046 0.0052218474 0.0022244444 -0.022689728 -0.011319178 -0.025518775 -0.044073068 -0.06247334 0.022813872 0.032806106 -0.03542596 -0.007294495 -0.012348768 -0.012256125 0.012282525 -0.054652352 0.022536268 0.011009073 0.017777985 -0.009745326 0.009540818 0.009949738 -0.018679718 -0.027952803 -0.011710976 0.016938502 -0.035705213 0.008448242 -0.02960201 -0.023090206 -0.0052856132 0.042190805 0.028486026
147 -0.028432323 -0.006170334 0.023587896 -0.014311326 -0.011829982 -9.054765e-05 -0.01872525 0.0057224277 -0.013895873 0.027390862 0.042888902 -0.018662425 -0.0014157408 -0.0049758344 -0.042482127 -0.032016683 -0.015497833 0.018493047 0.022976343 0.0073638237 -0.03329117 -0.019111944 -0.024021719 -0.027799478 -0.05146637 0.026815092 0.022910632 -0.020904358 0.0060301363 -0.011505819 -0.005295793 0.016538287 -0.055919502 0.019483687 0.007072199 0.0029677108 0.007203487 0.010979181 0.01891776 -0.0105386935 -0.020950874 -0.001481167 0.02245226 -0.020245466 0.013539715 -0.038137354 -0.024079096 0.00043631965 0.036072377 0.01607974
219 -0.017793806 0.00551844 0.013309603 -0.0065222043 -0.0056917914 -0.002257131 -0.0069779227 0.0076203137 -0.0014409967 0.03564913 0.030331729 0.00025451652 0.012156445 -0.0037875334 -0.057666037 -0.034216166 -0.011942009 0.023986386 0.013100009 0.015026533 -0.024189496 -0.017649911 -0.025317824 -0.039855458 -0.043823075 0.021732919 0.020192012 -0.036714453 0.0058853873 -0.0017943985 -0.0073442324 0.0034713994 -0.06310477 0.0071721915 -0.004966154 0.0019910107 0.0066899485 0.002934088 0.020694103 -0.009158352 -0.029851632 0.0028217635 0.012219975 -0.026966127 0.0006809726 -0.041107655 -0.019330392 -0.0016323357 0.0420907 0.020556707
313 -0.014485823 0.013963428 0.028925851 -0.006709647 -0.011879029 -0.004677132 -0.017744668 0.008043815 -0.008700581 0.030384105 0.033087466 -0.01271878 -0.0035127657 0.008904818 -0.04999579 -0.027974235 -0.011711281 0.012757477 0.023147808 -0.0017110369 -0.015006251 -0.017430497 -0.009249925 -0.028181907 -0.05330603 0.023493748 0.02079726 -0.016819092 -0.00885396 -0.014144814 -0.014218424 0.01961055 -0.053149935 0.008232569 0.010254396 0.008449884 -0.001298848 -0.0006082723 0.0039171274 -0.0066217044 -0.02285798 0.0033485317 0.015569276 -0.02598409 0.0074484413 -0.03581139 -0.016752224 0.0029796388 0.026257614 0.02268131
128 -0.012434267 0.0037223941 0.015462477 -0.025314879 -0.008791678 0.0011340533 -0.0060522426 0.006981306 0.00015505658 0.029479178 0.034187056 -0.015141939 0.0042958674 -0.002053613 -0.040403858 -0.02469592 -0.0027697682 0.00400254 0.010526468 0.0013769378 -0.027864408 -0.016255032 -0.014626431 -0.028105533 -0.042521674 0.0064633186 0.01997176 -0.025558783 0.0081884805 -0.007039611 -0.008551406 0.017197266 -0.053364582 0.018119952 0.008356952 0.005062799 -0.011956157 0.009675673 0.016058696 -0.015910612 -0.021866806 -0.0073234974 0.021100583 -0.022192487 -0.0027312296 -0.025490332 -0.019125849 -0.0002831683 0.032778293 0.019997299
308 -0.01864077 0.0053721103 0.023326492 -0.00768719 -0.00912619 0.00016768002 -0.015500535 -0.00055080635 -0.013367505 0.034482744 0.025419204 -0.015009079 0.002536485 0.005406322 -0.05588961 -0.02171405 -0.0014396012 0.004583376 0.010038889 0.0023014885 -0.023786727 -0.007971282 -0.019667773 -0.03677796 -0.05329892 0.022061951 0.02480985 -0.030550476 -0.0051051583 -0.0058329925 -0.009800591 0.0031629258 -0.044304658 0.0038441627 0.0060190666 0.020129802 -0.0131303985 0.0032354377 0.022431148 -0.019128984 -0.022063093 -0.016018134 0.022350028 -0.028975993 1.0152512e-06 -0.026509587 -0.018403955 0.011108691 0.027524302 0.011809145
161 -0.025118044 -0.0007120173 0.015951274 -0.02297445 -0.009694366 0.002922694 -0.012369417 0.013301395 -0.01289889 0.022347022 0.037665106 -0.0006264039 -0.0031531823 0.00087728444 -0.047356028 -0.026859792 -0.0053338567 0.010714339 0.024103047 0.007421165 -0.020910252 -0.01992577 -0.020772113 -0.03991326 -0.052263137 0.022935282 0.03073399 -0.025107969 0.0004587532 -0.013088658 -0.0048864707 0.014007032 -0.05115985 0.011515564 0.0065568206 0.0018104987 -0.002872156 0.011036798 0.017673813 -0.016052578 -0.012428594 0.0027391901 0.005234153 -0.015391109 0.0032760804 -0.026866917 -0.013703796 -0.0012289332 0.03446481 0.016675314
269 -0.017537484 0.013609751 0.029401582 -0.027734248 -0.004458866 -0.0054427725 -0.025862604 0.0044435225 -0.008322079 0.03851358 0.049892664 -0.0151710035 0.000882195 0.0035673978 -0.046720155 -0.02744642 -0.024449736 0.013163726 0.017314179 -0.0038276028 -0.03265269 -0.008999101 -0.01955901 -0.041323103 -0.05816918 0.024303604 0.028460704 -0.034913093 -0.0044410825 -0.009316066 -0.015069508 0.016677668 -0.068929985 0.0071054874 0.012161292 0.024702705 0.002182808 0.0073902695 0.021740157 -0.020177042 -0.025871938 -0.011359701 0.01690422 -0.027591145 -0.0020524513 -0.031960648 -0.021484228 0.01643872 0.040734224 0.012133728
171 -0.023135884 0.0045239325 0.03378385 -0.027432777 -0.0153629305 0.003460392 -0.005321777 0.0013908718 -0.008469623 0.028366076 0.03592344 -0.00039234414 0.0042954893 -0.0029198648 -0.044002555 -0.036036093 -0.0052139927 0.010114904 0.0102686 0.0015565199 -0.020169279 -0.01420735 -0.020854717 -0.042140514 -0.052232612 0.021924004 0.031223115 -0.02493171 -0.009485249 -0.01164641 -0.013250957 0.0056319954 -0.05904756 0.005343065 -0.0046093315 0.007726097 0.0043476927 0.008890227 0.006123428 -0.014365553 -0.014515501 -0.00251073 0.008724761 -0.026078843 0.003321046 -0.02952253 -0.0037008282 0.0032418894 0.020330233 0.020981688
72 -0.012186571 0.0049323165 0.023788014 -0.013527988 -0.00941465 -0.003546952 -0.0029125328 0.0043806382 -0.01369412 0.013783549 0.03123255 -0.004680838 -0.005153197 0.0034575711 -0.035446517 -0.0286372 -0.008420889 0.008173248 0.022966688 -0.0036110422 -0.019473918 -0.01158325 -0.02642906 -0.03808098 -0.04395148 0.017534934 0.02924304 -0.015387344 0.0075732637 -0.008439435 -0.011238805 0.011556359 -0.045375124 0.0028093178 -0.00484218 0.0034067305 -0.004290568 -0.0032315112 0.0048219967 -0.0035517367 -0.021807367 -0.009427389 0.0034290657 -0.028743835 0.008131924 -0.03437838 -0.0034324466 0.007972728 0.02890753 0.017437782
202 -0.01250394 -0.0030362927 0.012333512 -0.013390817 -0.0091700945 0.011127699 -0.018758 0.018966818 -0.0077623962 0.019482292 0.04411549 -0.012323933 0.010887596 0.0032036225 -0.054624777 -0.018533431 -0.0014334884 0.008755146 0.027487423 0.013860479 -0.021493822 -0.018520268 -0.012974151 -0.044042315 -0.053897224 0.019877417 0.032687068 -0.027177937 -0.011441359 -0.022692027 -0.013084134 0.021275155 -0.058712754 0.009476848 0.0061083627 0.014107698 -0.012780108 0.010624651 0.024429178 -0.020973653 -0.007418445 -0.015924776 0.015696056 -0.038144473 -1.261991e-05 -0.023435444 -0.021469 0.0112121105 0.037760153 0.011937544
95 -0.019752363 0.0023829879 0.023906652 -0.024448473 -0.014292511 -0.005604744 -0.019911569 0.013225088 -0.014195019 0.036666356 0.046334792 -0.013079022 0.0020397392 0.0014753381 -0.05465931 -0.02833734 -0.0122180795 0.010270359 0.00942058 -0.0041131033 -0.020794539 -0.020645427 -0.011618797 -0.036018856 -0.05528834 0.0123157045 0.01567081 -0.028103383 0.00028762236 -0.0016053078 -0.01750326 0.006705085 -0.0572014 0.0012610151 0.012205416 0.014626425 0.008352552 0.016576104 0.017824298 -0.005229927 -0.022992898 0.0021432415 0.01823727 -0.03746097 -7.462046e-05 -0.02892614 -0.0079258615 0.0027093966 0.03194429 0.026582371
324 -0.020874687 0.012753316 0.017084125 -0.02115933 -0.0122567 0.0050740833 -0.0054015103 -0.0015256187 0.0022098017 0.028107917 0.03601448 -0.014926125 -0.0010232928 0.009243541 -0.05389923 -0.015233767 -0.0016384758 0.019300273 0.010159723 0.005460306 -0.029562026 -0.019709136 -0.01767096 -0.031729944 -0.05720327 0.024195988 0.013589088 -0.018072577 0.0057491814 -0.02052758 -0.0070503536 0.0111750895 -0.039835658 0.016817043 0.0076098847 0.017167062 -0.0053918613 0.009115588 0.0050458373 -0.013751187 -0.018830823 0.0009125705 0.0076092957 -0.026362803 0.0030957095 -0.035869732 -0.016026635 0.007561163 0.03821279 0.027088832
339 -0.030546408 -0.0047137327 0.028712526 -0.013342445 -0.00037171514 0.008360433 -0.011107113 0.00402892 -0.0048809857 0.02165465 0.040786978 -0.0056538815 0.0020330623 0.0055442937 -0.04531623 -0.023937752 -0.0077200644 0.014092057 0.018843709 0.0063823205 -0.018137306 -0.015323362 -0.027789934 -0.033504646 -0.050453674 0.023554744 0.02402508 -0.019648174 0.00924421 -0.020032082 -0.011212154 0.019965572 -0.051604893 0.0067538694 0.0015201673 0.017871948 -0.008521498 0.01865851 0.011360063 -0.011047705 -0.013441389 -0.010897071 0.016588701 -0.034022953 0.00071170146 -0.038574062 -0.024909167 0.015057819 0.033277318 0.011135114
226 -0.012498671 0.01206538 0.029987294 -0.017741349 -0.013195443 0.0014551544 -0.00963873 0.004187887 -0.0092923315 0.033094373 0.025371836 -0.017397834 0.004716991 -0.0019660483 -0.056106497 -0.03316874 -0.016924882 0.013002848 0.025426125 0.009263819 -0.03442625 -0.011774947 -0.020986663 -0.027631061 -0.057314653 0.02713366 0.024159111 -0.027735222 0.004649289 -0.009335546 -0.012470633 0.0071798307 -0.060653497 0.0050070155 0.01249472 0.0049566254 -0.009304361 0.011590913 0.014587885 -0.007543616 -0.026076319 -0.012945113 0.01723616 -0.025986811 0.016839856 -0.0306625 -0.0134700015 0.005323162 0.034377903 0.01871318
232 -0.027843922 0.009498909 0.027163075 -0.008764174 0.0037468432 0.012284513 -0.01903924 0.008707403 -0.015164478 0.020517867 0.030208182 -0.009076074 -0.0037370678 0.003980099 -0.03934907 -0.014266636 -0.012925404 0.015996812 0.016798042 0.01345552 -0.024592012 -0.016253218 -0.019821484 -0.039118797 -0.050122127 0.019052833 0.029353492 -0.022257898 0.0067724027 -0.006992676 -0.005568916 0.019476516 -0.0531574 0.01226423 0.008566806 0.01506875 0.0042519188 0.007488568 0.017292932 -0.00856024 -0.007962457 -0.013534756 0.0045229523 -0.02177669 0.005311928 -0.026875569 -0.016360136 0.010893498 0.023837432 0.021835024
334 -0.028271707 0.00048470506 0.022587828 -0.023055755 0.002414298 0.0054831775 -0.020354833 0.012972089 -0.01847633 0.029385274 0.03164656 -0.0037569867 -0.004910558 7.9646e-05 -0.052945446 -0.02249341 -0.0139872795 0.014000157 0.017760126 0.003728511 -0.023283279 -0.0062061227 -0.012758509 -0.031396966 -0.054245938 0.022651842 0.030888714 -0.023154592 -0.002843597 -0.01375644 -0.011673729 0.004610903 -0.056526132 0.0077492413 0.0011882973 0.0062400918 0.0012217048 0.0022400734 0.016365014 -0.008276639 -0.011639216 -0.0007084667 0.011581862 -0.017772408 0.015386656 -0.03196192 -0.012434909 0.008035926 0.0360978 0.013376322
177 -0.021582332 0.00909051 0.027527979 -0.01441788 -0.0071442183 -0.0040249033 -0.014740759 0.01562445 -0.007836961 0.028154751 0.041197367 -0.011720709 -0.0013526203 0.008484372 -0.04406518 -0.036152672 -0.022327311 0.016544571 0.017107919 0.0040313243 -0.028917357 -0.00813675 -0.024299972 -0.038039066 -0.055612583 0.02141559 0.034836624 -0.036382586 -0.0014570565 -0.019933185 -0.022641791 0.009924632 -0.0599439 0.009517295 0.0062813545 0.021063812 -0.004706922 0.011079782 0.0205827 -0.014942773 -0.015488169 -0.012317877 0.007618695 -0.027713016 0.010416268 -0.032731555 -0.024159953 0.00358607 0.030062515 0.0100919
306 -0.025425918 0.0037920433 0.031367816 -0.00669056 0.00083310594 -0.0047578258 -0.024047041 0.014649464 0.00025687655 0.018006599 0.02993118 -0.0141989915 -0.0067094476 0.008381853 -0.042577162 -0.017423578 -0.022159778 0.006929428 0.030570416 0.0013937416 -0.035451688 -0.021498725 -0.022446394 -0.04268679 -0.047826968 0.01522766 0.022498103 -0.041050654 0.0046953824 -0.010779989 -0.00812576 0.0063912673 -0.05343383 0.004756016 -0.004491791 0.016740726 0.00012173293 0.00732126 0.015175751 -0.022564895 -0.018152615 0.0028747923 0.008344485 -0.025994051 0.0069404966 -0.026764939 -0.02928037 0.00562923 0.04170307 0.023890976
94 -0.015158008 0.0110576525 0.023356041 -0.019170618 -0.005147865 0.006918141 -0.015426392 0.0154839335 -0.006129502 0.028585037 0.037357002 -0.0025105735 0.007900348 0.006039494 -0.04683795 -0.02267847 -0.021031192 0.012346752 0.015481987 -0.0025640056 -0.025063656 -0.025032122 -0.029679587 -0.03797291 -0.045323074 0.011140378 0.029056307 -0.029666964 -0.0010806645 -0.019367035 -0.020704674 0.020035151 -0.05073224 0.0064333067 0.0039786347 0.009269484 0.0034616936 0.00038415942 0.021042256 -0.011034579 -0.008410266 -0.0003032328 0.015065948 -0.031408656 0.017861368 -0.029615285 -0.010302779 0.009210688 0.035103533 0.017342016
158 -0.020245157 0.0112883905 0.017962236 -0.00813248 -0.01230624 0.009388381 -0.017059889 0.016474059 -0.002689456 0.01964543 0.028835176 -0.014632506 0.009771852 0.010574432 -0.04798873 -0.01759905 -0.0026217576 0.019443667 0.013013061 -0.0017957166 -0.015439134 -0.018910069 -0.026104165 -0.031629924 -0.055673745 0.0078028063 0.02365162 -0.031819925 -0.0075630983 -0.015260571 -0.013046065 0.015682662 -0.041525725 0.011728069 0.0056369537 0.0027444186 0.0031461075 -0.0004899417 0.019558456 -0.00996726 -0.02358712 -0.0074045174 0.019111918 -0.02135754 -0.004507926 -0.023620915 -0.022344371 0.014311823 0.03395937 0.0052006533
28 -0.021985818 -0.006323226 0.029455662 -0.0078026154 -0.0036539352 0.007865697 -0.016229007 0.012057312 -0.0009378824 0.016996194 0.02380052 -0.009897376 0.0021476287 -0.0013067607 -0.03534383 -0.022359809 -0.017766766 0.00728283 0.013923332 0.010300472 -0.03602249 -0.011518866 -0.013985993 -0.02597927 -0.0593093 0.010497828 0.030108856 -0.034289714 0.0056489212 -0.013959129 -0.004908554 0.015996467 -0.056421578 0.0075536035 -0.00144646 0.009143929 -0.007367165 0.0015943432 0.021948822 -0.016784204 -0.02616901 -0.0072766356 0.022491958 -0.021118341 0.01407825 -0.029784225 -0.012883431 0.0034515029 0.030523198 0.022219164
166 -0.03186344 0.009961019 0.026429866 -0.029062284 -0.0018673482 -0.006107875 -0.006897156 0.0029305809 -0.001702302 0.02224383 0.04817894 -0.0013325419 0.0066733393 0.008526791 -0.06741038 -0.020168783 -0.0041364064 0.011226557 0.024721514 0.014162601 -0.039848417 -0.008932363 -0.034642205 -0.05348022 -0.062243596 0.017250368 0.026384212 -0.039577417 0.0009972174 -0.029004209 -0.011261866 0.018195746 -0.06559739 0.023469748 0.010325257 0.01853261 0.0034728062 0.0059754974 0.026732197 -0.005306788 -0.023154875 -0.0008247068 0.006541511 -0.03067464 0.00929679 -0.034576926 -0.028637689 0.0070960526 0.024363372 0.01186193
194 -0.020135878 -0.0018576296 0.01994571 -0.016952533 -0.012154327 0.0016964775 -0.022940664 0.0114511065 -0.0018588317 0.036047723 0.036310717 -0.0016228602 0.0024258902 -0.00385111 -0.044262584 -0.032731667 -0.0035692905 0.020151922 0.011556779 0.002147724 -0.01947898 -0.020766651 -0.011615542 -0.04613965 -0.048099194 0.010622148 0.0253434 -0.020231651 -0.00044944498 -0.00699173 -0.022336623 0.0009344875 -0.047682036 0.016238607 -0.0006443371 0.020737356 -0.0027777674 0.017038403 0.016223274 -0.004890491 -0.02396134 -0.00792411 0.023950325 -0.02578118 0.009166249 -0.043082446 -0.010632166 0.007770796 0.026606137 0.009500018
328 -0.016821913 0.0027525881 0.021152627 -0.013228013 0.0047193044 -0.006256069 -0.00661836 0.019497637 -0.011101304 0.020260373 0.041729882 -0.018630924 -0.0040304344 0.0007578364 -0.059150763 -0.012689271 -0.0074567804 0.00826637 0.011754279 0.016910987 -0.03355693 -0.028024077 -0.033135485 -0.03849275 -0.055145048 0.013737812 0.03390792 -0.03272673 -0.007215509 -0.011906143 -0.0037521562 0.014430258 -0.04591757 0.0171401 0.008341652 0.014226145 -0.010294714 0.018084086 0.023625206 -0.01768801 -0.009478469 -0.013801394 0.021198088 -0.027656306 0.006590717 -0.027386095 -0.017368617 0.006335432 0.024915613 0.0118590165
243 -0.017497854 -0.0025008405 0.030657096 -0.020402953 -0.006940572 0.009366944 -0.017858872 0.01778435 -0.017796325 0.03501947 0.037421882 -0.004475709 0.009783908 -0.0072608283 -0.047895 -0.015319991 -0.011183793 0.020387517 0.01346373 0.0068231476 -0.032879107 -0.011539779 -0.025735473 -0.03786351 -0.06766298 0.026170766 0.019861152 -0.02919785 -0.009356255 -0.012124093 -0.017586332 0.016947543 -0.05123706 0.008587457 -0.0005648154 0.021219546 -0.01102733 0.0101040285 0.01404163 -0.009541754 -0.017934179 -0.0022213992 0.023536548 -0.02133355 0.011854344 -0.035723068 -0.020597188 0.014905805 0.034441795 0.016962934
197 -0.030633867 0.0049654865 0.024777541 -0.026784968 -0.0006124375 0.0042541595 -0.013467938 0.018632526 -0.002024035 0.033376087 0.030662132 -0.01816672 0.011652054 0.009900386 -0.05917644 -0.021316418 -0.005336745 0.023376387 0.02416062 0.011507298 -0.022005448 -0.022086568 -0.028188163 -0.03267706 -0.060685966 0.028537441 0.021692587 -0.031063695 -0.009027653 -0.024090338 -0.01658271 0.022182737 -0.047574867 0.023216533 0.0068793823 0.025982317 -0.0066836216 0.0043201656 0.024579966 -0.0058073145 -0.02605202 -0.007896866 0.00896219 -0.031594682 0.01554637 -0.047756415 -0.014392116 0.011509829 0.033188302 0.019050473
212 -0.020549834 0.0025718594 0.017400965 -0.00822435 0.0035103075 -0.0018359913 -0.021322548 0.013703419 -0.0050889067 0.019004215 0.021997297 0.0015820645 0.0071205385 0.002979276 -0.035273116 -0.019053157 -0.019608356 0.009552828 0.007464681 -0.0033193938 -0.016537214 -0.0054061743 -0.018214827 -0.025957352 -0.05264965 0.014380618 0.02485671 -0.02420122 -0.00077423657 -0.0032270486 -0.019888064 0.018235816 -0.04531419 0.006636252 -0.007642317 0.020305019 -0.0068632467 0.0015497692 0.009877304 -0.01881473 -0.011941917 -0.012688509 0.012832757 -0.020636024 0.007797904 -0.022788184 -0.015745772 0.011972351 0.026584055 0.02159672
149 -0.011516509 0.008986024 0.021326426 -0.009290972 0.0026218006 -0.0039835325 -0.0044182846 0.016576933 -0.011091054 0.014550997 0.023508256 -0.0054278662 0.011583615 0.001736048 -0.04153249 -0.016966607 -0.01320889 0.015515832 0.01971172 0.0038053652 -0.03010898 -0.015006788 -0.024703655 -0.025192834 -0.045662872 0.011423475 0.0134771345 -0.02067419 0.0074656936 -0.016988363 -0.005962637 -0.00071031164 -0.04910877 0.0011968405 0.0073803905 0.020987567 -0.0012301977 0.00027331302 0.015638674 -0.015719363 -0.026619753 -0.0003172291 0.01824456 -0.021947945 0.0011413132 -0.033826813 -0.019882964 0.009602336 0.024196172 0.014531088
211 -0.021980453 -0.0026700154 0.022745365 -0.019515878 -0.0024046414 0.008184783 -0.02231045 0.0135109015 -0.014333691 0.031127693 0.029812511 -0.0012668826 0.008678313 0.00561561 -0.03424931 -0.029572306 -0.012065726 0.003991572 0.01844527 -0.0017086241 -0.012078439 -0.019893574 -0.025787428 -0.03032841 -0.033763666 0.008136836 0.026230017 -0.024599116 0.005184916 -0.0017698611 -0.006322307 0.019322358 -0.040360827 0.004780753 0.002954675 0.020532846 0.0037142292 0.016785458 0.0009582918 -0.01727568 -0.019461451 -0.01543531 0.008331861 -0.023749942 0.008684243 -0.023575818 -0.00564293 0.01568176 0.02948484 0.013626031
150 -0.022717215 0.0067224763 0.02769224 -0.024443207 -0.014810228 0.0012894297 -0.014120956 0.0067849476 -0.012747421 0.024930464 0.029548662 -0.017311111 -0.0028158715 0.0011470794 -0.048646618 -0.026763346 -0.0018529703 0.0118812565 0.010419121 0.004231436 -0.021861037 -0.0071929507 -0.025815036 -0.024633506 -0.044301566 0.02410274 0.02260444 -0.024377296 -0.00079014903 -0.02439112 -0.005229198 0.01810366 -0.060985938 0.0037303702 -0.0061232895 0.015612079 9.208585e-05 0.008673831 0.009655097 -0.0064403503 -0.013732107 0.0041805897 0.022510635 -0.029918915 -0.0031061058 -0.028873762 -0.01774224 0.0043844525 0.022555998 0.015313107
6 -0.017208448 0.0036551903 0.02397039 -0.0061862315 -0.0012719791 0.008497346 -0.021765469 0.0048649237 -0.0016267713 0.024585288 0.043649934 -0.0017423792 0.012845446 0.0014736567 -0.05663755 -0.016447159 -0.0072297133 0.02017949 0.016924717 -0.0016865187 -0.019217601 -0.007942719 -0.023299301 -0.035324983 -0.05145086 0.01564475 0.020638585 -0.035528008 -0.007640512 -0.018580467 -0.0065955725 0.017906189 -0.051386468 0.0005565169 -0.004855382 0.016412076 -0.0051090703 0.017359711 0.010491847 -0.018594915 -0.0193257 0.0038108442 0.013492842 -0.030167617 -0.003030238 -0.02467188 -0.014798616 0.0034386758 0.04204394 0.016658885
78 -0.018389799 0.008650823 0.027789991 -0.0056289723 -0.0054508797 0.009780379 -0.005333138 0.021103498 -0.0027416607 0.022661049 0.024318727 -0.013750595 0.008803372 -0.00969981 -0.05840207 -0.026083892 -0.004954993 0.009145589 0.029813634 0.0074360636 -0.030763337 -0.016226955 -0.02583527 -0.03231793 -0.05099455 0.023329535 0.02261004 -0.029456181 -0.0070348317 -0.017241824 -0.0032885808 0.007418251 -0.042999353 0.00953774 -0.0019922457 0.0075390367 -0.01209453 0.014185613 0.017197272 -0.003621068 -0.024495235 -0.005181103 0.012237928 -0.020527964 0.011010228 -0.023404116 -0.024825063 0.0024876227 0.029091088 0.012103824
244 -0.022858081 -0.00651376 0.030541021 -0.017182147 -0.004975991 0.0075371102 -0.0018290287 0.024849696 0.0006101888 0.037171442 0.047184907 0.0025591224 -0.0037469876 -0.013853933 -0.06631644 -0.03152456 -0.025412804 0.03051643 0.025519263 0.010592161 -0.030468473 -0.027928172 -0.008852939 -0.04321788 -0.059350178 0.026957996 0.03795108 -0.036796447 -0.004493545 -0.01906863 -0.023566488 -0.007150821 -0.07538236 0.015072514 0.012476996 0.02112007 -0.012492833 0.020758962 0.024613842 -0.0070902295 -0.02512921 -7.50838e-06 0.019356925 -0.04548826 0.01357292 -0.03498382 -0.00531283 -0.0030260803 0.0445476 0.0071527036
282 -0.030398428 -0.0016699515 0.03837486 -0.029934302 -0.01639641 0.015155885 -3.357747e-05 0.018392866 -0.019938555 0.041641053 0.043793768 0.006339524 -0.009200722 -0.012594619 -0.06674746 -0.019233633 -0.030317048 0.0134658115 0.013574976 0.008972533 -0.027590562 -0.014693095 -0.016257824 -0.05387366 -0.054977488 0.0265883 0.046902336 -0.025962679 0.011756201 -0.012608833 -0.018419422 -0.004396425 -0.080662884 0.022960495 0.008869196 0.00636716 -0.015743831 0.0028018868 0.029649535 -0.026336161 -0.00912661 0.008124903 0.017277874 -0.03499329 -0.0030757932 -0.04636729 -0.017729396 -0.0033478616 0.04114766 0.017244369
233 -0.019014962 0.008053391 0.032440215 -0.01833333 -0.012276857 0.0041386737 -0.0053145187 0.0074754194 -0.021969257 0.035580322 0.044404607 -0.0016555976 0.014327407 -0.001856772 -0.06178502 -0.0419357 -0.010840989 0.01158524 0.024034532 0.006238577 -0.03881702 -0.02809929 -0.010800693 -0.038224325 -0.04893849 0.005920038 0.032895006 -0.043869954 -0.0052705687 -0.025979316 -0.0065949024 0.0038612382 -0.037749093 0.0120891 0.0026417563 0.028766314 -0.0137597 0.009178572 0.026181426 -0.020520538 -0.022029575 -0.017577674 0.017516727 -0.029734878 0.0063694655 -0.027785823 -0.01052888 0.0071906336 0.020992251 0.013988484
256 -0.024934009 -0.0053618574 0.030915769 -0.025210772 -0.01703558 -0.008682267 -0.012005313 -0.00031300358 -0.023421958 0.026604952 0.03537976 -0.0052401833 0.014496029 -0.013680186 -0.060227226 -0.040935043 -0.025914261 0.027074004 0.034476522 0.011667652 -0.038940474 -0.02369899 -0.019445607 -0.04068478 -0.05095118 0.00764091 0.030486286 -0.046371046 0.009864585 -0.028967397 -0.0025172373 0.019828197 -0.04675198 0.019173445 0.009080464 0.022002004 -0.015393232 0.0015796507 0.026072707 -0.011087591 -0.021687213 -0.013665772 0.0026344915 -0.024101892 0.0077134375 -0.04695634 -0.024055913 0.0015132105 0.039337747 0.030409712
302 -0.0320048 -0.0028044828 0.025646726 -0.026472198 -0.0025064545 0.005461624 -0.01880559 0.009965391 -0.0024867847 0.036021955 0.034257196 0.00018077048 0.009787869 0.004316471 -0.05013086 -0.021805683 -0.008036586 0.011542032 0.020538365 0.011473733 -0.02779707 -0.008805588 -0.029364483 -0.03618693 -0.045023017 0.009552343 0.018316122 -0.02055384 -0.0039016285 -0.015749192 -0.019228965 0.009371787 -0.052711852 0.001459491 -0.0023586422 0.009572007 -0.008177287 0.0052889744 0.019235944 -0.0108074555 -0.015975963 -0.0067310543 0.016201116 -0.036116246 0.0035165662 -0.035514534 -0.018004753 0.016045827 0.03381554 0.012686151
134 -0.015637781 0.0060318476 0.025171876 -0.0123277595 -0.0029424494 -0.0022388212 -0.018884454 0.007638163 -0.0110730305 0.021039268 0.02501794 -0.012788789 -0.0016833349 0.0014142487 -0.041728895 -0.016208014 -0.008879415 0.010723368 0.0030415007 0.0019154873 -0.02834441 -0.009840401 -0.023705814 -0.01998672 -0.033530943 0.015175396 0.02740787 -0.016568039 -0.003749844 -0.0029397751 -0.01780372 0.012653777 -0.032393694 0.0074399114 0.0009538973 0.000949493 -0.007819758 0.009468617 0.018977137 4.3744385e-05 -0.018386776 -0.0009020002 0.018134372 -0.021466512 0.011321264 -0.028425464 -0.014918126 0.004207424 0.033349525 0.022600383
337 -0.030179538 0.00982237 0.019603213 -0.0061098314 -0.012661969 0.002745573 -0.009823732 0.012330299 -0.017515922 0.029405821 0.04388156 -0.0033305127 -0.006284858 -0.006289514 -0.041318934 -0.019611102 -0.0072483597 0.022450477 0.016883463 0.010134553 -0.03808493 -0.00746937 -0.008879705 -0.03222296 -0.05345634 0.013611376 0.033271547 -0.033124804 -0.010515645 -0.023807688 -0.023072412 0.00794724 -0.058432262 0.008307161 -0.0025319292 0.019909747 -0.01175189 0.0046807327 0.012077929 -0.021277852 -0.027570445 -0.00849311 0.005014739 -0.02233949 0.00882097 -0.043662027 -0.010854569 0.016372377 0.028549371 0.009502989
42 -0.0135320015 0.00024539168 0.032729097 -0.014033232 0.008516785 -0.00014854143 -0.016839163 -0.00035198222 -0.021435335 0.026233258 0.038967516 -0.02216342 0.004743246 -0.0020658448 -0.06954148 -0.036662713 -0.004528123 0.018328562 0.038668815 0.024870217 -0.03263494 -0.029008787 -0.016254798 -0.060431447 -0.07623644 0.026539458 0.04869182 -0.031530596 0.0016232749 -0.005638654 -0.0048918235 0.020813901 -0.054797795 0.0048114564 -0.0131653575 0.016315656 -0.015540324 0.028162682 0.02547521 -0.019882651 -0.02646893 -0.018388333 0.020806432 -0.03856946 0.0048498604 -0.056134712 -0.013426276 0.020532044 0.02187555 0.028162992
33 -0.025409423 0.008096096 0.012872899 -0.028101731 0.0005541538 0.002195985 -0.0017456631 0.0110271005 -0.015407903 0.017841224 0.051641162 -0.008795963 0.00022969338 0.0017426168 -0.06674589 -0.0155904805 -0.015611094 0.00861533 0.03310694 0.01863175 -0.023141889 -0.014672129 -0.010277082 -0.053375937 -0.06263964 0.036738984 0.048821695 -0.03883816 0.008859346 0.00089872844 -0.009700271 0.0014687995 -0.063095465 0.010973983 -0.014092249 0.029060788 0.0033559906 0.027466906 0.0124452785 -0.015183225 -0.027806649 -0.008920439 0.021121813 -0.0373728 0.008034816 -0.057180807 -0.025748383 0.0054935343 0.028992847 0.033354636
187 -0.027012939 -0.000500121 0.024148332 -0.017682154 -0.0021895661 0.012802222 -0.012669468 0.0036142515 -0.002082793 0.033285107 0.032775227 0.001683072 -0.005166209 0.0034950823 -0.05963707 -0.025445545 -0.00917875 0.02010258 0.02271164 0.00858805 -0.030780772 -0.028595487 -0.01572198 -0.030707447 -0.049258653 0.029659312 0.030649971 -0.030023364 -0.008855768 -0.006938623 -0.018239474 0.019431984 -0.061110795 0.003632686 0.007878709 0.011956954 -0.010899287 0.0070357355 0.019943975 -0.0064283237 -0.01532248 -0.004953928 0.019072859 -0.030538518 0.0053017093 -0.039691858 -0.022057224 0.015347368 0.023164114 0.022546804
342 -0.018888574 -0.0022508213 0.02693304 -0.004842251 -0.010970368 0.0018487514 -0.015147828 0.014080615 -0.0020463169 0.013869012 0.039346922 -0.009801086 0.0063601276 0.007205869 -0.048464146 -0.012734404 -0.0013475596 0.0041677277 0.015364212 -0.003608089 -0.025221849 -0.014868907 -0.021643791 -0.030835735 -0.05103324 0.025525205 0.014572944 -0.017958537 0.0033275762 -0.02062363 -0.009352609 0.008248297 -0.049681704 0.017942 0.0049388614 0.012091292 0.0005652395 -0.0010024233 0.009601026 -0.016822983 -0.008142507 -0.0019989621 0.01661457 -0.028030302 0.0012397124 -0.032563046 -0.01947892 0.0022662764 0.035371125 0.02601568
249 -0.026093433 0.0046638744 0.03087825 -0.01581845 -0.005472566 -0.004907837 -0.022702096 0.0062237554 -0.013362032 0.033672877 0.035115283 -0.017926475 -0.003944112 -0.0026893616 -0.0459241 -0.017707957 -0.008658037 0.01142615 0.017135123 0.0059248083 -0.02278654 -0.016686222 -0.023663234 -0.04253473 -0.060719617 0.024933955 0.027577244 -0.01833219 0.0023879458 -0.009508501 -0.021012468 0.0017338619 -0.061214406 0.006148133 0.00941763 0.01843607 -0.01196388 0.008415369 0.0126730995 -0.004821836 -0.019466704 -0.0148133915 0.018820021 -0.034851238 0.014923701 -0.033373192 -0.0188996 -0.0009858154 0.026723377 0.021647817
62 -0.015178985 0.00070101756 0.030800048 -0.013848218 -0.0014503801 0.010482951 -0.02229653 0.01717854 -0.018293547 0.020305093 0.022794148 -0.006055413 0.010003184 0.0009822886 -0.04286385 -0.028369676 -0.0053624054 0.022411594 0.025681436 0.0024727737 -0.017842038 -0.012774756 -0.009292384 -0.02598826 -0.04177716 0.020942247 0.031124929 -0.02404559 -0.0025131085 -0.0056579593 -0.023279497 0.011090288 -0.053184886 0.013815521 0.0057274085 0.0153373685 -0.002615071 0.017144026 0.015335117 -0.009803473 -0.010635336 0.0034024902 0.017855547 -0.03337435 0.00868988 -0.032044433 -0.018666176 0.014213799 0.030313877 0.010494216
92 -0.016805854 0.0067427736 0.024119047 -0.026019635 -0.009604601 0.011664706 -0.012161384 0.0006902131 -0.015604815 0.023654185 0.042262662 -0.0070662918 0.011411659 -0.0075287446 -0.03759268 -0.016135156 -0.010135478 0.015748363 0.023102522 -0.001604407 -0.025744243 -0.023708593 -0.018641355 -0.03861952 -0.042622495 0.022823555 0.028660351 -0.023828873 -0.0031935307 -0.005547204 -0.0069737774 0.00046715813 -0.054987703 0.018420769 -0.0017871972 0.01703808 -0.014924407 0.01580692 0.019381061 -0.003856667 -0.016996136 -0.004561602 0.00929062 -0.0342957 0.004664435 -0.042889535 -0.016710987 0.0104535455 0.020244889 0.011077101
140 -0.025060365 -0.007418437 0.008312776 -0.0104403775 -0.010190066 0.010923689 -0.015428523 0.0015749082 -0.017765405 0.023418142 0.032968614 -0.009263236 0.0025049192 0.001258798 -0.04784219 -0.020388413 -0.009171457 0.0142935235 0.017718263 0.0046919417 -0.030898407 -0.020697393 -0.022665482 -0.023473984 -0.039197683 0.025984526 0.026943281 -0.025303232 -0.00624469 -0.0027894713 -0.014900555 0.0008310369 -0.044418022 0.0029600053 -0.007981105 0.011992715 -0.006024865 0.002157234 0.018827703 -0.013893166 -0.019785581 -0.012489637 0.01346324 -0.019094836 0.0017519662 -0.028078435 -0.011658468 0.018625263 0.033669427 0.018557208
345 -0.018114869 0.0021770499 0.025523702 -0.019737054 -0.012050369 0.010725028 -0.01389719 0.0010948901 -0.010484523 0.01914633 0.03359807 -0.011222261 -0.0026487433 -0.006328341 -0.035587586 -0.029493526 -0.013304038 0.007183119 0.015372367 0.007326629 -0.016690115 -0.019224519 -0.022203505 -0.027605828 -0.045868866 0.018183107 0.019228358 -0.022624342 -0.007684787 -0.018948644 -0.008297598 0.0122391535 -0.047503203 0.0076809614 0.0026922943 0.017306827 0.0048102373 0.005102017 0.014067037 -0.01074423 -0.022985624 -0.008704035 0.0040536304 -0.02551234 -3.5131063e-05 -0.038840983 -0.021490503 0.016270678 0.030338576 0.016542645
275 -0.026448628 0.002562403 0.034918364 -0.01992252 -0.0031187616 -0.0019025916 -0.017458588 0.022603069 -0.0062666317 0.024923341 0.038004924 -0.018403105 0.0049657617 0.0021122692 -0.050063346 -0.010646147 -0.009303512 0.012260928 0.028474033 0.014106372 -0.035347346 -0.010004346 -0.032680545 -0.033432174 -0.04840223 0.02276683 0.03282889 -0.03790836 0.008211915 -0.012992108 -0.01834886 0.020944599 -0.06237113 0.005802284 -0.003593934 0.019102579 0.001377957 0.021160584 0.008486736 -0.011177148 -0.016291145 0.0030213494 0.022635033 -0.0196496 0.016499197 -0.033131383 -0.025558472 0.018898439 0.036893576 0.022136522
148 -0.026558837 -0.00025146958 0.021632131 -0.018392647 0.0033786693 -0.004087332 -0.009800888 0.0184061 -0.013203403 0.034075182 0.031531192 -0.011835853 0.009252839 0.009627186 -0.049780577 -0.012852939 -0.00043708214 0.0037080066 0.021900663 0.0023668674 -0.018883022 -0.0049672127 -0.026321515 -0.043322973 -0.047262464 0.025998693 0.029274376 -0.020171618 -0.0004573901 -0.015718019 -0.023943149 0.011025372 -0.050478406 0.015131925 -0.0064747124 0.00843485 -0.0006563426 0.011031987 0.022661703 -0.019615842 -0.024173064 -0.0060057472 0.0058849114 -0.017633185 -0.0029223964 -0.02691852 -0.018663289 0.015713187 0.026506746 0.011188429
108 -0.023312 -0.0033659171 0.023502976 -0.019147092 -0.0147216795 0.003681054 -0.02134977 0.013441126 -0.00620933 0.030958645 0.03300006 -0.01672518 0.0015231761 0.003543206 -0.051295493 -0.018218027 -0.014252219 0.014905038 0.022260727 0.012686319 -0.037562925 -0.017837647 -0.026005244 -0.03948265 -0.056838457 0.02352552 0.020457728 -0.034579527 -0.003145048 -0.012615256 -0.009676133 0.014542691 -0.056304224 0.019895075 -0.006150867 0.023742681 -0.00976295 0.00046543655 0.009120247 -0.022089832 -0.0134351235 -0.0061208704 0.020244377 -0.028774038 0.008950504 -0.035785906 -0.018854117 0.016996318 0.024754105 0.014678608
251 -0.014720442 0.008745118 0.025070986 -0.024049064 -0.0036884297 0.0052744234 -0.013559937 0.0023669768 -0.012509495 0.026811045 0.02794009 -0.018608656 0.0017765764 0.0053840824 -0.056607556 -0.022749692 -0.008863946 0.01763372 0.010364907 -0.0026770541 -0.025173955 -0.022976603 -0.021298533 -0.044017404 -0.06046799 0.028936097 0.033790655 -0.026477497 -0.0007565906 -0.025859812 -0.007447547 0.021403559 -0.06210517 0.020649223 -0.0036286393 0.021877142 -0.003563235 0.013996109 0.007278031 -0.010250892 -0.029696684 0.0003449298 0.0072647147 -0.026883893 -0.00056416105 -0.033555698 -0.0055190935 0.012426691 0.024607867 0.019584708
130 -0.026330363 -0.00042153773 0.024677286 -0.012743609 -0.007841226 0.012268272 -0.011556918 0.003700658 -0.010992884 0.02319534 0.032200307 -0.010897718 0.011686231 0.00686699 -0.03998596 -0.018250812 -0.016285248 0.015116004 0.01894192 0.0016160177 -0.014563457 -0.017147541 -0.024027936 -0.029113086 -0.04011951 0.01975439 0.024368208 -0.018942395 0.0052840225 -0.014403248 -0.007729607 0.016210577 -0.05686669 0.01938131 0.004245984 0.004526104 -0.0058899843 0.017009864 0.021423487 -0.009930457 -0.014814163 -0.011528474 0.017880531 -0.031396363 0.014122427 -0.030136554 -0.01205301 0.018045433 0.032039218 0.009973373
223 -0.018660095 -0.00059132266 0.015488725 -0.011721479 -0.0038020578 0.0045973263 -0.0076101036 0.008610681 -0.011614258 0.025905827 0.032184515 -0.006293194 -0.0039567244 -0.0025670724 -0.04095738 -0.024501305 -0.014793573 0.0066513894 0.008348813 -0.002076032 -0.025589377 -0.01656813 -0.013635176 -0.035339285 -0.044488672 0.019992828 0.010578594 -0.025745237 -0.0019261816 -0.00045958956 -0.01949695 0.017709732 -0.03884668 0.014780108 0.00739617 0.008929019 0.0052330573 0.014214895 0.0069006486 -0.01268775 -0.006464476 -0.005558854 0.011164374 -0.020251188 -0.0049581127 -0.022565208 -0.009532065 0.008479966 0.029104719 0.009443386
13 -0.007949126 -0.0016373652 0.016468357 -0.018089278 -0.004983362 0.011569674 -0.008778268 0.00988972 -0.010043952 0.011843547 0.026598494 -0.012108002 0.006254724 0.0007929617 -0.04361381 -0.013209364 -0.009563416 0.018164448 0.01074754 0.00918294 -0.018457923 -0.0064347642 -0.022415617 -0.020847376 -0.040625293 0.017214889 0.017147468 -0.027548889 -0.00805723 -0.012937387 -0.00976035 0.0129962 -0.05136446 0.012743698 0.0021351078 0.020183962 -0.0045924084 0.0048831906 0.017677454 -0.0024152412 -0.019358154 -0.008096407 0.0022344948 -0.024845328 0.010456984 -0.028315056 -0.005190367 0.010718116 0.0242706 0.023632344
237 -0.027130986 0.004034988 0.024389604 -0.0049421657 -0.015174897 -0.005212074 -0.008857791 0.01554756 0.0020337645 0.029914102 0.0360463 -0.007879532 0.0022100592 0.009162412 -0.040394362 -0.015552531 -0.012277208 0.017588384 0.021152457 -0.00086107734 -0.017191593 -0.00850756 -0.010279501 -0.025242329 -0.054736417 0.027352013 0.032457035 -0.031588692 0.0024978942 -0.0026187967 -0.018016264 0.016374016 -0.044504784 0.008392923 0.005758239 0.010299267 -0.010561579 0.013360703 0.010049566 -0.00037671678 -0.010297699 -0.0057480754 0.0175742 -0.029474078 0.010156482 -0.023750633 -0.0036576777 0.012616522 0.035928186 0.02373248
5 -0.019225067 0.0089615695 0.033338875 -0.018717324 -0.0058226935 0.005422027 -0.010095387 0.0042571723 -0.0013263247 0.027528243 0.028786724 8.0394435e-05 -0.0008006168 -0.0054273265 -0.053709198 -0.034401327 -0.0030729603 0.004433696 0.016465662 0.0041408814 -0.029213982 -0.025047516 -0.029026695 -0.030390643 -0.047501974 0.01925713 0.029368548 -0.019393561 7.9545054e-05 -0.018637609 -0.009152867 0.009249715 -0.058722164 0.005856641 -0.007378579 0.005713145 0.0029859522 0.008099633 0.023846036 -0.017669644 -0.01710984 -0.013423682 0.009454597 -0.0367595 0.0035785113 -0.040135212 -0.02419409 0.008936344 0.041000776 0.016959233
278 -0.027660783 0.001449691 0.028300297 -0.025087517 -0.017865818 0.0030710592 -0.0149951605 0.0139035415 -0.008932316 0.018046962 0.035446778 -0.002478643 0.00013398053 -0.0060501006 -0.04886874 -0.032847226 -0.020195229 0.026125874 0.015103187 0.010973373 -0.03699906 -0.008882646 -0.02397756 -0.045969486 -0.05951527 0.026248123 0.034063276 -0.035993505 -0.0057043023 -0.015965447 -0.018258538 0.0014631876 -0.056077287 0.016776929 0.0057627214 0.0061503584 -0.0016475176 -0.00080957543 0.020640884 -0.014938349 -0.027446324 -0.0032873 0.006236124 -0.031878084 -0.0007930971 -0.04179774 -0.012168051 0.01689922 0.031226933 0.009177803
184 -0.015345779 0.00013197352 0.03324448 -0.02780142 -0.016571421 0.008252648 -0.01511755 0.0108192 -0.014661118 0.027156623 0.03451693 -0.016301548 0.0066921394 -0.0024396572 -0.053691726 -0.0275793 -0.0039717318 0.0162304 0.025013456 0.008125623 -0.034936655 -0.0152908955 -0.015496872 -0.0340218 -0.05667221 0.014298664 0.031158784 -0.025361879 -0.0039227256 -0.01943884 -0.010551317 0.020322941 -0.057378348 0.015909666 0.005033677 0.009364646 -0.00059188553 0.010355643 0.0122464495 -0.011163228 -0.01722079 -0.0061728554 0.0049451543 -0.035698336 0.013867814 -0.042294748 -0.01887149 0.009028335 0.03482026 0.0211497
264 -0.018820101 0.008816511 0.015971791 -0.017495247 -0.0008958421 0.0029461312 -0.020549452 -0.00073626376 -0.007509924 0.028550934 0.041993544 -0.0058462042 -0.0036068102 -0.0045986637 -0.05853229 -0.029357942 -0.01655925 0.01359961 0.01302607 0.015435058 -0.025848934 -0.0088195475 -0.023305366 -0.049526785 -0.0530415 0.021265322 0.034816474 -0.038507443 -0.011521905 -0.01731267 -0.025892606 0.0014908793 -0.059245758 0.024674552 0.014323574 0.022125155 -0.0139710605 0.018214477 0.0055795964 -0.018904254 -0.00855839 -0.009331643 0.019159056 -0.01785896 0.019743338 -0.046270728 -0.0033076473 0.0028140706 0.042086396 0.031212365
260 -0.027703557 0.0007267041 0.015665174 -0.01603598 -0.000602289 0.010242994 -0.0138055235 0.006817711 -0.017715316 0.021533625 0.03816748 -0.017676214 0.0016467036 -6.709517e-05 -0.05027191 -0.019398486 -0.013530049 0.016103804 0.020030353 -0.0020223544 -0.024419136 -0.025942093 -0.012698823 -0.026743786 -0.051198773 0.022425238 0.03473956 -0.02152034 0.0013744393 -0.016640581 -0.020287117 0.012023245 -0.04556729 0.021022946 -0.0076995776 0.02199036 0.0025703004 0.010679056 0.0065063154 -0.020908399 -0.009317758 -0.0054917536 0.023204485 -0.034993924 0.009290478 -0.036852557 -0.011114979 -0.0011999039 0.034027047 0.008362187
218 -0.017244464 0.0059711165 0.024841005 -0.024672382 -0.0049530636 -0.008646337 -0.0140838 0.012621248 0.0017158648 0.03032388 0.041571397 -0.008278487 0.003985466 -0.008164075 -0.04992083 -0.012830022 -0.007997496 0.02437729 0.030637786 0.015129517 -0.02078508 -0.024526559 -0.034453895 -0.03120052 -0.06024697 0.022591218 0.027405277 -0.027621668 -0.0036549668 -0.006079193 -0.012636057 0.0128710335 -0.044267233 0.012398306 -0.0066912137 0.0070949923 -0.016040945 0.0115263285 0.024912084 -0.02131725 -0.009402927 -0.0044821114 0.012564173 -0.036118947 0.009836185 -0.044126082 -0.028610142 0.0055404417 0.04056856 0.017080262
90 -0.029681887 -0.005750597 0.03645195 -0.013523451 -0.019560017 0.009063915 -0.01631348 0.020950176 -0.008931111 0.033735517 0.043370694 -0.006137539 -0.004376403 0.015331241 -0.04241615 -0.018334314 -0.014361112 0.011558916 0.023981683 0.0032269931 -0.029797578 -0.005686069 -0.025355836 -0.039759364 -0.06306865 0.02068082 0.016036585 -0.035536326 -0.0065653515 -0.011510933 -0.025192441 0.01602047 -0.049507093 0.0053805113 0.0006973596 0.0145002175 -0.019589692 -0.0069687814 0.019083291 0.0005314801 -0.024810052 -0.008990671 0.0035925433 -0.038639016 -0.003116756 -0.033004526 -0.0039805216 0.011103501 0.039297298 0.02328927
