333 50
119 0.0002426008 0.031962976 0.023974068 0.018227814 -0.0031963277 -0.0044899494 0.023399372 0.046400644 -0.017149985 0.040106226 -0.026687374 0.0060281362 -0.024604345 0.028616473 -0.04073111 0.006572212 -0.030516408 0.038964503 -0.025993997 -0.017935459 -0.016180051 -0.026989365 0.02804204 -0.031038046 -0.043754693 0.025084559 -0.0059956643 0.031619173 0.031892803 -0.02396228 0.0065935142 -0.010153856 -0.033541486 -0.008197182 0.032975096 -0.044187754 0.0043912893 -0.02227873 0.009879099 -0.025226915 -0.041989096 0.011298853 -0.0559733 -0.008089235 0.037455358 -0.052281614 -0.009037385 -0.04152601 -0.024479257 0.00046230928
67 -0.006927019 0.03435212 0.020904804 0.017654553 -0.003075957 -0.0035340178 0.016700665 0.031131158 -0.010332673 0.047834538 -0.01924066 0.022697747 -0.02469086 0.017181827 -0.039305348 0.01105133 -0.03207605 0.023254896 -0.024178904 -0.011915423 -0.029309161 -0.033297356 0.028357562 -0.023481365 -0.033871908 0.036065076 -0.020967783 0.01821647 0.028834246 -0.031424165 0.021239556 -0.011883182 -0.024382606 -0.01684128 0.013911665 -0.033684514 -0.002534092 -0.027803699 0.012879393 -0.015339056 -0.03552109 0.006347211 -0.04799152 -0.007423891 0.04612622 -0.0379243 -0.0025092186 -0.041499786 -0.012010527 0.00417379
56 -0.012846369 0.020027956 0.023306761 0.011224273 -0.0028373122 -0.013901016 0.030859828 0.048139047 -0.020241441 0.032934267 -0.028294416 0.0119441 -0.022611924 0.02853133 -0.035108604 0.0032835705 -0.03654913 0.03742759 -0.017382849 -0.0070089316 -0.015140316 -0.021925623 0.029683748 -0.019561116 -0.03532989 0.01913039 -0.01197171 0.028480358 0.03354321 -0.03146977 0.007051244 -0.015934845 -0.024517696 -0.016703065 0.023324938 -0.027161013 -0.0092308065 -0.017480439 0.01184388 -0.02198379 -0.028222062 0.012736158 -0.03539284 -0.013187691 0.03443851 -0.045354016 0.0031291572 -0.03270297 -0.012332407 0.018122725
25 -0.007096145 0.030909413 0.021856904 0.015665548 0.0069466387 -0.011534059 0.026230616 0.056806747 -0.016829781 0.056997813 -0.028845262 0.020126484 -0.039489917 0.022604136 -0.058769893 0.017182179 -0.045583036 0.043638255 -0.025946762 -0.022393825 -0.03470426 -0.045655217 0.03235038 -0.035371523 -0.051442344 0.04288684 -0.02525991 0.0355954 0.039174717 -0.024049448 0.02134438 -0.011742146 -0.036282066 -0.018707097 0.02566287 -0.030863358 0.0030539248 -0.033381626 0.029693585 -0.021702517 -0.036341585 0.027634127 -0.05856868 -0.01853839 0.051528912 -0.057516355 -0.001829593 -0.034782555 -0.006806192 0.008192651
26 7.9171354e-05 0.022628224 0.02293582 0.011787325 0.0013356033 -0.005188286 0.016122242 0.04612157 -0.021142498 0.038218822 -0.025562232 0.0032785945 -0.029262232 0.03141436 -0.051852304 0.0042592064 -0.036552984 0.036135558 -0.01016485 -0.014263151 -0.02690738 -0.028557489 0.03374999 -0.028607765 -0.05167689 0.021970034 -0.005666015 0.022474261 0.040425837 -0.025974898 0.0037856798 -0.020723984 -0.01589026 -0.018337874 0.021257805 -0.022970844 -0.011729241 -0.018776525 0.018827684 -0.016190052 -0.021307817 0.018378917 -0.039924785 -0.017373994 0.040002044 -0.037387654 -0.01410673 -0.028150657 -0.009544751 0.017834058
271 -0.0066337516 0.027065055 0.013327011 0.008354481 -0.008986585 -0.0004068195 0.021004342 0.03876224 -0.017986989 0.043825686 -0.031844806 0.0059309374 -0.027424466 0.012794136 -0.045179974 0.017236535 -0.023046052 0.03360012 -0.02014415 -0.020216873 -0.021728087 -0.03404205 0.03711388 -0.027698537 -0.041123588 0.018539166 -0.016731028 0.02863577 0.033329677 -0.02172706 0.017081013 -0.006025946 -0.021570647 -0.0150035275 0.02611767 -0.025360893 -0.005838247 -0.020255335 0.013394041 -0.020416 -0.02216487 0.020011513 -0.046823543 -0.003891764 0.041394345 -0.03030362 -0.0034844675 -0.03967183 -0.014358327 0.007941485
322 0.003569487 0.027072228 0.01694803 0.019583032 -0.0013497538 -0.013943927 0.022048328 0.043012477 -0.022654189 0.034568164 -0.027365375 0.018055597 -0.034381453 0.031993717 -0.05330176 0.020059995 -0.037020285 0.040045332 -0.011625446 -0.023475224 -0.026959203 -0.022976514 0.03991023 -0.03208213 -0.049568094 0.03373831 -0.014895583 0.019243414 0.036828592 -0.028441304 0.015831992 -0.014773931 -0.02542838 -0.016394326 0.021477466 -0.029677005 -0.012122201 -0.030258292 0.013139008 -0.020267328 -0.023617344 0.022156259 -0.04306079 -0.0037780537 0.032721467 -0.042257976 0.0028299014 -0.033724 -0.016467227 0.01718261
277 -0.011567329 0.022692554 0.018617857 0.0063773366 -0.0062175584 -0.011396238 0.02132927 0.034824714 -0.024242891 0.037662983 -0.0236689 0.019389607 -0.017756112 0.016874114 -0.043317605 0.012548522 -0.030173821 0.039086837 -0.0098113725 -0.0077212686 -0.026684575 -0.030169092 0.022697689 -0.012108751 -0.032213442 0.025655638 -0.014319052 0.0196018 0.026447812 -0.011686896 0.006844493 -0.019355837 -0.026001438 -0.012308681 0.019460235 -0.030632194 -0.0012931825 -0.015193661 0.021996588 -0.028934753 -0.030424777 0.015482852 -0.0451571 -0.016039874 0.028774276 -0.032973416 0.0025137416 -0.039492518 -0.020041443 0.015511511
200 -0.0020401375 0.024747895 0.02404701 0.010768777 -0.0038382516 0.0035077333 0.012752226 0.041336652 -0.016755298 0.037502192 -0.03345668 0.019676052 -0.026700823 0.025864495 -0.050431047 0.008235669 -0.02233842 0.035975732 -0.013384408 -0.005750376 -0.026993848 -0.029231928 0.03594879 -0.024728477 -0.03225761 0.036500722 -0.0082858335 0.013494652 0.03476389 -0.017563237 0.020815676 -0.014139647 -0.024215057 -0.005542406 0.018877098 -0.02588788 -0.012790494 -0.02764291 0.019763332 -0.013110968 -0.027942864 0.013228538 -0.04107521 -0.015410244 0.041579764 -0.04937079 -0.010455371 -0.03198719 -0.018950675 0.017409509
312 -0.007559171 0.02786444 0.016928181 0.011186131 -0.0075482605 0.00066525047 0.021807242 0.035911724 -0.02447105 0.033422124 -0.032494575 0.017159672 -0.01785856 0.017423583 -0.03702381 0.015833344 -0.025829464 0.042856246 -0.009343199 -0.009759579 -0.025821757 -0.022234164 0.038565647 -0.022567421 -0.053184398 0.03236914 -0.020936105 0.014252557 0.0320897 -0.026820512 0.01617804 -0.017306415 -0.024958715 -0.007542417 0.027619984 -0.026900163 -0.007748229 -0.029013135 0.02177925 -0.03451529 -0.039026797 0.025765823 -0.04731811 -0.015844628 0.04244831 -0.03938573 -0.012826241 -0.032366954 -0.004381256 0.0053709885
19 -0.00558429 0.031282518 0.020536713 0.006010262 0.008259498 0.0056531774 0.011840143 0.026690895 -0.01870841 0.03224894 -0.020306105 0.01498797 -0.024306694 0.01306211 -0.038838223 0.0127403885 -0.03276026 0.028090307 -0.02239802 -0.012273348 -0.006205572 -0.029138947 0.019560166 -0.026095608 -0.044346154 0.018617427 -0.01123853 0.021194926 0.034864366 -0.013913845 0.013773582 -0.018405395 -0.01221494 0.00027906272 0.0185014 -0.020322923 -0.0026838328 -0.01068677 0.007332902 -0.02360116 -0.031493813 0.01723674 -0.034540687 -0.002879395 0.0409584 -0.0444134 -0.011222304 -0.03936149 -0.013773879 0.004637368
239 -0.0013809691 0.013543015 0.009500757 0.01153177 0.0046563162 -0.0064816554 0.023666274 0.039232768 -0.0069136363 0.04088824 -0.025747413 0.014503169 -0.013891186 0.0139529975 -0.032940164 0.0081502395 -0.02803974 0.01592602 -0.02425015 -0.022440894 -0.016650796 -0.023298929 0.034654383 -0.017967623 -0.03518661 0.02723982 -0.0021428682 0.020483071 0.016462421 -0.024323653 0.007913317 -0.0065271733 -0.015227992 -0.013415604 0.024392538 -0.01686857 -0.0038058776 -0.024923285 0.015437818 -0.028062202 -0.029094886 0.008782693 -0.034848105 -0.012316075 0.021876 -0.036316898 -0.011266103 -0.03480403 -0.015573671 0.002594741
23 5.057226e-05 0.027539007 0.028690236 0.0071147084 -0.0008655878 -0.00079672766 0.017008644 0.041978076 -0.01751499 0.0400529 -0.02506771 0.013647737 -0.02777673 0.03153738 -0.05922693 0.014398721 -0.047065713 0.033250976 -0.015750755 -0.022688892 -0.012161308 -0.037361544 0.041822467 -0.020326093 -0.044674467 0.022464396 -0.016084043 0.019772463 0.033878468 -0.03681428 0.01615628 -0.01185344 -0.028170353 -0.02251433 0.019838236 -0.03439031 -0.002558037 -0.014713434 0.01037494 -0.026527382 -0.03566207 0.027676275 -0.04881809 -0.02070277 0.04422229 -0.044585478 0.003969033 -0.05071906 -0.02222726 0.013358506
252 0.0029496406 0.020426411 0.0098745935 0.009087115 -0.005630312 -0.0131489895 0.01585169 0.033751883 -0.025416102 0.03338398 -0.030060831 0.0070084515 -0.021039253 0.027830392 -0.04355509 0.0005446681 -0.026377684 0.025184633 -0.021835888 -0.015853 -0.013062661 -0.02953908 0.028642034 -0.024525153 -0.03537935 0.03365938 -0.013598317 0.014492201 0.01879949 -0.027905304 0.010684979 -0.008218323 -0.022878353 -0.00036512065 0.022262532 -0.03168426 -0.007851145 -0.024948936 0.008670736 -0.01522296 -0.02652049 0.0018341275 -0.037489425 -0.014198396 0.03546625 -0.042171888 -0.0077218455 -0.033204053 -0.01667338 0.00529349
41 -0.008059782 0.022705832 0.010536835 -0.0010960961 -0.0028447292 -0.009561197 0.02597183 0.028150778 -0.00999635 0.03305751 -0.011897157 0.0035062584 -0.01399165 0.016782187 -0.036285006 0.00646194 -0.03155712 0.036364276 -0.0063909017 -0.009122237 -0.022183798 -0.030201549 0.02255288 -0.02883272 -0.038847446 0.032661416 -0.0016736919 0.008709026 0.025562799 -0.013301324 -0.00013480493 -0.0011103036 -0.02614296 0.0026219839 0.019755049 -0.01865059 -0.0086119985 -0.008443034 0.014150714 -0.01698158 -0.027768854 0.020712217 -0.02385051 -0.0066587273 0.034283593 -0.033488307 0.001828684 -0.03249275 -0.00902562 0.008638116
315 0.0071744635 0.0133802835 0.012373846 0.01166387 0.0068684984 0.00037020244 0.021434462 0.036468413 -0.018813409 0.031329077 -0.024726206 0.009210611 -0.029786488 0.020487104 -0.032072663 0.009179134 -0.02957828 0.0194421 -0.013211646 -0.02066336 -0.016440056 -0.030574989 0.02666049 -0.0134234065 -0.04449764 0.021251757 -0.017410032 0.01716415 0.022437435 -0.010929225 0.0013689795 -0.01632158 -0.029201293 -0.013978138 0.017233117 -0.026533172 0.0022573587 -0.015292891 0.0047055776 -0.027127493 -0.020381985 0.0079313675 -0.03785962 -0.018188918 0.029624606 -0.044491954 0.0015086012 -0.030099874 -0.01058914 0.015412886
170 0.0020336288 0.019854391 0.0260886 -9.7362245e-05 -0.0018548234 -0.000996649 0.028663367 0.04189415 -0.02260174 0.040926933 -0.026408143 0.005079043 -0.026824012 0.017704017 -0.047727264 0.015838524 -0.034686495 0.03755213 -0.021731928 -0.02235376 -0.021979386 -0.029622052 0.03055002 -0.028502764 -0.040992398 0.034971625 -0.010213899 0.029215375 0.033079337 -0.025311496 0.0050875153 -0.0070245885 -0.0273729 -0.0028888674 0.019285679 -0.028640136 -0.0052394727 -0.013433884 0.009101363 -0.013001768 -0.03295256 0.007703665 -0.04472757 -0.010051152 0.027242066 -0.041688375 -0.0010227306 -0.031079663 -0.015897745 0.0073956405
122 -0.0034160384 0.02816638 0.026998132 0.0098636085 0.004253054 -0.00039197915 0.011943338 0.04129158 -0.019346908 0.03823202 -0.031278204 0.004336145 -0.01375989 0.015557725 -0.035083026 0.005807549 -0.025642334 0.023902979 -0.010186614 -0.009920628 -0.027455576 -0.030423352 0.03587613 -0.02808424 -0.039377406 0.022303177 -0.015249369 0.020222975 0.03786618 -0.020174365 0.009353985 -0.016771153 -0.021554612 -0.008049297 0.018590856 -0.035020158 -0.004734895 -0.013776404 0.016499614 -0.014020959 -0.02800529 0.0102989925 -0.038345307 -0.011181054 0.0450912 -0.02885692 -0.0055058696 -0.029221555 -0.016060093 0.014943423
203 0.003796339 0.019317195 0.028072247 0.012572668 -0.0051120627 -0.014609302 0.019360306 0.035057586 -0.016894663 0.041918635 -0.02323862 0.00823316 -0.0123491185 0.011875167 -0.043586653 0.008953785 -0.036146943 0.020359412 -0.016434073 -0.0049570682 -0.021595078 -0.031903036 0.034727547 -0.011944958 -0.03762794 0.020791074 -0.0043170513 0.029036107 0.031450503 -0.027702795 0.009046093 -0.012307344 -0.028257336 -0.0038413662 0.009159751 -0.026884427 -0.010763962 -0.010320996 0.023403445 -0.027039288 -0.031614836 0.007879301 -0.035613973 0.00063531037 0.028134024 -0.0353652 0.0058439104 -0.0296293 -0.0025400468 0.008225545
280 -0.0077311634 0.01902446 0.018559324 0.0055549275 -0.0029742552 -0.006832168 0.013512098 0.02442051 -0.022812841 0.038483173 -0.024955915 0.010629227 -0.018878175 0.012432595 -0.028827732 0.0023061745 -0.02818584 0.033285297 -0.023136722 -0.007382074 -0.008419332 -0.030279238 0.03175011 -0.0079991175 -0.032064263 0.018636176 -0.0060619395 0.015749091 0.015770987 -0.02217311 0.014415894 -0.0037850924 -0.013505495 -0.0072034597 0.014021182 -0.016236553 0.0026522903 -0.021651093 0.01034004 -0.012227165 -0.022807118 0.019628393 -0.031017074 -0.013048195 0.02312611 -0.023900991 0.002267896 -0.035566233 -0.0033382792 0.0016899785
304 -0.0058762897 0.020752894 0.022952722 0.01829704 0.009819663 -0.014656632 0.022502724 0.032255642 -0.00977888 0.029771078 -0.015992342 0.013182051 -0.021214088 0.022995953 -0.046824813 0.009520892 -0.021361876 0.027211336 -0.011756366 -0.007948236 -0.027295291 -0.027754573 0.039232228 -0.02515794 -0.043231864 0.02001005 -0.012204023 0.026905948 0.023747986 -0.026318323 0.012546399 -0.017689927 -0.017485745 -0.016173502 0.017578268 -0.035097178 -0.011505206 -0.02307293 0.019116316 -0.02468761 -0.020360129 0.013816777 -0.036423173 -0.019041752 0.02829315 -0.038661197 0.0007572369 -0.037843436 -0.014447457 0.0062012402
115 -0.0070572994 0.011688091 0.016650787 0.015435277 -0.00092204666 -0.005444845 0.017056135 0.026928753 -0.010782793 0.038541738 -0.021398261 0.0028819721 -0.025144054 0.026670875 -0.035146948 0.014396171 -0.018171012 0.020682054 -0.013468495 -0.018268686 -0.017324796 -0.02415699 0.01891645 -0.026735565 -0.031885024 0.031769942 -0.017721575 0.008629504 0.01704559 -0.01682639 0.015897594 -0.007972471 -0.0053028464 -0.017470928 0.017519822 -0.029419998 -0.010803742 -0.020206057 0.021738091 -0.02455508 -0.013960351 0.016531385 -0.024738766 -0.017019428 0.033984732 -0.035167072 -0.000802321 -0.03378963 -0.011113168 0.0016388955
82 -0.0056439764 0.0104672145 0.012401089 0.012655633 0.0059801014 -0.012793849 0.01927127 0.025967756 -0.006127738 0.027631447 -0.011160605 0.013314 -0.010417564 0.012315955 -0.028212525 0.008403953 -0.02817135 0.017225645 -0.018615285 -0.02223265 -0.022829738 -0.033975866 0.023806283 -0.012783245 -0.02738108 0.019686107 -0.020189052 0.018538356 0.015038957 -0.02171313 0.01435661 -0.011379298 -0.021481708 -0.004602568 0.0081899995 -0.028476046 -0.008332229 -0.008912553 0.017600264 -0.020229643 -0.017300142 0.020151721 -0.03474668 0.0012553913 0.025372079 -0.024048666 0.0046754545 -0.029742975 -0.0071566873 0.0011537529
213 0.0039657652 0.012508181 0.020064527 0.002919968 0.008186731 -0.0064591863 0.0108632315 0.039997257 -0.012697438 0.037634693 -0.03043552 0.02090104 -0.027211832 0.020522283 -0.041139364 0.0021100894 -0.024387974 0.032231305 -0.025047358 -0.009992208 -0.024638891 -0.024405949 0.036675017 -0.016254533 -0.038204264 0.029680928 -0.020153468 0.02841687 0.028604174 -0.023189405 0.009625387 -0.0093007935 -0.023672245 -0.019645317 0.009062176 -0.019959204 0.0055368072 -0.021964341 0.023217335 -0.02533281 -0.025371876 0.014231822 -0.03729719 -0.01797268 0.027486596 -0.026154391 -0.0005487034 -0.020511968 -0.014093165 0.010967898
21 0.0026098364 0.025562229 0.026620734 0.009294704 -0.0047316854 -0.006772246 0.024405995 0.022488436 -0.0207499 0.03748038 -0.021868385 0.013689421 -0.013896046 0.018050209 -0.033044685 0.011115744 -0.029047497 0.025936613 -0.0124832485 -0.014148867 -0.01563012 -0.027471578 0.03372942 -0.020848377 -0.041901838 0.015500196 -0.01754503 0.018040307 0.02315807 -0.026153544 0.012861975 -0.0022750827 -0.020332435 -0.018804627 0.022658352 -0.030195437 -0.011601114 -0.015633902 0.009523788 -0.016376218 -0.02952688 0.0035266879 -0.0363402 -0.0045600557 0.029021945 -0.040746544 -0.013897612 -0.021069426 -0.01158759 0.0094741015
332 -0.0087275 0.02774885 0.021905847 0.017857505 -0.0037012845 -0.00727547 0.019199513 0.036807287 -0.020606693 0.03223026 -0.020717915 0.005655322 -0.013480464 0.019946057 -0.022730786 0.0032623804 -0.028271515 0.029960074 -0.013787082 -0.01645117 -0.007858039 -0.029107997 0.02814476 -0.010533298 -0.035125606 0.025671938 -0.0005486129 0.0265952 0.022164267 -0.0121911885 0.0005139773 -0.01735845 -0.013112212 -0.014707659 0.018250076 -0.022274513 0.005124159 -0.012745409 0.0069474876 -0.024875881 -0.03157337 0.009660537 -0.02668592 -0.004950756 0.029007375 -0.03676673 -0.0022048948 -0.029793438 -0.0029861652 0.012545966
285 0.004638011 0.016911326 0.025193376 0.005802096 -0.009228213 -0.010532811 0.013719378 0.041163135 -0.012615832 0.02997232 -0.0244025 0.020279907 -0.024683615 0.0137631865 -0.044061724 0.011023126 -0.019646065 0.035538513 -0.01247938 -0.009814993 -0.009824845 -0.024265138 0.036146335 -0.018447397 -0.037527468 0.024679339 -0.0062700617 0.014151391 0.017447004 -0.012895697 0.0122350445 -0.0154930055 -0.023843942 -0.013423857 0.020811912 -0.025534183 0.0069050645 -0.0105296625 0.021673907 -0.015591208 -0.029976526 0.00856956 -0.028595742 -0.0038920946 0.034431234 -0.040306862 -0.01086023 -0.030216597 -0.0021773735 0.00069728866
199 -0.01202448 0.011643835 0.023962848 0.017936569 0.0021221342 -0.005693357 0.017795304 0.04167608 -0.013537221 0.024515662 -0.022223417 0.0088433055 -0.010363319 0.010307267 -0.036345154 0.0056209103 -0.037307214 0.024152184 -0.005969186 -0.014059861 -0.02179127 -0.023608064 0.037027616 -0.021185147 -0.042250443 0.016982246 -0.00478123 0.028685924 0.023802666 -0.016211824 0.009914117 -0.005805896 -0.023581598 -0.019677633 0.010024204 -0.015207761 -0.009141972 -0.025530512 0.018339004 -0.013357122 -0.028348269 0.005250359 -0.034215715 -0.0072664544 0.03751296 -0.04280298 -0.0008404119 -0.033554234 -0.0052112844 0.009454811
53 -0.010456992 0.014634083 0.022402482 0.011672452 0.00012391 -0.0065424494 0.016245382 0.03940366 -0.009151636 0.0393084 -0.020397209 0.018337902 -0.031285934 0.014066277 -0.03470168 0.019844288 -0.03361995 0.017980734 -0.020891987 -0.009781583 -0.019939188 -0.026009753 0.021869063 -0.017369086 -0.03961704 0.03495579 -0.006739892 0.021456767 0.03065099 -0.011029064 0.01931225 -0.01923195 -0.017877625 -0.011656606 0.020878492 -0.021962088 0.0065180324 -0.022860002 0.016834019 -0.0204603 -0.020334922 0.01003871 -0.043016445 -0.01764101 0.03584722 -0.037572324 0.0037449338 -0.038714014 -0.021627126 0.008115006
98 -0.008313638 0.024686867 0.010337287 0.013134244 -0.004809167 -0.0028504983 0.0208411 0.035917655 -0.012187354 0.026676085 -0.025111819 0.014220799 -0.01524202 0.017279567 -0.03143515 0.0014493368 -0.031540334 0.019537844 -0.014436177 -0.019304253 -0.0054532206 -0.02410621 0.030585712 -0.022952035 -0.022199303 0.02267355 2.1948326e-05 0.024658108 0.030427491 -0.023708489 0.00011696076 -0.009356964 -0.013458597 -0.010857357 0.019659188 -0.020808266 0.004455939 -0.010621746 0.01662402 -0.017811574 -0.017727248 0.014154211 -0.03372355 -0.007704964 0.019572306 -0.036878318 0.004279391 -0.020453082 -0.003240685 0.015392005
9 0.007949583 0.015821273 0.021023879 0.016025573 -0.0063639376 0.0011742391 0.022361184 0.03047851 -0.01350028 0.035668466 -0.0154000325 0.018131431 -0.01940128 0.013177783 -0.026909754 0.0026536013 -0.031005396 0.02454226 -0.014212235 -0.0032381625 -0.021641886 -0.031696193 0.027435584 -0.012823856 -0.02844846 0.030178467 -0.017440652 0.014419148 0.022519063 -0.013294181 0.0030408325 -0.018021207 -0.01702606 -0.014007908 0.017241435 -0.027965397 0.0069232984 -0.0059628394 0.009209363 -0.018686162 -0.027161606 0.00033251496 -0.021197394 -0.0012618268 0.026867902 -0.029654598 -8.4204294e-05 -0.026148967 -0.01696546 0.0077846255
188 -0.00970115 0.010811736 0.015315357 0.0022854316 0.0070970072 -0.013864983 0.02124246 0.030247904 -0.022387216 0.026910778 -0.027797466 0.00512739 -0.023219772 0.027073344 -0.041571863 0.01691414 -0.030026842 0.017134396 -0.0075247944 -0.011647089 -0.016336665 -0.030858185 0.03378605 -0.018068453 -0.034280207 0.025109144 -0.013896626 0.027475268 0.01781102 -0.012857585 0.011435564 -0.00032022953 -0.026349448 -0.017411532 0.023000216 -0.014076336 0.007966358 -0.02135246 0.017887404 -0.010749984 -0.03143644 0.00295356 -0.025866477 -0.0016722969 0.019815482 -0.038881965 -0.010094098 -0.034420528 -0.010706204 0.011928894
40 -0.0065148384 0.025775442 0.023297748 0.010359558 0.0031327447 0.0040553603 0.025720233 0.037720837 -0.01610479 0.040155992 -0.026541041 0.0014866072 -0.015838128 0.019928982 -0.04508237 0.0005148964 -0.027606655 0.024437917 -0.024396352 -0.01604881 -0.016695077 -0.036087245 0.02479699 -0.014362062 -0.029530855 0.028512288 -0.018250767 0.009648506 0.025245316 -0.015261847 0.0110623 -0.016583584 -0.022787591 -0.01174001 0.02200906 -0.034159675 0.001057049 -0.02487318 0.016895741 -0.016740177 -0.03304512 0.008734587 -0.031688076 -0.0050985776 0.03760932 -0.034962807 -0.005354434 -0.038892277 -0.016240826 0.008553117
325 -0.0013357421 0.022246689 0.022452202 0.0037102543 0.008814045 -0.0056264135 0.014817108 0.034056596 -0.012828102 0.027221736 -0.01021009 0.016445473 -0.007205212 0.0068549896 -0.03243252 0.009209372 -0.03169098 0.030781515 -0.0071727736 -0.0046454063 -0.0034776083 -0.025980838 0.020334177 -0.009770844 -0.029854788 0.02079239 -0.012501358 0.014029654 0.019566042 -0.007928393 0.012880844 -0.003136008 -0.016571451 -0.0015638053 0.019954987 -0.012985305 -0.0020736759 -0.013636784 0.0082857385 -0.012866022 -0.028019484 0.0042524557 -0.027502311 -0.0025886458 0.033294592 -0.023395956 -0.00624787 -0.022108408 -0.009218427 0.0016660368
329 -0.003678236 0.020140683 0.026816282 -2.3243329e-05 0.008241356 -0.007048057 0.013091682 0.03556449 -0.022913208 0.043105576 -0.027287828 0.018061206 -0.023342919 0.02854246 -0.0319046 0.009227815 -0.036668446 0.019679211 -0.0066890223 -0.023588417 -0.016013663 -0.037846178 0.037186246 -0.011733242 -0.046197288 0.019063108 -0.012762129 0.027680252 0.02687266 -0.024081968 0.012496721 -0.023600701 -0.012891067 -0.016636116 0.02678439 -0.021491766 -0.0027077289 -0.025310546 0.008068233 -0.029245945 -0.03138504 0.015540898 -0.029137498 -0.003672488 0.03086908 -0.042334512 -0.007826827 -0.038233913 -0.007122677 0.006770272
313 -0.0026393675 0.009097994 0.008681286 0.0053051566 -0.0048929467 -0.0021877785 0.025723362 0.028327376 -0.010425924 0.02217365 -0.020541264 -5.4344364e-05 -0.016106157 0.0124652395 -0.027672723 0.015316209 -0.016692912 0.025582537 -0.01650964 -0.022018006 -0.007350121 -0.028532881 0.03258468 -0.021992218 -0.034306444 0.026991725 -0.0058286465 0.020211337 0.020796798 -0.024571948 0.0061157206 -0.019998793 -0.023223396 -0.009922298 0.020394493 -0.013987324 -0.0073141037 -0.009919315 0.020935468 -0.01942053 -0.024809571 0.01301444 -0.037480384 -0.013657347 0.037318315 -0.022784425 -0.0046356027 -0.025151288 -0.01377574 0.0035309154
227 0.002512699 0.027120752 0.017534321 0.013455228 0.0027998793 -1.764615e-05 0.009989639 0.03492637 -0.018210467 0.030429633 -0.025488896 0.011845713 -0.021691935 0.0198019 -0.03466012 -0.00018532312 -0.036449336 0.016470069 -0.02131795 -0.014247457 -0.007963724 -0.03626402 0.027902331 -0.017955622 -0.024439495 0.011691169 -0.015752723 0.018938446 0.02321751 -0.011766094 0.010290608 -0.012260608 -0.009916742 -0.015501732 0.016357476 -0.026520085 -0.0043519926 -0.020870503 0.023117073 -0.01584123 -0.027535321 0.009240152 -0.041498896 -0.006082986 0.037884973 -0.032724205 -0.00056409376 -0.036402646 -0.0035808089 0.016562467
324 0.0062354305 0.022245616 0.02983745 0.015915014 -0.003284671 -0.0010616034 0.016283711 0.04200278 -0.012104515 0.03106562 -0.016764715 0.0010854297 -0.022380667 0.025378853 -0.04040344 0.0049756835 -0.03807109 0.03492998 -0.010683784 -0.006137412 -0.010249502 -0.030566216 0.019495552 -0.02820484 -0.039981995 0.022723343 -0.011064392 0.022799013 0.030795336 -0.028953262 0.009245624 -0.021333938 -0.0243877 -0.010694238 0.022230618 -0.025589954 -0.0054721097 -0.024591677 0.017448517 -0.023325242 -0.024047088 0.0018368664 -0.034854468 -0.001039765 0.02867591 -0.036061857 0.006658037 -0.038960125 -0.0029409803 0.012770482
323 -0.0027924196 0.0188647 0.020860681 0.01531584 -0.0014302318 -0.0057065254 0.021599282 0.021110024 -0.019994438 0.038205694 -0.022238614 0.009964021 -0.013787544 0.016766919 -0.036442332 0.013316301 -0.01319479 0.02571081 -0.021850303 -0.0021674994 -0.007604311 -0.024150174 0.025010902 -0.025046386 -0.020285515 0.024022194 -0.016364919 0.009002519 0.02764174 -0.024497999 0.014791939 -0.017836945 -0.015926493 -0.010334138 0.011215532 -0.0185214 0.0021681183 -0.012198686 0.010792466 -0.016377198 -0.029813416 0.0062969103 -0.024309441 -0.0054497365 0.035140418 -0.021140324 0.0018362497 -0.019613909 -0.016320936 0.0028390377
143 -0.012665212 0.018575137 0.012265401 -0.0010520122 -0.005314755 -0.0006879556 0.018452883 0.034332197 -0.019843502 0.035578433 -0.015642924 0.020236392 -0.018755328 0.01198437 -0.029187573 0.0018513917 -0.027885202 0.03307793 -0.012757734 -0.017382503 -0.0070022745 -0.03540961 0.02733149 -0.018586138 -0.030350516 0.030215653 -0.019564368 0.013484815 0.01948615 -0.009338149 -0.0009654251 -0.014143886 -0.017880253 -0.0065393387 0.015091807 -0.036065865 0.00018612904 -0.02005777 0.011299918 -0.014352903 -0.016445594 0.011936291 -0.03839358 -0.016530672 0.029649952 -0.04034353 -0.012082312 -0.035098415 -0.0064908527 0.007299664
175 4.100263e-05 0.012518344 0.02030623 0.0031161043 0.007861906 0.0023462272 0.022284927 0.029080773 -0.011441927 0.03698217 -0.012127187 0.01744638 -0.021762094 0.011326527 -0.026530186 0.01738062 -0.026920255 0.025742589 -0.017664317 -0.008286763 -0.022008946 -0.019201787 0.032398272 -0.01983514 -0.03151155 0.013830591 -0.012236972 0.026103774 0.027455248 -0.008811124 0.01874508 -0.0064444016 -0.009704335 0.0011281995 0.014845959 -0.028030068 -0.0022777345 -0.0111839855 0.007065079 -0.019403312 -0.0155447135 0.0074795065 -0.03780466 -0.004119358 0.03630395 -0.027437905 -0.00046655492 -0.02893875 -0.01645207 0.009825723
272 -0.011554581 0.02882511 0.026403638 0.00605691 -0.005881156 -0.005290977 0.024871826 0.033477254 -0.0207848 0.02448244 -0.01432184 0.010923307 -0.027298694 0.02826014 -0.03777295 0.007890214 -0.025739972 0.02040801 -0.009549786 -0.0141945975 -0.017273406 -0.028302148 0.02181024 -0.020269513 -0.026306849 0.030573593 -0.004097823 0.028771305 0.031737898 -0.016643155 0.0012744013 -0.012669533 -0.020060048 -0.017820543 0.00729865 -0.0344822 4.1876014e-05 -0.025749562 0.017535908 -0.014606848 -0.016266707 0.008886463 -0.0376994 -0.015984373 0.03822168 -0.023212451 -0.014294689 -0.021578327 -0.012663936 0.0061312634
214 -0.007865396 0.015478151 0.017079202 0.009666418 -2.3716386e-05 -0.0019738907 0.007120244 0.03855755 -0.025607664 0.039862253 -0.028416838 0.0017646991 -0.024671482 0.0136251785 -0.02579858 0.00033474062 -0.03523278 0.033172656 -0.008922125 -0.023587769 -0.011054673 -0.032974605 0.029778462 -0.015926704 -0.039176468 0.018386375 -0.018983781 0.025870334 0.030482683 -0.015111458 0.012111533 -0.011555021 -0.011336642 -0.0049909246 0.014338712 -0.025965033 0.0065932455 -0.0049948455 0.008667573 -0.029381253 -0.026872413 0.0041931644 -0.033955015 -0.0060184933 0.038663745 -0.030544035 -0.0014606841 -0.027294198 -0.020611295 0.013917673
192 0.0046717995 0.032114886 0.013434849 0.005111599 -0.007945304 -0.005609874 0.02205753 0.035726152 -0.0065633357 0.050483633 -0.018924206 0.014633986 -0.027552243 0.029407151 -0.052402966 0.0098487185 -0.022116875 0.03953747 -0.015568338 -0.025440574 -0.008908136 -0.019006738 0.03386736 -0.024782281 -0.041099582 0.033382878 -0.010836739 0.014022811 0.027542071 -0.03349984 0.019047115 -0.0072018765 -0.025132252 -0.021647079 0.016892375 -0.0300441 0.0057317764 -0.022352474 0.018152617 -0.024318134 -0.035986 0.02593703 -0.046739053 -0.010488382 0.042371303 -0.02958135 0.0006207006 -0.030810865 -0.02127516 0.0042003635
172 -0.0025386652 0.02166598 0.017098391 0.0047842385 0.0066381553 -0.005142459 0.009834032 0.032244746 -0.0044792728 0.03679858 -0.025303049 0.0052088164 -0.014497301 0.01857473 -0.033570807 0.0022917164 -0.024392242 0.0129542295 -0.01645789 -0.015074925 -0.013994446 -0.014666308 0.018868634 -0.020597361 -0.032377396 0.03131282 -0.017254796 0.015788738 0.026825767 -0.0074993195 0.010777659 -0.017359044 -0.02567963 -0.011870605 0.0072199367 -0.029274868 0.003456287 -0.0057976535 0.019042458 -0.019768357 -0.031945035 0.0015790404 -0.030583814 -0.009968243 0.03443711 -0.02493724 -0.0007540463 -0.032403372 -0.0008290705 -0.0020434428
346 0.0028509102 0.026253628 0.018604595 0.007197567 0.006813451 -5.3728778e-05 0.017300678 0.02984449 -0.024046151 0.044528507 -0.019993147 0.014407528 -0.019015718 0.013994031 -0.03574625 0.019684605 -0.028542161 0.030177835 -0.023149854 -0.0060221427 -0.020001305 -0.02609606 0.033546317 -0.023354046 -0.038368817 0.029087726 -0.0100545 0.01419354 0.03392482 -0.018120835 0.012268732 -0.014926064 -0.027542284 -0.010956958 0.02780593 -0.030531079 -0.010527214 -0.009324686 0.021052696 -0.024323035 -0.02418509 0.015138729 -0.036995307 -0.009633254 0.038177542 -0.043357212 -0.015046358 -0.040479496 -0.008010062 0.0016721353
326 0.005774985 0.021152174 0.025622314 -0.0021990528 -0.0035728991 -0.0032822795 0.026194721 0.036310047 -0.009666812 0.032330487 -0.027967732 0.009874567 -0.011661976 0.02541622 -0.025374519 0.010480225 -0.016557079 0.017986251 -0.0148513345 -0.01822412 -0.022270929 -0.026633892 0.024150029 -0.02394107 -0.044046655 0.017745921 -0.0027474156 0.02520163 0.022198182 -0.014385261 0.014747778 -0.013001626 -0.008645634 -0.015577682 0.010323568 -0.025308555 -0.003654202 -0.013254486 0.01638508 -0.015036857 -0.026366424 0.014052005 -0.030670479 -0.008425511 0.035637356 -0.0333875 0.0015464899 -0.03136388 -0.008585909 -9.729315e-05
137 0.00453994 0.020456987 0.009492242 -0.00086878863 -0.001785796 0.0033257888 0.012036705 0.037688863 -0.013801569 0.04053009 -0.028726378 0.019358829 -0.017570402 0.029179484 -0.03920945 0.015481751 -0.036698412 0.032291614 -0.020039937 -0.011244177 -0.010796591 -0.030956239 0.027474442 -0.027669754 -0.029079108 0.032304972 -0.014752432 0.018044543 0.027115425 -0.025783647 0.009700341 -0.016800728 -0.020618632 0.0027572317 0.020907465 -0.022133494 0.005056884 -0.014103065 0.011387408 -0.025529968 -0.024417412 0.021455625 -0.025243195 -0.01568943 0.037912067 -0.03558901 -0.0030399535 -0.028130576 -0.02103469 0.010131138
142 -0.0029747174 0.019468743 0.023948845 0.004239731 0.008489565 0.0013094477 0.010130112 0.026442688 -0.02310512 0.036655344 -0.02072599 0.005326383 -0.024723038 0.021228854 -0.028027013 0.00433773 -0.031594653 0.029501349 -0.010295282 -0.008094133 -0.015095931 -0.02766212 0.034209862 -0.015548724 -0.031676006 0.021777818 -0.009848412 0.016995836 0.015401396 -0.02351892 0.016562063 -0.014699577 -0.021261627 -0.005323062 0.010590684 -0.028726507 0.0044373316 -0.017559707 0.007975885 -0.008556192 -0.029094236 0.015281129 -0.028585616 -0.017999096 0.034475304 -0.024366532 -0.0131140845 -0.01915294 -0.004339385 0.002099853
169 0.0018921696 0.014821443 0.007092029 0.0046271654 -0.005079521 0.00042131517 0.007023836 0.031301204 -0.009650332 0.027478265 -0.026544902 0.009597008 -0.00760301 0.01753965 -0.022808997 0.009660305 -0.014358728 0.013712768 -0.022372909 -0.0024688155 -0.0128693115 -0.024344752 0.02855034 -0.011277745 -0.026170947 0.017960109 -0.0013897894 0.018181995 0.022439454 -0.007600881 0.00012672006 -0.0039845738 -0.011739206 0.0014481766 0.006900222 -0.013687481 0.00017926897 -0.02253101 0.015064949 -0.015326847 -0.030236227 0.010209708 -0.03233185 -0.012765567 0.03566088 -0.029271983 -0.0059690443 -0.014377721 -0.008114227 -0.0020138132
95 -0.006123535 0.024516497 0.02165625 -0.0011361691 -0.002352135 -0.014175088 0.023140209 0.04328784 -0.02188842 0.028542677 -0.02385949 0.013720702 -0.02634329 0.022352034 -0.043487657 0.016944643 -0.022922326 0.017825706 -0.018391132 -0.01356484 -0.0063275937 -0.035475343 0.01492731 -0.018827543 -0.037896026 0.022975953 -0.013933586 0.00944793 0.030036297 -0.0146391215 0.007461841 -0.01458725 -0.016696978 -0.017727315 0.025000308 -0.039071817 -0.00526605 -0.010346297 0.013584633 -0.034257114 -0.014044693 0.010925285 -0.036686044 -0.00024432648 0.042540077 -0.04232512 -0.004971317 -0.023107663 -0.0031597994 0.0026663893
31 0.005441421 0.021311672 0.012144368 0.017766029 -0.0028593887 -0.007539737 0.019448575 0.030498268 -0.014818117 0.025594465 -0.015226834 0.0040463693 -0.015913092 0.025895007 -0.04123196 0.00883909 -0.027902484 0.015068049 -0.021752723 -0.019022204 -0.01623527 -0.029039824 0.021254506 -0.008541634 -0.043624666 0.03276193 -0.00787638 0.017223172 0.028953541 -0.019659102 0.00038671476 -0.003460653 -0.007985889 -0.013505833 0.009271114 -0.02894053 -0.010138756 -0.0150733655 0.019193323 -0.023566617 -0.02609002 0.013357354 -0.037698176 -0.016704284 0.040926393 -0.024515633 -0.002186191 -0.027449505 -0.009055525 0.00045278162
186 -0.0030927232 0.025796266 0.028608816 0.010091524 0.00089597376 -0.0037835075 0.008225872 0.032098893 -0.020142581 0.043341078 -0.0117996195 0.018625561 -0.0099660475 0.017941268 -0.045794204 -0.00029549218 -0.03280571 0.028253535 -0.005835811 -0.015505994 -0.020510042 -0.02221725 0.03496112 -0.016131518 -0.033698373 0.01566146 -0.010147191 0.011711099 0.020600164 -0.01131469 0.00781336 -0.007090332 -0.02200713 -0.010625202 0.024976978 -0.032466102 -0.006242509 -0.023218041 0.005474077 -0.0227151 -0.020186111 0.01210628 -0.029623926 -0.00029820643 0.029435847 -0.03130909 -0.0045470507 -0.037328534 -0.01582571 -0.0014208874
230 0.003958015 0.026825918 0.025641732 0.0023572769 0.007070764 -0.009502663 0.02374942 0.03067703 -0.0058992873 0.032351766 -0.021170942 0.011049519 -0.01995628 0.011487363 -0.038946137 0.0032129837 -0.02071783 0.028051013 -0.008483289 -0.020164596 -0.009219072 -0.032881588 0.016656864 -0.028206976 -0.039339975 0.01499635 -0.0072665527 0.008366516 0.02402408 -0.020922625 0.013187537 -0.002371812 -0.013635391 -0.00966824 0.010186653 -0.025487503 -0.015268192 -0.00906049 0.0055437535 -0.027551483 -0.03389035 0.020671478 -0.039698053 -0.0056941994 0.04198765 -0.028335866 -0.014572533 -0.03946422 -0.01715689 0.0055453856
334 -0.00061969354 0.01344573 0.013387888 0.0141796535 -0.0028467814 0.005879578 0.01061609 0.018060366 -0.019208675 0.03452183 -0.022619877 0.016245216 -0.015576835 0.012578986 -0.02368744 0.016347785 -0.013274987 0.030933242 -0.003502019 -0.010240574 -0.008947614 -0.028089955 0.02859783 -0.019586861 -0.034498442 0.012576017 -0.010687919 0.009050508 0.02247341 -0.012499695 0.017890042 -0.009258863 -0.0136044705 -0.0096831815 0.01451976 -0.013270888 -0.0093239285 -0.022535587 0.0034778381 -0.011231947 -0.022590464 0.010034078 -0.023859553 -0.016849045 0.022308365 -0.019039994 0.0016332384 -0.016764736 -0.015071314 0.016237933
339 -0.01021042 0.022892023 0.00980431 0.007101153 0.0077642724 0.001713977 0.010927148 0.024646126 -0.012372067 0.030598575 -0.01500673 0.0020304867 -0.014734942 0.018448524 -0.031245233 0.017871128 -0.023861498 0.032800194 -0.018940564 -0.019653924 -0.0138388835 -0.031250644 0.018453654 -0.01605652 -0.046148658 0.034369525 -0.013290224 0.015946927 0.031226182 -0.02339157 0.0031310976 -0.0040022577 -0.024537763 -0.015532396 0.023603145 -0.02130133 -0.011415029 -0.024445027 0.014574519 -0.01555673 -0.03206202 0.012529448 -0.036567796 -0.00217675 0.02337514 -0.032192744 -0.003132052 -0.019718565 -0.0020556138 0.01361343
177 -0.0013681599 0.020277884 0.017846663 -0.0016066795 0.0041303243 -0.009841025 0.025760379 0.04221357 -0.014871173 0.028959557 -0.031069482 0.014698973 -0.019653255 0.016015993 -0.029063167 0.015203731 -0.035787657 0.025128284 -0.016213492 -0.020647699 -0.020634133 -0.018050158 0.024206026 -0.025462974 -0.03298671 0.025864916 -0.009008464 0.012307498 0.03830865 -0.018359477 0.0001839994 -0.017668223 -0.013678273 -0.0007269103 0.027816718 -0.027463173 -0.010279844 -0.0144590875 0.01489709 -0.029668167 -0.024535907 0.008440034 -0.031344105 -0.019003075 0.04715526 -0.030931436 -0.010436666 -0.04024469 -0.001749857 0.0076267417
342 -0.0012970382 0.022191826 0.022814222 0.0030922373 0.005707079 -0.0028664882 0.025793804 0.037554026 -0.008652479 0.03455695 -0.02844813 0.015588928 -0.023210976 0.016503416 -0.024204578 0.013152987 -0.030477097 0.015464043 -0.018885246 -0.0044233305 -0.011606337 -0.027051657 0.030736985 -0.02321383 -0.039135862 0.02615062 -0.0043453937 0.015189408 0.017405594 -0.012504201 0.006393886 -0.011587048 -0.01960421 -0.008017496 0.021781247 -0.019114314 -0.0029196609 -0.011624665 0.01151179 -0.007200583 -0.012303616 0.017813286 -0.023930222 -0.0028191055 0.020088656 -0.031944387 -0.0059203613 -0.026032278 -0.0032411776 0.010108538
118 -0.010457513 0.0263769 0.013911481 0.012597677 -0.003588292 -0.0009979515 0.024760662 0.031635687 -0.019761331 0.031790994 -0.010304822 0.016598318 -0.025907489 0.016673552 -0.035873547 0.005310559 -0.023397243 0.028954448 -0.023753446 -0.016459186 -0.0073159104 -0.015791235 0.026312582 -0.02344095 -0.039274257 0.030843927 -0.0025336319 0.022777341 0.031453297 -0.020795254 0.00043058774 -0.008205566 -0.023575705 -0.019197242 0.015839957 -0.034603063 -0.008961175 -0.013417095 0.016008718 -0.0203986 -0.01552906 0.011376973 -0.033394642 0.0004867713 0.028145783 -0.035064146 -0.009342556 -0.030995864 -0.004874788 0.013191477
48 -0.0075691207 0.009567018 0.0076681464 0.008452289 -0.0064386106 -0.012597216 0.020622026 0.032575898 -0.011682354 0.033688813 -0.015734076 0.002820449 -0.02311584 0.024930945 -0.028740086 0.010010357 -0.02495151 0.033748116 -0.022082588 -0.01933844 -0.026724275 -0.023986654 0.016939875 -0.015479135 -0.035193127 0.026489748 -0.01356356 0.020204274 0.03478036 -0.019802934 0.017031362 -0.012061703 -0.017345663 -0.0056446665 0.016453145 -0.029563444 0.001978773 -0.01570705 0.016491972 -0.012106119 -0.01911565 0.004788042 -0.028477024 -0.013198595 0.024966495 -0.026841048 -0.01372982 -0.02245097 -0.0045567467 0.012777834
259 -0.009709756 0.028913233 0.030684108 -0.0001450044 0.009808172 -0.000956718 0.023190662 0.049029812 -0.013134452 0.03937828 -0.020778557 0.00801588 -0.029186215 0.03250095 -0.041104008 0.008215837 -0.034270916 0.021778446 -0.023087673 -0.008256814 -0.010407535 -0.030698443 0.022163268 -0.025123332 -0.032708816 0.024055684 -0.0067211916 0.014103225 0.021494525 -0.026671762 0.006508265 -0.02409339 -0.031510778 -0.013611984 0.018200668 -0.028627492 6.23263e-05 -0.014239014 0.021183025 -0.024718838 -0.030475212 0.021544475 -0.040747557 -0.006876234 0.038635798 -0.040153153 0.0031187823 -0.043691333 -0.012198756 0.0053820987
236 0.0023405552 0.009362971 0.020758359 0.014852613 -0.002352645 -0.011968918 0.009479428 0.025167733 -0.009740116 0.039563715 -0.024881342 0.005968689 -0.028391503 0.027462427 -0.02523532 0.012353872 -0.021477861 0.02291152 -0.008956415 -0.018843569 -0.008331177 -0.033311468 0.023371333 -0.020960296 -0.036544997 0.029238524 -0.011495441 0.01918192 0.018884543 -0.01970769 0.015775073 -0.015837654 -0.019994743 -0.0049741496 0.022034341 -0.026838869 -0.007524266 -0.0063010496 0.016609231 -0.024261799 -0.027483713 0.016526012 -0.029435553 -0.0130490605 0.03737349 -0.038212113 -0.013193349 -0.030749707 -0.0033667297 0.00015929282
173 0.006743654 0.023319986 0.010583863 0.0154827535 0.009902561 -0.0043597 0.017590066 0.043643128 -0.021051653 0.024687177 -0.009737277 0.0016196434 -0.026419075 0.025676548 -0.033998802 0.0073699662 -0.03460146 0.021157863 -0.007069295 -0.017122557 -0.024731169 -0.036468834 0.017532136 -0.02334977 -0.033563074 0.025772434 -0.009924135 0.019874124 0.027477564 -0.024135243 0.021212742 -0.017205575 -0.006340238 -0.02074079 0.007405249 -0.022168 -0.011999464 -0.018753475 0.022210168 -0.019240024 -0.026806194 0.0046730065 -0.036540497 -0.017886238 0.039517406 -0.036204547 0.0067300885 -0.035431787 -0.007287666 0.015412034
249 -0.00066918985 0.025806643 0.015760252 0.00013365403 -0.0010968565 -0.014264927 0.012010428 0.030135088 -0.015678763 0.039443515 -0.02289569 0.002677843 -0.010983559 0.018305035 -0.041823022 0.006417092 -0.0195121 0.022137735 -0.011332375 -0.021457233 -0.009807583 -0.0229274 0.03609482 -0.02369618 -0.025378712 0.01955018 -0.007475683 0.022163728 0.021923328 -0.017494727 0.0010458406 -0.019994829 -0.014645988 0.00022465372 0.01992023 -0.026115907 -0.005328633 -0.009200545 0.019860387 -0.014942461 -0.02691098 0.018408265 -0.040311515 0.00034502213 0.03875743 -0.030731503 0.0054008984 -0.033448856 -0.015669348 0.008683241
179 -0.0005907893 0.025932673 0.011776764 0.020958515 -0.0060344306 0.008478495 0.009732583 0.05136338 -0.0267231 0.03442234 -0.0093624955 0.024817402 -0.032258704 0.018120186 -0.031214276 0.00486101 -0.036803085 0.03371469 -0.025148062 -0.023264913 -0.0071143396 -0.030965013 0.025078619 -0.011156462 -0.048743296 0.035013672 -0.022428313 0.036046404 0.02494249 -0.0123341065 0.021873854 -0.015920052 -0.017778313 -0.015398858 0.01279595 -0.02018456 0.008082761 -0.028417455 0.032074288 -0.034849305 -0.03096946 0.007276928 -0.025494903 -0.010087915 0.05281589 -0.022755558 -0.0024452133 -0.018428989 -0.017750345 0.010134997
104 -0.0067947065 0.013505628 0.011818205 0.00758904 -0.004345533 -0.0032189842 0.020619135 0.02171615 -0.011237883 0.033786215 -0.015069207 0.008700796 -0.01001971 0.009623272 -0.02781188 -0.0005974836 -0.016866995 0.01655965 -0.00420076 -0.008464795 -0.017303307 -0.027290901 0.033905547 -0.023700243 -0.040103257 0.025445212 -0.020398207 0.013332227 0.020294083 -0.017761748 -0.0007464388 -0.004720692 -0.020970374 -0.0058258856 0.01800681 -0.017057614 0.0041940096 -0.01431069 0.011654499 -0.020747753 -0.014119864 0.016613102 -0.033039473 0.00034387677 0.039693512 -0.023068344 -0.0023883695 -0.026813723 -0.0008198884 0.0024610804
92 0.0057987035 0.017519463 0.025276627 0.0027486172 0.00012412846 -0.009879391 0.028938815 0.04323328 -0.011263954 0.034341015 -0.020824721 0.0092340605 -0.03140158 0.023929091 -0.032360606 0.007889399 -0.030189317 0.01825868 -0.014405046 -0.007953391 -0.030276021 -0.021865813 0.030246634 -0.01251593 -0.031876978 0.023811044 -0.0054574367 0.017275024 0.033827715 -0.02836906 0.012951332 -0.016916033 -0.009825218 -0.006853689 0.018560972 -0.03068246 -0.01183441 -0.014453969 0.009236251 -0.03250982 -0.024359187 0.010710104 -0.029370274 -0.019395024 0.040462963 -0.030358875 -0.011374751 -0.024132846 -0.010822618 0.0013348911
144 -0.003075944 0.021542072 0.013068442 0.016856086 -0.0027006455 -7.1958224e-05 0.011392823 0.03377574 -0.015907573 0.030354302 -0.016397087 0.01612382 -0.026778031 0.022984218 -0.025809772 0.01826924 -0.026512995 0.029053101 -0.0167277 -0.009411873 -0.01566754 -0.03081567 0.032794684 -0.023021657 -0.038930718 0.031525828 -0.0137973875 0.025312806 0.018481288 -0.018181503 0.018702146 -0.011596729 -0.007937075 -0.0017611143 0.010877232 -0.024396896 -0.006386255 -0.010160174 0.009257774 -0.02710624 -0.019088626 0.005050761 -0.033506226 -0.007226039 0.031356588 -0.037191436 -0.005330645 -0.02061372 -0.020411028 0.0005668841
113 -0.010567207 0.014351015 0.008605243 0.00052563596 0.001983512 -0.008340661 0.020738188 0.023632413 -0.013216665 0.035380505 -0.02496041 0.0027974392 -0.013986548 0.017087795 -0.038421094 0.0036122582 -0.02944325 0.03011832 -0.012342382 -0.0029426839 -0.021334432 -0.019978989 0.021631004 -0.025259897 -0.040863913 0.029788982 -0.018165842 0.018213782 0.020166015 -0.02259075 0.017738983 -0.010710365 -0.021220649 -0.007560555 0.007826192 -0.028615823 0.00727077 -0.021672294 0.005883636 -0.027246917 -0.022405757 0.0139820725 -0.028094897 -0.0038493734 0.022900084 -0.035398528 -0.010887758 -0.01682365 -0.0034831287 0.016502565
49 -0.0022725142 0.013243492 0.0063256123 0.011934144 -0.0064117215 -0.0081213275 0.0132597275 0.039625514 -0.01568931 0.0430408 -0.011472886 0.006175353 -0.014943948 0.009094728 -0.045993455 0.0036453933 -0.017042788 0.034782376 -0.026515212 -0.027025172 -0.017118182 -0.01953126 0.017458994 -0.02826834 -0.0380307 0.03244951 -0.015035594 0.02444319 0.035715777 -0.023743005 0.0094868485 -0.003230143 -0.011484692 -0.014640816 0.028626345 -0.018875895 -0.012129754 -0.013223291 0.01157062 -0.01582849 -0.02835268 0.025251562 -0.036749005 0.0029271694 0.033661015 -0.020164965 -0.014721267 -0.040638827 -0.022698283 0.0078050457
8 -0.0040283427 0.02555726 0.034300406 0.01869462 0.008555417 -0.01324182 0.012600745 0.037355885 -0.019366791 0.039657213 -0.02987826 0.016319094 -0.027879233 0.016372131 -0.03961917 0.008538778 -0.03769613 0.029551614 -0.027598256 -0.0076763667 -0.019136855 -0.027334902 0.034615025 -0.015583533 -0.049537167 0.022992289 -0.020236451 0.01609891 0.03265514 -0.031946927 0.01049422 -0.021308633 -0.024548711 -0.0026521923 0.025608614 -0.028217893 -0.0091118775 -0.019829404 0.010402695 -0.027956648 -0.025964113 0.0112062385 -0.049389087 -0.019766979 0.0484946 -0.044994272 -0.008302371 -0.03509216 -0.01680606 0.010440711
99 0.001357682 0.025504004 0.029562537 0.01311915 0.0037321537 -0.0066660764 0.0077305245 0.039843988 -0.00848214 0.021595981 -0.008892179 0.017464679 -0.011243158 0.014036315 -0.031986654 -7.956953e-06 -0.020096654 0.0126824295 -0.009403348 -0.014315208 -0.011569036 -0.033493564 0.02311009 -0.019489698 -0.040729027 0.019931342 -0.014635243 0.0094044935 0.020998525 -0.020207733 0.0068405336 -0.005218806 -0.010740649 0.0028074568 0.014050892 -0.029387048 0.0028030844 -0.011990658 0.019532893 -0.025649374 -0.01168516 0.0065884762 -0.0339183 -0.015361133 0.040168855 -0.019911326 0.0061321026 -0.022159183 -0.012120358 0.002703595
80 -0.0062592374 0.02047764 0.012023395 0.008839025 0.0003611924 -0.010743035 0.01015276 0.03688243 -0.025334496 0.04000488 -0.015763072 0.01733255 -0.029188639 0.024196435 -0.026107684 0.004166562 -0.023508118 0.03469742 -0.0097681405 -0.008674122 -0.021138093 -0.030915242 0.02426608 -0.01969276 -0.04112345 0.015061796 -0.0024066875 0.023972549 0.025468698 -0.029383926 0.017610183 -0.012473074 -0.009653473 -0.006916663 0.0154365245 -0.019390065 0.006014654 -0.022222856 0.025815142 -0.030386569 -0.022311214 0.015263986 -0.040465534 -0.0171846 0.031211747 -0.041816257 -0.01349903 -0.03781427 -0.010438781 -0.0024872043
94 -0.0053604506 0.011845229 0.026247293 0.010985837 -0.0008522666 0.0044685677 0.022071185 0.037788652 -0.025094897 0.04290398 -0.012440935 0.005378545 -0.030819371 0.016857807 -0.026257453 0.01172374 -0.020264564 0.036209565 -0.01947771 -0.0052301544 -0.021866798 -0.032184437 0.03655205 -0.013526039 -0.028812679 0.021398272 -0.02057355 0.02992711 0.020603085 -0.028558437 0.003411961 -0.020037796 -0.025345564 -0.0030463766 0.018658742 -0.034119256 0.005475364 -0.025453772 0.010070475 -0.031663053 -0.025979277 0.014202679 -0.027430806 -0.0058161533 0.030348282 -0.03866981 -0.0033608144 -0.032691143 -0.015753763 0.013287222
14 0.008025716 0.027461298 0.020090973 0.009996428 -0.008956721 -0.0047126156 0.02490333 0.035826363 -0.018591736 0.023334168 -0.014401529 0.019482886 -0.020811021 0.018417256 -0.024980024 0.012959274 -0.033141997 0.020806225 -0.018532543 -0.010876931 -0.005518158 -0.01710918 0.017311987 -0.008095209 -0.034244724 0.018085824 -0.0027679657 0.025347367 0.022678189 -0.0063423426 0.017318934 -0.0009877752 -0.01225523 -0.01324123 0.020469213 -0.018603781 -0.0025481884 -0.017755972 0.016159587 -0.009204627 -0.024390636 0.016338404 -0.02491872 -0.00025156728 0.036248855 -0.030352924 -0.013157551 -0.03297002 -0.018045262 0.011231856
89 -0.007234592 0.016281875 0.020298338 -0.0031241418 -0.00890373 -0.0024517854 0.02292129 0.03685068 -0.015425587 0.036591608 -0.023574995 0.0031766638 -0.014573527 0.021804381 -0.03694338 0.008708 -0.026181186 0.019641306 -0.024199253 -0.016248113 -0.01728825 -0.03178599 0.010232449 -0.023872077 -0.021280328 0.016697489 -0.019531064 0.020825299 0.015261102 -0.017321816 0.014364381 -0.01233966 -0.012062395 -0.018843908 0.007953667 -0.03513229 -0.0033346966 -0.008045594 0.0016078681 -0.031181497 -0.019917285 0.00619082 -0.031201277 -0.0048681474 0.040684316 -0.039605767 -0.0074803573 -0.029077908 -0.016019454 0.01477358
20 0.0025624584 0.01682014 0.008303414 0.016887002 -0.006028307 -0.0011641878 0.025583955 0.033325262 -0.024036907 0.02201629 -0.027755165 0.012947045 -0.015464468 0.025351074 -0.02335178 0.011488212 -0.034744438 0.030408667 -0.021329954 -0.02171909 -0.02313631 -0.03153843 0.022782536 -0.010781216 -0.038452234 0.028946172 -0.008189825 0.026671529 0.018089198 -0.009746373 0.0019735002 -0.008206638 -0.016575418 -0.0057191085 0.015075421 -0.023710322 0.005759763 -0.012265314 0.017756395 -0.029442899 -0.025603967 0.0042644506 -0.028429348 -0.00053228537 0.037640885 -0.026586305 -0.013755261 -0.021190248 -0.0014333385 0.012311217
261 0.0022501405 0.024755366 0.015461052 0.0072237556 -0.0041301656 -0.0056761242 0.021116355 0.019532863 -0.0023014785 0.032684624 -0.024804227 0.003732641 -0.008552076 0.0068652597 -0.018274892 0.013461552 -0.016273882 0.024461789 -0.013971597 -0.010029689 -0.012631508 -0.018747462 0.025776276 -0.0054935804 -0.02396888 0.015967652 0.0009735793 0.024001576 0.021224251 -0.015889462 0.0034203036 -0.017080583 -0.014275346 -0.0046929754 0.0050345836 -0.015499496 0.0012264774 -0.011380957 0.005219756 -0.0135118915 -0.026157087 0.017063657 -0.025443532 -0.009866293 0.020929972 -0.018952 0.0014315462 -0.018476909 0.000316689 0.0060574524
7 0.001731052 0.022055691 0.024282806 0.010589641 0.0055263652 -0.007700897 0.01848401 0.03290863 -0.0069433856 0.026515452 -0.012501388 0.004344864 -0.028306263 0.026638512 -0.038269524 0.00037287947 -0.0368333 0.016415369 -0.02130367 -0.0066935485 -0.015498423 -0.02720374 0.027027085 -0.010640866 -0.033693034 0.0337109 -0.0033628186 0.018061997 0.02510518 -0.016621033 0.017125461 -0.013000875 -0.0268866 -0.013600305 0.009682899 -0.028872749 -0.007073215 -0.017249243 0.015672218 -0.013539212 -0.032445896 0.014629285 -0.032043576 -0.0052459263 0.039021928 -0.042647135 -0.011841262 -0.032136768 -0.019996345 0.009208149
273 0.0041765654 0.015574369 0.033638492 0.005819965 -0.007392187 0.0081212325 0.020714704 0.03474497 -0.026894704 0.031494934 -0.03314176 0.001987251 -0.031996105 0.03243838 -0.05212115 0.021767339 -0.03284125 0.024977513 -0.019708129 -0.012541877 -0.006529824 -0.02317419 0.0244002 -0.015083198 -0.049892053 0.033162087 -0.020584248 0.014985221 0.04089923 -0.032800127 0.018995613 -0.019548468 -0.028982801 -0.026232263 0.029083494 -0.036655437 -0.007710783 -0.020735523 0.008060948 -0.033335015 -0.021281298 0.014547861 -0.047728706 -8.673688e-05 0.04897648 -0.043598983 0.0028785456 -0.04589542 -0.0023412947 -0.0012772493
13 0.0059390916 0.0055089365 0.020274078 -0.00040837284 7.0807866e-05 -0.00402688 0.022090249 0.015373205 -0.014782249 0.015978506 -0.012024781 0.002261886 -0.0048843436 0.023576675 -0.026850529 0.014803699 -0.02157018 0.027881354 -0.0016299597 -0.004245784 -0.015538675 -0.010035538 0.023755878 -0.0097784 -0.025877725 0.020661715 -0.018582214 0.021339007 0.018571904 -0.008095296 0.00920931 -0.0049454593 -0.011713511 0.0016556871 0.01823427 -0.026352732 0.003844942 -0.008220161 0.013791472 -0.008105177 -0.025070759 -0.0006398793 -0.021858461 -0.0068104323 0.029329527 -0.03109694 -0.004592294 -0.011744192 -0.011056651 -0.00011246941
6 -0.006604384 0.0134125585 0.025422368 0.01098293 -0.0054136505 -0.008030172 0.008632393 0.032747287 -0.013965537 0.043332946 -0.025338536 0.01508952 -0.029656155 0.029813314 -0.037323598 0.019593148 -0.03126302 0.029554242 -0.022784788 -0.010049392 -0.009349346 -0.036363196 0.013176347 -0.013862562 -0.026172085 0.018021705 -0.017298983 0.010619461 0.028249003 -0.0153531805 0.006257854 -0.017474681 -0.013269839 -0.0019678213 0.019793982 -0.028163841 -0.010482988 -0.01771729 0.01145264 -0.016761247 -0.017240658 0.015221196 -0.04149132 -0.013994412 0.038919147 -0.04534985 -0.00781945 -0.028538834 -0.009550177 0.012316799
224 -0.0052540977 0.0240413 0.0070240633 0.014686694 0.0065860255 -0.012922756 0.019836238 0.02785423 -0.018570859 0.02836855 -0.01529694 0.012183034 -0.020551894 0.026669113 -0.024637595 0.004343212 -0.016059473 0.031369567 -0.0051278486 -0.021294473 -0.013142397 -0.030558554 0.021522384 -0.012617314 -0.03983449 0.013167361 -0.012477466 0.0150162075 0.016143948 -0.017242538 0.007331949 -0.0030387247 -0.0056518563 -0.0047484254 0.0077246693 -0.025724152 -0.002601871 -0.012023107 0.0020189786 -0.022885777 -0.018500192 0.0015425655 -0.035789356 0.0004028177 0.02232868 -0.033182625 -0.001055427 -0.019279107 -0.015250521 0.012149301
116 0.0052529695 0.016757943 0.007239834 0.004401726 -0.0008571142 -0.0014337956 0.021353956 0.029916668 -0.019834757 0.020472225 -0.02003523 0.010714924 -0.023402402 0.010104147 -0.026468823 0.012757076 -0.03202005 0.022235677 -0.0056165666 -0.023264823 -0.0071418295 -0.026506348 0.0324715 -0.011556591 -0.043297216 0.02903857 -0.008065021 0.019064898 0.032677658 -0.025114592 0.011925864 -0.0063306843 -0.0072400873 -0.0050289826 0.025102058 -0.0316844 0.0003724526 -0.005648604 0.021645835 -0.013593637 -0.029059013 0.0077875913 -0.030322742 -0.0046909847 0.040341172 -0.031599443 -0.009297201 -0.026707334 -0.0040919245 0.0035819758
284 -0.004780349 0.02963085 0.0299208 0.011155563 0.01048313 -0.014992309 0.018949032 0.033837453 -0.011200335 0.028905297 -0.017965356 0.004542349 -0.025955193 0.0149691645 -0.04755891 0.0068477625 -0.024804404 0.036965553 -0.011259652 -0.010281058 -0.022590345 -0.039427627 0.032724448 -0.031732384 -0.041992504 0.024037827 -0.0134003395 0.019676566 0.028294545 -0.02436916 0.002095455 -0.016263839 -0.01778038 -0.010474491 0.027473912 -0.025766846 0.002719099 -0.013042308 0.022675717 -0.03061411 -0.034734942 0.011839402 -0.04743682 -0.014260976 0.044126753 -0.039742332 -0.00886472 -0.032451164 -0.006816069 0.014953836
320 -0.008366512 0.019603558 0.017668065 0.013102038 0.0010179835 -0.006477434 0.017799892 0.050625663 -0.030330952 0.03926911 -0.025690792 0.019684432 -0.030565077 0.028933303 -0.038938638 0.012943509 -0.043031394 0.042689823 -0.020990623 -0.008532854 -0.024115028 -0.026946198 0.027546844 -0.03129863 -0.04765174 0.037393183 -0.019116713 0.02798205 0.039456256 -0.018731337 0.003732425 -0.012985672 -0.022846723 -0.013745132 0.0103700245 -0.03915954 -0.009719134 -0.02766764 0.02263484 -0.028070727 -0.034226608 0.021051243 -0.053947337 -0.0021809253 0.047966696 -0.033572737 -0.0152090015 -0.028911626 -0.01730406 0.0006220082
181 -0.00025829868 0.020709988 0.020680187 0.004737545 -0.010311499 0.008017924 0.027053807 0.041383523 -0.014706407 0.026889196 -0.013597861 0.012371807 -0.0310585 0.017202957 -0.04980004 0.0047210893 -0.027388621 0.0319603 -0.01728055 -0.010027372 -0.0066260686 -0.019793281 0.027767552 -0.010456245 -0.037434027 0.0152793 -0.010207429 0.016339771 0.022928538 -0.01718899 0.0039645173 -0.00038961775 -0.026609626 -0.018678157 0.021681696 -0.039158188 -0.014527497 -0.020539707 0.012009972 -0.022099994 -0.02719449 0.00501745 -0.031380415 -0.0061939564 0.044884928 -0.044208188 -0.0004334597 -0.039508175 -0.001452778 0.009233055
291 -0.0015368516 0.023686858 0.012325677 0.009300655 0.004196203 -0.005092583 0.02555736 0.033892427 -0.022920376 0.02182433 -0.012322092 0.015358477 -0.023661798 0.021945719 -0.029458255 0.0042071254 -0.01926733 0.01880162 -0.021506464 -0.012163729 -0.010223965 -0.025512295 0.028574562 -0.023223083 -0.038161095 0.023751538 -0.014104685 0.0136445165 0.013850624 -0.01066106 0.00079313334 -0.017150344 -0.0070380615 -0.003916131 0.0137375835 -0.025192436 -0.00087030896 -0.019282319 0.015709251 -0.009812782 -0.021799117 0.018070564 -0.032075785 0.0019357728 0.030878318 -0.028976103 -0.0113102645 -0.01872765 -0.008455887 0.017230941
185 0.0006195377 0.019913018 0.019912655 0.0025831168 0.0003732727 -0.007111189 0.02542607 0.032727476 -0.013952254 0.021216342 -0.017877467 0.00666937 -0.017835256 0.025459575 -0.03429191 0.0029299427 -0.015257355 0.026981441 -0.006985356 -0.0072451006 -0.02163619 -0.014310476 0.02743871 -0.026000338 -0.024946427 0.018783042 -0.014661949 0.018571677 0.029172186 -0.023187514 0.0074966215 -0.011235664 -0.014582526 -0.014850092 0.005550337 -0.014949295 0.00530018 -0.016658036 0.011106901 -0.018499034 -0.02877565 0.0027969654 -0.040942755 -0.011579222 0.022613054 -0.039258063 -0.0031117445 -0.017688744 -0.011574919 0.015132951
225 0.0041895094 0.0263229 0.026053457 -0.00097327266 -0.0024930285 -0.008950208 0.02294065 0.033721305 -0.012436559 0.037524275 -0.014169742 0.005160334 -0.026530663 0.0074866414 -0.02350757 0.000575211 -0.028207446 0.031359144 -0.02302155 -0.01602049 -0.014977544 -0.018466052 0.028189199 -0.027999202 -0.027319603 0.021578182 -0.013315473 0.011953326 0.03255625 -0.019907 0.012343881 -0.016467046 -0.013707719 -0.0031630385 0.020409523 -0.022002686 -0.013306714 -0.012698726 0.0055017113 -0.02859598 -0.011845463 0.015713586 -0.036819316 -0.0032963934 0.03737444 -0.036652356 0.0032763213 -0.01932375 -0.0055327495 0.012082919
149 -0.004664812 0.024768515 0.014499624 0.0013842445 -0.0025786438 0.0010379985 0.017555837 0.040981937 -0.017716132 0.03750277 -0.028593937 0.015823545 -0.014129826 0.024797028 -0.026106237 0.0012763428 -0.028173586 0.020599775 -0.004517299 -0.019429443 -0.016438093 -0.016616719 0.021872798 -0.021506233 -0.044252608 0.018422492 -0.01291989 0.013829729 0.03384807 -0.0091604125 0.015515005 -0.004446064 -0.008337855 -0.012047417 0.008851967 -0.030371701 -0.002558224 -0.020912472 0.013302575 -0.025529495 -0.019920873 0.014083026 -0.029929556 -0.0046697543 0.027809639 -0.028321633 -0.011732944 -0.030643566 -0.010287471 0.0026460234
5 -0.008700276 0.025242314 0.016355326 0.0062676137 0.007521134 0.0010908614 0.013979641 0.022652304 -0.0057095517 0.041777533 -0.02759718 0.004628143 -0.016457755 0.020006768 -0.04568165 0.019529887 -0.020740625 0.030972494 -0.010725679 -0.014236424 -0.008550411 -0.023125943 0.0274713 -0.013505847 -0.03051051 0.023144193 -0.009798209 0.009937548 0.021000458 -0.013259567 0.005911537 -0.004654034 -0.0075766114 -0.0156251 0.017691039 -0.016034123 -0.012028156 -0.025143137 0.022767022 -0.026998853 -0.03262375 0.010842142 -0.024994263 -0.015824968 0.023553988 -0.039425876 -0.008599337 -0.0219125 -0.0074539 0.011169074
319 0.0062157945 0.01833337 0.01089906 0.0045661232 -0.0047042863 -0.005839568 0.024411203 0.02424797 -0.00571343 0.024630865 -0.017341897 0.009041882 -0.013436797 0.019652892 -0.02572066 0.0071304557 -0.018098578 0.018116068 -0.012578948 -0.0039564855 -0.020563252 -0.030713595 0.009454642 -0.008244107 -0.021463953 0.015985433 -0.00906835 0.011541398 0.022738911 -0.008323766 0.0029427083 -0.014678119 -0.0131220585 -0.014566541 0.011865412 -0.02308949 -0.011956028 -0.017891891 0.008394804 -0.029841367 -0.016121205 0.014656454 -0.03418973 -0.008968663 0.037352897 -0.03922951 -0.011486088 -0.022926534 -0.0076916865 0.0029943662
111 -0.006218521 0.028141826 0.007955889 0.013981285 -0.0074563115 0.00017774265 0.018642396 0.022269541 -0.02166814 0.028288744 -0.024499528 0.006011507 -0.026544323 0.016133571 -0.030527702 0.0029586991 -0.019305704 0.021802535 -0.011254865 -0.0016717952 -0.024088334 -0.022492459 0.018714137 -0.017439678 -0.031753194 0.02068617 -0.014915595 0.020393558 0.026490696 -0.021533336 0.0092074275 -0.01328542 -0.013890791 -0.011492982 0.022177711 -0.01802772 0.003814494 -0.02368278 0.020393841 -0.01872587 -0.019429397 0.018879961 -0.028997898 -0.0021637059 0.03207378 -0.020956924 -0.012330055 -0.025550887 -0.0049405303 0.01467015
17 -0.00030104787 0.02834634 0.022760976 0.0027333035 0.0020616404 -0.004878788 0.025084782 0.01940928 -0.016334765 0.01955188 -0.027084624 0.019045174 -0.027727406 0.01367778 -0.03531045 0.016424794 -0.025078382 0.018266583 -0.013687771 -0.02295231 -0.01963128 -0.02426073 0.017750522 -0.016674742 -0.039901808 0.025004063 -0.0037944133 0.014982396 0.024038425 -0.015091276 0.009335994 -0.0041089943 -0.012821952 -0.010537093 0.023914652 -0.023089651 -0.00019203154 -0.024408653 0.008733702 -0.019012343 -0.020005753 0.012723691 -0.032177683 -0.010396375 0.038079448 -0.035198286 -0.010448827 -0.035437156 -0.0020266185 0.0048675365
161 -0.011495063 0.023181513 0.02085383 0.015462962 0.0047366354 -0.005929176 0.0079649845 0.03533069 -0.01048363 0.02482636 -0.027505968 0.0023493303 -0.023697462 0.020988997 -0.035337746 0.0054809996 -0.019140277 0.017589454 -0.007600527 -0.014533435 -0.019153267 -0.028643621 0.031129979 -0.019406883 -0.023014031 0.022859624 -0.002951884 0.023356415 0.03192688 -0.016588012 -0.00083478645 -0.01960067 -0.02030269 -0.0069349646 0.014870715 -0.02503877 0.007581416 -0.011401063 0.016536228 -0.017561786 -0.023023205 0.014826964 -0.036585905 -0.003481348 0.03380046 -0.034048814 0.0061903577 -0.017421013 -0.0117466645 0.00862064
223 -0.009346577 0.017920751 0.015969146 0.004711657 -0.008830307 0.00070205994 0.011206475 0.02009438 -0.010378956 0.03214428 -0.01698373 0.0064945645 -0.009712695 0.008891138 -0.034148075 0.010252585 -0.016189726 0.024619048 -0.004836954 -0.00954204 -0.014012491 -0.016519329 0.020718878 -0.01842758 -0.031221922 0.01673649 -0.013826972 0.008438563 0.02194362 -0.01599506 0.017118726 -0.014595759 -0.012872673 -0.017726978 0.017296419 -0.015996914 0.0025823612 -0.007928852 0.010920044 -0.011349066 -0.023788126 0.0012468396 -0.034920745 -0.0050148824 0.01920324 -0.018750919 -0.006705461 -0.025890013 -0.016819503 0.0038570594
109 -0.0020106821 0.014082413 0.012804895 -0.00024617987 -0.0019281105 -0.012527564 0.0071693775 0.022528453 -0.009652769 0.024603004 -0.020918652 0.0035913102 -0.01900702 0.010077744 -0.0321062 0.012763777 -0.027847093 0.014104578 -0.0064529306 -0.0051393155 -0.01192211 -0.028599387 0.021835295 -0.018163465 -0.03464464 0.013428486 -0.013868116 0.020056223 0.01576411 -0.007945687 0.006073454 -0.018036524 -0.018647626 0.002613602 0.013882629 -0.020153197 0.0017925721 -0.012232679 0.0097320285 -0.013088122 -0.026592474 0.004668906 -0.022163102 -0.009322286 0.028524015 -0.03087681 -0.011022925 -0.022204833 -0.0058437795 0.01019625
171 0.0065319366 0.030127617 0.015945153 -0.00025524234 0.010370722 0.006098337 0.025163502 0.027474403 -0.007775958 0.03965847 -0.01427393 0.011742461 -0.027405098 0.020280084 -0.0388318 0.0032145188 -0.024795778 0.031860054 -0.021634804 -0.006867379 -0.010224151 -0.035478495 0.0325106 -0.014717652 -0.025824327 0.013619082 -0.019292243 0.02321451 0.020938851 -0.012048434 0.002679911 -0.018343145 -0.02855598 -0.0041265944 0.022614848 -0.018176233 0.0035643142 -0.010341145 0.021644033 -0.029982556 -0.0145044 0.0033644983 -0.03506581 -0.008529637 0.022619594 -0.042534243 0.007881723 -0.03063416 -0.004217005 0.0043227402
150 -0.0015169082 0.023945158 0.011759216 0.0018151978 -0.0070957257 0.002150919 0.025902303 0.031117702 -0.0143101625 0.029431473 -0.014787936 0.0104242405 -0.0096798595 0.018628312 -0.033070654 0.017282464 -0.023592424 0.030288214 -0.016026525 -0.009993332 -0.0067172 -0.016692268 0.030893387 -0.014738229 -0.03129463 0.013486649 -0.018463098 0.02685975 0.017145652 -0.015749265 0.014513082 -0.018477516 -0.011102993 -0.012564589 0.012623034 -0.030349823 0.0070917667 -0.0130645335 0.0038560717 -0.018834367 -0.013897717 0.013399693 -0.03864768 -0.014265591 0.024688147 -0.020633938 0.0052277884 -0.022022763 -0.0117326705 0.010888711
128 -0.010843374 0.0205413 0.005241877 -0.0023712972 0.002259907 0.0018634842 0.016241321 0.021311602 -0.0064059705 0.031020768 -0.014124046 0.0038242417 -0.0148735065 0.021769326 -0.021472482 0.012498171 -0.019916855 0.011850377 -0.012923902 -0.01108948 -0.012960641 -0.02439307 0.02856942 -0.020154191 -0.035000566 0.016877921 -0.009618028 0.020858955 0.020838045 -0.01477633 0.00022880155 -0.011937263 -0.0046618916 -0.010427264 0.013145597 -0.021704668 2.6525728e-05 -0.022023108 0.008036556 -0.023858953 -0.019797288 0.004862435 -0.016877046 -0.0045041987 0.027192784 -0.016842362 -0.0048247087 -0.025895068 -0.004091786 -0.0012861481
136 -0.009163551 0.02462045 0.011779099 0.009245521 -0.0022085311 -0.0016867447 0.02505963 0.031067958 -0.012531317 0.035832677 -0.02063657 0.006686612 -0.028018167 0.025004584 -0.038230058 0.0003733759 -0.026564537 0.024908997 -0.00402106 -0.009687709 -0.021187004 -0.031077636 0.032025177 -0.02532409 -0.03894553 0.016172694 -0.017164554 0.016390638 0.021495031 -0.019842368 0.012243622 -0.018379662 -0.017502176 -0.017604368 0.016925227 -0.027178148 0.002687133 -0.013319638 0.019184127 -0.02634871 -0.03266317 0.004819917 -0.034216642 -0.00937555 0.026537886 -0.03357617 0.0051184776 -0.021199582 -0.0043555438 0.012515262
226 0.006220632 0.019118233 0.0049862834 0.01382364 0.0013697264 0.0002805609 0.014371843 0.018411487 -0.016332401 0.03303989 -0.021046126 0.01822646 -0.021831347 0.02119543 -0.016486688 0.0039330996 -0.02891467 0.025616812 -0.0035706277 -0.016576225 -0.007288635 -0.019632343 0.027012723 -0.006298213 -0.028388571 0.009889197 -0.0031418125 0.007752592 0.020201517 -0.011268519 0.005405991 -0.011490223 -0.016413629 -0.0047366857 0.014654162 -0.018391652 -0.008199625 -0.004666526 0.010086093 -0.016642535 -0.014170095 0.0051060743 -0.01980266 -0.011686813 0.03716815 -0.02613443 -0.012189295 -0.02119856 -0.009580132 0.012980138
243 0.00026700424 0.022926442 0.010325747 0.00091119437 -0.0077155414 -0.011105356 0.0057705985 0.018912265 -0.016410306 0.026135042 -0.018778889 0.015042359 -0.011006648 0.021635864 -0.019214826 0.018088879 -0.020625206 0.026685143 -0.018511925 -0.021646962 -0.0106695695 -0.01873055 0.029938739 -0.021433564 -0.022524813 0.02459506 -0.016283618 0.014111318 0.014911843 -0.012685117 0.016589334 -0.00014187717 -0.013273904 0.000868712 0.0066341124 -0.030111296 -0.006333653 -0.016541962 0.017348696 -0.009413085 -0.029952023 0.0025205056 -0.026980532 -0.011144069 0.028398745 -0.019460443 0.0026483296 -0.03391174 -0.011851486 0.007914331
3 -0.003377554 0.020065185 0.010116543 0.011351986 -0.0058966153 0.0017044651 0.010056664 0.020997012 -0.016456354 0.01595342 -0.014376589 0.017490994 -0.02452179 0.0062930128 -0.0265929 0.012087515 -0.022346472 0.010618261 -0.015042879 -0.016828807 -0.0029506013 -0.018941976 0.023779597 -0.010377921 -0.028588438 0.015720036 -0.001730123 0.01656093 0.029110655 -0.015319651 0.004010647 -0.0056053484 -0.018617624 -0.0014084423 0.004383291 -0.021296993 0.0062178555 -0.011696809 0.011489013 -0.0145679675 -0.018413346 0.007942563 -0.036275983 -0.007668408 0.024569226 -0.031221066 -0.011685787 -0.030293897 -0.008129739 -0.0015245298
310 -0.0044909255 0.011757585 0.009082555 0.011279032 -0.009546882 0.0005138058 0.016299048 0.018553978 -0.006400454 0.024686744 -0.022383574 0.01735098 -0.02347049 0.01998975 -0.032509517 0.002687154 -0.015808767 0.019617708 -0.013116491 -0.020957917 -0.018588832 -0.03159168 0.0341678 -0.015538342 -0.023383513 0.01946435 -0.0018794191 0.007980618 0.018013533 -0.013255762 0.003303889 -0.00036603873 -0.023641564 -0.00626495 0.024440315 -0.02724188 0.0017238193 -0.006563322 0.009526929 -0.024630027 -0.03341628 0.021590788 -0.023558447 -0.015262523 0.038326006 -0.024596855 -0.010040313 -0.027053589 -0.003337579 0.0053388835
343 0.0029475286 0.022509001 0.021300785 0.007632718 -0.005921091 -0.011297411 0.016147053 0.015233273 -0.004350936 0.015186217 -0.006977647 0.011048705 -0.018886017 0.019151134 -0.031822264 0.0049462975 -0.02329722 0.027788378 -0.011171514 -0.019128842 -0.02005896 -0.020130293 0.023920745 -0.019618087 -0.02550081 0.022452714 -0.015110585 0.023113208 0.014257014 -0.0069024665 0.00018078716 -0.011810593 -0.003733649 -0.0033201084 0.011198089 -0.027749285 0.0012633294 -0.008222407 0.018241582 -0.008730592 -0.023348931 0.007131828 -0.023967521 -0.0070145256 0.03202305 -0.0193613 -0.001087342 -0.021387296 -0.011735906 0.004072558
219 0.0030238982 0.028115788 0.018657034 0.00023196108 0.0011684943 -0.003826139 0.014093128 0.01961271 -0.009524846 0.035114057 -0.02141024 0.0010150087 -0.02798867 0.025542008 -0.042591576 0.013718552 -0.012968427 0.0149872815 -0.021402042 -0.0067326 -0.014759592 -0.019889237 0.022902176 -0.018320454 -0.024787169 0.016900335 -0.014437265 0.0053907083 0.023689507 -0.020085167 0.018907959 -0.015068665 -0.019734258 -0.017046584 0.0157142 -0.031289402 0.001180378 -0.010063857 0.0007943806 -0.027192824 -0.012068216 0.019769533 -0.028131727 -0.0003299917 0.020533025 -0.036952678 -0.006886744 -0.024657182 -0.0090396525 0.016287906
204 0.0075086094 0.024015814 0.008754619 0.010119869 0.010380358 0.0058972817 0.020498997 0.022539536 -0.006997775 0.03921222 -0.018378649 0.007252162 -0.014611329 0.022689596 -0.027574403 -0.0002624795 -0.03218046 0.017644268 -0.0165804 -0.020481149 -0.021090524 -0.031735394 0.019076908 -0.019886946 -0.02890308 0.030420592 -0.015147532 0.013610389 0.028932652 -0.019549692 0.008940477 -0.00981338 -0.0059452914 -0.011164944 0.00997935 -0.017516062 -0.0008186596 -0.008132839 0.012502423 -0.025121577 -0.030526549 0.01698131 -0.03020104 -0.005392743 0.02862355 -0.028787034 0.0006700954 -0.0181857 -0.018954994 0.0033070443
180 0.00029481054 0.011384809 0.020873273 0.004333137 0.00095917674 -0.006031807 0.019830378 0.030466378 -0.008479877 0.027678208 -0.022284366 0.00058386265 -0.02387242 0.007865235 -0.024605338 0.013610416 -0.021236634 0.017415276 -0.006481794 -0.005100543 -0.007912596 -0.024154222 0.020459956 -0.026888957 -0.032540374 0.028208232 -0.015597921 0.027554 0.0291402 -0.012451387 -0.002538741 -0.0035661983 -0.020280562 -0.006350483 0.009233435 -0.03020037 0.0072893966 -0.023624646 0.022126619 -0.018420773 -0.022161849 0.006636244 -0.034296338 -0.014225604 0.034300964 -0.030911593 -0.0053356504 -0.019482676 -0.007708168 0.0087406095
24 0.00036713106 0.022233704 0.018853532 0.0007396491 0.0076390137 -0.0009909439 0.024694147 0.030871216 -0.022287358 0.03914875 -0.016016634 0.0076493206 -0.028311739 0.010613729 -0.025506297 0.013873854 -0.025103824 0.020649094 -0.015635924 -0.017996242 -0.025173103 -0.017788915 0.026766283 -0.01660178 -0.028894031 0.013819912 -0.017232293 0.020521088 0.025816593 -0.008706431 0.0011407274 -0.020139568 -0.02123387 -0.0033224274 0.020965632 -0.019266412 -0.00794081 -0.013031179 0.0225276 -0.028295208 -0.016994124 0.011181781 -0.041894186 -0.005445444 0.028986618 -0.037296195 -0.013430285 -0.027605701 -0.014863523 0.0024185772
187 0.006876994 0.031595476 0.017655196 -5.5041717e-05 0.001054115 -0.01129843 0.018747954 0.029156843 -0.01034514 0.041545674 -0.025158517 0.014304084 -0.017796658 0.022848945 -0.04488621 0.015722565 -0.027216198 0.027511826 -0.011046755 -0.019217296 -0.021149099 -0.024670564 0.038724463 -0.015277091 -0.043815948 0.02746981 -0.003021343 0.022179134 0.03902964 -0.027518993 -0.00032523132 -0.020291056 -0.011709942 -0.0066379462 0.026698928 -0.03262035 -0.012240916 -0.016194781 0.02161657 -0.027261898 -0.032839905 0.016651036 -0.030745644 -0.007193665 0.035155233 -0.036342654 -0.011205695 -0.04056585 -0.016144764 0.0010001299
299 -0.0052902475 0.010210235 0.010754297 0.01161159 0.0025695642 -0.0062216073 0.014061507 0.026215399 -0.013755688 0.030319244 -0.0065581813 0.01683829 -0.014571637 0.021759812 -0.024965877 0.005659016 -0.023986876 0.024866419 -0.008886168 -0.0199586 -0.0100333635 -0.020771626 0.020459121 -0.009413731 -0.0314672 0.02241694 -0.008276493 0.0095011685 0.026782004 -0.0068924627 0.0013646316 -0.0015107181 -0.0049334397 -0.011999197 0.016878309 -0.015628826 -0.0052463356 -0.014003152 0.022479763 -0.010087548 -0.02527566 0.0007381499 -0.039971005 -0.0031420966 0.03209905 -0.033493374 -0.0063498965 -0.024816904 -0.013302109 -0.0037331134
308 -0.0031522636 0.024380464 0.015252682 0.01476358 0.008154306 -0.0072749015 0.021732727 0.029980827 -0.014402861 0.022894016 -0.020005813 0.014307587 -0.019880941 0.008228922 -0.034559175 0.0053791874 -0.016603934 0.019492922 -0.005133103 -0.013176086 -0.017705722 -0.011947219 0.027255904 -0.009743807 -0.019709209 0.02190869 -0.0041207504 0.02335082 0.018216828 -0.0069685 0.012726177 -0.017466327 -0.010720747 -0.011123112 0.010148847 -0.022229534 -0.0036557768 -0.013827936 0.0018625191 -0.0075596105 -0.018048126 0.016236896 -0.028088236 -0.0071042646 0.025094587 -0.031610463 0.0044635874 -0.018849913 -0.013458054 0.015906615
68 -0.0032371702 0.020455798 0.027861122 -0.0013933919 -0.004550049 -0.0062222076 0.015674276 0.022639658 -0.017673127 0.036276083 -0.01788392 0.011893337 -0.015329697 0.009958415 -0.026328469 0.01198973 -0.02249369 0.029859293 -0.0048100427 -0.008058028 -0.015125539 -0.033388432 0.02282054 -0.021297729 -0.031287808 0.011294246 -0.008654724 0.02632516 0.03389344 -0.017970087 0.001122181 -0.0073272325 -0.009245578 -0.015980527 0.017568417 -0.0129748015 -0.008007516 -0.018639643 0.014268489 -0.0076282835 -0.020904599 0.004896355 -0.027466368 -0.0019640727 0.037877463 -0.035177585 -0.0029243405 -0.028055752 -0.009151855 0.00013355695
2 0.0028921908 0.018670468 0.01786832 0.001911968 -0.001445342 -0.011451 0.021865059 0.029555045 -0.009832227 0.024300054 -0.0111754155 0.010574219 -0.008568377 0.018129231 -0.026707603 -0.001420808 -0.028812202 0.026026903 -0.019777626 -0.00102418 -0.020137383 -0.016128555 0.02312264 -0.012451602 -0.027289756 0.0268905 -0.007872824 0.013044457 0.012282363 -0.016073827 0.0030175373 -0.0037898077 -0.010338811 -0.0033016063 0.007263847 -0.01862157 -0.005423694 -0.0034115992 0.012347509 -0.024195028 -0.011753103 0.018912813 -0.033712056 -0.007941344 0.026091011 -0.020539401 0.00043725676 -0.02709275 -0.00922443 -0.0030219692
166 0.0021384782 0.022878194 0.01916239 0.013141835 -0.009360595 0.0003431323 0.01777194 0.036957122 -0.022075344 0.034142885 -0.010294738 0.006655949 -0.032111667 0.019512825 -0.04412243 0.009607071 -0.036276348 0.015005056 -0.0095622055 -0.024824021 -0.008949959 -0.015741624 0.014936222 -0.029931234 -0.03704437 0.027837534 -0.016946316 0.027923722 0.032642428 -0.02407926 0.014356528 -0.001340905 -0.015458772 -0.001813032 0.010099818 -0.027383748 0.004802144 -0.022188632 0.015050506 -0.013619759 -0.03083024 0.011132905 -0.03786869 -0.0043966817 0.030304665 -0.04263044 -0.0054478096 -0.04005325 -0.014453024 0.01867909
265 0.007070678 0.017951243 0.013117934 -0.0017610686 0.009419709 -0.0055657458 0.008898072 0.01568537 -0.007775188 0.03530389 -0.019741232 0.005673627 -0.017405234 0.013203622 -0.01819086 0.015921311 -0.01705227 0.013640621 -0.02040335 -0.004224658 -0.008329198 -0.010172489 0.026521979 -0.011497054 -0.036210503 0.021905372 -0.009728631 0.0071404586 0.008726608 -0.023089282 0.015271812 -0.0043510785 -0.019810004 -0.005357121 0.0077763745 -0.027207337 -0.0018613919 -0.020407425 0.012383811 -0.008700686 -0.012990649 0.0050190827 -0.01642 -0.015210817 0.02117122 -0.034183085 0.0025694252 -0.03005846 -0.014410825 0.0052169235
275 -0.0039525637 0.024128193 0.014374771 0.012266136 -0.012879065 -0.007243434 0.025277551 0.04367162 -0.025897928 0.0361807 -0.018673023 0.01126845 -0.029939169 0.015183219 -0.040529095 0.019951243 -0.036757022 0.039432425 -0.01792582 -0.01307476 -0.017762722 -0.03631518 0.04158391 -0.025452018 -0.045013174 0.0286914 -0.019730063 0.011751314 0.029487249 -0.024124699 0.01813322 -0.0054941108 -0.013858981 -0.016621392 0.021176577 -0.030802306 -0.00443146 -0.026253251 0.01738 -0.027616046 -0.021105614 0.0065415013 -0.052761152 -0.00014176981 0.046824876 -0.04914579 -0.0074623255 -0.04708326 -0.006833998 0.017647134
134 -0.010490109 0.01114476 0.021773737 -0.00297045 -0.003428323 0.00645969 0.0030893506 0.01775419 -0.010295886 0.02266613 -0.013319622 0.013887542 -0.022502469 0.020303346 -0.031407002 0.006615857 -0.017207747 0.027979495 -0.0056875446 -0.0175382 -0.019413589 -0.027513733 0.02969592 -0.02229081 -0.033855587 0.017247258 -0.0066685635 0.015119938 0.027574332 -0.019939477 0.014196604 -0.013699371 -0.017832834 -0.004765015 0.007334322 -0.021046564 -0.002107876 -0.0025257792 0.012786821 -0.0064897207 -0.024920153 0.00069869374 -0.018294655 -0.00078795437 0.025224 -0.024473092 0.0039775795 -0.013224838 -0.0018832157 0.014684054
57 -0.011212785 0.02778287 0.021616498 -0.00082372536 0.01027964 -0.012438976 0.014741541 0.03202355 -0.014240502 0.03528192 -0.013720988 0.019667469 -0.011249356 0.009655968 -0.029229991 0.019284172 -0.030802367 0.01390876 -0.018945316 -0.022096267 -0.022832146 -0.024014734 0.03251551 -0.013230243 -0.034112863 0.030064803 -0.0049971133 0.011509168 0.016104836 -0.020244068 0.016680202 -0.0042383187 -0.0062484313 -0.0010353439 0.017549265 -0.029856158 0.0029160476 -0.022240603 0.014507461 -0.02683882 -0.02250282 0.02003815 -0.037538555 -0.007273109 0.023670482 -0.025106572 -0.015103165 -0.032348573 -0.009687247 0.010585901
130 0.0057744784 0.02710641 0.0253404 -0.002793946 0.007940175 -0.007559821 0.020769183 0.026385963 -0.0081350235 0.041054454 -0.0256411 0.015272522 -0.00925547 0.02455153 -0.03684535 0.01628295 -0.03072476 0.028169982 -0.013112544 -0.013205429 -0.02267217 -0.016247159 0.031368956 -0.0107108485 -0.025535194 0.013015173 -0.00018787522 0.02197453 0.018066408 -0.009850703 0.008745751 -0.01618723 -0.005750014 -0.014802144 0.021491947 -0.02443049 0.0024203379 -0.020013832 0.0071643223 -0.025628407 -0.029527888 0.013322823 -0.037118647 -0.011185818 0.03767449 -0.026426654 7.490262e-05 -0.028316822 -0.002154704 0.001343347
184 0.0046118777 0.028248975 0.02351661 0.011688293 0.009695811 0.0018644677 0.008163526 0.038062554 -0.023133978 0.038662042 -0.020009952 0.011786857 -0.014831881 0.018025357 -0.038388748 0.01930352 -0.0209714 0.034925554 -0.019305557 -0.02075931 -0.019694898 -0.037428807 0.03176467 -0.025242168 -0.04380634 0.024397768 -0.0060711973 0.018689463 0.033068214 -0.013926893 0.0021103849 -0.010808162 -0.010679314 -0.00011227715 0.01536096 -0.034108534 0.00022952829 -0.009077247 0.017168006 -0.01633061 -0.02628271 0.019905586 -0.044066075 -0.010055511 0.024899002 -0.03777616 -0.014598125 -0.02559344 -0.01771745 0.016188314
62 0.0021613548 0.018896136 0.016167754 -0.0011063631 0.0044735353 0.002460201 0.0072025047 0.021582494 -0.015722392 0.032376703 -0.025914086 0.018213838 -0.008843847 0.016164063 -0.024738116 0.0071181376 -0.022142073 0.0186913 -0.016052706 -0.007379479 -0.01769412 -0.027740687 0.022852425 -0.023242928 -0.030485079 0.013484933 -0.0032616688 0.013673917 0.021835025 -0.021559807 0.010527705 -0.012853982 -0.006147602 -0.008448622 0.022776058 -0.027358899 -0.006722648 -0.019092426 0.017425692 -0.025674522 -0.020397704 0.017889068 -0.021096874 -0.00564626 0.03538568 -0.01620871 -0.0022248006 -0.023772266 -0.0015836353 0.0011794956
333 -0.0074122455 0.019600773 0.014616498 0.008244839 -0.0073469384 -0.004587758 0.0053941016 0.031755403 -0.0125162415 0.020922698 -0.0106576495 0.0007851075 -0.020109354 0.017485203 -0.018908003 0.0060686464 -0.024881346 0.021047225 -0.0010632545 -0.0029658098 -0.017560681 -0.017292012 0.012085625 -0.0068592452 -0.032122713 0.015678003 -0.010612118 0.0048914 0.029113237 -0.013486322 0.012229673 -0.0038910608 -0.013124498 -0.0143923005 0.017864523 -0.024558596 -0.011311359 -0.0055377726 0.004355507 -0.024621552 -0.012609875 0.008316763 -0.0320125 -0.011307058 0.02841326 -0.02520881 -0.01270307 -0.03198672 -0.014206001 0.0007460515
195 -0.0037276666 0.012131608 0.031508315 0.0006267544 0.00085103663 0.0041017523 0.028619362 0.042370703 -0.02814485 0.038276084 -0.012181293 0.0077602235 -0.026763292 0.010136505 -0.047468577 0.0075063864 -0.028241523 0.03564649 -0.017204989 -0.0063530505 -0.005158989 -0.016942868 0.03550335 -0.020824257 -0.029797893 0.03472584 -0.020169409 0.009378783 0.023787146 -0.027433924 0.020056285 0.0013359217 -0.022464229 -0.02056274 0.019174356 -0.032534722 -0.01313411 -0.024521166 0.013084491 -0.028970694 -0.019756159 0.01960199 -0.03475702 -0.0061791823 0.030879263 -0.040115055 0.00014237648 -0.042459276 -0.011006932 0.0008161796
297 0.001352861 0.022946877 0.0147202695 0.015971318 -0.005245269 0.0027483269 0.016594572 0.017408967 -0.019669151 0.026605545 -0.016323127 0.0072523514 -0.023957867 0.018358225 -0.018369477 0.014858424 -0.02128471 0.014057569 -0.0012647443 -0.004759218 -0.014516932 -0.012442626 0.018566962 -0.023745423 -0.026703125 0.022470476 -0.008596634 0.02067101 0.022249024 -0.024148742 0.01113821 -0.013233614 -0.01564247 0.0020411327 0.0152503345 -0.025824206 -0.001492673 -0.01943859 0.00905285 -0.011039328 -0.021481384 0.011845871 -0.02839201 -0.0024133804 0.032067895 -0.015265596 0.0033282929 -0.024290446 -0.013061962 0.007985689
58 0.009834758 0.027606672 0.01265592 0.00821407 0.0087911915 -0.012342378 0.015387282 0.041208815 -0.019702557 0.0423381 -0.01766175 0.020768417 -0.011269939 0.00915059 -0.04650999 0.0066590314 -0.015907124 0.02830534 -0.0073995544 -0.012917086 -0.023958566 -0.035979208 0.022566937 -0.013386791 -0.02659771 0.020989276 -0.016864453 0.011255425 0.020693183 -0.022856023 0.0020049217 -0.015315207 -0.0171499 -0.012830263 0.011600437 -0.024845023 0.009702659 -0.007835907 0.013965321 -0.015780106 -0.025603015 0.01797222 -0.03248734 -0.013506229 0.026262665 -0.022824207 -0.0013383497 -0.02098127 -0.001405465 0.005038752
242 -0.0024870501 0.024379702 0.026172686 0.016965132 -0.0019017308 -0.0030156132 0.01711114 0.02768024 -0.019646587 0.025837934 -0.021858256 0.020140214 -0.015901802 0.018113626 -0.038618833 0.018435212 -0.03057566 0.016878143 -0.014014937 -0.0055265664 -0.021842549 -0.030672431 0.030929638 -0.026418874 -0.03588186 0.022074025 -0.010375894 0.02227501 0.016985338 -0.008410778 0.0020301277 -0.014314766 -0.01480473 -0.0065000085 0.025947396 -0.014817754 0.0069651287 -0.0073636537 0.02109349 -0.016726142 -0.03251883 0.00039723812 -0.024953399 -0.010899198 0.032638602 -0.029700115 -0.0076448494 -0.0181255 -0.019992271 0.0027821874
72 -0.007351112 0.006621932 0.023359455 0.01526966 0.0046721003 -0.010122967 0.015761992 0.0275931 -0.00529728 0.03490874 -0.025427505 0.0037403365 -0.013625002 0.017330972 -0.031724088 0.015433121 -0.017205184 0.029263666 -0.021155035 -0.01236903 -0.014614828 -0.015982257 0.021699354 -0.023920268 -0.03288006 0.023594312 -0.004862263 0.013167151 0.013318589 -0.022021439 0.012441494 -0.0096642515 -0.008372191 -0.012450398 0.009155267 -0.0103838 -0.010271492 -0.0039276876 0.0059753917 -0.016876554 -0.019263677 0.016410323 -0.016645677 0.002553056 0.025600221 -0.016413033 0.0065144454 -0.01736316 -0.016358849 0.0097425
330 -0.0052629923 0.020383017 0.010628367 1.6901877e-05 0.00031008 0.0019402012 0.005839471 0.020246577 -0.0051917317 0.02634402 -0.011761736 0.00281475 -0.025498714 0.02631487 -0.01967253 0.0068687815 -0.027858702 0.014751184 -0.0072128437 -0.018361164 -0.02414891 -0.014304759 0.025614696 -0.024074383 -0.03132927 0.027580647 0.00023591712 0.02391711 0.0222056 -0.025082743 0.0018792696 -0.011427752 -0.006474615 -0.008310368 0.017976036 -0.02375201 -0.0035469297 -0.02353233 0.004743467 -0.022424934 -0.019834047 0.0067430856 -0.029658107 -0.00718582 0.032440133 -0.038322378 0.0020403413 -0.022668764 -0.0143762175 0.004727427
133 -0.0010375228 0.011630703 0.025354985 0.008599843 -0.005600336 0.0032711662 0.007938838 0.029281745 -0.010232096 0.018322913 -0.010014546 0.0016111984 -0.020400815 0.022084003 -0.027638875 0.005685749 -0.030960204 0.020969952 -0.02097256 -0.006405014 -0.010341034 -0.019129304 0.020100271 -0.021375746 -0.035331957 0.027391057 -0.016024306 0.014406948 0.023259152 -0.008180715 0.016573621 -0.012363525 -0.01632476 -0.011965966 0.005762247 -0.011049589 -0.0066693057 -0.015680438 0.020581516 -0.025679616 -0.011642681 0.013483984 -0.03677992 -0.004961321 0.01759826 -0.022797044 -0.0034891285 -0.022780543 -0.017156139 0.0026206053
211 0.0006400903 0.0067931656 0.011005924 0.00514884 -0.009769444 -0.0066352715 0.018691491 0.022244668 -0.0056316154 0.03187587 -0.0076569756 0.008260102 -0.01804819 0.019217089 -0.01841299 0.014893561 -0.023156092 0.021522868 -0.0131864995 -0.008009117 -0.002413931 -0.029332206 0.027011191 -0.010739617 -0.028679218 0.013435735 -0.015757363 0.0045005567 0.01009018 -0.007122294 0.004391566 -0.016319435 -0.019930432 -0.013068797 0.021253575 -0.016240979 -0.011377006 -0.020577928 0.0028603096 -0.024119988 -0.009722443 0.004038685 -0.031697858 0.003438018 0.018640019 -0.030580975 -0.0031726223 -0.011996738 -0.008261111 0.0056259925
282 0.0013760171 0.008388417 0.019278664 0.00532386 0.018901771 -0.005432924 0.019025736 0.039611638 -0.030069295 0.023391597 -0.022271967 0.0045992904 -0.012552547 0.010186098 -0.03224598 0.009611806 -0.034005664 0.024957633 -0.0083699 0.0034479077 -0.03139956 -0.01909758 0.02973828 -0.024484968 -0.042872667 0.020584723 -0.0010581602 0.00823343 0.019048756 -0.01578421 0.0150234755 -0.017570846 -0.027598541 -0.00077336305 0.025747038 -0.03421042 -0.005656547 -0.0077646486 6.5916254e-05 -0.02471626 -0.017300688 0.016714858 -0.023120759 -0.0050953412 0.020170907 -0.039602738 -0.009433707 -0.018666137 -0.011243878 0.02024979
244 -0.014644998 0.004337726 0.013786895 0.017723432 0.014637018 -0.014202986 0.020577827 0.03987532 -0.02026148 0.018735293 -0.0075889085 0.02118385 -0.029896466 0.015527449 -0.042454787 -0.0029442026 -0.02583758 0.011512133 0.0024656786 -0.0012323853 -0.028748292 -0.02353371 0.026143475 -0.031292513 -0.043964084 0.032423526 0.0029396298 0.002457276 0.030087907 -0.030075783 0.015909987 -0.010453949 -0.02276973 0.004557831 0.009371473 -0.031890787 -0.004508323 -0.00785347 -0.003447602 -0.029045701 -0.030928057 0.018841755 -0.029227663 -0.008857408 0.01993241 -0.023723535 0.004348887 -0.020444121 -0.0064058267 0.012327302
233 0.006138534 0.015726242 0.03344152 0.00707457 0.0017777012 -0.005156556 0.020750575 0.036302194 -0.0023319009 0.04771756 -0.0048998175 0.019369477 -0.008519155 0.034398295 -0.045698214 0.01698188 -0.034213208 0.018474061 -0.022304801 -0.027702883 -0.024996571 -0.028673882 0.03741799 -0.03917901 -0.041991137 0.032236885 -0.002638794 0.017912293 0.035996493 -0.028628226 0.008417006 -0.021985447 -0.016630793 -0.015406668 0.025316473 -0.03923449 0.008277348 -0.022787709 0.028511982 -0.016769426 -0.034206685 0.029208323 -0.0517947 -0.009351995 0.03297925 -0.02322249 -0.0035256126 -0.043056715 -0.026415393 0.009460227
256 -0.0047261994 0.021515673 0.02840597 0.014583404 -0.009879592 -0.012062548 0.02382054 0.022416092 0.0016320008 0.037069395 -0.013069071 0.0014760869 -0.015521565 0.029679298 -0.045283858 -0.00013358591 -0.031658143 0.032648146 -0.0078461375 -0.016952233 -0.013518756 -0.018969545 0.016600346 -0.037034653 -0.037364542 0.01872826 0.0034704828 0.031957656 0.0346426 -0.009237141 0.011307897 -0.00807246 -0.028040163 0.003084342 0.022814324 -0.035674177 0.014670837 -0.023465862 0.013396831 -0.010756866 -0.03454983 0.020509029 -0.0493242 -0.018554553 0.03014869 -0.03195616 -0.00085489615 -0.045199174 -0.022964096 0.0075253234
42 0.005551961 0.03518916 0.026917113 0.01937516 -0.0048142695 -0.014134988 0.026177177 0.036568433 -0.027553868 0.043067485 -0.03278557 -0.003918756 -0.013837263 0.014575235 -0.03608022 0.015570777 -0.01920653 0.03111264 -0.024471063 -0.027788868 -0.0088718245 -0.022717541 0.029089106 -0.026104286 -0.04069431 0.03842604 -0.022657523 0.01757008 0.021339126 -0.03463385 0.0011605038 -0.018269641 -0.0102552315 -0.00060746924 0.024018455 -0.03303615 0.0044361823 -0.019060425 0.009298452 -0.036771376 -0.032683205 0.0153365955 -0.047798026 -1.7834478e-05 0.037167776 -0.024593204 -0.017536398 -0.039890815 -0.015350451 0.010419713
33 -0.008582229 0.022442183 0.024011774 0.023027465 0.000997653 -0.0041945153 0.022158096 0.03996604 -0.023593478 0.022674121 -0.034216143 0.003168013 -0.016555563 0.011859722 -0.04579004 0.023478149 -0.021124529 0.032935206 -0.013796558 -0.019373868 -0.014624152 -0.02838903 0.03260225 -0.021298196 -0.04022409 0.03037139 -0.010930824 0.018220372 0.019586487 -0.016594121 -3.3095685e-06 -0.025280822 -0.004895707 0.003368226 0.01942845 -0.017258137 0.005390877 -0.00607837 0.008628798 -0.029223284 -0.03499174 0.011852788 -0.04503784 -0.0038681913 0.03776147 -0.017186712 -0.0025954298 -0.023757933 -0.013251426 -0.0017728463
248 -0.0021325755 0.012792089 0.01620866 0.004562975 -0.0063982974 0.0049530105 0.013841661 0.022507822 -0.0024476785 0.023521582 -0.0073516034 0.002914419 -0.019085357 0.011998383 -0.028197145 -0.0008188899 -0.030227588 0.026328621 -0.020105053 -0.01618169 -0.004722822 -0.012584497 0.018405732 -0.011439856 -0.025220383 0.02716542 -0.009721036 0.017999936 0.01757643 -0.008031893 0.011092272 -0.0049756826 -0.0116511695 -0.010603645 0.008262605 -0.01940902 0.0028505435 -0.013346883 0.0146353105 -0.0139148 -0.02621294 -0.00036153453 -0.034213655 0.0016917508 0.015488254 -0.02536451 -0.010153407 -0.032166623 -0.0074764164 0.008889336
232 0.0036317152 0.02148614 0.023932246 0.0076131155 0.006952944 -0.0027762477 0.013989774 0.025261842 -0.010010174 0.028918745 -0.0109235905 0.012720314 -0.020596702 0.02345965 -0.034210995 0.01608117 -0.014240062 0.012000015 -0.012552027 -0.009568613 -0.018026277 -0.027301507 0.018360235 -0.014062173 -0.032991182 0.026341163 -0.0062999725 0.014353855 0.019081729 -0.005976305 0.0041755238 -0.00096540607 -0.008511659 -0.0018033257 0.016980298 -0.028347999 0.007767611 -0.021739213 0.016176108 -0.025687065 -0.019856516 0.0059354673 -0.035448547 -0.013026722 0.03471799 -0.018235862 0.0009414305 -0.027623082 -0.016903322 0.014167514
39 0.00096285203 0.020107375 0.020213407 0.0051838164 0.006412364 -0.009785109 0.007591423 0.022481091 -0.013839043 0.03477235 -0.010905762 0.01863055 -0.0267018 0.02159969 -0.037024815 0.01288557 -0.018921146 0.018536262 -0.0061434936 -0.009774475 -0.0076842215 -0.0174971 0.030912856 -0.011861052 -0.033672966 0.021639273 -0.007793591 0.014819072 0.028011214 -0.010128936 0.016476901 -0.0065660793 -0.014232336 -0.016888585 0.0120437695 -0.020534385 0.0025654295 -0.009931058 0.008576091 -0.023344653 -0.020604797 0.0013292909 -0.03609878 0.0010285844 0.025546111 -0.026756411 0.004937162 -0.017435132 -0.00094953517 0.0050181486
238 -0.0005164481 0.017697645 0.0088995155 0.0028864814 0.0049195457 0.006174365 0.02015761 0.029774 -0.0048641707 0.033023685 -0.024033224 0.006760738 -0.012814296 0.007883235 -0.02505727 0.0027411028 -0.02688246 0.015126798 -0.0106706135 -0.012309912 -0.0038185434 -0.023511203 0.013955001 -0.008535819 -0.035067767 0.024803864 -0.013079439 0.016082766 0.01762979 -0.019536655 0.006901374 -0.014305369 -0.007619559 -0.0018241121 0.013590671 -0.010947109 -0.007168799 -0.010112321 0.012991254 -0.013981635 -0.027248936 0.016510904 -0.03206524 -0.009235759 0.016541613 -0.03020646 0.005237751 -0.014672368 -0.0071066264 0.012101119
263 -0.009354857 0.027967228 0.024592178 0.0142043615 -0.0067842305 -0.006809864 0.016148034 0.024005119 -0.005531794 0.030626062 -0.023648178 0.017965822 -0.02808521 0.016705327 -0.037059452 0.012913989 -0.016584858 0.015630553 -0.012006739 -0.0071526594 -0.015213909 -0.02470575 0.032650772 -0.013216704 -0.019498792 0.024071991 -0.0044484045 0.006598569 0.02399289 -0.012714922 0.01576942 -0.0063348347 -0.01936809 -0.002017017 0.01893435 -0.011763074 -0.013013346 -0.014704526 0.0063295076 -0.017174456 -0.008678734 0.00512096 -0.02243053 -0.017097905 0.037676964 -0.01864829 -0.0066581517 -0.016334267 -0.016558155 0.001903194
231 -0.008780486 0.021618942 0.01821576 0.0144366035 -0.00330977 0.002282357 0.010588249 0.018130613 -0.010201273 0.027087009 -0.019598745 -0.00027992122 -0.025474792 0.0167963 -0.033192046 0.0118089 -0.020148301 0.010964576 -0.019604279 -0.012562859 -0.015596477 -0.025538586 0.015873248 -0.0064533544 -0.023169853 0.012643764 -0.011750756 0.01932782 0.027589431 -0.019787906 0.014395722 -0.005819402 -0.00862944 0.0021000237 0.008092784 -0.020578012 -0.009849561 -0.005755945 0.017663553 -0.013098494 -0.023835339 0.012203869 -0.02597689 -0.0053989026 0.022984533 -0.019230308 0.0072055953 -0.031122576 -0.012157879 0.013744103
28 0.0056267385 0.008164165 0.021206077 -0.00095574267 0.0011920277 -0.0073172958 0.020969158 0.029320346 -0.0072763474 0.01946977 -0.0052695293 -0.00024011731 -0.0048346664 0.012040685 -0.027879758 0.0011170304 -0.024049262 0.017404612 -0.0077359076 -0.002773744 -0.0031650653 -0.011734083 0.022079842 -0.009692682 -0.032232836 0.021613574 0.002561927 0.018758463 0.026099855 -0.0136896465 0.010746279 -0.009399877 -0.019825146 -0.00891852 0.016195454 -0.009897723 -0.0019704849 -0.010613049 0.017128773 -0.006960482 -0.022348242 0.002269233 -0.024371162 0.001599018 0.024755301 -0.026477816 0.0005412684 -0.012489603 -0.016934613 -0.00014480442
296 -0.011596296 0.012622508 0.02764689 0.0030823187 -0.0041077975 0.0016069754 0.024449248 0.031060664 -0.011368057 0.020648489 -0.022412496 0.011120777 -0.028784737 0.007131272 -0.029996991 0.009419395 -0.019728277 0.015148837 -0.013346139 -0.020598782 -0.01085309 -0.016207945 0.015277529 -0.024838844 -0.035044886 0.017676499 -0.0106080985 0.020781478 0.025871463 -0.013029662 0.017599137 -0.02023823 -0.022061562 -0.003558867 0.0136537645 -0.015445949 -0.00045795186 -0.015041866 0.020107249 -0.019730465 -0.014337132 0.014949388 -0.034127515 -0.01566449 0.029693518 -0.020401256 0.003955191 -0.022969758 -0.015879776 0.0063517303
78 -0.0011849579 0.0083260685 0.0215668 0.01588524 -0.008568015 0.008226887 0.022503225 0.029716864 -0.024561984 0.025572509 -0.01895547 0.007694895 -0.019533537 0.029227389 -0.042129498 0.013202369 -0.02241143 0.0316284 -0.018859904 -0.014072255 -0.011858506 -0.019105168 0.025202468 -0.01915327 -0.045225784 0.024514878 -0.008145973 0.021180443 0.032719724 -0.030442985 0.018279033 -0.009600386 -0.012268216 -0.021835653 0.011051034 -0.037497967 -0.014916432 -0.02159691 0.009597327 -0.027182475 -0.024814563 0.017578216 -0.046341285 0.0017202768 0.040920015 -0.03444088 -0.0077949488 -0.033250697 -0.015556542 0.003111536
197 0.0016470245 0.020038117 0.01805203 0.007001733 -0.002659321 0.0021797935 0.022123195 0.030298326 -0.026350494 0.036836363 -0.024293978 0.015346054 -0.02450192 0.020405082 -0.040948726 0.020494405 -0.03405629 0.03553122 -0.009450877 -0.005868511 -0.015528271 -0.027090421 0.024624404 -0.030123329 -0.042739533 0.03236973 -0.018906733 0.01261512 0.034171756 -0.014660417 0.004979704 -0.021276109 -0.01858623 -0.016958185 0.02572853 -0.028037148 -0.011340766 -0.016998313 0.016277486 -0.023691269 -0.024176395 0.002575495 -0.027896155 -0.011957711 0.04021753 -0.02758311 -0.014883822 -0.021783855 -0.011468535 0.011702513
281 -0.0024139986 0.016199192 0.01663543 0.015703453 -0.0010184823 -0.0028303585 0.023688106 0.03717534 -0.020308519 0.024732046 -0.011180366 0.012503045 -0.021741277 0.01636218 -0.03034729 0.016122196 -0.022432249 0.03206581 -0.020007914 -0.018929807 -0.023199443 -0.018327445 0.02699617 -0.0206382 -0.035511695 0.015922772 -0.005202149 0.022558264 0.03626936 -0.026332438 0.00079402985 -0.014618085 -0.017555652 -0.01732628 0.011821321 -0.0219409 0.0010574593 -0.02450268 0.0072515076 -0.017199798 -0.02150028 0.0020461238 -0.037277367 -0.0037872486 0.032479662 -0.03425231 -0.0060448963 -0.036332797 -0.011449398 0.0010421369
127 -0.011970283 0.010032804 0.025590442 0.011512845 0.0018597946 -0.0047577024 0.010378672 0.03851403 -0.01363427 0.027700435 -0.022181084 0.007447805 -0.023911638 0.024266182 -0.0414087 0.013081595 -0.029656962 0.026752204 -0.009037815 -0.010467033 -0.02264104 -0.023835335 0.030172538 -0.024463493 -0.036693156 0.024661023 -0.006261455 0.026859416 0.029434092 -0.011770222 0.009260514 -0.0069044298 -0.018325714 -0.0002085567 0.02107928 -0.028455827 -0.0010169605 -0.010258478 0.014090243 -0.013569583 -0.023499647 0.019017953 -0.04011569 -0.002519559 0.03816424 -0.025191495 -0.008064437 -0.02135056 -0.0060524764 0.011767236
65 -0.008825887 0.017924732 0.018774478 0.010838911 -0.0025508313 -0.008675214 0.007282332 0.023063665 -0.002929195 0.027203169 -0.01125081 0.0070159584 -0.019684 0.00779239 -0.030159568 0.008211105 -0.028383072 0.011143101 -0.013886407 -0.016516887 -0.015608145 -0.0227312 0.023354216 -0.013368527 -0.031538323 0.014177769 -0.011871613 0.013055285 0.013888033 -0.00811492 0.016868245 -0.0107859215 -0.015424892 -0.010666955 0.007918109 -0.016431294 -0.0035684789 -0.021371534 0.018924238 -0.01258023 -0.014063918 0.0010012337 -0.034568794 -0.015329665 0.030759582 -0.019746521 -0.008362506 -0.03154033 -0.01721209 0.010701439
264 -0.010507575 0.026904829 0.011703337 0.018449197 -0.004178376 -0.015421252 0.024436634 0.03093594 -0.020042937 0.042885914 -0.01700415 0.013489837 -0.025836155 0.030931477 -0.03927785 0.015281576 -0.01745697 0.03242115 -0.017540293 0.0006311863 -0.025590556 -0.037568886 0.031431533 -0.015886152 -0.027274987 0.030974898 -0.015209482 0.025436206 0.024621421 -0.016761387 0.0004203412 -0.021274135 -0.021610893 -0.015946934 0.015527877 -0.02395001 -0.012019574 -0.026780361 0.018482348 -0.020040369 -0.023757728 0.006167625 -0.028080128 -0.0034478104 0.029719189 -0.041157547 0.004061433 -0.031187486 -0.011510129 -0.0015817474
88 0.006772173 0.012255977 0.0131917205 0.010108004 0.0005053669 0.0025455935 0.02086787 0.032659456 -0.0060840715 0.036125947 -0.008571285 0.0061018043 -0.01211692 0.009943731 -0.031656623 0.0014902636 -0.026511641 0.011254924 -0.0037637507 -0.005524757 -0.016847739 -0.027679352 0.022779446 -0.025269262 -0.03110066 0.021826508 0.0010635024 0.01899561 0.020188741 -0.008025829 0.009729208 -0.013941203 -0.004281692 -0.008626488 0.01820765 -0.01282834 -0.007872926 -0.023045843 0.017619684 -0.02472601 -0.022362798 0.007371726 -0.022214461 -0.0018749431 0.032380406 -0.02721125 0.006249581 -0.019960795 -0.00048023975 -0.003671754
87 -0.006045268 0.023419477 0.008205133 0.0047183535 -0.0049776984 -0.0012428104 0.024104556 0.021066079 -0.00503288 0.033711568 -0.021259274 0.018686265 -0.017971668 0.012855607 -0.033081003 0.018209511 -0.0132810185 0.013082455 -0.010209303 -0.020697465 -0.021982847 -0.027568046 0.025759386 -0.0242986 -0.033274062 0.022742473 -0.011585353 0.021505352 0.024038132 -0.013446087 -0.0014372136 -0.011003539 -0.008917709 -0.00036965922 0.016823523 -0.023435775 -0.0053289663 -0.0043812953 0.002145645 -0.01589621 -0.0313982 0.008328519 -0.027005386 -0.0032987804 0.027465433 -0.021852966 -0.005743505 -0.017312925 -0.010280846 0.01345372
202 0.005398696 0.022968646 0.006725689 0.0074399356 -0.005563681 -0.0033339644 0.023909947 0.028882634 -0.022933623 0.030027263 -0.020623226 0.019110456 -0.027699409 0.02034866 -0.03817181 0.002309821 -0.02379275 0.014801187 -0.015432119 -0.017039223 -0.008850727 -0.025586572 0.017466925 -0.025647309 -0.022895636 0.019026013 -0.00053957757 0.019030936 0.020924747 -0.009717851 0.0016724956 -0.011987175 -0.008232673 -0.011641278 0.0063545625 -0.02176348 0.0023967086 -0.0132781435 0.018766226 -0.023665944 -0.011200391 0.01942079 -0.020284913 -0.0032211572 0.03435927 -0.023975085 -0.0015838657 -0.0335032 -0.01884045 0.006818984
100 0.0062305946 0.008933473 0.013882766 0.015180155 0.0073828604 0.005323715 0.008513874 0.03086539 -0.013621278 0.034385294 -0.016392253 0.009144539 -0.01125342 0.009332477 -0.033562183 0.0063385363 -0.021991229 0.028077058 -0.021773346 -0.007846836 -0.008953136 -0.021128211 0.02970857 -0.019782545 -0.022076279 0.030418012 -0.020811677 0.017645296 0.01883119 -0.026991265 0.010544513 -0.001740418 -0.024820533 -0.007369418 0.0105906185 -0.025734033 0.004841723 -0.01589036 0.014029415 -0.017581668 -0.01513916 0.01655351 -0.036859266 -0.010955849 0.023802442 -0.036309756 0.0012159705 -0.031787474 -0.012809867 0.003020964
218 -0.0057724635 0.013988192 0.019214174 0.014656533 -0.0028936246 -0.0033012002 0.026828844 0.034228463 -0.017263804 0.029743811 -0.02828946 0.0122663975 -0.027486708 0.0145713575 -0.034876116 0.017357284 -0.03676546 0.03476466 -0.010669215 -0.011306767 -0.0071358015 -0.026823327 0.027509257 -0.016346686 -0.037114184 0.02204917 -0.018977016 0.009556754 0.01794877 -0.016725425 0.0023027572 -0.0016988375 -0.0208441 -0.021370554 0.01648509 -0.030247355 0.0038520852 -0.011380706 0.0027474014 -0.02809877 -0.030733725 0.011838186 -0.046679 -0.0030636906 0.036752433 -0.03043698 -0.005725886 -0.028242324 -0.0028887258 0.0089506535
