333 50
25 0.0079754265 -0.07805867 -0.01134569 -0.00138309 0.020226823 -0.011600829 0.0132198455 -0.019738918 0.06751374 -0.040355776 -0.008044694 0.008289475 0.0030739075 -0.008674479 -0.013344365 0.01073467 -0.04265122 -0.06001729 -0.044626024 0.03052078 -0.005021078 0.010024022 0.02910542 -0.0124144815 0.05081614 0.011506438 0.013253005 0.05703581 0.07973945 -0.0007903326 0.0021546741 -0.030502085 -0.0037679789 -0.032024927 -0.029412055 0.034671176 -0.06317187 0.012660894 -0.019131338 0.07650649 0.0014427811 -0.019179005 0.01473236 -0.037604928 -0.032281287 0.05266163 0.0697104 -0.0124257365 0.06469622 -0.0109801
322 -0.006546459 -0.08091405 -0.00062190875 0.018505922 0.028545119 -0.008525419 0.0007052998 -0.020696692 0.06131717 -0.042788155 0.005782119 0.01237127 -0.0017663876 0.0059476797 -0.01305763 0.02393409 -0.041902244 -0.061396524 -0.036934856 0.03235584 -0.0049997335 0.023064889 0.027199738 -0.0060070176 0.05648133 0.015247977 0.008762065 0.045603257 0.08313442 -0.0049500368 0.0012031362 -0.030775724 -0.0011876259 -0.03378769 -0.02589945 0.040551174 -0.07778403 0.018521138 -0.009024031 0.08375691 -0.0029299373 -0.03090143 0.028600728 -0.047549393 -0.027787194 0.05158246 0.06753003 0.0013743661 0.06955855 -0.009801954
119 -0.007239914 -0.09443528 -0.0008864019 -0.0017635985 0.018651564 -0.015973106 0.013067796 -0.024533462 0.07322057 -0.049856436 -0.000562894 0.017758902 -0.0038856145 -0.009292138 -0.024650725 0.015128633 -0.04806685 -0.056607485 -0.03921779 0.036133785 -0.0069657415 0.016967116 0.028277846 -0.008620633 0.056199476 0.0137011055 0.013141807 0.060149625 0.07248359 -0.0040744278 0.007191698 -0.0392224 5.6534325e-05 -0.02646406 -0.026675856 0.041670308 -0.0802211 0.020299362 -0.008744128 0.07281832 0.0045086783 -0.04155132 0.018222596 -0.042776864 -0.038460866 0.051542442 0.0627313 -0.0003161361 0.060181104 -0.023640972
67 0.004097832 -0.08714343 -0.00067256886 0.016026003 0.015447802 -0.0061225547 -0.0024207786 -0.012389995 0.06380222 -0.04412597 0.008330934 0.019571358 0.0023133752 -0.0017159786 -0.01252708 0.024112329 -0.03691823 -0.046671834 -0.027579725 0.028817333 -0.009711807 0.011575349 0.032969456 -0.018587397 0.049089503 0.0049873353 0.0054284288 0.045364518 0.07195778 -0.014058163 0.004136894 -0.032603048 -0.011136407 -0.035565797 -0.029760543 0.027333347 -0.06625998 0.010367286 -0.003562124 0.07053006 0.0057312744 -0.02152292 0.01742061 -0.03868039 -0.03470741 0.046884846 0.058539495 0.0013222008 0.049052656 -0.011836248
277 -0.002241043 -0.06086798 -0.0047545815 0.010614424 0.028496481 -0.009434452 0.013194441 -0.015951287 0.063939214 -0.046212796 -0.005282638 0.00093714835 0.002566614 -0.009251064 -0.0072832583 0.023821218 -0.026589146 -0.053030066 -0.034084998 0.025949433 0.007159468 0.021435466 0.011297862 -0.01743035 0.041339133 0.016015397 0.008884873 0.045107096 0.06896593 -0.0063780677 0.0014163193 -0.024590684 -0.012026204 -0.032985542 -0.022404864 0.019376505 -0.066865474 0.015639259 -0.0131703885 0.05173538 -0.0028413169 -0.029541176 0.018171115 -0.035923403 -0.022751708 0.04408558 0.06404914 -0.0021110175 0.048277285 -0.015017889
56 0.0072886436 -0.06972914 -0.008265839 0.016981846 0.023467317 -0.014498561 -0.0024986775 -0.019106168 0.05997121 -0.04726837 -0.004258429 0.0019855574 0.00087990396 -0.0056372415 -0.019400438 0.015781227 -0.035305955 -0.049929015 -0.034674782 0.030280203 -0.009264545 0.006678806 0.029456038 -0.009137072 0.03832323 0.002303931 -0.0026635071 0.040542364 0.06726447 -0.01600499 0.0027161327 -0.018178627 0.00046686272 -0.023510536 -0.02026899 0.017265067 -0.054168902 0.0034899863 -0.018753214 0.061380327 0.0006598053 -0.034932416 0.013293241 -0.035269134 -0.032876473 0.027667165 0.061063863 -0.00087906234 0.053980093 -0.016606398
21 -0.00827031 -0.08980228 -0.016791869 0.014775725 0.0134220645 -0.0049136183 0.014463817 -0.009115506 0.06621099 -0.051088434 0.006978517 0.008349059 0.0015024209 0.0003896643 -0.023810707 0.020796848 -0.051961847 -0.052027054 -0.04338218 0.030036958 0.0005857437 0.008330077 0.033412278 -0.0069924844 0.04663259 0.014649176 0.012011389 0.046642747 0.06388529 -0.003668943 0.005823965 -0.024812214 -0.009828151 -0.022341983 -0.03657272 0.021787422 -0.06428053 0.015725331 -0.0068374244 0.0708646 -0.0028839041 -0.027894408 0.01395524 -0.037766606 -0.03524369 0.052526742 0.06882279 0.0019789662 0.06159535 -0.016411582
271 0.0059972014 -0.08210344 -0.00014608605 0.009127522 0.024454307 0.0006853309 0.0098469425 -0.00840427 0.05577133 -0.04607879 -0.00525257 0.0052868803 0.002917232 -0.0047493745 -0.014215195 0.016864257 -0.040095232 -0.043138128 -0.03583853 0.022505797 -0.0054604155 0.02368208 0.014107877 -0.014457861 0.049263492 0.0045535294 0.012294802 0.047392156 0.059470672 0.0010059095 0.0007284219 -0.020960512 -0.004400208 -0.038350604 -0.022349903 0.02091205 -0.07142546 0.012401763 -0.011987749 0.07476445 -0.003698356 -0.024232566 0.02992245 -0.042847168 -0.033495124 0.0352413 0.052639246 -0.006779989 0.06031315 -0.019636638
26 0.008359303 -0.07349071 0.0018726732 0.012656607 0.025440576 -0.016538434 0.0021042817 -0.016713323 0.06672606 -0.030000664 0.008570532 0.0026703458 -0.0013926191 -0.0049287626 -0.019763274 0.026637068 -0.03525073 -0.04860132 -0.024855847 0.014469971 0.0045881653 0.013738893 0.021950724 -0.016939541 0.03875564 -0.00041517743 0.011969537 0.044347625 0.050756875 -0.007022615 0.009004878 -0.019512711 -0.013177379 -0.032595407 -0.034739584 0.03136164 -0.06415615 0.017160688 -0.004572208 0.058300517 -0.010526777 -0.031008666 0.022814535 -0.038273573 -0.034205683 0.04063626 0.06522465 0.006852507 0.059947148 -0.024081249
312 -0.001687599 -0.07382812 -0.0038781008 0.008674846 0.02997222 0.0011557445 0.008309479 -0.01985269 0.059022576 -0.05016024 0.012134614 0.009873896 -0.0010307943 -0.0015753716 -0.013223742 0.026729798 -0.040014103 -0.06071836 -0.045237634 0.016761873 -0.006246047 0.017760884 0.032840047 -0.015288918 0.05478696 0.010914536 0.011266623 0.058356445 0.07703112 -0.011443196 -0.00014190779 -0.02325389 -0.010408013 -0.028629757 -0.02946774 0.018160759 -0.0696811 0.008265709 -0.01675626 0.06377667 -0.0019053607 -0.028310897 0.022513911 -0.040066294 -0.032150175 0.031130735 0.06859483 -0.00027761154 0.05886049 -0.0203549
41 -0.010132001 -0.08470871 -0.005019263 0.014207258 0.02193528 0.0036040887 0.0067850254 -0.012543309 0.06160579 -0.048442215 0.0051842234 0.013789012 0.008081244 0.005840697 -0.020727672 0.021721043 -0.03898573 -0.045666315 -0.024065893 0.019025095 -0.00047840053 0.020147117 0.022267876 -0.018227573 0.043673974 0.01215602 -0.0037676801 0.050947774 0.071777776 0.0012340054 0.0013312264 -0.035951026 -0.010220984 -0.03683701 -0.034868963 0.027294038 -0.06449499 0.016318204 -0.0073524783 0.06734222 0.0005207736 -0.028552333 0.02681863 -0.031742238 -0.038409263 0.040134896 0.06619255 -0.004168372 0.055476386 -0.01343252
122 0.008910664 -0.062372703 -0.008444843 0.009496096 0.026614359 -0.015293962 -0.0012061449 -0.008251738 0.053847317 -0.038080405 0.01128792 0.0026751074 0.012956527 0.006599926 -0.019588016 0.014838499 -0.023121715 -0.04170086 -0.036054637 0.028476223 -0.008014642 0.014648254 0.013283417 -0.011098268 0.04454825 0.011106622 -0.002306254 0.04531068 0.061877422 -0.0074765263 -0.0011981322 -0.018248716 -0.013525728 -0.0151563445 -0.016277574 0.033945106 -0.049660575 0.020087836 -0.013048282 0.06463149 -0.0014476444 -0.027023444 0.010637317 -0.029140016 -0.013889421 0.04346013 0.05799934 0.0028915321 0.044285446 -0.01316158
252 -0.005551595 -0.071568705 -0.016016698 -0.0010676573 0.016814508 -0.0093358215 0.011370994 -0.00370379 0.055946868 -0.04836487 -0.002683049 0.017350709 0.0047866683 -0.0050589903 -0.003962758 0.01160295 -0.04022655 -0.055298943 -0.033940714 0.027346272 0.0074665677 0.022565378 0.016387194 -0.018655144 0.045540668 0.008763526 0.0015151353 0.046856623 0.06411087 -0.014245949 0.0070894756 -0.027197206 -0.0052698026 -0.027438091 -0.02588045 0.031286795 -0.053753246 0.016577648 -0.009494143 0.07108967 -0.0076741013 -0.02474438 0.011956594 -0.039754454 -0.034869716 0.044334706 0.059589144 0.0018841006 0.053716812 -0.020630121
23 -0.00801782 -0.08565545 -0.011633852 0.005895239 0.02721417 -0.0011597303 -0.0026786614 -0.018674143 0.08099741 -0.04642599 -0.0009766805 0.016244514 0.0092361905 0.005094358 -0.0130247185 0.027341442 -0.04979164 -0.06369059 -0.030540371 0.033142254 0.0056148805 0.0062322565 0.025167288 -0.022720495 0.045087576 0.010478554 0.006024815 0.06058135 0.07665713 -0.008652445 0.0067368434 -0.036637772 -0.014007251 -0.037047993 -0.026185596 0.024852805 -0.06761877 0.008863952 -0.022404581 0.08125574 0.0058171917 -0.023190135 0.01982216 -0.04299296 -0.0251837 0.042551327 0.0716014 0.003408624 0.069439024 -0.019236516
239 -0.009039363 -0.061285965 -0.0022164711 0.004896456 0.020818498 -0.011205595 0.004457343 -0.016483152 0.06193938 -0.046546612 0.01163325 0.017393613 0.007354753 0.0016797528 -0.0083968835 0.018554451 -0.034712277 -0.049981233 -0.02614579 0.01809226 0.003143242 0.015089168 0.023007756 -0.005848532 0.048433222 0.014262628 0.0073167477 0.046256807 0.06546922 -0.016685797 -0.00050219306 -0.03364135 -0.014718051 -0.023580207 -0.018769974 0.031238036 -0.058983613 0.0070769214 -0.010599885 0.060873285 -0.0066328817 -0.0214108 0.010628132 -0.022678273 -0.024556102 0.030671075 0.05454267 -0.011844713 0.059685905 -0.020436656
200 0.005752744 -0.06469741 -0.007957853 0.01296952 0.015582755 -0.00052393833 0.011994547 -0.0035809379 0.054330822 -0.034806475 0.008250675 0.00042342625 0.00968076 -0.00041149915 -0.0051755975 0.019555535 -0.034987513 -0.047090385 -0.04094016 0.016498076 0.007757011 0.014206911 0.0252201 -0.008835585 0.04670244 0.017289385 -0.0045334375 0.043158114 0.0631111 -0.0011326948 0.010248513 -0.027056133 0.0017999938 -0.03298657 -0.022085214 0.024700576 -0.0564381 0.004063993 -0.0024402693 0.06913051 -0.012029627 -0.033293463 0.017398065 -0.0343267 -0.03208483 0.04486025 0.048159096 -0.010203188 0.045495074 -0.020987295
272 -0.0030915253 -0.061159514 -0.015957035 0.010521371 0.0108971195 -0.0034347842 -0.004231027 -0.0014067718 0.045107983 -0.037529714 0.0069738696 0.015124022 0.007791701 -0.005423543 -0.0014552558 0.019389544 -0.02676625 -0.04746637 -0.027824095 0.022964356 0.010489291 0.01674402 0.015340775 -0.00043754655 0.038534287 0.00855576 0.0023305612 0.043792933 0.060143165 -0.011206713 0.00991954 -0.021266317 -0.007222914 -0.023705082 -0.030265355 0.016248697 -0.039887078 0.0025550043 -0.01521954 0.04417619 -0.00794395 -0.02913616 0.0061710845 -0.030617964 -0.019089794 0.039689448 0.03959083 -0.006497105 0.04830442 -0.021180948
19 -0.008663064 -0.06908024 -0.014873425 0.008707519 0.034187034 -0.0035760086 0.0049271313 -0.007911469 0.057645474 -0.04679303 -0.0071311225 0.0032267661 0.0126399025 0.004359789 -0.0091005545 0.028833501 -0.053738803 -0.053079717 -0.045590885 0.023729661 0.006113187 0.020829652 0.016633285 -0.002275745 0.04695263 0.005021045 0.0044563953 0.0508892 0.06615995 -0.003364168 0.011669379 -0.03468582 0.0034802698 -0.04039924 -0.034769677 0.03352959 -0.06997398 0.009193539 -0.010508744 0.07251077 -0.011629522 -0.03897997 0.013173338 -0.047534842 -0.040306825 0.04642317 0.074526265 -0.0044534886 0.052979358 -0.011811158
329 -0.006641102 -0.08055291 -0.013299686 0.0087381 0.027312446 -0.0064643556 0.008294867 -0.0050498885 0.071014024 -0.039586756 0.0075766477 0.016646601 -0.0027038753 -0.0014956829 -0.014955243 0.020551246 -0.03627332 -0.060496476 -0.02741432 0.023869962 0.001113205 0.020050693 0.021255873 -0.014936219 0.040836975 -0.00028782606 0.0066935476 0.04847926 0.06717584 -0.0040763505 0.0050980165 -0.033166647 -0.009424399 -0.036611676 -0.033228945 0.031146754 -0.071975425 0.012018743 -0.0071309297 0.07254774 0.007402142 -0.037658777 0.01448677 -0.043275766 -0.027300265 0.040645126 0.06595442 -0.005231011 0.06362725 -0.025268925
230 -0.0115952995 -0.07758409 -0.009286874 -0.00037073652 0.014256353 -0.00015336284 0.0016648654 -0.009166157 0.07529707 -0.05453803 -0.00086868624 0.016013235 0.0040946826 0.005433389 -0.021744875 0.010336479 -0.035535175 -0.05407241 -0.047374 0.03399366 -0.003787113 0.015506056 0.02822653 -0.022232395 0.0418669 0.011973873 0.014669102 0.041452553 0.06244487 -0.0028627764 -0.0016261494 -0.041086294 -0.006289382 -0.018098826 -0.030164676 0.03499986 -0.07293654 0.009419344 -0.0016154412 0.08244398 -0.0009283935 -0.019419763 0.02511996 -0.04140368 -0.032599453 0.03352722 0.07318839 -0.014174138 0.065138 -0.007014603
9 0.0073479745 -0.053473104 -0.00096220715 0.0056078937 0.009870204 -0.010172194 0.0019779603 -0.0037418546 0.050499823 -0.0325435 0.009478589 0.01433505 0.012049241 0.0020482396 -0.0030740548 0.020453114 -0.03610363 -0.050366398 -0.0209285 0.023596235 0.0007818886 0.0109759355 0.02893443 -0.012507591 0.035063677 0.008963414 0.000451981 0.036454514 0.06271419 -0.010401767 0.008516751 -0.018996973 -0.01128602 -0.028060023 -0.029153833 0.025356807 -0.052966278 0.0140584055 -0.0174886 0.051563233 -0.0103781475 -0.02548412 0.02145308 -0.026822092 -0.01401783 0.03505506 0.041070573 -0.0097817 0.040795323 -0.01778098
203 -0.0031317777 -0.076389775 -0.0013701523 -0.00040719737 0.014753521 -0.0042635864 0.0030340173 -0.017436523 0.063718565 -0.04312896 -0.005124377 0.0010937034 -0.0016924832 5.260165e-05 -0.004743874 0.019599203 -0.028505424 -0.053696495 -0.036112495 0.018708428 0.006022142 0.008861133 0.013783509 -0.003993318 0.047918644 0.0096753985 0.0111577185 0.03194051 0.06355238 -0.0049427 0.0012133039 -0.032293554 -0.005796099 -0.019052964 -0.017709147 0.03467185 -0.063639835 0.0030755696 -0.014895803 0.057739545 -0.0023132388 -0.0321292 0.023737261 -0.024470396 -0.017400749 0.044446804 0.060150184 -0.0066480674 0.04693237 -0.025807293
170 -0.0019981572 -0.063117765 -0.0031443245 0.004261284 0.024306532 -0.012766262 0.0153654 -0.007761992 0.061694745 -0.039856777 -0.0061716023 0.012735734 0.0008979692 -0.00091966114 -0.016670689 0.005586246 -0.025080202 -0.042593803 -0.026840152 0.018088426 -0.0020310942 0.008606447 0.023716116 -0.008145169 0.031052154 0.009883843 0.013927893 0.03504173 0.06312533 -0.004759038 0.0055881687 -0.02594612 -0.002798833 -0.016431397 -0.026216328 0.024174284 -0.047486592 0.017848028 -0.007599693 0.05751895 0.0064025205 -0.03128869 0.010238615 -0.036593728 -0.021645905 0.039319914 0.058579233 -0.0034230058 0.050663084 -0.010556011
115 0.00189743 -0.06428305 -0.007479853 -0.0019926608 0.0249168 -0.003526297 0.003547424 -0.009188415 0.052288286 -0.031811398 0.0027879907 0.010284915 0.0035652318 -0.0009119663 -0.009348159 0.025190629 -0.038219523 -0.043916743 -0.033103656 0.020979386 0.007265725 0.014493272 0.02864464 -0.018185338 0.036380935 0.014900288 0.0017606213 0.03668306 0.06395705 -0.0019787378 0.00800921 -0.029332956 0.0017144753 -0.031639144 -0.02820668 0.022187483 -0.05506697 0.021112245 -0.016298406 0.067826405 0.0063112457 -0.033581123 0.010569871 -0.03269385 -0.03403322 0.041934017 0.06257217 -0.013108099 0.047885753 -0.022556413
285 -0.00021219472 -0.072445676 -0.01195102 0.00077676616 0.020814758 -0.010171797 0.0107119335 -0.013120601 0.055165537 -0.032225087 0.004418567 0.01235066 -0.0012221691 -0.0025602453 -0.004739719 0.023156535 -0.034467302 -0.05878835 -0.02833107 0.022497028 0.002633372 0.0121201845 0.013103016 -0.0062546777 0.031747695 0.002472994 0.0050125187 0.04383455 0.059364974 0.00041389748 0.0041270824 -0.02412803 -0.009714217 -0.025079275 -0.028779024 0.03701783 -0.05452159 0.021110523 -0.0027194058 0.07503929 0.003942967 -0.019415393 0.023286888 -0.03358411 -0.0359458 0.032100946 0.052981157 -0.012558071 0.0588362 -0.017295264
280 -0.00627205 -0.06684367 -0.0004353672 -0.0032785735 0.011668654 -0.010924719 0.012457195 -0.004030881 0.060852908 -0.03167334 -0.007111311 0.0011556003 -0.0063657835 -0.0037319877 -0.007243758 0.005656289 -0.03230096 -0.042418133 -0.01835566 0.018743169 -0.003638222 0.017179184 0.02205173 -0.0061945403 0.025596697 0.008829686 0.0138973845 0.04460847 0.052017268 -0.011151544 0.011477396 -0.02809217 -0.007964749 -0.021121027 -0.02233672 0.024755187 -0.049803283 0.012451014 -0.010354929 0.047466014 -0.00030095634 -0.021031212 0.023189237 -0.022434587 -0.022896014 0.03953576 0.052722797 -0.008220463 0.04248122 -0.012684785
53 0.0009437658 -0.064271264 -0.005033375 -0.0014849158 0.025823891 -0.005207077 0.004738501 -0.023684947 0.056249347 -0.048097376 0.0066867224 0.015439399 -0.0011265185 0.0046716933 -0.003949089 0.008486666 -0.045750864 -0.04420296 -0.03767236 0.03036703 -0.004388988 0.0071726027 0.0218766 -0.02034926 0.044515066 0.012356754 0.00090544525 0.034141377 0.06800363 -0.005220975 0.01706039 -0.03023247 0.003664767 -0.028166814 -0.02114768 0.029066646 -0.06739811 0.012260984 -0.01744159 0.07176841 -0.0088306125 -0.03498951 0.008744468 -0.024953637 -0.018153911 0.044077817 0.05734808 -0.0070861196 0.06135321 -0.02119427
315 -7.141635e-05 -0.058352176 -0.017083583 0.008550376 0.014913481 -0.0012064604 0.0064302334 -0.0097534675 0.055049308 -0.03544136 0.007353591 0.0019976373 -0.0022552086 -0.0052903304 -0.019725088 0.016752392 -0.039385296 -0.051168058 -0.01947142 0.017074848 0.0072950013 0.016959082 0.01675385 -0.0046916665 0.033619557 0.008888337 0.01015655 0.03337966 0.048160117 -0.0018255635 0.010349041 -0.025400152 0.0028437981 -0.021318642 -0.021247238 0.018323636 -0.052589905 0.015805287 -0.017859988 0.05477892 -0.011643669 -0.015727418 0.011730277 -0.034373313 -0.029210763 0.03722778 0.056824137 -0.0107411435 0.04743105 -0.013594492
291 0.0062261163 -0.064605586 -0.01601539 0.015629278 0.027486514 -0.015192553 0.013126981 -0.019322034 0.056393083 -0.03943102 -0.006314289 0.016517887 0.0054042856 -0.002012113 -0.019119235 0.017513273 -0.036306202 -0.04268423 -0.028390016 0.01340312 0.0007833983 0.010192585 0.0294197 -0.0055044596 0.04636649 0.0070517664 -0.004102227 0.037522715 0.07024644 -0.003962374 0.009250635 -0.026479723 -0.007848089 -0.032220908 -0.034053367 0.025646575 -0.056296144 0.007494452 -0.0025439935 0.06179861 -0.013504969 -0.036766436 0.024395736 -0.028215619 -0.036598988 0.042878866 0.0646144 0.001957399 0.059367895 -0.010829643
304 0.009778569 -0.0670351 -0.011112726 0.0055707656 0.014493244 -0.013599922 0.010233666 -0.007232982 0.055602953 -0.027192153 -0.0012920162 0.011543968 -0.000848441 -0.012473235 -0.02146146 0.01729093 -0.036231764 -0.05509247 -0.034907028 0.021927843 -0.008054935 0.006109363 0.01604763 -0.016285092 0.029450098 0.0056866743 0.008438073 0.037186556 0.059710592 -3.3177646e-05 0.000662906 -0.027798222 -0.00015444316 -0.023999657 -0.03247637 0.025747154 -0.04527813 0.015365111 -0.012118257 0.06352889 -0.0044786986 -0.033782687 0.008189018 -0.036637463 -0.031940266 0.034962878 0.043700624 0.0021973127 0.05512961 -0.023813255
82 0.0025850642 -0.07225254 -0.016389789 0.014136001 0.028266598 -0.01112797 0.004877073 -0.019549554 0.050789922 -0.036077224 0.006666021 0.01142923 0.00018185715 -0.0028880192 -0.01923045 0.019659994 -0.047073543 -0.056624223 -0.03337082 0.022562869 0.0010956662 0.010880561 0.019373368 -0.0065820944 0.038066294 0.0046419604 -0.0040238234 0.041393053 0.07279531 -0.00089499814 0.012389837 -0.034318477 0.0032022996 -0.03305374 -0.036160447 0.03180619 -0.0684131 0.02047638 -0.006817908 0.06904846 0.0010010311 -0.019333748 0.014800314 -0.042102735 -0.035121594 0.03802665 0.05611118 -0.001065983 0.04430789 -0.02625212
186 0.0059967204 -0.07328635 -0.013216294 0.012914422 0.010961901 -0.0011959894 0.009473678 -0.004651534 0.056261882 -0.028228307 0.009602626 0.018047037 0.011517148 -0.011004412 -0.014006088 0.025571574 -0.028108265 -0.034805436 -0.03645765 0.026409917 0.0031182647 0.0128289545 0.029300194 -0.00087454135 0.030753894 0.0056713955 -0.0025465451 0.049218096 0.061245743 -0.007813235 0.0014101914 -0.015072189 0.0030426877 -0.018110713 -0.026753435 0.029763386 -0.059847727 0.007104007 -0.016456539 0.060207702 0.007849149 -0.013844207 0.023480415 -0.03637477 -0.026815884 0.04147725 0.06140314 0.0009027033 0.040432602 -0.020326097
199 0.00480091 -0.060264394 -0.013292036 0.004718278 0.010631486 -0.009757698 0.0050729997 -0.008521508 0.05440809 -0.026048118 -0.002664783 0.012714615 0.009743691 -0.002243698 -0.019936863 0.010590195 -0.037287824 -0.040183526 -0.033367198 0.010462166 0.0035235018 0.007483094 0.028428636 -0.0088713765 0.04435192 -0.00022691618 -0.00017903741 0.03396989 0.056753032 0.003220559 -0.001701711 -0.024483789 0.001962607 -0.027301185 -0.025505655 0.032280244 -0.049378302 0.014879345 -0.009131298 0.050009027 -0.012439467 -0.030570325 0.013357806 -0.034509808 -0.029502692 0.033815533 0.050691422 0.0025289464 0.04139488 -0.009606101
40 0.009711908 -0.060861193 -0.010627056 0.002253904 0.008021146 -0.004396983 0.005402787 -0.005127995 0.05515253 -0.033907946 0.009550573 0.0004794739 0.012675403 0.0050531207 -0.016358413 0.011600079 -0.036008433 -0.048613243 -0.018205447 0.014630128 0.00071405096 0.013831682 0.008678553 -0.0018249659 0.03343485 0.011706567 0.010431912 0.044257108 0.051621947 -0.0066929148 0.0040139207 -0.015479155 -0.014640081 -0.0122264 -0.02433897 0.015733019 -0.046484936 0.008677974 -0.016044522 0.04998106 -0.008013726 -0.024925536 0.024363827 -0.027112843 -0.02440146 0.02865715 0.036560226 0.0056149694 0.047095567 -0.011077717
98 -0.0069268635 -0.057858713 -0.0013806955 4.3238695e-05 0.019816061 -0.004330071 0.014575321 -0.008098595 0.05431616 -0.034015212 -0.005824142 0.004177742 0.0031844864 -0.011138451 -0.01017913 0.017957786 -0.02228801 -0.03963255 -0.017270718 0.021483969 0.0010825092 0.012914465 0.018216655 -0.01301948 0.036985498 0.01399726 0.0028502864 0.041304767 0.03846103 -0.015478514 0.0025510667 -0.022183312 -0.0034466602 -0.028719911 -0.027751278 0.015547387 -0.03593098 0.017761722 -0.00037493146 0.052550115 -0.012048585 -0.024749162 0.0037794479 -0.028791111 -0.029302448 0.02208193 0.0464504 -0.002922114 0.04814161 -0.022134637
214 -0.0061085857 -0.0562614 -0.01037445 0.0051750424 0.012227383 -0.009580907 -8.573063e-05 -0.019213118 0.06406722 -0.044964794 0.012067548 0.008280162 -0.0048090927 -0.0026512735 -0.010383981 0.025265425 -0.033254705 -0.040246267 -0.03879499 0.014460934 -0.004470879 0.01800687 0.027999101 -0.01131499 0.035663284 0.005739199 0.009940501 0.03862155 0.058773752 -0.007801171 0.0034925928 -0.030440297 -0.01415643 -0.022362718 -0.01724236 0.026897673 -0.05611617 0.01437473 -0.016044399 0.057824887 -0.008651757 -0.026908023 0.017089993 -0.03632303 -0.029951192 0.027283683 0.063175246 0.0019395826 0.043870192 -0.010143282
142 0.0019804735 -0.070326336 -0.009989112 0.007859394 0.017385932 -0.015793234 0.0031255004 -0.02040018 0.061147403 -0.036524225 0.0072066216 0.0016710395 0.0050859954 -0.0021508385 -0.01585534 0.006005347 -0.04001554 -0.039767403 -0.031395532 0.025459647 0.008693242 0.008108946 0.017180357 -0.00454879 0.03588396 0.0070799305 0.011210194 0.034700476 0.06413464 0.0014324802 0.012359231 -0.011124618 -0.00681184 -0.02151894 -0.032749336 0.028396187 -0.060505014 0.003358434 -0.010364689 0.05600448 -0.006454901 -0.013644215 0.014980453 -0.036508877 -0.020742454 0.028396264 0.04148877 -0.0042853826 0.0355955 -0.021443715
175 0.010636938 -0.071767375 -0.010396778 0.016892588 0.013557251 -0.0006785326 0.01286351 -0.007003906 0.067477696 -0.053007923 0.010495195 0.012936422 0.005596174 0.0018847666 -0.0077378987 0.021868939 -0.049316105 -0.051996466 -0.035905365 0.027813524 0.0094416095 0.020646675 0.0277628 -0.0046025603 0.039591897 0.009142401 0.005774426 0.046347134 0.07275152 -0.017459136 0.010498119 -0.020901449 -0.010354053 -0.02922894 -0.033488367 0.035921514 -0.052515972 0.0051831785 -0.008224292 0.069285624 -0.007892453 -0.022553958 0.013319292 -0.02966475 -0.021636555 0.040938467 0.047415785 0.0047865105 0.052801155 -0.0061887326
326 0.008488018 -0.060809717 0.0014006129 -0.0020520752 0.011883945 0.0015288548 -0.0017705105 -0.005701295 0.060748547 -0.032065507 -0.0002380833 0.016642384 0.0045395503 0.0053251423 -0.0047513726 0.006388615 -0.039332177 -0.0352357 -0.028390655 0.018166112 -0.0060443957 0.0058001988 0.012165251 -4.053843e-05 0.03988725 0.007832905 0.009119775 0.03965137 0.04727895 -0.0032268644 0.011369006 -0.025843184 -0.015989764 -0.017860023 -0.026709197 0.01669736 -0.040520273 0.017816601 -0.012187858 0.060475435 -0.009130824 -0.021306735 0.008933122 -0.034392506 -0.029175725 0.024122149 0.05918354 -0.004624064 0.044870432 -0.0071837152
188 0.010213481 -0.05185682 -0.00915445 0.004922903 0.013599611 -0.0033279303 0.010233203 -0.008021407 0.047604702 -0.038761217 -0.0059173005 0.007910915 -0.0037113298 -0.003022639 -0.0071828547 0.024362894 -0.027632736 -0.04331902 -0.028593665 0.009553631 -0.0025634405 0.014081192 0.010247276 -0.01958639 0.02969305 0.017459845 -0.0016403805 0.041379463 0.050029084 -0.016868569 0.0061581573 -0.023049494 -0.0005407224 -0.026139 -0.030629257 0.027383713 -0.04246494 0.006572642 -0.0130942715 0.06340867 -0.008441069 -0.023450531 0.006091862 -0.03529417 -0.023481304 0.024851201 0.049262144 0.0063408962 0.041915745 -0.01707913
339 0.0036787011 -0.07842783 -0.0034108777 0.0041353735 0.014998469 -0.0021069613 -0.0029007732 -0.01794467 0.06456788 -0.033440225 -0.008920182 0.0019405857 0.0013039823 -0.0103221955 -0.023378707 0.015713118 -0.03478138 -0.049035978 -0.0345234 0.024503695 0.008217494 0.017237546 0.016141772 -0.022193069 0.031496763 0.0077354386 -0.0055436124 0.047894806 0.065496795 0.0007812364 0.0009373695 -0.02029259 -0.014819434 -0.025330178 -0.032088477 0.027489116 -0.06830473 0.010037811 -0.006148356 0.06651227 -0.012091587 -0.034721255 0.024326375 -0.040504 -0.019862741 0.042950224 0.061629817 0.0024623845 0.045618344 -0.019769011
227 -0.0013084987 -0.08188912 -0.0028990924 0.0039543104 0.02357823 -0.012582962 0.0043118866 -0.0069813263 0.05949732 -0.04731196 -0.004208945 0.00431602 0.0041439724 -0.0029950798 -0.014274243 0.02393558 -0.036043074 -0.04108879 -0.031781435 0.026937656 -0.005999965 0.019921536 0.019234076 -0.017049506 0.04398692 0.01988364 0.005232968 0.04849798 0.06710292 -0.007702459 0.001733288 -0.038714673 -0.013164516 -0.0327412 -0.03302001 0.037752874 -0.06087827 0.002536536 -0.010475567 0.06648385 0.0047921906 -0.035284813 0.031344738 -0.03011675 -0.033446983 0.046451606 0.06033288 -0.005021448 0.05985348 -0.0040181666
332 0.00937063 -0.055872787 -0.0056614513 0.004134122 0.011198442 -0.0009307102 0.004346032 -0.015067737 0.039573558 -0.038223002 0.003624543 -0.0010416615 -0.0065009156 0.0044622817 -0.015036356 0.011120684 -0.023037171 -0.046262063 -0.033655826 0.026400397 -0.0016533459 0.002478687 0.022472678 -0.0040378934 0.0235101 0.010650001 -0.0018501125 0.034709085 0.050864276 -0.0070358044 0.010078046 -0.024598416 -0.0034416784 -0.015277786 -0.014484436 0.02736329 -0.054761894 0.014419474 -0.005268878 0.045315336 -0.005455996 -0.012459666 0.016214572 -0.019872714 -0.03004034 0.038743652 0.051999334 0.0074675158 0.048303265 -0.016018907
99 0.00076457707 -0.075660236 -0.012703785 0.013141073 0.009821818 -0.01008872 -4.546825e-05 -0.012035062 0.07002137 -0.04582389 -0.008886002 0.02075602 0.015813874 0.006083337 -0.007041863 0.016504342 -0.042115793 -0.0501755 -0.032693278 0.01703666 -0.00083746883 0.019195588 0.016733145 -0.0049711033 0.04954562 0.011774492 0.011328793 0.04611798 0.053823 0.0001591431 0.008309286 -0.02173685 -0.012200562 -0.036784906 -0.035089772 0.021872643 -0.067545295 0.0010535517 -0.016634332 0.07311664 -0.0069139623 -0.020458207 0.019922823 -0.031390116 -0.035765275 0.038576514 0.050363667 0.0066387993 0.050277274 -0.0077579226
313 0.007745449 -0.062497728 -0.011203905 0.006004246 0.024634812 0.0033525615 0.010246539 -0.014861282 0.05649929 -0.026502585 -0.0041464134 0.011864963 0.013969009 -0.000828736 -0.0050124796 0.019760255 -0.02907822 -0.036674716 -0.025205659 0.011109682 -0.00048364108 0.0032920784 0.009478064 -0.012196748 0.035977572 0.0017562878 0.0051203854 0.036263943 0.05815028 -0.0017143422 0.012422869 -0.022417268 -0.001481156 -0.02406094 -0.024813436 0.0260966 -0.040354427 0.011224935 -0.018350488 0.0560768 0.004613245 -0.023724856 0.019432954 -0.024333114 -0.018636713 0.026509332 0.05090519 0.0047195894 0.04073076 -0.008263808
261 0.009294516 -0.051647764 0.0013314286 0.0024691008 0.008219867 -0.008864532 0.010958817 -0.011088831 0.05271949 -0.042770296 0.0016194977 0.0057594585 0.004878152 -0.009000541 -0.012548323 0.023889884 -0.04066757 -0.047905177 -0.019853164 0.009301413 -0.0054873475 0.019380236 0.020615157 -0.016448809 0.02465184 0.010088508 0.012321583 0.026230313 0.056091633 -0.016914284 0.009425706 -0.030802876 -0.0125840055 -0.015042103 -0.020538272 0.02413192 -0.05839899 0.005850315 -0.0074829166 0.04910215 -0.0026701174 -0.017955422 0.012162797 -0.02198768 -0.020690143 0.036840104 0.05484034 -0.0043553743 0.05053604 -0.0059112096
324 -0.008607029 -0.07351002 -0.005014726 0.003718785 0.013360992 -0.004240394 0.006931327 -0.01414201 0.05263574 -0.0443909 0.002070244 0.0060649435 0.00902787 -0.0097275255 -0.021239556 0.0058780485 -0.036326367 -0.04076549 -0.039011985 0.018787727 -0.0065703653 0.008651111 0.025231533 -0.02072573 0.029001854 0.0052458355 -0.0050723897 0.03968928 0.060580608 -0.016785998 0.0072593684 -0.028063672 -0.009299469 -0.024450645 -0.014605914 0.02382022 -0.050518237 0.01648003 -0.00515539 0.051133953 -0.008102181 -0.028263753 0.00841907 -0.021648424 -0.025469381 0.035991643 0.060580358 -0.0012181866 0.057989843 -0.020191433
319 -0.004912183 -0.060749765 -0.014875591 0.007950098 0.020444764 0.00563917 0.0031445133 -0.014882715 0.053346843 -0.042365357 -0.00086066365 0.017694041 -0.002640565 0.0025779847 -0.014869642 0.01802199 -0.027960543 -0.029689303 -0.026323652 0.005396826 0.0061023436 0.007919225 0.024343831 -0.0019142756 0.039238565 0.011841252 0.0041153235 0.04268966 0.057567444 -0.015168522 0.012655178 -0.021057239 -0.008612508 -0.028490085 -0.015850374 0.014444757 -0.0537316 0.012863529 -0.012492847 0.05928738 -0.0125040095 -0.01632048 0.015909186 -0.028338097 -0.03062661 0.03220684 0.04117744 -0.0001913178 0.036810666 -0.0050234846
192 -0.0025904435 -0.06753635 -0.001986059 0.005717568 0.014356622 -0.017074171 0.011817542 -0.0025386673 0.047428183 -0.046777166 -0.00144904 0.0076651536 0.006334389 -0.007961653 -0.0062949415 0.021410914 -0.042719293 -0.052960403 -0.025657019 0.011343475 0.0005329008 0.016748149 0.025628792 -0.017711962 0.0411891 -0.0017069299 0.012667652 0.043661386 0.05632163 -0.00013153722 0.015668066 -0.017155696 -0.010133385 -0.018605927 -0.018722577 0.022730399 -0.057371832 0.0043827104 -0.010569602 0.06652291 0.0052720024 -0.013793492 0.019123042 -0.038378492 -0.021526752 0.043869484 0.047019027 -0.0017571542 0.058915846 -0.00830798
242 -0.0070484574 -0.067476474 -0.0076541486 0.008862664 0.015516169 -0.013867014 -0.00097049616 -0.016184185 0.049093228 -0.032379534 0.0018661418 0.00941404 -0.0041052056 -0.0004989112 -0.014630788 0.0117946705 -0.030531948 -0.04832932 -0.028849065 0.02488521 0.011300629 0.017935114 0.019973148 -0.01324486 0.036574513 0.014470553 0.007829614 0.026162665 0.051678367 0.0024030365 0.0084917545 -0.026369581 -0.01397731 -0.020684233 -0.033262055 0.0312636 -0.05288506 0.0018247605 -0.016391441 0.051486157 0.005804482 -0.019933851 0.019261649 -0.024623154 -0.013657701 0.035974372 0.05100755 0.0060868235 0.046242557 -0.0233147
143 0.004030698 -0.079621844 -0.00858727 -0.0013724703 0.026770104 -0.011345438 0.013162874 -0.0050172037 0.05840335 -0.0361426 0.008409151 0.015719755 0.013644956 -0.009975826 -0.011780559 0.014634663 -0.04924371 -0.047208697 -0.03585332 0.025431458 0.0026671453 0.022774458 0.024479868 -0.016637301 0.04440272 0.0014962286 0.007271232 0.054548927 0.069056526 -0.014500456 0.010997171 -0.037004054 -0.0033363423 -0.034512933 -0.034803037 0.03850391 -0.054130606 0.0092094 -0.009657544 0.07740841 -0.0035646234 -0.021539222 0.03016852 -0.025676666 -0.028237471 0.033558913 0.054311268 -0.0033583948 0.047358744 -0.010323582
169 0.0062738564 -0.06442669 -0.0010530701 0.014613398 0.013363484 -0.01434999 -0.0030515504 -0.0057275216 0.05480367 -0.030583749 0.0077664303 0.0060075857 0.0060690455 -0.0043133353 -0.005582154 0.019597603 -0.023845823 -0.049540304 -0.032257307 0.019804271 -0.0035453646 0.021870079 0.011113349 -0.011148421 0.04266396 0.013927892 0.0018369667 0.029220717 0.048974507 -0.0037053514 0.006498852 -0.018319963 -0.011346953 -0.022422962 -0.016620124 0.024132902 -0.053411108 0.018706005 -0.0076261144 0.04945209 -0.0003824378 -0.013807936 0.014207417 -0.036092684 -0.022659685 0.036891516 0.05514859 -0.0049402816 0.047128692 -0.005831022
343 0.00025912284 -0.058483165 0.002321976 -0.0008894402 0.021975167 -0.0049209227 0.0065930644 -0.007651941 0.052378304 -0.025927557 0.00024740837 0.011883231 0.008016411 0.0016933414 -0.0029061541 0.012746784 -0.020738402 -0.032087956 -0.033137046 0.013774612 -0.0014212283 0.008844615 0.011305743 0.0005671134 0.03780799 0.0017867222 0.0040585003 0.03575256 0.050931785 -0.005933183 0.00968645 -0.027057819 -0.010620999 -0.027086858 -0.026028888 0.018226046 -0.035692308 0.002389898 -0.016569754 0.052880093 0.0056152963 -0.027738336 0.010611036 -0.021980168 -0.020279858 0.036534138 0.04790556 -0.006574023 0.03125435 -0.009072244
80 -0.0016786054 -0.06407218 -0.0016700812 0.00807788 0.029309848 0.0010615581 0.0028648619 -0.008099187 0.06303677 -0.033411935 0.0058844727 -0.0022962787 0.01048983 0.0043974197 -0.0047255163 0.0066991686 -0.03246119 -0.050905336 -0.030345974 0.025561204 0.0011946484 0.020570572 0.012273057 -0.004569187 0.044947907 0.0020673298 0.00043074167 0.039454866 0.06807788 0.0016396303 0.0041762968 -0.034239452 -0.00807225 -0.029889058 -0.03432064 0.024616884 -0.06058839 0.007897824 -0.015579363 0.059352547 -0.0068411394 -0.027888777 0.025106385 -0.033338215 -0.03503145 0.033845197 0.052398577 0.003130833 0.058274355 -0.02015942
223 0.004302851 -0.0612472 -0.001842691 0.0100402525 0.017838947 0.0033547182 0.003107696 -0.014630522 0.048059 -0.029366713 0.008012118 0.004568096 0.009222781 0.00023306048 6.444634e-05 0.017700216 -0.027940134 -0.02920186 -0.028244266 0.018500118 -0.009207888 0.018536137 0.026318166 -0.015832042 0.032029066 0.015054653 0.00038739588 0.037586108 0.040447295 2.976344e-05 0.011021717 -0.023463227 0.0046859914 -0.029935822 -0.025825407 0.014258958 -0.046859562 0.007160178 -0.0012973726 0.040253088 0.007889273 -0.013841762 0.014140245 -0.0325452 -0.019130975 0.029827595 0.03441661 -0.009426313 0.042146027 -0.013915476
49 -0.013360292 -0.05874585 0.00053257414 0.0063083023 0.026591534 -0.007034074 0.00038973437 -0.020135865 0.048707478 -0.030491093 -0.005102295 0.0025405837 0.0051782294 -0.006579788 -0.015658488 0.026985684 -0.040632322 -0.053005114 -0.030049726 0.01268271 -0.0071053966 0.016913116 0.025203558 -0.01215151 0.035192553 -0.004842767 -1.4403801e-05 0.042109482 0.06898811 -0.0021842578 0.009605207 -0.035344537 -0.009488034 -0.017353632 -0.029742682 0.03513488 -0.052104954 0.013756314 -0.0012020785 0.069929145 0.00027337339 -0.03356297 0.0076213884 -0.036381487 -0.025979212 0.025571156 0.06658817 -0.013425595 0.045178443 -0.0060002534
8 0.010879436 -0.057007242 -0.0079152025 0.00747382 0.020486949 -0.013048314 0.018746557 -0.012365011 0.06987758 -0.030422034 0.0031496375 0.002323352 0.0062903436 -0.009308202 -0.016515115 0.019529274 -0.04082112 -0.038216617 -0.027343517 0.030863395 -0.0053536585 0.014314182 0.026630402 -0.018097177 0.039148822 0.005572585 0.019443639 0.033971727 0.06003676 -0.012980078 0.006653471 -0.017255878 -0.0065819263 -0.018921683 -0.019076414 0.017893296 -0.062363602 0.014668928 -0.02232825 0.056469522 0.0058599445 -0.023192994 0.014404634 -0.031043507 -0.019682452 0.02415666 0.04830387 0.008247636 0.057059433 -0.022533128
325 -0.008917518 -0.07399633 0.0016999019 0.005302549 0.020775395 -0.007950421 0.013713751 -0.011498501 0.05966646 -0.046593063 0.008710739 0.010000192 -0.0012646215 0.0034399075 -0.005976769 0.012164739 -0.034758158 -0.051994953 -0.033973668 0.014236666 0.0074306186 0.020550631 0.026295828 -0.016682995 0.03681125 0.0026672024 0.014912387 0.046313364 0.057097323 -0.0067139375 0.001910279 -0.017150039 -0.014122682 -0.03292912 -0.01685999 0.021868384 -0.047595296 0.010206016 -0.007504516 0.064669155 -0.0065388177 -0.018615562 0.018987982 -0.029181896 -0.034248136 0.034671567 0.05232576 8.2162216e-05 0.052060205 -0.009174193
299 -0.00031629464 -0.07722389 -0.008024516 0.017517194 0.02490413 -0.00496738 -0.00219827 -0.021574736 0.06513825 -0.046819832 0.0015289054 -6.1453706e-05 -0.0028664572 -0.012411161 -0.018889703 0.018954858 -0.033992853 -0.036730982 -0.028290922 0.02916636 0.011104864 0.02248165 0.028796809 -0.007853129 0.043990217 0.0034385098 0.0120095 0.04013227 0.065888196 -0.011340448 0.008517831 -0.026233912 0.002390483 -0.036298424 -0.031777263 0.02594322 -0.061736125 0.008796145 -0.0076268963 0.061222542 -0.010085195 -0.02106438 0.0141374795 -0.028960746 -0.033404853 0.03529639 0.05077189 -0.0111098755 0.042243622 -0.025470832
179 -0.006545119 -0.073938504 -0.020175613 0.0076835435 0.03005175 0.0046375003 0.0015953914 -0.008961765 0.072550714 -0.049229138 0.0065169553 0.0137980515 -0.004513154 -0.0036894437 -0.018535893 0.012216429 -0.047880135 -0.04453386 -0.038950216 0.022064839 0.00995097 0.024584888 0.024211876 -0.015156451 0.03820226 0.0107243955 -0.0060519883 0.05387487 0.06124182 -0.011705765 0.018133694 -0.023715489 -0.010291939 -0.042610507 -0.017463967 0.02715007 -0.051390298 0.0108933635 -0.016906817 0.066023715 -0.00819256 -0.04116876 0.028107064 -0.02782327 -0.038070418 0.05263905 0.07473896 6.313811e-05 0.048356026 -0.016255286
236 -0.009366885 -0.06007303 -0.0045310324 0.0005049246 0.013317555 -0.010295638 0.0026143524 -0.018782198 0.052322123 -0.026183734 -0.0036549713 0.015790336 -0.0033888102 -0.0078547895 -0.001015693 0.005460459 -0.024951357 -0.046384014 -0.029982971 0.018961087 -0.0012168711 0.0037352233 0.01122865 -0.017329497 0.036169905 0.0040001296 0.011262985 0.042143334 0.058356456 -0.011372167 7.342833e-05 -0.011218622 0.0014057992 -0.030640366 -0.030079808 0.013051472 -0.03862792 0.009391721 -0.011739236 0.051675007 -0.012322924 -0.012406579 0.021062829 -0.029777069 -0.026063258 0.037504964 0.040964868 -0.0023459897 0.032271314 -0.0049612597
89 0.01080297 -0.063238375 -0.0110389795 0.00991077 0.020988679 0.0037613104 0.013050236 -0.0041817864 0.06631975 -0.050199658 -0.0024159895 0.019142943 0.016199697 -0.00017010822 -0.018109776 0.019507078 -0.042709094 -0.036200292 -0.03347058 0.021856261 -0.008128007 0.02352789 0.019800488 -0.0052378057 0.051144913 0.014389596 0.01829511 0.035185322 0.06852384 -0.005708054 0.019553727 -0.0139021175 -0.014156856 -0.019927582 -0.035018653 0.015892439 -0.05967942 0.00037400893 -0.015815703 0.07461661 0.0017078655 -0.024189722 0.0077493596 -0.033886608 -0.02700825 0.04741747 0.04592759 -0.00018318764 0.044400405 -0.018600775
181 0.008965882 -0.0733054 -0.004733368 0.00050867966 0.014519765 -0.0076534906 0.016522957 -0.009258627 0.06478066 -0.028574254 -0.00028460796 0.008963333 0.012566566 -0.00740125 -0.020000277 0.021171406 -0.03874153 -0.041638188 -0.02151391 0.026763435 -0.0038236263 0.014320066 0.014235448 -0.0038215932 0.03591721 0.0175981 0.0057465043 0.052298933 0.06639145 -0.010455083 0.017373066 -0.016948147 -0.01424138 -0.026210545 -0.037184488 0.018505562 -0.06604462 0.019779935 -0.0076481695 0.057304163 -0.008073129 -0.01740604 0.01667006 -0.040535457 -0.025718173 0.045412187 0.050029848 -0.0153273195 0.045545816 -0.016827574
323 -0.007095721 -0.04889071 -0.006972091 0.0033941215 0.01957209 -0.010884665 -0.00023559055 -0.0018691106 0.0500706 -0.03413022 0.0031599486 -0.001021404 0.00495901 -0.0076169726 -0.009683922 0.010034513 -0.0371485 -0.03388081 -0.015865613 0.0074938377 -0.0004993114 0.005668629 0.010981648 -0.0050148303 0.040038753 0.008717904 -0.0044683656 0.035803616 0.04950251 0.0014441636 0.004696317 -0.013008264 0.0031811425 -0.0124168685 -0.023460083 0.0260735 -0.04488736 0.014429765 -0.0005969266 0.043568533 0.001929734 -0.026300604 0.023793409 -0.030791488 -0.028870128 0.025459133 0.04892231 -0.0064797383 0.04103602 -0.007875172
109 -0.0031644264 -0.050203793 -0.004641628 0.005669628 0.0057240305 0.00047737494 0.009455458 -0.012436626 0.053930897 -0.029398797 0.004366311 -0.002186662 0.00816951 0.0055682613 -0.0026580843 0.0049581407 -0.037842784 -0.041424967 -0.01821134 0.0076238355 0.0014342662 0.0071746474 0.00694945 -0.013778541 0.02921587 -0.0014405183 0.006414552 0.036942754 0.041709498 -0.015181765 0.0023258992 -0.019017922 -0.0036827778 -0.016115023 -0.029489674 0.018422082 -0.052069783 -0.00052662357 -0.012660673 0.057271447 -0.004277654 -0.011326231 0.010740528 -0.030583173 -0.029127562 0.022233501 0.04970928 0.0015161565 0.03085098 -0.020553863
185 0.007769773 -0.06311488 0.0009304239 0.010616198 0.014958347 -0.013277138 0.009331005 -0.017351402 0.045385662 -0.022822905 -0.0038161795 -0.0013002853 0.0009121161 -0.009641723 -0.008500584 0.011820103 -0.035176005 -0.040076476 -0.024407037 0.025464294 -0.0037379512 0.012589826 0.026009137 -0.016600898 0.038972493 0.012004245 0.009361113 0.026408942 0.04938193 -0.012721969 0.009247358 -0.02745097 -0.0077625755 -0.02149825 -0.024174394 0.02858223 -0.046018556 0.003996459 0.0017560403 0.04733933 -0.0099014705 -0.025429007 0.01674284 -0.026729606 -0.0148234 0.0338671 0.05265227 -0.0026201657 0.037180394 -0.020634476
172 0.006508474 -0.057292413 -0.009681806 0.0132761495 0.01032427 0.00083952385 0.001468726 -0.01147996 0.04345523 -0.024034414 -0.0023653186 0.008423448 0.008877229 -0.010187391 -0.01280192 0.021187099 -0.02786266 -0.04251885 -0.03478796 0.012420961 -0.0063627055 0.00097478187 0.02362744 -0.0023169098 0.034862954 0.011449497 0.0060502887 0.02694387 0.050297108 -0.011970045 0.0054483265 -0.013921681 -0.014797401 -0.021893568 -0.025599191 0.028682653 -0.05256915 0.0086834775 -0.0076483362 0.047490112 0.0022024934 -0.016637951 0.017618759 -0.03641474 -0.0154326875 0.021642137 0.05191693 -0.007970161 0.04449458 -0.012653248
213 0.0036804862 -0.059600458 -0.010323127 0.0094975475 0.00863978 -0.0013760305 -0.0010246435 -0.01786016 0.044639472 -0.025016483 0.0019265932 0.006470166 -0.0008151206 -0.0051231524 -0.009811207 0.02107274 -0.03961454 -0.04033741 -0.030006763 0.014966375 -0.0029116494 0.016903523 0.011678521 -0.014206432 0.026922874 -0.0014045852 -0.005110007 0.036458362 0.047975995 -0.016497469 0.0051191645 -0.012547709 -0.014043757 -0.02855306 -0.029912384 0.025895579 -0.051062915 0.0068334695 -0.0072934497 0.04360664 2.4731953e-05 -0.01583725 0.0068875533 -0.032144934 -0.026499111 0.028002284 0.03934526 -0.009762755 0.051003274 -0.017791258
31 -0.004734895 -0.06655774 -0.010766642 -0.002015496 0.026676707 0.0033867597 0.012060006 -0.015085977 0.05221396 -0.028196761 -0.0031586343 0.010307339 0.009354146 -0.0016141584 -0.0094657475 0.005570015 -0.028777516 -0.038952824 -0.028891403 0.009695946 0.00977634 0.012101497 0.026057888 -0.020533519 0.034604892 -0.0031022707 0.0036024477 0.038170114 0.057633385 -0.013754085 0.013844286 -0.021320611 -0.009606993 -0.027900802 -0.019693052 0.016216354 -0.056865413 -1.8504288e-05 -0.015479753 0.0652474 0.002057102 -0.015270282 0.0138064455 -0.026524583 -0.026203811 0.039386265 0.054935116 -0.004229278 0.04952923 -0.008185023
20 -0.0070072864 -0.062809944 -0.0038497958 0.009064197 0.022687031 -0.00039369837 0.0016946372 -0.018268874 0.04507381 -0.02761081 0.0109668365 0.015148613 0.009150644 0.0019340112 -0.01132237 0.015984634 -0.022495834 -0.032891627 -0.016402956 0.02612129 -0.004097897 0.010675291 0.019365927 -0.0030332676 0.030755734 0.001768831 -0.0067442837 0.027013054 0.042381562 -0.0020137844 0.002077249 -0.012262009 -0.011051598 -0.022471007 -0.017660784 0.023389356 -0.054472156 0.008811987 -0.010148194 0.05545642 -0.009344497 -0.031160396 0.008224176 -0.036782026 -0.014122665 0.027134994 0.057751395 -0.0075927204 0.041391224 -0.016647648
310 0.008490754 -0.07571563 -0.018570947 -0.0025293822 0.023635209 -0.008061434 0.011964129 -0.01329145 0.052014418 -0.04325081 0.0071154125 0.018346878 0.006107781 -0.001915283 -0.01196855 0.017863123 -0.0354769 -0.04673898 -0.030136209 0.031295795 -0.0025276986 0.0022821312 0.02872097 -0.00982689 0.031811424 0.01656352 -0.0005909072 0.03648616 0.067887284 0.00077550946 0.01689396 -0.033457443 -0.0067288443 -0.025113823 -0.02839944 0.014218901 -0.06401833 0.0076306793 -0.007349281 0.05518141 -0.006011225 -0.036948755 0.02341994 -0.029338188 -0.02826714 0.028572576 0.05039828 0.0005870462 0.056959238 -0.024821315
204 -0.0052552214 -0.076822996 -0.016335808 -0.0021223826 0.0291265 0.00036520188 0.005792981 -0.0201293 0.055074092 -0.03926375 0.009626643 -0.002221224 0.0037752732 -0.010417182 -0.004621266 0.018771177 -0.02987148 -0.053719535 -0.020939955 0.025158083 0.008749628 0.019920925 0.02643478 -0.018230008 0.041413452 0.010140224 0.006613429 0.048810713 0.059418406 -0.012127495 0.00927443 -0.018159617 -0.004991364 -0.034147073 -0.02581972 0.029855909 -0.062308323 0.01791108 -0.0050227223 0.061936893 -0.009055328 -0.033538874 0.015859792 -0.021641893 -0.031887278 0.037046872 0.060577776 -0.00415498 0.05954981 -0.023388376
137 0.007350943 -0.070420764 0.00032742217 -0.0040409244 0.021237712 -0.011916573 -0.0051687243 -0.022312691 0.064704515 -0.042274345 0.011394736 0.0068180524 -0.0030661132 -0.008057356 -0.013411254 0.017169653 -0.0305615 -0.042778198 -0.021672374 0.026220638 -0.010050038 0.017961131 0.011351231 -0.008814198 0.029652689 0.0023608697 0.012005031 0.03152597 0.053581454 -0.004870792 0.016216053 -0.013373874 -0.0057012965 -0.026075112 -0.023715729 0.01570887 -0.058142684 0.0090303365 -0.01929793 0.059797697 0.00095728016 -0.018306918 0.02598639 -0.038369708 -0.019925438 0.042577554 0.05742701 -0.013371736 0.05171742 -0.012085889
259 -0.0071309665 -0.065110296 -0.011823883 0.0095147835 0.029094262 -0.0039488957 0.018437978 -0.01692018 0.06507119 -0.030358396 -0.008740778 0.00507546 0.006288946 -0.0117965825 -0.019780068 0.024456328 -0.040738482 -0.039233647 -0.027809365 0.023027364 0.010288689 0.017229404 0.028680759 -0.025661938 0.050118573 0.006588285 0.017241793 0.045437485 0.06244826 -0.004582084 -0.0010560666 -0.02894347 -0.0019354464 -0.022259142 -0.024801804 0.032195624 -0.06122868 0.014412174 -0.008900221 0.054852374 -0.010617998 -0.022074157 0.027911289 -0.03307189 -0.01622189 0.040330805 0.049661726 0.0059765116 0.06169689 -0.01988325
101 0.00044401296 -0.06626192 -0.01710636 0.015037006 0.025727043 -0.0072452333 -0.0018597824 -0.001285009 0.05081374 -0.038613513 0.004124902 0.0056847124 0.0018511404 0.005466802 -0.013394176 0.013785345 -0.033695154 -0.04648392 -0.028924763 0.014973465 -0.0025977087 0.0021117895 0.021432284 -0.0054950085 0.04422816 -0.0011085069 0.008638116 0.0388165 0.05986472 -0.011920121 -0.00044323312 -0.019134613 0.004755559 -0.03302335 -0.024763925 0.028630067 -0.056416966 0.018937694 -0.0044402955 0.062940605 -0.010058771 -0.016602471 0.017217329 -0.020372726 -0.031336296 0.037661992 0.051575474 -0.004134245 0.037050176 -0.009712351
118 -0.0045138216 -0.05233988 -0.0007318585 0.013814832 0.008017875 -0.013619192 0.009229322 -0.018000847 0.034562033 -0.038087428 -0.005322738 0.015282677 0.0015502694 -0.005683109 -0.013591985 0.013767673 -0.0306405 -0.02826364 -0.027375309 0.016486656 0.0046636746 0.016823905 0.023121182 -0.006717193 0.0380756 0.00039635826 0.004486536 0.031177603 0.039062317 -0.006617153 0.0067813727 -0.025243139 0.004645529 -0.014733319 -0.02029246 0.0194712 -0.042177815 0.008237558 -0.00029309242 0.040678047 -0.011601066 -0.024526482 0.018129395 -0.03441981 -0.02630224 0.019210616 0.033830274 0.0044479775 0.042220887 -0.017732214
297 0.0065159183 -0.04068613 0.003410113 -0.0020608758 0.019156681 -0.007616104 0.004085827 -0.007944879 0.030769164 -0.019749844 0.0001668495 0.009167762 0.0051344475 -0.009935835 -0.012179773 0.013051311 -0.019932909 -0.026390811 -0.014525362 0.005648689 -0.004103862 0.0036814823 0.0057448433 -0.0013709652 0.030871287 0.004063039 0.0070118727 0.02445617 0.025551418 -0.0031281014 0.00061127375 -0.013098942 0.0037746793 -0.024103537 -0.006981784 0.024428532 -0.025020681 0.011757199 -0.0079901675 0.045661774 0.004832536 -0.009599561 0.0020810124 -0.016348554 -0.016259698 0.030550329 0.03586604 -0.011014038 0.03532284 -0.009932209
91 0.005099639 -0.06829354 -0.0050107017 -4.7135163e-05 0.013803709 -0.013890132 0.010267154 -0.01584286 0.055236902 -0.031338412 -0.006480919 0.004686802 -0.0052861543 0.0017950065 -0.018062603 0.0073946463 -0.039095376 -0.048104256 -0.035016797 0.016584357 0.0123829525 0.010872806 0.030707937 -0.024566904 0.0501401 0.009419549 0.008244487 0.047106974 0.052961502 -0.01829938 -0.005861995 -0.027279358 -0.008272228 -0.02272132 -0.015900023 0.023557631 -0.053917043 -7.907611e-05 -0.020397121 0.052037627 -0.0077408426 -0.032514587 0.029001525 -0.036302563 -0.02400096 0.030599061 0.0496465 0.009723432 0.049584568 -0.011108954
177 -0.0005390784 -0.06889204 -0.012299646 -0.0035811407 0.017708685 -0.009752576 0.0067686397 -0.00952482 0.050750773 -0.027845329 0.008467605 0.00094153656 0.009544712 0.005746998 -0.005478568 0.019522704 -0.042435363 -0.036690883 -0.038267445 0.026132654 0.00060589076 0.012714502 0.011119699 -0.012345004 0.038144827 0.01742886 0.016160995 0.040869813 0.045803063 0.0030135384 0.005819802 -0.025067225 -0.0063975616 -0.026994282 -0.022695862 0.021741124 -0.04965594 0.01963012 -0.01522035 0.06821637 -0.0103235645 -0.017571298 0.025166186 -0.029584285 -0.026523324 0.03333644 0.059616257 0.0044206437 0.040817477 -0.0031697901
113 -0.0032994866 -0.059494514 -0.015771315 0.0014261241 0.0071667093 -0.007160813 0.0074494346 -0.01654515 0.046120413 -0.028296 -0.0067690467 0.009191384 0.0037822418 -0.00056679145 -0.012272325 0.0064392784 -0.0275142 -0.029817922 -0.026213633 0.015951993 0.0071889637 0.01971024 0.010885096 -0.001739987 0.0277639 0.007645269 -0.0007870548 0.040693145 0.051341165 -0.0043815644 0.005064952 -0.02017741 0.0011052653 -0.011880907 -0.018637128 0.031364024 -0.043591596 0.0034167904 -0.006005449 0.06034629 -0.0013458788 -0.013763566 0.018678395 -0.029901208 -0.014300982 0.037281606 0.044709932 -0.005104626 0.048784647 -0.012631409
194 -0.00084322674 -0.06413542 -0.012401069 0.006865147 0.011170608 -0.0014157647 -0.005951473 -0.020744063 0.05661803 -0.035793494 0.0072451076 0.005691171 0.006141038 -0.005357893 -0.017865814 0.016514963 -0.039442923 -0.04586305 -0.036734696 0.0116574215 0.009939547 0.013817894 0.009988698 -0.01158184 0.03689512 0.016990613 0.01087268 0.03470146 0.053269178 -0.0130509185 -0.0028549242 -0.024350619 -0.012896331 -0.029567575 -0.033183128 0.016036853 -0.049779817 0.010855517 -0.0029277592 0.0633119 -0.0058130496 -0.016988402 0.0060657933 -0.03635876 -0.020949433 0.035678644 0.04292448 -0.011121219 0.04970339 -0.019674828
116 0.0028209595 -0.043659166 -0.011216821 0.0006473863 0.021299876 0.0013204404 -0.000195749 -0.010878677 0.04715953 -0.034716874 0.0027605495 0.0044633825 -0.003902062 -0.005929506 -0.012149456 0.018976297 -0.017082976 -0.020496303 -0.024625026 0.011010371 -0.0012805124 0.014822132 0.013416054 -0.01405767 0.024013136 0.0033828972 -0.003908436 0.032430075 0.042608235 0.0013288455 0.0074130585 -0.020974325 0.0037786902 -0.025204783 -0.023643496 0.01705194 -0.033562638 0.0026597779 -0.0066673006 0.041737672 -0.007968438 -0.012439374 0.014217066 -0.030095318 -0.025230275 0.030699342 0.035893593 0.0017677466 0.032357138 -0.017751163
224 -0.006015019 -0.047949083 -0.008995358 0.003952826 0.016425818 0.005064988 -0.005084728 -0.010913334 0.04446437 -0.033127926 -0.00656879 0.015973661 0.0009612979 -0.009000139 -0.0011417546 0.007006863 -0.01761036 -0.03952707 -0.030207848 0.011189426 -0.0070027816 0.008817908 0.013162687 -0.0075698285 0.040013798 0.011071876 -0.0039601773 0.025458457 0.043846272 -0.0062661585 0.0070109945 -0.021789808 -0.0077785496 -0.022781922 -0.023097025 0.025118124 -0.045803685 0.017554564 -0.0015669267 0.050808296 -0.0045744404 -0.028321294 0.013231429 -0.022366414 -0.016630387 0.037385967 0.032578923 0.0003068403 0.035491783 -0.007822183
334 0.009001436 -0.050130136 -0.006382616 0.007932726 0.007428635 0.00043808983 0.0008701236 -0.005835023 0.045254823 -0.032511443 -0.0062407823 0.007875656 0.010034286 -0.0015406485 -0.0024722621 0.02192439 -0.025525276 -0.037375536 -0.03034777 0.023484671 -0.008223193 0.019745016 0.008965171 -0.0014430814 0.021459721 0.0070696333 0.010573371 0.031158209 0.05039964 0.0028094316 0.0071120043 -0.008550508 -0.013908919 -0.020042863 -0.011761831 0.0120782275 -0.03334241 0.012313965 -0.003908946 0.04106223 -0.010832542 -0.011317024 0.0057643587 -0.028202374 -0.015003102 0.020182658 0.045470104 -0.0020723469 0.037047055 -0.012135532
136 -0.0045311786 -0.0756421 -0.006756762 0.013598078 0.024787387 -0.00076466205 -0.0017159003 -0.013274722 0.05314301 -0.030354287 0.007915223 0.014472592 -0.0009231759 0.002198276 -0.013640387 0.008161449 -0.030185968 -0.04818006 -0.035068106 0.027863258 0.007695097 0.02149924 0.026518166 -0.018346831 0.048569717 0.017195417 -0.005382946 0.0393983 0.068029284 -0.0041947253 0.0052992944 -0.022709653 0.0025734366 -0.018513706 -0.032057054 0.031154957 -0.050283752 0.01962208 -0.007109523 0.06045991 -0.009700301 -0.024490733 0.014070481 -0.026671218 -0.023266118 0.04565654 0.065218285 -0.004987098 0.059199385 -0.007463077
219 -0.0019975898 -0.059052397 -0.00080974516 0.016498152 0.018947113 0.005950209 0.015998622 -0.012984241 0.048574198 -0.044661634 0.0022702573 0.0021117209 0.009598481 2.8132059e-05 -0.00882364 0.021651112 -0.030645285 -0.048807856 -0.026091497 0.008011124 7.541764e-05 0.022060001 0.02163819 -0.018067503 0.03463034 0.016392546 0.0029575564 0.028666696 0.047009178 -0.0150512615 0.017617052 -0.010867932 -0.0069147293 -0.025676422 -0.018205894 0.019965107 -0.053051632 0.010154093 -0.0003250242 0.059219163 -0.010239632 -0.026918357 0.021535683 -0.033747 -0.027574487 0.043417785 0.057458006 -0.010614848 0.05185455 -0.014829524
111 -0.0002865635 -0.067390546 -0.008385182 -0.0025149365 0.023718845 -0.0063889157 0.013022657 -0.005428631 0.048938707 -0.037026025 0.004051811 0.01148664 0.0066605806 -0.007842821 -0.0076504806 0.021175148 -0.029564125 -0.043689013 -0.02250482 0.0111995395 -0.009930953 0.009917975 0.022273207 0.0014321879 0.026362928 0.00057363487 0.0062658894 0.04401236 0.061181333 -0.012313388 0.007981798 -0.02329554 0.00060138863 -0.032157555 -0.016976973 0.017405408 -0.04452023 0.009914666 -0.013756909 0.048044853 -0.005344645 -0.027279137 0.010579437 -0.029846286 -0.030912658 0.021134647 0.05069018 -0.011588569 0.040524792 -0.020384744
342 -0.0043348926 -0.052099958 -0.013389078 0.0001960135 0.01966394 0.0029838032 0.0089579895 -0.013153976 0.05286323 -0.029379744 -0.0009271129 0.014059701 0.002806521 -0.009793098 -0.0074539366 0.008139734 -0.023195958 -0.029175404 -0.01634268 0.020013956 0.0014264405 0.018327102 0.0121210115 -0.010185027 0.021060634 0.009904285 0.004315929 0.030894147 0.043967564 -0.0011918664 0.0028834115 -0.010600663 0.0006514177 -0.017835129 -0.0121619105 0.02624966 -0.044473786 0.014308706 0.00078798144 0.038777016 0.0005649164 -0.013990677 0.022062525 -0.025154117 -0.02557397 0.035823368 0.036185622 0.0038553274 0.028856127 -0.0073643466
148 0.0043592486 -0.06170294 -0.01622595 0.0036814448 0.013432399 0.003719109 0.012669059 -0.0023228442 0.060407337 -0.034816775 0.0013268355 0.013761789 0.0029234334 -0.0056919446 -0.017492382 0.007063606 -0.02135557 -0.039509684 -0.018383712 0.010448981 0.0008022903 0.006350703 0.013845036 -0.0067197224 0.02604742 0.011610603 -0.005489331 0.033310417 0.059521314 -0.0167566 0.003953351 -0.013700115 -0.009523408 -0.031304885 -0.025924666 0.020533644 -0.044582058 0.018761264 -0.0052520796 0.06018133 -0.0006077245 -0.027948305 0.025615368 -0.030349704 -0.01706598 0.02255422 0.05076805 0.0058414233 0.038095467 -0.019466363
249 0.00052202964 -0.07179218 -0.0075728213 0.010666024 0.01773152 -0.008997943 -9.9319725e-05 -0.015411968 0.061695535 -0.03342014 -0.00742444 -0.0026737228 -0.001590724 0.0019163953 -0.020360213 0.016851543 -0.023814691 -0.036351334 -0.022222344 0.028004915 -0.0064991107 0.0024386975 0.011927145 -0.00028631822 0.035445746 -0.000115282346 -0.005289345 0.029825687 0.048465353 0.00021791445 -0.00030453762 -0.020054413 0.0016508433 -0.016898522 -0.032123495 0.016070133 -0.0557842 0.019369463 -0.015909238 0.06331715 0.0016514035 -0.023189628 0.022549272 -0.036359537 -0.017219486 0.024708416 0.05957769 0.007274725 0.043556523 -0.022350468
260 0.0087689785 -0.06579639 -0.00086008623 0.016912423 0.012439763 -0.009583557 0.005361201 -0.018933887 0.06518246 -0.033010196 -0.0038578804 0.0088541815 0.0010270509 -0.0075904983 -0.017097289 0.008014646 -0.035542417 -0.045870475 -0.027900629 0.027829852 -0.0016477847 0.008280546 0.029712206 -0.011732327 0.04110554 0.014252517 0.011459865 0.041504648 0.056094654 -0.012804918 0.0043523056 -0.027622718 -0.014553588 -0.032934442 -0.027512847 0.029276429 -0.0485748 0.006067023 -0.011038531 0.073467866 0.0073089357 -0.02290811 0.019047804 -0.038222715 -0.027000856 0.04274618 0.05887776 -0.008288829 0.060929067 -0.008704716
275 -0.0025786932 -0.081037484 -0.014511813 0.0029966983 0.031055685 -0.011033776 0.00480859 -0.024248317 0.06676218 -0.0443102 -0.00844229 0.008447169 -0.0028437427 0.004909803 -0.01769676 0.018396642 -0.026643885 -0.05307947 -0.026696693 0.016171683 -0.009447596 0.019537235 0.022841966 -0.008323544 0.029149257 0.005165367 -0.001336551 0.034149602 0.069541715 -0.00085003825 0.0007534726 -0.027677504 -0.005130221 -0.034934677 -0.028081462 0.03558029 -0.05503232 0.023334075 -0.006075303 0.05926402 -0.0015911241 -0.034944683 0.012487903 -0.03865674 -0.017415129 0.04331258 0.06572886 -0.01597121 0.046148885 -0.018207565
265 -0.0019624014 -0.059234906 0.00092487666 0.012366319 0.014465715 -0.0018725947 0.01075936 -0.008820604 0.05632721 -0.043262318 -0.0069887694 0.004943409 0.011075151 -0.011817729 -0.009103781 0.017848477 -0.029431991 -0.03968545 -0.032306395 0.02561653 -0.007602999 0.0086301 0.02070708 -0.0022874863 0.03648457 0.010461525 0.0049784677 0.036828134 0.04832052 -0.010887673 0.006734097 -0.02411127 -0.0074196723 -0.013262871 -0.018875355 0.030154724 -0.057106894 0.005888069 -0.01403264 0.050404623 -0.010896975 -0.02045739 0.00802417 -0.022971386 -0.028533481 0.031787954 0.05739567 -0.007449262 0.047020562 -0.018408418
211 0.00022114979 -0.04349034 -0.000593169 0.011568253 0.0055135703 -0.0052130986 -0.00036328257 -0.0036256912 0.05443537 -0.035217743 0.007383781 0.0044517904 0.013317028 -0.0036329157 -0.012003511 0.014698759 -0.025620379 -0.043760102 -0.02156542 0.0214079 -0.0054000583 0.012055916 0.023785418 -0.015218646 0.02978262 0.0015355616 0.0053252657 0.021485554 0.050543766 -0.0048065055 0.014184925 -0.023221783 -0.007586117 -0.029552821 -0.023841247 0.023095846 -0.039408788 0.009810284 0.0014075331 0.041213736 0.0072854725 -0.024402507 0.00701613 -0.03271811 -0.020814117 0.023868578 0.04364338 0.0076458193 0.032809068 -0.017463407
184 -0.009023956 -0.06701469 -0.016834406 0.009955805 0.014024652 0.003957187 0.008756588 -0.0019242591 0.06601176 -0.036007106 0.011050622 0.0098578185 0.004049729 0.0044361986 -0.023153618 0.019091412 -0.029449616 -0.05499397 -0.030274943 0.018234579 0.005316006 0.023247262 0.018645274 -0.0063788183 0.047493007 0.018043675 0.0026136104 0.04807201 0.06609649 -0.013880715 0.017290888 -0.025191365 -0.011543449 -0.019660082 -0.035681777 0.0152856205 -0.05242086 0.0075691426 -0.0036847529 0.06818725 -0.008032154 -0.03184642 0.014849377 -0.042086147 -0.022876505 0.036113635 0.06401985 -0.006627553 0.05438948 -0.015272669
7 0.009372591 -0.06267954 -0.0024922243 0.013336948 0.01722519 -0.011311691 0.011594884 -0.0183383 0.03655149 -0.022273764 -0.0027382565 0.0006844697 0.0054387064 0.0011222691 -0.008285721 0.014825291 -0.026688546 -0.031375546 -0.023423316 0.013396022 -0.0023073577 0.012561664 0.026566962 -0.003081037 0.038562745 0.011120498 -0.005194635 0.02440033 0.05610886 -0.013113143 0.01048995 -0.02585313 -0.0043862322 -0.030652612 -0.029383166 0.011375916 -0.046358038 0.011264471 -0.0032010125 0.04061299 -0.005040928 -0.02596142 0.015667267 -0.019780088 -0.0270226 0.039836273 0.043162365 0.0067018867 0.033079125 -0.011735729
346 -0.0073331175 -0.06447764 -0.0011558353 0.010240651 0.018364597 0.0029860581 -0.0006274056 -0.008171941 0.06007883 -0.032740008 0.008444134 0.013464761 0.00944438 -0.009664912 -0.0052927244 0.005492428 -0.034379896 -0.050595775 -0.03502207 0.014772995 0.00880875 0.013368301 0.025099907 -0.007904227 0.0268408 0.014345551 0.00973857 0.028604222 0.0573096 -0.0047746794 0.009171683 -0.023129953 0.0014303563 -0.032523267 -0.021653604 0.024748303 -0.043453548 0.0017996437 -0.001657724 0.047101744 -0.0023694977 -0.02318096 0.022397177 -0.032424014 -0.021586189 0.025194807 0.040602397 0.0020506645 0.045342047 -0.021879528
14 -0.010420834 -0.046203773 -0.0045792754 0.00059394527 0.017162608 0.00625405 0.0028801116 -0.010825739 0.03794987 -0.035347924 0.010894655 -0.0026424252 -0.0032533524 -0.0010656836 -0.008689464 0.01844528 -0.032060534 -0.0323877 -0.014652111 0.009700416 0.009777304 0.010053321 0.024589306 -0.00029569925 0.030160876 0.014988437 -0.004940586 0.026434662 0.05110048 0.00081965135 0.00071446825 -0.007981266 -0.013509937 -0.021113664 -0.021243231 0.025249027 -0.05056483 0.0017138467 -0.01750519 0.052188363 0.0037821953 -0.025936946 0.020724727 -0.036133744 -0.02783153 0.018500477 0.039229173 -0.0044426746 0.029227328 -0.012407018
94 -0.0066554984 -0.06515387 0.0007147489 0.011610206 0.009565502 -0.012736918 0.00095052447 -0.0057144696 0.052932467 -0.028553037 0.0018288551 -0.00024990528 0.011592009 -0.002729021 -0.0064745108 0.024148863 -0.038165487 -0.04498278 -0.025876416 0.01766464 0.008174861 0.0008836626 0.016227383 -0.0015669932 0.03643102 0.006162498 -0.0017584502 0.03018423 0.050965063 -0.0015812783 0.005935026 -0.017695928 -0.00025401704 -0.030747782 -0.023297053 0.019923747 -0.040972833 0.020785784 -0.0020986423 0.048481174 -0.008386656 -0.019850312 0.007639867 -0.018990966 -0.02464867 0.0338939 0.042949136 0.0088111805 0.034081645 -0.008818107
93 0.0032133881 -0.048003178 -0.015918316 0.001661628 0.008584435 -0.0026144362 0.008838608 -0.0067588463 0.05342404 -0.032082863 0.008859094 0.011120062 0.0026661304 -0.0009224587 -0.0010253312 0.018531088 -0.027494885 -0.030371765 -0.015107508 0.020680843 -0.0054853074 0.0016122166 0.015927397 0.0024100181 0.016881637 0.01262879 0.00693822 0.037126165 0.04662897 0.0038811709 0.017319974 -0.018541245 -0.008460452 -0.018869402 -0.022394186 0.02688994 -0.050884694 -0.0017218796 -0.0035499108 0.04442977 0.00045772665 -0.02870056 0.012210388 -0.020474518 -0.028732566 0.02099893 0.04807575 -0.003032366 0.028912747 -0.008601781
231 0.0054156194 -0.048561696 0.001815462 -0.0027222126 0.008408508 0.0020776528 -0.004754643 -0.008933989 0.05376401 -0.02703214 0.0067148637 0.0149391005 0.0028683005 0.0010538935 -0.011573024 0.015241141 -0.028571932 -0.03744987 -0.026188146 0.013960468 0.0011687956 0.019800888 0.025712531 -0.010696872 0.023655126 0.002219745 0.0041306773 0.03245421 0.046544254 -0.01481843 0.0026944391 -0.019375306 -0.0007715616 -0.021928197 -0.029426022 0.022182843 -0.045720853 0.012554247 -0.014640388 0.0579169 -0.004314283 -0.028284656 0.019841399 -0.022416249 -0.02567133 0.036657054 0.038599003 -0.009341938 0.045821007 -0.010152142
13 0.0008666591 -0.049430914 0.0038329193 -0.00075088884 0.014605388 0.004378059 0.0016469922 -0.013851076 0.047708746 -0.0332638 -0.002151837 -0.0017272187 0.012022794 -0.007266859 -0.0056037316 0.0071082013 -0.024082739 -0.041151613 -0.01894245 0.020328475 -0.0077732974 0.0026056052 0.014160173 -0.007589268 0.025248304 -0.0041942955 0.012022634 0.02923068 0.0418208 -0.011014117 0.014277809 -0.020294122 -0.008983711 -0.025625762 -0.018723404 0.013346497 -0.030986605 0.013015953 -0.012016349 0.035921708 0.006722641 -0.016052995 0.010534106 -0.0239711 -0.020576794 0.023046903 0.04385945 0.0072437655 0.04565895 -0.021550074
68 -0.0061163097 -0.065779544 -0.014464486 -0.00075588044 0.011179699 -0.0015604538 -0.004801894 -0.019316602 0.061497066 -0.044411235 -0.008382012 0.019185076 0.014839497 0.0052579814 -0.017394707 0.02238051 -0.04134443 -0.043700073 -0.037523624 0.026329016 -0.0023026883 0.0077170297 0.020252496 -0.005052949 0.036190324 0.013066388 0.009698368 0.03126186 0.04428988 -0.0042522303 -0.0031703855 -0.033511993 -0.017909834 -0.020575736 -0.03169519 0.028032577 -0.04489683 0.01297499 -0.01794684 0.055371754 -0.0011699382 -0.016671015 0.009983695 -0.02604036 -0.019208761 0.041231785 0.035174977 0.005420288 0.05282888 -0.006952906
273 0.009712548 -0.06438069 -0.010554918 -0.007336188 0.015545324 -0.0048037753 0.0033064203 -0.004956486 0.059406273 -0.04091746 0.0004425214 0.0007619309 0.009664157 0.0027386558 -0.015388373 0.0074984147 -0.029427638 -0.035660245 -0.01798097 0.02617936 -0.004563593 0.0007040905 0.01834781 -0.018355032 0.024461122 -0.00065503333 0.009108893 0.03200838 0.059650507 -0.0143462 0.012876446 -0.019478464 -0.010249714 -0.019947931 -0.029959707 0.03165838 -0.04871046 0.011097244 -0.016381761 0.042879514 -0.0049636033 -0.014023211 0.0057062684 -0.019143516 -0.016378786 0.026043748 0.0440241 -0.00082801183 0.039919846 -0.023194063
150 -0.0068675703 -0.06664184 -0.0168779 0.014846822 0.02332869 -0.010913852 0.007882069 -0.0020330031 0.059968058 -0.03668606 -0.0035128149 8.962718e-06 0.0033679346 -0.0043239533 -0.010376613 0.012182381 -0.037445106 -0.047256522 -0.02929318 0.02719381 -0.0032818692 0.01756541 0.027477963 -0.009719353 0.034620684 0.010543154 0.011534839 0.049539104 0.06805904 -0.01043203 0.007950855 -0.020658148 -0.00047298148 -0.023675019 -0.026081212 0.019238392 -0.06463294 0.0021020265 -0.0059863925 0.06559451 -0.011905899 -0.026860809 0.02648623 -0.022096606 -0.020638665 0.03612587 0.063909665 -0.010401562 0.041232713 -0.016076442
226 -0.0033418967 -0.057989653 -0.004970545 0.003870347 0.009048891 -0.01029301 -0.0058430713 -0.0037648329 0.05143851 -0.026041364 -0.00015058418 0.0094636055 0.002536137 -0.006769453 0.00022010093 0.0041532125 -0.03201203 -0.03666965 -0.03225257 0.022262333 0.0042929347 0.0003702653 0.023527049 -0.0019202135 0.032332957 -0.0019372267 -0.00076163944 0.04322044 0.043737244 -0.013075812 0.002130092 -0.019326838 0.0005226454 -0.025002722 -0.018648887 0.023958014 -0.035593957 0.010696263 -0.0011962152 0.056031924 -0.012008072 -0.019459939 0.014501252 -0.03423012 -0.030135635 0.020859875 0.052485 -0.013587427 0.033805896 -0.016527852
6 -0.006879802 -0.05407129 -0.009634778 0.012256358 0.025117623 0.007611631 9.53571e-05 -0.0139504755 0.051840857 -0.02775556 -0.007903164 0.003239099 0.008882699 -0.003009142 -0.014310799 0.010881789 -0.04283834 -0.030216448 -0.028091721 0.014671574 0.00070320116 0.022098737 0.010381584 -0.007993542 0.036613442 0.017335383 0.016176064 0.044987757 0.04675429 -0.013169437 0.018549806 -0.008608911 -0.0050229593 -0.026125364 -0.024233969 0.026500467 -0.05137597 0.0023325128 -0.01251762 0.065369576 0.0030327912 -0.012765149 0.0072613014 -0.031205667 -0.017725518 0.03587206 0.04614295 -0.014858061 0.05464953 -0.010042421
144 -0.0047806124 -0.043517128 -0.0026840542 0.008914238 0.013920209 0.002982624 -0.0020415944 -0.0074361777 0.035310745 -0.027311413 -0.0010597239 0.014481632 0.007455808 0.0049027656 -0.017491499 0.005809408 -0.024585264 -0.035705905 -0.024934577 0.007702866 -0.005457298 0.018424423 0.011664296 -0.0016522064 0.026497819 -0.0014182674 -0.0021906109 0.025309619 0.054661557 -0.009587807 0.01274418 -0.021630028 -0.0033053542 -0.024273893 -0.016206924 0.021388207 -0.03554027 0.0096702445 -0.0025223892 0.03889838 -0.009134947 -0.020215591 0.010214382 -0.025666289 -0.026650954 0.03328986 0.05297762 -0.004947023 0.03478539 -0.008779137
48 -0.008411448 -0.060965333 -0.012861248 0.0072293635 0.025308114 0.0038855337 -0.004540592 -0.0059593525 0.050769944 -0.021673007 0.0024014802 -0.0013158699 0.0128910495 -0.0074594677 -0.016768511 0.011695454 -0.01882723 -0.02904342 -0.019054113 0.021946087 -0.0001875991 0.0055038505 0.0071194773 -0.009193162 0.031784896 0.011948696 0.0032411155 0.02567358 0.052611675 -0.015333107 -0.0014587033 -0.023534026 -0.0044823536 -0.027089218 -0.0101687135 0.025173554 -0.05167876 0.018175935 -0.017598337 0.052577 -0.008113438 -0.01682117 0.020287976 -0.023163533 -0.016504584 0.02814727 0.04778919 -0.0011793446 0.048160043 -0.018172124
17 -0.0030842214 -0.058717526 -0.0034731473 -0.0023081438 0.025303949 -0.0018935027 0.00886318 -0.020678464 0.05673252 -0.035059605 0.002071975 0.0031482961 0.014189225 0.0011969779 -0.0073009324 0.019331533 -0.03665565 -0.03823159 -0.031994604 0.012805188 -0.0055144844 0.0019284075 0.024222318 -0.0079649035 0.03357048 -0.00014676721 -0.0042656194 0.043190397 0.056865342 -0.010593666 0.016604574 -0.009447883 -0.0031141012 -0.025603168 -0.021269932 0.016396582 -0.037747297 0.015858257 -0.0016930315 0.047082085 -0.010968155 -0.024805488 0.006653762 -0.025222695 -0.031944953 0.024992405 0.056111876 -0.008410002 0.04177056 -0.019837406
173 0.002253999 -0.06704339 -0.01263071 0.004889986 0.027758569 -0.013851596 0.012574202 -0.003529318 0.058145653 -0.026494015 -0.006893547 0.004176905 0.0065739206 -0.0115092 -0.019570155 0.0064037195 -0.044393815 -0.052298635 -0.029010309 0.014675674 0.000867561 0.017257629 0.019875253 -0.0033793913 0.033910066 0.005145046 0.007927141 0.043541186 0.06340717 -0.012581753 0.0150769735 -0.020628154 0.0013531359 -0.022873182 -0.026793037 0.0325453 -0.051584654 0.008016501 -0.0066123256 0.05654352 -0.013678868 -0.02323815 0.018777292 -0.023868715 -0.036118116 0.03688539 0.0636125 0.0066440245 0.052536007 -0.027719816
171 0.010163012 -0.06978991 -0.018856376 -0.0012820537 0.01107205 -0.0033363218 0.006969887 -0.0048373803 0.06125717 -0.037110854 -0.008507694 0.010855208 -0.0060329847 -0.008760129 -0.0056043253 0.019665007 -0.043168675 -0.044851087 -0.037547044 0.027935307 0.008014592 0.019209472 0.028985735 -0.02192448 0.038145848 0.015344017 0.0043973336 0.036169395 0.054412972 -0.016205143 0.0019252829 -0.03346092 -0.0058300896 -0.033482403 -0.032899734 0.031467926 -0.065210365 0.022194967 -0.0143337585 0.07262339 0.0065025087 -0.02974731 0.011692525 -0.031161964 -0.029661724 0.03437675 0.055193506 -0.005849645 0.046484552 -0.018571991
149 -0.0057737245 -0.048001535 0.00494152 -0.0039453986 0.008174254 -0.013392585 -0.006301865 -0.0029558835 0.05242492 -0.037738197 -0.0045916685 0.0063217813 0.012575385 -0.005942183 -0.011244159 0.020749016 -0.024010072 -0.043528285 -0.01425666 0.023444314 0.002455021 0.014172092 0.014431658 0.0013822065 0.031958327 0.001921579 0.004058505 0.033430055 0.0555838 -0.004651164 0.015722627 -0.015652282 -0.0017084529 -0.028496841 -0.014615763 0.012690323 -0.04703344 0.005100275 -0.013112035 0.054914683 -0.0015253449 -0.027967378 0.005784296 -0.027534293 -0.030886954 0.036262464 0.039709028 -0.013382956 0.038072605 -0.0040982976
253 -0.0053081578 -0.060145695 -0.018838689 0.0012616994 0.015780073 -0.011479161 0.009800826 -0.011886309 0.052916247 -0.04131883 0.0071019493 0.01678442 -0.0043852446 -0.007989644 -0.017254476 0.015534497 -0.025229692 -0.036269896 -0.035745475 0.029505793 -0.0009471574 0.022834592 0.013157767 -0.022261208 0.03056393 -0.0024351405 0.0032834492 0.05038753 0.04272199 -0.007587536 -0.005309471 -0.033496134 -0.004351588 -0.019924087 -0.026520943 0.018292043 -0.055480745 0.0131279975 0.0025200378 0.055903062 0.0057166894 -0.017241735 0.008994419 -0.039956532 -0.018586665 0.032400317 0.04862545 -0.015509272 0.059596136 -0.021610977
92 -0.0016172081 -0.06093334 -0.016616095 0.0070257504 0.014454784 0.004388952 -0.001496918 -0.013206588 0.057089586 -0.027362136 0.01141056 0.013895449 0.007656542 0.0067442665 -0.014619941 0.01974274 -0.028504154 -0.037611417 -0.021087393 0.020059153 0.00010769199 0.0023415037 0.022499254 -0.018504476 0.034670364 0.009184706 -0.0026207059 0.03899311 0.05494992 -0.013488453 0.00797798 -0.016380439 0.0012898477 -0.023456851 -0.012237114 0.019712608 -0.044291493 0.013644666 -0.012344568 0.062069904 -0.004407076 -0.029423371 0.019713484 -0.016612979 -0.013556235 0.03169936 0.04368725 0.0025103537 0.048856962 -0.017432066
4 -0.00070323894 -0.06743278 -0.011254488 -0.006631953 0.016413528 -0.00648461 -0.0013191209 -0.02318185 0.055172537 -0.030820677 0.010428207 0.012648144 -0.0042113266 -0.008308551 -0.015682159 0.008024585 -0.025075372 -0.047538426 -0.035491724 0.022096168 -0.004087747 0.007528605 0.017974896 -0.013163465 0.03852999 0.011381939 0.0024971187 0.033461384 0.05825196 -0.0132757565 -0.0006148807 -0.01719561 -0.014114371 -0.031178817 -0.032947093 0.028289443 -0.06622462 0.008288267 -0.017759178 0.06536953 0.0016065281 -0.024412211 0.02237992 -0.026075358 -0.023315111 0.03939832 0.045376934 -0.00945318 0.0578245 -0.008203209
218 0.006791622 -0.062619746 -0.0088331355 -0.006801719 0.013694603 -0.013013123 0.0025177565 -0.006522849 0.056966804 -0.026755704 0.0016993447 -0.0015908551 0.0024601826 -0.010232189 -0.014082267 0.020191135 -0.018891975 -0.0451732 -0.024196982 0.014065275 0.00740215 0.011845201 0.0118038915 -0.0036096044 0.029711897 -0.00046301773 0.007430203 0.032671325 0.048920933 0.0009552677 0.0089626275 -0.029031977 -0.0009841366 -0.013239096 -0.025562443 0.017658422 -0.042503674 0.009011771 -0.01136762 0.050786447 0.0045571052 -0.026949774 0.008751478 -0.030772353 -0.016594224 0.039127085 0.049030427 -0.0012640057 0.03974522 -0.0058776424
1 -0.00697941 -0.05246578 -0.009031061 0.015641116 0.021961872 -0.014427468 -0.0012945749 -0.014643658 0.046473995 -0.023317214 0.004446911 -0.0027176691 0.0074908766 -0.01104516 -0.0071807997 0.023383893 -0.035487816 -0.03677771 -0.025145609 0.0224072 -0.00023463878 0.0016570722 0.010098086 -0.008529671 0.031013949 0.006520154 0.010872944 0.03160624 0.041520737 0.003913989 0.0033719456 -0.028398532 0.0015783056 -0.012182474 -0.017053403 0.012109761 -0.048811276 0.005315218 -0.009323122 0.05486171 -0.008281273 -0.03134204 0.01727004 -0.0226147 -0.018633503 0.037250437 0.055670466 0.006189618 0.03803564 -0.008009273
62 0.009253927 -0.045941528 -0.008797834 0.014998937 0.018078353 -0.0093297 0.009418598 -0.015606582 0.05450724 -0.021971451 0.009550908 0.0066240844 0.0121994885 -0.00899713 -0.006498638 0.014256342 -0.03536624 -0.038992546 -0.023818105 0.011530768 -0.0018706331 0.009294901 0.025740428 -0.016044633 0.02857734 0.0043102526 -0.0015723839 0.036881853 0.049943905 -0.0076908376 0.0027766624 -0.02292756 -0.011865057 -0.011739197 -0.029267054 0.0109107345 -0.04376603 0.0061266967 -0.0012587648 0.054773685 -0.0038477518 -0.023885062 0.011675247 -0.030401627 -0.009972236 0.026834758 0.039388537 0.0007608042 0.04201859 -0.019564727
24 -0.0065048896 -0.06766378 -0.008594759 0.015809724 0.018205076 -0.00645071 0.009099349 -0.012725382 0.048401352 -0.031982202 0.00074371364 8.290002e-05 0.006581388 -0.008542954 -0.012666692 0.009731126 -0.040379804 -0.030023403 -0.019141747 0.020143516 0.0040358123 0.0054262015 0.022043008 -0.004305764 0.030124085 0.00080813054 0.006662951 0.030732587 0.058974206 -0.0012001137 -0.00057609275 -0.024807464 -0.0065312306 -0.02952011 -0.018619353 0.015823416 -0.045259755 0.013145607 -0.0005357635 0.06025323 -0.010594647 -0.022404501 0.005060545 -0.025973018 -0.014091473 0.03993793 0.047344774 0.006101297 0.045102224 -0.006280559
72 0.0034470747 -0.054763664 -0.0143413115 0.009790646 0.008563787 -0.009254645 -0.002479673 -0.0045131445 0.03652722 -0.029631255 0.008578659 0.00083597755 -0.006726117 -0.011820769 -0.0052507594 0.017938685 -0.030175196 -0.03613278 -0.024687218 0.005730674 0.009640851 0.018980231 0.016170893 -0.015273062 0.02270143 -0.003870769 0.0016511672 0.021978866 0.046500094 -0.014975085 0.013450086 -0.013002543 -0.007094026 -0.026023826 -0.01591159 0.028208911 -0.047612634 0.0023029342 -0.008118983 0.039439615 0.0005146825 -0.025891691 0.010134948 -0.030924123 -0.011022495 0.020892538 0.04713319 0.00508216 0.03301493 -0.014200321
42 -0.010692567 -0.05645698 -0.00027197626 0.022494335 0.028770225 0.009095363 0.020174969 -0.024477456 0.043607198 -0.018064864 -0.0078010745 -0.003252422 -0.0028267284 -0.016395679 -0.0037870554 0.027226651 -0.01796685 -0.040957056 -0.02403995 0.020627644 -0.0075342082 0.025262645 0.014061395 0.006045929 0.03789269 -0.0035721716 -0.0024283966 0.026469447 0.059990317 0.0012631279 0.0065172105 -0.030344957 -0.012123715 -0.03294273 -0.03836056 0.024682038 -0.042563677 0.028236471 -0.0005287954 0.055334408 -0.00081242615 -0.027499033 0.026329527 -0.02476254 -0.030060345 0.029720103 0.037374564 -0.0005692675 0.033488337 -0.014311916
33 0.0049757394 -0.058775984 -0.008099517 0.024820551 0.010552429 0.0010108501 0.015266624 -0.022227399 0.04983911 -0.027616799 0.007956708 0.016802179 0.0067774905 -0.011024317 -0.014081551 0.027351808 -0.025457244 -0.053403232 -0.040945817 0.024557924 0.00024339305 0.01368437 0.0102358125 -0.0010647691 0.044127412 0.011034315 0.01068551 0.02710432 0.06491748 0.0074101826 0.014658855 -0.028999923 -0.013269831 -0.018437857 -0.030631006 0.032900773 -0.045021575 0.027345892 0.0012149566 0.055296417 -0.013956489 -0.019906893 0.028441282 -0.0228002 -0.014750664 0.03298942 0.038434453 0.0024949661 0.03438414 -0.00867318
28 -0.008841226 -0.04501453 -0.008387274 0.0007038765 0.018404568 0.000717852 -0.004082742 -0.007852699 0.03404313 -0.031053185 -0.004609025 0.002115875 0.013443482 -0.005616591 -0.0010504993 0.017034505 -0.02676684 -0.03623804 -0.015745595 0.013930535 0.0005551365 0.00042660238 0.01950197 -7.730426e-05 0.021914335 -0.0018137236 -0.004368316 0.028072812 0.05098465 0.002353699 0.01316697 -0.014252107 -0.006270419 -0.02169527 -0.008579936 0.0147184385 -0.043548886 0.015602199 -0.0061963014 0.049227152 -0.0026048785 -0.020346047 0.019329315 -0.020806441 -0.02223494 0.017841168 0.04767996 -0.01161914 0.04367375 -0.0021907368
141 -0.002460436 -0.052476022 -0.0042127464 -0.00444798 0.01926412 -0.01170136 0.0037361053 -0.014626633 0.04864814 -0.034723062 -0.0017103272 0.0040675513 0.011043299 -0.006619583 -0.013697795 0.0033261308 -0.020741923 -0.045214925 -0.019044578 0.006346538 0.002580152 0.01064492 0.025429646 -0.0046316264 0.030244268 -0.0030356233 -0.0027132276 0.025358701 0.053869627 0.0042613377 -0.0040277266 -0.02168338 -0.0020857672 -0.021654023 -0.021424558 0.009699852 -0.04988716 0.009622112 -0.014713945 0.056320347 -0.0065181414 -0.026708705 0.021409454 -0.03309401 -0.025507605 0.020062098 0.048193324 -0.010626575 0.047848932 -0.0072687734
158 0.0025433735 -0.04023697 0.00045516275 -0.0016754566 0.010065001 -0.014072223 0.00817652 -0.005048119 0.03462716 -0.035837285 -0.0048373947 0.0043303804 0.00048070494 0.0010858058 -0.008501654 0.00733783 -0.027086515 -0.030082678 -0.03079833 0.021629792 -0.009373595 0.015031195 0.024001399 -0.017524976 0.03206829 0.013975361 0.006520345 0.03379011 0.049140044 -0.011598956 0.0073251566 -0.012132206 0.0011139892 -0.013952956 -0.017260892 0.019019375 -0.05121079 0.013639048 -0.01650944 0.05552722 -0.005642611 -0.016147774 0.01628837 -0.032657426 -0.012345264 0.023458673 0.043332476 -0.0024499986 0.043928757 -0.01839009
232 0.0003277906 -0.03717585 0.0027452381 -0.0032273587 0.022149233 -0.004824479 0.00058551884 -0.015850944 0.03305206 -0.020865109 0.0052942676 0.015486106 -0.0018549555 0.007082649 -0.014108323 0.016648624 -0.020270038 -0.032643314 -0.020110354 0.009584407 0.0012501685 0.017940307 0.01646661 -0.0055585694 0.017653415 -0.0017875396 -0.004451293 0.026266456 0.042666048 -0.002284449 0.0028411625 -0.014095383 0.00028893485 -0.01994293 -0.019231556 0.014130651 -0.04554363 0.010903224 -0.015811492 0.041732147 -0.0014195003 -0.025167948 0.007137279 -0.023298522 -0.014459723 0.028651731 0.0389784 -0.0035863684 0.03933552 -0.01922872
95 0.0043750377 -0.06372564 -0.01087874 0.014375443 0.023404706 0.00079067517 -0.0033264407 -0.0023256626 0.046678804 -0.027996255 0.01017782 0.0012645207 0.008795808 -0.0115290405 -0.009956671 0.011706111 -0.027270084 -0.044219136 -0.037044823 0.012554461 0.011309421 0.02206654 0.01851593 -0.009281348 0.046296764 0.006248401 0.0029792762 0.028222483 0.05127777 -0.009111132 0.0043244036 -0.008137539 0.00030779684 -0.02892511 -0.028695948 0.029288888 -0.054982938 0.0007969762 -0.011829693 0.053680934 -0.010865656 -0.020169338 0.0069821216 -0.022169586 -0.02232721 0.039404918 0.051507693 -0.001204801 0.039971877 -0.020209838
308 0.008162989 -0.047942992 -0.010709132 0.0012966779 0.014912111 0.0044223447 0.008725884 -0.0028323405 0.04990565 -0.027953975 0.0057509 0.0017110589 -0.0039756848 -0.0017398777 -0.0078113866 0.0043682377 -0.031129634 -0.02604141 -0.028061194 0.016246527 -0.007933538 0.008445481 0.021752741 -0.016262852 0.031475183 0.009978238 0.01197933 0.028540175 0.03680837 0.00057269284 0.012387162 -0.014242645 -0.007595477 -0.017262423 -0.013637065 0.022562245 -0.0501885 0.016549574 -0.009054671 0.039495897 0.00091451907 -0.026968736 0.015755048 -0.020949868 -0.01724136 0.02618434 0.04619155 -0.0043418016 0.042261634 -0.01846253
130 -0.0048886915 -0.06055571 -0.017070826 0.010315289 0.01922212 -0.01155837 0.005365361 -0.014971845 0.05061907 -0.032885592 -0.00022742554 0.01034564 -0.002524556 0.001042688 -0.016206404 0.011489189 -0.040622562 -0.050729364 -0.021655263 0.024938824 -0.0009381595 0.021005405 0.025806252 -0.014534377 0.02796907 0.01571695 -0.0019522035 0.029059384 0.057342082 -0.008766416 0.013752193 -0.025972 0.002347858 -0.019374456 -0.023494713 0.03274929 -0.062028453 0.013322095 -0.0069267866 0.06769435 -0.0033626454 -0.029526545 0.016626012 -0.03456365 -0.0152953295 0.025359174 0.05700302 0.0066070356 0.036935367 -0.025564756
302 -0.0038188808 -0.045901973 -0.012414093 0.008693875 0.023360917 0.0031215015 -0.003803293 -0.0034242524 0.050285526 -0.028365714 0.0030485762 0.0041372254 0.008355727 -0.00877528 -0.017871639 0.022443945 -0.032751884 -0.037301116 -0.021167705 0.00857073 0.0076891272 0.014519811 0.01145953 0.0014632149 0.035416845 -0.0022490956 0.007554461 0.037533 0.05821299 -0.0011522671 0.0082089165 -0.014549138 0.0030852424 -0.015622047 -0.03033965 0.015969716 -0.037960522 0.003746257 -0.011334066 0.0461252 -0.009240766 -0.019039294 0.004685754 -0.03154069 -0.0141650345 0.03384832 0.053170662 -0.004728233 0.043996174 -0.019001903
197 0.004656608 -0.075655766 -0.00044364444 0.015261398 0.024001997 -0.002621893 0.0006820486 -0.017842067 0.056692876 -0.03379565 0.0026591818 0.0033804898 -0.005900527 0.0066350074 -0.017177222 0.0076655685 -0.03599402 -0.051338617 -0.028679015 0.00892073 0.0008618668 0.0046183798 0.027208617 -0.013474652 0.040769015 0.007905983 0.016622014 0.041892536 0.06331349 -0.01523105 8.087671e-05 -0.016762579 -0.013978505 -0.016869718 -0.02629026 0.020168427 -0.05278037 0.01058299 -0.01042063 0.06715306 0.00050444156 -0.018673796 0.016352814 -0.027188674 -0.030608503 0.027727839 0.06137408 0.00027381946 0.058794048 -0.01816199
140 -0.004519905 -0.05297674 -0.0030179445 0.011378939 0.011238278 -0.008071657 -0.003671555 -0.00859877 0.03890913 -0.027116977 -0.0055035288 0.0063653695 0.0070835487 0.0022689411 -0.016556684 0.012329981 -0.015583405 -0.03393622 -0.031047266 0.016176173 0.006594734 0.0026544556 0.022028646 -0.003995771 0.029890232 0.010711874 0.0003551752 0.028646616 0.04511595 -0.0010591708 0.010870692 -0.016453467 -0.002362203 -0.026810233 -0.016349312 0.018754615 -0.045769427 0.00077141775 -0.0018066043 0.035654217 -0.008500871 -0.024042737 0.020704892 -0.019189622 -0.01059148 0.032370858 0.033247083 0.0065216254 0.043742523 -0.005040571
320 -0.005314353 -0.062297493 -0.004777907 0.0067247716 0.022262726 -0.00029321542 0.00791037 -0.00480084 0.043402724 -0.030009877 -0.0006360087 0.016228491 0.0073323697 -0.0085425675 -0.019656664 0.014575003 -0.024286184 -0.044961605 -0.033653565 0.013585545 0.0071611684 0.019667381 0.010569422 -0.003233465 0.04586837 0.006427763 0.008880494 0.043998264 0.059443016 0.00032099633 0.006779798 -0.018106941 -0.0031160635 -0.017054468 -0.029343536 0.02506344 -0.051439278 0.015537432 -0.013094168 0.05123038 -1.1202857e-05 -0.03348207 0.02037197 -0.0390225 -0.03299495 0.036071908 0.05295076 -0.0007682934 0.0545385 -0.0111518
244 -0.007938375 -0.055319432 -0.0121955145 -0.004559658 0.022798449 -0.009061313 0.015786173 0.0013844118 0.04481878 -0.032907393 -0.000735994 0.0044072536 -0.0010868008 0.0045050476 -0.004248098 0.020735629 -0.03626708 -0.04780256 -0.038954843 0.012857742 0.0068257614 0.024095045 0.011312813 -0.022673197 0.029416317 0.012081782 0.021321166 0.039058033 0.06399876 -0.014742729 0.019002002 -0.015448206 -0.012435849 -0.032842673 -0.013981655 0.03391442 -0.053516522 0.018585004 0.00458445 0.056871537 0.0021118266 -0.013240645 0.020776136 -0.03735947 -0.03390063 0.032803066 0.043593027 -0.003631273 0.042104956 -0.009789458
282 0.0020438286 -0.07043897 -0.013413964 0.004608864 0.02456096 -0.008622303 0.0063342513 -0.0057855397 0.058052488 -0.046187073 -0.010697278 0.019586654 0.009530795 -0.0013665486 -0.017632788 0.024256576 -0.03744571 -0.05151673 -0.033801183 0.01788515 0.011972718 0.025841625 0.013447938 -0.025502425 0.028799638 -0.0016162473 0.016107347 0.04362181 0.04856815 0.004100177 0.005732162 -0.030048223 -0.013673859 -0.037598804 -0.017445277 0.023833105 -0.042618494 0.010879067 0.007686679 0.070586674 -0.0058464394 -0.026813839 0.015654778 -0.02596298 -0.01573168 0.038504362 0.038312394 -0.0114740245 0.04716469 -0.014678644
121 0.001696763 -0.051016487 0.0030704716 0.009833187 0.020996781 -0.003130965 -0.0024919554 -0.008048469 0.054801267 -0.03528798 0.0008046832 0.0076631885 0.0065715415 0.007150339 -0.0034185965 0.015186031 -0.02349593 -0.03176604 -0.03073617 0.01758017 -0.009156515 0.0117999455 0.017527996 -0.004138848 0.0320375 0.0069781183 -0.0037708215 0.023532862 0.047579646 -0.0116588455 0.014138723 -0.02902639 -0.0152291935 -0.02260456 -0.015625779 0.023516206 -0.04093102 0.0043924125 -0.017333176 0.050226327 -0.011433578 -0.02681191 0.0074858107 -0.027889855 -0.0183387 0.023052067 0.049579084 -0.0037366082 0.045875132 -0.0039981115
256 -0.0015729173 -0.07985647 -0.01982393 0.00074465934 0.008735019 -0.005988889 0.016066523 0.004729355 0.06482158 -0.027671907 0.008176963 0.008176707 0.0003302276 0.0070535345 -0.014335988 0.004234743 -0.038444433 -0.04827354 -0.021197468 0.0015382504 -0.001870742 0.01150344 0.022689575 -0.030513618 0.024242878 0.01647732 0.01605006 0.028235218 0.071715884 0.004674464 0.017908791 -0.012144973 -0.021758988 -0.04667071 -0.0053635654 0.03268438 -0.06173599 0.008722883 -0.0007215604 0.06500009 -0.0076187644 -0.03588616 0.01449864 -0.030669881 -0.01943222 0.03756923 0.036430474 -0.007377545 0.06119491 -0.009755956
233 -0.012679751 -0.0787042 -0.0142960455 0.0038496729 0.006432415 0.0065474557 -0.00020382031 0.0001734653 0.06610551 -0.026572408 0.013289153 0.0026826335 -0.0073303697 0.005912312 -0.0023625263 0.02501361 -0.03490184 -0.0577329 -0.017492913 0.0068128407 0.0108251935 0.006079797 0.030215476 -0.02880917 0.04370581 0.025528649 0.022685405 0.0415236 0.06710121 0.0018519439 0.016392563 -0.011471886 -0.01250621 -0.046548977 -0.0063951593 0.028604193 -0.061972883 0.02428034 -0.0004917762 0.07286203 -0.009990227 -0.039302457 0.024130713 -0.03106114 -0.029185114 0.043044783 0.04528882 -0.004121774 0.06055762 -0.024753824
328 0.0027975966 -0.06762123 -0.018989991 -0.0071064965 0.0273238 -0.013353478 0.0040102615 -0.018663608 0.059257492 -0.030580146 0.0071370476 0.012503413 -0.0035099518 -0.013689677 -0.02189332 0.018177781 -0.02696612 -0.041699674 -0.02182323 0.026375914 -0.005696419 0.015230642 0.0130974045 -0.009955644 0.031895306 -0.0018074253 0.016277503 0.0472951 0.056934755 -0.0019418863 0.014905075 -0.02144737 -0.01078822 -0.025588483 -0.03407488 0.014922162 -0.0571007 0.018096449 -0.011174556 0.046020545 -0.0032707693 -0.01464166 0.022819178 -0.02528492 -0.019913206 0.04216358 0.05534342 -0.011830732 0.05421175 -0.02241936
331 -0.0068725264 -0.04858878 -0.0022886002 0.012951343 0.0141919 -0.008424172 0.008278821 -0.010870279 0.034756865 -0.034163527 0.006579108 0.010312793 0.01294555 -0.0038049684 0.0006490822 0.014785808 -0.023663994 -0.034722984 -0.026786452 0.014034963 -0.009179762 0.001164044 0.025214229 -0.009092048 0.024243841 -0.0042682085 0.0064312057 0.036336303 0.04727297 0.0018764195 -0.0046368414 -0.014626732 -0.013447472 -0.02898416 -0.020273108 0.017691247 -0.047945395 0.0046709096 -0.010516232 0.049531456 -0.00080582115 -0.015075813 0.0055732527 -0.026220921 -0.013270432 0.027884785 0.029698348 -0.011917579 0.040119145 -0.0029490602
104 0.008109306 -0.05212675 0.0035296853 0.0007192383 0.01390036 -0.0142459525 0.009397971 -0.0020087769 0.048905477 -0.025669487 0.004096305 0.0030679256 0.003002353 -0.002161741 0.000187872 0.009650182 -0.035022244 -0.039147336 -0.032344878 0.020822717 -0.0056547904 0.0078067435 0.019755185 -0.0017351813 0.02802033 0.0003729175 0.0052128225 0.02163922 0.049148694 -0.0034699386 0.004274437 -0.022858536 -0.0032177903 -0.020442098 -0.011725293 0.015223447 -0.041214995 0.0043963967 -0.009817549 0.043594934 -0.0028644742 -0.025422659 0.015150607 -0.030414006 -0.015312742 0.026870534 0.03378275 -0.0010056206 0.032070126 -0.0055500558
174 -0.006881139 -0.048272956 -0.015429976 0.0062001436 0.024386445 0.0026210742 0.011480215 -0.019206524 0.05255283 -0.041679826 0.0018549004 0.0019101524 0.011781383 0.007536787 -0.0067289164 0.011552682 -0.041289322 -0.048127394 -0.02875843 0.009544368 0.005622627 0.0021359834 0.026050957 -0.004810198 0.03573833 0.01671581 0.015630323 0.045584362 0.06063711 -0.011134708 0.004022802 -0.011959874 -0.0011398565 -0.033419997 -0.019456595 0.018266512 -0.05801873 0.020144287 -0.008407661 0.06489102 -0.0047614262 -0.026584271 0.020948203 -0.041419107 -0.017154254 0.042797998 0.059061427 -0.01376074 0.03310937 -0.012513804
2 0.007321105 -0.058539197 0.0020403725 0.010951143 0.014749027 0.0054372726 0.005486838 -0.017163305 0.0344783 -0.02703706 0.0026902754 0.0083340835 0.0037323558 0.0061882795 -0.004931656 0.0026326543 -0.03483339 -0.027666818 -0.02649467 0.0057848045 0.006264182 0.008485301 0.012733656 -0.00914784 0.03204272 -0.0023743212 -0.0030842964 0.03323797 0.048596106 0.0053006434 -0.0028640006 -0.0074610165 0.0008527512 -0.026241403 -0.02250234 0.011523104 -0.047843736 0.0013350246 -0.016818367 0.053276207 -0.0033052457 -0.02830678 0.01249474 -0.029658424 -0.016125916 0.025171755 0.036572523 -0.009420194 0.04152171 -0.018282881
166 0.010281947 -0.07342388 -0.0052578994 -0.00061080535 0.009092943 -4.7105583e-05 0.0015451027 -0.012611732 0.055548698 -0.026129177 -0.0077938647 -0.002012558 0.013689509 -0.0064568403 -0.019633729 0.007527281 -0.048275974 -0.03796197 -0.041874383 0.014955318 -0.0047529535 0.012728427 0.013853135 -0.020168938 0.045163423 -0.0030236694 0.0015070424 0.047807064 0.051698767 -0.018220501 0.0057853605 -0.023999106 0.0023202975 -0.020993393 -0.034096874 0.030793816 -0.06589095 0.0108836675 -0.0008561787 0.05168786 0.0021138769 -0.024973992 0.008461677 -0.040291667 -0.037917458 0.035805576 0.06412326 0.0051008877 0.04858432 -0.015407898
238 0.00026865804 -0.046610646 0.00225993 -0.0029211259 0.020985467 -0.00095479464 0.0100919455 -0.014329651 0.03893592 -0.036589947 0.0027309323 0.011049521 0.0080911955 -0.0036521687 -0.00374726 0.010477548 -0.024283662 -0.031446908 -0.023245303 0.018485598 -0.001620566 0.0028698414 0.0066813505 -0.011292618 0.024094695 -0.0017928333 -0.0022618303 0.032118544 0.038366135 -0.004654766 0.007181232 -0.009368201 -0.012260239 -0.022741856 -0.009305464 0.008176548 -0.04610428 0.011829372 -0.009023842 0.05224797 -0.0045766435 -0.024750132 0.018150793 -0.015261396 -0.017769625 0.030982416 0.037536144 -0.006069748 0.04103469 -0.015600094
225 0.011826534 -0.056495257 0.00048005965 0.0056311004 0.021436429 -0.007997771 0.009611525 -0.006453199 0.049284857 -0.033548724 0.0055286353 -0.00045424356 0.0056577665 -0.0015379431 -0.006902796 0.023399975 -0.04030798 -0.032058597 -0.0371122 0.026542226 0.004527162 0.009477533 0.016226105 -0.019108605 0.035580385 0.013299232 0.014948553 0.03365077 0.040584274 -0.014056879 0.0074502816 -0.028255817 -0.009949221 -0.018702542 -0.013420961 0.021216804 -0.044698082 0.013990848 -0.019190716 0.04888559 0.0010864487 -0.009047861 0.015408574 -0.025782239 -0.015205035 0.03133498 0.040331215 0.0075849593 0.035363767 -0.006106226
182 0.0052684946 -0.06445539 -0.019113263 0.011834994 0.025733672 -0.010422989 0.0034701778 -0.0010134858 0.05589807 -0.03622307 0.007482628 0.008994448 0.001618745 0.006134218 -0.022120887 0.01574095 -0.023256687 -0.049648795 -0.034351584 0.008943806 0.003542267 0.023131795 0.02458103 -0.016017923 0.041712753 0.0076724635 0.014373253 0.048435632 0.042207673 0.0024163504 -0.005492459 -0.030917436 -0.017311936 -0.013247616 -0.013269938 0.027316224 -0.05248348 0.020873364 -0.0024115804 0.06867783 -0.001672641 -0.028666144 0.009782697 -0.020214532 -0.028153209 0.032463387 0.055806592 -0.006504607 0.05639402 -0.006518316
254 -0.0051003187 -0.054663878 -0.013270835 0.014220674 0.010757022 -0.0045760483 -0.0027033896 -0.016401527 0.045068882 -0.03472756 -0.0053233593 0.0008741826 0.0015192967 0.004312958 -0.007008967 0.007704232 -0.035265155 -0.046385515 -0.02592164 0.01600697 -0.00038658205 0.0137873795 0.023802781 -0.011714847 0.03811081 0.0052731726 -0.0032992132 0.024600808 0.04678669 0.0025186362 0.0078052627 -0.023450552 -0.0050822673 -0.026761496 -0.014060418 0.018746022 -0.04548162 0.0069426787 -0.00026096366 0.05815469 -0.004211257 -0.02727702 0.017710349 -0.031009888 -0.024533093 0.03561964 0.04398443 0.007568389 0.03588729 -0.020623777
306 0.0007665825 -0.06985135 -0.016035799 0.0001813816 0.021792293 -0.008251171 0.015500947 -0.022457285 0.05925303 -0.028290227 -0.006847786 0.016596539 0.0030356764 -0.00045741012 -0.019752458 0.02084863 -0.028307581 -0.045689408 -0.023576686 0.020882245 -0.0011353373 0.0048022554 0.010919163 -0.009284512 0.03482625 0.016458089 0.010446423 0.047091093 0.048859708 0.0030849958 0.010843659 -0.01719869 -0.00076019496 -0.020106062 -0.025728282 0.031793207 -0.049220875 0.021511586 -0.0005693914 0.053052116 0.005864912 -0.020995948 0.013065803 -0.027719054 -0.019654568 0.04055001 0.052245703 -0.015149778 0.05335708 -0.020467144
135 -0.0027537267 -0.07082871 -0.006510158 0.014093929 0.022689715 -0.0026246104 0.0037156618 -0.01732912 0.06485747 -0.04491309 0.0018997994 0.0123865465 -0.0030665188 -0.00050680136 -0.018460197 0.011272306 -0.032560486 -0.05199986 -0.038375106 0.024033396 0.00035161566 0.016601853 0.021858571 -0.01447964 0.037093386 0.016544975 0.01624669 0.04874325 0.05290601 -0.01622866 0.01116645 -0.019047262 0.00023680193 -0.02713411 -0.02034728 0.021239255 -0.05897625 0.007953752 -0.015116863 0.056314096 0.0017585907 -0.032444946 0.022580242 -0.030335665 -0.02365585 0.02747784 0.053099167 -1.7343025e-06 0.05480948 -0.023430603
337 0.0035206652 -0.052802894 -0.0028369296 0.012119637 0.017038561 -0.003022635 0.0021042593 -0.01038929 0.043476276 -0.03949448 0.004161515 0.013497515 0.0019116191 -0.0061359527 -0.0013195651 0.020469692 -0.028769528 -0.027515827 -0.033197172 0.011995558 0.0058078845 0.0006386892 0.019146314 -0.008925627 0.024505727 0.012858266 0.004130937 0.028790856 0.04169142 0.00409656 0.006680709 -0.015182715 -0.00027756352 -0.013962223 -0.030095726 0.02222582 -0.05092717 0.0028301755 -0.016495934 0.05722844 0.007280475 -0.022658367 0.0062006437 -0.026947783 -0.014893367 0.029075973 0.053310495 -0.00287618 0.046151355 -0.021619635
57 -0.009798253 -0.05140628 -0.017634623 0.009243249 0.0084084645 -0.014390741 -0.001566788 -0.019600697 0.056845676 -0.034016952 0.011661849 -0.0018141269 0.013526353 0.000853571 -0.0038172007 0.019583007 -0.03148689 -0.037935186 -0.027497856 0.0137101 -0.007333186 0.012583973 0.026302828 -0.0133098755 0.031516034 0.010290051 0.012312692 0.03336746 0.054207683 -0.006715931 0.0056357994 -0.023397187 -0.0021083045 -0.021328064 -0.026417987 0.02591363 -0.042812258 0.009830366 -0.009270905 0.042005017 0.0024820715 -0.030294945 0.0058834213 -0.024949687 -0.019167513 0.038267512 0.047057353 0.004350051 0.042116895 -0.019560445
251 -0.0051535466 -0.06996457 -0.018284071 -0.0008633091 0.015547962 -0.007943778 -0.0043268497 -0.0014345582 0.045626823 -0.028578252 0.0028076777 0.0037439328 -0.006344592 -0.0069112675 -0.012702415 0.020449948 -0.036866214 -0.051851753 -0.023817517 0.0161227 0.0018226666 0.009919111 0.027815122 -0.018457262 0.04863497 0.004911941 0.007837615 0.02905724 0.054251604 -0.0019830316 0.016299793 -0.018940013 -0.009326078 -0.029424144 -0.016423175 0.024799062 -0.05721705 0.011391152 -0.007611733 0.061808128 -0.006451469 -0.03237167 0.018065704 -0.033789143 -0.03518983 0.03723823 0.054154985 0.0070922617 0.04521539 -0.016763935
281 -0.008088375 -0.07434576 -0.00037116304 0.00803765 0.027120717 0.001832292 0.0099742 -0.0061131455 0.06272391 -0.028589994 0.0049326434 0.0155470185 0.00017451365 0.0073091 -0.022720272 0.008988332 -0.028003864 -0.052841008 -0.030334923 0.009115357 0.0026181212 0.0041079107 0.017731203 -0.011421341 0.04905521 0.0050059366 0.01495085 0.039594457 0.06361147 -0.010811233 0.009543452 -0.02906632 -0.00036636545 -0.028470043 -0.024235731 0.025808932 -0.059821375 0.016819436 -0.008653633 0.061958693 0.0028632458 -0.025481 0.01699917 -0.037256163 -0.031319156 0.02953037 0.06382551 0.007852407 0.048348848 -0.02100883
276 0.00452669 -0.052817505 -0.007628703 0.012501174 0.017498398 0.0029052682 -0.0041701016 -0.016268346 0.048467584 -0.026090369 0.007573904 0.0057641394 0.010729235 -0.0045355298 -0.018573131 0.007523249 -0.023291985 -0.04137784 -0.026578177 0.013380016 -0.010084663 0.0070820823 0.022234647 -0.00031330495 0.029768087 -0.0041507785 0.0010313011 0.023376059 0.032812167 -0.00770892 0.0009660002 -0.022191582 0.0029753728 -0.008865818 -0.009121596 0.021267494 -0.04464925 0.015338239 -0.0029036773 0.03478072 -0.0070799734 -0.014029643 0.016682895 -0.03267055 -0.02421699 0.029462693 0.03061025 0.0077387337 0.025163839 -0.008845814
161 -0.0061043645 -0.038943067 -0.007958905 0.011837323 0.0106911585 0.0004052234 0.0021068843 -0.0027154412 0.04127735 -0.019825302 -0.0052551012 0.008843632 -0.0016306653 -0.00021266182 -0.016156662 0.019779027 -0.02986898 -0.02772197 -0.019671489 0.0076063587 0.0073493454 7.132794e-05 0.013362696 -0.0017610004 0.024436446 0.01558535 0.00544354 0.026403723 0.03929095 -0.011975696 0.0018926682 -0.007861131 -0.0063268957 -0.009101594 -0.026685476 0.020651704 -0.046291146 0.013816598 -0.0031541493 0.041652005 -4.847749e-05 -0.017073974 0.01717169 -0.02457081 -0.018438047 0.023589553 0.034044422 -0.0035803567 0.042173732 -0.0019555562
108 -0.0068273265 -0.06724333 -0.0028308854 0.0039652637 0.0066551333 -0.014688452 0.015025287 -0.0168666 0.043545783 -0.03775433 0.0011766917 0.010082067 0.0062811645 0.0073177954 -0.010248842 0.013171359 -0.038998604 -0.032886814 -0.02448467 0.021012738 0.0062935073 0.008613877 0.011806291 -0.01548594 0.03777607 0.010133771 0.010437032 0.0339827 0.0628841 0.00078182557 -6.0168175e-05 -0.0264241 -0.009437419 -0.025198834 -0.020923322 0.013635959 -0.055359002 0.00361028 -0.017713105 0.06577727 -0.0023422586 -0.016833637 0.018169831 -0.027800672 -0.025673708 0.022915544 0.052133657 -0.0018830211 0.043864183 -0.019797543
